\data\
ngram 1=56
ngram 2=378
ngram 3=1955

\1-grams:
-2.6145632	<unk>	0
0	<s>	-2.2253094
-1.312245	</s>	0
-2.4257598	xe	-0.30103
-1.3621668	một	-0.6916708
-1.2467092	tiến	-1.115179
-1.6035247	trước	-0.7220353
-1.6035247	sau	-0.7220353
-1.3621668	hai	-0.6916708
-1.3621668	ba	-0.6916708
-1.2892833	bốn	-0.78414166
-1.2892833	năm	-0.78414166
-1.2892833	sáu	-0.78414166
-1.3621668	bảy	-0.6916708
-1.3621668	tám	-0.6916708
-1.3621668	chín	-0.6916708
-1.2467092	tấn	-1.115179
-1.3621668	bình	-0.99024016
-1.2467092	thoái	-1.115179
-1.2467092	lùi	-1.115179
-1.7700799	trái	-0.6320232
-1.7700799	phải	-0.6320232
-2.4257598	mã	-0.30103
-2.4257598	tượng	-0.30103
-2.4257598	tịnh	-0.30103
-2.4257598	bộ	-0.30103
-2.4257598	sĩ	-0.30103
-2.4257598	tướng	-0.30103
-2.4257598	soái	-0.30103
-2.4257598	tốt	-0.30103
-1.9322482	giữa	-0.5228787
-1.6522735	qua	-0.7781512
-2.294602	sông	-0.30103
-1.6522735	sang	-0.7781512
-2.4257598	binh	-0.30103
-2.4257598	chốt	-0.30103
-2.4257598	pháo	-0.30103
-2.4257598	chấp	-0.30103
-2.294602	nhận	-0.30103
-2.4257598	xác	-0.30103
-2.4257598	đồng	-0.30103
-2.4257598	ý	-0.30103
-2.4257598	ok	-0.30103
-2.4257598	hủy	-0.30103
-2.4257598	bỏ	-0.30103
-2.4257598	từ	-0.30103
-2.4257598	chối	-0.30103
-2.4257598	đầu	-0.30103
-2.4257598	hàng	-0.30103
-2.4257598	xin	-0.30103
-2.4257598	hòa	-0.30103
-2.4257598	đổi	-0.30103
-2.4257598	phe	-0.30103
-2.4257598	chơi	-0.30103
-2.294602	lại	-0.30103
-2.4257598	đi	-0.30103

\2-grams:
-1.1596915	một </s>	0
-1.1596915	hai </s>	0
-1.1596915	ba </s>	0
-1.2521622	bốn </s>	0
-1.2521622	năm </s>	0
-1.2521622	sáu </s>	0
-1.1596915	bảy </s>	0
-1.1596915	tám </s>	0
-1.1596915	chín </s>	0
-0.28036824	sông </s>	0
-0.28036824	nhận </s>	0
-0.28036824	ý </s>	0
-0.28036824	ok </s>	0
-0.28036824	bỏ </s>	0
-0.28036824	chối </s>	0
-0.28036824	hàng </s>	0
-0.28036824	hòa </s>	0
-0.28036824	phe </s>	0
-0.28036824	lại </s>	0
-0.5941043	<s> xe	-1.7187784
-1.3054391	xe một	-0.76839143
-0.94261134	tiến một	-2.253661
-1.1373159	trước một	-1.1931245
-1.1373159	sau một	-1.1931245
-0.94261134	tấn một	-2.253661
-1.003755	bình một	-1.7047224
-0.94261134	thoái một	-1.8532926
-0.94261134	lùi một	-1.8532926
-1.2913332	mã một	-0.30103
-1.2913332	tượng một	-0.30103
-1.2913332	tịnh một	-0.30103
-1.2913332	bộ một	-0.30103
-1.1980214	tốt một	-0.30103
-1.0418755	giữa một	-0.7781512
-1.1980214	binh một	-0.30103
-1.1980214	chốt một	-0.30103
-1.3054391	pháo một	-0.76839143
-1.2509698	xe tiến	-0.30103
-0.72241247	một tiến	-0.8091855
-1.2353755	trước tiến	-0.6255411
-1.2353755	sau tiến	-0.6255411
-0.72241247	hai tiến	-0.8239087
-0.72241247	ba tiến	-0.8782664
-0.7116484	bốn tiến	-0.89905
-0.7116484	năm tiến	-0.8949721
-0.7116484	sáu tiến	-0.89905
-0.72241247	bảy tiến	-0.8782664
-0.72241247	tám tiến	-0.8239087
-0.72241247	chín tiến	-0.8091855
-0.70651716	trái tiến	-0.6255411
-0.70651716	phải tiến	-0.6255411
-1.238503	mã tiến	-0.30103
-1.238503	tượng tiến	-0.30103
-1.238503	tịnh tiến	-0.30103
-1.238503	bộ tiến	-0.30103
-1.132029	sĩ tiến	-0.30103
-1.0417663	tướng tiến	-0.30103
-1.0417663	soái tiến	-0.30103
-1.2509698	pháo tiến	-0.30103
-1.3953886	xe trước	-1.3222193
-1.3781004	mã trước	-0.90309
-1.3781004	tượng trước	-0.6737532
-1.3781004	tịnh trước	-0.6737532
-1.3781004	bộ trước	-0.6737532
-1.2372279	sĩ trước	-0.3467875
-1.2666055	tốt trước	-0.65641767
-1.2666055	binh trước	-0.65641767
-1.2666055	chốt trước	-0.65641767
-1.3953886	pháo trước	-1.3222193
-1.3953886	xe sau	-1.3222193
-1.3781004	mã sau	-0.90309
-1.3781004	tượng sau	-0.6737532
-1.3781004	tịnh sau	-0.6737532
-1.3781004	bộ sau	-0.6737532
-1.2372279	sĩ sau	-0.3467875
-1.2666055	tốt sau	-0.65641767
-1.2666055	binh sau	-0.65641767
-1.2666055	chốt sau	-0.65641767
-1.3953886	pháo sau	-1.3222193
-1.3054391	xe hai	-0.76839143
-0.98816144	tiến hai	-1.8325089
-1.1373159	trước hai	-1.2183604
-1.1373159	sau hai	-1.2183604
-0.98816144	tấn hai	-1.8325089
-1.003755	bình hai	-1.7970366
-0.98816144	thoái hai	-1.8325089
-0.98816144	lùi hai	-1.8325089
-1.2913332	mã hai	-0.30103
-1.2913332	tượng hai	-0.30103
-1.2913332	tịnh hai	-0.30103
-1.2913332	bộ hai	-0.30103
-1.1980214	tốt hai	-0.30103
-1.0418755	giữa hai	-0.90309
-1.1980214	binh hai	-0.30103
-1.1980214	chốt hai	-0.30103
-1.3054391	pháo hai	-0.76839143
-1.3054391	xe ba	-0.76839143
-0.98816144	tiến ba	-1.8808136
-1.1373159	trước ba	-1.2710668
-1.1373159	sau ba	-1.2710668
-0.98816144	tấn ba	-1.8808136
-1.003755	bình ba	-1.7970366
-0.98816144	thoái ba	-1.8808136
-0.98816144	lùi ba	-1.8808136
-1.2913332	mã ba	-0.42596874
-1.2913332	tượng ba	-0.30103
-1.2913332	tịnh ba	-0.30103
-1.2913332	bộ ba	-0.30103
-1.1980214	tốt ba	-0.30103
-1.0418755	giữa ba	-0.90309
-1.1980214	binh ba	-0.30103
-1.1980214	chốt ba	-0.30103
-1.3054391	pháo ba	-0.76839143
-1.271945	xe bốn	-0.76839143
-0.96235836	tiến bốn	-1.90309
-1.0808245	trước bốn	-1.2833012
-1.0808245	sau bốn	-1.2833012
-0.96235836	tấn bốn	-1.90309
-0.9389159	bình bốn	-1.8151348
-0.96235836	thoái bốn	-1.90309
-0.96235836	lùi bốn	-1.90309
-1.2588705	mã bốn	-0.42596874
-1.2588705	tượng bốn	-0.30103
-1.2588705	tịnh bốn	-0.30103
-1.2588705	bộ bốn	-0.30103
-1.1478863	sĩ bốn	-0.30103
-1.0546031	tướng bốn	-0.30103
-1.0546031	soái bốn	-0.30103
-1.171649	tốt bốn	-0.30103
-1.0306351	giữa bốn	-0.90309
-1.171649	binh bốn	-0.30103
-1.171649	chốt bốn	-0.30103
-1.271945	pháo bốn	-0.76839143
-1.271945	xe năm	-0.76839143
-0.96235836	tiến năm	-1.9208188
-1.1284392	trước năm	-1.2710668
-1.1284392	sau năm	-1.2710668
-0.96235836	tấn năm	-1.9208188
-0.9389159	bình năm	-1.8239088
-0.96235836	thoái năm	-1.9208188
-0.96235836	lùi năm	-1.9208188
-1.2588705	mã năm	-0.42596874
-1.2588705	tượng năm	-0.30103
-1.2588705	tịnh năm	-0.30103
-1.2588705	bộ năm	-0.30103
-1.1478863	sĩ năm	-0.30103
-1.0546031	tướng năm	-0.30103
-1.0546031	soái năm	-0.30103
-1.171649	tốt năm	-0.30103
-1.0306351	giữa năm	-0.90309
-1.171649	binh năm	-0.30103
-1.171649	chốt năm	-0.30103
-1.271945	pháo năm	-0.76839143
-1.271945	xe sáu	-0.76839143
-0.96235836	tiến sáu	-1.90309
-1.0808245	trước sáu	-1.2833012
-1.0808245	sau sáu	-1.2833012
-0.96235836	tấn sáu	-1.90309
-0.9389159	bình sáu	-1.8151348
-0.96235836	thoái sáu	-1.90309
-0.96235836	lùi sáu	-1.90309
-1.2588705	mã sáu	-0.42596874
-1.2588705	tượng sáu	-0.30103
-1.2588705	tịnh sáu	-0.30103
-1.2588705	bộ sáu	-0.30103
-1.1478863	sĩ sáu	-0.30103
-1.0546031	tướng sáu	-0.30103
-1.0546031	soái sáu	-0.30103
-1.171649	tốt sáu	-0.30103
-1.0306351	giữa sáu	-0.90309
-1.171649	binh sáu	-0.30103
-1.171649	chốt sáu	-0.30103
-1.271945	pháo sáu	-0.76839143
-1.3054391	xe bảy	-0.76839143
-0.98816144	tiến bảy	-1.8808136
-1.1373159	trước bảy	-1.2710668
-1.1373159	sau bảy	-1.2710668
-0.98816144	tấn bảy	-1.8808136
-1.003755	bình bảy	-1.7970366
-0.98816144	thoái bảy	-1.8808136
-0.98816144	lùi bảy	-1.8808136
-1.2913332	mã bảy	-0.42596874
-1.2913332	tượng bảy	-0.30103
-1.2913332	tịnh bảy	-0.30103
-1.2913332	bộ bảy	-0.30103
-1.1980214	tốt bảy	-0.30103
-1.0418755	giữa bảy	-0.90309
-1.1980214	binh bảy	-0.30103
-1.1980214	chốt bảy	-0.30103
-1.3054391	pháo bảy	-0.76839143
-1.3054391	xe tám	-0.76839143
-0.98816144	tiến tám	-1.8325089
-1.1373159	trước tám	-1.2183604
-1.1373159	sau tám	-1.2183604
-0.98816144	tấn tám	-1.8325089
-1.003755	bình tám	-1.7970366
-0.98816144	thoái tám	-1.8325089
-0.98816144	lùi tám	-1.8325089
-1.2913332	mã tám	-0.30103
-1.2913332	tượng tám	-0.30103
-1.2913332	tịnh tám	-0.30103
-1.2913332	bộ tám	-0.30103
-1.1980214	tốt tám	-0.30103
-1.0418755	giữa tám	-0.90309
-1.1980214	binh tám	-0.30103
-1.1980214	chốt tám	-0.30103
-1.3054391	pháo tám	-0.76839143
-1.3054391	xe chín	-0.76839143
-0.98816144	tiến chín	-1.819544
-1.1373159	trước chín	-1.1931245
-1.1373159	sau chín	-1.1931245
-0.98816144	tấn chín	-1.819544
-1.003755	bình chín	-1.7047224
-0.98816144	thoái chín	-1.819544
-0.98816144	lùi chín	-1.819544
-1.2913332	mã chín	-0.30103
-1.2913332	tượng chín	-0.30103
-1.2913332	tịnh chín	-0.30103
-1.2913332	bộ chín	-0.30103
-1.1980214	tốt chín	-0.30103
-1.0418755	giữa chín	-0.7781512
-1.1980214	binh chín	-0.30103
-1.1980214	chốt chín	-0.30103
-1.3054391	pháo chín	-0.76839143
-1.2509698	xe tấn	-0.30103
-0.72241247	một tấn	-0.8091855
-1.2353755	trước tấn	-0.6255411
-1.2353755	sau tấn	-0.6255411
-0.72241247	hai tấn	-0.8239087
-0.72241247	ba tấn	-0.8782664
-0.7116484	bốn tấn	-0.89905
-0.7116484	năm tấn	-0.8949721
-0.7116484	sáu tấn	-0.89905
-0.72241247	bảy tấn	-0.8782664
-0.72241247	tám tấn	-0.8239087
-0.72241247	chín tấn	-0.8091855
-0.70651716	trái tấn	-0.6255411
-0.70651716	phải tấn	-0.6255411
-1.238503	mã tấn	-0.30103
-1.238503	tượng tấn	-0.30103
-1.238503	tịnh tấn	-0.30103
-1.238503	bộ tấn	-0.30103
-1.132029	sĩ tấn	-0.30103
-1.0417663	tướng tấn	-0.30103
-1.0417663	soái tấn	-0.30103
-1.2509698	pháo tấn	-0.30103
-1.3054391	xe bình	-0.30103
-0.9244399	một bình	-0.74036264
-1.7731879	trước bình	-0.30103
-1.7731879	sau bình	-0.30103
-0.9244399	hai bình	-0.845098
-0.9244399	ba bình	-0.845098
-0.9080579	bốn bình	-0.8553172
-0.9080579	năm bình	-0.86530143
-0.9080579	sáu bình	-0.8553172
-0.9244399	bảy bình	-0.845098
-0.9244399	tám bình	-0.845098
-0.9244399	chín bình	-0.74036264
-1.3618302	trái bình	-0.30103
-1.3618302	phải bình	-0.30103
-1.0745993	tướng bình	-0.30103
-1.0745993	soái bình	-0.30103
-1.3054391	pháo bình	-0.30103
-1.2509698	xe thoái	-0.30103
-0.914731	một thoái	-0.70851535
-1.2353755	trước thoái	-0.6255411
-1.2353755	sau thoái	-0.6255411
-0.914731	hai thoái	-0.72699875
-0.914731	ba thoái	-0.79394555
-0.8555775	bốn thoái	-0.8190563
-0.8555775	năm thoái	-0.8141489
-0.8555775	sáu thoái	-0.8190563
-0.914731	bảy thoái	-0.79394555
-0.914731	tám thoái	-0.72699875
-0.914731	chín thoái	-0.70851535
-0.70651716	trái thoái	-0.6255411
-0.70651716	phải thoái	-0.6255411
-1.238503	mã thoái	-0.30103
-1.238503	tượng thoái	-0.30103
-1.238503	tịnh thoái	-0.30103
-1.238503	bộ thoái	-0.30103
-1.132029	sĩ thoái	-0.30103
-1.0417663	tướng thoái	-0.30103
-1.0417663	soái thoái	-0.30103
-1.2509698	pháo thoái	-0.30103
-1.2509698	xe lùi	-0.30103
-0.914731	một lùi	-0.70851535
-1.2353755	trước lùi	-0.6255411
-1.2353755	sau lùi	-0.6255411
-0.914731	hai lùi	-0.72699875
-0.914731	ba lùi	-0.79394555
-0.8555775	bốn lùi	-0.8190563
-0.8555775	năm lùi	-0.8141489
-0.8555775	sáu lùi	-0.8190563
-0.914731	bảy lùi	-0.79394555
-0.914731	tám lùi	-0.72699875
-0.914731	chín lùi	-0.70851535
-0.70651716	trái lùi	-0.6255411
-0.70651716	phải lùi	-0.6255411
-1.238503	mã lùi	-0.30103
-1.238503	tượng lùi	-0.30103
-1.238503	tịnh lùi	-0.30103
-1.238503	bộ lùi	-0.30103
-1.132029	sĩ lùi	-0.30103
-1.0417663	tướng lùi	-0.30103
-1.0417663	soái lùi	-0.30103
-1.2509698	pháo lùi	-0.30103
-1.4404831	xe trái	-0.7781512
-1.4213445	mã trái	-0.7781512
-1.4213445	tượng trái	-0.7781512
-1.4213445	tịnh trái	-0.7781512
-1.4213445	bộ trái	-0.7781512
-1.2680552	sĩ trái	-0.30103
-1.4404831	pháo trái	-0.7781512
-1.4404831	xe phải	-0.7781512
-1.4213445	mã phải	-0.7781512
-1.4213445	tượng phải	-0.7781512
-1.4213445	tịnh phải	-0.7781512
-1.4213445	bộ phải	-0.7781512
-1.2680552	sĩ phải	-0.30103
-1.4404831	pháo phải	-0.7781512
-1.0125377	<s> mã	-1.3258536
-1.2039648	<s> tượng	-1.1350391
-1.2039648	<s> tịnh	-1.1350391
-1.2039648	<s> bộ	-1.1350391
-1.7865809	<s> sĩ	-0.7463039
-2.408891	<s> tướng	-0.45863783
-2.408891	<s> soái	-0.45863783
-1.4001708	<s> tốt	-1.0910804
-1.8196509	trước giữa	-0.8782664
-1.8196509	sau giữa	-0.8782664
-1.3232074	tốt giữa	-0.40114516
-1.3232074	binh giữa	-0.40114516
-1.3232074	chốt giữa	-0.40114516
-1.5235555	một qua	-0.30103
-1.5235555	hai qua	-0.30103
-1.5235555	ba qua	-0.30103
-1.6160264	bốn qua	-0.30103
-1.6160264	năm qua	-0.30103
-1.6160264	sáu qua	-0.30103
-1.5235555	bảy qua	-0.30103
-1.5235555	tám qua	-0.30103
-1.5235555	chín qua	-0.30103
-0.07874072	qua sông	-1.2552725
-0.07874072	sang sông	-1.2552725
-1.5235555	một sang	-0.30103
-1.5235555	hai sang	-0.30103
-1.5235555	ba sang	-0.30103
-1.6160264	bốn sang	-0.30103
-1.6160264	năm sang	-0.30103
-1.6160264	sáu sang	-0.30103
-1.5235555	bảy sang	-0.30103
-1.5235555	tám sang	-0.30103
-1.5235555	chín sang	-0.30103
-1.4001708	<s> binh	-1.0910804
-1.4001708	<s> chốt	-1.0910804
-0.5941043	<s> pháo	-1.7187784
-2.2870958	<s> chấp	-1.30103
-0.29883173	chấp nhận	-1.30103
-0.29883173	xác nhận	-1.30103
-2.2870958	<s> xác	-1.30103
-2.2870958	<s> đồng	-1.30103
-0.2994037	đồng ý	-1.30103
-2.2870958	<s> ok	-1.30103
-2.2870958	<s> hủy	-1.30103
-0.2994037	hủy bỏ	-1.30103
-2.2870958	<s> từ	-1.30103
-0.2994037	từ chối	-1.30103
-2.2870958	<s> đầu	-1.30103
-0.2994037	đầu hàng	-1.30103
-1.9757491	<s> xin	-1.30103
-0.5988134	xin hòa	-1.30103
-2.2870958	<s> đổi	-1.30103
-0.2994037	đổi phe	-1.30103
-0.5988134	xin chơi	-1.30103
-0.29883173	chơi lại	-1.30103
-0.29883173	đi lại	-1.30103
-2.2870958	<s> đi	-1.30103

\3-grams:
-0.0022599162	tiến một </s>
-0.0022599162	tấn một </s>
-0.00805235	bình một </s>
-0.0057040444	thoái một </s>
-0.0057040444	lùi một </s>
-0.00598559	tiến hai </s>
-0.00598559	tấn hai </s>
-0.00649883	bình hai </s>
-0.00598559	thoái hai </s>
-0.00598559	lùi hai </s>
-0.005351628	tiến ba </s>
-0.005351628	tấn ba </s>
-0.00649883	bình ba </s>
-0.005351628	thoái ba </s>
-0.005351628	lùi ba </s>
-0.005155382	tiến bốn </s>
-0.005155382	tấn bốn </s>
-0.0063211867	bình bốn </s>
-0.005155382	thoái bốn </s>
-0.005155382	lùi bốn </s>
-0.004948019	tiến năm </s>
-0.004948019	tấn năm </s>
-0.00619387	bình năm </s>
-0.004948019	thoái năm </s>
-0.004948019	lùi năm </s>
-0.005155382	tiến sáu </s>
-0.005155382	tấn sáu </s>
-0.0063211867	bình sáu </s>
-0.005155382	thoái sáu </s>
-0.005155382	lùi sáu </s>
-0.005351628	tiến bảy </s>
-0.005351628	tấn bảy </s>
-0.00649883	bình bảy </s>
-0.005351628	thoái bảy </s>
-0.005351628	lùi bảy </s>
-0.00598559	tiến tám </s>
-0.00598559	tấn tám </s>
-0.00649883	bình tám </s>
-0.00598559	thoái tám </s>
-0.00598559	lùi tám </s>
-0.006168243	tiến chín </s>
-0.006168243	tấn chín </s>
-0.00805235	bình chín </s>
-0.006168243	thoái chín </s>
-0.006168243	lùi chín </s>
-0.011630297	qua sông </s>
-0.011630297	sang sông </s>
-0.010453142	chấp nhận </s>
-0.010453142	xác nhận </s>
-0.010453142	đồng ý </s>
-0.010453142	<s> ok </s>
-0.010453142	hủy bỏ </s>
-0.010453142	từ chối </s>
-0.010453142	đầu hàng </s>
-0.010453142	xin hòa </s>
-0.010453142	đổi phe </s>
-0.010453142	chơi lại </s>
-0.010453142	đi lại </s>
-1.5083077	<s> xe một
-0.948388	xe tiến một
-0.55857193	một tiến một
-0.9747865	trước tiến một
-0.9747865	sau tiến một
-0.52222437	hai tiến một
-0.45180678	ba tiến một
-0.6137309	bốn tiến một
-0.60965294	năm tiến một
-0.6137309	sáu tiến một
-0.62765276	bảy tiến một
-0.5732952	tám tiến một
-0.55857193	chín tiến một
-0.9747865	trái tiến một
-0.9747865	phải tiến một
-0.948388	mã tiến một
-0.948388	tượng tiến một
-0.948388	tịnh tiến một
-0.948388	bộ tiến một
-0.2540953	tướng tiến một
-0.2540953	soái tiến một
-0.948388	pháo tiến một
-1.0006825	xe trước một
-1.2943223	mã trước một
-1.3703458	tượng trước một
-1.3703458	tịnh trước một
-1.3703458	bộ trước một
-1.418641	tốt trước một
-1.418641	binh trước một
-1.418641	chốt trước một
-1.0006825	pháo trước một
-1.0006825	xe sau một
-1.2943223	mã sau một
-1.3703458	tượng sau một
-1.3703458	tịnh sau một
-1.3703458	bộ sau một
-1.418641	tốt sau một
-1.418641	binh sau một
-1.418641	chốt sau một
-1.0006825	pháo sau một
-0.948388	xe tấn một
-0.55857193	một tấn một
-0.9747865	trước tấn một
-0.9747865	sau tấn một
-0.52222437	hai tấn một
-0.45180678	ba tấn một
-0.6137309	bốn tấn một
-0.60965294	năm tấn một
-0.6137309	sáu tấn một
-0.62765276	bảy tấn một
-0.5732952	tám tấn một
-0.55857193	chín tấn một
-0.9747865	trái tấn một
-0.9747865	phải tấn một
-0.948388	mã tấn một
-0.948388	tượng tấn một
-0.948388	tịnh tấn một
-0.948388	bộ tấn một
-0.2540953	tướng tấn một
-0.2540953	soái tấn một
-0.948388	pháo tấn một
-0.97829354	xe bình một
-0.97829354	trước bình một
-0.97829354	sau bình một
-0.54972035	hai bình một
-1.1691923	ba bình một
-1.1794114	bốn bình một
-1.1893957	năm bình một
-1.1794114	sáu bình một
-1.1691923	bảy bình một
-1.1691923	tám bình một
-1.0644569	chín bình một
-0.97829354	trái bình một
-0.97829354	phải bình một
-0.97829354	pháo bình một
-0.948388	xe thoái một
-1.0577607	một thoái một
-0.9747865	trước thoái một
-0.9747865	sau thoái một
-0.9011297	hai thoái một
-0.66802555	ba thoái một
-1.0440953	bốn thoái một
-1.039188	năm thoái một
-1.0440953	sáu thoái một
-1.1431909	bảy thoái một
-1.0762441	tám thoái một
-1.0577607	chín thoái một
-0.9747865	trái thoái một
-0.9747865	phải thoái một
-0.948388	mã thoái một
-0.948388	tượng thoái một
-0.948388	tịnh thoái một
-0.948388	bộ thoái một
-0.2540953	tướng thoái một
-0.2540953	soái thoái một
-0.948388	pháo thoái một
-0.948388	xe lùi một
-1.0577607	một lùi một
-0.9747865	trước lùi một
-0.9747865	sau lùi một
-0.9011297	hai lùi một
-0.66802555	ba lùi một
-1.0440953	bốn lùi một
-1.039188	năm lùi một
-1.0440953	sáu lùi một
-1.1431909	bảy lùi một
-1.0762441	tám lùi một
-1.0577607	chín lùi một
-0.9747865	trái lùi một
-0.9747865	phải lùi một
-0.948388	mã lùi một
-0.948388	tượng lùi một
-0.948388	tịnh lùi một
-0.948388	bộ lùi một
-0.2540953	tướng lùi một
-0.2540953	soái lùi một
-0.948388	pháo lùi một
-1.8400882	<s> mã một
-1.961363	<s> tượng một
-1.961363	<s> tịnh một
-1.961363	<s> bộ một
-1.67975	<s> tốt một
-1.0677894	trước giữa một
-1.0677894	sau giữa một
-1.0959675	tốt giữa một
-1.0959675	binh giữa một
-1.0959675	chốt giữa một
-1.67975	<s> binh một
-1.67975	<s> chốt một
-1.5083077	<s> pháo một
-2.1951795	<s> xe tiến
-0.6930304	xe một tiến
-0.6545311	trước một tiến
-0.6545311	sau một tiến
-0.65808046	mã một tiến
-0.65808046	tượng một tiến
-0.65808046	tịnh một tiến
-0.65808046	bộ một tiến
-0.7105331	tốt một tiến
-0.5095365	giữa một tiến
-0.7105331	binh một tiến
-0.7105331	chốt một tiến
-0.6930304	pháo một tiến
-1.7038543	xe trước tiến
-1.2569065	mã trước tiến
-1.0275698	tượng trước tiến
-1.0275698	tịnh trước tiến
-1.0275698	bộ trước tiến
-0.9949396	sĩ trước tiến
-1.7038543	pháo trước tiến
-1.7038543	xe sau tiến
-1.2569065	mã sau tiến
-1.0275698	tượng sau tiến
-1.0275698	tịnh sau tiến
-1.0275698	bộ sau tiến
-0.9949396	sĩ sau tiến
-1.7038543	pháo sau tiến
-0.6930304	xe hai tiến
-0.66332763	trước hai tiến
-0.66332763	sau hai tiến
-0.65808046	mã hai tiến
-0.65808046	tượng hai tiến
-0.65808046	tịnh hai tiến
-0.65808046	bộ hai tiến
-0.7493882	tốt hai tiến
-0.63447523	giữa hai tiến
-0.7493882	binh hai tiến
-0.7493882	chốt hai tiến
-0.6930304	pháo hai tiến
-0.6930304	xe ba tiến
-0.655872	trước ba tiến
-0.655872	sau ba tiến
-0.64338344	mã ba tiến
-0.65808046	tượng ba tiến
-0.65808046	tịnh ba tiến
-0.65808046	bộ ba tiến
-0.7493882	tốt ba tiến
-0.63447523	giữa ba tiến
-0.7493882	binh ba tiến
-0.7493882	chốt ba tiến
-0.6930304	pháo ba tiến
-0.69129765	xe bốn tiến
-0.65379864	trước bốn tiến
-0.65379864	sau bốn tiến
-0.63998973	mã bốn tiến
-0.6534067	tượng bốn tiến
-0.6534067	tịnh bốn tiến
-0.6534067	bộ bốn tiến
-0.6534067	sĩ bốn tiến
-0.7052629	tướng bốn tiến
-0.7052629	soái bốn tiến
-0.74362814	tốt bốn tiến
-0.633364	giữa bốn tiến
-0.74362814	binh bốn tiến
-0.74362814	chốt bốn tiến
-0.69129765	pháo bốn tiến
-0.69129765	xe năm tiến
-0.65537137	trước năm tiến
-0.65537137	sau năm tiến
-0.63998973	mã năm tiến
-0.6534067	tượng năm tiến
-0.6534067	tịnh năm tiến
-0.6534067	bộ năm tiến
-0.6534067	sĩ năm tiến
-0.74362814	tướng năm tiến
-0.74362814	soái năm tiến
-0.74362814	tốt năm tiến
-0.633364	giữa năm tiến
-0.74362814	binh năm tiến
-0.74362814	chốt năm tiến
-0.69129765	pháo năm tiến
-0.69129765	xe sáu tiến
-0.65379864	trước sáu tiến
-0.65379864	sau sáu tiến
-0.63998973	mã sáu tiến
-0.6534067	tượng sáu tiến
-0.6534067	tịnh sáu tiến
-0.6534067	bộ sáu tiến
-0.6534067	sĩ sáu tiến
-0.7052629	tướng sáu tiến
-0.7052629	soái sáu tiến
-0.74362814	tốt sáu tiến
-0.633364	giữa sáu tiến
-0.74362814	binh sáu tiến
-0.74362814	chốt sáu tiến
-0.69129765	pháo sáu tiến
-0.6930304	xe bảy tiến
-0.655872	trước bảy tiến
-0.655872	sau bảy tiến
-0.64338344	mã bảy tiến
-0.65808046	tượng bảy tiến
-0.65808046	tịnh bảy tiến
-0.65808046	bộ bảy tiến
-0.7493882	tốt bảy tiến
-0.63447523	giữa bảy tiến
-0.7493882	binh bảy tiến
-0.7493882	chốt bảy tiến
-0.6930304	pháo bảy tiến
-0.6930304	xe tám tiến
-0.66332763	trước tám tiến
-0.66332763	sau tám tiến
-0.65808046	mã tám tiến
-0.65808046	tượng tám tiến
-0.65808046	tịnh tám tiến
-0.65808046	bộ tám tiến
-0.7493882	tốt tám tiến
-0.63447523	giữa tám tiến
-0.7493882	binh tám tiến
-0.7493882	chốt tám tiến
-0.6930304	pháo tám tiến
-0.6930304	xe chín tiến
-0.6545311	trước chín tiến
-0.6545311	sau chín tiến
-0.65808046	mã chín tiến
-0.65808046	tượng chín tiến
-0.65808046	tịnh chín tiến
-0.65808046	bộ chín tiến
-0.7105331	tốt chín tiến
-0.5095365	giữa chín tiến
-0.7105331	binh chín tiến
-0.7105331	chốt chín tiến
-0.6930304	pháo chín tiến
-0.7002188	xe trái tiến
-0.6178165	mã trái tiến
-0.6178165	tượng trái tiến
-0.6178165	tịnh trái tiến
-0.6178165	bộ trái tiến
-0.6511556	sĩ trái tiến
-0.7002188	pháo trái tiến
-0.7002188	xe phải tiến
-0.6178165	mã phải tiến
-0.6178165	tượng phải tiến
-0.6178165	tịnh phải tiến
-0.6178165	bộ phải tiến
-0.6511556	sĩ phải tiến
-0.7002188	pháo phải tiến
-1.7794833	<s> mã tiến
-1.5886687	<s> tượng tiến
-1.5886687	<s> tịnh tiến
-1.5886687	<s> bộ tiến
-1.5296246	<s> sĩ tiến
-1.2730081	<s> tướng tiến
-1.2730081	<s> soái tiến
-2.1951795	<s> pháo tiến
-0.5061111	<s> xe trước
-0.5404744	<s> mã trước
-0.5798371	<s> tượng trước
-0.5798371	<s> tịnh trước
-0.5798371	<s> bộ trước
-0.6747442	<s> sĩ trước
-0.51721495	<s> tốt trước
-0.51721495	<s> binh trước
-0.51721495	<s> chốt trước
-0.5061111	<s> pháo trước
-0.5061111	<s> xe sau
-0.5404744	<s> mã sau
-0.5798371	<s> tượng sau
-0.5798371	<s> tịnh sau
-0.5798371	<s> bộ sau
-0.6747442	<s> sĩ sau
-0.51721495	<s> tốt sau
-0.51721495	<s> binh sau
-0.51721495	<s> chốt sau
-0.5061111	<s> pháo sau
-1.5083077	<s> xe hai
-0.9708709	xe tiến hai
-0.9907491	một tiến hai
-0.9859582	trước tiến hai
-0.9859582	sau tiến hai
-1.1843259	hai tiến hai
-1.05983	ba tiến hai
-0.77683884	bốn tiến hai
-1.2553892	năm tiến hai
-1.2594671	sáu tiến hai
-1.2386836	bảy tiến hai
-1.1843259	tám tiến hai
-1.1696026	chín tiến hai
-0.9859582	trái tiến hai
-0.9859582	phải tiến hai
-0.9708709	mã tiến hai
-0.9708709	tượng tiến hai
-0.9708709	tịnh tiến hai
-0.9708709	bộ tiến hai
-0.9708709	pháo tiến hai
-1.0006825	xe trước hai
-1.116797	mã trước hai
-1.3703458	tượng trước hai
-1.3703458	tịnh trước hai
-1.3703458	bộ trước hai
-1.2770045	tốt trước hai
-1.2770045	binh trước hai
-1.2770045	chốt trước hai
-1.0006825	pháo trước hai
-1.0006825	xe sau hai
-1.116797	mã sau hai
-1.3703458	tượng sau hai
-1.3703458	tịnh sau hai
-1.3703458	bộ sau hai
-1.2770045	tốt sau hai
-1.2770045	binh sau hai
-1.2770045	chốt sau hai
-1.0006825	pháo sau hai
-0.9708709	xe tấn hai
-0.9907491	một tấn hai
-0.9859582	trước tấn hai
-0.9859582	sau tấn hai
-1.1843259	hai tấn hai
-1.05983	ba tấn hai
-0.77683884	bốn tấn hai
-1.2553892	năm tấn hai
-1.2594671	sáu tấn hai
-1.2386836	bảy tấn hai
-1.1843259	tám tấn hai
-1.1696026	chín tấn hai
-0.9859582	trái tấn hai
-0.9859582	phải tấn hai
-0.9708709	mã tấn hai
-0.9708709	tượng tấn hai
-0.9708709	tịnh tấn hai
-0.9708709	bộ tấn hai
-0.9708709	pháo tấn hai
-0.97829354	xe bình hai
-0.4449849	một bình hai
-0.97829354	trước bình hai
-0.97829354	sau bình hai
-0.54972035	ba bình hai
-1.1794114	bốn bình hai
-1.1893957	năm bình hai
-1.1794114	sáu bình hai
-1.1691923	bảy bình hai
-1.1691923	tám bình hai
-1.0644569	chín bình hai
-0.97829354	trái bình hai
-0.97829354	phải bình hai
-0.97829354	pháo bình hai
-0.9708709	xe thoái hai
-0.89007896	một thoái hai
-0.9859582	trước thoái hai
-0.9859582	sau thoái hai
-1.0874159	hai thoái hai
-0.9755091	ba thoái hai
-0.69684505	bốn thoái hai
-1.174566	năm thoái hai
-1.1794734	sáu thoái hai
-1.1543627	bảy thoái hai
-1.0874159	tám thoái hai
-1.0689324	chín thoái hai
-0.9859582	trái thoái hai
-0.9859582	phải thoái hai
-0.9708709	mã thoái hai
-0.9708709	tượng thoái hai
-0.9708709	tịnh thoái hai
-0.9708709	bộ thoái hai
-0.9708709	pháo thoái hai
-0.9708709	xe lùi hai
-0.89007896	một lùi hai
-0.9859582	trước lùi hai
-0.9859582	sau lùi hai
-1.0874159	hai lùi hai
-0.9755091	ba lùi hai
-0.69684505	bốn lùi hai
-1.174566	năm lùi hai
-1.1794734	sáu lùi hai
-1.1543627	bảy lùi hai
-1.0874159	tám lùi hai
-1.0689324	chín lùi hai
-0.9859582	trái lùi hai
-0.9859582	phải lùi hai
-0.9708709	mã lùi hai
-0.9708709	tượng lùi hai
-0.9708709	tịnh lùi hai
-0.9708709	bộ lùi hai
-0.9708709	pháo lùi hai
-1.6603724	<s> mã hai
-1.961363	<s> tượng hai
-1.961363	<s> tịnh hai
-1.961363	<s> bộ hai
-1.5950038	<s> tốt hai
-0.93945366	trước giữa hai
-0.93945366	sau giữa hai
-0.9602466	tốt giữa hai
-0.9602466	binh giữa hai
-0.9602466	chốt giữa hai
-1.5950038	<s> binh hai
-1.5950038	<s> chốt hai
-1.5083077	<s> pháo hai
-1.5083077	<s> xe ba
-0.9708709	xe tiến ba
-0.68697435	một tiến ba
-0.9859582	trước tiến ba
-0.9859582	sau tiến ba
-1.0054723	hai tiến ba
-1.2386836	ba tiến ba
-1.0806136	bốn tiến ba
-0.7727609	năm tiến ba
-1.2594671	sáu tiến ba
-1.2386836	bảy tiến ba
-1.1843259	tám tiến ba
-1.1696026	chín tiến ba
-0.9859582	trái tiến ba
-0.9859582	phải tiến ba
-0.9708709	mã tiến ba
-0.9708709	tượng tiến ba
-0.9708709	tịnh tiến ba
-0.9708709	bộ tiến ba
-0.9708709	pháo tiến ba
-1.0006825	xe trước ba
-0.9911431	mã trước ba
-1.0649854	tượng trước ba
-1.0649854	tịnh trước ba
-1.0649854	bộ trước ba
-1.2770045	tốt trước ba
-1.2770045	binh trước ba
-1.2770045	chốt trước ba
-1.0006825	pháo trước ba
-1.0006825	xe sau ba
-0.9911431	mã sau ba
-1.0649854	tượng sau ba
-1.0649854	tịnh sau ba
-1.0649854	bộ sau ba
-1.2770045	tốt sau ba
-1.2770045	binh sau ba
-1.2770045	chốt sau ba
-1.0006825	pháo sau ba
-0.9708709	xe tấn ba
-0.68697435	một tấn ba
-0.9859582	trước tấn ba
-0.9859582	sau tấn ba
-1.0054723	hai tấn ba
-1.2386836	ba tấn ba
-1.0806136	bốn tấn ba
-0.7727609	năm tấn ba
-1.2594671	sáu tấn ba
-1.2386836	bảy tấn ba
-1.1843259	tám tấn ba
-1.1696026	chín tấn ba
-0.9859582	trái tấn ba
-0.9859582	phải tấn ba
-0.9708709	mã tấn ba
-0.9708709	tượng tấn ba
-0.9708709	tịnh tấn ba
-0.9708709	bộ tấn ba
-0.9708709	pháo tấn ba
-0.97829354	xe bình ba
-1.0644569	một bình ba
-0.97829354	trước bình ba
-0.97829354	sau bình ba
-0.54972035	hai bình ba
-0.55993944	bốn bình ba
-1.1893957	năm bình ba
-1.1794114	sáu bình ba
-1.1691923	bảy bình ba
-1.1691923	tám bình ba
-1.0644569	chín bình ba
-0.97829354	trái bình ba
-0.97829354	phải bình ba
-0.97829354	pháo bình ba
-0.9708709	xe thoái ba
-0.5863042	một thoái ba
-0.9859582	trước thoái ba
-0.9859582	sau thoái ba
-0.90856236	hai thoái ba
-1.1543627	ba thoái ba
-1.0006199	bốn thoái ba
-0.69193774	năm thoái ba
-1.1794734	sáu thoái ba
-1.1543627	bảy thoái ba
-1.0874159	tám thoái ba
-1.0689324	chín thoái ba
-0.9859582	trái thoái ba
-0.9859582	phải thoái ba
-0.9708709	mã thoái ba
-0.9708709	tượng thoái ba
-0.9708709	tịnh thoái ba
-0.9708709	bộ thoái ba
-0.9708709	pháo thoái ba
-0.9708709	xe lùi ba
-0.5863042	một lùi ba
-0.9859582	trước lùi ba
-0.9859582	sau lùi ba
-0.90856236	hai lùi ba
-1.1543627	ba lùi ba
-1.0006199	bốn lùi ba
-0.69193774	năm lùi ba
-1.1794734	sáu lùi ba
-1.1543627	bảy lùi ba
-1.0874159	tám lùi ba
-1.0689324	chín lùi ba
-0.9859582	trái lùi ba
-0.9859582	phải lùi ba
-0.9708709	mã lùi ba
-0.9708709	tượng lùi ba
-0.9708709	tịnh lùi ba
-0.9708709	bộ lùi ba
-0.9708709	pháo lùi ba
-1.5336325	<s> mã ba
-1.6492738	<s> tượng ba
-1.6492738	<s> tịnh ba
-1.6492738	<s> bộ ba
-1.5950038	<s> tốt ba
-0.93945366	trước giữa ba
-0.93945366	sau giữa ba
-0.9602466	tốt giữa ba
-0.9602466	binh giữa ba
-0.9602466	chốt giữa ba
-1.5950038	<s> binh ba
-1.5950038	<s> chốt ba
-1.5083077	<s> pháo ba
-1.5072474	<s> xe bốn
-0.95828146	xe tiến bốn
-1.1633828	một tiến bốn
-0.9125032	trước tiến bốn
-0.9125032	sau tiến bốn
-0.6996405	hai tiến bốn
-1.0556998	ba tiến bốn
-1.2532473	bốn tiến bốn
-1.0265136	năm tiến bốn
-0.7747818	sáu tiến bốn
-1.2324637	bảy tiến bốn
-1.1781061	tám tiến bốn
-1.1633828	chín tiến bốn
-0.9125032	trái tiến bốn
-0.9125032	phải tiến bốn
-0.95828146	mã tiến bốn
-0.95828146	tượng tiến bốn
-0.95828146	tịnh tiến bốn
-0.95828146	bộ tiến bốn
-0.6552273	sĩ tiến bốn
-0.95828146	pháo tiến bốn
-0.9985902	xe trước bốn
-0.9857902	mã trước bốn
-1.0542927	tượng trước bốn
-1.0542927	tịnh trước bốn
-1.0542927	bộ trước bốn
-0.78952533	sĩ trước bốn
-1.2590247	tốt trước bốn
-1.2590247	binh trước bốn
-1.2590247	chốt trước bốn
-0.9985902	pháo trước bốn
-0.9985902	xe sau bốn
-0.9857902	mã sau bốn
-1.0542927	tượng sau bốn
-1.0542927	tịnh sau bốn
-1.0542927	bộ sau bốn
-0.78952533	sĩ sau bốn
-1.2590247	tốt sau bốn
-1.2590247	binh sau bốn
-1.2590247	chốt sau bốn
-0.9985902	pháo sau bốn
-0.95828146	xe tấn bốn
-1.1633828	một tấn bốn
-0.9125032	trước tấn bốn
-0.9125032	sau tấn bốn
-0.6996405	hai tấn bốn
-1.0556998	ba tấn bốn
-1.2532473	bốn tấn bốn
-1.0265136	năm tấn bốn
-0.7747818	sáu tấn bốn
-1.2324637	bảy tấn bốn
-1.1781061	tám tấn bốn
-1.1633828	chín tấn bốn
-0.9125032	trái tấn bốn
-0.9125032	phải tấn bốn
-0.95828146	mã tấn bốn
-0.95828146	tượng tấn bốn
-0.95828146	tịnh tấn bốn
-0.95828146	bộ tấn bốn
-0.6552273	sĩ tấn bốn
-0.95828146	pháo tấn bốn
-0.9465116	xe bình bốn
-1.0500759	một bình bốn
-0.9465116	trước bình bốn
-0.9465116	sau bình bốn
-1.1548113	hai bình bốn
-0.5462226	ba bình bốn
-0.5314978	năm bình bốn
-1.1650305	sáu bình bốn
-1.1548113	bảy bình bốn
-1.1548113	tám bình bốn
-1.0500759	chín bình bốn
-0.9465116	trái bình bốn
-0.9465116	phải bình bốn
-0.64932984	tướng bình bốn
-0.64932984	soái bình bốn
-0.9465116	pháo bình bốn
-0.95828146	xe thoái bốn
-1.0627127	một thoái bốn
-0.9125032	trước thoái bốn
-0.9125032	sau thoái bốn
-0.6027305	hai thoái bốn
-0.9713789	ba thoái bốn
-1.1732535	bốn thoái bốn
-0.94569045	năm thoái bốn
-0.6947881	sáu thoái bốn
-1.1481428	bảy thoái bốn
-1.0811961	tám thoái bốn
-1.0627127	chín thoái bốn
-0.9125032	trái thoái bốn
-0.9125032	phải thoái bốn
-0.95828146	mã thoái bốn
-0.95828146	tượng thoái bốn
-0.95828146	tịnh thoái bốn
-0.95828146	bộ thoái bốn
-0.6552273	sĩ thoái bốn
-0.95828146	pháo thoái bốn
-0.95828146	xe lùi bốn
-1.0627127	một lùi bốn
-0.9125032	trước lùi bốn
-0.9125032	sau lùi bốn
-0.6027305	hai lùi bốn
-0.9713789	ba lùi bốn
-1.1732535	bốn lùi bốn
-0.94569045	năm lùi bốn
-0.6947881	sáu lùi bốn
-1.1481428	bảy lùi bốn
-1.0811961	tám lùi bốn
-1.0627127	chín lùi bốn
-0.9125032	trái lùi bốn
-0.9125032	phải lùi bốn
-0.95828146	mã lùi bốn
-0.95828146	tượng lùi bốn
-0.95828146	tịnh lùi bốn
-0.95828146	bộ lùi bốn
-0.6552273	sĩ lùi bốn
-0.95828146	pháo lùi bốn
-1.5308607	<s> mã bốn
-1.6436785	<s> tượng bốn
-1.6436785	<s> tịnh bốn
-1.6436785	<s> bộ bốn
-1.3986712	<s> sĩ bốn
-0.73791194	<s> tướng bốn
-0.73791194	<s> soái bốn
-1.589539	<s> tốt bốn
-0.9382648	trước giữa bốn
-0.9382648	sau giữa bốn
-0.95651615	tốt giữa bốn
-0.95651615	binh giữa bốn
-0.95651615	chốt giữa bốn
-1.589539	<s> binh bốn
-1.589539	<s> chốt bốn
-1.5072474	<s> pháo bốn
-1.5072474	<s> xe năm
-0.95828146	xe tiến năm
-1.1633828	một tiến năm
-0.9125032	trước tiến năm
-0.9125032	sau tiến năm
-1.1781061	hai tiến năm
-0.7539982	ba tiến năm
-0.9512088	bốn tiến năm
-1.2491693	năm tiến năm
-0.9512088	sáu tiến năm
-0.7539982	bảy tiến năm
-1.1781061	tám tiến năm
-1.1633828	chín tiến năm
-0.9125032	trái tiến năm
-0.9125032	phải tiến năm
-0.95828146	mã tiến năm
-0.95828146	tượng tiến năm
-0.95828146	tịnh tiến năm
-0.95828146	bộ tiến năm
-0.6552273	sĩ tiến năm
-0.95828146	pháo tiến năm
-1.0003709	xe trước năm
-0.9903432	mã trước năm
-1.0633793	tượng trước năm
-1.0633793	tịnh trước năm
-1.0633793	bộ trước năm
-1.2742842	tốt trước năm
-1.2742842	binh trước năm
-1.2742842	chốt trước năm
-1.0003709	pháo trước năm
-1.0003709	xe sau năm
-0.9903432	mã sau năm
-1.0633793	tượng sau năm
-1.0633793	tịnh sau năm
-1.0633793	bộ sau năm
-1.2742842	tốt sau năm
-1.2742842	binh sau năm
-1.2742842	chốt sau năm
-1.0003709	pháo sau năm
-0.95828146	xe tấn năm
-1.1633828	một tấn năm
-0.9125032	trước tấn năm
-0.9125032	sau tấn năm
-1.1781061	hai tấn năm
-0.7539982	ba tấn năm
-0.9512088	bốn tấn năm
-1.2491693	năm tấn năm
-0.9512088	sáu tấn năm
-0.7539982	bảy tấn năm
-1.1781061	tám tấn năm
-1.1633828	chín tấn năm
-0.9125032	trái tấn năm
-0.9125032	phải tấn năm
-0.95828146	mã tấn năm
-0.95828146	tượng tấn năm
-0.95828146	tịnh tấn năm
-0.95828146	bộ tấn năm
-0.6552273	sĩ tấn năm
-0.95828146	pháo tấn năm
-0.9465116	xe bình năm
-1.0500759	một bình năm
-0.9465116	trước bình năm
-0.9465116	sau bình năm
-1.1548113	hai bình năm
-1.1548113	ba bình năm
-0.5215136	bốn bình năm
-0.5215136	sáu bình năm
-1.1548113	bảy bình năm
-1.1548113	tám bình năm
-1.0500759	chín bình năm
-0.9465116	trái bình năm
-0.9465116	phải bình năm
-0.64932984	tướng bình năm
-0.64932984	soái bình năm
-0.9465116	pháo bình năm
-0.95828146	xe thoái năm
-1.0627127	một thoái năm
-0.9125032	trước thoái năm
-0.9125032	sau thoái năm
-1.0811961	hai thoái năm
-0.6696774	ba thoái năm
-0.871215	bốn thoái năm
-1.1683462	năm thoái năm
-0.871215	sáu thoái năm
-0.6696774	bảy thoái năm
-1.0811961	tám thoái năm
-1.0627127	chín thoái năm
-0.9125032	trái thoái năm
-0.9125032	phải thoái năm
-0.95828146	mã thoái năm
-0.95828146	tượng thoái năm
-0.95828146	tịnh thoái năm
-0.95828146	bộ thoái năm
-0.6552273	sĩ thoái năm
-0.95828146	pháo thoái năm
-0.95828146	xe lùi năm
-1.0627127	một lùi năm
-0.9125032	trước lùi năm
-0.9125032	sau lùi năm
-1.0811961	hai lùi năm
-0.6696774	ba lùi năm
-0.871215	bốn lùi năm
-1.1683462	năm lùi năm
-0.871215	sáu lùi năm
-0.6696774	bảy lùi năm
-1.0811961	tám lùi năm
-1.0627127	chín lùi năm
-0.9125032	trái lùi năm
-0.9125032	phải lùi năm
-0.95828146	mã lùi năm
-0.95828146	tượng lùi năm
-0.95828146	tịnh lùi năm
-0.95828146	bộ lùi năm
-0.6552273	sĩ lùi năm
-0.95828146	pháo lùi năm
-1.5308607	<s> mã năm
-1.6436785	<s> tượng năm
-1.6436785	<s> tịnh năm
-1.6436785	<s> bộ năm
-1.0787768	<s> sĩ năm
-0.6452668	<s> tướng năm
-0.6452668	<s> soái năm
-1.589539	<s> tốt năm
-0.9382648	trước giữa năm
-0.9382648	sau giữa năm
-0.95651615	tốt giữa năm
-0.95651615	binh giữa năm
-0.95651615	chốt giữa năm
-1.589539	<s> binh năm
-1.589539	<s> chốt năm
-1.5072474	<s> pháo năm
-1.5072474	<s> xe sáu
-0.95828146	xe tiến sáu
-1.1633828	một tiến sáu
-0.9125032	trước tiến sáu
-0.9125032	sau tiến sáu
-1.1781061	hai tiến sáu
-1.2324637	ba tiến sáu
-0.7747818	bốn tiến sáu
-1.0265136	năm tiến sáu
-1.2532473	sáu tiến sáu
-1.0556998	bảy tiến sáu
-0.6996405	tám tiến sáu
-1.1633828	chín tiến sáu
-0.9125032	trái tiến sáu
-0.9125032	phải tiến sáu
-0.95828146	mã tiến sáu
-0.95828146	tượng tiến sáu
-0.95828146	tịnh tiến sáu
-0.95828146	bộ tiến sáu
-0.6552273	sĩ tiến sáu
-0.95828146	pháo tiến sáu
-0.9985902	xe trước sáu
-0.9857902	mã trước sáu
-1.0542927	tượng trước sáu
-1.0542927	tịnh trước sáu
-1.0542927	bộ trước sáu
-0.78952533	sĩ trước sáu
-1.2590247	tốt trước sáu
-1.2590247	binh trước sáu
-1.2590247	chốt trước sáu
-0.9985902	pháo trước sáu
-0.9985902	xe sau sáu
-0.9857902	mã sau sáu
-1.0542927	tượng sau sáu
-1.0542927	tịnh sau sáu
-1.0542927	bộ sau sáu
-0.78952533	sĩ sau sáu
-1.2590247	tốt sau sáu
-1.2590247	binh sau sáu
-1.2590247	chốt sau sáu
-0.9985902	pháo sau sáu
-0.95828146	xe tấn sáu
-1.1633828	một tấn sáu
-0.9125032	trước tấn sáu
-0.9125032	sau tấn sáu
-1.1781061	hai tấn sáu
-1.2324637	ba tấn sáu
-0.7747818	bốn tấn sáu
-1.0265136	năm tấn sáu
-1.2532473	sáu tấn sáu
-1.0556998	bảy tấn sáu
-0.6996405	tám tấn sáu
-1.1633828	chín tấn sáu
-0.9125032	trái tấn sáu
-0.9125032	phải tấn sáu
-0.95828146	mã tấn sáu
-0.95828146	tượng tấn sáu
-0.95828146	tịnh tấn sáu
-0.95828146	bộ tấn sáu
-0.6552273	sĩ tấn sáu
-0.95828146	pháo tấn sáu
-0.9465116	xe bình sáu
-1.0500759	một bình sáu
-0.9465116	trước bình sáu
-0.9465116	sau bình sáu
-1.1548113	hai bình sáu
-1.1548113	ba bình sáu
-1.1650305	bốn bình sáu
-0.5314978	năm bình sáu
-0.5462226	bảy bình sáu
-1.1548113	tám bình sáu
-1.0500759	chín bình sáu
-0.9465116	trái bình sáu
-0.9465116	phải bình sáu
-0.64932984	tướng bình sáu
-0.64932984	soái bình sáu
-0.9465116	pháo bình sáu
-0.95828146	xe thoái sáu
-1.0627127	một thoái sáu
-0.9125032	trước thoái sáu
-0.9125032	sau thoái sáu
-1.0811961	hai thoái sáu
-1.1481428	ba thoái sáu
-0.6947881	bốn thoái sáu
-0.94569045	năm thoái sáu
-1.1732535	sáu thoái sáu
-0.9713789	bảy thoái sáu
-0.6027305	tám thoái sáu
-1.0627127	chín thoái sáu
-0.9125032	trái thoái sáu
-0.9125032	phải thoái sáu
-0.95828146	mã thoái sáu
-0.95828146	tượng thoái sáu
-0.95828146	tịnh thoái sáu
-0.95828146	bộ thoái sáu
-0.6552273	sĩ thoái sáu
-0.95828146	pháo thoái sáu
-0.95828146	xe lùi sáu
-1.0627127	một lùi sáu
-0.9125032	trước lùi sáu
-0.9125032	sau lùi sáu
-1.0811961	hai lùi sáu
-1.1481428	ba lùi sáu
-0.6947881	bốn lùi sáu
-0.94569045	năm lùi sáu
-1.1732535	sáu lùi sáu
-0.9713789	bảy lùi sáu
-0.6027305	tám lùi sáu
-1.0627127	chín lùi sáu
-0.9125032	trái lùi sáu
-0.9125032	phải lùi sáu
-0.95828146	mã lùi sáu
-0.95828146	tượng lùi sáu
-0.95828146	tịnh lùi sáu
-0.95828146	bộ lùi sáu
-0.6552273	sĩ lùi sáu
-0.95828146	pháo lùi sáu
-1.5308607	<s> mã sáu
-1.6436785	<s> tượng sáu
-1.6436785	<s> tịnh sáu
-1.6436785	<s> bộ sáu
-1.3986712	<s> sĩ sáu
-0.73791194	<s> tướng sáu
-0.73791194	<s> soái sáu
-1.589539	<s> tốt sáu
-0.9382648	trước giữa sáu
-0.9382648	sau giữa sáu
-0.95651615	tốt giữa sáu
-0.95651615	binh giữa sáu
-0.95651615	chốt giữa sáu
-1.589539	<s> binh sáu
-1.589539	<s> chốt sáu
-1.5072474	<s> pháo sáu
-1.5083077	<s> xe bảy
-0.9708709	xe tiến bảy
-1.1696026	một tiến bảy
-0.9859582	trước tiến bảy
-0.9859582	sau tiến bảy
-1.1843259	hai tiến bảy
-1.2386836	ba tiến bảy
-1.2594671	bốn tiến bảy
-0.7727609	năm tiến bảy
-1.0806136	sáu tiến bảy
-1.2386836	bảy tiến bảy
-1.0054723	tám tiến bảy
-0.68697435	chín tiến bảy
-0.9859582	trái tiến bảy
-0.9859582	phải tiến bảy
-0.9708709	mã tiến bảy
-0.9708709	tượng tiến bảy
-0.9708709	tịnh tiến bảy
-0.9708709	bộ tiến bảy
-0.9708709	pháo tiến bảy
-1.0006825	xe trước bảy
-0.9911431	mã trước bảy
-1.0649854	tượng trước bảy
-1.0649854	tịnh trước bảy
-1.0649854	bộ trước bảy
-1.2770045	tốt trước bảy
-1.2770045	binh trước bảy
-1.2770045	chốt trước bảy
-1.0006825	pháo trước bảy
-1.0006825	xe sau bảy
-0.9911431	mã sau bảy
-1.0649854	tượng sau bảy
-1.0649854	tịnh sau bảy
-1.0649854	bộ sau bảy
-1.2770045	tốt sau bảy
-1.2770045	binh sau bảy
-1.2770045	chốt sau bảy
-1.0006825	pháo sau bảy
-0.9708709	xe tấn bảy
-1.1696026	một tấn bảy
-0.9859582	trước tấn bảy
-0.9859582	sau tấn bảy
-1.1843259	hai tấn bảy
-1.2386836	ba tấn bảy
-1.2594671	bốn tấn bảy
-0.7727609	năm tấn bảy
-1.0806136	sáu tấn bảy
-1.2386836	bảy tấn bảy
-1.0054723	tám tấn bảy
-0.68697435	chín tấn bảy
-0.9859582	trái tấn bảy
-0.9859582	phải tấn bảy
-0.9708709	mã tấn bảy
-0.9708709	tượng tấn bảy
-0.9708709	tịnh tấn bảy
-0.9708709	bộ tấn bảy
-0.9708709	pháo tấn bảy
-0.97829354	xe bình bảy
-1.0644569	một bình bảy
-0.97829354	trước bình bảy
-0.97829354	sau bình bảy
-1.1691923	hai bình bảy
-1.1691923	ba bình bảy
-1.1794114	bốn bình bảy
-1.1893957	năm bình bảy
-0.55993944	sáu bình bảy
-0.54972035	tám bình bảy
-1.0644569	chín bình bảy
-0.97829354	trái bình bảy
-0.97829354	phải bình bảy
-0.97829354	pháo bình bảy
-0.9708709	xe thoái bảy
-1.0689324	một thoái bảy
-0.9859582	trước thoái bảy
-0.9859582	sau thoái bảy
-1.0874159	hai thoái bảy
-1.1543627	ba thoái bảy
-1.1794734	bốn thoái bảy
-0.69193774	năm thoái bảy
-1.0006199	sáu thoái bảy
-1.1543627	bảy thoái bảy
-0.90856236	tám thoái bảy
-0.5863042	chín thoái bảy
-0.9859582	trái thoái bảy
-0.9859582	phải thoái bảy
-0.9708709	mã thoái bảy
-0.9708709	tượng thoái bảy
-0.9708709	tịnh thoái bảy
-0.9708709	bộ thoái bảy
-0.9708709	pháo thoái bảy
-0.9708709	xe lùi bảy
-1.0689324	một lùi bảy
-0.9859582	trước lùi bảy
-0.9859582	sau lùi bảy
-1.0874159	hai lùi bảy
-1.1543627	ba lùi bảy
-1.1794734	bốn lùi bảy
-0.69193774	năm lùi bảy
-1.0006199	sáu lùi bảy
-1.1543627	bảy lùi bảy
-0.90856236	tám lùi bảy
-0.5863042	chín lùi bảy
-0.9859582	trái lùi bảy
-0.9859582	phải lùi bảy
-0.9708709	mã lùi bảy
-0.9708709	tượng lùi bảy
-0.9708709	tịnh lùi bảy
-0.9708709	bộ lùi bảy
-0.9708709	pháo lùi bảy
-1.5336325	<s> mã bảy
-1.6492738	<s> tượng bảy
-1.6492738	<s> tịnh bảy
-1.6492738	<s> bộ bảy
-1.5950038	<s> tốt bảy
-0.93945366	trước giữa bảy
-0.93945366	sau giữa bảy
-0.9602466	tốt giữa bảy
-0.9602466	binh giữa bảy
-0.9602466	chốt giữa bảy
-1.5950038	<s> binh bảy
-1.5950038	<s> chốt bảy
-1.5083077	<s> pháo bảy
-1.5083077	<s> xe tám
-0.9708709	xe tiến tám
-1.1696026	một tiến tám
-0.9859582	trước tiến tám
-0.9859582	sau tiến tám
-1.1843259	hai tiến tám
-1.2386836	ba tiến tám
-1.2594671	bốn tiến tám
-1.2553892	năm tiến tám
-0.77683884	sáu tiến tám
-1.05983	bảy tiến tám
-1.1843259	tám tiến tám
-0.9907491	chín tiến tám
-0.9859582	trái tiến tám
-0.9859582	phải tiến tám
-0.9708709	mã tiến tám
-0.9708709	tượng tiến tám
-0.9708709	tịnh tiến tám
-0.9708709	bộ tiến tám
-0.9708709	pháo tiến tám
-1.0006825	xe trước tám
-1.116797	mã trước tám
-1.3703458	tượng trước tám
-1.3703458	tịnh trước tám
-1.3703458	bộ trước tám
-1.2770045	tốt trước tám
-1.2770045	binh trước tám
-1.2770045	chốt trước tám
-1.0006825	pháo trước tám
-1.0006825	xe sau tám
-1.116797	mã sau tám
-1.3703458	tượng sau tám
-1.3703458	tịnh sau tám
-1.3703458	bộ sau tám
-1.2770045	tốt sau tám
-1.2770045	binh sau tám
-1.2770045	chốt sau tám
-1.0006825	pháo sau tám
-0.9708709	xe tấn tám
-1.1696026	một tấn tám
-0.9859582	trước tấn tám
-0.9859582	sau tấn tám
-1.1843259	hai tấn tám
-1.2386836	ba tấn tám
-1.2594671	bốn tấn tám
-1.2553892	năm tấn tám
-0.77683884	sáu tấn tám
-1.05983	bảy tấn tám
-1.1843259	tám tấn tám
-0.9907491	chín tấn tám
-0.9859582	trái tấn tám
-0.9859582	phải tấn tám
-0.9708709	mã tấn tám
-0.9708709	tượng tấn tám
-0.9708709	tịnh tấn tám
-0.9708709	bộ tấn tám
-0.9708709	pháo tấn tám
-0.97829354	xe bình tám
-1.0644569	một bình tám
-0.97829354	trước bình tám
-0.97829354	sau bình tám
-1.1691923	hai bình tám
-1.1691923	ba bình tám
-1.1794114	bốn bình tám
-1.1893957	năm bình tám
-1.1794114	sáu bình tám
-0.54972035	bảy bình tám
-0.4449849	chín bình tám
-0.97829354	trái bình tám
-0.97829354	phải bình tám
-0.97829354	pháo bình tám
-0.9708709	xe thoái tám
-1.0689324	một thoái tám
-0.9859582	trước thoái tám
-0.9859582	sau thoái tám
-1.0874159	hai thoái tám
-1.1543627	ba thoái tám
-1.1794734	bốn thoái tám
-1.174566	năm thoái tám
-0.69684505	sáu thoái tám
-0.9755091	bảy thoái tám
-1.0874159	tám thoái tám
-0.89007896	chín thoái tám
-0.9859582	trái thoái tám
-0.9859582	phải thoái tám
-0.9708709	mã thoái tám
-0.9708709	tượng thoái tám
-0.9708709	tịnh thoái tám
-0.9708709	bộ thoái tám
-0.9708709	pháo thoái tám
-0.9708709	xe lùi tám
-1.0689324	một lùi tám
-0.9859582	trước lùi tám
-0.9859582	sau lùi tám
-1.0874159	hai lùi tám
-1.1543627	ba lùi tám
-1.1794734	bốn lùi tám
-1.174566	năm lùi tám
-0.69684505	sáu lùi tám
-0.9755091	bảy lùi tám
-1.0874159	tám lùi tám
-0.89007896	chín lùi tám
-0.9859582	trái lùi tám
-0.9859582	phải lùi tám
-0.9708709	mã lùi tám
-0.9708709	tượng lùi tám
-0.9708709	tịnh lùi tám
-0.9708709	bộ lùi tám
-0.9708709	pháo lùi tám
-1.6603724	<s> mã tám
-1.961363	<s> tượng tám
-1.961363	<s> tịnh tám
-1.961363	<s> bộ tám
-1.5950038	<s> tốt tám
-0.93945366	trước giữa tám
-0.93945366	sau giữa tám
-0.9602466	tốt giữa tám
-0.9602466	binh giữa tám
-0.9602466	chốt giữa tám
-1.5950038	<s> binh tám
-1.5950038	<s> chốt tám
-1.5083077	<s> pháo tám
-1.5083077	<s> xe chín
-0.9708709	xe tiến chín
-1.1696026	một tiến chín
-0.9859582	trước tiến chín
-0.9859582	sau tiến chín
-1.1843259	hai tiến chín
-1.2386836	ba tiến chín
-1.2594671	bốn tiến chín
-1.2553892	năm tiến chín
-1.2594671	sáu tiến chín
-0.7560552	bảy tiến chín
-1.0054723	tám tiến chín
-1.1696026	chín tiến chín
-0.9859582	trái tiến chín
-0.9859582	phải tiến chín
-0.9708709	mã tiến chín
-0.9708709	tượng tiến chín
-0.9708709	tịnh tiến chín
-0.9708709	bộ tiến chín
-0.9708709	pháo tiến chín
-1.0006825	xe trước chín
-1.2943223	mã trước chín
-1.3703458	tượng trước chín
-1.3703458	tịnh trước chín
-1.3703458	bộ trước chín
-1.418641	tốt trước chín
-1.418641	binh trước chín
-1.418641	chốt trước chín
-1.0006825	pháo trước chín
-1.0006825	xe sau chín
-1.2943223	mã sau chín
-1.3703458	tượng sau chín
-1.3703458	tịnh sau chín
-1.3703458	bộ sau chín
-1.418641	tốt sau chín
-1.418641	binh sau chín
-1.418641	chốt sau chín
-1.0006825	pháo sau chín
-0.9708709	xe tấn chín
-1.1696026	một tấn chín
-0.9859582	trước tấn chín
-0.9859582	sau tấn chín
-1.1843259	hai tấn chín
-1.2386836	ba tấn chín
-1.2594671	bốn tấn chín
-1.2553892	năm tấn chín
-1.2594671	sáu tấn chín
-0.7560552	bảy tấn chín
-1.0054723	tám tấn chín
-1.1696026	chín tấn chín
-0.9859582	trái tấn chín
-0.9859582	phải tấn chín
-0.9708709	mã tấn chín
-0.9708709	tượng tấn chín
-0.9708709	tịnh tấn chín
-0.9708709	bộ tấn chín
-0.9708709	pháo tấn chín
-0.97829354	xe bình chín
-1.0644569	một bình chín
-0.97829354	trước bình chín
-0.97829354	sau bình chín
-1.1691923	hai bình chín
-1.1691923	ba bình chín
-1.1794114	bốn bình chín
-1.1893957	năm bình chín
-1.1794114	sáu bình chín
-1.1691923	bảy bình chín
-0.54972035	tám bình chín
-0.97829354	trái bình chín
-0.97829354	phải bình chín
-0.97829354	pháo bình chín
-0.9708709	xe thoái chín
-1.0689324	một thoái chín
-0.9859582	trước thoái chín
-0.9859582	sau thoái chín
-1.0874159	hai thoái chín
-1.1543627	ba thoái chín
-1.1794734	bốn thoái chín
-1.174566	năm thoái chín
-1.1794734	sáu thoái chín
-0.67173433	bảy thoái chín
-0.90856236	tám thoái chín
-1.0689324	chín thoái chín
-0.9859582	trái thoái chín
-0.9859582	phải thoái chín
-0.9708709	mã thoái chín
-0.9708709	tượng thoái chín
-0.9708709	tịnh thoái chín
-0.9708709	bộ thoái chín
-0.9708709	pháo thoái chín
-0.9708709	xe lùi chín
-1.0689324	một lùi chín
-0.9859582	trước lùi chín
-0.9859582	sau lùi chín
-1.0874159	hai lùi chín
-1.1543627	ba lùi chín
-1.1794734	bốn lùi chín
-1.174566	năm lùi chín
-1.1794734	sáu lùi chín
-0.67173433	bảy lùi chín
-0.90856236	tám lùi chín
-1.0689324	chín lùi chín
-0.9859582	trái lùi chín
-0.9859582	phải lùi chín
-0.9708709	mã lùi chín
-0.9708709	tượng lùi chín
-0.9708709	tịnh lùi chín
-0.9708709	bộ lùi chín
-0.9708709	pháo lùi chín
-1.8400882	<s> mã chín
-1.961363	<s> tượng chín
-1.961363	<s> tịnh chín
-1.961363	<s> bộ chín
-1.67975	<s> tốt chín
-1.0677894	trước giữa chín
-1.0677894	sau giữa chín
-1.0959675	tốt giữa chín
-1.0959675	binh giữa chín
-1.0959675	chốt giữa chín
-1.67975	<s> binh chín
-1.67975	<s> chốt chín
-1.5083077	<s> pháo chín
-2.1951795	<s> xe tấn
-0.6930304	xe một tấn
-0.6545311	trước một tấn
-0.6545311	sau một tấn
-0.65808046	mã một tấn
-0.65808046	tượng một tấn
-0.65808046	tịnh một tấn
-0.65808046	bộ một tấn
-0.7105331	tốt một tấn
-0.5095365	giữa một tấn
-0.7105331	binh một tấn
-0.7105331	chốt một tấn
-0.6930304	pháo một tấn
-1.7038543	xe trước tấn
-1.2569065	mã trước tấn
-1.0275698	tượng trước tấn
-1.0275698	tịnh trước tấn
-1.0275698	bộ trước tấn
-0.9949396	sĩ trước tấn
-1.7038543	pháo trước tấn
-1.7038543	xe sau tấn
-1.2569065	mã sau tấn
-1.0275698	tượng sau tấn
-1.0275698	tịnh sau tấn
-1.0275698	bộ sau tấn
-0.9949396	sĩ sau tấn
-1.7038543	pháo sau tấn
-0.6930304	xe hai tấn
-0.66332763	trước hai tấn
-0.66332763	sau hai tấn
-0.65808046	mã hai tấn
-0.65808046	tượng hai tấn
-0.65808046	tịnh hai tấn
-0.65808046	bộ hai tấn
-0.7493882	tốt hai tấn
-0.63447523	giữa hai tấn
-0.7493882	binh hai tấn
-0.7493882	chốt hai tấn
-0.6930304	pháo hai tấn
-0.6930304	xe ba tấn
-0.655872	trước ba tấn
-0.655872	sau ba tấn
-0.64338344	mã ba tấn
-0.65808046	tượng ba tấn
-0.65808046	tịnh ba tấn
-0.65808046	bộ ba tấn
-0.7493882	tốt ba tấn
-0.63447523	giữa ba tấn
-0.7493882	binh ba tấn
-0.7493882	chốt ba tấn
-0.6930304	pháo ba tấn
-0.69129765	xe bốn tấn
-0.65379864	trước bốn tấn
-0.65379864	sau bốn tấn
-0.63998973	mã bốn tấn
-0.6534067	tượng bốn tấn
-0.6534067	tịnh bốn tấn
-0.6534067	bộ bốn tấn
-0.6534067	sĩ bốn tấn
-0.7052629	tướng bốn tấn
-0.7052629	soái bốn tấn
-0.74362814	tốt bốn tấn
-0.633364	giữa bốn tấn
-0.74362814	binh bốn tấn
-0.74362814	chốt bốn tấn
-0.69129765	pháo bốn tấn
-0.69129765	xe năm tấn
-0.65537137	trước năm tấn
-0.65537137	sau năm tấn
-0.63998973	mã năm tấn
-0.6534067	tượng năm tấn
-0.6534067	tịnh năm tấn
-0.6534067	bộ năm tấn
-0.6534067	sĩ năm tấn
-0.74362814	tướng năm tấn
-0.74362814	soái năm tấn
-0.74362814	tốt năm tấn
-0.633364	giữa năm tấn
-0.74362814	binh năm tấn
-0.74362814	chốt năm tấn
-0.69129765	pháo năm tấn
-0.69129765	xe sáu tấn
-0.65379864	trước sáu tấn
-0.65379864	sau sáu tấn
-0.63998973	mã sáu tấn
-0.6534067	tượng sáu tấn
-0.6534067	tịnh sáu tấn
-0.6534067	bộ sáu tấn
-0.6534067	sĩ sáu tấn
-0.7052629	tướng sáu tấn
-0.7052629	soái sáu tấn
-0.74362814	tốt sáu tấn
-0.633364	giữa sáu tấn
-0.74362814	binh sáu tấn
-0.74362814	chốt sáu tấn
-0.69129765	pháo sáu tấn
-0.6930304	xe bảy tấn
-0.655872	trước bảy tấn
-0.655872	sau bảy tấn
-0.64338344	mã bảy tấn
-0.65808046	tượng bảy tấn
-0.65808046	tịnh bảy tấn
-0.65808046	bộ bảy tấn
-0.7493882	tốt bảy tấn
-0.63447523	giữa bảy tấn
-0.7493882	binh bảy tấn
-0.7493882	chốt bảy tấn
-0.6930304	pháo bảy tấn
-0.6930304	xe tám tấn
-0.66332763	trước tám tấn
-0.66332763	sau tám tấn
-0.65808046	mã tám tấn
-0.65808046	tượng tám tấn
-0.65808046	tịnh tám tấn
-0.65808046	bộ tám tấn
-0.7493882	tốt tám tấn
-0.63447523	giữa tám tấn
-0.7493882	binh tám tấn
-0.7493882	chốt tám tấn
-0.6930304	pháo tám tấn
-0.6930304	xe chín tấn
-0.6545311	trước chín tấn
-0.6545311	sau chín tấn
-0.65808046	mã chín tấn
-0.65808046	tượng chín tấn
-0.65808046	tịnh chín tấn
-0.65808046	bộ chín tấn
-0.7105331	tốt chín tấn
-0.5095365	giữa chín tấn
-0.7105331	binh chín tấn
-0.7105331	chốt chín tấn
-0.6930304	pháo chín tấn
-0.7002188	xe trái tấn
-0.6178165	mã trái tấn
-0.6178165	tượng trái tấn
-0.6178165	tịnh trái tấn
-0.6178165	bộ trái tấn
-0.6511556	sĩ trái tấn
-0.7002188	pháo trái tấn
-0.7002188	xe phải tấn
-0.6178165	mã phải tấn
-0.6178165	tượng phải tấn
-0.6178165	tịnh phải tấn
-0.6178165	bộ phải tấn
-0.6511556	sĩ phải tấn
-0.7002188	pháo phải tấn
-1.7794833	<s> mã tấn
-1.5886687	<s> tượng tấn
-1.5886687	<s> tịnh tấn
-1.5886687	<s> bộ tấn
-1.5296246	<s> sĩ tấn
-1.2730081	<s> tướng tấn
-1.2730081	<s> soái tấn
-2.1951795	<s> pháo tấn
-2.2038686	<s> xe bình
-0.7746598	xe một bình
-0.8035444	trước một bình
-0.8035444	sau một bình
-0.7972344	tốt một bình
-0.52635	giữa một bình
-0.7972344	binh một bình
-0.7972344	chốt một bình
-0.7746598	pháo một bình
-1.7493464	xe trước bình
-1.7493464	pháo trước bình
-1.7493464	xe sau bình
-1.7493464	pháo sau bình
-0.7746598	xe hai bình
-0.7631596	trước hai bình
-0.7631596	sau hai bình
-0.64556795	tốt hai bình
-0.3249472	giữa hai bình
-0.64556795	binh hai bình
-0.64556795	chốt hai bình
-0.7746598	pháo hai bình
-0.7746598	xe ba bình
-0.81586593	trước ba bình
-0.81586593	sau ba bình
-0.64556795	tốt ba bình
-0.3249472	giữa ba bình
-0.64556795	binh ba bình
-0.64556795	chốt ba bình
-0.7746598	pháo ba bình
-0.7726488	xe bốn bình
-0.8274045	trước bốn bình
-0.8274045	sau bốn bình
-0.7910507	tướng bốn bình
-0.7910507	soái bốn bình
-0.6411978	tốt bốn bình
-0.3244227	giữa bốn bình
-0.6411978	binh bốn bình
-0.6411978	chốt bốn bình
-0.7726488	pháo bốn bình
-0.7726488	xe năm bình
-0.81517	trước năm bình
-0.81517	sau năm bình
-0.6411978	tướng năm bình
-0.6411978	soái năm bình
-0.6411978	tốt năm bình
-0.3244227	giữa năm bình
-0.6411978	binh năm bình
-0.6411978	chốt năm bình
-0.7726488	pháo năm bình
-0.7726488	xe sáu bình
-0.8274045	trước sáu bình
-0.8274045	sau sáu bình
-0.7910507	tướng sáu bình
-0.7910507	soái sáu bình
-0.6411978	tốt sáu bình
-0.3244227	giữa sáu bình
-0.6411978	binh sáu bình
-0.6411978	chốt sáu bình
-0.7726488	pháo sáu bình
-0.7746598	xe bảy bình
-0.81586593	trước bảy bình
-0.81586593	sau bảy bình
-0.64556795	tốt bảy bình
-0.3249472	giữa bảy bình
-0.64556795	binh bảy bình
-0.64556795	chốt bảy bình
-0.7746598	pháo bảy bình
-0.7746598	xe tám bình
-0.7631596	trước tám bình
-0.7631596	sau tám bình
-0.64556795	tốt tám bình
-0.3249472	giữa tám bình
-0.64556795	binh tám bình
-0.64556795	chốt tám bình
-0.7746598	pháo tám bình
-0.7746598	xe chín bình
-0.8035444	trước chín bình
-0.8035444	sau chín bình
-0.7972344	tốt chín bình
-0.52635	giữa chín bình
-0.7972344	binh chín bình
-0.7972344	chốt chín bình
-0.7746598	pháo chín bình
-0.7596721	xe trái bình
-0.7596721	pháo trái bình
-0.7596721	xe phải bình
-0.7596721	pháo phải bình
-1.0245208	<s> tướng bình
-1.0245208	<s> soái bình
-2.2038686	<s> pháo bình
-2.1951795	<s> xe thoái
-0.71851707	xe một thoái
-0.7176916	trước một thoái
-0.7176916	sau một thoái
-0.7308445	mã một thoái
-0.7308445	tượng một thoái
-0.7308445	tịnh một thoái
-0.7308445	bộ một thoái
-0.71851707	pháo một thoái
-1.7038543	xe trước thoái
-1.2569065	mã trước thoái
-1.0275698	tượng trước thoái
-1.0275698	tịnh trước thoái
-1.0275698	bộ trước thoái
-0.9949396	sĩ trước thoái
-1.7038543	pháo trước thoái
-1.7038543	xe sau thoái
-1.2569065	mã sau thoái
-1.0275698	tượng sau thoái
-1.0275698	tịnh sau thoái
-1.0275698	bộ sau thoái
-0.9949396	sĩ sau thoái
-1.7038543	pháo sau thoái
-0.71851707	xe hai thoái
-0.7239701	trước hai thoái
-0.7239701	sau hai thoái
-0.7308445	mã hai thoái
-0.7308445	tượng hai thoái
-0.7308445	tịnh hai thoái
-0.7308445	bộ hai thoái
-0.71851707	pháo hai thoái
-0.71851707	xe ba thoái
-0.70817614	trước ba thoái
-0.70817614	sau ba thoái
-0.69489545	mã ba thoái
-0.7308445	tượng ba thoái
-0.7308445	tịnh ba thoái
-0.7308445	bộ ba thoái
-0.71851707	pháo ba thoái
-0.7116956	xe bốn thoái
-0.702819	trước bốn thoái
-0.702819	sau bốn thoái
-0.6808018	mã bốn thoái
-0.7105769	tượng bốn thoái
-0.7105769	tịnh bốn thoái
-0.7105769	bộ bốn thoái
-0.7105769	sĩ bốn thoái
-0.7702526	tướng bốn thoái
-0.7702526	soái bốn thoái
-0.7116956	pháo bốn thoái
-0.7116956	xe năm thoái
-0.7060713	trước năm thoái
-0.7060713	sau năm thoái
-0.6808018	mã năm thoái
-0.7105769	tượng năm thoái
-0.7105769	tịnh năm thoái
-0.7105769	bộ năm thoái
-0.7105769	sĩ năm thoái
-0.8151412	tướng năm thoái
-0.8151412	soái năm thoái
-0.7116956	pháo năm thoái
-0.7116956	xe sáu thoái
-0.702819	trước sáu thoái
-0.702819	sau sáu thoái
-0.6808018	mã sáu thoái
-0.7105769	tượng sáu thoái
-0.7105769	tịnh sáu thoái
-0.7105769	bộ sáu thoái
-0.7105769	sĩ sáu thoái
-0.7702526	tướng sáu thoái
-0.7702526	soái sáu thoái
-0.7116956	pháo sáu thoái
-0.71851707	xe bảy thoái
-0.70817614	trước bảy thoái
-0.70817614	sau bảy thoái
-0.69489545	mã bảy thoái
-0.7308445	tượng bảy thoái
-0.7308445	tịnh bảy thoái
-0.7308445	bộ bảy thoái
-0.71851707	pháo bảy thoái
-0.71851707	xe tám thoái
-0.7239701	trước tám thoái
-0.7239701	sau tám thoái
-0.7308445	mã tám thoái
-0.7308445	tượng tám thoái
-0.7308445	tịnh tám thoái
-0.7308445	bộ tám thoái
-0.71851707	pháo tám thoái
-0.71851707	xe chín thoái
-0.7176916	trước chín thoái
-0.7176916	sau chín thoái
-0.7308445	mã chín thoái
-0.7308445	tượng chín thoái
-0.7308445	tịnh chín thoái
-0.7308445	bộ chín thoái
-0.71851707	pháo chín thoái
-0.7002188	xe trái thoái
-0.6178165	mã trái thoái
-0.6178165	tượng trái thoái
-0.6178165	tịnh trái thoái
-0.6178165	bộ trái thoái
-0.6511556	sĩ trái thoái
-0.7002188	pháo trái thoái
-0.7002188	xe phải thoái
-0.6178165	mã phải thoái
-0.6178165	tượng phải thoái
-0.6178165	tịnh phải thoái
-0.6178165	bộ phải thoái
-0.6511556	sĩ phải thoái
-0.7002188	pháo phải thoái
-1.7794833	<s> mã thoái
-1.5886687	<s> tượng thoái
-1.5886687	<s> tịnh thoái
-1.5886687	<s> bộ thoái
-1.5296246	<s> sĩ thoái
-1.2730081	<s> tướng thoái
-1.2730081	<s> soái thoái
-2.1951795	<s> pháo thoái
-2.1951795	<s> xe lùi
-0.71851707	xe một lùi
-0.7176916	trước một lùi
-0.7176916	sau một lùi
-0.7308445	mã một lùi
-0.7308445	tượng một lùi
-0.7308445	tịnh một lùi
-0.7308445	bộ một lùi
-0.71851707	pháo một lùi
-1.7038543	xe trước lùi
-1.2569065	mã trước lùi
-1.0275698	tượng trước lùi
-1.0275698	tịnh trước lùi
-1.0275698	bộ trước lùi
-0.9949396	sĩ trước lùi
-1.7038543	pháo trước lùi
-1.7038543	xe sau lùi
-1.2569065	mã sau lùi
-1.0275698	tượng sau lùi
-1.0275698	tịnh sau lùi
-1.0275698	bộ sau lùi
-0.9949396	sĩ sau lùi
-1.7038543	pháo sau lùi
-0.71851707	xe hai lùi
-0.7239701	trước hai lùi
-0.7239701	sau hai lùi
-0.7308445	mã hai lùi
-0.7308445	tượng hai lùi
-0.7308445	tịnh hai lùi
-0.7308445	bộ hai lùi
-0.71851707	pháo hai lùi
-0.71851707	xe ba lùi
-0.70817614	trước ba lùi
-0.70817614	sau ba lùi
-0.69489545	mã ba lùi
-0.7308445	tượng ba lùi
-0.7308445	tịnh ba lùi
-0.7308445	bộ ba lùi
-0.71851707	pháo ba lùi
-0.7116956	xe bốn lùi
-0.702819	trước bốn lùi
-0.702819	sau bốn lùi
-0.6808018	mã bốn lùi
-0.7105769	tượng bốn lùi
-0.7105769	tịnh bốn lùi
-0.7105769	bộ bốn lùi
-0.7105769	sĩ bốn lùi
-0.7702526	tướng bốn lùi
-0.7702526	soái bốn lùi
-0.7116956	pháo bốn lùi
-0.7116956	xe năm lùi
-0.7060713	trước năm lùi
-0.7060713	sau năm lùi
-0.6808018	mã năm lùi
-0.7105769	tượng năm lùi
-0.7105769	tịnh năm lùi
-0.7105769	bộ năm lùi
-0.7105769	sĩ năm lùi
-0.8151412	tướng năm lùi
-0.8151412	soái năm lùi
-0.7116956	pháo năm lùi
-0.7116956	xe sáu lùi
-0.702819	trước sáu lùi
-0.702819	sau sáu lùi
-0.6808018	mã sáu lùi
-0.7105769	tượng sáu lùi
-0.7105769	tịnh sáu lùi
-0.7105769	bộ sáu lùi
-0.7105769	sĩ sáu lùi
-0.7702526	tướng sáu lùi
-0.7702526	soái sáu lùi
-0.7116956	pháo sáu lùi
-0.71851707	xe bảy lùi
-0.70817614	trước bảy lùi
-0.70817614	sau bảy lùi
-0.69489545	mã bảy lùi
-0.7308445	tượng bảy lùi
-0.7308445	tịnh bảy lùi
-0.7308445	bộ bảy lùi
-0.71851707	pháo bảy lùi
-0.71851707	xe tám lùi
-0.7239701	trước tám lùi
-0.7239701	sau tám lùi
-0.7308445	mã tám lùi
-0.7308445	tượng tám lùi
-0.7308445	tịnh tám lùi
-0.7308445	bộ tám lùi
-0.71851707	pháo tám lùi
-0.71851707	xe chín lùi
-0.7176916	trước chín lùi
-0.7176916	sau chín lùi
-0.7308445	mã chín lùi
-0.7308445	tượng chín lùi
-0.7308445	tịnh chín lùi
-0.7308445	bộ chín lùi
-0.71851707	pháo chín lùi
-0.7002188	xe trái lùi
-0.6178165	mã trái lùi
-0.6178165	tượng trái lùi
-0.6178165	tịnh trái lùi
-0.6178165	bộ trái lùi
-0.6511556	sĩ trái lùi
-0.7002188	pháo trái lùi
-0.7002188	xe phải lùi
-0.6178165	mã phải lùi
-0.6178165	tượng phải lùi
-0.6178165	tịnh phải lùi
-0.6178165	bộ phải lùi
-0.6511556	sĩ phải lùi
-0.7002188	pháo phải lùi
-1.7794833	<s> mã lùi
-1.5886687	<s> tượng lùi
-1.5886687	<s> tịnh lùi
-1.5886687	<s> bộ lùi
-1.5296246	<s> sĩ lùi
-1.2730081	<s> tướng lùi
-1.2730081	<s> soái lùi
-2.1951795	<s> pháo lùi
-1.501985	<s> xe trái
-1.1825756	<s> mã trái
-0.9917611	<s> tượng trái
-0.9917611	<s> tịnh trái
-0.9917611	<s> bộ trái
-0.9072611	<s> sĩ trái
-1.501985	<s> pháo trái
-1.501985	<s> xe phải
-1.1825756	<s> mã phải
-0.9917611	<s> tượng phải
-0.9917611	<s> tịnh phải
-0.9917611	<s> bộ phải
-0.9072611	<s> sĩ phải
-1.501985	<s> pháo phải
-0.31759983	tốt trước giữa
-0.31759983	binh trước giữa
-0.31759983	chốt trước giữa
-0.31759983	tốt sau giữa
-0.31759983	binh sau giữa
-0.31759983	chốt sau giữa
-0.8231895	<s> tốt giữa
-0.8231895	<s> binh giữa
-0.8231895	<s> chốt giữa
-0.93939036	tốt một qua
-0.93939036	binh một qua
-0.93939036	chốt một qua
-1.0074024	tốt hai qua
-1.0074024	binh hai qua
-1.0074024	chốt hai qua
-1.0074024	tốt ba qua
-1.0074024	binh ba qua
-1.0074024	chốt ba qua
-1.0202799	tốt bốn qua
-1.0202799	binh bốn qua
-1.0202799	chốt bốn qua
-1.0202799	tốt năm qua
-1.0202799	binh năm qua
-1.0202799	chốt năm qua
-1.0202799	tốt sáu qua
-1.0202799	binh sáu qua
-1.0202799	chốt sáu qua
-1.0074024	tốt bảy qua
-1.0074024	binh bảy qua
-1.0074024	chốt bảy qua
-1.0074024	tốt tám qua
-1.0074024	binh tám qua
-1.0074024	chốt tám qua
-0.93939036	tốt chín qua
-0.93939036	binh chín qua
-0.93939036	chốt chín qua
-0.03758827	một qua sông
-0.03758827	hai qua sông
-0.03758827	ba qua sông
-0.03758827	bốn qua sông
-0.03758827	năm qua sông
-0.03758827	sáu qua sông
-0.03758827	bảy qua sông
-0.03758827	tám qua sông
-0.03758827	chín qua sông
-0.03758827	một sang sông
-0.03758827	hai sang sông
-0.03758827	ba sang sông
-0.03758827	bốn sang sông
-0.03758827	năm sang sông
-0.03758827	sáu sang sông
-0.03758827	bảy sang sông
-0.03758827	tám sang sông
-0.03758827	chín sang sông
-0.93939036	tốt một sang
-0.93939036	binh một sang
-0.93939036	chốt một sang
-1.0074024	tốt hai sang
-1.0074024	binh hai sang
-1.0074024	chốt hai sang
-1.0074024	tốt ba sang
-1.0074024	binh ba sang
-1.0074024	chốt ba sang
-1.0202799	tốt bốn sang
-1.0202799	binh bốn sang
-1.0202799	chốt bốn sang
-1.0202799	tốt năm sang
-1.0202799	binh năm sang
-1.0202799	chốt năm sang
-1.0202799	tốt sáu sang
-1.0202799	binh sáu sang
-1.0202799	chốt sáu sang
-1.0074024	tốt bảy sang
-1.0074024	binh bảy sang
-1.0074024	chốt bảy sang
-1.0074024	tốt tám sang
-1.0074024	binh tám sang
-1.0074024	chốt tám sang
-0.93939036	tốt chín sang
-0.93939036	binh chín sang
-0.93939036	chốt chín sang
-0.01093888	<s> chấp nhận
-0.01093888	<s> xác nhận
-0.010953613	<s> đồng ý
-0.010953613	<s> hủy bỏ
-0.010953613	<s> từ chối
-0.010953613	<s> đầu hàng
-0.31194183	<s> xin hòa
-0.010953613	<s> đổi phe
-0.31194183	<s> xin chơi
-0.01093888	xin chơi lại
-0.01093888	<s> đi lại

\end\
