\data\
ngram 1=59
ngram 2=493
ngram 3=3363

\1-grams:
-2.6400337	<unk>	0
0	<s>	-4.41832
-1.166129	</s>	0
-2.364608	tướng	-0.30103
-1.3013947	ăn	-1.2218487
-2.273005	sĩ	-0.30103
-1.3013947	bắt	-1.2218487
-1.3999419	năm	-0.89645934
-1.3999419	sáu	-0.89645934
-1.7092518	sau	-0.71421
-1.3999419	bốn	-0.89645934
-1.8713785	phải	-0.64948463
-1.7092518	trước	-0.71421
-1.8713785	trái	-0.64948463
-2.273005	tượng	-0.30103
-1.4466116	một	-0.8159398
-1.4466116	bảy	-0.8159398
-1.4466116	ba	-0.8159398
-1.4466116	tám	-0.8159398
-1.4466116	chín	-0.8159398
-1.4466116	hai	-0.8159398
-2.273005	tịnh	-0.30103
-2.273005	bộ	-0.30103
-2.273005	xe	-0.30103
-2.273005	mã	-0.30103
-2.273005	pháo	-0.30103
-2.273005	tốt	-0.30103
-2.0273306	giữa	-0.5228787
-2.273005	binh	-0.30103
-2.273005	chốt	-0.30103
-2.480843	soái	-0.30103
-1.3578043	tiến	-1.115179
-1.3578043	tấn	-1.115179
-1.4719727	bình	-0.99024016
-1.3578043	thoái	-1.115179
-1.3578043	lùi	-1.115179
-1.7568709	qua	-0.7781512
-2.364608	sông	-0.30103
-1.7568709	sang	-0.7781512
-2.480843	chấp	-0.30103
-2.364608	nhận	-0.30103
-2.480843	xác	-0.30103
-2.480843	đồng	-0.30103
-2.480843	ý	-0.30103
-2.480843	ok	-0.30103
-2.480843	hủy	-0.30103
-2.480843	bỏ	-0.30103
-2.480843	từ	-0.30103
-2.480843	chối	-0.30103
-2.480843	đầu	-0.30103
-2.480843	hàng	-0.30103
-2.480843	xin	-0.30103
-2.480843	hòa	-0.30103
-2.480843	đổi	-0.30103
-2.480843	phe	-0.30103
-2.480843	chơi	-0.30103
-2.364608	lại	-0.30103
-2.480843	đi	-0.30103
-1.3381755	chiếu	-1.1856365

\2-grams:
-1.2283626	tướng </s>	0
-1.1710815	sĩ </s>	0
-0.8438348	năm </s>	0
-0.8438348	sáu </s>	0
-1.2915509	sau </s>	0
-0.8438348	bốn </s>	0
-0.9581463	phải </s>	0
-1.2915509	trước </s>	0
-0.9581463	trái </s>	0
-1.2601103	tượng </s>	0
-0.7872817	một </s>	0
-0.7872817	bảy </s>	0
-0.7872817	ba </s>	0
-0.7872817	tám </s>	0
-0.7872817	chín </s>	0
-0.7872817	hai </s>	0
-1.2601103	tịnh </s>	0
-1.2601103	bộ </s>	0
-1.2634842	xe </s>	0
-1.2601103	mã </s>	0
-1.2634842	pháo </s>	0
-1.232866	tốt </s>	0
-1.232866	binh </s>	0
-1.232866	chốt </s>	0
-0.27237192	sông </s>	0
-0.27237192	nhận </s>	0
-0.27237192	ý </s>	0
-0.27237192	ok </s>	0
-0.27237192	bỏ </s>	0
-0.27237192	chối </s>	0
-0.27237192	hàng </s>	0
-0.27237192	hòa </s>	0
-0.27237192	phe </s>	0
-0.27237192	lại </s>	0
-2.2549925	<s> tướng	-2.5058732
-0.029158518	chiếu tướng	-3.870404
-1.3012123	tướng ăn	-1.3932827
-1.38043	sĩ ăn	-1.3932827
-0.9578697	năm ăn	-3.0060666
-0.9578697	sáu ăn	-3.0060666
-1.3225929	sau ăn	-2.2383807
-0.9578697	bốn ăn	-3.0060666
-0.9745914	phải ăn	-2.2383807
-1.3225929	trước ăn	-2.2383807
-0.9745914	trái ăn	-2.2383807
-1.4510497	tượng ăn	-1.3932827
-0.9794121	một ăn	-2.9495852
-0.9794121	bảy ăn	-2.9495852
-0.9794121	ba ăn	-2.9495852
-0.9794121	tám ăn	-2.9495852
-0.9794121	chín ăn	-2.9495852
-0.9794121	hai ăn	-2.9495852
-1.4510497	tịnh ăn	-1.3932827
-1.4510497	bộ ăn	-1.3932827
-1.453666	xe ăn	-1.3932827
-1.4510497	mã ăn	-1.3932827
-1.453666	pháo ăn	-1.3932827
-1.429759	tốt ăn	-1.3932827
-1.429759	binh ăn	-1.3932827
-1.429759	chốt ăn	-1.3932827
-1.1250602	soái ăn	-1.3932827
-1.5954655	<s> sĩ	-3.0191758
-1.0253962	ăn sĩ	-2.645586
-1.0253962	bắt sĩ	-2.645586
-1.3012123	tướng bắt	-1.3932827
-1.38043	sĩ bắt	-1.3932827
-0.9578697	năm bắt	-3.0060666
-0.9578697	sáu bắt	-3.0060666
-1.3225929	sau bắt	-2.2383807
-0.9578697	bốn bắt	-3.0060666
-0.9745914	phải bắt	-2.2383807
-1.3225929	trước bắt	-2.2383807
-0.9745914	trái bắt	-2.2383807
-1.4510497	tượng bắt	-1.3932827
-0.9794121	một bắt	-2.9495852
-0.9794121	bảy bắt	-2.9495852
-0.9794121	ba bắt	-2.9495852
-0.9794121	tám bắt	-2.9495852
-0.9794121	chín bắt	-2.9495852
-0.9794121	hai bắt	-2.9495852
-1.4510497	tịnh bắt	-1.3932827
-1.4510497	bộ bắt	-1.3932827
-1.453666	xe bắt	-1.3932827
-1.4510497	mã bắt	-1.3932827
-1.453666	pháo bắt	-1.3932827
-1.429759	tốt bắt	-1.3932827
-1.429759	binh bắt	-1.3932827
-1.429759	chốt bắt	-1.3932827
-1.1250602	soái bắt	-1.3932827
-1.155473	tướng năm	-3.012556
-1.155473	sĩ năm	-2.3082085
-1.1784256	sau năm	-3.3350492
-1.1784256	trước năm	-3.3350492
-1.2910862	tượng năm	-2.3082085
-1.2910862	tịnh năm	-2.3082085
-1.2910862	bộ năm	-2.3082085
-1.2965343	xe năm	-2.595578
-1.2910862	mã năm	-2.4093695
-1.2965343	pháo năm	-2.595578
-1.2480024	tốt năm	-2.227601
-1.0470982	giữa năm	-3.2593892
-1.2480024	binh năm	-2.227601
-1.2480024	chốt năm	-2.227601
-1.155473	soái năm	-2.065882
-0.9659024	tiến năm	-3.8239088
-0.9659024	tấn năm	-3.8239088
-0.9433978	bình năm	-3.7269988
-0.9659024	thoái năm	-3.8239088
-0.9659024	lùi năm	-3.8239088
-1.155473	tướng sáu	-3.0097342
-1.155473	sĩ sáu	-2.2471547
-1.1784256	sau sáu	-3.3397825
-1.1784256	trước sáu	-3.3397825
-1.2910862	tượng sáu	-2.3082085
-1.2910862	tịnh sáu	-2.3082085
-1.2910862	bộ sáu	-2.3082085
-1.2965343	xe sáu	-2.595578
-1.2910862	mã sáu	-2.4093695
-1.2965343	pháo sáu	-2.595578
-1.2480024	tốt sáu	-2.227601
-1.0470982	giữa sáu	-3.2593892
-1.2480024	binh sáu	-2.227601
-1.2480024	chốt sáu	-2.227601
-1.155473	soái sáu	-2.0364769
-0.9659024	tiến sáu	-3.80618
-0.9659024	tấn sáu	-3.80618
-0.9433978	bình sáu	-3.7182248
-0.9659024	thoái sáu	-3.80618
-0.9659024	lùi sáu	-3.80618
-1.2235456	sĩ sau	-2.7269988
-1.3870463	tượng sau	-2.9976091
-1.3870463	tịnh sau	-2.9976091
-1.3870463	bộ sau	-2.9976091
-1.3938522	xe sau	-3.2952003
-1.3870463	mã sau	-3.0774748
-1.3938522	pháo sau	-3.2952003
-1.3339372	tốt sau	-3.4018598
-1.3339372	binh sau	-3.4018598
-1.3339372	chốt sau	-3.4018598
-1.155473	tướng bốn	-3.0097342
-1.155473	sĩ bốn	-2.2471547
-1.1784256	sau bốn	-3.3397825
-1.1784256	trước bốn	-3.3397825
-1.2910862	tượng bốn	-2.3082085
-1.2910862	tịnh bốn	-2.3082085
-1.2910862	bộ bốn	-2.3082085
-1.2965343	xe bốn	-2.595578
-1.2910862	mã bốn	-2.4093695
-1.2965343	pháo bốn	-2.595578
-1.2480024	tốt bốn	-2.227601
-1.0470982	giữa bốn	-3.2593892
-1.2480024	binh bốn	-2.227601
-1.2480024	chốt bốn	-2.227601
-1.155473	soái bốn	-2.0364769
-0.9659024	tiến bốn	-3.80618
-0.9659024	tấn bốn	-3.80618
-0.9433978	bình bốn	-3.7182248
-0.9659024	thoái bốn	-3.80618
-0.9659024	lùi bốn	-3.80618
-1.2462375	sĩ phải	-2.361728
-1.4205201	tượng phải	-2.5910647
-1.4205201	tịnh phải	-2.5910647
-1.4205201	bộ phải	-2.5910647
-1.4278759	xe phải	-2.60206
-1.4205201	mã phải	-2.5910647
-1.4278759	pháo phải	-2.60206
-1.2235456	sĩ trước	-2.7269988
-1.3870463	tượng trước	-2.9976091
-1.3870463	tịnh trước	-2.9976091
-1.3870463	bộ trước	-2.9976091
-1.3938522	xe trước	-3.2952003
-1.3870463	mã trước	-3.0774748
-1.3938522	pháo trước	-3.2952003
-1.3339372	tốt trước	-3.4018598
-1.3339372	binh trước	-3.4018598
-1.3339372	chốt trước	-3.4018598
-1.2462375	sĩ trái	-2.361728
-1.4205201	tượng trái	-2.5910647
-1.4205201	tịnh trái	-2.5910647
-1.4205201	bộ trái	-2.5910647
-1.4278759	xe trái	-2.60206
-1.4205201	mã trái	-2.5910647
-1.4278759	pháo trái	-2.60206
-1.1502059	<s> tượng	-3.3095167
-1.0253962	ăn tượng	-2.76157
-1.0253962	bắt tượng	-2.76157
-1.367749	tướng một	-3.870404
-1.2318847	sau một	-3.277227
-1.2318847	trước một	-3.277227
-1.3086566	tượng một	-2.2471547
-1.3086566	tịnh một	-2.2471547
-1.3086566	bộ một	-2.2471547
-1.314331	xe một	-2.595578
-1.3086566	mã một	-2.3082085
-1.314331	pháo một	-2.595578
-1.2638826	tốt một	-2.2120888
-1.0530295	giữa một	-3.2426834
-1.2638826	binh một	-2.2120888
-1.2638826	chốt một	-2.2120888
-0.9448574	tiến một	-4.156751
-0.9448574	tấn một	-4.156751
-1.0072073	bình một	-3.6078124
-0.9448574	thoái một	-3.7563825
-0.9448574	lùi một	-3.7563825
-1.367749	tướng bảy	-3.870404
-1.2318847	sau bảy	-3.307417
-1.2318847	trước bảy	-3.307417
-1.3086566	tượng bảy	-2.3082085
-1.3086566	tịnh bảy	-2.3082085
-1.3086566	bộ bảy	-2.3082085
-1.314331	xe bảy	-2.595578
-1.3086566	mã bảy	-2.4093695
-1.314331	pháo bảy	-2.595578
-1.2638826	tốt bảy	-2.227601
-1.0530295	giữa bảy	-3.2593892
-1.2638826	binh bảy	-2.227601
-1.2638826	chốt bảy	-2.227601
-0.99065655	tiến bảy	-3.7839036
-0.99065655	tấn bảy	-3.7839036
-1.0072073	bình bảy	-3.7001266
-0.99065655	thoái bảy	-3.7839036
-0.99065655	lùi bảy	-3.7839036
-1.367749	tướng ba	-3.870404
-1.2318847	sau ba	-3.307417
-1.2318847	trước ba	-3.307417
-1.3086566	tượng ba	-2.3082085
-1.3086566	tịnh ba	-2.3082085
-1.3086566	bộ ba	-2.3082085
-1.314331	xe ba	-2.595578
-1.3086566	mã ba	-2.4093695
-1.314331	pháo ba	-2.595578
-1.2638826	tốt ba	-2.227601
-1.0530295	giữa ba	-3.2593892
-1.2638826	binh ba	-2.227601
-1.2638826	chốt ba	-2.227601
-0.99065655	tiến ba	-3.7839036
-0.99065655	tấn ba	-3.7839036
-1.0072073	bình ba	-3.7001266
-0.99065655	thoái ba	-3.7839036
-0.99065655	lùi ba	-3.7839036
-1.367749	tướng tám	-3.870404
-1.2318847	sau tám	-3.2866395
-1.2318847	trước tám	-3.2866395
-1.3086566	tượng tám	-2.2471547
-1.3086566	tịnh tám	-2.2471547
-1.3086566	bộ tám	-2.2471547
-1.314331	xe tám	-2.595578
-1.3086566	mã tám	-2.361728
-1.314331	pháo tám	-2.595578
-1.2638826	tốt tám	-2.227601
-1.0530295	giữa tám	-3.2593892
-1.2638826	binh tám	-2.227601
-1.2638826	chốt tám	-2.227601
-0.99065655	tiến tám	-3.7355988
-0.99065655	tấn tám	-3.7355988
-1.0072073	bình tám	-3.7001266
-0.99065655	thoái tám	-3.7355988
-0.99065655	lùi tám	-3.7355988
-1.367749	tướng chín	-3.870404
-1.2318847	sau chín	-3.277227
-1.2318847	trước chín	-3.277227
-1.3086566	tượng chín	-2.2471547
-1.3086566	tịnh chín	-2.2471547
-1.3086566	bộ chín	-2.2471547
-1.314331	xe chín	-2.595578
-1.3086566	mã chín	-2.3082085
-1.314331	pháo chín	-2.595578
-1.2638826	tốt chín	-2.2120888
-1.0530295	giữa chín	-3.2426834
-1.2638826	binh chín	-2.2120888
-1.2638826	chốt chín	-2.2120888
-0.99065655	tiến chín	-3.7226338
-0.99065655	tấn chín	-3.7226338
-1.0072073	bình chín	-3.6078124
-0.99065655	thoái chín	-3.7226338
-0.99065655	lùi chín	-3.7226338
-1.367749	tướng hai	-3.870404
-1.2318847	sau hai	-3.2866395
-1.2318847	trước hai	-3.2866395
-1.3086566	tượng hai	-2.2471547
-1.3086566	tịnh hai	-2.2471547
-1.3086566	bộ hai	-2.2471547
-1.314331	xe hai	-2.595578
-1.3086566	mã hai	-2.361728
-1.314331	pháo hai	-2.595578
-1.2638826	tốt hai	-2.227601
-1.0530295	giữa hai	-3.2593892
-1.2638826	binh hai	-2.227601
-1.2638826	chốt hai	-2.227601
-0.99065655	tiến hai	-3.7355988
-0.99065655	tấn hai	-3.7355988
-1.0072073	bình hai	-3.7001266
-0.99065655	thoái hai	-3.7355988
-0.99065655	lùi hai	-3.7355988
-1.1502059	<s> tịnh	-3.3095167
-1.0253962	ăn tịnh	-2.76157
-1.0253962	bắt tịnh	-2.76157
-1.1502059	<s> bộ	-3.3095167
-1.0253962	ăn bộ	-2.76157
-1.0253962	bắt bộ	-2.76157
-0.77134466	<s> xe	-3.6671832
-1.0253962	ăn xe	-2.76157
-1.0253962	bắt xe	-2.76157
-1.0529307	<s> mã	-3.4067898
-1.0253962	ăn mã	-2.76157
-1.0253962	bắt mã	-2.76157
-0.77134466	<s> pháo	-3.6671832
-1.0253962	ăn pháo	-2.76157
-1.0253962	bắt pháo	-2.76157
-1.0613756	<s> tốt	-3.523284
-1.0253962	ăn tốt	-3.0289674
-1.0253962	bắt tốt	-3.0289674
-1.9151348	sau giữa	-3.6237087
-1.9151348	trước giữa	-3.6237087
-1.3842561	tốt giữa	-3.1465874
-1.3842561	binh giữa	-3.1465874
-1.3842561	chốt giữa	-3.1465874
-1.0613756	<s> binh	-3.523284
-1.0253962	ăn binh	-3.0289674
-1.0253962	bắt binh	-3.0289674
-1.0613756	<s> chốt	-3.523284
-1.0253962	ăn chốt	-3.0289674
-1.0253962	bắt chốt	-3.0289674
-2.2549956	<s> soái	-2.5058732
-1.32849	tướng tiến	-1.7269987
-1.413378	sĩ tiến	-1.7269987
-0.9609246	năm tiến	-2.798062
-0.9609246	sáu tiến	-2.80214
-1.3334537	sau tiến	-2.528631
-0.9609246	bốn tiến	-2.80214
-0.9802145	phải tiến	-2.528631
-1.3334537	trước tiến	-2.528631
-0.9802145	trái tiến	-2.528631
-1.4900843	tượng tiến	-1.7269987
-0.9832799	một tiến	-2.7122755
-0.9832799	bảy tiến	-2.7813563
-0.9832799	ba tiến	-2.7813563
-0.9832799	tám tiến	-2.7269988
-0.9832799	chín tiến	-2.7122755
-0.9832799	hai tiến	-2.7269988
-1.4900843	tịnh tiến	-1.7269987
-1.4900843	bộ tiến	-1.7269987
-1.4929473	xe tiến	-1.7269987
-1.4900843	mã tiến	-1.7269987
-1.4929473	pháo tiến	-1.7269987
-1.1430511	soái tiến	-1.7269987
-1.32849	tướng tấn	-1.7269987
-1.413378	sĩ tấn	-1.7269987
-0.9609246	năm tấn	-2.798062
-0.9609246	sáu tấn	-2.80214
-1.3334537	sau tấn	-2.528631
-0.9609246	bốn tấn	-2.80214
-0.9802145	phải tấn	-2.528631
-1.3334537	trước tấn	-2.528631
-0.9802145	trái tấn	-2.528631
-1.4900843	tượng tấn	-1.7269987
-0.9832799	một tấn	-2.7122755
-0.9832799	bảy tấn	-2.7813563
-0.9832799	ba tấn	-2.7813563
-0.9832799	tám tấn	-2.7269988
-0.9832799	chín tấn	-2.7122755
-0.9832799	hai tấn	-2.7269988
-1.4900843	tịnh tấn	-1.7269987
-1.4900843	bộ tấn	-1.7269987
-1.4929473	xe tấn	-1.7269987
-1.4900843	mã tấn	-1.7269987
-1.4929473	pháo tấn	-1.7269987
-1.1430511	soái tấn	-1.7269987
-1.3781445	tướng bình	-1.7269987
-1.1569802	năm bình	-2.7683914
-1.1569802	sáu bình	-2.758407
-1.8725681	sau bình	-2.0280287
-1.1569802	bốn bình	-2.758407
-1.6055179	phải bình	-2.0280287
-1.8725681	trước bình	-2.0280287
-1.6055179	trái bình	-2.0280287
-1.1848308	một bình	-2.6434526
-1.1848308	bảy bình	-2.748188
-1.1848308	ba bình	-2.748188
-1.1848308	tám bình	-2.748188
-1.1848308	chín bình	-2.6434526
-1.1848308	hai bình	-2.748188
-1.5675197	xe bình	-1.7269987
-1.5675197	pháo bình	-1.7269987
-1.1747984	soái bình	-1.7269987
-1.32849	tướng thoái	-1.7269987
-1.413378	sĩ thoái	-1.7269987
-1.1043267	năm thoái	-2.717239
-1.1043267	sáu thoái	-2.7221463
-1.3334537	sau thoái	-2.528631
-1.1043267	bốn thoái	-2.7221463
-0.9802145	phải thoái	-2.528631
-1.3334537	trước thoái	-2.528631
-0.9802145	trái thoái	-2.528631
-1.4900843	tượng thoái	-1.7269987
-1.1746519	một thoái	-2.6116054
-1.1746519	bảy thoái	-2.6970356
-1.1746519	ba thoái	-2.6970356
-1.1746519	tám thoái	-2.6300888
-1.1746519	chín thoái	-2.6116054
-1.1746519	hai thoái	-2.6300888
-1.4900843	tịnh thoái	-1.7269987
-1.4900843	bộ thoái	-1.7269987
-1.4929473	xe thoái	-1.7269987
-1.4900843	mã thoái	-1.7269987
-1.4929473	pháo thoái	-1.7269987
-1.1430511	soái thoái	-1.7269987
-1.32849	tướng lùi	-1.7269987
-1.413378	sĩ lùi	-1.7269987
-1.1043267	năm lùi	-2.717239
-1.1043267	sáu lùi	-2.7221463
-1.3334537	sau lùi	-2.528631
-1.1043267	bốn lùi	-2.7221463
-0.9802145	phải lùi	-2.528631
-1.3334537	trước lùi	-2.528631
-0.9802145	trái lùi	-2.528631
-1.4900843	tượng lùi	-1.7269987
-1.1746519	một lùi	-2.6116054
-1.1746519	bảy lùi	-2.6970356
-1.1746519	ba lùi	-2.6970356
-1.1746519	tám lùi	-2.6300888
-1.1746519	chín lùi	-2.6116054
-1.1746519	hai lùi	-2.6300888
-1.4900843	tịnh lùi	-1.7269987
-1.4900843	bộ lùi	-1.7269987
-1.4929473	xe lùi	-1.7269987
-1.4900843	mã lùi	-1.7269987
-1.4929473	pháo lùi	-1.7269987
-1.1430511	soái lùi	-1.7269987
-1.861379	năm qua	-2.20412
-1.861379	sáu qua	-2.20412
-1.861379	bốn qua	-2.20412
-1.7808595	một qua	-2.20412
-1.7808595	bảy qua	-2.20412
-1.7808595	ba qua	-2.20412
-1.7808595	tám qua	-2.20412
-1.7808595	chín qua	-2.20412
-1.7808595	hai qua	-2.20412
-0.07880627	qua sông	-3.1583624
-0.07880627	sang sông	-3.1583624
-1.861379	năm sang	-2.20412
-1.861379	sáu sang	-2.20412
-1.861379	bốn sang	-2.20412
-1.7808595	một sang	-2.20412
-1.7808595	bảy sang	-2.20412
-1.7808595	ba sang	-2.20412
-1.7808595	tám sang	-2.20412
-1.7808595	chín sang	-2.20412
-1.7808595	hai sang	-2.20412
-2.2379851	<s> chấp	-3.5228786
-0.2991583	chấp nhận	-3.5228786
-0.2991583	xác nhận	-3.5228786
-2.2379851	<s> xác	-3.5228786
-2.2379851	<s> đồng	-3.5228786
-0.29959708	đồng ý	-3.5228786
-2.2379851	<s> ok	-3.5228786
-2.2379851	<s> hủy	-3.5228786
-0.29959708	hủy bỏ	-3.5228786
-2.2379851	<s> từ	-3.5228786
-0.29959708	từ chối	-3.5228786
-2.2379851	<s> đầu	-3.5228786
-0.29959708	đầu hàng	-3.5228786
-1.9368948	<s> xin	-3.5228786
-0.5991989	xin hòa	-3.5228786
-2.2379851	<s> đổi	-3.5228786
-0.29959708	đổi phe	-3.5228786
-0.5991989	xin chơi	-3.5228786
-0.2991583	chơi lại	-3.5228786
-0.2991583	đi lại	-3.5228786
-2.2379851	<s> đi	-3.5228786
-1.4021153	sĩ chiếu	-2.30103
-1.0255461	năm chiếu	-3.8920946
-1.0255461	sáu chiếu	-3.8920946
-1.3298031	sau chiếu	-3.146128
-1.0255461	bốn chiếu	-3.8920946
-0.97833204	phải chiếu	-3.146128
-1.3298031	trước chiếu	-3.146128
-0.97833204	trái chiếu	-3.146128
-1.4766791	tượng chiếu	-2.30103
-0.9819868	một chiếu	-3.8573325
-0.9819868	bảy chiếu	-3.8573325
-0.9819868	ba chiếu	-3.8573325
-0.9819868	tám chiếu	-3.8573325
-0.9819868	chín chiếu	-3.8573325
-0.9819868	hai chiếu	-3.8573325
-1.4766791	tịnh chiếu	-2.30103
-1.4766791	bộ chiếu	-2.30103
-1.4794549	xe chiếu	-2.30103
-1.4766791	mã chiếu	-2.30103
-1.4794549	pháo chiếu	-2.30103
-1.4541273	tốt chiếu	-2.30103
-1.4541273	binh chiếu	-2.30103
-1.4541273	chốt chiếu	-2.30103

\3-grams:
-1.000024	chiếu tướng </s>
-1.1469203	ăn sĩ </s>
-1.1469203	bắt sĩ </s>
-0.045233574	tướng năm </s>
-0.507595	sĩ năm </s>
-0.58568877	sau năm </s>
-0.58568877	trước năm </s>
-0.507595	tượng năm </s>
-0.507595	tịnh năm </s>
-0.507595	bộ năm </s>
-0.84599376	xe năm </s>
-0.6087559	mã năm </s>
-0.84599376	pháo năm </s>
-0.47801694	tốt năm </s>
-0.44666636	giữa năm </s>
-0.47801694	binh năm </s>
-0.47801694	chốt năm </s>
-0.000055813733	tiến năm </s>
-0.000055813733	tấn năm </s>
-0.00006976829	bình năm </s>
-0.000055813733	thoái năm </s>
-0.000055813733	lùi năm </s>
-0.042411633	tướng sáu </s>
-0.446541	sĩ sáu </s>
-0.5904223	sau sáu </s>
-0.5904223	trước sáu </s>
-0.507595	tượng sáu </s>
-0.507595	tịnh sáu </s>
-0.507595	bộ sáu </s>
-0.84599376	xe sáu </s>
-0.6087559	mã sáu </s>
-0.84599376	pháo sáu </s>
-0.47801694	tốt sáu </s>
-0.44666636	giữa sáu </s>
-0.47801694	binh sáu </s>
-0.47801694	chốt sáu </s>
-0.000058117887	tiến sáu </s>
-0.000058117887	tấn sáu </s>
-0.00007119225	bình sáu </s>
-0.000058117887	thoái sáu </s>
-0.000058117887	lùi sáu </s>
-1.06519	sĩ sau </s>
-1.5245929	tượng sau </s>
-1.5245929	tịnh sau </s>
-1.5245929	bộ sau </s>
-1.8469639	xe sau </s>
-1.6044586	mã sau </s>
-1.8469639	pháo sau </s>
-0.042411633	tướng bốn </s>
-0.446541	sĩ bốn </s>
-0.5904223	sau bốn </s>
-0.5904223	trước bốn </s>
-0.507595	tượng bốn </s>
-0.507595	tịnh bốn </s>
-0.507595	bộ bốn </s>
-0.84599376	xe bốn </s>
-0.6087559	mã bốn </s>
-0.84599376	pháo bốn </s>
-0.47801694	tốt bốn </s>
-0.44666636	giữa bốn </s>
-0.47801694	binh bốn </s>
-0.47801694	chốt bốn </s>
-0.000058117887	tiến bốn </s>
-0.000058117887	tấn bốn </s>
-0.00007119225	bình bốn </s>
-0.000058117887	thoái bốn </s>
-0.000058117887	lùi bốn </s>
-0.56134224	sĩ phải </s>
-0.79067904	tượng phải </s>
-0.79067904	tịnh phải </s>
-0.79067904	bộ phải </s>
-0.8527322	xe phải </s>
-0.79067904	mã phải </s>
-0.8527322	pháo phải </s>
-1.06519	sĩ trước </s>
-1.5245929	tượng trước </s>
-1.5245929	tịnh trước </s>
-1.5245929	bộ trước </s>
-1.8469639	xe trước </s>
-1.6044586	mã trước </s>
-1.8469639	pháo trước </s>
-0.56134224	sĩ trái </s>
-0.79067904	tượng trái </s>
-0.79067904	tịnh trái </s>
-0.79067904	bộ trái </s>
-0.8527322	xe trái </s>
-0.79067904	mã trái </s>
-0.8527322	pháo trái </s>
-1.5055469	ăn tượng </s>
-1.5055469	bắt tượng </s>
-0.000048979015	tướng một </s>
-0.5736044	sau một </s>
-0.5736044	trước một </s>
-0.4464041	tượng một </s>
-0.4464041	tịnh một </s>
-0.4464041	bộ một </s>
-0.84583974	xe một </s>
-0.5074581	mã một </s>
-0.84583974	pháo một </s>
-0.4623508	tốt một </s>
-0.42994735	giữa một </s>
-0.4623508	binh một </s>
-0.4623508	chốt một </s>
-0.000025317215	tiến một </s>
-0.000025317215	tấn một </s>
-0.00008965236	bình một </s>
-0.00006368415	thoái một </s>
-0.00006368415	lùi một </s>
-0.000048979015	tướng bảy </s>
-0.6037941	sau bảy </s>
-0.6037941	trước bảy </s>
-0.5074581	tượng bảy </s>
-0.5074581	tịnh bảy </s>
-0.5074581	bộ bảy </s>
-0.84583974	xe bảy </s>
-0.608619	mã bảy </s>
-0.84583974	pháo bảy </s>
-0.47786292	tốt bảy </s>
-0.44665307	giữa bảy </s>
-0.47786292	binh bảy </s>
-0.47786292	chốt bảy </s>
-0.000059774815	tiến bảy </s>
-0.000059774815	tấn bảy </s>
-0.00007251265	bình bảy </s>
-0.000059774815	thoái bảy </s>
-0.000059774815	lùi bảy </s>
-0.000048979015	tướng ba </s>
-0.6037941	sau ba </s>
-0.6037941	trước ba </s>
-0.5074581	tượng ba </s>
-0.5074581	tịnh ba </s>
-0.5074581	bộ ba </s>
-0.84583974	xe ba </s>
-0.608619	mã ba </s>
-0.84583974	pháo ba </s>
-0.47786292	tốt ba </s>
-0.44665307	giữa ba </s>
-0.47786292	binh ba </s>
-0.47786292	chốt ba </s>
-0.000059774815	tiến ba </s>
-0.000059774815	tấn ba </s>
-0.00007251265	bình ba </s>
-0.000059774815	thoái ba </s>
-0.000059774815	lùi ba </s>
-0.000048979015	tướng tám </s>
-0.58301675	sau tám </s>
-0.58301675	trước tám </s>
-0.4464041	tượng tám </s>
-0.4464041	tịnh tám </s>
-0.4464041	bộ tám </s>
-0.84583974	xe tám </s>
-0.56097734	mã tám </s>
-0.84583974	pháo tám </s>
-0.47786292	tốt tám </s>
-0.44665307	giữa tám </s>
-0.47786292	binh tám </s>
-0.47786292	chốt tám </s>
-0.00006681682	tiến tám </s>
-0.00006681682	tấn tám </s>
-0.00007251265	bình tám </s>
-0.00006681682	thoái tám </s>
-0.00006681682	lùi tám </s>
-0.000048979015	tướng chín </s>
-0.5736044	sau chín </s>
-0.5736044	trước chín </s>
-0.4464041	tượng chín </s>
-0.4464041	tịnh chín </s>
-0.4464041	bộ chín </s>
-0.84583974	xe chín </s>
-0.5074581	mã chín </s>
-0.84583974	pháo chín </s>
-0.4623508	tốt chín </s>
-0.42994735	giữa chín </s>
-0.4623508	binh chín </s>
-0.4623508	chốt chín </s>
-0.00006883625	tiến chín </s>
-0.00006883625	tấn chín </s>
-0.00008965236	bình chín </s>
-0.00006883625	thoái chín </s>
-0.00006883625	lùi chín </s>
-0.000048979015	tướng hai </s>
-0.58301675	sau hai </s>
-0.58301675	trước hai </s>
-0.4464041	tượng hai </s>
-0.4464041	tịnh hai </s>
-0.4464041	bộ hai </s>
-0.84583974	xe hai </s>
-0.56097734	mã hai </s>
-0.84583974	pháo hai </s>
-0.47786292	tốt hai </s>
-0.44665307	giữa hai </s>
-0.47786292	binh hai </s>
-0.47786292	chốt hai </s>
-0.00006681682	tiến hai </s>
-0.00006681682	tấn hai </s>
-0.00007251265	bình hai </s>
-0.00006681682	thoái hai </s>
-0.00006681682	lùi hai </s>
-1.5055469	ăn tịnh </s>
-1.5055469	bắt tịnh </s>
-1.5055469	ăn bộ </s>
-1.5055469	bắt bộ </s>
-1.5055572	ăn xe </s>
-1.5055572	bắt xe </s>
-1.5055469	ăn mã </s>
-1.5055469	bắt mã </s>
-1.5055572	ăn pháo </s>
-1.5055572	bắt pháo </s>
-1.7407746	ăn tốt </s>
-1.7407746	bắt tốt </s>
-1.7407746	ăn binh </s>
-1.7407746	bắt binh </s>
-1.7407746	ăn chốt </s>
-1.7407746	bắt chốt </s>
-0.00014053177	qua sông </s>
-0.00014053177	sang sông </s>
-0.000060706836	chấp nhận </s>
-0.000060706836	xác nhận </s>
-0.000060706836	đồng ý </s>
-0.000060706836	<s> ok </s>
-0.000060706836	hủy bỏ </s>
-0.000060706836	từ chối </s>
-0.000060706836	đầu hàng </s>
-0.000060706836	xin hòa </s>
-0.000060706836	đổi phe </s>
-0.000060706836	chơi lại </s>
-0.000060706836	đi lại </s>
-0.00014102376	sĩ chiếu tướng
-0.0000036240506	năm chiếu tướng
-0.0000036240506	sáu chiếu tướng
-0.00002013975	sau chiếu tướng
-0.0000036240506	bốn chiếu tướng
-0.00002013975	phải chiếu tướng
-0.00002013975	trước chiếu tướng
-0.00002013975	trái chiếu tướng
-0.00014102376	tượng chiếu tướng
-0.000003908799	một chiếu tướng
-0.000003908799	bảy chiếu tướng
-0.000003908799	ba chiếu tướng
-0.000003908799	tám chiếu tướng
-0.000003908799	chín chiếu tướng
-0.000003908799	hai chiếu tướng
-0.00014102376	tịnh chiếu tướng
-0.00014102376	bộ chiếu tướng
-0.00014102376	xe chiếu tướng
-0.00014102376	mã chiếu tướng
-0.00014102376	pháo chiếu tướng
-0.00014102376	tốt chiếu tướng
-0.00014102376	binh chiếu tướng
-0.00014102376	chốt chiếu tướng
-1.1134697	<s> tướng ăn
-1.7727538	<s> sĩ ăn
-1.5225716	tướng năm ăn
-0.8182241	sĩ năm ăn
-0.8960104	sau năm ăn
-0.8960104	trước năm ăn
-0.8182241	tượng năm ăn
-0.8182241	tịnh năm ăn
-0.8182241	bộ năm ăn
-1.1565523	xe năm ăn
-0.9193849	mã năm ăn
-1.1565523	pháo năm ăn
-0.78857553	tốt năm ăn
-0.7570066	giữa năm ăn
-0.78857553	binh năm ăn
-0.78857553	chốt năm ăn
-0.518099	soái năm ăn
-1.5197495	tướng sáu ăn
-0.7571701	sĩ sáu ăn
-0.90074384	sau sáu ăn
-0.90074384	trước sáu ăn
-0.8182241	tượng sáu ăn
-0.8182241	tịnh sáu ăn
-0.8182241	bộ sáu ăn
-1.1565523	xe sáu ăn
-0.9193849	mã sáu ăn
-1.1565523	pháo sáu ăn
-0.78857553	tốt sáu ăn
-0.7570066	giữa sáu ăn
-0.78857553	binh sáu ăn
-0.78857553	chốt sáu ăn
-0.48869395	soái sáu ăn
-1.3759465	sĩ sau ăn
-1.8351111	tượng sau ăn
-1.8351111	tịnh sau ăn
-1.8351111	bộ sau ăn
-2.1574426	xe sau ăn
-1.9149768	mã sau ăn
-2.1574426	pháo sau ăn
-1.5197495	tướng bốn ăn
-0.7571701	sĩ bốn ăn
-0.90074384	sau bốn ăn
-0.90074384	trước bốn ăn
-0.8182241	tượng bốn ăn
-0.8182241	tịnh bốn ăn
-0.8182241	bộ bốn ăn
-1.1565523	xe bốn ăn
-0.9193849	mã bốn ăn
-1.1565523	pháo bốn ăn
-0.78857553	tốt bốn ăn
-0.7570066	giữa bốn ăn
-0.78857553	binh bốn ăn
-0.78857553	chốt bốn ăn
-0.48869395	soái bốn ăn
-0.87180173	sĩ phải ăn
-1.1011386	tượng phải ăn
-1.1011386	tịnh phải ăn
-1.1011386	bộ phải ăn
-1.1631002	xe phải ăn
-1.1011386	mã phải ăn
-1.1631002	pháo phải ăn
-1.3759465	sĩ trước ăn
-1.8351111	tượng trước ăn
-1.8351111	tịnh trước ăn
-1.8351111	bộ trước ăn
-2.1574426	xe trước ăn
-1.9149768	mã trước ăn
-2.1574426	pháo trước ăn
-0.87180173	sĩ trái ăn
-1.1011386	tượng trái ăn
-1.1011386	tịnh trái ăn
-1.1011386	bộ trái ăn
-1.1631002	xe trái ăn
-1.1011386	mã trái ăn
-1.1631002	pháo trái ăn
-2.2177773	<s> tượng ăn
-0.88395536	sau một ăn
-0.88395536	trước một ăn
-0.75724506	tượng một ăn
-0.75724506	tịnh một ăn
-0.75724506	bộ một ăn
-1.1566367	xe một ăn
-0.818299	mã một ăn
-1.1566367	pháo một ăn
-0.77314764	tốt một ăn
-0.74030817	giữa một ăn
-0.77314764	binh một ăn
-0.77314764	chốt một ăn
-0.9141451	sau bảy ăn
-0.9141451	trước bảy ăn
-0.818299	tượng bảy ăn
-0.818299	tịnh bảy ăn
-0.818299	bộ bảy ăn
-1.1566367	xe bảy ăn
-0.9194599	mã bảy ăn
-1.1566367	pháo bảy ăn
-0.7886598	tốt bảy ăn
-0.75701386	giữa bảy ăn
-0.7886598	binh bảy ăn
-0.7886598	chốt bảy ăn
-0.9141451	sau ba ăn
-0.9141451	trước ba ăn
-0.818299	tượng ba ăn
-0.818299	tịnh ba ăn
-0.818299	bộ ba ăn
-1.1566367	xe ba ăn
-0.9194599	mã ba ăn
-1.1566367	pháo ba ăn
-0.7886598	tốt ba ăn
-0.75701386	giữa ba ăn
-0.7886598	binh ba ăn
-0.7886598	chốt ba ăn
-0.8933677	sau tám ăn
-0.8933677	trước tám ăn
-0.75724506	tượng tám ăn
-0.75724506	tịnh tám ăn
-0.75724506	bộ tám ăn
-1.1566367	xe tám ăn
-0.8718183	mã tám ăn
-1.1566367	pháo tám ăn
-0.7886598	tốt tám ăn
-0.75701386	giữa tám ăn
-0.7886598	binh tám ăn
-0.7886598	chốt tám ăn
-0.88395536	sau chín ăn
-0.88395536	trước chín ăn
-0.75724506	tượng chín ăn
-0.75724506	tịnh chín ăn
-0.75724506	bộ chín ăn
-1.1566367	xe chín ăn
-0.818299	mã chín ăn
-1.1566367	pháo chín ăn
-0.77314764	tốt chín ăn
-0.74030817	giữa chín ăn
-0.77314764	binh chín ăn
-0.77314764	chốt chín ăn
-0.8933677	sau hai ăn
-0.8933677	trước hai ăn
-0.75724506	tượng hai ăn
-0.75724506	tịnh hai ăn
-0.75724506	bộ hai ăn
-1.1566367	xe hai ăn
-0.8718183	mã hai ăn
-1.1566367	pháo hai ăn
-0.7886598	tốt hai ăn
-0.75701386	giữa hai ăn
-0.7886598	binh hai ăn
-0.7886598	chốt hai ăn
-2.2177773	<s> tịnh ăn
-2.2177773	<s> bộ ăn
-2.5965786	<s> xe ăn
-2.3150504	<s> mã ăn
-2.5965786	<s> pháo ăn
-2.30687	<s> tốt ăn
-2.30687	<s> binh ăn
-2.30687	<s> chốt ăn
-1.1130301	<s> soái ăn
-1.425897	tướng ăn sĩ
-1.425897	sĩ ăn sĩ
-1.4233103	năm ăn sĩ
-1.4233103	sáu ăn sĩ
-1.4236236	sau ăn sĩ
-1.4233103	bốn ăn sĩ
-1.4236236	phải ăn sĩ
-1.4236236	trước ăn sĩ
-1.4236236	trái ăn sĩ
-1.425897	tượng ăn sĩ
-1.4233193	một ăn sĩ
-1.4233193	bảy ăn sĩ
-1.4233193	ba ăn sĩ
-1.4233193	tám ăn sĩ
-1.4233193	chín ăn sĩ
-1.4233193	hai ăn sĩ
-1.425897	tịnh ăn sĩ
-1.425897	bộ ăn sĩ
-1.425897	xe ăn sĩ
-1.425897	mã ăn sĩ
-1.425897	pháo ăn sĩ
-1.425897	tốt ăn sĩ
-1.425897	binh ăn sĩ
-1.425897	chốt ăn sĩ
-1.425897	soái ăn sĩ
-1.425897	tướng bắt sĩ
-1.425897	sĩ bắt sĩ
-1.4233103	năm bắt sĩ
-1.4233103	sáu bắt sĩ
-1.4236236	sau bắt sĩ
-1.4233103	bốn bắt sĩ
-1.4236236	phải bắt sĩ
-1.4236236	trước bắt sĩ
-1.4236236	trái bắt sĩ
-1.425897	tượng bắt sĩ
-1.4233193	một bắt sĩ
-1.4233193	bảy bắt sĩ
-1.4233193	ba bắt sĩ
-1.4233193	tám bắt sĩ
-1.4233193	chín bắt sĩ
-1.4233193	hai bắt sĩ
-1.425897	tịnh bắt sĩ
-1.425897	bộ bắt sĩ
-1.425897	xe bắt sĩ
-1.425897	mã bắt sĩ
-1.425897	pháo bắt sĩ
-1.425897	tốt bắt sĩ
-1.425897	binh bắt sĩ
-1.425897	chốt bắt sĩ
-1.425897	soái bắt sĩ
-1.1134697	<s> tướng bắt
-1.7727538	<s> sĩ bắt
-1.5225716	tướng năm bắt
-0.8182241	sĩ năm bắt
-0.8960104	sau năm bắt
-0.8960104	trước năm bắt
-0.8182241	tượng năm bắt
-0.8182241	tịnh năm bắt
-0.8182241	bộ năm bắt
-1.1565523	xe năm bắt
-0.9193849	mã năm bắt
-1.1565523	pháo năm bắt
-0.78857553	tốt năm bắt
-0.7570066	giữa năm bắt
-0.78857553	binh năm bắt
-0.78857553	chốt năm bắt
-0.518099	soái năm bắt
-1.5197495	tướng sáu bắt
-0.7571701	sĩ sáu bắt
-0.90074384	sau sáu bắt
-0.90074384	trước sáu bắt
-0.8182241	tượng sáu bắt
-0.8182241	tịnh sáu bắt
-0.8182241	bộ sáu bắt
-1.1565523	xe sáu bắt
-0.9193849	mã sáu bắt
-1.1565523	pháo sáu bắt
-0.78857553	tốt sáu bắt
-0.7570066	giữa sáu bắt
-0.78857553	binh sáu bắt
-0.78857553	chốt sáu bắt
-0.48869395	soái sáu bắt
-1.3759465	sĩ sau bắt
-1.8351111	tượng sau bắt
-1.8351111	tịnh sau bắt
-1.8351111	bộ sau bắt
-2.1574426	xe sau bắt
-1.9149768	mã sau bắt
-2.1574426	pháo sau bắt
-1.5197495	tướng bốn bắt
-0.7571701	sĩ bốn bắt
-0.90074384	sau bốn bắt
-0.90074384	trước bốn bắt
-0.8182241	tượng bốn bắt
-0.8182241	tịnh bốn bắt
-0.8182241	bộ bốn bắt
-1.1565523	xe bốn bắt
-0.9193849	mã bốn bắt
-1.1565523	pháo bốn bắt
-0.78857553	tốt bốn bắt
-0.7570066	giữa bốn bắt
-0.78857553	binh bốn bắt
-0.78857553	chốt bốn bắt
-0.48869395	soái bốn bắt
-0.87180173	sĩ phải bắt
-1.1011386	tượng phải bắt
-1.1011386	tịnh phải bắt
-1.1011386	bộ phải bắt
-1.1631002	xe phải bắt
-1.1011386	mã phải bắt
-1.1631002	pháo phải bắt
-1.3759465	sĩ trước bắt
-1.8351111	tượng trước bắt
-1.8351111	tịnh trước bắt
-1.8351111	bộ trước bắt
-2.1574426	xe trước bắt
-1.9149768	mã trước bắt
-2.1574426	pháo trước bắt
-0.87180173	sĩ trái bắt
-1.1011386	tượng trái bắt
-1.1011386	tịnh trái bắt
-1.1011386	bộ trái bắt
-1.1631002	xe trái bắt
-1.1011386	mã trái bắt
-1.1631002	pháo trái bắt
-2.2177773	<s> tượng bắt
-0.88395536	sau một bắt
-0.88395536	trước một bắt
-0.75724506	tượng một bắt
-0.75724506	tịnh một bắt
-0.75724506	bộ một bắt
-1.1566367	xe một bắt
-0.818299	mã một bắt
-1.1566367	pháo một bắt
-0.77314764	tốt một bắt
-0.74030817	giữa một bắt
-0.77314764	binh một bắt
-0.77314764	chốt một bắt
-0.9141451	sau bảy bắt
-0.9141451	trước bảy bắt
-0.818299	tượng bảy bắt
-0.818299	tịnh bảy bắt
-0.818299	bộ bảy bắt
-1.1566367	xe bảy bắt
-0.9194599	mã bảy bắt
-1.1566367	pháo bảy bắt
-0.7886598	tốt bảy bắt
-0.75701386	giữa bảy bắt
-0.7886598	binh bảy bắt
-0.7886598	chốt bảy bắt
-0.9141451	sau ba bắt
-0.9141451	trước ba bắt
-0.818299	tượng ba bắt
-0.818299	tịnh ba bắt
-0.818299	bộ ba bắt
-1.1566367	xe ba bắt
-0.9194599	mã ba bắt
-1.1566367	pháo ba bắt
-0.7886598	tốt ba bắt
-0.75701386	giữa ba bắt
-0.7886598	binh ba bắt
-0.7886598	chốt ba bắt
-0.8933677	sau tám bắt
-0.8933677	trước tám bắt
-0.75724506	tượng tám bắt
-0.75724506	tịnh tám bắt
-0.75724506	bộ tám bắt
-1.1566367	xe tám bắt
-0.8718183	mã tám bắt
-1.1566367	pháo tám bắt
-0.7886598	tốt tám bắt
-0.75701386	giữa tám bắt
-0.7886598	binh tám bắt
-0.7886598	chốt tám bắt
-0.88395536	sau chín bắt
-0.88395536	trước chín bắt
-0.75724506	tượng chín bắt
-0.75724506	tịnh chín bắt
-0.75724506	bộ chín bắt
-1.1566367	xe chín bắt
-0.818299	mã chín bắt
-1.1566367	pháo chín bắt
-0.77314764	tốt chín bắt
-0.74030817	giữa chín bắt
-0.77314764	binh chín bắt
-0.77314764	chốt chín bắt
-0.8933677	sau hai bắt
-0.8933677	trước hai bắt
-0.75724506	tượng hai bắt
-0.75724506	tịnh hai bắt
-0.75724506	bộ hai bắt
-1.1566367	xe hai bắt
-0.8718183	mã hai bắt
-1.1566367	pháo hai bắt
-0.7886598	tốt hai bắt
-0.75701386	giữa hai bắt
-0.7886598	binh hai bắt
-0.7886598	chốt hai bắt
-2.2177773	<s> tịnh bắt
-2.2177773	<s> bộ bắt
-2.5965786	<s> xe bắt
-2.3150504	<s> mã bắt
-2.5965786	<s> pháo bắt
-2.30687	<s> tốt bắt
-2.30687	<s> binh bắt
-2.30687	<s> chốt bắt
-1.1130301	<s> soái bắt
-0.59505373	<s> tướng năm
-1.0000176	chiếu tướng năm
-1.1155772	<s> sĩ năm
-1.1468863	ăn sĩ năm
-1.1468863	bắt sĩ năm
-0.6893081	sĩ sau năm
-1.0167254	tượng sau năm
-1.0167254	tịnh sau năm
-1.0167254	bộ sau năm
-1.000629	xe sau năm
-0.9954373	mã sau năm
-1.000629	pháo sau năm
-1.2517188	tốt sau năm
-1.2517188	binh sau năm
-1.2517188	chốt sau năm
-0.6893081	sĩ trước năm
-1.0167254	tượng trước năm
-1.0167254	tịnh trước năm
-1.0167254	bộ trước năm
-1.000629	xe trước năm
-0.9954373	mã trước năm
-1.000629	pháo trước năm
-1.2517188	tốt trước năm
-1.2517188	binh trước năm
-1.2517188	chốt trước năm
-1.5608029	<s> tượng năm
-1.505638	ăn tượng năm
-1.505638	bắt tượng năm
-1.5608029	<s> tịnh năm
-1.505638	ăn tịnh năm
-1.505638	bắt tịnh năm
-1.5608029	<s> bộ năm
-1.505638	ăn bộ năm
-1.505638	bắt bộ năm
-1.5063297	<s> xe năm
-1.5056534	ăn xe năm
-1.5056534	bắt xe năm
-1.5180424	<s> mã năm
-1.505638	ăn mã năm
-1.505638	bắt mã năm
-1.5063297	<s> pháo năm
-1.5056534	ăn pháo năm
-1.5056534	bắt pháo năm
-1.6931171	<s> tốt năm
-1.7408195	ăn tốt năm
-1.7408195	bắt tốt năm
-0.950605	sau giữa năm
-0.950605	trước giữa năm
-0.95064443	tốt giữa năm
-0.95064443	binh giữa năm
-0.95064443	chốt giữa năm
-1.6931171	<s> binh năm
-1.7408195	ăn binh năm
-1.7408195	bắt binh năm
-1.6931171	<s> chốt năm
-1.7408195	ăn chốt năm
-1.7408195	bắt chốt năm
-0.59505373	<s> soái năm
-0.48265702	sĩ tiến năm
-1.2471906	năm tiến năm
-0.9502205	sáu tiến năm
-0.91080767	sau tiến năm
-0.9502205	bốn tiến năm
-0.91080767	phải tiến năm
-0.91080767	trước tiến năm
-0.91080767	trái tiến năm
-0.95445824	tượng tiến năm
-1.1614039	một tiến năm
-0.75333965	bảy tiến năm
-0.75333965	ba tiến năm
-1.1761272	tám tiến năm
-1.1614039	chín tiến năm
-1.1761272	hai tiến năm
-0.95445824	tịnh tiến năm
-0.95445824	bộ tiến năm
-0.95445824	xe tiến năm
-0.95445824	mã tiến năm
-0.95445824	pháo tiến năm
-0.48265702	sĩ tấn năm
-1.2471906	năm tấn năm
-0.9502205	sáu tấn năm
-0.91080767	sau tấn năm
-0.9502205	bốn tấn năm
-0.91080767	phải tấn năm
-0.91080767	trước tấn năm
-0.91080767	trái tấn năm
-0.95445824	tượng tấn năm
-1.1614039	một tấn năm
-0.75333965	bảy tấn năm
-0.75333965	ba tấn năm
-1.1761272	tám tấn năm
-1.1614039	chín tấn năm
-1.1761272	hai tấn năm
-0.95445824	tịnh tấn năm
-0.95445824	bộ tấn năm
-0.95445824	xe tấn năm
-0.95445824	mã tấn năm
-0.95445824	pháo tấn năm
-0.48251468	tướng bình năm
-0.5195528	sáu bình năm
-0.9541396	sau bình năm
-0.5195528	bốn bình năm
-0.9541396	phải bình năm
-0.9541396	trước bình năm
-0.9541396	trái bình năm
-1.041513	một bình năm
-1.1462483	bảy bình năm
-1.1462483	ba bình năm
-1.1462483	tám bình năm
-1.041513	chín bình năm
-1.1462483	hai bình năm
-0.95403665	xe bình năm
-0.95403665	pháo bình năm
-0.48251468	soái bình năm
-0.48265702	sĩ thoái năm
-1.1663674	năm thoái năm
-0.87022674	sáu thoái năm
-0.91080767	sau thoái năm
-0.87022674	bốn thoái năm
-0.91080767	phải thoái năm
-0.91080767	trước thoái năm
-0.91080767	trái thoái năm
-0.95445824	tượng thoái năm
-1.0607338	một thoái năm
-0.66901875	bảy thoái năm
-0.66901875	ba thoái năm
-1.0792172	tám thoái năm
-1.0607338	chín thoái năm
-1.0792172	hai thoái năm
-0.95445824	tịnh thoái năm
-0.95445824	bộ thoái năm
-0.95445824	xe thoái năm
-0.95445824	mã thoái năm
-0.95445824	pháo thoái năm
-0.48265702	sĩ lùi năm
-1.1663674	năm lùi năm
-0.87022674	sáu lùi năm
-0.91080767	sau lùi năm
-0.87022674	bốn lùi năm
-0.91080767	phải lùi năm
-0.91080767	trước lùi năm
-0.91080767	trái lùi năm
-0.95445824	tượng lùi năm
-1.0607338	một lùi năm
-0.66901875	bảy lùi năm
-0.66901875	ba lùi năm
-1.0792172	tám lùi năm
-1.0607338	chín lùi năm
-1.0792172	hai lùi năm
-0.95445824	tịnh lùi năm
-0.95445824	bộ lùi năm
-0.95445824	xe lùi năm
-0.95445824	mã lùi năm
-0.95445824	pháo lùi năm
-0.62447006	<s> tướng sáu
-1.0000176	chiếu tướng sáu
-1.2072281	<s> sĩ sáu
-1.1468863	ăn sĩ sáu
-1.1468863	bắt sĩ sáu
-0.61823	sĩ sau sáu
-1.0167254	tượng sau sáu
-1.0167254	tịnh sau sáu
-1.0167254	bộ sau sáu
-1.000629	xe sau sáu
-0.9954373	mã sau sáu
-1.000629	pháo sau sáu
-1.2517188	tốt sau sáu
-1.2517188	binh sau sáu
-1.2517188	chốt sau sáu
-0.61823	sĩ trước sáu
-1.0167254	tượng trước sáu
-1.0167254	tịnh trước sáu
-1.0167254	bộ trước sáu
-1.000629	xe trước sáu
-0.9954373	mã trước sáu
-1.000629	pháo trước sáu
-1.2517188	tốt trước sáu
-1.2517188	binh trước sáu
-1.2517188	chốt trước sáu
-1.5608029	<s> tượng sáu
-1.505638	ăn tượng sáu
-1.505638	bắt tượng sáu
-1.5608029	<s> tịnh sáu
-1.505638	ăn tịnh sáu
-1.505638	bắt tịnh sáu
-1.5608029	<s> bộ sáu
-1.505638	ăn bộ sáu
-1.505638	bắt bộ sáu
-1.5063297	<s> xe sáu
-1.5056534	ăn xe sáu
-1.5056534	bắt xe sáu
-1.5180424	<s> mã sáu
-1.505638	ăn mã sáu
-1.505638	bắt mã sáu
-1.5063297	<s> pháo sáu
-1.5056534	ăn pháo sáu
-1.5056534	bắt pháo sáu
-1.6931171	<s> tốt sáu
-1.7408195	ăn tốt sáu
-1.7408195	bắt tốt sáu
-0.950605	sau giữa sáu
-0.950605	trước giữa sáu
-0.95064443	tốt giữa sáu
-0.95064443	binh giữa sáu
-0.95064443	chốt giữa sáu
-1.6931171	<s> binh sáu
-1.7408195	ăn binh sáu
-1.7408195	bắt binh sáu
-1.6931171	<s> chốt sáu
-1.7408195	ăn chốt sáu
-1.7408195	bắt chốt sáu
-0.62447006	<s> soái sáu
-0.48265702	sĩ tiến sáu
-1.0253274	năm tiến sáu
-1.2512685	sáu tiến sáu
-0.91080767	sau tiến sáu
-0.77412325	bốn tiến sáu
-0.91080767	phải tiến sáu
-0.91080767	trước tiến sáu
-0.91080767	trái tiến sáu
-0.95445824	tượng tiến sáu
-1.1614039	một tiến sáu
-1.0543816	bảy tiến sáu
-1.2304848	ba tiến sáu
-0.698982	tám tiến sáu
-1.1614039	chín tiến sáu
-1.1761272	hai tiến sáu
-0.95445824	tịnh tiến sáu
-0.95445824	bộ tiến sáu
-0.95445824	xe tiến sáu
-0.95445824	mã tiến sáu
-0.95445824	pháo tiến sáu
-0.48265702	sĩ tấn sáu
-1.0253274	năm tấn sáu
-1.2512685	sáu tấn sáu
-0.91080767	sau tấn sáu
-0.77412325	bốn tấn sáu
-0.91080767	phải tấn sáu
-0.91080767	trước tấn sáu
-0.91080767	trái tấn sáu
-0.95445824	tượng tấn sáu
-1.1614039	một tấn sáu
-1.0543816	bảy tấn sáu
-1.2304848	ba tấn sáu
-0.698982	tám tấn sáu
-1.1614039	chín tấn sáu
-1.1761272	hai tấn sáu
-0.95445824	tịnh tấn sáu
-0.95445824	bộ tấn sáu
-0.95445824	xe tấn sáu
-0.95445824	mã tấn sáu
-0.95445824	pháo tấn sáu
-0.48251468	tướng bình sáu
-0.5295371	năm bình sáu
-0.9541396	sau bình sáu
-1.1564676	bốn bình sáu
-0.9541396	phải bình sáu
-0.9541396	trước bình sáu
-0.9541396	trái bình sáu
-1.041513	một bình sáu
-0.54409814	bảy bình sáu
-1.1462483	ba bình sáu
-1.1462483	tám bình sáu
-1.041513	chín bình sáu
-1.1462483	hai bình sáu
-0.95403665	xe bình sáu
-0.95403665	pháo bình sáu
-0.48251468	soái bình sáu
-0.48265702	sĩ thoái sáu
-0.94450426	năm thoái sáu
-1.1712748	sáu thoái sáu
-0.91080767	sau thoái sáu
-0.69412947	bốn thoái sáu
-0.91080767	phải thoái sáu
-0.91080767	trước thoái sáu
-0.91080767	trái thoái sáu
-0.95445824	tượng thoái sáu
-1.0607338	một thoái sáu
-0.9700607	bảy thoái sáu
-1.146164	ba thoái sáu
-0.602072	tám thoái sáu
-1.0607338	chín thoái sáu
-1.0792172	hai thoái sáu
-0.95445824	tịnh thoái sáu
-0.95445824	bộ thoái sáu
-0.95445824	xe thoái sáu
-0.95445824	mã thoái sáu
-0.95445824	pháo thoái sáu
-0.48265702	sĩ lùi sáu
-0.94450426	năm lùi sáu
-1.1712748	sáu lùi sáu
-0.91080767	sau lùi sáu
-0.69412947	bốn lùi sáu
-0.91080767	phải lùi sáu
-0.91080767	trước lùi sáu
-0.91080767	trái lùi sáu
-0.95445824	tượng lùi sáu
-1.0607338	một lùi sáu
-0.9700607	bảy lùi sáu
-1.146164	ba lùi sáu
-0.602072	tám lùi sáu
-1.0607338	chín lùi sáu
-1.0792172	hai lùi sáu
-0.95445824	tịnh lùi sáu
-0.95445824	bộ lùi sáu
-0.95445824	xe lùi sáu
-0.95445824	mã lùi sáu
-0.95445824	pháo lùi sáu
-0.5803882	<s> sĩ sau
-0.5442924	ăn sĩ sau
-0.5442924	bắt sĩ sau
-0.53671265	<s> tượng sau
-0.50522316	ăn tượng sau
-0.50522316	bắt tượng sau
-0.53671265	<s> tịnh sau
-0.50522316	ăn tịnh sau
-0.50522316	bắt tịnh sau
-0.53671265	<s> bộ sau
-0.50522316	ăn bộ sau
-0.50522316	bắt bộ sau
-0.5055796	<s> xe sau
-0.5052247	ăn xe sau
-0.5052247	bắt xe sau
-0.5240808	<s> mã sau
-0.50522316	ăn mã sau
-0.50522316	bắt mã sau
-0.5055796	<s> pháo sau
-0.5052247	ăn pháo sau
-0.5052247	bắt pháo sau
-0.49173105	<s> tốt sau
-0.48512813	ăn tốt sau
-0.48512813	bắt tốt sau
-0.49173105	<s> binh sau
-0.48512813	ăn binh sau
-0.48512813	bắt binh sau
-0.49173105	<s> chốt sau
-0.48512813	ăn chốt sau
-0.48512813	bắt chốt sau
-0.62447006	<s> tướng bốn
-1.0000176	chiếu tướng bốn
-1.2072281	<s> sĩ bốn
-1.1468863	ăn sĩ bốn
-1.1468863	bắt sĩ bốn
-0.61823	sĩ sau bốn
-1.0167254	tượng sau bốn
-1.0167254	tịnh sau bốn
-1.0167254	bộ sau bốn
-1.000629	xe sau bốn
-0.9954373	mã sau bốn
-1.000629	pháo sau bốn
-1.2517188	tốt sau bốn
-1.2517188	binh sau bốn
-1.2517188	chốt sau bốn
-0.61823	sĩ trước bốn
-1.0167254	tượng trước bốn
-1.0167254	tịnh trước bốn
-1.0167254	bộ trước bốn
-1.000629	xe trước bốn
-0.9954373	mã trước bốn
-1.000629	pháo trước bốn
-1.2517188	tốt trước bốn
-1.2517188	binh trước bốn
-1.2517188	chốt trước bốn
-1.5608029	<s> tượng bốn
-1.505638	ăn tượng bốn
-1.505638	bắt tượng bốn
-1.5608029	<s> tịnh bốn
-1.505638	ăn tịnh bốn
-1.505638	bắt tịnh bốn
-1.5608029	<s> bộ bốn
-1.505638	ăn bộ bốn
-1.505638	bắt bộ bốn
-1.5063297	<s> xe bốn
-1.5056534	ăn xe bốn
-1.5056534	bắt xe bốn
-1.5180424	<s> mã bốn
-1.505638	ăn mã bốn
-1.505638	bắt mã bốn
-1.5063297	<s> pháo bốn
-1.5056534	ăn pháo bốn
-1.5056534	bắt pháo bốn
-1.6931171	<s> tốt bốn
-1.7408195	ăn tốt bốn
-1.7408195	bắt tốt bốn
-0.950605	sau giữa bốn
-0.950605	trước giữa bốn
-0.95064443	tốt giữa bốn
-0.95064443	binh giữa bốn
-0.95064443	chốt giữa bốn
-1.6931171	<s> binh bốn
-1.7408195	ăn binh bốn
-1.7408195	bắt binh bốn
-1.6931171	<s> chốt bốn
-1.7408195	ăn chốt bốn
-1.7408195	bắt chốt bốn
-0.62447006	<s> soái bốn
-0.48265702	sĩ tiến bốn
-1.0253274	năm tiến bốn
-0.77412325	sáu tiến bốn
-0.91080767	sau tiến bốn
-1.2512685	bốn tiến bốn
-0.91080767	phải tiến bốn
-0.91080767	trước tiến bốn
-0.91080767	trái tiến bốn
-0.95445824	tượng tiến bốn
-1.1614039	một tiến bốn
-1.2304848	bảy tiến bốn
-1.0543816	ba tiến bốn
-1.1761272	tám tiến bốn
-1.1614039	chín tiến bốn
-0.698982	hai tiến bốn
-0.95445824	tịnh tiến bốn
-0.95445824	bộ tiến bốn
-0.95445824	xe tiến bốn
-0.95445824	mã tiến bốn
-0.95445824	pháo tiến bốn
-0.48265702	sĩ tấn bốn
-1.0253274	năm tấn bốn
-0.77412325	sáu tấn bốn
-0.91080767	sau tấn bốn
-1.2512685	bốn tấn bốn
-0.91080767	phải tấn bốn
-0.91080767	trước tấn bốn
-0.91080767	trái tấn bốn
-0.95445824	tượng tấn bốn
-1.1614039	một tấn bốn
-1.2304848	bảy tấn bốn
-1.0543816	ba tấn bốn
-1.1761272	tám tấn bốn
-1.1614039	chín tấn bốn
-0.698982	hai tấn bốn
-0.95445824	tịnh tấn bốn
-0.95445824	bộ tấn bốn
-0.95445824	xe tấn bốn
-0.95445824	mã tấn bốn
-0.95445824	pháo tấn bốn
-0.48251468	tướng bình bốn
-0.5295371	năm bình bốn
-1.1564676	sáu bình bốn
-0.9541396	sau bình bốn
-0.9541396	phải bình bốn
-0.9541396	trước bình bốn
-0.9541396	trái bình bốn
-1.041513	một bình bốn
-1.1462483	bảy bình bốn
-0.54409814	ba bình bốn
-1.1462483	tám bình bốn
-1.041513	chín bình bốn
-1.1462483	hai bình bốn
-0.95403665	xe bình bốn
-0.95403665	pháo bình bốn
-0.48251468	soái bình bốn
-0.48265702	sĩ thoái bốn
-0.94450426	năm thoái bốn
-0.69412947	sáu thoái bốn
-0.91080767	sau thoái bốn
-1.1712748	bốn thoái bốn
-0.91080767	phải thoái bốn
-0.91080767	trước thoái bốn
-0.91080767	trái thoái bốn
-0.95445824	tượng thoái bốn
-1.0607338	một thoái bốn
-1.146164	bảy thoái bốn
-0.9700607	ba thoái bốn
-1.0792172	tám thoái bốn
-1.0607338	chín thoái bốn
-0.602072	hai thoái bốn
-0.95445824	tịnh thoái bốn
-0.95445824	bộ thoái bốn
-0.95445824	xe thoái bốn
-0.95445824	mã thoái bốn
-0.95445824	pháo thoái bốn
-0.48265702	sĩ lùi bốn
-0.94450426	năm lùi bốn
-0.69412947	sáu lùi bốn
-0.91080767	sau lùi bốn
-1.1712748	bốn lùi bốn
-0.91080767	phải lùi bốn
-0.91080767	trước lùi bốn
-0.91080767	trái lùi bốn
-0.95445824	tượng lùi bốn
-1.0607338	một lùi bốn
-1.146164	bảy lùi bốn
-0.9700607	ba lùi bốn
-1.0792172	tám lùi bốn
-1.0607338	chín lùi bốn
-0.602072	hai lùi bốn
-0.95445824	tịnh lùi bốn
-0.95445824	bộ lùi bốn
-0.95445824	xe lùi bốn
-0.95445824	mã lùi bốn
-0.95445824	pháo lùi bốn
-1.0399979	<s> sĩ phải
-1.1470679	ăn sĩ phải
-1.1470679	bắt sĩ phải
-1.1931703	<s> tượng phải
-1.5059558	ăn tượng phải
-1.5059558	bắt tượng phải
-1.1931703	<s> tịnh phải
-1.5059558	ăn tịnh phải
-1.5059558	bắt tịnh phải
-1.1931703	<s> bộ phải
-1.5059558	ăn bộ phải
-1.5059558	bắt bộ phải
-1.4988188	<s> xe phải
-1.5059712	ăn xe phải
-1.5059712	bắt xe phải
-1.2904435	<s> mã phải
-1.5059558	ăn mã phải
-1.5059558	bắt mã phải
-1.4988188	<s> pháo phải
-1.5059712	ăn pháo phải
-1.5059712	bắt pháo phải
-0.5803882	<s> sĩ trước
-0.5442924	ăn sĩ trước
-0.5442924	bắt sĩ trước
-0.53671265	<s> tượng trước
-0.50522316	ăn tượng trước
-0.50522316	bắt tượng trước
-0.53671265	<s> tịnh trước
-0.50522316	ăn tịnh trước
-0.50522316	bắt tịnh trước
-0.53671265	<s> bộ trước
-0.50522316	ăn bộ trước
-0.50522316	bắt bộ trước
-0.5055796	<s> xe trước
-0.5052247	ăn xe trước
-0.5052247	bắt xe trước
-0.5240808	<s> mã trước
-0.50522316	ăn mã trước
-0.50522316	bắt mã trước
-0.5055796	<s> pháo trước
-0.5052247	ăn pháo trước
-0.5052247	bắt pháo trước
-0.49173105	<s> tốt trước
-0.48512813	ăn tốt trước
-0.48512813	bắt tốt trước
-0.49173105	<s> binh trước
-0.48512813	ăn binh trước
-0.48512813	bắt binh trước
-0.49173105	<s> chốt trước
-0.48512813	ăn chốt trước
-0.48512813	bắt chốt trước
-1.0399979	<s> sĩ trái
-1.1470679	ăn sĩ trái
-1.1470679	bắt sĩ trái
-1.1931703	<s> tượng trái
-1.5059558	ăn tượng trái
-1.5059558	bắt tượng trái
-1.1931703	<s> tịnh trái
-1.5059558	ăn tịnh trái
-1.5059558	bắt tịnh trái
-1.1931703	<s> bộ trái
-1.5059558	ăn bộ trái
-1.5059558	bắt bộ trái
-1.4988188	<s> xe trái
-1.5059712	ăn xe trái
-1.5059712	bắt xe trái
-1.2904435	<s> mã trái
-1.5059558	ăn mã trái
-1.5059558	bắt mã trái
-1.4988188	<s> pháo trái
-1.5059712	ăn pháo trái
-1.5059712	bắt pháo trái
-1.0653818	tướng ăn tượng
-1.0653818	sĩ ăn tượng
-1.0642521	năm ăn tượng
-1.0642521	sáu ăn tượng
-1.0643891	sau ăn tượng
-1.0642521	bốn ăn tượng
-1.0643891	phải ăn tượng
-1.0643891	trước ăn tượng
-1.0643891	trái ăn tượng
-1.0653818	tượng ăn tượng
-1.0642561	một ăn tượng
-1.0642561	bảy ăn tượng
-1.0642561	ba ăn tượng
-1.0642561	tám ăn tượng
-1.0642561	chín ăn tượng
-1.0642561	hai ăn tượng
-1.0653818	tịnh ăn tượng
-1.0653818	bộ ăn tượng
-1.0653818	xe ăn tượng
-1.0653818	mã ăn tượng
-1.0653818	pháo ăn tượng
-1.0653818	tốt ăn tượng
-1.0653818	binh ăn tượng
-1.0653818	chốt ăn tượng
-1.0653818	soái ăn tượng
-1.0653818	tướng bắt tượng
-1.0653818	sĩ bắt tượng
-1.0642521	năm bắt tượng
-1.0642521	sáu bắt tượng
-1.0643891	sau bắt tượng
-1.0642521	bốn bắt tượng
-1.0643891	phải bắt tượng
-1.0643891	trước bắt tượng
-1.0643891	trái bắt tượng
-1.0653818	tượng bắt tượng
-1.0642561	một bắt tượng
-1.0642561	bảy bắt tượng
-1.0642561	ba bắt tượng
-1.0642561	tám bắt tượng
-1.0642561	chín bắt tượng
-1.0642561	hai bắt tượng
-1.0653818	tịnh bắt tượng
-1.0653818	bộ bắt tượng
-1.0653818	xe bắt tượng
-1.0653818	mã bắt tượng
-1.0653818	pháo bắt tượng
-1.0653818	tốt bắt tượng
-1.0653818	binh bắt tượng
-1.0653818	chốt bắt tượng
-1.0653818	soái bắt tượng
-1.0000334	chiếu tướng một
-1.0778143	tượng sau một
-1.0778143	tịnh sau một
-1.0778143	bộ sau một
-1.0006458	xe sau một
-1.096626	mã sau một
-1.0006458	pháo sau một
-1.2684531	tốt sau một
-1.2684531	binh sau một
-1.2684531	chốt sau một
-1.0778143	tượng trước một
-1.0778143	tịnh trước một
-1.0778143	bộ trước một
-1.0006458	xe trước một
-1.096626	mã trước một
-1.0006458	pháo trước một
-1.2684531	tốt trước một
-1.2684531	binh trước một
-1.2684531	chốt trước một
-1.652469	<s> tượng một
-1.5056869	ăn tượng một
-1.5056869	bắt tượng một
-1.652469	<s> tịnh một
-1.5056869	ăn tịnh một
-1.5056869	bắt tịnh một
-1.652469	<s> bộ một
-1.5056869	ăn bộ một
-1.5056869	bắt bộ một
-1.5063357	<s> xe một
-1.5057023	ăn xe một
-1.5057023	bắt xe một
-1.6580919	<s> mã một
-1.5056869	ăn mã một
-1.5056869	bắt mã một
-1.5063357	<s> pháo một
-1.5057023	ăn pháo một
-1.5057023	bắt pháo một
-1.7165838	<s> tốt một
-1.7408648	ăn tốt một
-1.7408648	bắt tốt một
-0.96731263	sau giữa một
-0.96731263	trước giữa một
-0.96735597	tốt giữa một
-0.96735597	binh giữa một
-0.96735597	chốt giữa một
-1.7165838	<s> binh một
-1.7408648	ăn binh một
-1.7408648	bắt binh một
-1.7165838	<s> chốt một
-1.7408648	ăn chốt một
-1.7408648	bắt chốt một
-0.0072791465	tướng tiến một
-0.6103257	năm tiến một
-0.6144036	sáu tiến một
-0.977694	sau tiến một
-0.6144036	bốn tiến một
-0.977694	phải tiến một
-0.977694	trước tiến một
-0.977694	trái tiến một
-0.9540646	tượng tiến một
-0.5593006	một tiến một
-0.6283815	bảy tiến một
-0.4522927	ba tiến một
-0.57402384	tám tiến một
-0.5593006	chín tiến một
-0.5228722	hai tiến một
-0.9540646	tịnh tiến một
-0.9540646	bộ tiến một
-0.9540646	xe tiến một
-0.9540646	mã tiến một
-0.9540646	pháo tiến một
-0.0072791465	soái tiến một
-0.0072791465	tướng tấn một
-0.6103257	năm tấn một
-0.6144036	sáu tấn một
-0.977694	sau tấn một
-0.6144036	bốn tấn một
-0.977694	phải tấn một
-0.977694	trước tấn một
-0.977694	trái tấn một
-0.9540646	tượng tấn một
-0.5593006	một tấn một
-0.6283815	bảy tấn một
-0.4522927	ba tấn một
-0.57402384	tám tấn một
-0.5593006	chín tấn một
-0.5228722	hai tấn một
-0.9540646	tịnh tấn một
-0.9540646	bộ tấn một
-0.9540646	xe tấn một
-0.9540646	mã tấn một
-0.9540646	pháo tấn một
-0.0072791465	soái tấn một
-1.1666209	năm bình một
-1.1566366	sáu bình một
-0.95471025	sau bình một
-1.1566366	bốn bình một
-0.95471025	phải bình một
-0.95471025	trước bình một
-0.95471025	trái bình một
-1.1464174	bảy bình một
-1.1464174	ba bình một
-1.1464174	tám bình một
-1.0416821	chín bình một
-0.54414034	hai bình một
-0.95517844	xe bình một
-0.95517844	pháo bình một
-0.0072791465	tướng thoái một
-1.0413705	năm thoái một
-1.0462778	sáu thoái một
-0.977694	sau thoái một
-1.0462778	bốn thoái một
-0.977694	phải thoái một
-0.977694	trước thoái một
-0.977694	trái thoái một
-0.9540646	tượng thoái một
-1.0606682	một thoái một
-1.1460984	bảy thoái một
-0.66899693	ba thoái một
-1.0791516	tám thoái một
-1.0606682	chín thoái một
-0.9030702	hai thoái một
-0.9540646	tịnh thoái một
-0.9540646	bộ thoái một
-0.9540646	xe thoái một
-0.9540646	mã thoái một
-0.9540646	pháo thoái một
-0.0072791465	soái thoái một
-0.0072791465	tướng lùi một
-1.0413705	năm lùi một
-1.0462778	sáu lùi một
-0.977694	sau lùi một
-1.0462778	bốn lùi một
-0.977694	phải lùi một
-0.977694	trước lùi một
-0.977694	trái lùi một
-0.9540646	tượng lùi một
-1.0606682	một lùi một
-1.1460984	bảy lùi một
-0.66899693	ba lùi một
-1.0791516	tám lùi một
-1.0606682	chín lùi một
-0.9030702	hai lùi một
-0.9540646	tịnh lùi một
-0.9540646	bộ lùi một
-0.9540646	xe lùi một
-0.9540646	mã lùi một
-0.9540646	pháo lùi một
-0.0072791465	soái lùi một
-1.0000334	chiếu tướng bảy
-1.0167603	tượng sau bảy
-1.0167603	tịnh sau bảy
-1.0167603	bộ sau bảy
-1.0006458	xe sau bảy
-0.9954649	mã sau bảy
-1.0006458	pháo sau bảy
-1.2517424	tốt sau bảy
-1.2517424	binh sau bảy
-1.2517424	chốt sau bảy
-1.0167603	tượng trước bảy
-1.0167603	tịnh trước bảy
-1.0167603	bộ trước bảy
-1.0006458	xe trước bảy
-0.9954649	mã trước bảy
-1.0006458	pháo trước bảy
-1.2517424	tốt trước bảy
-1.2517424	binh trước bảy
-1.2517424	chốt trước bảy
-1.5608187	<s> tượng bảy
-1.5056869	ăn tượng bảy
-1.5056869	bắt tượng bảy
-1.5608187	<s> tịnh bảy
-1.5056869	ăn tịnh bảy
-1.5056869	bắt tịnh bảy
-1.5608187	<s> bộ bảy
-1.5056869	ăn bộ bảy
-1.5056869	bắt bộ bảy
-1.5063357	<s> xe bảy
-1.5057023	ăn xe bảy
-1.5057023	bắt xe bảy
-1.5180538	<s> mã bảy
-1.5056869	ăn mã bảy
-1.5056869	bắt mã bảy
-1.5063357	<s> pháo bảy
-1.5057023	ăn pháo bảy
-1.5057023	bắt pháo bảy
-1.6931301	<s> tốt bảy
-1.7408648	ăn tốt bảy
-1.7408648	bắt tốt bảy
-0.9506061	sau giữa bảy
-0.9506061	trước giữa bảy
-0.9506478	tốt giữa bảy
-0.9506478	binh giữa bảy
-0.9506478	chốt giữa bảy
-1.6931301	<s> binh bảy
-1.7408648	ăn binh bảy
-1.7408648	bắt binh bảy
-1.6931301	<s> chốt bảy
-1.7408648	ăn chốt bảy
-1.7408648	bắt chốt bảy
-0.7700697	năm tiến bảy
-1.075214	sáu tiến bảy
-0.9778328	sau tiến bảy
-1.2513417	bốn tiến bảy
-0.9778328	phải tiến bảy
-0.9778328	trước tiến bảy
-0.9778328	trái tiến bảy
-0.95489794	tượng tiến bảy
-1.1614772	một tiến bảy
-1.230558	bảy tiến bảy
-1.230558	ba tiến bảy
-1.0000727	tám tiến bảy
-0.68428314	chín tiến bảy
-1.1762004	hai tiến bảy
-0.95489794	tịnh tiến bảy
-0.95489794	bộ tiến bảy
-0.95489794	xe tiến bảy
-0.95489794	mã tiến bảy
-0.95489794	pháo tiến bảy
-0.7700697	năm tấn bảy
-1.075214	sáu tấn bảy
-0.9778328	sau tấn bảy
-1.2513417	bốn tấn bảy
-0.9778328	phải tấn bảy
-0.9778328	trước tấn bảy
-0.9778328	trái tấn bảy
-0.95489794	tượng tấn bảy
-1.1614772	một tấn bảy
-1.230558	bảy tấn bảy
-1.230558	ba tấn bảy
-1.0000727	tám tấn bảy
-0.68428314	chín tấn bảy
-1.1762004	hai tấn bảy
-0.95489794	tịnh tấn bảy
-0.95489794	bộ tấn bảy
-0.95489794	xe tấn bảy
-0.95489794	mã tấn bảy
-0.95489794	pháo tấn bảy
-1.1666209	năm bình bảy
-0.55435956	sáu bình bảy
-0.95471025	sau bình bảy
-1.1566366	bốn bình bảy
-0.95471025	phải bình bảy
-0.95471025	trước bình bảy
-0.95471025	trái bình bảy
-1.0416821	một bình bảy
-1.1464174	ba bình bảy
-0.54414034	tám bình bảy
-1.0416821	chín bình bảy
-1.1464174	hai bình bảy
-0.95517844	xe bình bảy
-0.95517844	pháo bình bảy
-0.68924654	năm thoái bảy
-0.9952203	sáu thoái bảy
-0.9778328	sau thoái bảy
-1.171348	bốn thoái bảy
-0.9778328	phải thoái bảy
-0.9778328	trước thoái bảy
-0.9778328	trái thoái bảy
-0.95489794	tượng thoái bảy
-1.060807	một thoái bảy
-1.1462371	bảy thoái bảy
-1.1462371	ba thoái bảy
-0.9031628	tám thoái bảy
-0.583613	chín thoái bảy
-1.0792904	hai thoái bảy
-0.95489794	tịnh thoái bảy
-0.95489794	bộ thoái bảy
-0.95489794	xe thoái bảy
-0.95489794	mã thoái bảy
-0.95489794	pháo thoái bảy
-0.68924654	năm lùi bảy
-0.9952203	sáu lùi bảy
-0.9778328	sau lùi bảy
-1.171348	bốn lùi bảy
-0.9778328	phải lùi bảy
-0.9778328	trước lùi bảy
-0.9778328	trái lùi bảy
-0.95489794	tượng lùi bảy
-1.060807	một lùi bảy
-1.1462371	bảy lùi bảy
-1.1462371	ba lùi bảy
-0.9031628	tám lùi bảy
-0.583613	chín lùi bảy
-1.0792904	hai lùi bảy
-0.95489794	tịnh lùi bảy
-0.95489794	bộ lùi bảy
-0.95489794	xe lùi bảy
-0.95489794	mã lùi bảy
-0.95489794	pháo lùi bảy
-1.0000334	chiếu tướng ba
-1.0167603	tượng sau ba
-1.0167603	tịnh sau ba
-1.0167603	bộ sau ba
-1.0006458	xe sau ba
-0.9954649	mã sau ba
-1.0006458	pháo sau ba
-1.2517424	tốt sau ba
-1.2517424	binh sau ba
-1.2517424	chốt sau ba
-1.0167603	tượng trước ba
-1.0167603	tịnh trước ba
-1.0167603	bộ trước ba
-1.0006458	xe trước ba
-0.9954649	mã trước ba
-1.0006458	pháo trước ba
-1.2517424	tốt trước ba
-1.2517424	binh trước ba
-1.2517424	chốt trước ba
-1.5608187	<s> tượng ba
-1.5056869	ăn tượng ba
-1.5056869	bắt tượng ba
-1.5608187	<s> tịnh ba
-1.5056869	ăn tịnh ba
-1.5056869	bắt tịnh ba
-1.5608187	<s> bộ ba
-1.5056869	ăn bộ ba
-1.5056869	bắt bộ ba
-1.5063357	<s> xe ba
-1.5057023	ăn xe ba
-1.5057023	bắt xe ba
-1.5180538	<s> mã ba
-1.5056869	ăn mã ba
-1.5056869	bắt mã ba
-1.5063357	<s> pháo ba
-1.5057023	ăn pháo ba
-1.5057023	bắt pháo ba
-1.6931301	<s> tốt ba
-1.7408648	ăn tốt ba
-1.7408648	bắt tốt ba
-0.9506061	sau giữa ba
-0.9506061	trước giữa ba
-0.9506478	tốt giữa ba
-0.9506478	binh giữa ba
-0.9506478	chốt giữa ba
-1.6931301	<s> binh ba
-1.7408648	ăn binh ba
-1.7408648	bắt binh ba
-1.6931301	<s> chốt ba
-1.7408648	ăn chốt ba
-1.7408648	bắt chốt ba
-0.7700697	năm tiến ba
-1.2513417	sáu tiến ba
-0.9778328	sau tiến ba
-1.075214	bốn tiến ba
-0.9778328	phải tiến ba
-0.9778328	trước tiến ba
-0.9778328	trái tiến ba
-0.95489794	tượng tiến ba
-0.68428314	một tiến ba
-1.230558	bảy tiến ba
-1.230558	ba tiến ba
-1.1762004	tám tiến ba
-1.1614772	chín tiến ba
-1.0000727	hai tiến ba
-0.95489794	tịnh tiến ba
-0.95489794	bộ tiến ba
-0.95489794	xe tiến ba
-0.95489794	mã tiến ba
-0.95489794	pháo tiến ba
-0.7700697	năm tấn ba
-1.2513417	sáu tấn ba
-0.9778328	sau tấn ba
-1.075214	bốn tấn ba
-0.9778328	phải tấn ba
-0.9778328	trước tấn ba
-0.9778328	trái tấn ba
-0.95489794	tượng tấn ba
-0.68428314	một tấn ba
-1.230558	bảy tấn ba
-1.230558	ba tấn ba
-1.1762004	tám tấn ba
-1.1614772	chín tấn ba
-1.0000727	hai tấn ba
-0.95489794	tịnh tấn ba
-0.95489794	bộ tấn ba
-0.95489794	xe tấn ba
-0.95489794	mã tấn ba
-0.95489794	pháo tấn ba
-1.1666209	năm bình ba
-1.1566366	sáu bình ba
-0.95471025	sau bình ba
-0.55435956	bốn bình ba
-0.95471025	phải bình ba
-0.95471025	trước bình ba
-0.95471025	trái bình ba
-1.0416821	một bình ba
-1.1464174	bảy bình ba
-1.1464174	tám bình ba
-1.0416821	chín bình ba
-0.54414034	hai bình ba
-0.95517844	xe bình ba
-0.95517844	pháo bình ba
-0.68924654	năm thoái ba
-1.171348	sáu thoái ba
-0.9778328	sau thoái ba
-0.9952203	bốn thoái ba
-0.9778328	phải thoái ba
-0.9778328	trước thoái ba
-0.9778328	trái thoái ba
-0.95489794	tượng thoái ba
-0.583613	một thoái ba
-1.1462371	bảy thoái ba
-1.1462371	ba thoái ba
-1.0792904	tám thoái ba
-1.060807	chín thoái ba
-0.9031628	hai thoái ba
-0.95489794	tịnh thoái ba
-0.95489794	bộ thoái ba
-0.95489794	xe thoái ba
-0.95489794	mã thoái ba
-0.95489794	pháo thoái ba
-0.68924654	năm lùi ba
-1.171348	sáu lùi ba
-0.9778328	sau lùi ba
-0.9952203	bốn lùi ba
-0.9778328	phải lùi ba
-0.9778328	trước lùi ba
-0.9778328	trái lùi ba
-0.95489794	tượng lùi ba
-0.583613	một lùi ba
-1.1462371	bảy lùi ba
-1.1462371	ba lùi ba
-1.0792904	tám lùi ba
-1.060807	chín lùi ba
-0.9031628	hai lùi ba
-0.95489794	tịnh lùi ba
-0.95489794	bộ lùi ba
-0.95489794	xe lùi ba
-0.95489794	mã lùi ba
-0.95489794	pháo lùi ba
-1.0000334	chiếu tướng tám
-1.0778143	tượng sau tám
-1.0778143	tịnh sau tám
-1.0778143	bộ sau tám
-1.0006458	xe sau tám
-1.0431067	mã sau tám
-1.0006458	pháo sau tám
-1.2517424	tốt sau tám
-1.2517424	binh sau tám
-1.2517424	chốt sau tám
-1.0778143	tượng trước tám
-1.0778143	tịnh trước tám
-1.0778143	bộ trước tám
-1.0006458	xe trước tám
-1.0431067	mã trước tám
-1.0006458	pháo trước tám
-1.2517424	tốt trước tám
-1.2517424	binh trước tám
-1.2517424	chốt trước tám
-1.652469	<s> tượng tám
-1.5056869	ăn tượng tám
-1.5056869	bắt tượng tám
-1.652469	<s> tịnh tám
-1.5056869	ăn tịnh tám
-1.5056869	bắt tịnh tám
-1.652469	<s> bộ tám
-1.5056869	ăn bộ tám
-1.5056869	bắt bộ tám
-1.5063357	<s> xe tám
-1.5057023	ăn xe tám
-1.5057023	bắt xe tám
-1.5824528	<s> mã tám
-1.5056869	ăn mã tám
-1.5056869	bắt mã tám
-1.5063357	<s> pháo tám
-1.5057023	ăn pháo tám
-1.5057023	bắt pháo tám
-1.6931301	<s> tốt tám
-1.7408648	ăn tốt tám
-1.7408648	bắt tốt tám
-0.9506061	sau giữa tám
-0.9506061	trước giữa tám
-0.9506478	tốt giữa tám
-0.9506478	binh giữa tám
-0.9506478	chốt giữa tám
-1.6931301	<s> binh tám
-1.7408648	ăn binh tám
-1.7408648	bắt binh tám
-1.6931301	<s> chốt tám
-1.7408648	ăn chốt tám
-1.7408648	bắt chốt tám
-1.2472638	năm tiến tám
-0.7741476	sáu tiến tám
-0.9778328	sau tiến tám
-1.2513417	bốn tiến tám
-0.9778328	phải tiến tám
-0.9778328	trước tiến tám
-0.9778328	trái tiến tám
-0.95489794	tượng tiến tám
-1.1614772	một tiến tám
-1.0544305	bảy tiến tám
-1.230558	ba tiến tám
-1.1762004	tám tiến tám
-0.98534954	chín tiến tám
-1.1762004	hai tiến tám
-0.95489794	tịnh tiến tám
-0.95489794	bộ tiến tám
-0.95489794	xe tiến tám
-0.95489794	mã tiến tám
-0.95489794	pháo tiến tám
-1.2472638	năm tấn tám
-0.7741476	sáu tấn tám
-0.9778328	sau tấn tám
-1.2513417	bốn tấn tám
-0.9778328	phải tấn tám
-0.9778328	trước tấn tám
-0.9778328	trái tấn tám
-0.95489794	tượng tấn tám
-1.1614772	một tấn tám
-1.0544305	bảy tấn tám
-1.230558	ba tấn tám
-1.1762004	tám tấn tám
-0.98534954	chín tấn tám
-1.1762004	hai tấn tám
-0.95489794	tịnh tấn tám
-0.95489794	bộ tấn tám
-0.95489794	xe tấn tám
-0.95489794	mã tấn tám
-0.95489794	pháo tấn tám
-1.1666209	năm bình tám
-1.1566366	sáu bình tám
-0.95471025	sau bình tám
-1.1566366	bốn bình tám
-0.95471025	phải bình tám
-0.95471025	trước bình tám
-0.95471025	trái bình tám
-1.0416821	một bình tám
-0.54414034	bảy bình tám
-1.1464174	ba bình tám
-0.43940505	chín bình tám
-1.1464174	hai bình tám
-0.95517844	xe bình tám
-0.95517844	pháo bình tám
-1.1664406	năm thoái tám
-0.6941539	sáu thoái tám
-0.9778328	sau thoái tám
-1.171348	bốn thoái tám
-0.9778328	phải thoái tám
-0.9778328	trước thoái tám
-0.9778328	trái thoái tám
-0.95489794	tượng thoái tám
-1.060807	một thoái tám
-0.9701095	bảy thoái tám
-1.1462371	ba thoái tám
-1.0792904	tám thoái tám
-0.8846794	chín thoái tám
-1.0792904	hai thoái tám
-0.95489794	tịnh thoái tám
-0.95489794	bộ thoái tám
-0.95489794	xe thoái tám
-0.95489794	mã thoái tám
-0.95489794	pháo thoái tám
-1.1664406	năm lùi tám
-0.6941539	sáu lùi tám
-0.9778328	sau lùi tám
-1.171348	bốn lùi tám
-0.9778328	phải lùi tám
-0.9778328	trước lùi tám
-0.9778328	trái lùi tám
-0.95489794	tượng lùi tám
-1.060807	một lùi tám
-0.9701095	bảy lùi tám
-1.1462371	ba lùi tám
-1.0792904	tám lùi tám
-0.8846794	chín lùi tám
-1.0792904	hai lùi tám
-0.95489794	tịnh lùi tám
-0.95489794	bộ lùi tám
-0.95489794	xe lùi tám
-0.95489794	mã lùi tám
-0.95489794	pháo lùi tám
-1.0000334	chiếu tướng chín
-1.0778143	tượng sau chín
-1.0778143	tịnh sau chín
-1.0778143	bộ sau chín
-1.0006458	xe sau chín
-1.096626	mã sau chín
-1.0006458	pháo sau chín
-1.2684531	tốt sau chín
-1.2684531	binh sau chín
-1.2684531	chốt sau chín
-1.0778143	tượng trước chín
-1.0778143	tịnh trước chín
-1.0778143	bộ trước chín
-1.0006458	xe trước chín
-1.096626	mã trước chín
-1.0006458	pháo trước chín
-1.2684531	tốt trước chín
-1.2684531	binh trước chín
-1.2684531	chốt trước chín
-1.652469	<s> tượng chín
-1.5056869	ăn tượng chín
-1.5056869	bắt tượng chín
-1.652469	<s> tịnh chín
-1.5056869	ăn tịnh chín
-1.5056869	bắt tịnh chín
-1.652469	<s> bộ chín
-1.5056869	ăn bộ chín
-1.5056869	bắt bộ chín
-1.5063357	<s> xe chín
-1.5057023	ăn xe chín
-1.5057023	bắt xe chín
-1.6580919	<s> mã chín
-1.5056869	ăn mã chín
-1.5056869	bắt mã chín
-1.5063357	<s> pháo chín
-1.5057023	ăn pháo chín
-1.5057023	bắt pháo chín
-1.7165838	<s> tốt chín
-1.7408648	ăn tốt chín
-1.7408648	bắt tốt chín
-0.96731263	sau giữa chín
-0.96731263	trước giữa chín
-0.96735597	tốt giữa chín
-0.96735597	binh giữa chín
-0.96735597	chốt giữa chín
-1.7165838	<s> binh chín
-1.7408648	ăn binh chín
-1.7408648	bắt binh chín
-1.7165838	<s> chốt chín
-1.7408648	ăn chốt chín
-1.7408648	bắt chốt chín
-1.2472638	năm tiến chín
-1.2513417	sáu tiến chín
-0.9778328	sau tiến chín
-1.2513417	bốn tiến chín
-0.9778328	phải tiến chín
-0.9778328	trước tiến chín
-0.9778328	trái tiến chín
-0.95489794	tượng tiến chín
-1.1614772	một tiến chín
-0.753364	bảy tiến chín
-1.230558	ba tiến chín
-1.0000727	tám tiến chín
-1.1614772	chín tiến chín
-1.1762004	hai tiến chín
-0.95489794	tịnh tiến chín
-0.95489794	bộ tiến chín
-0.95489794	xe tiến chín
-0.95489794	mã tiến chín
-0.95489794	pháo tiến chín
-1.2472638	năm tấn chín
-1.2513417	sáu tấn chín
-0.9778328	sau tấn chín
-1.2513417	bốn tấn chín
-0.9778328	phải tấn chín
-0.9778328	trước tấn chín
-0.9778328	trái tấn chín
-0.95489794	tượng tấn chín
-1.1614772	một tấn chín
-0.753364	bảy tấn chín
-1.230558	ba tấn chín
-1.0000727	tám tấn chín
-1.1614772	chín tấn chín
-1.1762004	hai tấn chín
-0.95489794	tịnh tấn chín
-0.95489794	bộ tấn chín
-0.95489794	xe tấn chín
-0.95489794	mã tấn chín
-0.95489794	pháo tấn chín
-1.1666209	năm bình chín
-1.1566366	sáu bình chín
-0.95471025	sau bình chín
-1.1566366	bốn bình chín
-0.95471025	phải bình chín
-0.95471025	trước bình chín
-0.95471025	trái bình chín
-1.0416821	một bình chín
-1.1464174	bảy bình chín
-1.1464174	ba bình chín
-0.54414034	tám bình chín
-1.1464174	hai bình chín
-0.95517844	xe bình chín
-0.95517844	pháo bình chín
-1.1664406	năm thoái chín
-1.171348	sáu thoái chín
-0.9778328	sau thoái chín
-1.171348	bốn thoái chín
-0.9778328	phải thoái chín
-0.9778328	trước thoái chín
-0.9778328	trái thoái chín
-0.95489794	tượng thoái chín
-1.060807	một thoái chín
-0.6690432	bảy thoái chín
-1.1462371	ba thoái chín
-0.9031628	tám thoái chín
-1.060807	chín thoái chín
-1.0792904	hai thoái chín
-0.95489794	tịnh thoái chín
-0.95489794	bộ thoái chín
-0.95489794	xe thoái chín
-0.95489794	mã thoái chín
-0.95489794	pháo thoái chín
-1.1664406	năm lùi chín
-1.171348	sáu lùi chín
-0.9778328	sau lùi chín
-1.171348	bốn lùi chín
-0.9778328	phải lùi chín
-0.9778328	trước lùi chín
-0.9778328	trái lùi chín
-0.95489794	tượng lùi chín
-1.060807	một lùi chín
-0.6690432	bảy lùi chín
-1.1462371	ba lùi chín
-0.9031628	tám lùi chín
-1.060807	chín lùi chín
-1.0792904	hai lùi chín
-0.95489794	tịnh lùi chín
-0.95489794	bộ lùi chín
-0.95489794	xe lùi chín
-0.95489794	mã lùi chín
-0.95489794	pháo lùi chín
-1.0000334	chiếu tướng hai
-1.0778143	tượng sau hai
-1.0778143	tịnh sau hai
-1.0778143	bộ sau hai
-1.0006458	xe sau hai
-1.0431067	mã sau hai
-1.0006458	pháo sau hai
-1.2517424	tốt sau hai
-1.2517424	binh sau hai
-1.2517424	chốt sau hai
-1.0778143	tượng trước hai
-1.0778143	tịnh trước hai
-1.0778143	bộ trước hai
-1.0006458	xe trước hai
-1.0431067	mã trước hai
-1.0006458	pháo trước hai
-1.2517424	tốt trước hai
-1.2517424	binh trước hai
-1.2517424	chốt trước hai
-1.652469	<s> tượng hai
-1.5056869	ăn tượng hai
-1.5056869	bắt tượng hai
-1.652469	<s> tịnh hai
-1.5056869	ăn tịnh hai
-1.5056869	bắt tịnh hai
-1.652469	<s> bộ hai
-1.5056869	ăn bộ hai
-1.5056869	bắt bộ hai
-1.5063357	<s> xe hai
-1.5057023	ăn xe hai
-1.5057023	bắt xe hai
-1.5824528	<s> mã hai
-1.5056869	ăn mã hai
-1.5056869	bắt mã hai
-1.5063357	<s> pháo hai
-1.5057023	ăn pháo hai
-1.5057023	bắt pháo hai
-1.6931301	<s> tốt hai
-1.7408648	ăn tốt hai
-1.7408648	bắt tốt hai
-0.9506061	sau giữa hai
-0.9506061	trước giữa hai
-0.9506478	tốt giữa hai
-0.9506478	binh giữa hai
-0.9506478	chốt giữa hai
-1.6931301	<s> binh hai
-1.7408648	ăn binh hai
-1.7408648	bắt binh hai
-1.6931301	<s> chốt hai
-1.7408648	ăn chốt hai
-1.7408648	bắt chốt hai
-1.2472638	năm tiến hai
-1.2513417	sáu tiến hai
-0.9778328	sau tiến hai
-0.7741476	bốn tiến hai
-0.9778328	phải tiến hai
-0.9778328	trước tiến hai
-0.9778328	trái tiến hai
-0.95489794	tượng tiến hai
-0.98534954	một tiến hai
-1.230558	bảy tiến hai
-1.0544305	ba tiến hai
-1.1762004	tám tiến hai
-1.1614772	chín tiến hai
-1.1762004	hai tiến hai
-0.95489794	tịnh tiến hai
-0.95489794	bộ tiến hai
-0.95489794	xe tiến hai
-0.95489794	mã tiến hai
-0.95489794	pháo tiến hai
-1.2472638	năm tấn hai
-1.2513417	sáu tấn hai
-0.9778328	sau tấn hai
-0.7741476	bốn tấn hai
-0.9778328	phải tấn hai
-0.9778328	trước tấn hai
-0.9778328	trái tấn hai
-0.95489794	tượng tấn hai
-0.98534954	một tấn hai
-1.230558	bảy tấn hai
-1.0544305	ba tấn hai
-1.1762004	tám tấn hai
-1.1614772	chín tấn hai
-1.1762004	hai tấn hai
-0.95489794	tịnh tấn hai
-0.95489794	bộ tấn hai
-0.95489794	xe tấn hai
-0.95489794	mã tấn hai
-0.95489794	pháo tấn hai
-1.1666209	năm bình hai
-1.1566366	sáu bình hai
-0.95471025	sau bình hai
-1.1566366	bốn bình hai
-0.95471025	phải bình hai
-0.95471025	trước bình hai
-0.95471025	trái bình hai
-0.43940505	một bình hai
-1.1464174	bảy bình hai
-0.54414034	ba bình hai
-1.1464174	tám bình hai
-1.0416821	chín bình hai
-0.95517844	xe bình hai
-0.95517844	pháo bình hai
-1.1664406	năm thoái hai
-1.171348	sáu thoái hai
-0.9778328	sau thoái hai
-0.6941539	bốn thoái hai
-0.9778328	phải thoái hai
-0.9778328	trước thoái hai
-0.9778328	trái thoái hai
-0.95489794	tượng thoái hai
-0.8846794	một thoái hai
-1.1462371	bảy thoái hai
-0.9701095	ba thoái hai
-1.0792904	tám thoái hai
-1.060807	chín thoái hai
-1.0792904	hai thoái hai
-0.95489794	tịnh thoái hai
-0.95489794	bộ thoái hai
-0.95489794	xe thoái hai
-0.95489794	mã thoái hai
-0.95489794	pháo thoái hai
-1.1664406	năm lùi hai
-1.171348	sáu lùi hai
-0.9778328	sau lùi hai
-0.6941539	bốn lùi hai
-0.9778328	phải lùi hai
-0.9778328	trước lùi hai
-0.9778328	trái lùi hai
-0.95489794	tượng lùi hai
-0.8846794	một lùi hai
-1.1462371	bảy lùi hai
-0.9701095	ba lùi hai
-1.0792904	tám lùi hai
-1.060807	chín lùi hai
-1.0792904	hai lùi hai
-0.95489794	tịnh lùi hai
-0.95489794	bộ lùi hai
-0.95489794	xe lùi hai
-0.95489794	mã lùi hai
-0.95489794	pháo lùi hai
-1.0653818	tướng ăn tịnh
-1.0653818	sĩ ăn tịnh
-1.0642521	năm ăn tịnh
-1.0642521	sáu ăn tịnh
-1.0643891	sau ăn tịnh
-1.0642521	bốn ăn tịnh
-1.0643891	phải ăn tịnh
-1.0643891	trước ăn tịnh
-1.0643891	trái ăn tịnh
-1.0653818	tượng ăn tịnh
-1.0642561	một ăn tịnh
-1.0642561	bảy ăn tịnh
-1.0642561	ba ăn tịnh
-1.0642561	tám ăn tịnh
-1.0642561	chín ăn tịnh
-1.0642561	hai ăn tịnh
-1.0653818	tịnh ăn tịnh
-1.0653818	bộ ăn tịnh
-1.0653818	xe ăn tịnh
-1.0653818	mã ăn tịnh
-1.0653818	pháo ăn tịnh
-1.0653818	tốt ăn tịnh
-1.0653818	binh ăn tịnh
-1.0653818	chốt ăn tịnh
-1.0653818	soái ăn tịnh
-1.0653818	tướng bắt tịnh
-1.0653818	sĩ bắt tịnh
-1.0642521	năm bắt tịnh
-1.0642521	sáu bắt tịnh
-1.0643891	sau bắt tịnh
-1.0642521	bốn bắt tịnh
-1.0643891	phải bắt tịnh
-1.0643891	trước bắt tịnh
-1.0643891	trái bắt tịnh
-1.0653818	tượng bắt tịnh
-1.0642561	một bắt tịnh
-1.0642561	bảy bắt tịnh
-1.0642561	ba bắt tịnh
-1.0642561	tám bắt tịnh
-1.0642561	chín bắt tịnh
-1.0642561	hai bắt tịnh
-1.0653818	tịnh bắt tịnh
-1.0653818	bộ bắt tịnh
-1.0653818	xe bắt tịnh
-1.0653818	mã bắt tịnh
-1.0653818	pháo bắt tịnh
-1.0653818	tốt bắt tịnh
-1.0653818	binh bắt tịnh
-1.0653818	chốt bắt tịnh
-1.0653818	soái bắt tịnh
-1.0653818	tướng ăn bộ
-1.0653818	sĩ ăn bộ
-1.0642521	năm ăn bộ
-1.0642521	sáu ăn bộ
-1.0643891	sau ăn bộ
-1.0642521	bốn ăn bộ
-1.0643891	phải ăn bộ
-1.0643891	trước ăn bộ
-1.0643891	trái ăn bộ
-1.0653818	tượng ăn bộ
-1.0642561	một ăn bộ
-1.0642561	bảy ăn bộ
-1.0642561	ba ăn bộ
-1.0642561	tám ăn bộ
-1.0642561	chín ăn bộ
-1.0642561	hai ăn bộ
-1.0653818	tịnh ăn bộ
-1.0653818	bộ ăn bộ
-1.0653818	xe ăn bộ
-1.0653818	mã ăn bộ
-1.0653818	pháo ăn bộ
-1.0653818	tốt ăn bộ
-1.0653818	binh ăn bộ
-1.0653818	chốt ăn bộ
-1.0653818	soái ăn bộ
-1.0653818	tướng bắt bộ
-1.0653818	sĩ bắt bộ
-1.0642521	năm bắt bộ
-1.0642521	sáu bắt bộ
-1.0643891	sau bắt bộ
-1.0642521	bốn bắt bộ
-1.0643891	phải bắt bộ
-1.0643891	trước bắt bộ
-1.0643891	trái bắt bộ
-1.0653818	tượng bắt bộ
-1.0642561	một bắt bộ
-1.0642561	bảy bắt bộ
-1.0642561	ba bắt bộ
-1.0642561	tám bắt bộ
-1.0642561	chín bắt bộ
-1.0642561	hai bắt bộ
-1.0653818	tịnh bắt bộ
-1.0653818	bộ bắt bộ
-1.0653818	xe bắt bộ
-1.0653818	mã bắt bộ
-1.0653818	pháo bắt bộ
-1.0653818	tốt bắt bộ
-1.0653818	binh bắt bộ
-1.0653818	chốt bắt bộ
-1.0653818	soái bắt bộ
-1.0653818	tướng ăn xe
-1.0653818	sĩ ăn xe
-1.0642521	năm ăn xe
-1.0642521	sáu ăn xe
-1.0643891	sau ăn xe
-1.0642521	bốn ăn xe
-1.0643891	phải ăn xe
-1.0643891	trước ăn xe
-1.0643891	trái ăn xe
-1.0653818	tượng ăn xe
-1.0642561	một ăn xe
-1.0642561	bảy ăn xe
-1.0642561	ba ăn xe
-1.0642561	tám ăn xe
-1.0642561	chín ăn xe
-1.0642561	hai ăn xe
-1.0653818	tịnh ăn xe
-1.0653818	bộ ăn xe
-1.0653818	xe ăn xe
-1.0653818	mã ăn xe
-1.0653818	pháo ăn xe
-1.0653818	tốt ăn xe
-1.0653818	binh ăn xe
-1.0653818	chốt ăn xe
-1.0653818	soái ăn xe
-1.0653818	tướng bắt xe
-1.0653818	sĩ bắt xe
-1.0642521	năm bắt xe
-1.0642521	sáu bắt xe
-1.0643891	sau bắt xe
-1.0642521	bốn bắt xe
-1.0643891	phải bắt xe
-1.0643891	trước bắt xe
-1.0643891	trái bắt xe
-1.0653818	tượng bắt xe
-1.0642561	một bắt xe
-1.0642561	bảy bắt xe
-1.0642561	ba bắt xe
-1.0642561	tám bắt xe
-1.0642561	chín bắt xe
-1.0642561	hai bắt xe
-1.0653818	tịnh bắt xe
-1.0653818	bộ bắt xe
-1.0653818	xe bắt xe
-1.0653818	mã bắt xe
-1.0653818	pháo bắt xe
-1.0653818	tốt bắt xe
-1.0653818	binh bắt xe
-1.0653818	chốt bắt xe
-1.0653818	soái bắt xe
-1.0653818	tướng ăn mã
-1.0653818	sĩ ăn mã
-1.0642521	năm ăn mã
-1.0642521	sáu ăn mã
-1.0643891	sau ăn mã
-1.0642521	bốn ăn mã
-1.0643891	phải ăn mã
-1.0643891	trước ăn mã
-1.0643891	trái ăn mã
-1.0653818	tượng ăn mã
-1.0642561	một ăn mã
-1.0642561	bảy ăn mã
-1.0642561	ba ăn mã
-1.0642561	tám ăn mã
-1.0642561	chín ăn mã
-1.0642561	hai ăn mã
-1.0653818	tịnh ăn mã
-1.0653818	bộ ăn mã
-1.0653818	xe ăn mã
-1.0653818	mã ăn mã
-1.0653818	pháo ăn mã
-1.0653818	tốt ăn mã
-1.0653818	binh ăn mã
-1.0653818	chốt ăn mã
-1.0653818	soái ăn mã
-1.0653818	tướng bắt mã
-1.0653818	sĩ bắt mã
-1.0642521	năm bắt mã
-1.0642521	sáu bắt mã
-1.0643891	sau bắt mã
-1.0642521	bốn bắt mã
-1.0643891	phải bắt mã
-1.0643891	trước bắt mã
-1.0643891	trái bắt mã
-1.0653818	tượng bắt mã
-1.0642561	một bắt mã
-1.0642561	bảy bắt mã
-1.0642561	ba bắt mã
-1.0642561	tám bắt mã
-1.0642561	chín bắt mã
-1.0642561	hai bắt mã
-1.0653818	tịnh bắt mã
-1.0653818	bộ bắt mã
-1.0653818	xe bắt mã
-1.0653818	mã bắt mã
-1.0653818	pháo bắt mã
-1.0653818	tốt bắt mã
-1.0653818	binh bắt mã
-1.0653818	chốt bắt mã
-1.0653818	soái bắt mã
-1.0653818	tướng ăn pháo
-1.0653818	sĩ ăn pháo
-1.0642521	năm ăn pháo
-1.0642521	sáu ăn pháo
-1.0643891	sau ăn pháo
-1.0642521	bốn ăn pháo
-1.0643891	phải ăn pháo
-1.0643891	trước ăn pháo
-1.0643891	trái ăn pháo
-1.0653818	tượng ăn pháo
-1.0642561	một ăn pháo
-1.0642561	bảy ăn pháo
-1.0642561	ba ăn pháo
-1.0642561	tám ăn pháo
-1.0642561	chín ăn pháo
-1.0642561	hai ăn pháo
-1.0653818	tịnh ăn pháo
-1.0653818	bộ ăn pháo
-1.0653818	xe ăn pháo
-1.0653818	mã ăn pháo
-1.0653818	pháo ăn pháo
-1.0653818	tốt ăn pháo
-1.0653818	binh ăn pháo
-1.0653818	chốt ăn pháo
-1.0653818	soái ăn pháo
-1.0653818	tướng bắt pháo
-1.0653818	sĩ bắt pháo
-1.0642521	năm bắt pháo
-1.0642521	sáu bắt pháo
-1.0643891	sau bắt pháo
-1.0642521	bốn bắt pháo
-1.0643891	phải bắt pháo
-1.0643891	trước bắt pháo
-1.0643891	trái bắt pháo
-1.0653818	tượng bắt pháo
-1.0642561	một bắt pháo
-1.0642561	bảy bắt pháo
-1.0642561	ba bắt pháo
-1.0642561	tám bắt pháo
-1.0642561	chín bắt pháo
-1.0642561	hai bắt pháo
-1.0653818	tịnh bắt pháo
-1.0653818	bộ bắt pháo
-1.0653818	xe bắt pháo
-1.0653818	mã bắt pháo
-1.0653818	pháo bắt pháo
-1.0653818	tốt bắt pháo
-1.0653818	binh bắt pháo
-1.0653818	chốt bắt pháo
-1.0653818	soái bắt pháo
-0.8296845	tướng ăn tốt
-0.8296845	sĩ ăn tốt
-0.82902765	năm ăn tốt
-0.82902765	sáu ăn tốt
-0.82910734	sau ăn tốt
-0.82902765	bốn ăn tốt
-0.82910734	phải ăn tốt
-0.82910734	trước ăn tốt
-0.82910734	trái ăn tốt
-0.8296845	tượng ăn tốt
-0.8290299	một ăn tốt
-0.8290299	bảy ăn tốt
-0.8290299	ba ăn tốt
-0.8290299	tám ăn tốt
-0.8290299	chín ăn tốt
-0.8290299	hai ăn tốt
-0.8296845	tịnh ăn tốt
-0.8296845	bộ ăn tốt
-0.8296845	xe ăn tốt
-0.8296845	mã ăn tốt
-0.8296845	pháo ăn tốt
-0.8296845	tốt ăn tốt
-0.8296845	binh ăn tốt
-0.8296845	chốt ăn tốt
-0.8296845	soái ăn tốt
-0.8296845	tướng bắt tốt
-0.8296845	sĩ bắt tốt
-0.82902765	năm bắt tốt
-0.82902765	sáu bắt tốt
-0.82910734	sau bắt tốt
-0.82902765	bốn bắt tốt
-0.82910734	phải bắt tốt
-0.82910734	trước bắt tốt
-0.82910734	trái bắt tốt
-0.8296845	tượng bắt tốt
-0.8290299	một bắt tốt
-0.8290299	bảy bắt tốt
-0.8290299	ba bắt tốt
-0.8290299	tám bắt tốt
-0.8290299	chín bắt tốt
-0.8290299	hai bắt tốt
-0.8296845	tịnh bắt tốt
-0.8296845	bộ bắt tốt
-0.8296845	xe bắt tốt
-0.8296845	mã bắt tốt
-0.8296845	pháo bắt tốt
-0.8296845	tốt bắt tốt
-0.8296845	binh bắt tốt
-0.8296845	chốt bắt tốt
-0.8296845	soái bắt tốt
-0.30106023	tốt sau giữa
-0.30106023	binh sau giữa
-0.30106023	chốt sau giữa
-0.30106023	tốt trước giữa
-0.30106023	binh trước giữa
-0.30106023	chốt trước giữa
-0.79277337	<s> tốt giữa
-0.7862087	ăn tốt giữa
-0.7862087	bắt tốt giữa
-0.79277337	<s> binh giữa
-0.7862087	ăn binh giữa
-0.7862087	bắt binh giữa
-0.79277337	<s> chốt giữa
-0.7862087	ăn chốt giữa
-0.7862087	bắt chốt giữa
-0.8296845	tướng ăn binh
-0.8296845	sĩ ăn binh
-0.82902765	năm ăn binh
-0.82902765	sáu ăn binh
-0.82910734	sau ăn binh
-0.82902765	bốn ăn binh
-0.82910734	phải ăn binh
-0.82910734	trước ăn binh
-0.82910734	trái ăn binh
-0.8296845	tượng ăn binh
-0.8290299	một ăn binh
-0.8290299	bảy ăn binh
-0.8290299	ba ăn binh
-0.8290299	tám ăn binh
-0.8290299	chín ăn binh
-0.8290299	hai ăn binh
-0.8296845	tịnh ăn binh
-0.8296845	bộ ăn binh
-0.8296845	xe ăn binh
-0.8296845	mã ăn binh
-0.8296845	pháo ăn binh
-0.8296845	tốt ăn binh
-0.8296845	binh ăn binh
-0.8296845	chốt ăn binh
-0.8296845	soái ăn binh
-0.8296845	tướng bắt binh
-0.8296845	sĩ bắt binh
-0.82902765	năm bắt binh
-0.82902765	sáu bắt binh
-0.82910734	sau bắt binh
-0.82902765	bốn bắt binh
-0.82910734	phải bắt binh
-0.82910734	trước bắt binh
-0.82910734	trái bắt binh
-0.8296845	tượng bắt binh
-0.8290299	một bắt binh
-0.8290299	bảy bắt binh
-0.8290299	ba bắt binh
-0.8290299	tám bắt binh
-0.8290299	chín bắt binh
-0.8290299	hai bắt binh
-0.8296845	tịnh bắt binh
-0.8296845	bộ bắt binh
-0.8296845	xe bắt binh
-0.8296845	mã bắt binh
-0.8296845	pháo bắt binh
-0.8296845	tốt bắt binh
-0.8296845	binh bắt binh
-0.8296845	chốt bắt binh
-0.8296845	soái bắt binh
-0.8296845	tướng ăn chốt
-0.8296845	sĩ ăn chốt
-0.82902765	năm ăn chốt
-0.82902765	sáu ăn chốt
-0.82910734	sau ăn chốt
-0.82902765	bốn ăn chốt
-0.82910734	phải ăn chốt
-0.82910734	trước ăn chốt
-0.82910734	trái ăn chốt
-0.8296845	tượng ăn chốt
-0.8290299	một ăn chốt
-0.8290299	bảy ăn chốt
-0.8290299	ba ăn chốt
-0.8290299	tám ăn chốt
-0.8290299	chín ăn chốt
-0.8290299	hai ăn chốt
-0.8296845	tịnh ăn chốt
-0.8296845	bộ ăn chốt
-0.8296845	xe ăn chốt
-0.8296845	mã ăn chốt
-0.8296845	pháo ăn chốt
-0.8296845	tốt ăn chốt
-0.8296845	binh ăn chốt
-0.8296845	chốt ăn chốt
-0.8296845	soái ăn chốt
-0.8296845	tướng bắt chốt
-0.8296845	sĩ bắt chốt
-0.82902765	năm bắt chốt
-0.82902765	sáu bắt chốt
-0.82910734	sau bắt chốt
-0.82902765	bốn bắt chốt
-0.82910734	phải bắt chốt
-0.82910734	trước bắt chốt
-0.82910734	trái bắt chốt
-0.8296845	tượng bắt chốt
-0.8290299	một bắt chốt
-0.8290299	bảy bắt chốt
-0.8290299	ba bắt chốt
-0.8290299	tám bắt chốt
-0.8290299	chín bắt chốt
-0.8290299	hai bắt chốt
-0.8296845	tịnh bắt chốt
-0.8296845	bộ bắt chốt
-0.8296845	xe bắt chốt
-0.8296845	mã bắt chốt
-0.8296845	pháo bắt chốt
-0.8296845	tốt bắt chốt
-0.8296845	binh bắt chốt
-0.8296845	chốt bắt chốt
-0.8296845	soái bắt chốt
-1.7832172	<s> tướng tiến
-1.9624329	<s> sĩ tiến
-2.189664	tướng năm tiến
-1.1837778	sĩ năm tiến
-1.0709352	sau năm tiến
-1.0709352	trước năm tiến
-1.1837778	tượng năm tiến
-1.1837778	tịnh năm tiến
-1.1837778	bộ năm tiến
-0.868593	xe năm tiến
-0.9836546	mã năm tiến
-0.868593	pháo năm tiến
-1.4549692	tốt năm tiến
-1.4234577	giữa năm tiến
-1.4549692	binh năm tiến
-1.4549692	chốt năm tiến
-1.1858916	soái năm tiến
-2.186842	tướng sáu tiến
-1.4242623	sĩ sáu tiến
-1.0618802	sau sáu tiến
-1.0618802	trước sáu tiến
-1.1837778	tượng sáu tiến
-1.1837778	tịnh sáu tiến
-1.1837778	bộ sáu tiến
-0.868593	xe sáu tiến
-0.9836546	mã sáu tiến
-0.868593	pháo sáu tiến
-1.4549692	tốt sáu tiến
-1.4234577	giữa sáu tiến
-1.4549692	binh sáu tiến
-1.4549692	chốt sáu tiến
-1.1564865	soái sáu tiến
-1.5656023	sĩ sau tiến
-1.5470078	tượng sau tiến
-1.5470078	tịnh sau tiến
-1.5470078	bộ sau tiến
-1.8693808	xe sau tiến
-1.6268736	mã sau tiến
-1.8693808	pháo sau tiến
-2.186842	tướng bốn tiến
-1.4242623	sĩ bốn tiến
-1.0618802	sau bốn tiến
-1.0618802	trước bốn tiến
-1.1837778	tượng bốn tiến
-1.1837778	tịnh bốn tiến
-1.1837778	bộ bốn tiến
-0.868593	xe bốn tiến
-0.9836546	mã bốn tiến
-0.868593	pháo bốn tiến
-1.4549692	tốt bốn tiến
-1.4234577	giữa bốn tiến
-1.4549692	binh bốn tiến
-1.4549692	chốt bốn tiến
-1.1564865	soái bốn tiến
-1.0611397	sĩ phải tiến
-0.81306064	tượng phải tiến
-0.81306064	tịnh phải tiến
-0.81306064	bộ phải tiến
-0.87511384	xe phải tiến
-0.81306064	mã phải tiến
-0.87511384	pháo phải tiến
-1.5656023	sĩ trước tiến
-1.5470078	tượng trước tiến
-1.5470078	tịnh trước tiến
-1.5470078	bộ trước tiến
-1.8693808	xe trước tiến
-1.6268736	mã trước tiến
-1.8693808	pháo trước tiến
-1.0611397	sĩ trái tiến
-0.81306064	tượng trái tiến
-0.81306064	tịnh trái tiến
-0.81306064	bộ trái tiến
-0.87511384	xe trái tiến
-0.81306064	mã trái tiến
-0.87511384	pháo trái tiến
-1.9296248	<s> tượng tiến
-1.0895178	sau một tiến
-1.0895178	trước một tiến
-1.424621	tượng một tiến
-1.424621	tịnh một tiến
-1.424621	bộ một tiến
-0.8686377	xe một tiến
-1.1839569	mã một tiến
-0.8686377	pháo một tiến
-1.4398596	tốt một tiến
-1.4067868	giữa một tiến
-1.4398596	binh một tiến
-1.4398596	chốt một tiến
-1.0433159	sau bảy tiến
-1.0433159	trước bảy tiến
-1.1839569	tượng bảy tiến
-1.1839569	tịnh bảy tiến
-1.1839569	bộ bảy tiến
-0.8686377	xe bảy tiến
-0.98374414	mã bảy tiến
-0.8686377	pháo bảy tiến
-1.4553719	tốt bảy tiến
-1.4234926	giữa bảy tiến
-1.4553719	binh bảy tiến
-1.4553719	chốt bảy tiến
-1.0433159	sau ba tiến
-1.0433159	trước ba tiến
-1.1839569	tượng ba tiến
-1.1839569	tịnh ba tiến
-1.1839569	bộ ba tiến
-0.8686377	xe ba tiến
-0.98374414	mã ba tiến
-0.8686377	pháo ba tiến
-1.4553719	tốt ba tiến
-1.4234926	giữa ba tiến
-1.4553719	binh ba tiến
-1.4553719	chốt ba tiến
-1.082539	sau tám tiến
-1.082539	trước tám tiến
-1.424621	tượng tám tiến
-1.424621	tịnh tám tiến
-1.424621	bộ tám tiến
-0.8686377	xe tám tiến
-1.0611558	mã tám tiến
-0.8686377	pháo tám tiến
-1.4553719	tốt tám tiến
-1.4234926	giữa tám tiến
-1.4553719	binh tám tiến
-1.4553719	chốt tám tiến
-1.0895178	sau chín tiến
-1.0895178	trước chín tiến
-1.424621	tượng chín tiến
-1.424621	tịnh chín tiến
-1.424621	bộ chín tiến
-0.8686377	xe chín tiến
-1.1839569	mã chín tiến
-0.8686377	pháo chín tiến
-1.4398596	tốt chín tiến
-1.4067868	giữa chín tiến
-1.4398596	binh chín tiến
-1.4398596	chốt chín tiến
-1.082539	sau hai tiến
-1.082539	trước hai tiến
-1.424621	tượng hai tiến
-1.424621	tịnh hai tiến
-1.424621	bộ hai tiến
-0.8686377	xe hai tiến
-1.0611558	mã hai tiến
-0.8686377	pháo hai tiến
-1.4553719	tốt hai tiến
-1.4234926	giữa hai tiến
-1.4553719	binh hai tiến
-1.4553719	chốt hai tiến
-1.9296248	<s> tịnh tiến
-1.9296248	<s> bộ tiến
-2.3084552	<s> xe tiến
-2.0268981	<s> mã tiến
-2.3084552	<s> pháo tiến
-1.7811658	<s> soái tiến
-1.7832172	<s> tướng tấn
-1.9624329	<s> sĩ tấn
-2.189664	tướng năm tấn
-1.1837778	sĩ năm tấn
-1.0709352	sau năm tấn
-1.0709352	trước năm tấn
-1.1837778	tượng năm tấn
-1.1837778	tịnh năm tấn
-1.1837778	bộ năm tấn
-0.868593	xe năm tấn
-0.9836546	mã năm tấn
-0.868593	pháo năm tấn
-1.4549692	tốt năm tấn
-1.4234577	giữa năm tấn
-1.4549692	binh năm tấn
-1.4549692	chốt năm tấn
-1.1858916	soái năm tấn
-2.186842	tướng sáu tấn
-1.4242623	sĩ sáu tấn
-1.0618802	sau sáu tấn
-1.0618802	trước sáu tấn
-1.1837778	tượng sáu tấn
-1.1837778	tịnh sáu tấn
-1.1837778	bộ sáu tấn
-0.868593	xe sáu tấn
-0.9836546	mã sáu tấn
-0.868593	pháo sáu tấn
-1.4549692	tốt sáu tấn
-1.4234577	giữa sáu tấn
-1.4549692	binh sáu tấn
-1.4549692	chốt sáu tấn
-1.1564865	soái sáu tấn
-1.5656023	sĩ sau tấn
-1.5470078	tượng sau tấn
-1.5470078	tịnh sau tấn
-1.5470078	bộ sau tấn
-1.8693808	xe sau tấn
-1.6268736	mã sau tấn
-1.8693808	pháo sau tấn
-2.186842	tướng bốn tấn
-1.4242623	sĩ bốn tấn
-1.0618802	sau bốn tấn
-1.0618802	trước bốn tấn
-1.1837778	tượng bốn tấn
-1.1837778	tịnh bốn tấn
-1.1837778	bộ bốn tấn
-0.868593	xe bốn tấn
-0.9836546	mã bốn tấn
-0.868593	pháo bốn tấn
-1.4549692	tốt bốn tấn
-1.4234577	giữa bốn tấn
-1.4549692	binh bốn tấn
-1.4549692	chốt bốn tấn
-1.1564865	soái bốn tấn
-1.0611397	sĩ phải tấn
-0.81306064	tượng phải tấn
-0.81306064	tịnh phải tấn
-0.81306064	bộ phải tấn
-0.87511384	xe phải tấn
-0.81306064	mã phải tấn
-0.87511384	pháo phải tấn
-1.5656023	sĩ trước tấn
-1.5470078	tượng trước tấn
-1.5470078	tịnh trước tấn
-1.5470078	bộ trước tấn
-1.8693808	xe trước tấn
-1.6268736	mã trước tấn
-1.8693808	pháo trước tấn
-1.0611397	sĩ trái tấn
-0.81306064	tượng trái tấn
-0.81306064	tịnh trái tấn
-0.81306064	bộ trái tấn
-0.87511384	xe trái tấn
-0.81306064	mã trái tấn
-0.87511384	pháo trái tấn
-1.9296248	<s> tượng tấn
-1.0895178	sau một tấn
-1.0895178	trước một tấn
-1.424621	tượng một tấn
-1.424621	tịnh một tấn
-1.424621	bộ một tấn
-0.8686377	xe một tấn
-1.1839569	mã một tấn
-0.8686377	pháo một tấn
-1.4398596	tốt một tấn
-1.4067868	giữa một tấn
-1.4398596	binh một tấn
-1.4398596	chốt một tấn
-1.0433159	sau bảy tấn
-1.0433159	trước bảy tấn
-1.1839569	tượng bảy tấn
-1.1839569	tịnh bảy tấn
-1.1839569	bộ bảy tấn
-0.8686377	xe bảy tấn
-0.98374414	mã bảy tấn
-0.8686377	pháo bảy tấn
-1.4553719	tốt bảy tấn
-1.4234926	giữa bảy tấn
-1.4553719	binh bảy tấn
-1.4553719	chốt bảy tấn
-1.0433159	sau ba tấn
-1.0433159	trước ba tấn
-1.1839569	tượng ba tấn
-1.1839569	tịnh ba tấn
-1.1839569	bộ ba tấn
-0.8686377	xe ba tấn
-0.98374414	mã ba tấn
-0.8686377	pháo ba tấn
-1.4553719	tốt ba tấn
-1.4234926	giữa ba tấn
-1.4553719	binh ba tấn
-1.4553719	chốt ba tấn
-1.082539	sau tám tấn
-1.082539	trước tám tấn
-1.424621	tượng tám tấn
-1.424621	tịnh tám tấn
-1.424621	bộ tám tấn
-0.8686377	xe tám tấn
-1.0611558	mã tám tấn
-0.8686377	pháo tám tấn
-1.4553719	tốt tám tấn
-1.4234926	giữa tám tấn
-1.4553719	binh tám tấn
-1.4553719	chốt tám tấn
-1.0895178	sau chín tấn
-1.0895178	trước chín tấn
-1.424621	tượng chín tấn
-1.424621	tịnh chín tấn
-1.424621	bộ chín tấn
-0.8686377	xe chín tấn
-1.1839569	mã chín tấn
-0.8686377	pháo chín tấn
-1.4398596	tốt chín tấn
-1.4067868	giữa chín tấn
-1.4398596	binh chín tấn
-1.4398596	chốt chín tấn
-1.082539	sau hai tấn
-1.082539	trước hai tấn
-1.424621	tượng hai tấn
-1.424621	tịnh hai tấn
-1.424621	bộ hai tấn
-0.8686377	xe hai tấn
-1.0611558	mã hai tấn
-0.8686377	pháo hai tấn
-1.4553719	tốt hai tấn
-1.4234926	giữa hai tấn
-1.4553719	binh hai tấn
-1.4553719	chốt hai tấn
-1.9296248	<s> tịnh tấn
-1.9296248	<s> bộ tấn
-2.3084552	<s> xe tấn
-2.0268981	<s> mã tấn
-2.3084552	<s> pháo tấn
-1.7811658	<s> soái tấn
-1.303334	<s> tướng bình
-1.8894234	tướng năm bình
-1.2200083	sau năm bình
-1.2200083	trước năm bình
-0.92011154	xe năm bình
-0.92011154	pháo năm bình
-1.1553363	tốt năm bình
-1.1224477	giữa năm bình
-1.1553363	binh năm bình
-1.1553363	chốt năm bình
-0.8850423	soái năm bình
-2.189445	tướng sáu bình
-1.2247418	sau sáu bình
-1.2247418	trước sáu bình
-0.92011154	xe sáu bình
-0.92011154	pháo sáu bình
-1.1553363	tốt sáu bình
-1.1224477	giữa sáu bình
-1.1553363	binh sáu bình
-1.1553363	chốt sáu bình
-1.1587683	soái sáu bình
-1.8699187	xe sau bình
-1.8699187	pháo sau bình
-2.189445	tướng bốn bình
-1.2247418	sau bốn bình
-1.2247418	trước bốn bình
-0.92011154	xe bốn bình
-0.92011154	pháo bốn bình
-1.1553363	tốt bốn bình
-1.1224477	giữa bốn bình
-1.1553363	binh bốn bình
-1.1553363	chốt bốn bình
-1.1587683	soái bốn bình
-0.87576467	xe phải bình
-0.87576467	pháo phải bình
-1.8699187	xe trước bình
-1.8699187	pháo trước bình
-0.87576467	xe trái bình
-0.87576467	pháo trái bình
-1.2258939	sau một bình
-1.2258939	trước một bình
-0.9201512	xe một bình
-0.9201512	pháo một bình
-1.4427003	tốt một bình
-1.4070314	giữa một bình
-1.4427003	binh một bình
-1.4427003	chốt một bình
-1.1923904	sau bảy bình
-1.1923904	trước bảy bình
-0.9201512	xe bảy bình
-0.9201512	pháo bảy bình
-1.1554954	tốt bảy bình
-1.1224614	giữa bảy bình
-1.1554954	binh bảy bình
-1.1554954	chốt bảy bình
-1.1923904	sau ba bình
-1.1923904	trước ba bình
-0.9201512	xe ba bình
-0.9201512	pháo ba bình
-1.1554954	tốt ba bình
-1.1224614	giữa ba bình
-1.1554954	binh ba bình
-1.1554954	chốt ba bình
-1.171613	sau tám bình
-1.171613	trước tám bình
-0.9201512	xe tám bình
-0.9201512	pháo tám bình
-1.1554954	tốt tám bình
-1.1224614	giữa tám bình
-1.1554954	binh tám bình
-1.1554954	chốt tám bình
-1.2258939	sau chín bình
-1.2258939	trước chín bình
-0.9201512	xe chín bình
-0.9201512	pháo chín bình
-1.4427003	tốt chín bình
-1.4070314	giữa chín bình
-1.4427003	binh chín bình
-1.4427003	chốt chín bình
-1.171613	sau hai bình
-1.171613	trước hai bình
-0.9201512	xe hai bình
-0.9201512	pháo hai bình
-1.1554954	tốt hai bình
-1.1224614	giữa hai bình
-1.1554954	binh hai bình
-1.1554954	chốt hai bình
-2.3085518	<s> xe bình
-2.3085518	<s> pháo bình
-1.3026536	<s> soái bình
-1.7832172	<s> tướng thoái
-1.9624329	<s> sĩ thoái
-2.1916776	tướng năm thoái
-1.1847823	sĩ năm thoái
-1.1152198	sau năm thoái
-1.1152198	trước năm thoái
-1.1847823	tượng năm thoái
-1.1847823	tịnh năm thoái
-1.1847823	bộ năm thoái
-0.86884356	xe năm thoái
-0.9841563	mã năm thoái
-0.86884356	pháo năm thoái
-1.1876569	soái năm thoái
-2.1888556	tướng sáu thoái
-1.4262762	sĩ sáu thoái
-1.1047105	sau sáu thoái
-1.1047105	trước sáu thoái
-1.1847823	tượng sáu thoái
-1.1847823	tịnh sáu thoái
-1.1847823	bộ sáu thoái
-0.86884356	xe sáu thoái
-0.9841563	mã sáu thoái
-0.86884356	pháo sáu thoái
-1.1582518	soái sáu thoái
-1.5656023	sĩ sau thoái
-1.5470078	tượng sau thoái
-1.5470078	tịnh sau thoái
-1.5470078	bộ sau thoái
-1.8693808	xe sau thoái
-1.6268736	mã sau thoái
-1.8693808	pháo sau thoái
-2.1888556	tướng bốn thoái
-1.4262762	sĩ bốn thoái
-1.1047105	sau bốn thoái
-1.1047105	trước bốn thoái
-1.1847823	tượng bốn thoái
-1.1847823	tịnh bốn thoái
-1.1847823	bộ bốn thoái
-0.86884356	xe bốn thoái
-0.9841563	mã bốn thoái
-0.86884356	pháo bốn thoái
-1.1582518	soái bốn thoái
-1.0611397	sĩ phải thoái
-0.81306064	tượng phải thoái
-0.81306064	tịnh phải thoái
-0.81306064	bộ phải thoái
-0.87511384	xe phải thoái
-0.81306064	mã phải thoái
-0.87511384	pháo phải thoái
-1.5656023	sĩ trước thoái
-1.5470078	tượng trước thoái
-1.5470078	tịnh trước thoái
-1.5470078	bộ trước thoái
-1.8693808	xe trước thoái
-1.6268736	mã trước thoái
-1.8693808	pháo trước thoái
-1.0611397	sĩ trái thoái
-0.81306064	tượng trái thoái
-0.81306064	tịnh trái thoái
-0.81306064	bộ trái thoái
-0.87511384	xe trái thoái
-0.81306064	mã trái thoái
-0.87511384	pháo trái thoái
-1.9296248	<s> tượng thoái
-1.142884	sau một thoái
-1.142884	trước một thoái
-1.4270481	tượng một thoái
-1.4270481	tịnh một thoái
-1.4270481	bộ một thoái
-0.8689394	xe một thoái
-1.1851668	mã một thoái
-0.8689394	pháo một thoái
-1.0876184	sau bảy thoái
-1.0876184	trước bảy thoái
-1.1851668	tượng bảy thoái
-1.1851668	tịnh bảy thoái
-1.1851668	bộ bảy thoái
-0.8689394	xe bảy thoái
-0.9843482	mã bảy thoái
-0.8689394	pháo bảy thoái
-1.0876184	sau ba thoái
-1.0876184	trước ba thoái
-1.1851668	tượng ba thoái
-1.1851668	tịnh ba thoái
-1.1851668	bộ ba thoái
-0.8689394	xe ba thoái
-0.9843482	mã ba thoái
-0.8689394	pháo ba thoái
-1.1338071	sau tám thoái
-1.1338071	trước tám thoái
-1.4270481	tượng tám thoái
-1.4270481	tịnh tám thoái
-1.4270481	bộ tám thoái
-0.8689394	xe tám thoái
-1.0619615	mã tám thoái
-0.8689394	pháo tám thoái
-1.142884	sau chín thoái
-1.142884	trước chín thoái
-1.4270481	tượng chín thoái
-1.4270481	tịnh chín thoái
-1.4270481	bộ chín thoái
-0.8689394	xe chín thoái
-1.1851668	mã chín thoái
-0.8689394	pháo chín thoái
-1.1338071	sau hai thoái
-1.1338071	trước hai thoái
-1.4270481	tượng hai thoái
-1.4270481	tịnh hai thoái
-1.4270481	bộ hai thoái
-0.8689394	xe hai thoái
-1.0619615	mã hai thoái
-0.8689394	pháo hai thoái
-1.9296248	<s> tịnh thoái
-1.9296248	<s> bộ thoái
-2.3084552	<s> xe thoái
-2.0268981	<s> mã thoái
-2.3084552	<s> pháo thoái
-1.7811658	<s> soái thoái
-1.7832172	<s> tướng lùi
-1.9624329	<s> sĩ lùi
-2.1916776	tướng năm lùi
-1.1847823	sĩ năm lùi
-1.1152198	sau năm lùi
-1.1152198	trước năm lùi
-1.1847823	tượng năm lùi
-1.1847823	tịnh năm lùi
-1.1847823	bộ năm lùi
-0.86884356	xe năm lùi
-0.9841563	mã năm lùi
-0.86884356	pháo năm lùi
-1.1876569	soái năm lùi
-2.1888556	tướng sáu lùi
-1.4262762	sĩ sáu lùi
-1.1047105	sau sáu lùi
-1.1047105	trước sáu lùi
-1.1847823	tượng sáu lùi
-1.1847823	tịnh sáu lùi
-1.1847823	bộ sáu lùi
-0.86884356	xe sáu lùi
-0.9841563	mã sáu lùi
-0.86884356	pháo sáu lùi
-1.1582518	soái sáu lùi
-1.5656023	sĩ sau lùi
-1.5470078	tượng sau lùi
-1.5470078	tịnh sau lùi
-1.5470078	bộ sau lùi
-1.8693808	xe sau lùi
-1.6268736	mã sau lùi
-1.8693808	pháo sau lùi
-2.1888556	tướng bốn lùi
-1.4262762	sĩ bốn lùi
-1.1047105	sau bốn lùi
-1.1047105	trước bốn lùi
-1.1847823	tượng bốn lùi
-1.1847823	tịnh bốn lùi
-1.1847823	bộ bốn lùi
-0.86884356	xe bốn lùi
-0.9841563	mã bốn lùi
-0.86884356	pháo bốn lùi
-1.1582518	soái bốn lùi
-1.0611397	sĩ phải lùi
-0.81306064	tượng phải lùi
-0.81306064	tịnh phải lùi
-0.81306064	bộ phải lùi
-0.87511384	xe phải lùi
-0.81306064	mã phải lùi
-0.87511384	pháo phải lùi
-1.5656023	sĩ trước lùi
-1.5470078	tượng trước lùi
-1.5470078	tịnh trước lùi
-1.5470078	bộ trước lùi
-1.8693808	xe trước lùi
-1.6268736	mã trước lùi
-1.8693808	pháo trước lùi
-1.0611397	sĩ trái lùi
-0.81306064	tượng trái lùi
-0.81306064	tịnh trái lùi
-0.81306064	bộ trái lùi
-0.87511384	xe trái lùi
-0.81306064	mã trái lùi
-0.87511384	pháo trái lùi
-1.9296248	<s> tượng lùi
-1.142884	sau một lùi
-1.142884	trước một lùi
-1.4270481	tượng một lùi
-1.4270481	tịnh một lùi
-1.4270481	bộ một lùi
-0.8689394	xe một lùi
-1.1851668	mã một lùi
-0.8689394	pháo một lùi
-1.0876184	sau bảy lùi
-1.0876184	trước bảy lùi
-1.1851668	tượng bảy lùi
-1.1851668	tịnh bảy lùi
-1.1851668	bộ bảy lùi
-0.8689394	xe bảy lùi
-0.9843482	mã bảy lùi
-0.8689394	pháo bảy lùi
-1.0876184	sau ba lùi
-1.0876184	trước ba lùi
-1.1851668	tượng ba lùi
-1.1851668	tịnh ba lùi
-1.1851668	bộ ba lùi
-0.8689394	xe ba lùi
-0.9843482	mã ba lùi
-0.8689394	pháo ba lùi
-1.1338071	sau tám lùi
-1.1338071	trước tám lùi
-1.4270481	tượng tám lùi
-1.4270481	tịnh tám lùi
-1.4270481	bộ tám lùi
-0.8689394	xe tám lùi
-1.0619615	mã tám lùi
-0.8689394	pháo tám lùi
-1.142884	sau chín lùi
-1.142884	trước chín lùi
-1.4270481	tượng chín lùi
-1.4270481	tịnh chín lùi
-1.4270481	bộ chín lùi
-0.8689394	xe chín lùi
-1.1851668	mã chín lùi
-0.8689394	pháo chín lùi
-1.1338071	sau hai lùi
-1.1338071	trước hai lùi
-1.4270481	tượng hai lùi
-1.4270481	tịnh hai lùi
-1.4270481	bộ hai lùi
-0.8689394	xe hai lùi
-1.0619615	mã hai lùi
-0.8689394	pháo hai lùi
-1.9296248	<s> tịnh lùi
-1.9296248	<s> bộ lùi
-2.3084552	<s> xe lùi
-2.0268981	<s> mã lùi
-2.3084552	<s> pháo lùi
-1.7811658	<s> soái lùi
-1.4620386	tốt năm qua
-1.4620386	binh năm qua
-1.4620386	chốt năm qua
-1.4620386	tốt sáu qua
-1.4620386	binh sáu qua
-1.4620386	chốt sáu qua
-1.4620386	tốt bốn qua
-1.4620386	binh bốn qua
-1.4620386	chốt bốn qua
-1.4463177	tốt một qua
-1.4463177	binh một qua
-1.4463177	chốt một qua
-1.4618299	tốt bảy qua
-1.4618299	binh bảy qua
-1.4618299	chốt bảy qua
-1.4618299	tốt ba qua
-1.4618299	binh ba qua
-1.4618299	chốt ba qua
-1.4618299	tốt tám qua
-1.4618299	binh tám qua
-1.4618299	chốt tám qua
-1.4463177	tốt chín qua
-1.4463177	binh chín qua
-1.4463177	chốt chín qua
-1.4618299	tốt hai qua
-1.4618299	binh hai qua
-1.4618299	chốt hai qua
-0.00045067546	năm qua sông
-0.00045067546	sáu qua sông
-0.00045067546	bốn qua sông
-0.00045067546	một qua sông
-0.00045067546	bảy qua sông
-0.00045067546	ba qua sông
-0.00045067546	tám qua sông
-0.00045067546	chín qua sông
-0.00045067546	hai qua sông
-0.00045067546	năm sang sông
-0.00045067546	sáu sang sông
-0.00045067546	bốn sang sông
-0.00045067546	một sang sông
-0.00045067546	bảy sang sông
-0.00045067546	ba sang sông
-0.00045067546	tám sang sông
-0.00045067546	chín sang sông
-0.00045067546	hai sang sông
-1.4620386	tốt năm sang
-1.4620386	binh năm sang
-1.4620386	chốt năm sang
-1.4620386	tốt sáu sang
-1.4620386	binh sáu sang
-1.4620386	chốt sáu sang
-1.4620386	tốt bốn sang
-1.4620386	binh bốn sang
-1.4620386	chốt bốn sang
-1.4463177	tốt một sang
-1.4463177	binh một sang
-1.4463177	chốt một sang
-1.4618299	tốt bảy sang
-1.4618299	binh bảy sang
-1.4618299	chốt bảy sang
-1.4618299	tốt ba sang
-1.4618299	binh ba sang
-1.4618299	chốt ba sang
-1.4618299	tốt tám sang
-1.4618299	binh tám sang
-1.4618299	chốt tám sang
-1.4463177	tốt chín sang
-1.4463177	binh chín sang
-1.4463177	chốt chín sang
-1.4618299	tốt hai sang
-1.4618299	binh hai sang
-1.4618299	chốt hai sang
-0.00006487509	<s> chấp nhận
-0.00006487509	<s> xác nhận
-0.00006492686	<s> đồng ý
-0.00006492686	<s> hủy bỏ
-0.00006492686	<s> từ chối
-0.00006492686	<s> đầu hàng
-0.3010947	<s> xin hòa
-0.00006492686	<s> đổi phe
-0.3010947	<s> xin chơi
-0.00006487509	xin chơi lại
-0.00006487509	<s> đi lại
-1.8652419	<s> sĩ chiếu
-0.9108024	sĩ năm chiếu
-0.9882945	sau năm chiếu
-0.9882945	trước năm chiếu
-0.9108024	tượng năm chiếu
-0.9108024	tịnh năm chiếu
-0.9108024	bộ năm chiếu
-1.2491193	xe năm chiếu
-1.0119634	mã năm chiếu
-1.2491193	pháo năm chiếu
-0.8811425	tốt năm chiếu
-0.8492966	giữa năm chiếu
-0.8811425	binh năm chiếu
-0.8811425	chốt năm chiếu
-0.8497485	sĩ sáu chiếu
-0.993028	sau sáu chiếu
-0.993028	trước sáu chiếu
-0.9108024	tượng sáu chiếu
-0.9108024	tịnh sáu chiếu
-0.9108024	bộ sáu chiếu
-1.2491193	xe sáu chiếu
-1.0119634	mã sáu chiếu
-1.2491193	pháo sáu chiếu
-0.8811425	tốt sáu chiếu
-0.8492966	giữa sáu chiếu
-0.8811425	binh sáu chiếu
-0.8811425	chốt sáu chiếu
-1.4684165	sĩ sau chiếu
-1.9274722	tượng sau chiếu
-1.9274722	tịnh sau chiếu
-1.9274722	bộ sau chiếu
-2.2497854	xe sau chiếu
-2.007338	mã sau chiếu
-2.2497854	pháo sau chiếu
-0.8497485	sĩ bốn chiếu
-0.993028	sau bốn chiếu
-0.993028	trước bốn chiếu
-0.9108024	tượng bốn chiếu
-0.9108024	tịnh bốn chiếu
-0.9108024	bộ bốn chiếu
-1.2491193	xe bốn chiếu
-1.0119634	mã bốn chiếu
-1.2491193	pháo bốn chiếu
-0.8811425	tốt bốn chiếu
-0.8492966	giữa bốn chiếu
-0.8811425	binh bốn chiếu
-0.8811425	chốt bốn chiếu
-0.9641334	sĩ phải chiếu
-1.1934702	tượng phải chiếu
-1.1934702	tịnh phải chiếu
-1.1934702	bộ phải chiếu
-1.2553897	xe phải chiếu
-1.1934702	mã phải chiếu
-1.2553897	pháo phải chiếu
-1.4684165	sĩ trước chiếu
-1.9274722	tượng trước chiếu
-1.9274722	tịnh trước chiếu
-1.9274722	bộ trước chiếu
-2.2497854	xe trước chiếu
-2.007338	mã trước chiếu
-2.2497854	pháo trước chiếu
-0.9641334	sĩ trái chiếu
-1.1934702	tượng trái chiếu
-1.1934702	tịnh trái chiếu
-1.1934702	bộ trái chiếu
-1.2553897	xe trái chiếu
-1.1934702	mã trái chiếu
-1.2553897	pháo trái chiếu
-2.3102396	<s> tượng chiếu
-0.976212	sau một chiếu
-0.976212	trước một chiếu
-0.84957546	tượng một chiếu
-0.84957546	tịnh một chiếu
-0.84957546	bộ một chiếu
-1.2489247	xe một chiếu
-0.91062945	mã một chiếu
-1.2489247	pháo một chiếu
-0.86543584	tốt một chiếu
-0.8325741	giữa một chiếu
-0.86543584	binh một chiếu
-0.86543584	chốt một chiếu
-1.0064018	sau bảy chiếu
-1.0064018	trước bảy chiếu
-0.91062945	tượng bảy chiếu
-0.91062945	tịnh bảy chiếu
-0.91062945	bộ bảy chiếu
-1.2489247	xe bảy chiếu
-1.0117903	mã bảy chiếu
-1.2489247	pháo bảy chiếu
-0.880948	tốt bảy chiếu
-0.8492799	giữa bảy chiếu
-0.880948	binh bảy chiếu
-0.880948	chốt bảy chiếu
-1.0064018	sau ba chiếu
-1.0064018	trước ba chiếu
-0.91062945	tượng ba chiếu
-0.91062945	tịnh ba chiếu
-0.91062945	bộ ba chiếu
-1.2489247	xe ba chiếu
-1.0117903	mã ba chiếu
-1.2489247	pháo ba chiếu
-0.880948	tốt ba chiếu
-0.8492799	giữa ba chiếu
-0.880948	binh ba chiếu
-0.880948	chốt ba chiếu
-0.9856243	sau tám chiếu
-0.9856243	trước tám chiếu
-0.84957546	tượng tám chiếu
-0.84957546	tịnh tám chiếu
-0.84957546	bộ tám chiếu
-1.2489247	xe tám chiếu
-0.9641487	mã tám chiếu
-1.2489247	pháo tám chiếu
-0.880948	tốt tám chiếu
-0.8492799	giữa tám chiếu
-0.880948	binh tám chiếu
-0.880948	chốt tám chiếu
-0.976212	sau chín chiếu
-0.976212	trước chín chiếu
-0.84957546	tượng chín chiếu
-0.84957546	tịnh chín chiếu
-0.84957546	bộ chín chiếu
-1.2489247	xe chín chiếu
-0.91062945	mã chín chiếu
-1.2489247	pháo chín chiếu
-0.86543584	tốt chín chiếu
-0.8325741	giữa chín chiếu
-0.86543584	binh chín chiếu
-0.86543584	chốt chín chiếu
-0.9856243	sau hai chiếu
-0.9856243	trước hai chiếu
-0.84957546	tượng hai chiếu
-0.84957546	tịnh hai chiếu
-0.84957546	bộ hai chiếu
-1.2489247	xe hai chiếu
-0.9641487	mã hai chiếu
-1.2489247	pháo hai chiếu
-0.880948	tốt hai chiếu
-0.8492799	giữa hai chiếu
-0.880948	binh hai chiếu
-0.880948	chốt hai chiếu
-2.3102396	<s> tịnh chiếu
-2.3102396	<s> bộ chiếu
-2.6890326	<s> xe chiếu
-2.407513	<s> mã chiếu
-2.6890326	<s> pháo chiếu
-2.399373	<s> tốt chiếu
-2.399373	<s> binh chiếu
-2.399373	<s> chốt chiếu

\end\
