\data\
ngram 1=62
ngram 2=590
ngram 3=4634

\1-grams:
-2.7173328	<unk>	0
0	<s>	-4.989904
-1.1514336	</s>	0
-2.4422386	tướng	-0.30103
-1.3294531	ăn	-1.2710668
-2.3507068	sĩ	-0.30103
-1.3294531	bắt	-1.2710668
-1.787174	dưới	-0.7652632
-1.787174	sau	-0.7652632
-1.4161454	năm	-0.9557023
-1.787174	trên	-0.7652632
-1.787174	trước	-0.7652632
-1.4161454	sáu	-0.9557023
-1.4161454	bốn	-0.9557023
-1.787174	trái	-0.7377226
-1.787174	phải	-0.7377226
-2.3507068	tượng	-0.30103
-1.4563286	hai	-0.88631976
-1.4563286	ba	-0.88631976
-1.4563286	chín	-0.88631976
-1.4563286	tám	-0.88631976
-1.4563286	một	-0.88631976
-1.4563286	bảy	-0.88631976
-2.3507068	tịnh	-0.30103
-2.3507068	bộ	-0.30103
-2.3507068	xe	-0.30103
-2.3507068	mã	-0.30103
-2.3507068	pháo	-0.30103
-2.3507068	tốt	-0.30103
-1.8347834	giữa	-0.7201593
-2.3507068	binh	-0.30103
-2.3507068	chốt	-0.30103
-2.5583587	soái	-0.30103
-1.3294531	tiến	-1.1643529
-1.3294531	tấn	-1.1643529
-1.4161454	bình	-1.1391792
-1.3973672	thoái	-1.1227618
-1.3973672	lùi	-1.1227618
-1.8347834	qua	-0.7781512
-2.4422386	sông	-0.30103
-1.8347834	sang	-0.7781512
-2.5583587	chấp	-0.30103
-2.4422386	nhận	-0.30103
-2.5583587	xác	-0.30103
-2.5583587	đồng	-0.30103
-2.5583587	ý	-0.30103
-2.5583587	ô	-0.30103
-2.5583587	kê	-0.30103
-2.5583587	hủy	-0.30103
-2.5583587	bỏ	-0.30103
-2.5583587	từ	-0.30103
-2.5583587	chối	-0.30103
-2.5583587	đầu	-0.30103
-2.5583587	hàng	-0.30103
-2.5583587	xin	-0.30103
-2.5583587	hòa	-0.30103
-2.5583587	đổi	-0.30103
-2.5583587	phe	-0.30103
-2.5583587	chơi	-0.30103
-2.4422386	lại	-0.30103
-2.5583587	đi	-0.30103
-1.3620839	chiếu	-1.2388821

\2-grams:
-1.2198222	tướng </s>	0
-1.2002571	sĩ </s>	0
-1.1984643	dưới </s>	0
-1.1984643	sau </s>	0
-0.8374424	năm </s>	0
-1.1984643	trên </s>	0
-1.1984643	trước </s>	0
-0.8374424	sáu </s>	0
-0.8374424	bốn </s>	0
-0.9334278	trái </s>	0
-0.9334278	phải </s>	0
-1.2692245	tượng </s>	0
-0.7885839	hai </s>	0
-0.7885839	ba </s>	0
-0.7885839	chín </s>	0
-0.7885839	tám </s>	0
-0.7885839	một </s>	0
-0.7885839	bảy </s>	0
-1.2692245	tịnh </s>	0
-1.2692245	bộ </s>	0
-1.2719511	xe </s>	0
-1.2692245	mã </s>	0
-1.2719511	pháo </s>	0
-1.2745966	tốt </s>	0
-1.1368911	giữa </s>	0
-1.2745966	binh </s>	0
-1.2745966	chốt </s>	0
-1.0274544	tiến </s>	0
-1.0274544	tấn </s>	0
-1.6400388	thoái </s>	0
-1.6400388	lùi </s>	0
-0.27141848	sông </s>	0
-0.27141848	nhận </s>	0
-0.27141848	ý </s>	0
-0.27141848	kê </s>	0
-0.27141848	bỏ </s>	0
-0.27141848	chối </s>	0
-0.27141848	hàng </s>	0
-0.27141848	hòa </s>	0
-0.27141848	phe </s>	0
-0.27141848	lại </s>	0
-1.0470372	chiếu </s>	0
-2.395591	<s> tướng	-2.9367816
-1.0661447	chiếu tướng	-4.1112623
-1.315009	tướng ăn	-1.6341412
-1.4282316	sĩ ăn	-1.6341412
-1.2273458	dưới ăn	-2.6341412
-1.2273458	sau ăn	-2.6341412
-0.9617257	năm ăn	-3.460216
-1.2273458	trên ăn	-2.6341412
-1.2273458	trước ăn	-2.6341412
-0.9617257	sáu ăn	-3.460216
-0.9617257	bốn ăn	-3.460216
-0.9499087	trái ăn	-2.6341412
-0.9499087	phải ăn	-2.6341412
-1.485778	tượng ăn	-1.6341412
-0.9808433	hai ăn	-3.4122925
-0.9808433	ba ăn	-3.4122925
-0.9808433	chín ăn	-3.4122925
-0.9808433	tám ăn	-3.4122925
-0.9808433	một ăn	-3.4122925
-0.9808433	bảy ăn	-3.4122925
-1.485778	tịnh ăn	-1.6341412
-1.485778	bộ ăn	-1.6341412
-1.4880213	xe ăn	-1.6341412
-1.485778	mã ăn	-1.6341412
-1.4880213	pháo ăn	-1.6341412
-1.4901955	tốt ăn	-1.6341412
-1.1646628	giữa ăn	-2.9563606
-1.4901955	binh ăn	-1.6341412
-1.4901955	chốt ăn	-1.6341412
-1.134208	soái ăn	-1.6341412
-1.6757641	<s> sĩ	-3.452451
-1.0228173	ăn sĩ	-2.9819093
-1.0228173	bắt sĩ	-2.9819093
-1.315009	tướng bắt	-1.6341412
-1.4282316	sĩ bắt	-1.6341412
-1.2273458	dưới bắt	-2.6341412
-1.2273458	sau bắt	-2.6341412
-0.9617257	năm bắt	-3.460216
-1.2273458	trên bắt	-2.6341412
-1.2273458	trước bắt	-2.6341412
-0.9617257	sáu bắt	-3.460216
-0.9617257	bốn bắt	-3.460216
-0.9499087	trái bắt	-2.6341412
-0.9499087	phải bắt	-2.6341412
-1.485778	tượng bắt	-1.6341412
-0.9808433	hai bắt	-3.4122925
-0.9808433	ba bắt	-3.4122925
-0.9808433	chín bắt	-3.4122925
-0.9808433	tám bắt	-3.4122925
-0.9808433	một bắt	-3.4122925
-0.9808433	bảy bắt	-3.4122925
-1.485778	tịnh bắt	-1.6341412
-1.485778	bộ bắt	-1.6341412
-1.4880213	xe bắt	-1.6341412
-1.485778	mã bắt	-1.6341412
-1.4880213	pháo bắt	-1.6341412
-1.4901955	tốt bắt	-1.6341412
-1.1646628	giữa bắt	-2.9563606
-1.4901955	binh bắt	-1.6341412
-1.4901955	chốt bắt	-1.6341412
-1.134208	soái bắt	-1.6341412
-1.3025209	sĩ dưới	-3.0078254
-1.4444247	tượng dưới	-3.2958903
-1.4444247	tịnh dưới	-3.2958903
-1.4444247	bộ dưới	-3.2958903
-1.4505711	xe dưới	-3.6485407
-1.4444247	mã dưới	-3.394177
-1.4505711	pháo dưới	-3.6485407
-1.4565814	tốt dưới	-3.5477023
-1.4565814	binh dưới	-3.5477023
-1.4565814	chốt dưới	-3.5477023
-1.3025209	sĩ sau	-3.0078254
-1.4444247	tượng sau	-3.2958903
-1.4444247	tịnh sau	-3.2958903
-1.4444247	bộ sau	-3.2958903
-1.4505711	xe sau	-3.6485407
-1.4444247	mã sau	-3.394177
-1.4505711	pháo sau	-3.6485407
-1.4565814	tốt sau	-3.5477023
-1.4565814	binh sau	-3.5477023
-1.4565814	chốt sau	-3.5477023
-1.1600261	tướng năm	-3.2763085
-1.2157707	sĩ năm	-2.60206
-1.2381446	dưới năm	-3.6564176
-1.2381446	sau năm	-3.6564176
-1.2381446	trên năm	-3.6564176
-1.2381446	trước năm	-3.6564176
-1.3283023	tượng năm	-2.60206
-1.3283023	tịnh năm	-2.60206
-1.3283023	bộ năm	-2.60206
-1.3329988	xe năm	-2.9488475
-1.3283023	mã năm	-2.7269988
-1.3329988	pháo năm	-2.9488475
-1.337576	tốt năm	-2.5509074
-1.2927957	giữa năm	-3.7983546
-1.337576	binh năm	-2.5509074
-1.337576	chốt năm	-2.5509074
-1.1600261	soái năm	-2.4962704
-1.0166689	tiến năm	-4.423792
-1.0166689	tấn năm	-4.423792
-0.94692504	bình năm	-4.43029
-0.9750779	thoái năm	-4.423792
-0.9750779	lùi năm	-4.423792
-1.0561233	chiếu năm	-4.1112623
-1.3025209	sĩ trên	-3.0078254
-1.4444247	tượng trên	-3.2958903
-1.4444247	tịnh trên	-3.2958903
-1.4444247	bộ trên	-3.2958903
-1.4505711	xe trên	-3.6485407
-1.4444247	mã trên	-3.394177
-1.4505711	pháo trên	-3.6485407
-1.4565814	tốt trên	-3.5477023
-1.4565814	binh trên	-3.5477023
-1.4565814	chốt trên	-3.5477023
-1.3025209	sĩ trước	-3.0078254
-1.4444247	tượng trước	-3.2958903
-1.4444247	tịnh trước	-3.2958903
-1.4444247	bộ trước	-3.2958903
-1.4505711	xe trước	-3.6485407
-1.4444247	mã trước	-3.394177
-1.4505711	pháo trước	-3.6485407
-1.4565814	tốt trước	-3.5477023
-1.4565814	binh trước	-3.5477023
-1.4565814	chốt trước	-3.5477023
-1.1600261	tướng sáu	-3.2724605
-1.2157707	sĩ sáu	-2.5228786
-1.2381446	dưới sáu	-3.6620579
-1.2381446	sau sáu	-3.6620579
-1.2381446	trên sáu	-3.6620579
-1.2381446	trước sáu	-3.6620579
-1.3283023	tượng sáu	-2.60206
-1.3283023	tịnh sáu	-2.60206
-1.3283023	bộ sáu	-2.60206
-1.3329988	xe sáu	-2.9488475
-1.3283023	mã sáu	-2.7269988
-1.3329988	pháo sáu	-2.9488475
-1.337576	tốt sáu	-2.5509074
-1.2927957	giữa sáu	-3.7983546
-1.337576	binh sáu	-2.5509074
-1.337576	chốt sáu	-2.5509074
-1.1600261	soái sáu	-2.4690502
-1.0166689	tiến sáu	-4.4036922
-1.0166689	tấn sáu	-4.4036922
-0.94692504	bình sáu	-4.4259686
-0.9750779	thoái sáu	-4.4036922
-0.9750779	lùi sáu	-4.4036922
-1.0561233	chiếu sáu	-4.1112623
-1.1600261	tướng bốn	-3.2724605
-1.2157707	sĩ bốn	-2.5228786
-1.2381446	dưới bốn	-3.6620579
-1.2381446	sau bốn	-3.6620579
-1.2381446	trên bốn	-3.6620579
-1.2381446	trước bốn	-3.6620579
-1.3283023	tượng bốn	-2.60206
-1.3283023	tịnh bốn	-2.60206
-1.3283023	bộ bốn	-2.60206
-1.3329988	xe bốn	-2.9488475
-1.3283023	mã bốn	-2.7269988
-1.3329988	pháo bốn	-2.9488475
-1.337576	tốt bốn	-2.5509074
-1.2927957	giữa bốn	-3.7983546
-1.337576	binh bốn	-2.5509074
-1.337576	chốt bốn	-2.5509074
-1.1600261	soái bốn	-2.4690502
-1.0166689	tiến bốn	-4.4036922
-1.0166689	tấn bốn	-4.4036922
-0.94692504	bình bốn	-4.4259686
-0.9750779	thoái bốn	-4.4036922
-0.9750779	lùi bốn	-4.4036922
-1.0561233	chiếu bốn	-4.1112623
-1.3025209	sĩ trái	-2.6690068
-1.4444247	tượng trái	-2.9378521
-1.4444247	tịnh trái	-2.9378521
-1.4444247	bộ trái	-2.9378521
-1.4505711	xe trái	-2.956026
-1.4444247	mã trái	-2.9378521
-1.4505711	pháo trái	-2.956026
-1.4565814	tốt trái	-2.9852767
-1.4565814	binh trái	-2.9852767
-1.4565814	chốt trái	-2.9852767
-1.3025209	sĩ phải	-2.6690068
-1.4444247	tượng phải	-2.9378521
-1.4444247	tịnh phải	-2.9378521
-1.4444247	bộ phải	-2.9378521
-1.4505711	xe phải	-2.956026
-1.4444247	mã phải	-2.9378521
-1.4505711	pháo phải	-2.956026
-1.4565814	tốt phải	-2.9852767
-1.4565814	binh phải	-2.9852767
-1.4565814	chốt phải	-2.9852767
-1.1971245	<s> tượng	-3.792782
-1.0228173	ăn tượng	-3.1513698
-1.0228173	bắt tượng	-3.1513698
-1.3717743	tướng hai	-4.1112623
-1.2908634	dưới hai	-3.6084468
-1.2908634	sau hai	-3.6084468
-1.2908634	trên hai	-3.6084468
-1.2908634	trước hai	-3.6084468
-1.3442682	tượng hai	-2.5228786
-1.3442682	tịnh hai	-2.5228786
-1.3442682	bộ hai	-2.5228786
-1.3491415	xe hai	-2.9488475
-1.3442682	mã hai	-2.6690068
-1.3491415	pháo hai	-2.9488475
-1.353893	tốt hai	-2.5509074
-1.2983338	giữa hai	-3.7983546
-1.353893	binh hai	-2.5509074
-1.353893	chốt hai	-2.5509074
-1.038882	tiến hai	-4.3344536
-1.038882	tấn hai	-4.3344536
-0.9913983	bình hai	-4.417195
-0.99729097	thoái hai	-4.3344536
-0.99729097	lùi hai	-4.3344536
-1.0570909	chiếu hai	-4.1112623
-1.3717743	tướng ba	-4.1112623
-1.2908634	dưới ba	-3.6330943
-1.2908634	sau ba	-3.6330943
-1.2908634	trên ba	-3.6330943
-1.2908634	trước ba	-3.6330943
-1.3442682	tượng ba	-2.60206
-1.3442682	tịnh ba	-2.60206
-1.3442682	bộ ba	-2.60206
-1.3491415	xe ba	-2.9488475
-1.3442682	mã ba	-2.7269988
-1.3491415	pháo ba	-2.9488475
-1.353893	tốt ba	-2.5509074
-1.2983338	giữa ba	-3.7983546
-1.353893	binh ba	-2.5509074
-1.353893	chốt ba	-2.5509074
-1.038882	tiến ba	-4.3850102
-1.038882	tấn ba	-4.3850102
-0.9913983	bình ba	-4.417195
-0.99729097	thoái ba	-4.3850102
-0.99729097	lùi ba	-4.3850102
-1.0570909	chiếu ba	-4.1112623
-1.3717743	tướng chín	-4.1112623
-1.2908634	dưới chín	-3.5972075
-1.2908634	sau chín	-3.5972075
-1.2908634	trên chín	-3.5972075
-1.2908634	trước chín	-3.5972075
-1.3442682	tượng chín	-2.5228786
-1.3442682	tịnh chín	-2.5228786
-1.3442682	bộ chín	-2.5228786
-1.3491415	xe chín	-2.9488475
-1.3442682	mã chín	-2.60206
-1.3491415	pháo chín	-2.9488475
-1.353893	tốt chín	-2.532424
-1.2983338	giữa chín	-3.7781513
-1.353893	binh chín	-2.532424
-1.353893	chốt chín	-2.532424
-1.038882	tiến chín	-4.3208385
-1.038882	tấn chín	-4.3208385
-0.9913983	bình chín	-4.345047
-0.99729097	thoái chín	-4.3208385
-0.99729097	lùi chín	-4.3208385
-1.0570909	chiếu chín	-4.1112623
-1.3717743	tướng tám	-4.1112623
-1.2908634	dưới tám	-3.6084468
-1.2908634	sau tám	-3.6084468
-1.2908634	trên tám	-3.6084468
-1.2908634	trước tám	-3.6084468
-1.3442682	tượng tám	-2.5228786
-1.3442682	tịnh tám	-2.5228786
-1.3442682	bộ tám	-2.5228786
-1.3491415	xe tám	-2.9488475
-1.3442682	mã tám	-2.6690068
-1.3491415	pháo tám	-2.9488475
-1.353893	tốt tám	-2.5509074
-1.2983338	giữa tám	-3.7983546
-1.353893	binh tám	-2.5509074
-1.353893	chốt tám	-2.5509074
-1.038882	tiến tám	-4.3344536
-1.038882	tấn tám	-4.3344536
-0.9913983	bình tám	-4.417195
-0.99729097	thoái tám	-4.3344536
-0.99729097	lùi tám	-4.3344536
-1.0570909	chiếu tám	-4.1112623
-1.3717743	tướng một	-4.1112623
-1.2908634	dưới một	-3.5972075
-1.2908634	sau một	-3.5972075
-1.2908634	trên một	-3.5972075
-1.2908634	trước một	-3.5972075
-1.3442682	tượng một	-2.5228786
-1.3442682	tịnh một	-2.5228786
-1.3442682	bộ một	-2.5228786
-1.3491415	xe một	-2.9488475
-1.3442682	mã một	-2.60206
-1.3491415	pháo một	-2.9488475
-1.353893	tốt một	-2.532424
-1.2983338	giữa một	-3.7781513
-1.353893	binh một	-2.532424
-1.353893	chốt một	-2.532424
-0.92506135	tiến một	-4.8034573
-0.92506135	tấn một	-4.8034573
-0.9913983	bình một	-4.345047
-0.9559466	thoái một	-4.3424225
-0.9559466	lùi một	-4.3424225
-1.0570909	chiếu một	-4.1112623
-1.3717743	tướng bảy	-4.1112623
-1.2908634	dưới bảy	-3.6330943
-1.2908634	sau bảy	-3.6330943
-1.2908634	trên bảy	-3.6330943
-1.2908634	trước bảy	-3.6330943
-1.3442682	tượng bảy	-2.60206
-1.3442682	tịnh bảy	-2.60206
-1.3442682	bộ bảy	-2.60206
-1.3491415	xe bảy	-2.9488475
-1.3442682	mã bảy	-2.7269988
-1.3491415	pháo bảy	-2.9488475
-1.353893	tốt bảy	-2.5509074
-1.2983338	giữa bảy	-3.7983546
-1.353893	binh bảy	-2.5509074
-1.353893	chốt bảy	-2.5509074
-1.038882	tiến bảy	-4.3850102
-1.038882	tấn bảy	-4.3850102
-0.9913983	bình bảy	-4.417195
-0.99729097	thoái bảy	-4.3850102
-0.99729097	lùi bảy	-4.3850102
-1.0570909	chiếu bảy	-4.1112623
-1.1971245	<s> tịnh	-3.792782
-1.0228173	ăn tịnh	-3.1513698
-1.0228173	bắt tịnh	-3.1513698
-1.1971245	<s> bộ	-3.792782
-1.0228173	ăn bộ	-3.1513698
-1.0228173	bắt bộ	-3.1513698
-0.7622642	<s> xe	-4.2083354
-1.0228173	ăn xe	-3.1513698
-1.0228173	bắt xe	-3.1513698
-1.0790164	<s> mã	-3.9108894
-1.0228173	ăn mã	-3.1513698
-1.0228173	bắt mã	-3.1513698
-0.7622642	<s> pháo	-4.2083354
-1.0228173	ăn pháo	-3.1513698
-1.0228173	bắt pháo	-3.1513698
-0.9759606	<s> tốt	-4.013945
-1.0228173	ăn tốt	-3.426071
-1.0228173	bắt tốt	-3.426071
-1.9375021	dưới giữa	-3.7501225
-1.9375021	sau giữa	-3.7501225
-1.9375021	trên giữa	-3.7501225
-1.9375021	trước giữa	-3.7501225
-1.6784278	trái giữa	-3.2193599
-1.6784278	phải giữa	-3.2193599
-1.4672425	tốt giữa	-3.2730012
-1.4672425	binh giữa	-3.2730012
-1.4672425	chốt giữa	-3.2730012
-0.9759606	<s> binh	-4.013945
-1.0228173	ăn binh	-3.426071
-1.0228173	bắt binh	-3.426071
-0.9759606	<s> chốt	-4.013945
-1.0228173	ăn chốt	-3.426071
-1.0228173	bắt chốt	-3.426071
-2.3955917	<s> soái	-2.9367816
-1.315009	tướng tiến	-2.1249387
-1.4282316	sĩ tiến	-2.1249387
-1.2273458	dưới tiến	-2.9242792
-1.2273458	sau tiến	-2.9242792
-0.9617257	năm tiến	-3.438806
-1.2273458	trên tiến	-2.9242792
-1.2273458	trước tiến	-2.9242792
-0.9617257	sáu tiến	-3.445085
-0.9617257	bốn tiến	-3.445085
-0.9499087	trái tiến	-2.9242792
-0.9499087	phải tiến	-2.9242792
-1.485778	tượng tiến	-2.1249387
-0.9808433	hai tiến	-3.3802114
-0.9808433	ba tiến	-3.4259686
-0.9808433	chín tiến	-3.367977
-0.9808433	tám tiến	-3.3802114
-0.9808433	một tiến	-3.367977
-0.9808433	bảy tiến	-3.4259686
-1.485778	tịnh tiến	-2.1249387
-1.485778	bộ tiến	-2.1249387
-1.4880213	xe tiến	-2.1249387
-1.485778	mã tiến	-2.1249387
-1.4880213	pháo tiến	-2.1249387
-1.4901955	tốt tiến	-2.1249387
-1.1646628	giữa tiến	-3.447158
-1.4901955	binh tiến	-2.1249387
-1.4901955	chốt tiến	-2.1249387
-1.134208	soái tiến	-2.1249387
-1.315009	tướng tấn	-2.1249387
-1.4282316	sĩ tấn	-2.1249387
-1.2273458	dưới tấn	-2.9242792
-1.2273458	sau tấn	-2.9242792
-0.9617257	năm tấn	-3.438806
-1.2273458	trên tấn	-2.9242792
-1.2273458	trước tấn	-2.9242792
-0.9617257	sáu tấn	-3.445085
-0.9617257	bốn tấn	-3.445085
-0.9499087	trái tấn	-2.9242792
-0.9499087	phải tấn	-2.9242792
-1.485778	tượng tấn	-2.1249387
-0.9808433	hai tấn	-3.3802114
-0.9808433	ba tấn	-3.4259686
-0.9808433	chín tấn	-3.367977
-0.9808433	tám tấn	-3.3802114
-0.9808433	một tấn	-3.367977
-0.9808433	bảy tấn	-3.4259686
-1.485778	tịnh tấn	-2.1249387
-1.485778	bộ tấn	-2.1249387
-1.4880213	xe tấn	-2.1249387
-1.485778	mã tấn	-2.1249387
-1.4880213	pháo tấn	-2.1249387
-1.4901955	tốt tấn	-2.1249387
-1.1646628	giữa tấn	-3.447158
-1.4901955	binh tấn	-2.1249387
-1.4901955	chốt tấn	-2.1249387
-1.134208	soái tấn	-2.1249387
-1.3547847	tướng bình	-2.1249387
-1.5579928	dưới bình	-2.8239088
-1.5579928	sau bình	-2.8239088
-1.1265777	năm bình	-3.3802114
-1.5579928	trên bình	-2.8239088
-1.5579928	trước bình	-2.8239088
-1.1265777	sáu bình	-3.3741372
-1.1265777	bốn bình	-3.3741372
-1.303647	trái bình	-2.8239088
-1.303647	phải bình	-2.8239088
-1.1431948	hai bình	-3.367977
-1.1431948	ba bình	-3.367977
-1.1431948	chín bình	-3.2632415
-1.1431948	tám bình	-3.367977
-1.1431948	một bình	-3.2632415
-1.1431948	bảy bình	-3.367977
-1.5486766	xe bình	-2.1249387
-1.5486766	pháo bình	-2.1249387
-1.5511776	tốt bình	-2.1249387
-1.1750281	giữa bình	-3.447158
-1.5511776	binh bình	-2.1249387
-1.5511776	chốt bình	-2.1249387
-1.1600261	soái bình	-2.1249387
-1.3465328	tướng thoái	-2.1249387
-1.4696045	sĩ thoái	-2.1249387
-1.3978417	dưới thoái	-2.9265711
-1.3978417	sau thoái	-2.9265711
-1.0882215	năm thoái	-3.2892916
-1.3978417	trên thoái	-2.9265711
-1.3978417	trước thoái	-2.9265711
-1.0882215	sáu thoái	-3.298125
-1.0882215	bốn thoái	-3.298125
-1.1284276	trái thoái	-2.9265711
-1.1284276	phải thoái	-2.9265711
-1.5333451	tượng thoái	-2.1249387
-1.1418669	hai thoái	-3.2498775
-1.1418669	ba thoái	-3.3168242
-1.1418669	chín thoái	-3.231394
-1.1418669	tám thoái	-3.2498775
-1.1418669	một thoái	-3.231394
-1.1418669	bảy thoái	-3.3168242
-1.5333451	tịnh thoái	-2.1249387
-1.5333451	bộ thoái	-2.1249387
-1.5358489	xe thoái	-2.1249387
-1.5333451	mã thoái	-2.1249387
-1.5358489	pháo thoái	-2.1249387
-1.1547382	soái thoái	-2.1249387
-1.3465328	tướng lùi	-2.1249387
-1.4696045	sĩ lùi	-2.1249387
-1.3978417	dưới lùi	-2.9265711
-1.3978417	sau lùi	-2.9265711
-1.0882215	năm lùi	-3.2892916
-1.3978417	trên lùi	-2.9265711
-1.3978417	trước lùi	-2.9265711
-1.0882215	sáu lùi	-3.298125
-1.0882215	bốn lùi	-3.298125
-1.1284276	trái lùi	-2.9265711
-1.1284276	phải lùi	-2.9265711
-1.5333451	tượng lùi	-2.1249387
-1.1418669	hai lùi	-3.2498775
-1.1418669	ba lùi	-3.3168242
-1.1418669	chín lùi	-3.231394
-1.1418669	tám lùi	-3.2498775
-1.1418669	một lùi	-3.231394
-1.1418669	bảy lùi	-3.3168242
-1.5333451	tịnh lùi	-2.1249387
-1.5333451	bộ lùi	-2.1249387
-1.5358489	xe lùi	-2.1249387
-1.5333451	mã lùi	-2.1249387
-1.5358489	pháo lùi	-2.1249387
-1.1547382	soái lùi	-2.1249387
-1.9322928	năm qua	-2.60206
-1.9322928	sáu qua	-2.60206
-1.9322928	bốn qua	-2.60206
-1.8629103	hai qua	-2.60206
-1.8629103	ba qua	-2.60206
-1.8629103	chín qua	-2.60206
-1.8629103	tám qua	-2.60206
-1.8629103	một qua	-2.60206
-1.8629103	bảy qua	-2.60206
-0.07886764	qua sông	-3.5563025
-0.07886764	sang sông	-3.5563025
-1.9322928	năm sang	-2.60206
-1.9322928	sáu sang	-2.60206
-1.9322928	bốn sang	-2.60206
-1.8629103	hai sang	-2.60206
-1.8629103	ba sang	-2.60206
-1.8629103	chín sang	-2.60206
-1.8629103	tám sang	-2.60206
-1.8629103	một sang	-2.60206
-1.8629103	bảy sang	-2.60206
-2.5084789	<s> chấp	-3.8239088
-0.29946408	chấp nhận	-3.8239088
-0.29946408	xác nhận	-3.8239088
-2.5084789	<s> xác	-3.8239088
-2.5084789	<s> đồng	-3.8239088
-0.29983097	đồng ý	-3.8239088
-2.5084789	<s> ô	-3.8239088
-0.29983097	ô kê	-3.8239088
-2.5084789	<s> hủy	-3.8239088
-0.29983097	hủy bỏ	-3.8239088
-2.5084789	<s> từ	-3.8239088
-0.29983097	từ chối	-3.8239088
-2.5084789	<s> đầu	-3.8239088
-0.29983097	đầu hàng	-3.8239088
-2.2074182	<s> xin	-3.8239088
-0.5996653	xin hòa	-3.8239088
-2.5084789	<s> đổi	-3.8239088
-0.29983097	đổi phe	-3.8239088
-0.5996653	xin chơi	-3.8239088
-0.29946408	chơi lại	-3.8239088
-0.29946408	đi lại	-3.8239088
-2.5084789	<s> đi	-3.8239088
-1.4484255	sĩ chiếu	-1.5606673
-1.2316332	dưới chiếu	-2.5606673
-1.2316332	sau chiếu	-2.5606673
-1.0203843	năm chiếu	-3.3735807
-1.2316332	trên chiếu	-2.5606673
-1.2316332	trước chiếu	-2.5606673
-1.0203843	sáu chiếu	-3.3735807
-1.0203843	bốn chiếu	-3.3735807
-0.952315	trái chiếu	-2.5606673
-0.952315	phải chiếu	-2.5606673
-1.5089105	tượng chiếu	-1.5606673
-0.9826773	hai chiếu	-3.3388186
-0.9826773	ba chiếu	-3.3388186
-0.9826773	chín chiếu	-3.3388186
-0.9826773	tám chiếu	-3.3388186
-0.9826773	một chiếu	-3.3388186
-0.9826773	bảy chiếu	-3.3388186
-1.5089105	tịnh chiếu	-1.5606673
-1.5089105	bộ chiếu	-1.5606673
-1.5112771	xe chiếu	-1.5606673
-1.5089105	mã chiếu	-1.5606673
-1.5112771	pháo chiếu	-1.5606673
-1.5135711	tốt chiếu	-1.5606673
-1.1687794	giữa chiếu	-2.8828866
-1.5135711	binh chiếu	-1.5606673
-1.5135711	chốt chiếu	-1.5606673

\3-grams:
-1.0000134	chiếu tướng </s>
-1.3427908	ăn sĩ </s>
-1.3427908	bắt sĩ </s>
-1.1088527	sĩ dưới </s>
-1.5857848	tượng dưới </s>
-1.5857848	tịnh dưới </s>
-1.5857848	bộ dưới </s>
-1.9632272	xe dưới </s>
-1.6840713	mã dưới </s>
-1.9632272	pháo dưới </s>
-1.8375968	tốt dưới </s>
-1.8375968	binh dưới </s>
-1.8375968	chốt dưới </s>
-1.1088527	sĩ sau </s>
-1.5857848	tượng sau </s>
-1.5857848	tịnh sau </s>
-1.5857848	bộ sau </s>
-1.9632272	xe sau </s>
-1.6840713	mã sau </s>
-1.9632272	pháo sau </s>
-1.8375968	tốt sau </s>
-1.8375968	binh sau </s>
-1.8375968	chốt sau </s>
-0.06813059	tướng năm </s>
-0.5645522	sĩ năm </s>
-0.67012835	dưới năm </s>
-0.67012835	sau năm </s>
-0.67012835	trên năm </s>
-0.67012835	trước năm </s>
-0.5645522	tượng năm </s>
-0.5645522	tịnh năm </s>
-0.5645522	bộ năm </s>
-0.96241987	xe năm </s>
-0.689491	mã năm </s>
-0.96241987	pháo năm </s>
-0.5644799	tốt năm </s>
-0.5268444	giữa năm </s>
-0.5644799	binh năm </s>
-0.5644799	chốt năm </s>
-0.000013978648	tiến năm </s>
-0.000013978648	tấn năm </s>
-0.000013771553	bình năm </s>
-0.000013978648	thoái năm </s>
-0.000013978648	lùi năm </s>
-0.000028734377	chiếu năm </s>
-1.1088527	sĩ trên </s>
-1.5857848	tượng trên </s>
-1.5857848	tịnh trên </s>
-1.5857848	bộ trên </s>
-1.9632272	xe trên </s>
-1.6840713	mã trên </s>
-1.9632272	pháo trên </s>
-1.8375968	tốt trên </s>
-1.8375968	binh trên </s>
-1.8375968	chốt trên </s>
-1.1088527	sĩ trước </s>
-1.5857848	tượng trước </s>
-1.5857848	tịnh trước </s>
-1.5857848	bộ trước </s>
-1.9632272	xe trước </s>
-1.6840713	mã trước </s>
-1.9632272	pháo trước </s>
-1.8375968	tốt trước </s>
-1.8375968	binh trước </s>
-1.8375968	chốt trước </s>
-0.06428246	tướng sáu </s>
-0.485371	sĩ sáu </s>
-0.67576855	dưới sáu </s>
-0.67576855	sau sáu </s>
-0.67576855	trên sáu </s>
-0.67576855	trước sáu </s>
-0.5645522	tượng sáu </s>
-0.5645522	tịnh sáu </s>
-0.5645522	bộ sáu </s>
-0.96241987	xe sáu </s>
-0.689491	mã sáu </s>
-0.96241987	pháo sáu </s>
-0.5644799	tốt sáu </s>
-0.5268444	giữa sáu </s>
-0.5644799	binh sáu </s>
-0.5644799	chốt sáu </s>
-0.000014651705	tiến sáu </s>
-0.000014651705	tấn sáu </s>
-0.000013926874	bình sáu </s>
-0.000014651705	thoái sáu </s>
-0.000014651705	lùi sáu </s>
-0.000028734377	chiếu sáu </s>
-0.06428246	tướng bốn </s>
-0.485371	sĩ bốn </s>
-0.67576855	dưới bốn </s>
-0.67576855	sau bốn </s>
-0.67576855	trên bốn </s>
-0.67576855	trước bốn </s>
-0.5645522	tượng bốn </s>
-0.5645522	tịnh bốn </s>
-0.5645522	bộ bốn </s>
-0.96241987	xe bốn </s>
-0.689491	mã bốn </s>
-0.96241987	pháo bốn </s>
-0.5644799	tốt bốn </s>
-0.5268444	giữa bốn </s>
-0.5644799	binh bốn </s>
-0.5644799	chốt bốn </s>
-0.000014651705	tiến bốn </s>
-0.000014651705	tấn bốn </s>
-0.000013926874	bình bốn </s>
-0.000014651705	thoái bốn </s>
-0.000014651705	lùi bốn </s>
-0.000028734377	chiếu bốn </s>
-0.63161385	sĩ trái </s>
-0.9004592	tượng trái </s>
-0.9004592	tịnh trái </s>
-0.9004592	bộ trái </s>
-0.96972764	xe trái </s>
-0.9004592	mã trái </s>
-0.96972764	pháo trái </s>
-0.94788384	tốt trái </s>
-0.94788384	binh trái </s>
-0.94788384	chốt trái </s>
-0.63161385	sĩ phải </s>
-0.9004592	tượng phải </s>
-0.9004592	tịnh phải </s>
-0.9004592	bộ phải </s>
-0.96972764	xe phải </s>
-0.9004592	mã phải </s>
-0.96972764	pháo phải </s>
-0.94788384	tốt phải </s>
-0.94788384	binh phải </s>
-0.94788384	chốt phải </s>
-1.716142	ăn tượng </s>
-1.716142	bắt tượng </s>
-0.000028164848	tướng hai </s>
-0.6679046	dưới hai </s>
-0.6679046	sau hai </s>
-0.6679046	trên hai </s>
-0.6679046	trước hai </s>
-0.48530203	tượng hai </s>
-0.48530203	tịnh hai </s>
-0.48530203	bộ hai </s>
-0.9623423	xe hai </s>
-0.63143003	mã hai </s>
-0.9623423	pháo hai </s>
-0.5644023	tốt hai </s>
-0.52684027	giữa hai </s>
-0.5644023	binh hai </s>
-0.5644023	chốt hai </s>
-0.000016852093	tiến hai </s>
-0.000016852093	tấn hai </s>
-0.000013926874	bình hai </s>
-0.000016852093	thoái hai </s>
-0.000016852093	lùi hai </s>
-0.000028164848	chiếu hai </s>
-0.000028164848	tướng ba </s>
-0.69255203	dưới ba </s>
-0.69255203	sau ba </s>
-0.69255203	trên ba </s>
-0.69255203	trước ba </s>
-0.5644833	tượng ba </s>
-0.5644833	tịnh ba </s>
-0.5644833	bộ ba </s>
-0.9623423	xe ba </s>
-0.689422	mã ba </s>
-0.9623423	pháo ba </s>
-0.5644023	tốt ba </s>
-0.52684027	giữa ba </s>
-0.5644023	binh ba </s>
-0.5644023	chốt ba </s>
-0.000014988235	tiến ba </s>
-0.000014988235	tấn ba </s>
-0.000013926874	bình ba </s>
-0.000014988235	thoái ba </s>
-0.000014988235	lùi ba </s>
-0.000028164848	chiếu ba </s>
-0.000028164848	tướng chín </s>
-0.6566653	dưới chín </s>
-0.6566653	sau chín </s>
-0.6566653	trên chín </s>
-0.6566653	trước chín </s>
-0.48530203	tượng chín </s>
-0.48530203	tịnh chín </s>
-0.48530203	bộ chín </s>
-0.9623423	xe chín </s>
-0.5644833	mã chín </s>
-0.9623423	pháo chín </s>
-0.5459189	tốt chín </s>
-0.5066369	giữa chín </s>
-0.5459189	binh chín </s>
-0.5459189	chốt chín </s>
-0.000017369834	tiến chín </s>
-0.000017369834	tấn chín </s>
-0.000016437902	bình chín </s>
-0.000017369834	thoái chín </s>
-0.000017369834	lùi chín </s>
-0.000028164848	chiếu chín </s>
-0.000028164848	tướng tám </s>
-0.6679046	dưới tám </s>
-0.6679046	sau tám </s>
-0.6679046	trên tám </s>
-0.6679046	trước tám </s>
-0.48530203	tượng tám </s>
-0.48530203	tịnh tám </s>
-0.48530203	bộ tám </s>
-0.9623423	xe tám </s>
-0.63143003	mã tám </s>
-0.9623423	pháo tám </s>
-0.5644023	tốt tám </s>
-0.52684027	giữa tám </s>
-0.5644023	binh tám </s>
-0.5644023	chốt tám </s>
-0.000016852093	tiến tám </s>
-0.000016852093	tấn tám </s>
-0.000013926874	bình tám </s>
-0.000016852093	thoái tám </s>
-0.000016852093	lùi tám </s>
-0.000028164848	chiếu tám </s>
-0.000028164848	tướng một </s>
-0.6566653	dưới một </s>
-0.6566653	sau một </s>
-0.6566653	trên một </s>
-0.6566653	trước một </s>
-0.48530203	tượng một </s>
-0.48530203	tịnh một </s>
-0.48530203	bộ một </s>
-0.9623423	xe một </s>
-0.5644833	mã một </s>
-0.9623423	pháo một </s>
-0.5459189	tốt một </s>
-0.5066369	giữa một </s>
-0.5459189	binh một </s>
-0.5459189	chốt một </s>
-0.0000057208367	tiến một </s>
-0.0000057208367	tấn một </s>
-0.000016437902	bình một </s>
-0.00001654145	thoái một </s>
-0.00001654145	lùi một </s>
-0.000028164848	chiếu một </s>
-0.000028164848	tướng bảy </s>
-0.69255203	dưới bảy </s>
-0.69255203	sau bảy </s>
-0.69255203	trên bảy </s>
-0.69255203	trước bảy </s>
-0.5644833	tượng bảy </s>
-0.5644833	tịnh bảy </s>
-0.5644833	bộ bảy </s>
-0.9623423	xe bảy </s>
-0.689422	mã bảy </s>
-0.9623423	pháo bảy </s>
-0.5644023	tốt bảy </s>
-0.52684027	giữa bảy </s>
-0.5644023	binh bảy </s>
-0.5644023	chốt bảy </s>
-0.000014988235	tiến bảy </s>
-0.000014988235	tấn bảy </s>
-0.000013926874	bình bảy </s>
-0.000014988235	thoái bảy </s>
-0.000014988235	lùi bảy </s>
-0.000028164848	chiếu bảy </s>
-1.716142	ăn tịnh </s>
-1.716142	bắt tịnh </s>
-1.716142	ăn bộ </s>
-1.716142	bắt bộ </s>
-1.7161474	ăn xe </s>
-1.7161474	bắt xe </s>
-1.716142	ăn mã </s>
-1.716142	bắt mã </s>
-1.7161474	ăn pháo </s>
-1.7161474	bắt pháo </s>
-2.0171297	ăn tốt </s>
-2.0171297	bắt tốt </s>
-1.536577	dưới giữa </s>
-1.536577	sau giữa </s>
-1.536577	trên giữa </s>
-1.536577	trước giữa </s>
-0.6469015	trái giữa </s>
-0.6469015	phải giữa </s>
-1.5365214	tốt giữa </s>
-1.5365214	binh giữa </s>
-1.5365214	chốt giữa </s>
-2.0171297	ăn binh </s>
-2.0171297	bắt binh </s>
-2.0171297	ăn chốt </s>
-2.0171297	bắt chốt </s>
-0.30368376	tướng tiến </s>
-1.3222858	dưới tiến </s>
-1.3222858	sau tiến </s>
-0.80872345	năm tiến </s>
-1.3222858	trên tiến </s>
-1.3222858	trước tiến </s>
-0.81500256	sáu tiến </s>
-0.81500256	bốn tiến </s>
-1.3222858	trái tiến </s>
-1.3222858	phải tiến </s>
-0.77815795	hai tiến </s>
-0.8239154	ba tiến </s>
-0.76592344	chín tiến </s>
-0.77815795	tám tiến </s>
-0.76592344	một tiến </s>
-0.8239154	bảy tiến </s>
-0.30368376	tốt tiến </s>
-0.301156	giữa tiến </s>
-0.30368376	binh tiến </s>
-0.30368376	chốt tiến </s>
-0.30368376	soái tiến </s>
-0.30368376	tướng tấn </s>
-1.3222858	dưới tấn </s>
-1.3222858	sau tấn </s>
-0.80872345	năm tấn </s>
-1.3222858	trên tấn </s>
-1.3222858	trước tấn </s>
-0.81500256	sáu tấn </s>
-0.81500256	bốn tấn </s>
-1.3222858	trái tấn </s>
-1.3222858	phải tấn </s>
-0.77815795	hai tấn </s>
-0.8239154	ba tấn </s>
-0.76592344	chín tấn </s>
-0.77815795	tám tấn </s>
-0.76592344	một tấn </s>
-0.8239154	bảy tấn </s>
-0.30368376	tốt tấn </s>
-0.301156	giữa tấn </s>
-0.30368376	binh tấn </s>
-0.30368376	chốt tấn </s>
-0.30368376	soái tấn </s>
-0.30414915	tướng thoái </s>
-1.8645803	năm thoái </s>
-1.8734137	sáu thoái </s>
-1.8734137	bốn thoái </s>
-0.30414915	soái thoái </s>
-0.30414915	tướng lùi </s>
-1.8645803	năm lùi </s>
-1.8734137	sáu lùi </s>
-1.8734137	bốn lùi </s>
-0.30414915	soái lùi </s>
-0.000056046738	qua sông </s>
-0.000056046738	sang sông </s>
-0.00003028764	chấp nhận </s>
-0.00003028764	xác nhận </s>
-0.00003028764	đồng ý </s>
-0.00003028764	ô kê </s>
-0.00003028764	hủy bỏ </s>
-0.00003028764	từ chối </s>
-0.00003028764	đầu hàng </s>
-0.00003028764	xin hòa </s>
-0.00003028764	đổi phe </s>
-0.00003028764	chơi lại </s>
-0.00003028764	đi lại </s>
-1.3013105	sĩ chiếu </s>
-1.301058	dưới chiếu </s>
-1.301058	sau chiếu </s>
-1.3010343	năm chiếu </s>
-1.301058	trên chiếu </s>
-1.301058	trước chiếu </s>
-1.3010343	sáu chiếu </s>
-1.3010343	bốn chiếu </s>
-1.301058	trái chiếu </s>
-1.301058	phải chiếu </s>
-1.3013105	tượng chiếu </s>
-1.3010347	hai chiếu </s>
-1.3010347	ba chiếu </s>
-1.3010347	chín chiếu </s>
-1.3010347	tám chiếu </s>
-1.3010347	một chiếu </s>
-1.3010347	bảy chiếu </s>
-1.3013105	tịnh chiếu </s>
-1.3013105	bộ chiếu </s>
-1.3013105	xe chiếu </s>
-1.3013105	mã chiếu </s>
-1.3013105	pháo chiếu </s>
-1.3013105	tốt chiếu </s>
-1.3010434	giữa chiếu </s>
-1.3013105	binh chiếu </s>
-1.3013105	chốt chiếu </s>
-0.3011503	sĩ chiếu tướng
-0.30104202	dưới chiếu tướng
-0.30104202	sau chiếu tướng
-0.30103186	năm chiếu tướng
-0.30104202	trên chiếu tướng
-0.30104202	trước chiếu tướng
-0.30103186	sáu chiếu tướng
-0.30103186	bốn chiếu tướng
-0.30104202	trái chiếu tướng
-0.30104202	phải chiếu tướng
-0.3011503	tượng chiếu tướng
-0.30103198	hai chiếu tướng
-0.30103198	ba chiếu tướng
-0.30103198	chín chiếu tướng
-0.30103198	tám chiếu tướng
-0.30103198	một chiếu tướng
-0.30103198	bảy chiếu tướng
-0.3011503	tịnh chiếu tướng
-0.3011503	bộ chiếu tướng
-0.3011503	xe chiếu tướng
-0.3011503	mã chiếu tướng
-0.3011503	pháo chiếu tướng
-0.3011503	tốt chiếu tướng
-0.30103573	giữa chiếu tướng
-0.3011503	binh chiếu tướng
-0.3011503	chốt chiếu tướng
-1.303161	<s> tướng ăn
-2.0228364	<s> sĩ ăn
-1.4154282	sĩ dưới ăn
-1.8921908	tượng dưới ăn
-1.8921908	tịnh dưới ăn
-1.8921908	bộ dưới ăn
-2.269605	xe dưới ăn
-1.9904773	mã dưới ăn
-2.269605	pháo dưới ăn
-2.1440027	tốt dưới ăn
-2.1440027	binh dưới ăn
-2.1440027	chốt dưới ăn
-1.4154282	sĩ sau ăn
-1.8921908	tượng sau ăn
-1.8921908	tịnh sau ăn
-1.8921908	bộ sau ăn
-2.269605	xe sau ăn
-1.9904773	mã sau ăn
-2.269605	pháo sau ăn
-2.1440027	tốt sau ăn
-2.1440027	binh sau ăn
-2.1440027	chốt sau ăn
-1.5453846	tướng năm ăn
-0.87113607	sĩ năm ăn
-0.97652066	dưới năm ăn
-0.97652066	sau năm ăn
-0.97652066	trên năm ăn
-0.97652066	trước năm ăn
-0.87113607	tượng năm ăn
-0.87113607	tịnh năm ăn
-0.87113607	bộ năm ăn
-1.268966	xe năm ăn
-0.99607486	mã năm ăn
-1.268966	pháo năm ăn
-0.871026	tốt năm ăn
-0.833236	giữa năm ăn
-0.871026	binh năm ăn
-0.871026	chốt năm ăn
-0.7074649	soái năm ăn
-1.4154282	sĩ trên ăn
-1.8921908	tượng trên ăn
-1.8921908	tịnh trên ăn
-1.8921908	bộ trên ăn
-2.269605	xe trên ăn
-1.9904773	mã trên ăn
-2.269605	pháo trên ăn
-2.1440027	tốt trên ăn
-2.1440027	binh trên ăn
-2.1440027	chốt trên ăn
-1.4154282	sĩ trước ăn
-1.8921908	tượng trước ăn
-1.8921908	tịnh trước ăn
-1.8921908	bộ trước ăn
-2.269605	xe trước ăn
-1.9904773	mã trước ăn
-2.269605	pháo trước ăn
-2.1440027	tốt trước ăn
-2.1440027	binh trước ăn
-2.1440027	chốt trước ăn
-1.5415366	tướng sáu ăn
-0.7919549	sĩ sáu ăn
-0.98216087	dưới sáu ăn
-0.98216087	sau sáu ăn
-0.98216087	trên sáu ăn
-0.98216087	trước sáu ăn
-0.87113607	tượng sáu ăn
-0.87113607	tịnh sáu ăn
-0.87113607	bộ sáu ăn
-1.268966	xe sáu ăn
-0.99607486	mã sáu ăn
-1.268966	pháo sáu ăn
-0.871026	tốt sáu ăn
-0.833236	giữa sáu ăn
-0.871026	binh sáu ăn
-0.871026	chốt sáu ăn
-0.6802445	soái sáu ăn
-1.5415366	tướng bốn ăn
-0.7919549	sĩ bốn ăn
-0.98216087	dưới bốn ăn
-0.98216087	sau bốn ăn
-0.98216087	trên bốn ăn
-0.98216087	trước bốn ăn
-0.87113607	tượng bốn ăn
-0.87113607	tịnh bốn ăn
-0.87113607	bộ bốn ăn
-1.268966	xe bốn ăn
-0.99607486	mã bốn ăn
-1.268966	pháo bốn ăn
-0.871026	tốt bốn ăn
-0.833236	giữa bốn ăn
-0.871026	binh bốn ăn
-0.871026	chốt bốn ăn
-0.6802445	soái bốn ăn
-0.9380586	sĩ trái ăn
-1.2069039	tượng trái ăn
-1.2069039	tịnh trái ăn
-1.2069039	bộ trái ăn
-1.2761172	xe trái ăn
-1.2069039	mã trái ăn
-1.2761172	pháo trái ăn
-1.2543286	tốt trái ăn
-1.2543286	binh trái ăn
-1.2543286	chốt trái ăn
-0.9380586	sĩ phải ăn
-1.2069039	tượng phải ăn
-1.2069039	tịnh phải ăn
-1.2069039	bộ phải ăn
-1.2761172	xe phải ăn
-1.2069039	mã phải ăn
-1.2761172	pháo phải ăn
-1.2543286	tốt phải ăn
-1.2543286	binh phải ăn
-1.2543286	chốt phải ăn
-2.501347	<s> tượng ăn
-0.9743122	dưới hai ăn
-0.9743122	sau hai ăn
-0.9743122	trên hai ăn
-0.9743122	trước hai ăn
-0.7919928	tượng hai ăn
-0.7919928	tịnh hai ăn
-0.7919928	bộ hai ăn
-1.2690086	xe hai ăn
-0.93812084	mã hai ăn
-1.2690086	pháo hai ăn
-0.8710686	tốt hai ăn
-0.83323824	giữa hai ăn
-0.8710686	binh hai ăn
-0.8710686	chốt hai ăn
-0.9989596	dưới ba ăn
-0.9989596	sau ba ăn
-0.9989596	trên ba ăn
-0.9989596	trước ba ăn
-0.87117404	tượng ba ăn
-0.87117404	tịnh ba ăn
-0.87117404	bộ ba ăn
-1.2690086	xe ba ăn
-0.99611276	mã ba ăn
-1.2690086	pháo ba ăn
-0.8710686	tốt ba ăn
-0.83323824	giữa ba ăn
-0.8710686	binh ba ăn
-0.8710686	chốt ba ăn
-0.9630729	dưới chín ăn
-0.9630729	sau chín ăn
-0.9630729	trên chín ăn
-0.9630729	trước chín ăn
-0.7919928	tượng chín ăn
-0.7919928	tịnh chín ăn
-0.7919928	bộ chín ăn
-1.2690086	xe chín ăn
-0.87117404	mã chín ăn
-1.2690086	pháo chín ăn
-0.85258526	tốt chín ăn
-0.8130348	giữa chín ăn
-0.85258526	binh chín ăn
-0.85258526	chốt chín ăn
-0.9743122	dưới tám ăn
-0.9743122	sau tám ăn
-0.9743122	trên tám ăn
-0.9743122	trước tám ăn
-0.7919928	tượng tám ăn
-0.7919928	tịnh tám ăn
-0.7919928	bộ tám ăn
-1.2690086	xe tám ăn
-0.93812084	mã tám ăn
-1.2690086	pháo tám ăn
-0.8710686	tốt tám ăn
-0.83323824	giữa tám ăn
-0.8710686	binh tám ăn
-0.8710686	chốt tám ăn
-0.9630729	dưới một ăn
-0.9630729	sau một ăn
-0.9630729	trên một ăn
-0.9630729	trước một ăn
-0.7919928	tượng một ăn
-0.7919928	tịnh một ăn
-0.7919928	bộ một ăn
-1.2690086	xe một ăn
-0.87117404	mã một ăn
-1.2690086	pháo một ăn
-0.85258526	tốt một ăn
-0.8130348	giữa một ăn
-0.85258526	binh một ăn
-0.85258526	chốt một ăn
-0.9989596	dưới bảy ăn
-0.9989596	sau bảy ăn
-0.9989596	trên bảy ăn
-0.9989596	trước bảy ăn
-0.87117404	tượng bảy ăn
-0.87117404	tịnh bảy ăn
-0.87117404	bộ bảy ăn
-1.2690086	xe bảy ăn
-0.99611276	mã bảy ăn
-1.2690086	pháo bảy ăn
-0.8710686	tốt bảy ăn
-0.83323824	giữa bảy ăn
-0.8710686	binh bảy ăn
-0.8710686	chốt bảy ăn
-2.501347	<s> tịnh ăn
-2.501347	<s> bộ ăn
-2.9361765	<s> xe ăn
-2.6194544	<s> mã ăn
-2.9361765	<s> pháo ăn
-2.7225173	<s> tốt ăn
-1.8429481	dưới giữa ăn
-1.8429481	sau giữa ăn
-1.8429481	trên giữa ăn
-1.8429481	trước giữa ăn
-0.95337063	trái giữa ăn
-0.95337063	phải giữa ăn
-1.8428841	tốt giữa ăn
-1.8428841	binh giữa ăn
-1.8428841	chốt giữa ăn
-2.7225173	<s> binh ăn
-2.7225173	<s> chốt ăn
-1.3029087	<s> soái ăn
-1.469328	tướng ăn sĩ
-1.469328	sĩ ăn sĩ
-1.4679614	dưới ăn sĩ
-1.4679614	sau ăn sĩ
-1.4678324	năm ăn sĩ
-1.4679614	trên ăn sĩ
-1.4679614	trước ăn sĩ
-1.4678324	sáu ăn sĩ
-1.4678324	bốn ăn sĩ
-1.4679614	trái ăn sĩ
-1.4679614	phải ăn sĩ
-1.469328	tượng ăn sĩ
-1.4678351	hai ăn sĩ
-1.4678351	ba ăn sĩ
-1.4678351	chín ăn sĩ
-1.4678351	tám ăn sĩ
-1.4678351	một ăn sĩ
-1.4678351	bảy ăn sĩ
-1.469328	tịnh ăn sĩ
-1.469328	bộ ăn sĩ
-1.469328	xe ăn sĩ
-1.469328	mã ăn sĩ
-1.469328	pháo ăn sĩ
-1.469328	tốt ăn sĩ
-1.467882	giữa ăn sĩ
-1.469328	binh ăn sĩ
-1.469328	chốt ăn sĩ
-1.469328	soái ăn sĩ
-1.469328	tướng bắt sĩ
-1.469328	sĩ bắt sĩ
-1.4679614	dưới bắt sĩ
-1.4679614	sau bắt sĩ
-1.4678324	năm bắt sĩ
-1.4679614	trên bắt sĩ
-1.4679614	trước bắt sĩ
-1.4678324	sáu bắt sĩ
-1.4678324	bốn bắt sĩ
-1.4679614	trái bắt sĩ
-1.4679614	phải bắt sĩ
-1.469328	tượng bắt sĩ
-1.4678351	hai bắt sĩ
-1.4678351	ba bắt sĩ
-1.4678351	chín bắt sĩ
-1.4678351	tám bắt sĩ
-1.4678351	một bắt sĩ
-1.4678351	bảy bắt sĩ
-1.469328	tịnh bắt sĩ
-1.469328	bộ bắt sĩ
-1.469328	xe bắt sĩ
-1.469328	mã bắt sĩ
-1.469328	pháo bắt sĩ
-1.469328	tốt bắt sĩ
-1.467882	giữa bắt sĩ
-1.469328	binh bắt sĩ
-1.469328	chốt bắt sĩ
-1.469328	soái bắt sĩ
-1.303161	<s> tướng bắt
-2.0228364	<s> sĩ bắt
-1.4154282	sĩ dưới bắt
-1.8921908	tượng dưới bắt
-1.8921908	tịnh dưới bắt
-1.8921908	bộ dưới bắt
-2.269605	xe dưới bắt
-1.9904773	mã dưới bắt
-2.269605	pháo dưới bắt
-2.1440027	tốt dưới bắt
-2.1440027	binh dưới bắt
-2.1440027	chốt dưới bắt
-1.4154282	sĩ sau bắt
-1.8921908	tượng sau bắt
-1.8921908	tịnh sau bắt
-1.8921908	bộ sau bắt
-2.269605	xe sau bắt
-1.9904773	mã sau bắt
-2.269605	pháo sau bắt
-2.1440027	tốt sau bắt
-2.1440027	binh sau bắt
-2.1440027	chốt sau bắt
-1.5453846	tướng năm bắt
-0.87113607	sĩ năm bắt
-0.97652066	dưới năm bắt
-0.97652066	sau năm bắt
-0.97652066	trên năm bắt
-0.97652066	trước năm bắt
-0.87113607	tượng năm bắt
-0.87113607	tịnh năm bắt
-0.87113607	bộ năm bắt
-1.268966	xe năm bắt
-0.99607486	mã năm bắt
-1.268966	pháo năm bắt
-0.871026	tốt năm bắt
-0.833236	giữa năm bắt
-0.871026	binh năm bắt
-0.871026	chốt năm bắt
-0.7074649	soái năm bắt
-1.4154282	sĩ trên bắt
-1.8921908	tượng trên bắt
-1.8921908	tịnh trên bắt
-1.8921908	bộ trên bắt
-2.269605	xe trên bắt
-1.9904773	mã trên bắt
-2.269605	pháo trên bắt
-2.1440027	tốt trên bắt
-2.1440027	binh trên bắt
-2.1440027	chốt trên bắt
-1.4154282	sĩ trước bắt
-1.8921908	tượng trước bắt
-1.8921908	tịnh trước bắt
-1.8921908	bộ trước bắt
-2.269605	xe trước bắt
-1.9904773	mã trước bắt
-2.269605	pháo trước bắt
-2.1440027	tốt trước bắt
-2.1440027	binh trước bắt
-2.1440027	chốt trước bắt
-1.5415366	tướng sáu bắt
-0.7919549	sĩ sáu bắt
-0.98216087	dưới sáu bắt
-0.98216087	sau sáu bắt
-0.98216087	trên sáu bắt
-0.98216087	trước sáu bắt
-0.87113607	tượng sáu bắt
-0.87113607	tịnh sáu bắt
-0.87113607	bộ sáu bắt
-1.268966	xe sáu bắt
-0.99607486	mã sáu bắt
-1.268966	pháo sáu bắt
-0.871026	tốt sáu bắt
-0.833236	giữa sáu bắt
-0.871026	binh sáu bắt
-0.871026	chốt sáu bắt
-0.6802445	soái sáu bắt
-1.5415366	tướng bốn bắt
-0.7919549	sĩ bốn bắt
-0.98216087	dưới bốn bắt
-0.98216087	sau bốn bắt
-0.98216087	trên bốn bắt
-0.98216087	trước bốn bắt
-0.87113607	tượng bốn bắt
-0.87113607	tịnh bốn bắt
-0.87113607	bộ bốn bắt
-1.268966	xe bốn bắt
-0.99607486	mã bốn bắt
-1.268966	pháo bốn bắt
-0.871026	tốt bốn bắt
-0.833236	giữa bốn bắt
-0.871026	binh bốn bắt
-0.871026	chốt bốn bắt
-0.6802445	soái bốn bắt
-0.9380586	sĩ trái bắt
-1.2069039	tượng trái bắt
-1.2069039	tịnh trái bắt
-1.2069039	bộ trái bắt
-1.2761172	xe trái bắt
-1.2069039	mã trái bắt
-1.2761172	pháo trái bắt
-1.2543286	tốt trái bắt
-1.2543286	binh trái bắt
-1.2543286	chốt trái bắt
-0.9380586	sĩ phải bắt
-1.2069039	tượng phải bắt
-1.2069039	tịnh phải bắt
-1.2069039	bộ phải bắt
-1.2761172	xe phải bắt
-1.2069039	mã phải bắt
-1.2761172	pháo phải bắt
-1.2543286	tốt phải bắt
-1.2543286	binh phải bắt
-1.2543286	chốt phải bắt
-2.501347	<s> tượng bắt
-0.9743122	dưới hai bắt
-0.9743122	sau hai bắt
-0.9743122	trên hai bắt
-0.9743122	trước hai bắt
-0.7919928	tượng hai bắt
-0.7919928	tịnh hai bắt
-0.7919928	bộ hai bắt
-1.2690086	xe hai bắt
-0.93812084	mã hai bắt
-1.2690086	pháo hai bắt
-0.8710686	tốt hai bắt
-0.83323824	giữa hai bắt
-0.8710686	binh hai bắt
-0.8710686	chốt hai bắt
-0.9989596	dưới ba bắt
-0.9989596	sau ba bắt
-0.9989596	trên ba bắt
-0.9989596	trước ba bắt
-0.87117404	tượng ba bắt
-0.87117404	tịnh ba bắt
-0.87117404	bộ ba bắt
-1.2690086	xe ba bắt
-0.99611276	mã ba bắt
-1.2690086	pháo ba bắt
-0.8710686	tốt ba bắt
-0.83323824	giữa ba bắt
-0.8710686	binh ba bắt
-0.8710686	chốt ba bắt
-0.9630729	dưới chín bắt
-0.9630729	sau chín bắt
-0.9630729	trên chín bắt
-0.9630729	trước chín bắt
-0.7919928	tượng chín bắt
-0.7919928	tịnh chín bắt
-0.7919928	bộ chín bắt
-1.2690086	xe chín bắt
-0.87117404	mã chín bắt
-1.2690086	pháo chín bắt
-0.85258526	tốt chín bắt
-0.8130348	giữa chín bắt
-0.85258526	binh chín bắt
-0.85258526	chốt chín bắt
-0.9743122	dưới tám bắt
-0.9743122	sau tám bắt
-0.9743122	trên tám bắt
-0.9743122	trước tám bắt
-0.7919928	tượng tám bắt
-0.7919928	tịnh tám bắt
-0.7919928	bộ tám bắt
-1.2690086	xe tám bắt
-0.93812084	mã tám bắt
-1.2690086	pháo tám bắt
-0.8710686	tốt tám bắt
-0.83323824	giữa tám bắt
-0.8710686	binh tám bắt
-0.8710686	chốt tám bắt
-0.9630729	dưới một bắt
-0.9630729	sau một bắt
-0.9630729	trên một bắt
-0.9630729	trước một bắt
-0.7919928	tượng một bắt
-0.7919928	tịnh một bắt
-0.7919928	bộ một bắt
-1.2690086	xe một bắt
-0.87117404	mã một bắt
-1.2690086	pháo một bắt
-0.85258526	tốt một bắt
-0.8130348	giữa một bắt
-0.85258526	binh một bắt
-0.85258526	chốt một bắt
-0.9989596	dưới bảy bắt
-0.9989596	sau bảy bắt
-0.9989596	trên bảy bắt
-0.9989596	trước bảy bắt
-0.87117404	tượng bảy bắt
-0.87117404	tịnh bảy bắt
-0.87117404	bộ bảy bắt
-1.2690086	xe bảy bắt
-0.99611276	mã bảy bắt
-1.2690086	pháo bảy bắt
-0.8710686	tốt bảy bắt
-0.83323824	giữa bảy bắt
-0.8710686	binh bảy bắt
-0.8710686	chốt bảy bắt
-2.501347	<s> tịnh bắt
-2.501347	<s> bộ bắt
-2.9361765	<s> xe bắt
-2.6194544	<s> mã bắt
-2.9361765	<s> pháo bắt
-2.7225173	<s> tốt bắt
-1.8429481	dưới giữa bắt
-1.8429481	sau giữa bắt
-1.8429481	trên giữa bắt
-1.8429481	trước giữa bắt
-0.95337063	trái giữa bắt
-0.95337063	phải giữa bắt
-1.8428841	tốt giữa bắt
-1.8428841	binh giữa bắt
-1.8428841	chốt giữa bắt
-2.7225173	<s> binh bắt
-2.7225173	<s> chốt bắt
-1.3029087	<s> soái bắt
-0.7694153	<s> sĩ dưới
-0.7404877	ăn sĩ dưới
-0.7404877	bắt sĩ dưới
-0.739358	<s> tượng dưới
-0.7160457	ăn tượng dưới
-0.7160457	bắt tượng dưới
-0.739358	<s> tịnh dưới
-0.7160457	ăn tịnh dưới
-0.7160457	bắt tịnh dưới
-0.739358	<s> bộ dưới
-0.7160457	ăn bộ dưới
-0.7160457	bắt bộ dưới
-0.71628505	<s> xe dưới
-0.71604645	ăn xe dưới
-0.71604645	bắt xe dưới
-0.7293951	<s> mã dưới
-0.7160457	ăn mã dưới
-0.7160457	bắt mã dưới
-0.71628505	<s> pháo dưới
-0.71604645	ăn pháo dưới
-0.71604645	bắt pháo dưới
-0.7273683	<s> tốt dưới
-0.71602356	ăn tốt dưới
-0.71602356	bắt tốt dưới
-0.7273683	<s> binh dưới
-0.71602356	ăn binh dưới
-0.71602356	bắt binh dưới
-0.7273683	<s> chốt dưới
-0.71602356	ăn chốt dưới
-0.71602356	bắt chốt dưới
-0.7694153	<s> sĩ sau
-0.7404877	ăn sĩ sau
-0.7404877	bắt sĩ sau
-0.739358	<s> tượng sau
-0.7160457	ăn tượng sau
-0.7160457	bắt tượng sau
-0.739358	<s> tịnh sau
-0.7160457	ăn tịnh sau
-0.7160457	bắt tịnh sau
-0.739358	<s> bộ sau
-0.7160457	ăn bộ sau
-0.7160457	bắt bộ sau
-0.71628505	<s> xe sau
-0.71604645	ăn xe sau
-0.71604645	bắt xe sau
-0.7293951	<s> mã sau
-0.7160457	ăn mã sau
-0.7160457	bắt mã sau
-0.71628505	<s> pháo sau
-0.71604645	ăn pháo sau
-0.71604645	bắt pháo sau
-0.7273683	<s> tốt sau
-0.71602356	ăn tốt sau
-0.71602356	bắt tốt sau
-0.7273683	<s> binh sau
-0.71602356	ăn binh sau
-0.71602356	bắt binh sau
-0.7273683	<s> chốt sau
-0.71602356	ăn chốt sau
-0.71602356	bắt chốt sau
-0.5954742	<s> tướng năm
-1.0000104	chiếu tướng năm
-1.2895929	<s> sĩ năm
-1.3428129	ăn sĩ năm
-1.3428129	bắt sĩ năm
-0.7202335	sĩ dưới năm
-1.0211917	tượng dưới năm
-1.0211917	tịnh dưới năm
-1.0211917	bộ dưới năm
-1.0007211	xe dưới năm
-0.9945389	mã dưới năm
-1.0007211	pháo dưới năm
-1.3107924	tốt dưới năm
-1.3107924	binh dưới năm
-1.3107924	chốt dưới năm
-0.7202335	sĩ sau năm
-1.0211917	tượng sau năm
-1.0211917	tịnh sau năm
-1.0211917	bộ sau năm
-1.0007211	xe sau năm
-0.9945389	mã sau năm
-1.0007211	pháo sau năm
-1.3107924	tốt sau năm
-1.3107924	binh sau năm
-1.3107924	chốt sau năm
-0.7202335	sĩ trên năm
-1.0211917	tượng trên năm
-1.0211917	tịnh trên năm
-1.0211917	bộ trên năm
-1.0007211	xe trên năm
-0.9945389	mã trên năm
-1.0007211	pháo trên năm
-1.3107924	tốt trên năm
-1.3107924	binh trên năm
-1.3107924	chốt trên năm
-0.7202335	sĩ trước năm
-1.0211917	tượng trước năm
-1.0211917	tịnh trước năm
-1.0211917	bộ trước năm
-1.0007211	xe trước năm
-0.9945389	mã trước năm
-1.0007211	pháo trước năm
-1.3107924	tốt trước năm
-1.3107924	binh trước năm
-1.3107924	chốt trước năm
-1.7682157	<s> tượng năm
-1.7162511	ăn tượng năm
-1.7162511	bắt tượng năm
-1.7682157	<s> tịnh năm
-1.7162511	ăn tịnh năm
-1.7162511	bắt tịnh năm
-1.7682157	<s> bộ năm
-1.7162511	ăn bộ năm
-1.7162511	bắt bộ năm
-1.7170913	<s> xe năm
-1.7162591	ăn xe năm
-1.7162591	bắt xe năm
-1.7225108	<s> mã năm
-1.7162511	ăn mã năm
-1.7162511	bắt mã năm
-1.7170913	<s> pháo năm
-1.7162591	ăn pháo năm
-1.7162591	bắt pháo năm
-1.9893825	<s> tốt năm
-2.0172513	ăn tốt năm
-2.0172513	bắt tốt năm
-1.009769	dưới giữa năm
-1.009769	sau giữa năm
-1.009769	trên giữa năm
-1.009769	trước giữa năm
-1.0097872	tốt giữa năm
-1.0097872	binh giữa năm
-1.0097872	chốt giữa năm
-1.9893825	<s> binh năm
-2.0172513	ăn binh năm
-2.0172513	bắt binh năm
-1.9893825	<s> chốt năm
-2.0172513	ăn chốt năm
-2.0172513	bắt chốt năm
-0.5954742	<s> soái năm
-0.4794443	sĩ tiến năm
-0.95426	dưới tiến năm
-0.95426	sau tiến năm
-1.3138795	năm tiến năm
-0.95426	trên tiến năm
-0.95426	trước tiến năm
-1.0191225	sáu tiến năm
-1.0191225	bốn tiến năm
-0.95426	trái tiến năm
-0.95426	phải tiến năm
-0.95467883	tượng tiến năm
-1.2552848	hai tiến năm
-0.8239128	ba tiến năm
-1.2430503	chín tiến năm
-1.2552848	tám tiến năm
-1.2430503	một tiến năm
-0.8239128	bảy tiến năm
-0.95467883	tịnh tiến năm
-0.95467883	bộ tiến năm
-0.95467883	xe tiến năm
-0.95467883	mã tiến năm
-0.95467883	pháo tiến năm
-0.4794443	sĩ tấn năm
-0.95426	dưới tấn năm
-0.95426	sau tấn năm
-1.3138795	năm tấn năm
-0.95426	trên tấn năm
-0.95426	trước tấn năm
-1.0191225	sáu tấn năm
-1.0191225	bốn tấn năm
-0.95426	trái tấn năm
-0.95426	phải tấn năm
-0.95467883	tượng tấn năm
-1.2552848	hai tấn năm
-0.8239128	ba tấn năm
-1.2430503	chín tấn năm
-1.2552848	tám tấn năm
-1.2430503	một tấn năm
-0.8239128	bảy tấn năm
-0.95467883	tịnh tấn năm
-0.95467883	bộ tấn năm
-0.95467883	xe tấn năm
-0.95467883	mã tấn năm
-0.95467883	pháo tấn năm
-0.47927964	tướng bình năm
-0.95423144	dưới bình năm
-0.95423144	sau bình năm
-0.95423144	trên bình năm
-0.95423144	trước bình năm
-0.52904654	sáu bình năm
-0.52904654	bốn bình năm
-0.95423144	trái bình năm
-0.95423144	phải bình năm
-1.1461593	hai bình năm
-1.1461593	ba bình năm
-1.0414239	chín bình năm
-1.1461593	tám bình năm
-1.0414239	một bình năm
-1.1461593	bảy bình năm
-0.95418715	xe bình năm
-0.95418715	pháo bình năm
-0.95418715	tốt bình năm
-0.95423985	giữa bình năm
-0.95418715	binh bình năm
-0.95418715	chốt bình năm
-0.47927964	soái bình năm
-0.4793493	sĩ thoái năm
-0.9107986	dưới thoái năm
-0.9107986	sau thoái năm
-1.1643337	năm thoái năm
-0.9107986	trên thoái năm
-0.9107986	trước thoái năm
-0.8721467	sáu thoái năm
-0.8721467	bốn thoái năm
-0.9107986	trái thoái năm
-0.9107986	phải thoái năm
-0.9543951	tượng thoái năm
-1.0791965	hai thoái năm
-0.66901183	ba thoái năm
-1.0607132	chín thoái năm
-1.0791965	tám thoái năm
-1.0607132	một thoái năm
-0.66901183	bảy thoái năm
-0.9543951	tịnh thoái năm
-0.9543951	bộ thoái năm
-0.9543951	xe thoái năm
-0.9543951	mã thoái năm
-0.9543951	pháo thoái năm
-0.4793493	sĩ lùi năm
-0.9107986	dưới lùi năm
-0.9107986	sau lùi năm
-1.1643337	năm lùi năm
-0.9107986	trên lùi năm
-0.9107986	trước lùi năm
-0.8721467	sáu lùi năm
-0.8721467	bốn lùi năm
-0.9107986	trái lùi năm
-0.9107986	phải lùi năm
-0.9543951	tượng lùi năm
-1.0791965	hai lùi năm
-0.66901183	ba lùi năm
-1.0607132	chín lùi năm
-1.0791965	tám lùi năm
-1.0607132	một lùi năm
-0.66901183	bảy lùi năm
-0.9543951	tịnh lùi năm
-0.9543951	bộ lùi năm
-0.9543951	xe lùi năm
-0.9543951	mã lùi năm
-0.9543951	pháo lùi năm
-1.3017548	sĩ chiếu năm
-1.3011024	dưới chiếu năm
-1.3011024	sau chiếu năm
-1.3010411	năm chiếu năm
-1.3011024	trên chiếu năm
-1.3011024	trước chiếu năm
-1.3010411	sáu chiếu năm
-1.3010411	bốn chiếu năm
-1.3011024	trái chiếu năm
-1.3011024	phải chiếu năm
-1.3017548	tượng chiếu năm
-1.3010421	hai chiếu năm
-1.3010421	ba chiếu năm
-1.3010421	chín chiếu năm
-1.3010421	tám chiếu năm
-1.3010421	một chiếu năm
-1.3010421	bảy chiếu năm
-1.3017548	tịnh chiếu năm
-1.3017548	bộ chiếu năm
-1.3017548	xe chiếu năm
-1.3017548	mã chiếu năm
-1.3017548	pháo chiếu năm
-1.3017548	tốt chiếu năm
-1.3010645	giữa chiếu năm
-1.3017548	binh chiếu năm
-1.3017548	chốt chiếu năm
-0.7694153	<s> sĩ trên
-0.7404877	ăn sĩ trên
-0.7404877	bắt sĩ trên
-0.739358	<s> tượng trên
-0.7160457	ăn tượng trên
-0.7160457	bắt tượng trên
-0.739358	<s> tịnh trên
-0.7160457	ăn tịnh trên
-0.7160457	bắt tịnh trên
-0.739358	<s> bộ trên
-0.7160457	ăn bộ trên
-0.7160457	bắt bộ trên
-0.71628505	<s> xe trên
-0.71604645	ăn xe trên
-0.71604645	bắt xe trên
-0.7293951	<s> mã trên
-0.7160457	ăn mã trên
-0.7160457	bắt mã trên
-0.71628505	<s> pháo trên
-0.71604645	ăn pháo trên
-0.71604645	bắt pháo trên
-0.7273683	<s> tốt trên
-0.71602356	ăn tốt trên
-0.71602356	bắt tốt trên
-0.7273683	<s> binh trên
-0.71602356	ăn binh trên
-0.71602356	bắt binh trên
-0.7273683	<s> chốt trên
-0.71602356	ăn chốt trên
-0.71602356	bắt chốt trên
-0.7694153	<s> sĩ trước
-0.7404877	ăn sĩ trước
-0.7404877	bắt sĩ trước
-0.739358	<s> tượng trước
-0.7160457	ăn tượng trước
-0.7160457	bắt tượng trước
-0.739358	<s> tịnh trước
-0.7160457	ăn tịnh trước
-0.7160457	bắt tịnh trước
-0.739358	<s> bộ trước
-0.7160457	ăn bộ trước
-0.7160457	bắt bộ trước
-0.71628505	<s> xe trước
-0.71604645	ăn xe trước
-0.71604645	bắt xe trước
-0.7293951	<s> mã trước
-0.7160457	ăn mã trước
-0.7160457	bắt mã trước
-0.71628505	<s> pháo trước
-0.71604645	ăn pháo trước
-0.71604645	bắt pháo trước
-0.7273683	<s> tốt trước
-0.71602356	ăn tốt trước
-0.71602356	bắt tốt trước
-0.7273683	<s> binh trước
-0.71602356	ăn binh trước
-0.71602356	bắt binh trước
-0.7273683	<s> chốt trước
-0.71602356	ăn chốt trước
-0.71602356	bắt chốt trước
-0.6226984	<s> tướng sáu
-1.0000104	chiếu tướng sáu
-1.4025935	<s> sĩ sáu
-1.3428129	ăn sĩ sáu
-1.3428129	bắt sĩ sáu
-0.62330866	sĩ dưới sáu
-1.0211917	tượng dưới sáu
-1.0211917	tịnh dưới sáu
-1.0211917	bộ dưới sáu
-1.0007211	xe dưới sáu
-0.9945389	mã dưới sáu
-1.0007211	pháo dưới sáu
-1.3107924	tốt dưới sáu
-1.3107924	binh dưới sáu
-1.3107924	chốt dưới sáu
-0.62330866	sĩ sau sáu
-1.0211917	tượng sau sáu
-1.0211917	tịnh sau sáu
-1.0211917	bộ sau sáu
-1.0007211	xe sau sáu
-0.9945389	mã sau sáu
-1.0007211	pháo sau sáu
-1.3107924	tốt sau sáu
-1.3107924	binh sau sáu
-1.3107924	chốt sau sáu
-0.62330866	sĩ trên sáu
-1.0211917	tượng trên sáu
-1.0211917	tịnh trên sáu
-1.0211917	bộ trên sáu
-1.0007211	xe trên sáu
-0.9945389	mã trên sáu
-1.0007211	pháo trên sáu
-1.3107924	tốt trên sáu
-1.3107924	binh trên sáu
-1.3107924	chốt trên sáu
-0.62330866	sĩ trước sáu
-1.0211917	tượng trước sáu
-1.0211917	tịnh trước sáu
-1.0211917	bộ trước sáu
-1.0007211	xe trước sáu
-0.9945389	mã trước sáu
-1.0007211	pháo trước sáu
-1.3107924	tốt trước sáu
-1.3107924	binh trước sáu
-1.3107924	chốt trước sáu
-1.7682157	<s> tượng sáu
-1.7162511	ăn tượng sáu
-1.7162511	bắt tượng sáu
-1.7682157	<s> tịnh sáu
-1.7162511	ăn tịnh sáu
-1.7162511	bắt tịnh sáu
-1.7682157	<s> bộ sáu
-1.7162511	ăn bộ sáu
-1.7162511	bắt bộ sáu
-1.7170913	<s> xe sáu
-1.7162591	ăn xe sáu
-1.7162591	bắt xe sáu
-1.7225108	<s> mã sáu
-1.7162511	ăn mã sáu
-1.7162511	bắt mã sáu
-1.7170913	<s> pháo sáu
-1.7162591	ăn pháo sáu
-1.7162591	bắt pháo sáu
-1.9893825	<s> tốt sáu
-2.0172513	ăn tốt sáu
-2.0172513	bắt tốt sáu
-1.009769	dưới giữa sáu
-1.009769	sau giữa sáu
-1.009769	trên giữa sáu
-1.009769	trước giữa sáu
-1.0097872	tốt giữa sáu
-1.0097872	binh giữa sáu
-1.0097872	chốt giữa sáu
-1.9893825	<s> binh sáu
-2.0172513	ăn binh sáu
-2.0172513	bắt binh sáu
-1.9893825	<s> chốt sáu
-2.0172513	ăn chốt sáu
-2.0172513	bắt chốt sáu
-0.6226984	<s> soái sáu
-0.4794443	sĩ tiến sáu
-0.95426	dưới tiến sáu
-0.95426	sau tiến sáu
-1.1097549	năm tiến sáu
-0.95426	trên tiến sáu
-0.95426	trước tiến sáu
-1.3201586	sáu tiến sáu
-0.84302914	bốn tiến sáu
-0.95426	trái tiến sáu
-0.95426	phải tiến sáu
-0.95467883	tượng tiến sáu
-1.2552848	hai tiến sáu
-1.3010423	ba tiến sáu
-1.2430503	chín tiến sáu
-0.7781553	tám tiến sáu
-1.2430503	một tiến sáu
-1.124947	bảy tiến sáu
-0.95467883	tịnh tiến sáu
-0.95467883	bộ tiến sáu
-0.95467883	xe tiến sáu
-0.95467883	mã tiến sáu
-0.95467883	pháo tiến sáu
-0.4794443	sĩ tấn sáu
-0.95426	dưới tấn sáu
-0.95426	sau tấn sáu
-1.1097549	năm tấn sáu
-0.95426	trên tấn sáu
-0.95426	trước tấn sáu
-1.3201586	sáu tấn sáu
-0.84302914	bốn tấn sáu
-0.95426	trái tấn sáu
-0.95426	phải tấn sáu
-0.95467883	tượng tấn sáu
-1.2552848	hai tấn sáu
-1.3010423	ba tấn sáu
-1.2430503	chín tấn sáu
-0.7781553	tám tấn sáu
-1.2430503	một tấn sáu
-1.124947	bảy tấn sáu
-0.95467883	tịnh tấn sáu
-0.95467883	bộ tấn sáu
-0.95467883	xe tấn sáu
-0.95467883	mã tấn sáu
-0.95467883	pháo tấn sáu
-0.47927964	tướng bình sáu
-0.95423144	dưới bình sáu
-0.95423144	sau bình sáu
-0.5351206	năm bình sáu
-0.95423144	trên bình sáu
-0.95423144	trước bình sáu
-1.1523197	bốn bình sáu
-0.95423144	trái bình sáu
-0.95423144	phải bình sáu
-1.1461593	hai bình sáu
-1.1461593	ba bình sáu
-1.0414239	chín bình sáu
-1.1461593	tám bình sáu
-1.0414239	một bình sáu
-0.54407585	bảy bình sáu
-0.95418715	xe bình sáu
-0.95418715	pháo bình sáu
-0.95418715	tốt bình sáu
-0.95423985	giữa bình sáu
-0.95418715	binh bình sáu
-0.95418715	chốt bình sáu
-0.47927964	soái bình sáu
-0.4793493	sĩ thoái sáu
-0.9107986	dưới thoái sáu
-0.9107986	sau thoái sáu
-0.9602209	năm thoái sáu
-0.9107986	trên thoái sáu
-0.9107986	trước thoái sáu
-1.173167	sáu thoái sáu
-0.69605863	bốn thoái sáu
-0.9107986	trái thoái sáu
-0.9107986	phải thoái sáu
-0.9543951	tượng thoái sáu
-1.0791965	hai thoái sáu
-1.1461433	ba thoái sáu
-1.0607132	chín thoái sáu
-0.6020651	tám thoái sáu
-1.0607132	một thoái sáu
-0.97004694	bảy thoái sáu
-0.9543951	tịnh thoái sáu
-0.9543951	bộ thoái sáu
-0.9543951	xe thoái sáu
-0.9543951	mã thoái sáu
-0.9543951	pháo thoái sáu
-0.4793493	sĩ lùi sáu
-0.9107986	dưới lùi sáu
-0.9107986	sau lùi sáu
-0.9602209	năm lùi sáu
-0.9107986	trên lùi sáu
-0.9107986	trước lùi sáu
-1.173167	sáu lùi sáu
-0.69605863	bốn lùi sáu
-0.9107986	trái lùi sáu
-0.9107986	phải lùi sáu
-0.9543951	tượng lùi sáu
-1.0791965	hai lùi sáu
-1.1461433	ba lùi sáu
-1.0607132	chín lùi sáu
-0.6020651	tám lùi sáu
-1.0607132	một lùi sáu
-0.97004694	bảy lùi sáu
-0.9543951	tịnh lùi sáu
-0.9543951	bộ lùi sáu
-0.9543951	xe lùi sáu
-0.9543951	mã lùi sáu
-0.9543951	pháo lùi sáu
-1.3017548	sĩ chiếu sáu
-1.3011024	dưới chiếu sáu
-1.3011024	sau chiếu sáu
-1.3010411	năm chiếu sáu
-1.3011024	trên chiếu sáu
-1.3011024	trước chiếu sáu
-1.3010411	sáu chiếu sáu
-1.3010411	bốn chiếu sáu
-1.3011024	trái chiếu sáu
-1.3011024	phải chiếu sáu
-1.3017548	tượng chiếu sáu
-1.3010421	hai chiếu sáu
-1.3010421	ba chiếu sáu
-1.3010421	chín chiếu sáu
-1.3010421	tám chiếu sáu
-1.3010421	một chiếu sáu
-1.3010421	bảy chiếu sáu
-1.3017548	tịnh chiếu sáu
-1.3017548	bộ chiếu sáu
-1.3017548	xe chiếu sáu
-1.3017548	mã chiếu sáu
-1.3017548	pháo chiếu sáu
-1.3017548	tốt chiếu sáu
-1.3010645	giữa chiếu sáu
-1.3017548	binh chiếu sáu
-1.3017548	chốt chiếu sáu
-0.6226984	<s> tướng bốn
-1.0000104	chiếu tướng bốn
-1.4025935	<s> sĩ bốn
-1.3428129	ăn sĩ bốn
-1.3428129	bắt sĩ bốn
-0.62330866	sĩ dưới bốn
-1.0211917	tượng dưới bốn
-1.0211917	tịnh dưới bốn
-1.0211917	bộ dưới bốn
-1.0007211	xe dưới bốn
-0.9945389	mã dưới bốn
-1.0007211	pháo dưới bốn
-1.3107924	tốt dưới bốn
-1.3107924	binh dưới bốn
-1.3107924	chốt dưới bốn
-0.62330866	sĩ sau bốn
-1.0211917	tượng sau bốn
-1.0211917	tịnh sau bốn
-1.0211917	bộ sau bốn
-1.0007211	xe sau bốn
-0.9945389	mã sau bốn
-1.0007211	pháo sau bốn
-1.3107924	tốt sau bốn
-1.3107924	binh sau bốn
-1.3107924	chốt sau bốn
-0.62330866	sĩ trên bốn
-1.0211917	tượng trên bốn
-1.0211917	tịnh trên bốn
-1.0211917	bộ trên bốn
-1.0007211	xe trên bốn
-0.9945389	mã trên bốn
-1.0007211	pháo trên bốn
-1.3107924	tốt trên bốn
-1.3107924	binh trên bốn
-1.3107924	chốt trên bốn
-0.62330866	sĩ trước bốn
-1.0211917	tượng trước bốn
-1.0211917	tịnh trước bốn
-1.0211917	bộ trước bốn
-1.0007211	xe trước bốn
-0.9945389	mã trước bốn
-1.0007211	pháo trước bốn
-1.3107924	tốt trước bốn
-1.3107924	binh trước bốn
-1.3107924	chốt trước bốn
-1.7682157	<s> tượng bốn
-1.7162511	ăn tượng bốn
-1.7162511	bắt tượng bốn
-1.7682157	<s> tịnh bốn
-1.7162511	ăn tịnh bốn
-1.7162511	bắt tịnh bốn
-1.7682157	<s> bộ bốn
-1.7162511	ăn bộ bốn
-1.7162511	bắt bộ bốn
-1.7170913	<s> xe bốn
-1.7162591	ăn xe bốn
-1.7162591	bắt xe bốn
-1.7225108	<s> mã bốn
-1.7162511	ăn mã bốn
-1.7162511	bắt mã bốn
-1.7170913	<s> pháo bốn
-1.7162591	ăn pháo bốn
-1.7162591	bắt pháo bốn
-1.9893825	<s> tốt bốn
-2.0172513	ăn tốt bốn
-2.0172513	bắt tốt bốn
-1.009769	dưới giữa bốn
-1.009769	sau giữa bốn
-1.009769	trên giữa bốn
-1.009769	trước giữa bốn
-1.0097872	tốt giữa bốn
-1.0097872	binh giữa bốn
-1.0097872	chốt giữa bốn
-1.9893825	<s> binh bốn
-2.0172513	ăn binh bốn
-2.0172513	bắt binh bốn
-1.9893825	<s> chốt bốn
-2.0172513	ăn chốt bốn
-2.0172513	bắt chốt bốn
-0.6226984	<s> soái bốn
-0.4794443	sĩ tiến bốn
-0.95426	dưới tiến bốn
-0.95426	sau tiến bốn
-1.1097549	năm tiến bốn
-0.95426	trên tiến bốn
-0.95426	trước tiến bốn
-0.84302914	sáu tiến bốn
-1.3201586	bốn tiến bốn
-0.95426	trái tiến bốn
-0.95426	phải tiến bốn
-0.95467883	tượng tiến bốn
-0.7781553	hai tiến bốn
-1.124947	ba tiến bốn
-1.2430503	chín tiến bốn
-1.2552848	tám tiến bốn
-1.2430503	một tiến bốn
-1.3010423	bảy tiến bốn
-0.95467883	tịnh tiến bốn
-0.95467883	bộ tiến bốn
-0.95467883	xe tiến bốn
-0.95467883	mã tiến bốn
-0.95467883	pháo tiến bốn
-0.4794443	sĩ tấn bốn
-0.95426	dưới tấn bốn
-0.95426	sau tấn bốn
-1.1097549	năm tấn bốn
-0.95426	trên tấn bốn
-0.95426	trước tấn bốn
-0.84302914	sáu tấn bốn
-1.3201586	bốn tấn bốn
-0.95426	trái tấn bốn
-0.95426	phải tấn bốn
-0.95467883	tượng tấn bốn
-0.7781553	hai tấn bốn
-1.124947	ba tấn bốn
-1.2430503	chín tấn bốn
-1.2552848	tám tấn bốn
-1.2430503	một tấn bốn
-1.3010423	bảy tấn bốn
-0.95467883	tịnh tấn bốn
-0.95467883	bộ tấn bốn
-0.95467883	xe tấn bốn
-0.95467883	mã tấn bốn
-0.95467883	pháo tấn bốn
-0.47927964	tướng bình bốn
-0.95423144	dưới bình bốn
-0.95423144	sau bình bốn
-0.5351206	năm bình bốn
-0.95423144	trên bình bốn
-0.95423144	trước bình bốn
-1.1523197	sáu bình bốn
-0.95423144	trái bình bốn
-0.95423144	phải bình bốn
-1.1461593	hai bình bốn
-0.54407585	ba bình bốn
-1.0414239	chín bình bốn
-1.1461593	tám bình bốn
-1.0414239	một bình bốn
-1.1461593	bảy bình bốn
-0.95418715	xe bình bốn
-0.95418715	pháo bình bốn
-0.95418715	tốt bình bốn
-0.95423985	giữa bình bốn
-0.95418715	binh bình bốn
-0.95418715	chốt bình bốn
-0.47927964	soái bình bốn
-0.4793493	sĩ thoái bốn
-0.9107986	dưới thoái bốn
-0.9107986	sau thoái bốn
-0.9602209	năm thoái bốn
-0.9107986	trên thoái bốn
-0.9107986	trước thoái bốn
-0.69605863	sáu thoái bốn
-1.173167	bốn thoái bốn
-0.9107986	trái thoái bốn
-0.9107986	phải thoái bốn
-0.9543951	tượng thoái bốn
-0.6020651	hai thoái bốn
-0.97004694	ba thoái bốn
-1.0607132	chín thoái bốn
-1.0791965	tám thoái bốn
-1.0607132	một thoái bốn
-1.1461433	bảy thoái bốn
-0.9543951	tịnh thoái bốn
-0.9543951	bộ thoái bốn
-0.9543951	xe thoái bốn
-0.9543951	mã thoái bốn
-0.9543951	pháo thoái bốn
-0.4793493	sĩ lùi bốn
-0.9107986	dưới lùi bốn
-0.9107986	sau lùi bốn
-0.9602209	năm lùi bốn
-0.9107986	trên lùi bốn
-0.9107986	trước lùi bốn
-0.69605863	sáu lùi bốn
-1.173167	bốn lùi bốn
-0.9107986	trái lùi bốn
-0.9107986	phải lùi bốn
-0.9543951	tượng lùi bốn
-0.6020651	hai lùi bốn
-0.97004694	ba lùi bốn
-1.0607132	chín lùi bốn
-1.0791965	tám lùi bốn
-1.0607132	một lùi bốn
-1.1461433	bảy lùi bốn
-0.9543951	tịnh lùi bốn
-0.9543951	bộ lùi bốn
-0.9543951	xe lùi bốn
-0.9543951	mã lùi bốn
-0.9543951	pháo lùi bốn
-1.3017548	sĩ chiếu bốn
-1.3011024	dưới chiếu bốn
-1.3011024	sau chiếu bốn
-1.3010411	năm chiếu bốn
-1.3011024	trên chiếu bốn
-1.3011024	trước chiếu bốn
-1.3010411	sáu chiếu bốn
-1.3010411	bốn chiếu bốn
-1.3011024	trái chiếu bốn
-1.3011024	phải chiếu bốn
-1.3017548	tượng chiếu bốn
-1.3010421	hai chiếu bốn
-1.3010421	ba chiếu bốn
-1.3010421	chín chiếu bốn
-1.3010421	tám chiếu bốn
-1.3010421	một chiếu bốn
-1.3010421	bảy chiếu bốn
-1.3017548	tịnh chiếu bốn
-1.3017548	bộ chiếu bốn
-1.3017548	xe chiếu bốn
-1.3017548	mã chiếu bốn
-1.3017548	pháo chiếu bốn
-1.3017548	tốt chiếu bốn
-1.3010645	giữa chiếu bốn
-1.3017548	binh chiếu bốn
-1.3017548	chốt chiếu bốn
-1.2000332	<s> sĩ trái
-1.3429227	ăn sĩ trái
-1.3429227	bắt sĩ trái
-1.3526516	<s> tượng trái
-1.7164268	ăn tượng trái
-1.7164268	bắt tượng trái
-1.3526516	<s> tịnh trái
-1.7164268	ăn tịnh trái
-1.7164268	bắt tịnh trái
-1.3526516	<s> bộ trái
-1.7164268	ăn bộ trái
-1.7164268	bắt bộ trái
-1.7090579	<s> xe trái
-1.716435	ăn xe trái
-1.716435	bắt xe trái
-1.470759	<s> mã trái
-1.7164268	ăn mã trái
-1.7164268	bắt mã trái
-1.7090579	<s> pháo trái
-1.716435	ăn pháo trái
-1.716435	bắt pháo trái
-1.5790058	<s> tốt trái
-1.7162056	ăn tốt trái
-1.7162056	bắt tốt trái
-1.5790058	<s> binh trái
-1.7162056	ăn binh trái
-1.7162056	bắt binh trái
-1.5790058	<s> chốt trái
-1.7162056	ăn chốt trái
-1.7162056	bắt chốt trái
-1.2000332	<s> sĩ phải
-1.3429227	ăn sĩ phải
-1.3429227	bắt sĩ phải
-1.3526516	<s> tượng phải
-1.7164268	ăn tượng phải
-1.7164268	bắt tượng phải
-1.3526516	<s> tịnh phải
-1.7164268	ăn tịnh phải
-1.7164268	bắt tịnh phải
-1.3526516	<s> bộ phải
-1.7164268	ăn bộ phải
-1.7164268	bắt bộ phải
-1.7090579	<s> xe phải
-1.716435	ăn xe phải
-1.716435	bắt xe phải
-1.470759	<s> mã phải
-1.7164268	ăn mã phải
-1.7164268	bắt mã phải
-1.7090579	<s> pháo phải
-1.716435	ăn pháo phải
-1.716435	bắt pháo phải
-1.5790058	<s> tốt phải
-1.7162056	ăn tốt phải
-1.7162056	bắt tốt phải
-1.5790058	<s> binh phải
-1.7162056	ăn binh phải
-1.7162056	bắt binh phải
-1.5790058	<s> chốt phải
-1.7162056	ăn chốt phải
-1.7162056	bắt chốt phải
-1.0948708	tướng ăn tượng
-1.0948708	sĩ ăn tượng
-1.0942934	dưới ăn tượng
-1.0942934	sau ăn tượng
-1.0942388	năm ăn tượng
-1.0942934	trên ăn tượng
-1.0942934	trước ăn tượng
-1.0942388	sáu ăn tượng
-1.0942388	bốn ăn tượng
-1.0942934	trái ăn tượng
-1.0942934	phải ăn tượng
-1.0948708	tượng ăn tượng
-1.0942398	hai ăn tượng
-1.0942398	ba ăn tượng
-1.0942398	chín ăn tượng
-1.0942398	tám ăn tượng
-1.0942398	một ăn tượng
-1.0942398	bảy ăn tượng
-1.0948708	tịnh ăn tượng
-1.0948708	bộ ăn tượng
-1.0948708	xe ăn tượng
-1.0948708	mã ăn tượng
-1.0948708	pháo ăn tượng
-1.0948708	tốt ăn tượng
-1.0942597	giữa ăn tượng
-1.0948708	binh ăn tượng
-1.0948708	chốt ăn tượng
-1.0948708	soái ăn tượng
-1.0948708	tướng bắt tượng
-1.0948708	sĩ bắt tượng
-1.0942934	dưới bắt tượng
-1.0942934	sau bắt tượng
-1.0942388	năm bắt tượng
-1.0942934	trên bắt tượng
-1.0942934	trước bắt tượng
-1.0942388	sáu bắt tượng
-1.0942388	bốn bắt tượng
-1.0942934	trái bắt tượng
-1.0942934	phải bắt tượng
-1.0948708	tượng bắt tượng
-1.0942398	hai bắt tượng
-1.0942398	ba bắt tượng
-1.0942398	chín bắt tượng
-1.0942398	tám bắt tượng
-1.0942398	một bắt tượng
-1.0942398	bảy bắt tượng
-1.0948708	tịnh bắt tượng
-1.0948708	bộ bắt tượng
-1.0948708	xe bắt tượng
-1.0948708	mã bắt tượng
-1.0948708	pháo bắt tượng
-1.0948708	tốt bắt tượng
-1.0942597	giữa bắt tượng
-1.0948708	binh bắt tượng
-1.0948708	chốt bắt tượng
-1.0948708	soái bắt tượng
-1.0000193	chiếu tướng hai
-1.1003916	tượng dưới hai
-1.1003916	tịnh dưới hai
-1.1003916	bộ dưới hai
-1.0007275	xe dưới hai
-1.0525441	mã dưới hai
-1.0007275	pháo dưới hai
-1.310809	tốt dưới hai
-1.310809	binh dưới hai
-1.310809	chốt dưới hai
-1.1003916	tượng sau hai
-1.1003916	tịnh sau hai
-1.1003916	bộ sau hai
-1.0007275	xe sau hai
-1.0525441	mã sau hai
-1.0007275	pháo sau hai
-1.310809	tốt sau hai
-1.310809	binh sau hai
-1.310809	chốt sau hai
-1.1003916	tượng trên hai
-1.1003916	tịnh trên hai
-1.1003916	bộ trên hai
-1.0007275	xe trên hai
-1.0525441	mã trên hai
-1.0007275	pháo trên hai
-1.310809	tốt trên hai
-1.310809	binh trên hai
-1.310809	chốt trên hai
-1.1003916	tượng trước hai
-1.1003916	tịnh trước hai
-1.1003916	bộ trước hai
-1.0007275	xe trước hai
-1.0525441	mã trước hai
-1.0007275	pháo trước hai
-1.310809	tốt trước hai
-1.310809	binh trước hai
-1.310809	chốt trước hai
-1.881222	<s> tượng hai
-1.7162781	ăn tượng hai
-1.7162781	bắt tượng hai
-1.881222	<s> tịnh hai
-1.7162781	ăn tịnh hai
-1.7162781	bắt tịnh hai
-1.881222	<s> bộ hai
-1.7162781	ăn bộ hai
-1.7162781	bắt bộ hai
-1.7170937	<s> xe hai
-1.7162862	ăn xe hai
-1.7162862	bắt xe hai
-1.7967443	<s> mã hai
-1.7162781	ăn mã hai
-1.7162781	bắt mã hai
-1.7170937	<s> pháo hai
-1.7162862	ăn pháo hai
-1.7162862	bắt pháo hai
-1.9893894	<s> tốt hai
-2.0172799	ăn tốt hai
-2.0172799	bắt tốt hai
-1.0097694	dưới giữa hai
-1.0097694	sau giữa hai
-1.0097694	trên giữa hai
-1.0097694	trước giữa hai
-1.0097888	tốt giữa hai
-1.0097888	binh giữa hai
-1.0097888	chốt giữa hai
-1.9893894	<s> binh hai
-2.0172799	ăn binh hai
-2.0172799	bắt binh hai
-1.9893894	<s> chốt hai
-2.0172799	ăn chốt hai
-2.0172799	bắt chốt hai
-1.0212358	dưới tiến hai
-1.0212358	sau tiến hai
-1.3138951	năm tiến hai
-1.0212358	trên tiến hai
-1.0212358	trước tiến hai
-1.3201742	sáu tiến hai
-0.8430343	bốn tiến hai
-1.0212358	trái tiến hai
-1.0212358	phải tiến hai
-0.9548196	tượng tiến hai
-1.2553004	hai tiến hai
-1.1249573	ba tiến hai
-1.243066	chín tiến hai
-1.2553004	tám tiến hai
-1.0669653	một tiến hai
-1.3010579	bảy tiến hai
-0.9548196	tịnh tiến hai
-0.9548196	bộ tiến hai
-0.9548196	xe tiến hai
-0.9548196	mã tiến hai
-0.9548196	pháo tiến hai
-1.0212358	dưới tấn hai
-1.0212358	sau tấn hai
-1.3138951	năm tấn hai
-1.0212358	trên tấn hai
-1.0212358	trước tấn hai
-1.3201742	sáu tấn hai
-0.8430343	bốn tấn hai
-1.0212358	trái tấn hai
-1.0212358	phải tấn hai
-0.9548196	tượng tấn hai
-1.2553004	hai tấn hai
-1.1249573	ba tấn hai
-1.243066	chín tấn hai
-1.2553004	tám tấn hai
-1.0669653	một tấn hai
-1.3010579	bảy tấn hai
-0.9548196	tịnh tấn hai
-0.9548196	bộ tấn hai
-0.9548196	xe tấn hai
-0.9548196	mã tấn hai
-0.9548196	pháo tấn hai
-0.95429593	dưới bình hai
-0.95429593	sau bình hai
-1.1584225	năm bình hai
-0.95429593	trên bình hai
-0.95429593	trước bình hai
-1.1523483	sáu bình hai
-1.1523483	bốn bình hai
-0.95429593	trái bình hai
-0.95429593	phải bình hai
-0.544083	ba bình hai
-1.0414526	chín bình hai
-1.146188	tám bình hai
-0.43934768	một bình hai
-1.146188	bảy bình hai
-0.9545097	xe bình hai
-0.9545097	pháo bình hai
-0.9545097	tốt bình hai
-0.9542552	giữa bình hai
-0.9545097	binh bình hai
-0.9545097	chốt bình hai
-0.9777748	dưới thoái hai
-0.9777748	sau thoái hai
-1.1643509	năm thoái hai
-0.9777748	trên thoái hai
-0.9777748	trước thoái hai
-1.1731843	sáu thoái hai
-0.69606435	bốn thoái hai
-0.9777748	trái thoái hai
-0.9777748	phải thoái hai
-0.95454997	tượng thoái hai
-1.079212	hai thoái hai
-0.97005725	ba thoái hai
-1.0607285	chín thoái hai
-1.079212	tám thoái hai
-0.8846271	một thoái hai
-1.1461588	bảy thoái hai
-0.95454997	tịnh thoái hai
-0.95454997	bộ thoái hai
-0.95454997	xe thoái hai
-0.95454997	mã thoái hai
-0.95454997	pháo thoái hai
-0.9777748	dưới lùi hai
-0.9777748	sau lùi hai
-1.1643509	năm lùi hai
-0.9777748	trên lùi hai
-0.9777748	trước lùi hai
-1.1731843	sáu lùi hai
-0.69606435	bốn lùi hai
-0.9777748	trái lùi hai
-0.9777748	phải lùi hai
-0.95454997	tượng lùi hai
-1.079212	hai lùi hai
-0.97005725	ba lùi hai
-1.0607285	chín lùi hai
-1.079212	tám lùi hai
-0.8846271	một lùi hai
-1.1461588	bảy lùi hai
-0.95454997	tịnh lùi hai
-0.95454997	bộ lùi hai
-0.95454997	xe lùi hai
-0.95454997	mã lùi hai
-0.95454997	pháo lùi hai
-1.3018016	sĩ chiếu hai
-1.301107	dưới chiếu hai
-1.301107	sau chiếu hai
-1.3010418	năm chiếu hai
-1.301107	trên chiếu hai
-1.301107	trước chiếu hai
-1.3010418	sáu chiếu hai
-1.3010418	bốn chiếu hai
-1.301107	trái chiếu hai
-1.301107	phải chiếu hai
-1.3018016	tượng chiếu hai
-1.3010428	hai chiếu hai
-1.3010428	ba chiếu hai
-1.3010428	chín chiếu hai
-1.3010428	tám chiếu hai
-1.3010428	một chiếu hai
-1.3010428	bảy chiếu hai
-1.3018016	tịnh chiếu hai
-1.3018016	bộ chiếu hai
-1.3018016	xe chiếu hai
-1.3018016	mã chiếu hai
-1.3018016	pháo chiếu hai
-1.3018016	tốt chiếu hai
-1.3010668	giữa chiếu hai
-1.3018016	binh chiếu hai
-1.3018016	chốt chiếu hai
-1.0000193	chiếu tướng ba
-1.021207	tượng dưới ba
-1.021207	tịnh dưới ba
-1.021207	bộ dưới ba
-1.0007275	xe dưới ba
-0.99455035	mã dưới ba
-1.0007275	pháo dưới ba
-1.310809	tốt dưới ba
-1.310809	binh dưới ba
-1.310809	chốt dưới ba
-1.021207	tượng sau ba
-1.021207	tịnh sau ba
-1.021207	bộ sau ba
-1.0007275	xe sau ba
-0.99455035	mã sau ba
-1.0007275	pháo sau ba
-1.310809	tốt sau ba
-1.310809	binh sau ba
-1.310809	chốt sau ba
-1.021207	tượng trên ba
-1.021207	tịnh trên ba
-1.021207	bộ trên ba
-1.0007275	xe trên ba
-0.99455035	mã trên ba
-1.0007275	pháo trên ba
-1.310809	tốt trên ba
-1.310809	binh trên ba
-1.310809	chốt trên ba
-1.021207	tượng trước ba
-1.021207	tịnh trước ba
-1.021207	bộ trước ba
-1.0007275	xe trước ba
-0.99455035	mã trước ba
-1.0007275	pháo trước ba
-1.310809	tốt trước ba
-1.310809	binh trước ba
-1.310809	chốt trước ba
-1.7682226	<s> tượng ba
-1.7162781	ăn tượng ba
-1.7162781	bắt tượng ba
-1.7682226	<s> tịnh ba
-1.7162781	ăn tịnh ba
-1.7162781	bắt tịnh ba
-1.7682226	<s> bộ ba
-1.7162781	ăn bộ ba
-1.7162781	bắt bộ ba
-1.7170937	<s> xe ba
-1.7162862	ăn xe ba
-1.7162862	bắt xe ba
-1.7225156	<s> mã ba
-1.7162781	ăn mã ba
-1.7162781	bắt mã ba
-1.7170937	<s> pháo ba
-1.7162862	ăn pháo ba
-1.7162862	bắt pháo ba
-1.9893894	<s> tốt ba
-2.0172799	ăn tốt ba
-2.0172799	bắt tốt ba
-1.0097694	dưới giữa ba
-1.0097694	sau giữa ba
-1.0097694	trên giữa ba
-1.0097694	trước giữa ba
-1.0097888	tốt giữa ba
-1.0097888	binh giữa ba
-1.0097888	chốt giữa ba
-1.9893894	<s> binh ba
-2.0172799	ăn binh ba
-2.0172799	bắt binh ba
-1.9893894	<s> chốt ba
-2.0172799	ăn chốt ba
-2.0172799	bắt chốt ba
-1.0212358	dưới tiến ba
-1.0212358	sau tiến ba
-0.8367553	năm tiến ba
-1.0212358	trên tiến ba
-1.0212358	trước tiến ba
-1.3201742	sáu tiến ba
-1.1440736	bốn tiến ba
-1.0212358	trái tiến ba
-1.0212358	phải tiến ba
-0.9548196	tượng tiến ba
-1.0791999	hai tiến ba
-1.3010579	ba tiến ba
-1.243066	chín tiến ba
-1.2553004	tám tiến ba
-0.76592606	một tiến ba
-1.3010579	bảy tiến ba
-0.9548196	tịnh tiến ba
-0.9548196	bộ tiến ba
-0.9548196	xe tiến ba
-0.9548196	mã tiến ba
-0.9548196	pháo tiến ba
-1.0212358	dưới tấn ba
-1.0212358	sau tấn ba
-0.8367553	năm tấn ba
-1.0212358	trên tấn ba
-1.0212358	trước tấn ba
-1.3201742	sáu tấn ba
-1.1440736	bốn tấn ba
-1.0212358	trái tấn ba
-1.0212358	phải tấn ba
-0.9548196	tượng tấn ba
-1.0791999	hai tấn ba
-1.3010579	ba tấn ba
-1.243066	chín tấn ba
-1.2553004	tám tấn ba
-0.76592606	một tấn ba
-1.3010579	bảy tấn ba
-0.9548196	tịnh tấn ba
-0.9548196	bộ tấn ba
-0.9548196	xe tấn ba
-0.9548196	mã tấn ba
-0.9548196	pháo tấn ba
-0.95429593	dưới bình ba
-0.95429593	sau bình ba
-1.1584225	năm bình ba
-0.95429593	trên bình ba
-0.95429593	trước bình ba
-1.1523483	sáu bình ba
-0.5502434	bốn bình ba
-0.95429593	trái bình ba
-0.95429593	phải bình ba
-0.544083	hai bình ba
-1.0414526	chín bình ba
-1.146188	tám bình ba
-1.0414526	một bình ba
-1.146188	bảy bình ba
-0.9545097	xe bình ba
-0.9545097	pháo bình ba
-0.9545097	tốt bình ba
-0.9542552	giữa bình ba
-0.9545097	binh bình ba
-0.9545097	chốt bình ba
-0.9777748	dưới thoái ba
-0.9777748	sau thoái ba
-0.68723094	năm thoái ba
-0.9777748	trên thoái ba
-0.9777748	trước thoái ba
-1.1731843	sáu thoái ba
-0.9970937	bốn thoái ba
-0.9777748	trái thoái ba
-0.9777748	phải thoái ba
-0.95454997	tượng thoái ba
-0.9031105	hai thoái ba
-1.1461588	ba thoái ba
-1.0607285	chín thoái ba
-1.079212	tám thoái ba
-0.5835868	một thoái ba
-1.1461588	bảy thoái ba
-0.95454997	tịnh thoái ba
-0.95454997	bộ thoái ba
-0.95454997	xe thoái ba
-0.95454997	mã thoái ba
-0.95454997	pháo thoái ba
-0.9777748	dưới lùi ba
-0.9777748	sau lùi ba
-0.68723094	năm lùi ba
-0.9777748	trên lùi ba
-0.9777748	trước lùi ba
-1.1731843	sáu lùi ba
-0.9970937	bốn lùi ba
-0.9777748	trái lùi ba
-0.9777748	phải lùi ba
-0.95454997	tượng lùi ba
-0.9031105	hai lùi ba
-1.1461588	ba lùi ba
-1.0607285	chín lùi ba
-1.079212	tám lùi ba
-0.5835868	một lùi ba
-1.1461588	bảy lùi ba
-0.95454997	tịnh lùi ba
-0.95454997	bộ lùi ba
-0.95454997	xe lùi ba
-0.95454997	mã lùi ba
-0.95454997	pháo lùi ba
-1.3018016	sĩ chiếu ba
-1.301107	dưới chiếu ba
-1.301107	sau chiếu ba
-1.3010418	năm chiếu ba
-1.301107	trên chiếu ba
-1.301107	trước chiếu ba
-1.3010418	sáu chiếu ba
-1.3010418	bốn chiếu ba
-1.301107	trái chiếu ba
-1.301107	phải chiếu ba
-1.3018016	tượng chiếu ba
-1.3010428	hai chiếu ba
-1.3010428	ba chiếu ba
-1.3010428	chín chiếu ba
-1.3010428	tám chiếu ba
-1.3010428	một chiếu ba
-1.3010428	bảy chiếu ba
-1.3018016	tịnh chiếu ba
-1.3018016	bộ chiếu ba
-1.3018016	xe chiếu ba
-1.3018016	mã chiếu ba
-1.3018016	pháo chiếu ba
-1.3018016	tốt chiếu ba
-1.3010668	giữa chiếu ba
-1.3018016	binh chiếu ba
-1.3018016	chốt chiếu ba
-1.0000193	chiếu tướng chín
-1.1003916	tượng dưới chín
-1.1003916	tịnh dưới chín
-1.1003916	bộ dưới chín
-1.0007275	xe dưới chín
-1.1194935	mã dưới chín
-1.0007275	pháo dưới chín
-1.3310133	tốt dưới chín
-1.3310133	binh dưới chín
-1.3310133	chốt dưới chín
-1.1003916	tượng sau chín
-1.1003916	tịnh sau chín
-1.1003916	bộ sau chín
-1.0007275	xe sau chín
-1.1194935	mã sau chín
-1.0007275	pháo sau chín
-1.3310133	tốt sau chín
-1.3310133	binh sau chín
-1.3310133	chốt sau chín
-1.1003916	tượng trên chín
-1.1003916	tịnh trên chín
-1.1003916	bộ trên chín
-1.0007275	xe trên chín
-1.1194935	mã trên chín
-1.0007275	pháo trên chín
-1.3310133	tốt trên chín
-1.3310133	binh trên chín
-1.3310133	chốt trên chín
-1.1003916	tượng trước chín
-1.1003916	tịnh trước chín
-1.1003916	bộ trước chín
-1.0007275	xe trước chín
-1.1194935	mã trước chín
-1.0007275	pháo trước chín
-1.3310133	tốt trước chín
-1.3310133	binh trước chín
-1.3310133	chốt trước chín
-1.881222	<s> tượng chín
-1.7162781	ăn tượng chín
-1.7162781	bắt tượng chín
-1.881222	<s> tịnh chín
-1.7162781	ăn tịnh chín
-1.7162781	bắt tịnh chín
-1.881222	<s> bộ chín
-1.7162781	ăn bộ chín
-1.7162781	bắt bộ chín
-1.7170937	<s> xe chín
-1.7162862	ăn xe chín
-1.7162862	bắt xe chín
-1.88633	<s> mã chín
-1.7162781	ăn mã chín
-1.7162781	bắt mã chín
-1.7170937	<s> pháo chín
-1.7162862	ăn pháo chín
-1.7162862	bắt pháo chín
-2.0150042	<s> tốt chín
-2.0172799	ăn tốt chín
-2.0172799	bắt tốt chín
-1.0299733	dưới giữa chín
-1.0299733	sau giữa chín
-1.0299733	trên giữa chín
-1.0299733	trước giữa chín
-1.0299935	tốt giữa chín
-1.0299935	binh giữa chín
-1.0299935	chốt giữa chín
-2.0150042	<s> binh chín
-2.0172799	ăn binh chín
-2.0172799	bắt binh chín
-2.0150042	<s> chốt chín
-2.0172799	ăn chốt chín
-2.0172799	bắt chốt chín
-1.0212358	dưới tiến chín
-1.0212358	sau tiến chín
-1.3138951	năm tiến chín
-1.0212358	trên tiến chín
-1.0212358	trước tiến chín
-1.3201742	sáu tiến chín
-1.3201742	bốn tiến chín
-1.0212358	trái tiến chín
-1.0212358	phải tiến chín
-0.9548196	tượng tiến chín
-1.2553004	hai tiến chín
-1.3010579	ba tiến chín
-1.243066	chín tiến chín
-1.0791999	tám tiến chín
-1.243066	một tiến chín
-0.82391804	bảy tiến chín
-0.9548196	tịnh tiến chín
-0.9548196	bộ tiến chín
-0.9548196	xe tiến chín
-0.9548196	mã tiến chín
-0.9548196	pháo tiến chín
-1.0212358	dưới tấn chín
-1.0212358	sau tấn chín
-1.3138951	năm tấn chín
-1.0212358	trên tấn chín
-1.0212358	trước tấn chín
-1.3201742	sáu tấn chín
-1.3201742	bốn tấn chín
-1.0212358	trái tấn chín
-1.0212358	phải tấn chín
-0.9548196	tượng tấn chín
-1.2553004	hai tấn chín
-1.3010579	ba tấn chín
-1.243066	chín tấn chín
-1.0791999	tám tấn chín
-1.243066	một tấn chín
-0.82391804	bảy tấn chín
-0.9548196	tịnh tấn chín
-0.9548196	bộ tấn chín
-0.9548196	xe tấn chín
-0.9548196	mã tấn chín
-0.9548196	pháo tấn chín
-0.95429593	dưới bình chín
-0.95429593	sau bình chín
-1.1584225	năm bình chín
-0.95429593	trên bình chín
-0.95429593	trước bình chín
-1.1523483	sáu bình chín
-1.1523483	bốn bình chín
-0.95429593	trái bình chín
-0.95429593	phải bình chín
-1.146188	hai bình chín
-1.146188	ba bình chín
-0.544083	tám bình chín
-1.0414526	một bình chín
-1.146188	bảy bình chín
-0.9545097	xe bình chín
-0.9545097	pháo bình chín
-0.9545097	tốt bình chín
-0.9542552	giữa bình chín
-0.9545097	binh bình chín
-0.9545097	chốt bình chín
-0.9777748	dưới thoái chín
-0.9777748	sau thoái chín
-1.1643509	năm thoái chín
-0.9777748	trên thoái chín
-0.9777748	trước thoái chín
-1.1731843	sáu thoái chín
-1.1731843	bốn thoái chín
-0.9777748	trái thoái chín
-0.9777748	phải thoái chín
-0.95454997	tượng thoái chín
-1.079212	hai thoái chín
-1.1461588	ba thoái chín
-1.0607285	chín thoái chín
-0.9031105	tám thoái chín
-1.0607285	một thoái chín
-0.669017	bảy thoái chín
-0.95454997	tịnh thoái chín
-0.95454997	bộ thoái chín
-0.95454997	xe thoái chín
-0.95454997	mã thoái chín
-0.95454997	pháo thoái chín
-0.9777748	dưới lùi chín
-0.9777748	sau lùi chín
-1.1643509	năm lùi chín
-0.9777748	trên lùi chín
-0.9777748	trước lùi chín
-1.1731843	sáu lùi chín
-1.1731843	bốn lùi chín
-0.9777748	trái lùi chín
-0.9777748	phải lùi chín
-0.95454997	tượng lùi chín
-1.079212	hai lùi chín
-1.1461588	ba lùi chín
-1.0607285	chín lùi chín
-0.9031105	tám lùi chín
-1.0607285	một lùi chín
-0.669017	bảy lùi chín
-0.95454997	tịnh lùi chín
-0.95454997	bộ lùi chín
-0.95454997	xe lùi chín
-0.95454997	mã lùi chín
-0.95454997	pháo lùi chín
-1.3018016	sĩ chiếu chín
-1.301107	dưới chiếu chín
-1.301107	sau chiếu chín
-1.3010418	năm chiếu chín
-1.301107	trên chiếu chín
-1.301107	trước chiếu chín
-1.3010418	sáu chiếu chín
-1.3010418	bốn chiếu chín
-1.301107	trái chiếu chín
-1.301107	phải chiếu chín
-1.3018016	tượng chiếu chín
-1.3010428	hai chiếu chín
-1.3010428	ba chiếu chín
-1.3010428	chín chiếu chín
-1.3010428	tám chiếu chín
-1.3010428	một chiếu chín
-1.3010428	bảy chiếu chín
-1.3018016	tịnh chiếu chín
-1.3018016	bộ chiếu chín
-1.3018016	xe chiếu chín
-1.3018016	mã chiếu chín
-1.3018016	pháo chiếu chín
-1.3018016	tốt chiếu chín
-1.3010668	giữa chiếu chín
-1.3018016	binh chiếu chín
-1.3018016	chốt chiếu chín
-1.0000193	chiếu tướng tám
-1.1003916	tượng dưới tám
-1.1003916	tịnh dưới tám
-1.1003916	bộ dưới tám
-1.0007275	xe dưới tám
-1.0525441	mã dưới tám
-1.0007275	pháo dưới tám
-1.310809	tốt dưới tám
-1.310809	binh dưới tám
-1.310809	chốt dưới tám
-1.1003916	tượng sau tám
-1.1003916	tịnh sau tám
-1.1003916	bộ sau tám
-1.0007275	xe sau tám
-1.0525441	mã sau tám
-1.0007275	pháo sau tám
-1.310809	tốt sau tám
-1.310809	binh sau tám
-1.310809	chốt sau tám
-1.1003916	tượng trên tám
-1.1003916	tịnh trên tám
-1.1003916	bộ trên tám
-1.0007275	xe trên tám
-1.0525441	mã trên tám
-1.0007275	pháo trên tám
-1.310809	tốt trên tám
-1.310809	binh trên tám
-1.310809	chốt trên tám
-1.1003916	tượng trước tám
-1.1003916	tịnh trước tám
-1.1003916	bộ trước tám
-1.0007275	xe trước tám
-1.0525441	mã trước tám
-1.0007275	pháo trước tám
-1.310809	tốt trước tám
-1.310809	binh trước tám
-1.310809	chốt trước tám
-1.881222	<s> tượng tám
-1.7162781	ăn tượng tám
-1.7162781	bắt tượng tám
-1.881222	<s> tịnh tám
-1.7162781	ăn tịnh tám
-1.7162781	bắt tịnh tám
-1.881222	<s> bộ tám
-1.7162781	ăn bộ tám
-1.7162781	bắt bộ tám
-1.7170937	<s> xe tám
-1.7162862	ăn xe tám
-1.7162862	bắt xe tám
-1.7967443	<s> mã tám
-1.7162781	ăn mã tám
-1.7162781	bắt mã tám
-1.7170937	<s> pháo tám
-1.7162862	ăn pháo tám
-1.7162862	bắt pháo tám
-1.9893894	<s> tốt tám
-2.0172799	ăn tốt tám
-2.0172799	bắt tốt tám
-1.0097694	dưới giữa tám
-1.0097694	sau giữa tám
-1.0097694	trên giữa tám
-1.0097694	trước giữa tám
-1.0097888	tốt giữa tám
-1.0097888	binh giữa tám
-1.0097888	chốt giữa tám
-1.9893894	<s> binh tám
-2.0172799	ăn binh tám
-2.0172799	bắt binh tám
-1.9893894	<s> chốt tám
-2.0172799	ăn chốt tám
-2.0172799	bắt chốt tám
-1.0212358	dưới tiến tám
-1.0212358	sau tiến tám
-1.3138951	năm tiến tám
-1.0212358	trên tiến tám
-1.0212358	trước tiến tám
-0.8430343	sáu tiến tám
-1.3201742	bốn tiến tám
-1.0212358	trái tiến tám
-1.0212358	phải tiến tám
-0.9548196	tượng tiến tám
-1.2553004	hai tiến tám
-1.3010579	ba tiến tám
-1.0669653	chín tiến tám
-1.2553004	tám tiến tám
-1.243066	một tiến tám
-1.1249573	bảy tiến tám
-0.9548196	tịnh tiến tám
-0.9548196	bộ tiến tám
-0.9548196	xe tiến tám
-0.9548196	mã tiến tám
-0.9548196	pháo tiến tám
-1.0212358	dưới tấn tám
-1.0212358	sau tấn tám
-1.3138951	năm tấn tám
-1.0212358	trên tấn tám
-1.0212358	trước tấn tám
-0.8430343	sáu tấn tám
-1.3201742	bốn tấn tám
-1.0212358	trái tấn tám
-1.0212358	phải tấn tám
-0.9548196	tượng tấn tám
-1.2553004	hai tấn tám
-1.3010579	ba tấn tám
-1.0669653	chín tấn tám
-1.2553004	tám tấn tám
-1.243066	một tấn tám
-1.1249573	bảy tấn tám
-0.9548196	tịnh tấn tám
-0.9548196	bộ tấn tám
-0.9548196	xe tấn tám
-0.9548196	mã tấn tám
-0.9548196	pháo tấn tám
-0.95429593	dưới bình tám
-0.95429593	sau bình tám
-1.1584225	năm bình tám
-0.95429593	trên bình tám
-0.95429593	trước bình tám
-1.1523483	sáu bình tám
-1.1523483	bốn bình tám
-0.95429593	trái bình tám
-0.95429593	phải bình tám
-1.146188	hai bình tám
-1.146188	ba bình tám
-0.43934768	chín bình tám
-1.0414526	một bình tám
-0.544083	bảy bình tám
-0.9545097	xe bình tám
-0.9545097	pháo bình tám
-0.9545097	tốt bình tám
-0.9542552	giữa bình tám
-0.9545097	binh bình tám
-0.9545097	chốt bình tám
-0.9777748	dưới thoái tám
-0.9777748	sau thoái tám
-1.1643509	năm thoái tám
-0.9777748	trên thoái tám
-0.9777748	trước thoái tám
-0.69606435	sáu thoái tám
-1.1731843	bốn thoái tám
-0.9777748	trái thoái tám
-0.9777748	phải thoái tám
-0.95454997	tượng thoái tám
-1.079212	hai thoái tám
-1.1461588	ba thoái tám
-0.8846271	chín thoái tám
-1.079212	tám thoái tám
-1.0607285	một thoái tám
-0.97005725	bảy thoái tám
-0.95454997	tịnh thoái tám
-0.95454997	bộ thoái tám
-0.95454997	xe thoái tám
-0.95454997	mã thoái tám
-0.95454997	pháo thoái tám
-0.9777748	dưới lùi tám
-0.9777748	sau lùi tám
-1.1643509	năm lùi tám
-0.9777748	trên lùi tám
-0.9777748	trước lùi tám
-0.69606435	sáu lùi tám
-1.1731843	bốn lùi tám
-0.9777748	trái lùi tám
-0.9777748	phải lùi tám
-0.95454997	tượng lùi tám
-1.079212	hai lùi tám
-1.1461588	ba lùi tám
-0.8846271	chín lùi tám
-1.079212	tám lùi tám
-1.0607285	một lùi tám
-0.97005725	bảy lùi tám
-0.95454997	tịnh lùi tám
-0.95454997	bộ lùi tám
-0.95454997	xe lùi tám
-0.95454997	mã lùi tám
-0.95454997	pháo lùi tám
-1.3018016	sĩ chiếu tám
-1.301107	dưới chiếu tám
-1.301107	sau chiếu tám
-1.3010418	năm chiếu tám
-1.301107	trên chiếu tám
-1.301107	trước chiếu tám
-1.3010418	sáu chiếu tám
-1.3010418	bốn chiếu tám
-1.301107	trái chiếu tám
-1.301107	phải chiếu tám
-1.3018016	tượng chiếu tám
-1.3010428	hai chiếu tám
-1.3010428	ba chiếu tám
-1.3010428	chín chiếu tám
-1.3010428	tám chiếu tám
-1.3010428	một chiếu tám
-1.3010428	bảy chiếu tám
-1.3018016	tịnh chiếu tám
-1.3018016	bộ chiếu tám
-1.3018016	xe chiếu tám
-1.3018016	mã chiếu tám
-1.3018016	pháo chiếu tám
-1.3018016	tốt chiếu tám
-1.3010668	giữa chiếu tám
-1.3018016	binh chiếu tám
-1.3018016	chốt chiếu tám
-1.0000193	chiếu tướng một
-1.1003916	tượng dưới một
-1.1003916	tịnh dưới một
-1.1003916	bộ dưới một
-1.0007275	xe dưới một
-1.1194935	mã dưới một
-1.0007275	pháo dưới một
-1.3310133	tốt dưới một
-1.3310133	binh dưới một
-1.3310133	chốt dưới một
-1.1003916	tượng sau một
-1.1003916	tịnh sau một
-1.1003916	bộ sau một
-1.0007275	xe sau một
-1.1194935	mã sau một
-1.0007275	pháo sau một
-1.3310133	tốt sau một
-1.3310133	binh sau một
-1.3310133	chốt sau một
-1.1003916	tượng trên một
-1.1003916	tịnh trên một
-1.1003916	bộ trên một
-1.0007275	xe trên một
-1.1194935	mã trên một
-1.0007275	pháo trên một
-1.3310133	tốt trên một
-1.3310133	binh trên một
-1.3310133	chốt trên một
-1.1003916	tượng trước một
-1.1003916	tịnh trước một
-1.1003916	bộ trước một
-1.0007275	xe trước một
-1.1194935	mã trước một
-1.0007275	pháo trước một
-1.3310133	tốt trước một
-1.3310133	binh trước một
-1.3310133	chốt trước một
-1.881222	<s> tượng một
-1.7162781	ăn tượng một
-1.7162781	bắt tượng một
-1.881222	<s> tịnh một
-1.7162781	ăn tịnh một
-1.7162781	bắt tịnh một
-1.881222	<s> bộ một
-1.7162781	ăn bộ một
-1.7162781	bắt bộ một
-1.7170937	<s> xe một
-1.7162862	ăn xe một
-1.7162862	bắt xe một
-1.88633	<s> mã một
-1.7162781	ăn mã một
-1.7162781	bắt mã một
-1.7170937	<s> pháo một
-1.7162862	ăn pháo một
-1.7162862	bắt pháo một
-2.0150042	<s> tốt một
-2.0172799	ăn tốt một
-2.0172799	bắt tốt một
-1.0299733	dưới giữa một
-1.0299733	sau giữa một
-1.0299733	trên giữa một
-1.0299733	trước giữa một
-1.0299935	tốt giữa một
-1.0299935	binh giữa một
-1.0299935	chốt giữa một
-2.0150042	<s> binh một
-2.0172799	ăn binh một
-2.0172799	bắt binh một
-2.0150042	<s> chốt một
-2.0172799	ăn chốt một
-2.0172799	bắt chốt một
-0.3035202	tướng tiến một
-0.8450299	dưới tiến một
-0.8450299	sau tiến một
-0.6906034	năm tiến một
-0.8450299	trên tiến một
-0.8450299	trước tiến một
-0.69688237	sáu tiến một
-0.69688237	bốn tiến một
-0.8450299	trái tiến một
-0.8450299	phải tiến một
-0.95401615	tượng tiến một
-0.6020464	hai tiến một
-0.5228686	ba tiến một
-0.6409627	chín tiến một
-0.65319717	tám tiến một
-0.6409627	một tiến một
-0.69895464	bảy tiến một
-0.95401615	tịnh tiến một
-0.95401615	bộ tiến một
-0.95401615	xe tiến một
-0.95401615	mã tiến một
-0.95401615	pháo tiến một
-0.3035202	tốt tiến một
-0.30114827	giữa tiến một
-0.3035202	binh tiến một
-0.3035202	chốt tiến một
-0.3035202	soái tiến một
-0.3035202	tướng tấn một
-0.8450299	dưới tấn một
-0.8450299	sau tấn một
-0.6906034	năm tấn một
-0.8450299	trên tấn một
-0.8450299	trước tấn một
-0.69688237	sáu tấn một
-0.69688237	bốn tấn một
-0.8450299	trái tấn một
-0.8450299	phải tấn một
-0.95401615	tượng tấn một
-0.6020464	hai tấn một
-0.5228686	ba tấn một
-0.6409627	chín tấn một
-0.65319717	tám tấn một
-0.6409627	một tấn một
-0.69895464	bảy tấn một
-0.95401615	tịnh tấn một
-0.95401615	bộ tấn một
-0.95401615	xe tấn một
-0.95401615	mã tấn một
-0.95401615	pháo tấn một
-0.3035202	tốt tấn một
-0.30114827	giữa tấn một
-0.3035202	binh tấn một
-0.3035202	chốt tấn một
-0.3035202	soái tấn một
-0.95429593	dưới bình một
-0.95429593	sau bình một
-1.1584225	năm bình một
-0.95429593	trên bình một
-0.95429593	trước bình một
-1.1523483	sáu bình một
-1.1523483	bốn bình một
-0.95429593	trái bình một
-0.95429593	phải bình một
-0.544083	hai bình một
-1.146188	ba bình một
-1.0414526	chín bình một
-1.146188	tám bình một
-1.146188	bảy bình một
-0.9545097	xe bình một
-0.9545097	pháo bình một
-0.9545097	tốt bình một
-0.9542552	giữa bình một
-0.9545097	binh bình một
-0.9545097	chốt bình một
-0.30357364	tướng thoái một
-0.97772574	dưới thoái một
-0.97772574	sau thoái một
-1.0851426	năm thoái một
-0.97772574	trên thoái một
-0.97772574	trước thoái một
-1.093976	sáu thoái một
-1.093976	bốn thoái một
-0.97772574	trái thoái một
-0.97772574	phải thoái một
-0.9542553	tượng thoái một
-0.90309083	hai thoái một
-0.6690072	ba thoái một
-1.0606991	chín thoái một
-1.0791825	tám thoái một
-1.0606991	một thoái một
-1.1461294	bảy thoái một
-0.9542553	tịnh thoái một
-0.9542553	bộ thoái một
-0.9542553	xe thoái một
-0.9542553	mã thoái một
-0.9542553	pháo thoái một
-0.30357364	soái thoái một
-0.30357364	tướng lùi một
-0.97772574	dưới lùi một
-0.97772574	sau lùi một
-1.0851426	năm lùi một
-0.97772574	trên lùi một
-0.97772574	trước lùi một
-1.093976	sáu lùi một
-1.093976	bốn lùi một
-0.97772574	trái lùi một
-0.97772574	phải lùi một
-0.9542553	tượng lùi một
-0.90309083	hai lùi một
-0.6690072	ba lùi một
-1.0606991	chín lùi một
-1.0791825	tám lùi một
-1.0606991	một lùi một
-1.1461294	bảy lùi một
-0.9542553	tịnh lùi một
-0.9542553	bộ lùi một
-0.9542553	xe lùi một
-0.9542553	mã lùi một
-0.9542553	pháo lùi một
-0.30357364	soái lùi một
-1.3018016	sĩ chiếu một
-1.301107	dưới chiếu một
-1.301107	sau chiếu một
-1.3010418	năm chiếu một
-1.301107	trên chiếu một
-1.301107	trước chiếu một
-1.3010418	sáu chiếu một
-1.3010418	bốn chiếu một
-1.301107	trái chiếu một
-1.301107	phải chiếu một
-1.3018016	tượng chiếu một
-1.3010428	hai chiếu một
-1.3010428	ba chiếu một
-1.3010428	chín chiếu một
-1.3010428	tám chiếu một
-1.3010428	một chiếu một
-1.3010428	bảy chiếu một
-1.3018016	tịnh chiếu một
-1.3018016	bộ chiếu một
-1.3018016	xe chiếu một
-1.3018016	mã chiếu một
-1.3018016	pháo chiếu một
-1.3018016	tốt chiếu một
-1.3010668	giữa chiếu một
-1.3018016	binh chiếu một
-1.3018016	chốt chiếu một
-1.0000193	chiếu tướng bảy
-1.021207	tượng dưới bảy
-1.021207	tịnh dưới bảy
-1.021207	bộ dưới bảy
-1.0007275	xe dưới bảy
-0.99455035	mã dưới bảy
-1.0007275	pháo dưới bảy
-1.310809	tốt dưới bảy
-1.310809	binh dưới bảy
-1.310809	chốt dưới bảy
-1.021207	tượng sau bảy
-1.021207	tịnh sau bảy
-1.021207	bộ sau bảy
-1.0007275	xe sau bảy
-0.99455035	mã sau bảy
-1.0007275	pháo sau bảy
-1.310809	tốt sau bảy
-1.310809	binh sau bảy
-1.310809	chốt sau bảy
-1.021207	tượng trên bảy
-1.021207	tịnh trên bảy
-1.021207	bộ trên bảy
-1.0007275	xe trên bảy
-0.99455035	mã trên bảy
-1.0007275	pháo trên bảy
-1.310809	tốt trên bảy
-1.310809	binh trên bảy
-1.310809	chốt trên bảy
-1.021207	tượng trước bảy
-1.021207	tịnh trước bảy
-1.021207	bộ trước bảy
-1.0007275	xe trước bảy
-0.99455035	mã trước bảy
-1.0007275	pháo trước bảy
-1.310809	tốt trước bảy
-1.310809	binh trước bảy
-1.310809	chốt trước bảy
-1.7682226	<s> tượng bảy
-1.7162781	ăn tượng bảy
-1.7162781	bắt tượng bảy
-1.7682226	<s> tịnh bảy
-1.7162781	ăn tịnh bảy
-1.7162781	bắt tịnh bảy
-1.7682226	<s> bộ bảy
-1.7162781	ăn bộ bảy
-1.7162781	bắt bộ bảy
-1.7170937	<s> xe bảy
-1.7162862	ăn xe bảy
-1.7162862	bắt xe bảy
-1.7225156	<s> mã bảy
-1.7162781	ăn mã bảy
-1.7162781	bắt mã bảy
-1.7170937	<s> pháo bảy
-1.7162862	ăn pháo bảy
-1.7162862	bắt pháo bảy
-1.9893894	<s> tốt bảy
-2.0172799	ăn tốt bảy
-2.0172799	bắt tốt bảy
-1.0097694	dưới giữa bảy
-1.0097694	sau giữa bảy
-1.0097694	trên giữa bảy
-1.0097694	trước giữa bảy
-1.0097888	tốt giữa bảy
-1.0097888	binh giữa bảy
-1.0097888	chốt giữa bảy
-1.9893894	<s> binh bảy
-2.0172799	ăn binh bảy
-2.0172799	bắt binh bảy
-1.9893894	<s> chốt bảy
-2.0172799	ăn chốt bảy
-2.0172799	bắt chốt bảy
-1.0212358	dưới tiến bảy
-1.0212358	sau tiến bảy
-0.8367553	năm tiến bảy
-1.0212358	trên tiến bảy
-1.0212358	trước tiến bảy
-1.1440736	sáu tiến bảy
-1.3201742	bốn tiến bảy
-1.0212358	trái tiến bảy
-1.0212358	phải tiến bảy
-0.9548196	tượng tiến bảy
-1.2553004	hai tiến bảy
-1.3010579	ba tiến bảy
-0.76592606	chín tiến bảy
-1.0791999	tám tiến bảy
-1.243066	một tiến bảy
-1.3010579	bảy tiến bảy
-0.9548196	tịnh tiến bảy
-0.9548196	bộ tiến bảy
-0.9548196	xe tiến bảy
-0.9548196	mã tiến bảy
-0.9548196	pháo tiến bảy
-1.0212358	dưới tấn bảy
-1.0212358	sau tấn bảy
-0.8367553	năm tấn bảy
-1.0212358	trên tấn bảy
-1.0212358	trước tấn bảy
-1.1440736	sáu tấn bảy
-1.3201742	bốn tấn bảy
-1.0212358	trái tấn bảy
-1.0212358	phải tấn bảy
-0.9548196	tượng tấn bảy
-1.2553004	hai tấn bảy
-1.3010579	ba tấn bảy
-0.76592606	chín tấn bảy
-1.0791999	tám tấn bảy
-1.243066	một tấn bảy
-1.3010579	bảy tấn bảy
-0.9548196	tịnh tấn bảy
-0.9548196	bộ tấn bảy
-0.9548196	xe tấn bảy
-0.9548196	mã tấn bảy
-0.9548196	pháo tấn bảy
-0.95429593	dưới bình bảy
-0.95429593	sau bình bảy
-1.1584225	năm bình bảy
-0.95429593	trên bình bảy
-0.95429593	trước bình bảy
-0.5502434	sáu bình bảy
-1.1523483	bốn bình bảy
-0.95429593	trái bình bảy
-0.95429593	phải bình bảy
-1.146188	hai bình bảy
-1.146188	ba bình bảy
-1.0414526	chín bình bảy
-0.544083	tám bình bảy
-1.0414526	một bình bảy
-0.9545097	xe bình bảy
-0.9545097	pháo bình bảy
-0.9545097	tốt bình bảy
-0.9542552	giữa bình bảy
-0.9545097	binh bình bảy
-0.9545097	chốt bình bảy
-0.9777748	dưới thoái bảy
-0.9777748	sau thoái bảy
-0.68723094	năm thoái bảy
-0.9777748	trên thoái bảy
-0.9777748	trước thoái bảy
-0.9970937	sáu thoái bảy
-1.1731843	bốn thoái bảy
-0.9777748	trái thoái bảy
-0.9777748	phải thoái bảy
-0.95454997	tượng thoái bảy
-1.079212	hai thoái bảy
-1.1461588	ba thoái bảy
-0.5835868	chín thoái bảy
-0.9031105	tám thoái bảy
-1.0607285	một thoái bảy
-1.1461588	bảy thoái bảy
-0.95454997	tịnh thoái bảy
-0.95454997	bộ thoái bảy
-0.95454997	xe thoái bảy
-0.95454997	mã thoái bảy
-0.95454997	pháo thoái bảy
-0.9777748	dưới lùi bảy
-0.9777748	sau lùi bảy
-0.68723094	năm lùi bảy
-0.9777748	trên lùi bảy
-0.9777748	trước lùi bảy
-0.9970937	sáu lùi bảy
-1.1731843	bốn lùi bảy
-0.9777748	trái lùi bảy
-0.9777748	phải lùi bảy
-0.95454997	tượng lùi bảy
-1.079212	hai lùi bảy
-1.1461588	ba lùi bảy
-0.5835868	chín lùi bảy
-0.9031105	tám lùi bảy
-1.0607285	một lùi bảy
-1.1461588	bảy lùi bảy
-0.95454997	tịnh lùi bảy
-0.95454997	bộ lùi bảy
-0.95454997	xe lùi bảy
-0.95454997	mã lùi bảy
-0.95454997	pháo lùi bảy
-1.3018016	sĩ chiếu bảy
-1.301107	dưới chiếu bảy
-1.301107	sau chiếu bảy
-1.3010418	năm chiếu bảy
-1.301107	trên chiếu bảy
-1.301107	trước chiếu bảy
-1.3010418	sáu chiếu bảy
-1.3010418	bốn chiếu bảy
-1.301107	trái chiếu bảy
-1.301107	phải chiếu bảy
-1.3018016	tượng chiếu bảy
-1.3010428	hai chiếu bảy
-1.3010428	ba chiếu bảy
-1.3010428	chín chiếu bảy
-1.3010428	tám chiếu bảy
-1.3010428	một chiếu bảy
-1.3010428	bảy chiếu bảy
-1.3018016	tịnh chiếu bảy
-1.3018016	bộ chiếu bảy
-1.3018016	xe chiếu bảy
-1.3018016	mã chiếu bảy
-1.3018016	pháo chiếu bảy
-1.3018016	tốt chiếu bảy
-1.3010668	giữa chiếu bảy
-1.3018016	binh chiếu bảy
-1.3018016	chốt chiếu bảy
-1.0948708	tướng ăn tịnh
-1.0948708	sĩ ăn tịnh
-1.0942934	dưới ăn tịnh
-1.0942934	sau ăn tịnh
-1.0942388	năm ăn tịnh
-1.0942934	trên ăn tịnh
-1.0942934	trước ăn tịnh
-1.0942388	sáu ăn tịnh
-1.0942388	bốn ăn tịnh
-1.0942934	trái ăn tịnh
-1.0942934	phải ăn tịnh
-1.0948708	tượng ăn tịnh
-1.0942398	hai ăn tịnh
-1.0942398	ba ăn tịnh
-1.0942398	chín ăn tịnh
-1.0942398	tám ăn tịnh
-1.0942398	một ăn tịnh
-1.0942398	bảy ăn tịnh
-1.0948708	tịnh ăn tịnh
-1.0948708	bộ ăn tịnh
-1.0948708	xe ăn tịnh
-1.0948708	mã ăn tịnh
-1.0948708	pháo ăn tịnh
-1.0948708	tốt ăn tịnh
-1.0942597	giữa ăn tịnh
-1.0948708	binh ăn tịnh
-1.0948708	chốt ăn tịnh
-1.0948708	soái ăn tịnh
-1.0948708	tướng bắt tịnh
-1.0948708	sĩ bắt tịnh
-1.0942934	dưới bắt tịnh
-1.0942934	sau bắt tịnh
-1.0942388	năm bắt tịnh
-1.0942934	trên bắt tịnh
-1.0942934	trước bắt tịnh
-1.0942388	sáu bắt tịnh
-1.0942388	bốn bắt tịnh
-1.0942934	trái bắt tịnh
-1.0942934	phải bắt tịnh
-1.0948708	tượng bắt tịnh
-1.0942398	hai bắt tịnh
-1.0942398	ba bắt tịnh
-1.0942398	chín bắt tịnh
-1.0942398	tám bắt tịnh
-1.0942398	một bắt tịnh
-1.0942398	bảy bắt tịnh
-1.0948708	tịnh bắt tịnh
-1.0948708	bộ bắt tịnh
-1.0948708	xe bắt tịnh
-1.0948708	mã bắt tịnh
-1.0948708	pháo bắt tịnh
-1.0948708	tốt bắt tịnh
-1.0942597	giữa bắt tịnh
-1.0948708	binh bắt tịnh
-1.0948708	chốt bắt tịnh
-1.0948708	soái bắt tịnh
-1.0948708	tướng ăn bộ
-1.0948708	sĩ ăn bộ
-1.0942934	dưới ăn bộ
-1.0942934	sau ăn bộ
-1.0942388	năm ăn bộ
-1.0942934	trên ăn bộ
-1.0942934	trước ăn bộ
-1.0942388	sáu ăn bộ
-1.0942388	bốn ăn bộ
-1.0942934	trái ăn bộ
-1.0942934	phải ăn bộ
-1.0948708	tượng ăn bộ
-1.0942398	hai ăn bộ
-1.0942398	ba ăn bộ
-1.0942398	chín ăn bộ
-1.0942398	tám ăn bộ
-1.0942398	một ăn bộ
-1.0942398	bảy ăn bộ
-1.0948708	tịnh ăn bộ
-1.0948708	bộ ăn bộ
-1.0948708	xe ăn bộ
-1.0948708	mã ăn bộ
-1.0948708	pháo ăn bộ
-1.0948708	tốt ăn bộ
-1.0942597	giữa ăn bộ
-1.0948708	binh ăn bộ
-1.0948708	chốt ăn bộ
-1.0948708	soái ăn bộ
-1.0948708	tướng bắt bộ
-1.0948708	sĩ bắt bộ
-1.0942934	dưới bắt bộ
-1.0942934	sau bắt bộ
-1.0942388	năm bắt bộ
-1.0942934	trên bắt bộ
-1.0942934	trước bắt bộ
-1.0942388	sáu bắt bộ
-1.0942388	bốn bắt bộ
-1.0942934	trái bắt bộ
-1.0942934	phải bắt bộ
-1.0948708	tượng bắt bộ
-1.0942398	hai bắt bộ
-1.0942398	ba bắt bộ
-1.0942398	chín bắt bộ
-1.0942398	tám bắt bộ
-1.0942398	một bắt bộ
-1.0942398	bảy bắt bộ
-1.0948708	tịnh bắt bộ
-1.0948708	bộ bắt bộ
-1.0948708	xe bắt bộ
-1.0948708	mã bắt bộ
-1.0948708	pháo bắt bộ
-1.0948708	tốt bắt bộ
-1.0942597	giữa bắt bộ
-1.0948708	binh bắt bộ
-1.0948708	chốt bắt bộ
-1.0948708	soái bắt bộ
-1.0948708	tướng ăn xe
-1.0948708	sĩ ăn xe
-1.0942934	dưới ăn xe
-1.0942934	sau ăn xe
-1.0942388	năm ăn xe
-1.0942934	trên ăn xe
-1.0942934	trước ăn xe
-1.0942388	sáu ăn xe
-1.0942388	bốn ăn xe
-1.0942934	trái ăn xe
-1.0942934	phải ăn xe
-1.0948708	tượng ăn xe
-1.0942398	hai ăn xe
-1.0942398	ba ăn xe
-1.0942398	chín ăn xe
-1.0942398	tám ăn xe
-1.0942398	một ăn xe
-1.0942398	bảy ăn xe
-1.0948708	tịnh ăn xe
-1.0948708	bộ ăn xe
-1.0948708	xe ăn xe
-1.0948708	mã ăn xe
-1.0948708	pháo ăn xe
-1.0948708	tốt ăn xe
-1.0942597	giữa ăn xe
-1.0948708	binh ăn xe
-1.0948708	chốt ăn xe
-1.0948708	soái ăn xe
-1.0948708	tướng bắt xe
-1.0948708	sĩ bắt xe
-1.0942934	dưới bắt xe
-1.0942934	sau bắt xe
-1.0942388	năm bắt xe
-1.0942934	trên bắt xe
-1.0942934	trước bắt xe
-1.0942388	sáu bắt xe
-1.0942388	bốn bắt xe
-1.0942934	trái bắt xe
-1.0942934	phải bắt xe
-1.0948708	tượng bắt xe
-1.0942398	hai bắt xe
-1.0942398	ba bắt xe
-1.0942398	chín bắt xe
-1.0942398	tám bắt xe
-1.0942398	một bắt xe
-1.0942398	bảy bắt xe
-1.0948708	tịnh bắt xe
-1.0948708	bộ bắt xe
-1.0948708	xe bắt xe
-1.0948708	mã bắt xe
-1.0948708	pháo bắt xe
-1.0948708	tốt bắt xe
-1.0942597	giữa bắt xe
-1.0948708	binh bắt xe
-1.0948708	chốt bắt xe
-1.0948708	soái bắt xe
-1.0948708	tướng ăn mã
-1.0948708	sĩ ăn mã
-1.0942934	dưới ăn mã
-1.0942934	sau ăn mã
-1.0942388	năm ăn mã
-1.0942934	trên ăn mã
-1.0942934	trước ăn mã
-1.0942388	sáu ăn mã
-1.0942388	bốn ăn mã
-1.0942934	trái ăn mã
-1.0942934	phải ăn mã
-1.0948708	tượng ăn mã
-1.0942398	hai ăn mã
-1.0942398	ba ăn mã
-1.0942398	chín ăn mã
-1.0942398	tám ăn mã
-1.0942398	một ăn mã
-1.0942398	bảy ăn mã
-1.0948708	tịnh ăn mã
-1.0948708	bộ ăn mã
-1.0948708	xe ăn mã
-1.0948708	mã ăn mã
-1.0948708	pháo ăn mã
-1.0948708	tốt ăn mã
-1.0942597	giữa ăn mã
-1.0948708	binh ăn mã
-1.0948708	chốt ăn mã
-1.0948708	soái ăn mã
-1.0948708	tướng bắt mã
-1.0948708	sĩ bắt mã
-1.0942934	dưới bắt mã
-1.0942934	sau bắt mã
-1.0942388	năm bắt mã
-1.0942934	trên bắt mã
-1.0942934	trước bắt mã
-1.0942388	sáu bắt mã
-1.0942388	bốn bắt mã
-1.0942934	trái bắt mã
-1.0942934	phải bắt mã
-1.0948708	tượng bắt mã
-1.0942398	hai bắt mã
-1.0942398	ba bắt mã
-1.0942398	chín bắt mã
-1.0942398	tám bắt mã
-1.0942398	một bắt mã
-1.0942398	bảy bắt mã
-1.0948708	tịnh bắt mã
-1.0948708	bộ bắt mã
-1.0948708	xe bắt mã
-1.0948708	mã bắt mã
-1.0948708	pháo bắt mã
-1.0948708	tốt bắt mã
-1.0942597	giữa bắt mã
-1.0948708	binh bắt mã
-1.0948708	chốt bắt mã
-1.0948708	soái bắt mã
-1.0948708	tướng ăn pháo
-1.0948708	sĩ ăn pháo
-1.0942934	dưới ăn pháo
-1.0942934	sau ăn pháo
-1.0942388	năm ăn pháo
-1.0942934	trên ăn pháo
-1.0942934	trước ăn pháo
-1.0942388	sáu ăn pháo
-1.0942388	bốn ăn pháo
-1.0942934	trái ăn pháo
-1.0942934	phải ăn pháo
-1.0948708	tượng ăn pháo
-1.0942398	hai ăn pháo
-1.0942398	ba ăn pháo
-1.0942398	chín ăn pháo
-1.0942398	tám ăn pháo
-1.0942398	một ăn pháo
-1.0942398	bảy ăn pháo
-1.0948708	tịnh ăn pháo
-1.0948708	bộ ăn pháo
-1.0948708	xe ăn pháo
-1.0948708	mã ăn pháo
-1.0948708	pháo ăn pháo
-1.0948708	tốt ăn pháo
-1.0942597	giữa ăn pháo
-1.0948708	binh ăn pháo
-1.0948708	chốt ăn pháo
-1.0948708	soái ăn pháo
-1.0948708	tướng bắt pháo
-1.0948708	sĩ bắt pháo
-1.0942934	dưới bắt pháo
-1.0942934	sau bắt pháo
-1.0942388	năm bắt pháo
-1.0942934	trên bắt pháo
-1.0942934	trước bắt pháo
-1.0942388	sáu bắt pháo
-1.0942388	bốn bắt pháo
-1.0942934	trái bắt pháo
-1.0942934	phải bắt pháo
-1.0948708	tượng bắt pháo
-1.0942398	hai bắt pháo
-1.0942398	ba bắt pháo
-1.0942398	chín bắt pháo
-1.0942398	tám bắt pháo
-1.0942398	một bắt pháo
-1.0942398	bảy bắt pháo
-1.0948708	tịnh bắt pháo
-1.0948708	bộ bắt pháo
-1.0948708	xe bắt pháo
-1.0948708	mã bắt pháo
-1.0948708	pháo bắt pháo
-1.0948708	tốt bắt pháo
-1.0942597	giữa bắt pháo
-1.0948708	binh bắt pháo
-1.0948708	chốt bắt pháo
-1.0948708	soái bắt pháo
-0.7935199	tướng ăn tốt
-0.7935199	sĩ ăn tốt
-0.79323125	dưới ăn tốt
-0.79323125	sau ăn tốt
-0.79320395	năm ăn tốt
-0.79323125	trên ăn tốt
-0.79323125	trước ăn tốt
-0.79320395	sáu ăn tốt
-0.79320395	bốn ăn tốt
-0.79323125	trái ăn tốt
-0.79323125	phải ăn tốt
-0.7935199	tượng ăn tốt
-0.79320455	hai ăn tốt
-0.79320455	ba ăn tốt
-0.79320455	chín ăn tốt
-0.79320455	tám ăn tốt
-0.79320455	một ăn tốt
-0.79320455	bảy ăn tốt
-0.7935199	tịnh ăn tốt
-0.7935199	bộ ăn tốt
-0.7935199	xe ăn tốt
-0.7935199	mã ăn tốt
-0.7935199	pháo ăn tốt
-0.7935199	tốt ăn tốt
-0.79321444	giữa ăn tốt
-0.7935199	binh ăn tốt
-0.7935199	chốt ăn tốt
-0.7935199	soái ăn tốt
-0.7935199	tướng bắt tốt
-0.7935199	sĩ bắt tốt
-0.79323125	dưới bắt tốt
-0.79323125	sau bắt tốt
-0.79320395	năm bắt tốt
-0.79323125	trên bắt tốt
-0.79323125	trước bắt tốt
-0.79320395	sáu bắt tốt
-0.79320395	bốn bắt tốt
-0.79323125	trái bắt tốt
-0.79323125	phải bắt tốt
-0.7935199	tượng bắt tốt
-0.79320455	hai bắt tốt
-0.79320455	ba bắt tốt
-0.79320455	chín bắt tốt
-0.79320455	tám bắt tốt
-0.79320455	một bắt tốt
-0.79320455	bảy bắt tốt
-0.7935199	tịnh bắt tốt
-0.7935199	bộ bắt tốt
-0.7935199	xe bắt tốt
-0.7935199	mã bắt tốt
-0.7935199	pháo bắt tốt
-0.7935199	tốt bắt tốt
-0.79321444	giữa bắt tốt
-0.7935199	binh bắt tốt
-0.7935199	chốt bắt tốt
-0.7935199	soái bắt tốt
-0.30104163	tốt dưới giữa
-0.30104163	binh dưới giữa
-0.30104163	chốt dưới giữa
-0.30104163	tốt sau giữa
-0.30104163	binh sau giữa
-0.30104163	chốt sau giữa
-0.30104163	tốt trên giữa
-0.30104163	binh trên giữa
-0.30104163	chốt trên giữa
-0.30104163	tốt trước giữa
-0.30104163	binh trước giữa
