\data\
ngram 1=62
ngram 2=576
ngram 3=4313

\1-grams:
-2.7069032	<unk>	0
0	<s>	-4.9437594
-1.1965721	</s>	0
-2.431809	tướng	-0.30103
-1.4253429	năm	-0.95277774
-1.3190236	ăn	-1.2710668
-2.3402772	sĩ	-0.30103
-1.3190236	bắt	-1.2710668
-1.7767445	trước	-0.7652632
-1.4253429	bốn	-0.95277774
-1.7767445	sau	-0.7652632
-1.7767445	trái	-0.7377226
-1.7767445	trên	-0.7652632
-1.7767445	dưới	-0.7652632
-1.4253429	sáu	-0.95277774
-1.7767445	phải	-0.7377226
-2.3402772	tượng	-0.30103
-1.4674768	bảy	-0.8828866
-1.4674768	một	-0.8828866
-1.4674768	ba	-0.8828866
-1.4674768	hai	-0.8828866
-1.4674768	tám	-0.8828866
-1.4674768	chín	-0.8828866
-2.3402772	tịnh	-0.30103
-2.3402772	bộ	-0.30103
-2.3402772	xe	-0.30103
-2.3402772	mã	-0.30103
-2.3402772	pháo	-0.30103
-2.3402772	tốt	-0.30103
-1.8243539	giữa	-0.7201593
-2.3402772	binh	-0.30103
-2.3402772	chốt	-0.30103
-2.5479293	soái	-0.30103
-1.3190236	tiến	-1.1663314
-1.3190236	tấn	-1.1663314
-1.405716	bình	-1.1391792
-1.3869376	thoái	-1.157468
-1.3869376	lùi	-1.157468
-1.8243539	qua	-0.7781512
-2.431809	sông	-0.30103
-1.8243539	sang	-0.7781512
-2.5479293	chấp	-0.30103
-2.431809	nhận	-0.30103
-2.5479293	xác	-0.30103
-2.5479293	đồng	-0.30103
-2.5479293	ý	-0.30103
-2.5479293	ô	-0.30103
-2.5479293	kê	-0.30103
-2.5479293	hủy	-0.30103
-2.5479293	bỏ	-0.30103
-2.5479293	từ	-0.30103
-2.5479293	chối	-0.30103
-2.5479293	đầu	-0.30103
-2.5479293	hàng	-0.30103
-2.5479293	xin	-0.30103
-2.5479293	hòa	-0.30103
-2.5479293	đổi	-0.30103
-2.5479293	phe	-0.30103
-2.5479293	chơi	-0.30103
-2.431809	lại	-0.30103
-2.5479293	đi	-0.30103
-1.3516544	chiếu	-1.2388821

\2-grams:
-1.2456679	tướng </s>	0
-0.8574641	năm </s>	0
-1.2249312	sĩ </s>	0
-1.206745	trước </s>	0
-0.8574641	bốn </s>	0
-1.206745	sau </s>	0
-0.9382012	trái </s>	0
-1.206745	trên </s>	0
-1.206745	dưới </s>	0
-0.8574641	sáu </s>	0
-0.9382012	phải </s>	0
-1.2982905	tượng </s>	0
-0.8092387	bảy </s>	0
-0.8092387	một </s>	0
-0.8092387	ba </s>	0
-0.8092387	hai </s>	0
-0.8092387	tám </s>	0
-0.8092387	chín </s>	0
-1.2982905	tịnh </s>	0
-1.2982905	bộ </s>	0
-1.3012065	xe </s>	0
-1.2982905	mã </s>	0
-1.3012065	pháo </s>	0
-1.3040369	tốt </s>	0
-1.1448609	giữa </s>	0
-1.3040369	binh </s>	0
-1.3040369	chốt </s>	0
-0.2742534	sông </s>	0
-0.2742534	nhận </s>	0
-0.2742534	ý </s>	0
-0.2742534	kê </s>	0
-0.2742534	bỏ </s>	0
-0.2742534	chối </s>	0
-0.2742534	hàng </s>	0
-0.2742534	hòa </s>	0
-0.2742534	phe </s>	0
-0.2742534	lại </s>	0
-2.472529	<s> tướng	-2.8137145
-0.025708895	chiếu tướng	-4.1112623
-1.1625565	tướng năm	-3.2607074
-1.2186489	sĩ năm	-2.5740314
-1.239183	trước năm	-3.625541
-1.239183	sau năm	-3.625541
-1.239183	trên năm	-3.625541
-1.239183	dưới năm	-3.625541
-1.3320354	tượng năm	-2.5740314
-1.3320354	tịnh năm	-2.5740314
-1.3320354	bộ năm	-2.5740314
-1.3367726	xe năm	-2.9378521
-1.3320354	mã năm	-2.7061486
-1.3367726	pháo năm	-2.9378521
-1.34139	tốt năm	-2.48245
-1.2941025	giữa năm	-3.7231038
-1.34139	binh năm	-2.48245
-1.34139	chốt năm	-2.48245
-1.1625565	soái năm	-2.3753588
-0.9743016	tiến năm	-4.423792
-0.9743016	tấn năm	-4.423792
-0.94714934	bình năm	-4.43029
-0.9654381	thoái năm	-4.423792
-0.9654381	lùi năm	-4.423792
-1.3099337	tướng ăn	-1.6341412
-0.95830023	năm ăn	-3.460216
-1.4216559	sĩ ăn	-1.6341412
-1.2259157	trước ăn	-2.6341412
-0.95830023	bốn ăn	-3.460216
-1.2259157	sau ăn	-2.6341412
-0.9491036	trái ăn	-2.6341412
-1.2259157	trên ăn	-2.6341412
-1.2259157	dưới ăn	-2.6341412
-0.95830023	sáu ăn	-3.460216
-0.9491036	phải ăn	-2.6341412
-1.4782785	tượng ăn	-1.6341412
-0.976796	bảy ăn	-3.4122925
-0.976796	một ăn	-3.4122925
-0.976796	ba ăn	-3.4122925
-0.976796	hai ăn	-3.4122925
-0.976796	tám ăn	-3.4122925
-0.976796	chín ăn	-3.4122925
-1.4782785	tịnh ăn	-1.6341412
-1.4782785	bộ ăn	-1.6341412
-1.4804833	xe ăn	-1.6341412
-1.4782785	mã ăn	-1.6341412
-1.4804833	pháo ăn	-1.6341412
-1.4826201	tốt ăn	-1.6341412
-1.1632893	giữa ăn	-2.9563606
-1.4826201	binh ăn	-1.6341412
-1.4826201	chốt ăn	-1.6341412
-1.1308541	soái ăn	-1.6341412
-1.6739448	<s> sĩ	-3.4081268
-1.0227907	ăn sĩ	-2.9819093
-1.0227907	bắt sĩ	-2.9819093
-1.3099337	tướng bắt	-1.6341412
-0.95830023	năm bắt	-3.460216
-1.4216559	sĩ bắt	-1.6341412
-1.2259157	trước bắt	-2.6341412
-0.95830023	bốn bắt	-3.460216
-1.2259157	sau bắt	-2.6341412
-0.9491036	trái bắt	-2.6341412
-1.2259157	trên bắt	-2.6341412
-1.2259157	dưới bắt	-2.6341412
-0.95830023	sáu bắt	-3.460216
-0.9491036	phải bắt	-2.6341412
-1.4782785	tượng bắt	-1.6341412
-0.976796	bảy bắt	-3.4122925
-0.976796	một bắt	-3.4122925
-0.976796	ba bắt	-3.4122925
-0.976796	hai bắt	-3.4122925
-0.976796	tám bắt	-3.4122925
-0.976796	chín bắt	-3.4122925
-1.4782785	tịnh bắt	-1.6341412
-1.4782785	bộ bắt	-1.6341412
-1.4804833	xe bắt	-1.6341412
-1.4782785	mã bắt	-1.6341412
-1.4804833	pháo bắt	-1.6341412
-1.4826201	tốt bắt	-1.6341412
-1.1632893	giữa bắt	-2.9563606
-1.4826201	binh bắt	-1.6341412
-1.4826201	chốt bắt	-1.6341412
-1.1308541	soái bắt	-1.6341412
-1.3007952	sĩ trước	-2.9756408
-1.4420341	tượng trước	-3.2692382
-1.4420341	tịnh trước	-3.2692382
-1.4420341	bộ trước	-3.2692382
-1.4481465	xe trước	-3.637564
-1.4420341	mã trước	-3.3730564
-1.4481465	pháo trước	-3.637564
-1.454123	tốt trước	-3.4742734
-1.454123	binh trước	-3.4742734
-1.454123	chốt trước	-3.4742734
-1.1625565	tướng bốn	-3.2567177
-1.2186489	sĩ bốn	-2.4890206
-1.239183	trước bốn	-3.6315942
-1.239183	sau bốn	-3.6315942
-1.239183	trên bốn	-3.6315942
-1.239183	dưới bốn	-3.6315942
-1.3320354	tượng bốn	-2.5740314
-1.3320354	tịnh bốn	-2.5740314
-1.3320354	bộ bốn	-2.5740314
-1.3367726	xe bốn	-2.9378521
-1.3320354	mã bốn	-2.7061486
-1.3367726	pháo bốn	-2.9378521
-1.34139	tốt bốn	-2.48245
-1.2941025	giữa bốn	-3.7231038
-1.34139	binh bốn	-2.48245
-1.34139	chốt bốn	-2.48245
-1.1625565	soái bốn	-2.3390253
-0.9743016	tiến bốn	-4.4036922
-0.9743016	tấn bốn	-4.4036922
-0.94714934	bình bốn	-4.4259686
-0.9654381	thoái bốn	-4.4036922
-0.9654381	lùi bốn	-4.4036922
-1.3007952	sĩ sau	-2.9756408
-1.4420341	tượng sau	-3.2692382
-1.4420341	tịnh sau	-3.2692382
-1.4420341	bộ sau	-3.2692382
-1.4481465	xe sau	-3.637564
-1.4420341	mã sau	-3.3730564
-1.4481465	pháo sau	-3.637564
-1.454123	tốt sau	-3.4742734
-1.454123	binh sau	-3.4742734
-1.454123	chốt sau	-3.4742734
-1.3007952	sĩ trái	-2.6450946
-1.4420341	tượng trái	-2.9251401
-1.4420341	tịnh trái	-2.9251401
-1.4420341	bộ trái	-2.9251401
-1.4481465	xe trái	-2.945213
-1.4420341	mã trái	-2.9251401
-1.4481465	pháo trái	-2.945213
-1.454123	tốt trái	-2.929419
-1.454123	binh trái	-2.929419
-1.454123	chốt trái	-2.929419
-1.3007952	sĩ trên	-2.9756408
-1.4420341	tượng trên	-3.2692382
-1.4420341	tịnh trên	-3.2692382
-1.4420341	bộ trên	-3.2692382
-1.4481465	xe trên	-3.637564
-1.4420341	mã trên	-3.3730564
-1.4481465	pháo trên	-3.637564
-1.454123	tốt trên	-3.4742734
-1.454123	binh trên	-3.4742734
-1.454123	chốt trên	-3.4742734
-1.3007952	sĩ dưới	-2.9756408
-1.4420341	tượng dưới	-3.2692382
-1.4420341	tịnh dưới	-3.2692382
-1.4420341	bộ dưới	-3.2692382
-1.4481465	xe dưới	-3.637564
-1.4420341	mã dưới	-3.3730564
-1.4481465	pháo dưới	-3.637564
-1.454123	tốt dưới	-3.4742734
-1.454123	binh dưới	-3.4742734
-1.454123	chốt dưới	-3.4742734
-1.1625565	tướng sáu	-3.2567177
-1.2186489	sĩ sáu	-2.4890206
-1.239183	trước sáu	-3.6315942
-1.239183	sau sáu	-3.6315942
-1.239183	trên sáu	-3.6315942
-1.239183	dưới sáu	-3.6315942
-1.3320354	tượng sáu	-2.5740314
-1.3320354	tịnh sáu	-2.5740314
-1.3320354	bộ sáu	-2.5740314
-1.3367726	xe sáu	-2.9378521
-1.3320354	mã sáu	-2.7061486
-1.3367726	pháo sáu	-2.9378521
-1.34139	tốt sáu	-2.48245
-1.2941025	giữa sáu	-3.7231038
-1.34139	binh sáu	-2.48245
-1.34139	chốt sáu	-2.48245
-1.1625565	soái sáu	-2.3390253
-0.9743016	tiến sáu	-4.4036922
-0.9743016	tấn sáu	-4.4036922
-0.94714934	bình sáu	-4.4259686
-0.9654381	thoái sáu	-4.4036922
-0.9654381	lùi sáu	-4.4036922
-1.3007952	sĩ phải	-2.6450946
-1.4420341	tượng phải	-2.9251401
-1.4420341	tịnh phải	-2.9251401
-1.4420341	bộ phải	-2.9251401
-1.4481465	xe phải	-2.945213
-1.4420341	mã phải	-2.9251401
-1.4481465	pháo phải	-2.945213
-1.454123	tốt phải	-2.929419
-1.454123	binh phải	-2.929419
-1.454123	chốt phải	-2.929419
-1.1853921	<s> tượng	-3.7583704
-1.0227907	ăn tượng	-3.1513698
-1.0227907	bắt tượng	-3.1513698
-1.3763278	tướng bảy	-4.1112623
-1.2921563	trước bảy	-3.6028636
-1.2921563	sau bảy	-3.6028636
-1.2921563	trên bảy	-3.6028636
-1.2921563	dưới bảy	-3.6028636
-1.3485407	tượng bảy	-2.5740314
-1.3485407	tịnh bảy	-2.5740314
-1.3485407	bộ bảy	-2.5740314
-1.3534625	xe bảy	-2.9378521
-1.3485407	mã bảy	-2.7061486
-1.3534625	pháo bảy	-2.9378521
-1.3582618	tốt bảy	-2.48245
-1.2997934	giữa bảy	-3.7231038
-1.3582618	binh bảy	-2.48245
-1.3582618	chốt bảy	-2.48245
-0.99650234	tiến bảy	-4.3850102
-0.99650234	tấn bảy	-4.3850102
-0.9916722	bình bảy	-4.417195
-0.9876389	thoái bảy	-4.3850102
-0.9876389	lùi bảy	-4.3850102
-1.3763278	tướng một	-4.1112623
-1.2921563	trước một	-3.5642715
-1.2921563	sau một	-3.5642715
-1.2921563	trên một	-3.5642715
-1.2921563	dưới một	-3.5642715
-1.3485407	tượng một	-2.4890206
-1.3485407	tịnh một	-2.4890206
-1.3485407	bộ một	-2.4890206
-1.3534625	xe một	-2.9378521
-1.3485407	mã một	-2.5740314
-1.3534625	pháo một	-2.9378521
-1.3582618	tốt một	-2.4607308
-1.2997934	giữa một	-3.69897
-1.3582618	binh một	-2.4607308
-1.3582618	chốt một	-2.4607308
-0.8823588	tiến một	-4.8034573
-0.8823588	tấn một	-4.8034573
-0.9916722	bình một	-4.345047
-0.9461673	thoái một	-4.3424225
-0.9461673	lùi một	-4.3424225
-1.3763278	tướng ba	-4.1112623
-1.2921563	trước ba	-3.6028636
-1.2921563	sau ba	-3.6028636
-1.2921563	trên ba	-3.6028636
-1.2921563	dưới ba	-3.6028636
-1.3485407	tượng ba	-2.5740314
-1.3485407	tịnh ba	-2.5740314
-1.3485407	bộ ba	-2.5740314
-1.3534625	xe ba	-2.9378521
-1.3485407	mã ba	-2.7061486
-1.3534625	pháo ba	-2.9378521
-1.3582618	tốt ba	-2.48245
-1.2997934	giữa ba	-3.7231038
-1.3582618	binh ba	-2.48245
-1.3582618	chốt ba	-2.48245
-0.99650234	tiến ba	-4.3850102
-0.99650234	tấn ba	-4.3850102
-0.9916722	bình ba	-4.417195
-0.9876389	thoái ba	-4.3850102
-0.9876389	lùi ba	-4.3850102
-1.3763278	tướng hai	-4.1112623
-1.2921563	trước hai	-3.576384
-1.2921563	sau hai	-3.576384
-1.2921563	trên hai	-3.576384
-1.2921563	dưới hai	-3.576384
-1.3485407	tượng hai	-2.4890206
-1.3485407	tịnh hai	-2.4890206
-1.3485407	bộ hai	-2.4890206
-1.3534625	xe hai	-2.9378521
-1.3485407	mã hai	-2.6450946
-1.3534625	pháo hai	-2.9378521
-1.3582618	tốt hai	-2.48245
-1.2997934	giữa hai	-3.7231038
-1.3582618	binh hai	-2.48245
-1.3582618	chốt hai	-2.48245
-0.99650234	tiến hai	-4.3344536
-0.99650234	tấn hai	-4.3344536
-0.9916722	bình hai	-4.417195
-0.9876389	thoái hai	-4.3344536
-0.9876389	lùi hai	-4.3344536
-1.3763278	tướng tám	-4.1112623
-1.2921563	trước tám	-3.576384
-1.2921563	sau tám	-3.576384
-1.2921563	trên tám	-3.576384
-1.2921563	dưới tám	-3.576384
-1.3485407	tượng tám	-2.4890206
-1.3485407	tịnh tám	-2.4890206
-1.3485407	bộ tám	-2.4890206
-1.3534625	xe tám	-2.9378521
-1.3485407	mã tám	-2.6450946
-1.3534625	pháo tám	-2.9378521
-1.3582618	tốt tám	-2.48245
-1.2997934	giữa tám	-3.7231038
-1.3582618	binh tám	-2.48245
-1.3582618	chốt tám	-2.48245
-0.99650234	tiến tám	-4.3344536
-0.99650234	tấn tám	-4.3344536
-0.9916722	bình tám	-4.417195
-0.9876389	thoái tám	-4.3344536
-0.9876389	lùi tám	-4.3344536
-1.3763278	tướng chín	-4.1112623
-1.2921563	trước chín	-3.5642715
-1.2921563	sau chín	-3.5642715
-1.2921563	trên chín	-3.5642715
-1.2921563	dưới chín	-3.5642715
-1.3485407	tượng chín	-2.4890206
-1.3485407	tịnh chín	-2.4890206
-1.3485407	bộ chín	-2.4890206
-1.3534625	xe chín	-2.9378521
-1.3485407	mã chín	-2.5740314
-1.3534625	pháo chín	-2.9378521
-1.3582618	tốt chín	-2.4607308
-1.2997934	giữa chín	-3.69897
-1.3582618	binh chín	-2.4607308
-1.3582618	chốt chín	-2.4607308
-0.99650234	tiến chín	-4.3208385
-0.99650234	tấn chín	-4.3208385
-0.9916722	bình chín	-4.345047
-0.9876389	thoái chín	-4.3208385
-0.9876389	lùi chín	-4.3208385
-1.1853921	<s> tịnh	-3.7583704
-1.0227907	ăn tịnh	-3.1513698
-1.0227907	bắt tịnh	-3.1513698
-1.1853921	<s> bộ	-3.7583704
-1.0227907	ăn bộ	-3.1513698
-1.0227907	bắt bộ	-3.1513698
-0.72844833	<s> xe	-4.1960073
-1.0227907	ăn xe	-3.1513698
-1.0227907	bắt xe	-3.1513698
-1.0588394	<s> mã	-3.8849223
-1.0227907	ăn mã	-3.1513698
-1.0227907	bắt mã	-3.1513698
-0.72844833	<s> pháo	-4.1960073
-1.0227907	ăn pháo	-3.1513698
-1.0227907	bắt pháo	-3.1513698
-1.0341927	<s> tốt	-3.909569
-1.0227907	ăn tốt	-3.426071
-1.0227907	bắt tốt	-3.426071
-1.9352124	trước giữa	-3.6766937
-1.9352124	sau giữa	-3.6766937
-1.6770828	trái giữa	-3.1635022
-1.9352124	trên giữa	-3.6766937
-1.9352124	dưới giữa	-3.6766937
-1.6770828	phải giữa	-3.1635022
-1.4649842	tốt giữa	-3.1995723
-1.4649842	binh giữa	-3.1995723
-1.4649842	chốt giữa	-3.1995723
-1.0341927	<s> binh	-3.909569
-1.0227907	ăn binh	-3.426071
-1.0227907	bắt binh	-3.426071
-1.0341927	<s> chốt	-3.909569
-1.0227907	ăn chốt	-3.426071
-1.0227907	bắt chốt	-3.426071
-2.4725304	<s> soái	-2.8137145
-1.3099337	tướng tiến	-2.1249387
-0.95830023	năm tiến	-3.4112456
-1.4216559	sĩ tiến	-2.1249387
-1.2259157	trước tiến	-2.9488475
-0.95830023	bốn tiến	-3.4186695
-1.2259157	sau tiến	-2.9488475
-0.9491036	trái tiến	-2.9488475
-1.2259157	trên tiến	-2.9488475
-1.2259157	dưới tiến	-2.9488475
-0.95830023	sáu tiến	-3.4186695
-0.9491036	phải tiến	-2.9488475
-1.4782785	tượng tiến	-2.1249387
-0.976796	bảy tiến	-3.4011452
-0.976796	một tiến	-3.3320642
-0.976796	ba tiến	-3.4011452
-0.976796	hai tiến	-3.3467875
-0.976796	tám tiến	-3.3467875
-0.976796	chín tiến	-3.3320642
-1.4782785	tịnh tiến	-2.1249387
-1.4782785	bộ tiến	-2.1249387
-1.4804833	xe tiến	-2.1249387
-1.4782785	mã tiến	-2.1249387
-1.4804833	pháo tiến	-2.1249387
-1.4826201	tốt tiến	-2.1249387
-1.1632893	giữa tiến	-3.447158
-1.4826201	binh tiến	-2.1249387
-1.4826201	chốt tiến	-2.1249387
-1.1308541	soái tiến	-2.1249387
-1.3099337	tướng tấn	-2.1249387
-0.95830023	năm tấn	-3.4112456
-1.4216559	sĩ tấn	-2.1249387
-1.2259157	trước tấn	-2.9488475
-0.95830023	bốn tấn	-3.4186695
-1.2259157	sau tấn	-2.9488475
-0.9491036	trái tấn	-2.9488475
-1.2259157	trên tấn	-2.9488475
-1.2259157	dưới tấn	-2.9488475
-0.95830023	sáu tấn	-3.4186695
-0.9491036	phải tấn	-2.9488475
-1.4782785	tượng tấn	-2.1249387
-0.976796	bảy tấn	-3.4011452
-0.976796	một tấn	-3.3320642
-0.976796	ba tấn	-3.4011452
-0.976796	hai tấn	-3.3467875
-0.976796	tám tấn	-3.3467875
-0.976796	chín tấn	-3.3320642
-1.4782785	tịnh tấn	-2.1249387
-1.4782785	bộ tấn	-2.1249387
-1.4804833	xe tấn	-2.1249387
-1.4782785	mã tấn	-2.1249387
-1.4804833	pháo tấn	-2.1249387
-1.4826201	tốt tấn	-2.1249387
-1.1632893	giữa tấn	-3.447158
-1.4826201	binh tấn	-2.1249387
-1.4826201	chốt tấn	-2.1249387
-1.1308541	soái tấn	-2.1249387
-1.3502263	tướng bình	-2.1249387
-1.1230536	năm bình	-3.3802114
-1.5554878	trước bình	-2.8239088
-1.1230536	bốn bình	-3.3741372
-1.5554878	sau bình	-2.8239088
-1.3021593	trái bình	-2.8239088
-1.5554878	trên bình	-2.8239088
-1.5554878	dưới bình	-2.8239088
-1.1230536	sáu bình	-3.3741372
-1.3021593	phải bình	-2.8239088
-1.1390307	bảy bình	-3.367977
-1.1390307	một bình	-3.2632415
-1.1390307	ba bình	-3.367977
-1.1390307	hai bình	-3.367977
-1.1390307	tám bình	-3.367977
-1.1390307	chín bình	-3.2632415
-1.5415736	xe bình	-2.1249387
-1.5415736	pháo bình	-2.1249387
-1.544034	tốt bình	-2.1249387
-1.1738756	giữa bình	-3.447158
-1.544034	binh bình	-2.1249387
-1.544034	chốt bình	-2.1249387
-1.1571095	soái bình	-2.1249387
-1.3418632	tướng thoái	-2.1249387
-1.0847237	năm thoái	-3.3290586
-1.4634159	sĩ thoái	-2.1249387
-1.3960311	trước thoái	-2.9265711
-1.0847237	bốn thoái	-3.3380136
-1.3960311	sau thoái	-2.9265711
-1.1273893	trái thoái	-2.9265711
-1.3960311	trên thoái	-2.9265711
-1.3960311	dưới thoái	-2.9265711
-1.0847237	sáu thoái	-3.3380136
-1.1273893	phải thoái	-2.9265711
-1.526186	tượng thoái	-2.1249387
-1.1376729	bảy thoái	-3.3168242
-1.1376729	một thoái	-3.231394
-1.1376729	ba thoái	-3.3168242
-1.1376729	hai thoái	-3.2498775
-1.1376729	tám thoái	-3.2498775
-1.1376729	chín thoái	-3.231394
-1.526186	tịnh thoái	-2.1249387
-1.526186	bộ thoái	-2.1249387
-1.5286487	xe thoái	-2.1249387
-1.526186	mã thoái	-2.1249387
-1.5286487	pháo thoái	-2.1249387
-1.1517298	soái thoái	-2.1249387
-1.3418632	tướng lùi	-2.1249387
-1.0847237	năm lùi	-3.3290586
-1.4634159	sĩ lùi	-2.1249387
-1.3960311	trước lùi	-2.9265711
-1.0847237	bốn lùi	-3.3380136
-1.3960311	sau lùi	-2.9265711
-1.1273893	trái lùi	-2.9265711
-1.3960311	trên lùi	-2.9265711
-1.3960311	dưới lùi	-2.9265711
-1.0847237	sáu lùi	-3.3380136
-1.1273893	phải lùi	-2.9265711
-1.526186	tượng lùi	-2.1249387
-1.1376729	bảy lùi	-3.3168242
-1.1376729	một lùi	-3.231394
-1.1376729	ba lùi	-3.3168242
-1.1376729	hai lùi	-3.2498775
-1.1376729	tám lùi	-3.2498775
-1.1376729	chín lùi	-3.231394
-1.526186	tịnh lùi	-2.1249387
-1.526186	bộ lùi	-2.1249387
-1.5286487	xe lùi	-2.1249387
-1.526186	mã lùi	-2.1249387
-1.5286487	pháo lùi	-2.1249387
-1.1517298	soái lùi	-2.1249387
-1.9279076	năm qua	-2.60206
-1.9279076	bốn qua	-2.60206
-1.9279076	sáu qua	-2.60206
-1.8580164	bảy qua	-2.60206
-1.8580164	một qua	-2.60206
-1.8580164	ba qua	-2.60206
-1.8580164	hai qua	-2.60206
-1.8580164	tám qua	-2.60206
-1.8580164	chín qua	-2.60206
-0.07886	qua sông	-3.5563025
-0.07886	sang sông	-3.5563025
-1.9279076	năm sang	-2.60206
-1.9279076	bốn sang	-2.60206
-1.9279076	sáu sang	-2.60206
-1.8580164	bảy sang	-2.60206
-1.8580164	một sang	-2.60206
-1.8580164	ba sang	-2.60206
-1.8580164	hai sang	-2.60206
-1.8580164	tám sang	-2.60206
-1.8580164	chín sang	-2.60206
-2.4623344	<s> chấp	-3.8239088
-0.29942614	chấp nhận	-3.8239088
-0.29942614	xác nhận	-3.8239088
-2.4623344	<s> xác	-3.8239088
-2.4623344	<s> đồng	-3.8239088
-0.2998019	đồng ý	-3.8239088
-2.4623344	<s> ô	-3.8239088
-0.2998019	ô kê	-3.8239088
-2.4623344	<s> hủy	-3.8239088
-0.2998019	hủy bỏ	-3.8239088
-2.4623344	<s> từ	-3.8239088
-0.2998019	từ chối	-3.8239088
-2.4623344	<s> đầu	-3.8239088
-0.2998019	đầu hàng	-3.8239088
-2.161274	<s> xin	-3.8239088
-0.5996072	xin hòa	-3.8239088
-2.4623344	<s> đổi	-3.8239088
-0.2998019	đổi phe	-3.8239088
-0.5996072	xin chơi	-3.8239088
-0.29942614	chơi lại	-3.8239088
-0.29942614	đi lại	-3.8239088
-2.4623344	<s> đi	-3.8239088
-1.0169278	năm chiếu	-4.1139436
-1.4420341	sĩ chiếu	-2.30103
-1.2302932	trước chiếu	-3.30103
-1.0169278	bốn chiếu	-4.1139436
-1.2302932	sau chiếu	-3.30103
-0.95156395	trái chiếu	-3.30103
-1.2302932	trên chiếu	-3.30103
-1.2302932	dưới chiếu	-3.30103
-1.0169278	sáu chiếu	-4.1139436
-0.95156395	phải chiếu	-3.30103
-1.501572	tượng chiếu	-2.30103
-0.978672	bảy chiếu	-4.079181
-0.978672	một chiếu	-4.079181
-0.978672	ba chiếu	-4.079181
-0.978672	hai chiếu	-4.079181
-0.978672	tám chiếu	-4.079181
-0.978672	chín chiếu	-4.079181
-1.501572	tịnh chiếu	-2.30103
-1.501572	bộ chiếu	-2.30103
-1.5038986	xe chiếu	-2.30103
-1.501572	mã chiếu	-2.30103
-1.5038986	pháo chiếu	-2.30103
-1.5061541	tốt chiếu	-2.30103
-1.1674929	giữa chiếu	-3.6232493
-1.5061541	binh chiếu	-2.30103
-1.5061541	chốt chiếu	-2.30103

\3-grams:
-1.0000145	chiếu tướng </s>
-0.052531	tướng năm </s>
-0.53654957	sĩ năm </s>
-0.6392547	trước năm </s>
-0.6392547	sau năm </s>
-0.6392547	trên năm </s>
-0.6392547	dưới năm </s>
-0.53654957	tượng năm </s>
-0.53654957	tịnh năm </s>
-0.53654957	bộ năm </s>
-0.9514538	xe năm </s>
-0.66866696	mã năm </s>
-0.9514538	pháo năm </s>
-0.49605185	tốt năm </s>
-0.45159495	giữa năm </s>
-0.49605185	binh năm </s>
-0.49605185	chốt năm </s>
-0.000014082196	tiến năm </s>
-0.000014082196	tấn năm </s>
-0.000013900988	bình năm </s>
-0.000014082196	thoái năm </s>
-0.000014082196	lùi năm </s>
-1.3428255	ăn sĩ </s>
-1.3428255	bắt sĩ </s>
-1.0766746	sĩ trước </s>
-1.5591427	tượng trước </s>
-1.5591427	tịnh trước </s>
-1.5591427	bộ trước </s>
-1.952261	xe trước </s>
-1.6629608	mã trước </s>
-1.952261	pháo trước </s>
-1.7641779	tốt trước </s>
-1.7641779	binh trước </s>
-1.7641779	chốt trước </s>
-0.048541497	tướng bốn </s>
-0.4515388	sĩ bốn </s>
-0.64530766	trước bốn </s>
-0.64530766	sau bốn </s>
-0.64530766	trên bốn </s>
-0.64530766	dưới bốn </s>
-0.53654957	tượng bốn </s>
-0.53654957	tịnh bốn </s>
-0.53654957	bộ bốn </s>
-0.9514538	xe bốn </s>
-0.66866696	mã bốn </s>
-0.9514538	pháo bốn </s>
-0.49605185	tốt bốn </s>
-0.45159495	giữa bốn </s>
-0.49605185	binh bốn </s>
-0.49605185	chốt bốn </s>
-0.000014755254	tiến bốn </s>
-0.000014755254	tấn bốn </s>
-0.000014030421	bình bốn </s>
-0.000014755254	thoái bốn </s>
-0.000014755254	lùi bốn </s>
-1.0766746	sĩ sau </s>
-1.5591427	tượng sau </s>
-1.5591427	tịnh sau </s>
-1.5591427	bộ sau </s>
-1.952261	xe sau </s>
-1.6629608	mã sau </s>
-1.952261	pháo sau </s>
-1.7641779	tốt sau </s>
-1.7641779	binh sau </s>
-1.7641779	chốt sau </s>
-0.6077068	sĩ trái </s>
-0.8877523	tượng trái </s>
-0.8877523	tịnh trái </s>
-0.8877523	bộ trái </s>
-0.9589205	xe trái </s>
-0.8877523	mã trái </s>
-0.9589205	pháo trái </s>
-0.89203113	tốt trái </s>
-0.89203113	binh trái </s>
-0.89203113	chốt trái </s>
-1.0766746	sĩ trên </s>
-1.5591427	tượng trên </s>
-1.5591427	tịnh trên </s>
-1.5591427	bộ trên </s>
-1.952261	xe trên </s>
-1.6629608	mã trên </s>
-1.952261	pháo trên </s>
-1.7641779	tốt trên </s>
-1.7641779	binh trên </s>
-1.7641779	chốt trên </s>
-1.0766746	sĩ dưới </s>
-1.5591427	tượng dưới </s>
-1.5591427	tịnh dưới </s>
-1.5591427	bộ dưới </s>
-1.952261	xe dưới </s>
-1.6629608	mã dưới </s>
-1.952261	pháo dưới </s>
-1.7641779	tốt dưới </s>
-1.7641779	binh dưới </s>
-1.7641779	chốt dưới </s>
-0.048541497	tướng sáu </s>
-0.4515388	sĩ sáu </s>
-0.64530766	trước sáu </s>
-0.64530766	sau sáu </s>
-0.64530766	trên sáu </s>
-0.64530766	dưới sáu </s>
-0.53654957	tượng sáu </s>
-0.53654957	tịnh sáu </s>
-0.53654957	bộ sáu </s>
-0.9514538	xe sáu </s>
-0.66866696	mã sáu </s>
-0.9514538	pháo sáu </s>
-0.49605185	tốt sáu </s>
-0.45159495	giữa sáu </s>
-0.49605185	binh sáu </s>
-0.49605185	chốt sáu </s>
-0.000014755254	tiến sáu </s>
-0.000014755254	tấn sáu </s>
-0.000014030421	bình sáu </s>
-0.000014755254	thoái sáu </s>
-0.000014755254	lùi sáu </s>
-0.6077068	sĩ phải </s>
-0.8877523	tượng phải </s>
-0.8877523	tịnh phải </s>
-0.8877523	bộ phải </s>
-0.9589205	xe phải </s>
-0.8877523	mã phải </s>
-0.9589205	pháo phải </s>
-0.89203113	tốt phải </s>
-0.89203113	binh phải </s>
-0.89203113	chốt phải </s>
-1.7161975	ăn tượng </s>
-1.7161975	bắt tượng </s>
-0.000028423723	tướng bảy </s>
-0.6623251	trước bảy </s>
-0.6623251	sau bảy </s>
-0.6623251	trên bảy </s>
-0.6623251	dưới bảy </s>
-0.53648466	tượng bảy </s>
-0.53648466	tịnh bảy </s>
-0.53648466	bộ bảy </s>
-0.9513807	xe bảy </s>
-0.668602	mã bảy </s>
-0.9513807	pháo bảy </s>
-0.49597877	tốt bảy </s>
-0.45159113	giữa bảy </s>
-0.49597877	binh bảy </s>
-0.49597877	chốt bảy </s>
-0.00001511767	tiến bảy </s>
-0.00001511767	tấn bảy </s>
-0.000014030421	bình bảy </s>
-0.00001511767	thoái bảy </s>
-0.00001511767	lùi bảy </s>
-0.000028423723	tướng một </s>
-0.62373304	trước một </s>
-0.62373304	sau một </s>
-0.62373304	trên một </s>
-0.62373304	dưới một </s>
-0.45147383	tượng một </s>
-0.45147383	tịnh một </s>
-0.45147383	bộ một </s>
-0.9513807	xe một </s>
-0.53648466	mã một </s>
-0.9513807	pháo một </s>
-0.4742595	tốt một </s>
-0.42745745	giữa một </s>
-0.4742595	binh một </s>
-0.4742595	chốt một </s>
-0.0000057726093	tiến một </s>
-0.0000057726093	tấn một </s>
-0.000016567335	bình một </s>
-0.000016696771	thoái một </s>
-0.000016696771	lùi một </s>
-0.000028423723	tướng ba </s>
-0.6623251	trước ba </s>
-0.6623251	sau ba </s>
-0.6623251	trên ba </s>
-0.6623251	dưới ba </s>
-0.53648466	tượng ba </s>
-0.53648466	tịnh ba </s>
-0.53648466	bộ ba </s>
-0.9513807	xe ba </s>
-0.668602	mã ba </s>
-0.9513807	pháo ba </s>
-0.49597877	tốt ba </s>
-0.45159113	giữa ba </s>
-0.49597877	binh ba </s>
-0.49597877	chốt ba </s>
-0.00001511767	tiến ba </s>
-0.00001511767	tấn ba </s>
-0.000014030421	bình ba </s>
-0.00001511767	thoái ba </s>
-0.00001511767	lùi ba </s>
-0.000028423723	tướng hai </s>
-0.6358456	trước hai </s>
-0.6358456	sau hai </s>
-0.6358456	trên hai </s>
-0.6358456	dưới hai </s>
-0.45147383	tượng hai </s>
-0.45147383	tịnh hai </s>
-0.45147383	bộ hai </s>
-0.9513807	xe hai </s>
-0.607548	mã hai </s>
-0.9513807	pháo hai </s>
-0.49597877	tốt hai </s>
-0.45159113	giữa hai </s>
-0.49597877	binh hai </s>
-0.49597877	chốt hai </s>
-0.000016981527	tiến hai </s>
-0.000016981527	tấn hai </s>
-0.000014030421	bình hai </s>
-0.000016981527	thoái hai </s>
-0.000016981527	lùi hai </s>
-0.000028423723	tướng tám </s>
-0.6358456	trước tám </s>
-0.6358456	sau tám </s>
-0.6358456	trên tám </s>
-0.6358456	dưới tám </s>
-0.45147383	tượng tám </s>
-0.45147383	tịnh tám </s>
-0.45147383	bộ tám </s>
-0.9513807	xe tám </s>
-0.607548	mã tám </s>
-0.9513807	pháo tám </s>
-0.49597877	tốt tám </s>
-0.45159113	giữa tám </s>
-0.49597877	binh tám </s>
-0.49597877	chốt tám </s>
-0.000016981527	tiến tám </s>
-0.000016981527	tấn tám </s>
-0.000014030421	bình tám </s>
-0.000016981527	thoái tám </s>
-0.000016981527	lùi tám </s>
-0.000028423723	tướng chín </s>
-0.62373304	trước chín </s>
-0.62373304	sau chín </s>
-0.62373304	trên chín </s>
-0.62373304	dưới chín </s>
-0.45147383	tượng chín </s>
-0.45147383	tịnh chín </s>
-0.45147383	bộ chín </s>
-0.9513807	xe chín </s>
-0.53648466	mã chín </s>
-0.9513807	pháo chín </s>
-0.4742595	tốt chín </s>
-0.42745745	giữa chín </s>
-0.4742595	binh chín </s>
-0.4742595	chốt chín </s>
-0.000017525155	tiến chín </s>
-0.000017525155	tấn chín </s>
-0.000016567335	bình chín </s>
-0.000017525155	thoái chín </s>
-0.000017525155	lùi chín </s>
-1.7161975	ăn tịnh </s>
-1.7161975	bắt tịnh </s>
-1.7161975	ăn bộ </s>
-1.7161975	bắt bộ </s>
-1.716203	ăn xe </s>
-1.716203	bắt xe </s>
-1.7161975	ăn mã </s>
-1.7161975	bắt mã </s>
-1.716203	ăn pháo </s>
-1.716203	bắt pháo </s>
-2.0171885	ăn tốt </s>
-2.0171885	bắt tốt </s>
-1.4631516	trước giữa </s>
-1.4631516	sau giữa </s>
-0.59104526	trái giữa </s>
-1.4631516	trên giữa </s>
-1.4631516	dưới giữa </s>
-0.59104526	phải giữa </s>
-1.463103	tốt giữa </s>
-1.463103	binh giữa </s>
-1.463103	chốt giữa </s>
-2.0171885	ăn binh </s>
-2.0171885	bắt binh </s>
-2.0171885	ăn chốt </s>
-2.0171885	bắt chốt </s>
-0.000056486857	qua sông </s>
-0.000056486857	sang sông </s>
-0.00003052063	chấp nhận </s>
-0.00003052063	xác nhận </s>
-0.00003052063	đồng ý </s>
-0.00003052063	ô kê </s>
-0.00003052063	hủy bỏ </s>
-0.00003052063	từ chối </s>
-0.00003052063	đầu hàng </s>
-0.00003052063	xin hòa </s>
-0.00003052063	đổi phe </s>
-0.00003052063	chơi lại </s>
-0.00003052063	đi lại </s>
-0.000001941452	năm chiếu tướng
-0.00012484008	sĩ chiếu tướng
-0.000012503103	trước chiếu tướng
-0.000001941452	bốn chiếu tướng
-0.000012503103	sau chiếu tướng
-0.000012503103	trái chiếu tướng
-0.000012503103	trên chiếu tướng
-0.000012503103	dưới chiếu tướng
-0.000001941452	sáu chiếu tướng
-0.000012503103	phải chiếu tướng
-0.00012484008	tượng chiếu tướng
-0.0000020708824	bảy chiếu tướng
-0.0000020708824	một chiếu tướng
-0.0000020708824	ba chiếu tướng
-0.0000020708824	hai chiếu tướng
-0.0000020708824	tám chiếu tướng
-0.0000020708824	chín chiếu tướng
-0.00012484008	tịnh chiếu tướng
-0.00012484008	bộ chiếu tướng
-0.00012484008	xe chiếu tướng
-0.00012484008	mã chiếu tướng
-0.00012484008	pháo chiếu tướng
-0.00012484008	tốt chiếu tướng
-0.0000059538133	giữa chiếu tướng
-0.00012484008	binh chiếu tướng
-0.00012484008	chốt chiếu tướng
-0.59333926	<s> tướng năm
-1.0000105	chiếu tướng năm
-1.284282	<s> sĩ năm
-1.342817	ăn sĩ năm
-1.342817	bắt sĩ năm
-0.7308088	sĩ trước năm
-1.0225687	tượng trước năm
-1.0225687	tịnh trước năm
-1.0225687	bộ trước năm
-1.0007397	xe trước năm
-0.9942688	mã trước năm
-1.0007397	pháo trước năm
-1.3126154	tốt trước năm
-1.3126154	binh trước năm
-1.3126154	chốt trước năm
-0.7308088	sĩ sau năm
-1.0225687	tượng sau năm
-1.0225687	tịnh sau năm
-1.0225687	bộ sau năm
-1.0007397	xe sau năm
-0.9942688	mã sau năm
-1.0007397	pháo sau năm
-1.3126154	tốt sau năm
-1.3126154	binh sau năm
-1.3126154	chốt sau năm
-0.7308088	sĩ trên năm
-1.0225687	tượng trên năm
-1.0225687	tịnh trên năm
-1.0225687	bộ trên năm
-1.0007397	xe trên năm
-0.9942688	mã trên năm
-1.0007397	pháo trên năm
-1.3126154	tốt trên năm
-1.3126154	binh trên năm
-1.3126154	chốt trên năm
-0.7308088	sĩ dưới năm
-1.0225687	tượng dưới năm
-1.0225687	tịnh dưới năm
-1.0225687	bộ dưới năm
-1.0007397	xe dưới năm
-0.9942688	mã dưới năm
-1.0007397	pháo dưới năm
-1.3126154	tốt dưới năm
-1.3126154	binh dưới năm
-1.3126154	chốt dưới năm
-1.7728165	<s> tượng năm
-1.7162576	ăn tượng năm
-1.7162576	bắt tượng năm
-1.7728165	<s> tịnh năm
-1.7162576	ăn tịnh năm
-1.7162576	bắt tịnh năm
-1.7728165	<s> bộ năm
-1.7162576	ăn bộ năm
-1.7162576	bắt bộ năm
-1.7171234	<s> xe năm
-1.7162656	ăn xe năm
-1.7162656	bắt xe năm
-1.7229161	<s> mã năm
-1.7162576	ăn mã năm
-1.7162576	bắt mã năm
-1.7171234	<s> pháo năm
-1.7162656	ăn pháo năm
-1.7162656	bắt pháo năm
-1.9821669	<s> tốt năm
-2.017258	ăn tốt năm
-2.017258	bắt tốt năm
-1.0115929	trước giữa năm
-1.0115929	sau giữa năm
-1.0115929	trên giữa năm
-1.0115929	dưới giữa năm
-1.0116148	tốt giữa năm
-1.0116148	binh giữa năm
-1.0116148	chốt giữa năm
-1.9821669	<s> binh năm
-2.017258	ăn binh năm
-2.017258	bắt binh năm
-1.9821669	<s> chốt năm
-2.017258	ăn chốt năm
-2.017258	bắt chốt năm
-0.59333926	<s> soái năm
-1.240564	năm tiến năm
-0.4793474	sĩ tiến năm
-0.93307424	trước tiến năm
-0.9469506	bốn tiến năm
-0.93307424	sau tiến năm
-0.93307424	trái tiến năm
-0.93307424	trên tiến năm
-0.93307424	dưới tiến năm
-0.9469506	sáu tiến năm
-0.93307424	phải tiến năm
-0.9543895	tượng tiến năm
-0.75333256	bảy tiến năm
-1.1613827	một tiến năm
-0.75333256	ba tiến năm
-1.176106	hai tiến năm
-1.176106	tám tiến năm
-1.1613827	chín tiến năm
-0.9543895	tịnh tiến năm
-0.9543895	bộ tiến năm
-0.9543895	xe tiến năm
-0.9543895	mã tiến năm
-0.9543895	pháo tiến năm
-1.240564	năm tấn năm
-0.4793474	sĩ tấn năm
-0.93307424	trước tấn năm
-0.9469506	bốn tấn năm
-0.93307424	sau tấn năm
-0.93307424	trái tấn năm
-0.93307424	trên tấn năm
-0.93307424	dưới tấn năm
-0.9469506	sáu tấn năm
-0.93307424	phải tấn năm
-0.9543895	tượng tấn năm
-0.75333256	bảy tấn năm
-1.1613827	một tấn năm
-0.75333256	ba tấn năm
-1.176106	hai tấn năm
-1.176106	tám tấn năm
-1.1613827	chín tấn năm
-0.9543895	tịnh tấn năm
-0.9543895	bộ tấn năm
-0.9543895	xe tấn năm
-0.9543895	mã tấn năm
-0.9543895	pháo tấn năm
-0.4792802	tướng bình năm
-0.9542318	trước bình năm
-0.52904654	bốn bình năm
-0.9542318	sau bình năm
-0.9542318	trái bình năm
-0.9542318	trên bình năm
-0.9542318	dưới bình năm
-0.52904654	sáu bình năm
-0.9542318	phải bình năm
-1.1461594	bảy bình năm
-1.0414242	một bình năm
-1.1461594	ba bình năm
-1.1461594	hai bình năm
-1.1461594	tám bình năm
-1.0414242	chín bình năm
-0.9541889	xe bình năm
-0.9541889	pháo bình năm
-0.9541889	tốt bình năm
-0.95423996	giữa bình năm
-0.9541889	binh bình năm
-0.9541889	chốt bình năm
-0.4792802	soái bình năm
-1.1583707	năm thoái năm
-0.47932595	sĩ thoái năm
-0.91078866	trước thoái năm
-0.86629146	bốn thoái năm
-0.91078866	sau thoái năm
-0.91078866	trái thoái năm
-0.91078866	trên thoái năm
-0.91078866	dưới thoái năm
-0.86629146	sáu thoái năm
-0.91078866	phải thoái năm
-0.9543254	tượng thoái năm
-0.6690095	bảy thoái năm
-1.0607061	một thoái năm
-0.6690095	ba thoái năm
-1.0791895	hai thoái năm
-1.0791895	tám thoái năm
-1.0607061	chín thoái năm
-0.9543254	tịnh thoái năm
-0.9543254	bộ thoái năm
-0.9543254	xe thoái năm
-0.9543254	mã thoái năm
-0.9543254	pháo thoái năm
-1.1583707	năm lùi năm
-0.47932595	sĩ lùi năm
-0.91078866	trước lùi năm
-0.86629146	bốn lùi năm
-0.91078866	sau lùi năm
-0.91078866	trái lùi năm
-0.91078866	trên lùi năm
-0.91078866	dưới lùi năm
-0.86629146	sáu lùi năm
-0.91078866	phải lùi năm
-0.9543254	tượng lùi năm
-0.6690095	bảy lùi năm
-1.0607061	một lùi năm
-0.6690095	ba lùi năm
-1.0791895	hai lùi năm
-1.0791895	tám lùi năm
-1.0607061	chín lùi năm
-0.9543254	tịnh lùi năm
-0.9543254	bộ lùi năm
-0.9543254	xe lùi năm
-0.9543254	mã lùi năm
-0.9543254	pháo lùi năm
-1.1800879	<s> tướng ăn
-1.5297763	tướng năm ăn
-0.8431004	sĩ năm ăn
-0.9456433	trước năm ăn
-0.9456433	sau năm ăn
-0.9456433	trên năm ăn
-0.9456433	dưới năm ăn
-0.8431004	tượng năm ăn
-0.8431004	tịnh năm ăn
-0.8431004	bộ năm ăn
-1.2579627	xe năm ăn
-0.9752177	mã năm ăn
-1.2579627	pháo năm ăn
-0.8025607	tốt năm ăn
-0.75798464	giữa năm ăn
-0.8025607	binh năm ăn
-0.8025607	chốt năm ăn
-0.586547	soái năm ăn
-1.9785031	<s> sĩ ăn
-1.3832413	sĩ trước ăn
-1.8655353	tượng trước ăn
-1.8655353	tịnh trước ăn
-1.8655353	bộ trước ăn
-2.2586246	xe trước ăn
-1.9693534	mã trước ăn
-2.2586246	pháo trước ăn
-2.0705705	tốt trước ăn
-2.0705705	binh trước ăn
-2.0705705	chốt trước ăn
-1.5257869	tướng bốn ăn
-0.7580896	sĩ bốn ăn
-0.9516962	trước bốn ăn
-0.9516962	sau bốn ăn
-0.9516962	trên bốn ăn
-0.9516962	dưới bốn ăn
-0.8431004	tượng bốn ăn
-0.8431004	tịnh bốn ăn
-0.8431004	bộ bốn ăn
-1.2579627	xe bốn ăn
-0.9752177	mã bốn ăn
-1.2579627	pháo bốn ăn
-0.8025607	tốt bốn ăn
-0.75798464	giữa bốn ăn
-0.8025607	binh bốn ăn
-0.8025607	chốt bốn ăn
-0.5502136	soái bốn ăn
-1.3832413	sĩ sau ăn
-1.8655353	tượng sau ăn
-1.8655353	tịnh sau ăn
-1.8655353	bộ sau ăn
-2.2586246	xe sau ăn
-1.9693534	mã sau ăn
-2.2586246	pháo sau ăn
-2.0705705	tốt sau ăn
-2.0705705	binh sau ăn
-2.0705705	chốt sau ăn
-0.91414475	sĩ trái ăn
-1.1941903	tượng trái ăn
-1.1941903	tịnh trái ăn
-1.1941903	bộ trái ăn
-1.2653024	xe trái ăn
-1.1941903	mã trái ăn
-1.2653024	pháo trái ăn
-1.198469	tốt trái ăn
-1.198469	binh trái ăn
-1.198469	chốt trái ăn
-1.3832413	sĩ trên ăn
-1.8655353	tượng trên ăn
-1.8655353	tịnh trên ăn
-1.8655353	bộ trên ăn
-2.2586246	xe trên ăn
-1.9693534	mã trên ăn
-2.2586246	pháo trên ăn
-2.0705705	tốt trên ăn
-2.0705705	binh trên ăn
-2.0705705	chốt trên ăn
-1.3832413	sĩ dưới ăn
-1.8655353	tượng dưới ăn
-1.8655353	tịnh dưới ăn
-1.8655353	bộ dưới ăn
-2.2586246	xe dưới ăn
-1.9693534	mã dưới ăn
-2.2586246	pháo dưới ăn
-2.0705705	tốt dưới ăn
-2.0705705	binh dưới ăn
-2.0705705	chốt dưới ăn
-1.5257869	tướng sáu ăn
-0.7580896	sĩ sáu ăn
-0.9516962	trước sáu ăn
-0.9516962	sau sáu ăn
-0.9516962	trên sáu ăn
-0.9516962	dưới sáu ăn
-0.8431004	tượng sáu ăn
-0.8431004	tịnh sáu ăn
-0.8431004	bộ sáu ăn
-1.2579627	xe sáu ăn
-0.9752177	mã sáu ăn
-1.2579627	pháo sáu ăn
-0.8025607	tốt sáu ăn
-0.75798464	giữa sáu ăn
-0.8025607	binh sáu ăn
-0.8025607	chốt sáu ăn
-0.5502136	soái sáu ăn
-0.91414475	sĩ phải ăn
-1.1941903	tượng phải ăn
-1.1941903	tịnh phải ăn
-1.1941903	bộ phải ăn
-1.2653024	xe phải ăn
-1.1941903	mã phải ăn
-1.2653024	pháo phải ăn
-1.198469	tốt phải ăn
-1.198469	binh phải ăn
-1.198469	chốt phải ăn
-2.4669228	<s> tượng ăn
-0.9687279	trước bảy ăn
-0.9687279	sau bảy ăn
-0.9687279	trên bảy ăn
-0.9687279	dưới bảy ăn
-0.8431374	tượng bảy ăn
-0.8431374	tịnh bảy ăn
-0.8431374	bộ bảy ăn
-1.2580044	xe bảy ăn
-0.9752548	mã bảy ăn
-1.2580044	pháo bảy ăn
-0.80260235	tốt bảy ăn
-0.7579868	giữa bảy ăn
-0.80260235	binh bảy ăn
-0.80260235	chốt bảy ăn
-0.93013585	trước một ăn
-0.93013585	sau một ăn
-0.93013585	trên một ăn
-0.93013585	dưới một ăn
-0.7581266	tượng một ăn
-0.7581266	tịnh một ăn
-0.7581266	bộ một ăn
-1.2580044	xe một ăn
-0.8431374	mã một ăn
-1.2580044	pháo một ăn
-0.78088313	tốt một ăn
-0.7338531	giữa một ăn
-0.78088313	binh một ăn
-0.78088313	chốt một ăn
-0.9687279	trước ba ăn
-0.9687279	sau ba ăn
-0.9687279	trên ba ăn
-0.9687279	dưới ba ăn
-0.8431374	tượng ba ăn
-0.8431374	tịnh ba ăn
-0.8431374	bộ ba ăn
-1.2580044	xe ba ăn
-0.9752548	mã ba ăn
-1.2580044	pháo ba ăn
-0.80260235	tốt ba ăn
-0.7579868	giữa ba ăn
-0.80260235	binh ba ăn
-0.80260235	chốt ba ăn
-0.94224846	trước hai ăn
-0.94224846	sau hai ăn
-0.94224846	trên hai ăn
-0.94224846	dưới hai ăn
-0.7581266	tượng hai ăn
-0.7581266	tịnh hai ăn
-0.7581266	bộ hai ăn
-1.2580044	xe hai ăn
-0.9142008	mã hai ăn
-1.2580044	pháo hai ăn
-0.80260235	tốt hai ăn
-0.7579868	giữa hai ăn
-0.80260235	binh hai ăn
-0.80260235	chốt hai ăn
-0.94224846	trước tám ăn
-0.94224846	sau tám ăn
-0.94224846	trên tám ăn
-0.94224846	dưới tám ăn
-0.7581266	tượng tám ăn
-0.7581266	tịnh tám ăn
-0.7581266	bộ tám ăn
-1.2580044	xe tám ăn
-0.9142008	mã tám ăn
-1.2580044	pháo tám ăn
-0.80260235	tốt tám ăn
-0.7579868	giữa tám ăn
-0.80260235	binh tám ăn
-0.80260235	chốt tám ăn
-0.93013585	trước chín ăn
-0.93013585	sau chín ăn
-0.93013585	trên chín ăn
-0.93013585	dưới chín ăn
-0.7581266	tượng chín ăn
-0.7581266	tịnh chín ăn
-0.7581266	bộ chín ăn
-1.2580044	xe chín ăn
-0.8431374	mã chín ăn
-1.2580044	pháo chín ăn
-0.78088313	tốt chín ăn
-0.7338531	giữa chín ăn
-0.78088313	binh chín ăn
-0.78088313	chốt chín ăn
-2.4669228	<s> tịnh ăn
-2.4669228	<s> bộ ăn
-2.923835	<s> xe ăn
-2.5934746	<s> mã ăn
-2.923835	<s> pháo ăn
-2.6181288	<s> tốt ăn
-1.769518	trước giữa ăn
-1.769518	sau giữa ăn
-0.8975123	trái giữa ăn
-1.769518	trên giữa ăn
-1.769518	dưới giữa ăn
-0.8975123	phải giữa ăn
-1.7694517	tốt giữa ăn
-1.7694517	binh giữa ăn
-1.7694517	chốt giữa ăn
-2.6181288	<s> binh ăn
-2.6181288	<s> chốt ăn
-1.1798356	<s> soái ăn
-1.4693263	tướng ăn sĩ
-1.4678324	năm ăn sĩ
-1.4693263	sĩ ăn sĩ
-1.4679612	trước ăn sĩ
-1.4678324	bốn ăn sĩ
-1.4679612	sau ăn sĩ
-1.4679612	trái ăn sĩ
-1.4679612	trên ăn sĩ
-1.4679612	dưới ăn sĩ
-1.4678324	sáu ăn sĩ
-1.4679612	phải ăn sĩ
-1.4693263	tượng ăn sĩ
-1.4678351	bảy ăn sĩ
-1.4678351	một ăn sĩ
-1.4678351	ba ăn sĩ
-1.4678351	hai ăn sĩ
-1.4678351	tám ăn sĩ
-1.4678351	chín ăn sĩ
-1.4693263	tịnh ăn sĩ
-1.4693263	bộ ăn sĩ
-1.4693263	xe ăn sĩ
-1.4693263	mã ăn sĩ
-1.4693263	pháo ăn sĩ
-1.4693263	tốt ăn sĩ
-1.4678819	giữa ăn sĩ
-1.4693263	binh ăn sĩ
-1.4693263	chốt ăn sĩ
-1.4693263	soái ăn sĩ
-1.4693263	tướng bắt sĩ
-1.4678324	năm bắt sĩ
-1.4693263	sĩ bắt sĩ
-1.4679612	trước bắt sĩ
-1.4678324	bốn bắt sĩ
-1.4679612	sau bắt sĩ
-1.4679612	trái bắt sĩ
-1.4679612	trên bắt sĩ
-1.4679612	dưới bắt sĩ
-1.4678324	sáu bắt sĩ
-1.4679612	phải bắt sĩ
-1.4693263	tượng bắt sĩ
-1.4678351	bảy bắt sĩ
-1.4678351	một bắt sĩ
-1.4678351	ba bắt sĩ
-1.4678351	hai bắt sĩ
-1.4678351	tám bắt sĩ
-1.4678351	chín bắt sĩ
-1.4693263	tịnh bắt sĩ
-1.4693263	bộ bắt sĩ
-1.4693263	xe bắt sĩ
-1.4693263	mã bắt sĩ
-1.4693263	pháo bắt sĩ
-1.4693263	tốt bắt sĩ
-1.4678819	giữa bắt sĩ
-1.4693263	binh bắt sĩ
-1.4693263	chốt bắt sĩ
-1.4693263	soái bắt sĩ
-1.1800879	<s> tướng bắt
-1.5297763	tướng năm bắt
-0.8431004	sĩ năm bắt
-0.9456433	trước năm bắt
-0.9456433	sau năm bắt
-0.9456433	trên năm bắt
-0.9456433	dưới năm bắt
-0.8431004	tượng năm bắt
-0.8431004	tịnh năm bắt
-0.8431004	bộ năm bắt
-1.2579627	xe năm bắt
-0.9752177	mã năm bắt
-1.2579627	pháo năm bắt
-0.8025607	tốt năm bắt
-0.75798464	giữa năm bắt
-0.8025607	binh năm bắt
-0.8025607	chốt năm bắt
-0.586547	soái năm bắt
-1.9785031	<s> sĩ bắt
-1.3832413	sĩ trước bắt
-1.8655353	tượng trước bắt
-1.8655353	tịnh trước bắt
-1.8655353	bộ trước bắt
-2.2586246	xe trước bắt
-1.9693534	mã trước bắt
-2.2586246	pháo trước bắt
-2.0705705	tốt trước bắt
-2.0705705	binh trước bắt
-2.0705705	chốt trước bắt
-1.5257869	tướng bốn bắt
-0.7580896	sĩ bốn bắt
-0.9516962	trước bốn bắt
-0.9516962	sau bốn bắt
-0.9516962	trên bốn bắt
-0.9516962	dưới bốn bắt
-0.8431004	tượng bốn bắt
-0.8431004	tịnh bốn bắt
-0.8431004	bộ bốn bắt
-1.2579627	xe bốn bắt
-0.9752177	mã bốn bắt
-1.2579627	pháo bốn bắt
-0.8025607	tốt bốn bắt
-0.75798464	giữa bốn bắt
-0.8025607	binh bốn bắt
-0.8025607	chốt bốn bắt
-0.5502136	soái bốn bắt
-1.3832413	sĩ sau bắt
-1.8655353	tượng sau bắt
-1.8655353	tịnh sau bắt
-1.8655353	bộ sau bắt
-2.2586246	xe sau bắt
-1.9693534	mã sau bắt
-2.2586246	pháo sau bắt
-2.0705705	tốt sau bắt
-2.0705705	binh sau bắt
-2.0705705	chốt sau bắt
-0.91414475	sĩ trái bắt
-1.1941903	tượng trái bắt
-1.1941903	tịnh trái bắt
-1.1941903	bộ trái bắt
-1.2653024	xe trái bắt
-1.1941903	mã trái bắt
-1.2653024	pháo trái bắt
-1.198469	tốt trái bắt
-1.198469	binh trái bắt
-1.198469	chốt trái bắt
-1.3832413	sĩ trên bắt
-1.8655353	tượng trên bắt
-1.8655353	tịnh trên bắt
-1.8655353	bộ trên bắt
-2.2586246	xe trên bắt
-1.9693534	mã trên bắt
-2.2586246	pháo trên bắt
-2.0705705	tốt trên bắt
-2.0705705	binh trên bắt
-2.0705705	chốt trên bắt
-1.3832413	sĩ dưới bắt
-1.8655353	tượng dưới bắt
-1.8655353	tịnh dưới bắt
-1.8655353	bộ dưới bắt
-2.2586246	xe dưới bắt
-1.9693534	mã dưới bắt
-2.2586246	pháo dưới bắt
-2.0705705	tốt dưới bắt
-2.0705705	binh dưới bắt
-2.0705705	chốt dưới bắt
-1.5257869	tướng sáu bắt
-0.7580896	sĩ sáu bắt
-0.9516962	trước sáu bắt
-0.9516962	sau sáu bắt
-0.9516962	trên sáu bắt
-0.9516962	dưới sáu bắt
-0.8431004	tượng sáu bắt
-0.8431004	tịnh sáu bắt
-0.8431004	bộ sáu bắt
-1.2579627	xe sáu bắt
-0.9752177	mã sáu bắt
-1.2579627	pháo sáu bắt
-0.8025607	tốt sáu bắt
-0.75798464	giữa sáu bắt
-0.8025607	binh sáu bắt
-0.8025607	chốt sáu bắt
-0.5502136	soái sáu bắt
-0.91414475	sĩ phải bắt
-1.1941903	tượng phải bắt
-1.1941903	tịnh phải bắt
-1.1941903	bộ phải bắt
-1.2653024	xe phải bắt
-1.1941903	mã phải bắt
-1.2653024	pháo phải bắt
-1.198469	tốt phải bắt
-1.198469	binh phải bắt
-1.198469	chốt phải bắt
-2.4669228	<s> tượng bắt
-0.9687279	trước bảy bắt
-0.9687279	sau bảy bắt
-0.9687279	trên bảy bắt
-0.9687279	dưới bảy bắt
-0.8431374	tượng bảy bắt
-0.8431374	tịnh bảy bắt
-0.8431374	bộ bảy bắt
-1.2580044	xe bảy bắt
-0.9752548	mã bảy bắt
-1.2580044	pháo bảy bắt
-0.80260235	tốt bảy bắt
-0.7579868	giữa bảy bắt
-0.80260235	binh bảy bắt
-0.80260235	chốt bảy bắt
-0.93013585	trước một bắt
-0.93013585	sau một bắt
-0.93013585	trên một bắt
-0.93013585	dưới một bắt
-0.7581266	tượng một bắt
-0.7581266	tịnh một bắt
-0.7581266	bộ một bắt
-1.2580044	xe một bắt
-0.8431374	mã một bắt
-1.2580044	pháo một bắt
-0.78088313	tốt một bắt
-0.7338531	giữa một bắt
-0.78088313	binh một bắt
-0.78088313	chốt một bắt
-0.9687279	trước ba bắt
-0.9687279	sau ba bắt
-0.9687279	trên ba bắt
-0.9687279	dưới ba bắt
-0.8431374	tượng ba bắt
-0.8431374	tịnh ba bắt
-0.8431374	bộ ba bắt
-1.2580044	xe ba bắt
-0.9752548	mã ba bắt
-1.2580044	pháo ba bắt
-0.80260235	tốt ba bắt
-0.7579868	giữa ba bắt
-0.80260235	binh ba bắt
-0.80260235	chốt ba bắt
-0.94224846	trước hai bắt
-0.94224846	sau hai bắt
-0.94224846	trên hai bắt
-0.94224846	dưới hai bắt
-0.7581266	tượng hai bắt
-0.7581266	tịnh hai bắt
-0.7581266	bộ hai bắt
-1.2580044	xe hai bắt
-0.9142008	mã hai bắt
-1.2580044	pháo hai bắt
-0.80260235	tốt hai bắt
-0.7579868	giữa hai bắt
-0.80260235	binh hai bắt
-0.80260235	chốt hai bắt
-0.94224846	trước tám bắt
-0.94224846	sau tám bắt
-0.94224846	trên tám bắt
-0.94224846	dưới tám bắt
-0.7581266	tượng tám bắt
-0.7581266	tịnh tám bắt
-0.7581266	bộ tám bắt
-1.2580044	xe tám bắt
-0.9142008	mã tám bắt
-1.2580044	pháo tám bắt
-0.80260235	tốt tám bắt
-0.7579868	giữa tám bắt
-0.80260235	binh tám bắt
-0.80260235	chốt tám bắt
-0.93013585	trước chín bắt
-0.93013585	sau chín bắt
-0.93013585	trên chín bắt
-0.93013585	dưới chín bắt
-0.7581266	tượng chín bắt
-0.7581266	tịnh chín bắt
-0.7581266	bộ chín bắt
-1.2580044	xe chín bắt
-0.8431374	mã chín bắt
-1.2580044	pháo chín bắt
-0.78088313	tốt chín bắt
-0.7338531	giữa chín bắt
-0.78088313	binh chín bắt
-0.78088313	chốt chín bắt
-2.4669228	<s> tịnh bắt
-2.4669228	<s> bộ bắt
-2.923835	<s> xe bắt
-2.5934746	<s> mã bắt
-2.923835	<s> pháo bắt
-2.6181288	<s> tốt bắt
-1.769518	trước giữa bắt
-1.769518	sau giữa bắt
-0.8975123	trái giữa bắt
-1.769518	trên giữa bắt
-1.769518	dưới giữa bắt
-0.8975123	phải giữa bắt
-1.7694517	tốt giữa bắt
-1.7694517	binh giữa bắt
-1.7694517	chốt giữa bắt
-2.6181288	<s> binh bắt
-2.6181288	<s> chốt bắt
-1.1798356	<s> soái bắt
-0.7726556	<s> sĩ trước
-0.74048716	ăn sĩ trước
-0.74048716	bắt sĩ trước
-0.741341	<s> tượng trước
-0.7160454	ăn tượng trước
-0.7160454	bắt tượng trước
-0.741341	<s> tịnh trước
-0.7160454	ăn tịnh trước
-0.7160454	bắt tịnh trước
-0.741341	<s> bộ trước
-0.7160454	ăn bộ trước
-0.7160454	bắt bộ trước
-0.71629316	<s> xe trước
-0.71604615	ăn xe trước
-0.71604615	bắt xe trước
-0.73023385	<s> mã trước
-0.7160454	ăn mã trước
-0.7160454	bắt mã trước
-0.71629316	<s> pháo trước
-0.71604615	ăn pháo trước
-0.71604615	bắt pháo trước
-0.7305079	<s> tốt trước
-0.7160234	ăn tốt trước
-0.7160234	bắt tốt trước
-0.7305079	<s> binh trước
-0.7160234	ăn binh trước
-0.7160234	bắt binh trước
-0.7305079	<s> chốt trước
-0.7160234	ăn chốt trước
-0.7160234	bắt chốt trước
-0.6296798	<s> tướng bốn
-1.0000105	chiếu tướng bốn
-1.4095858	<s> sĩ bốn
-1.342817	ăn sĩ bốn
-1.342817	bắt sĩ bốn
-0.6249873	sĩ trước bốn
-1.0225687	tượng trước bốn
-1.0225687	tịnh trước bốn
-1.0225687	bộ trước bốn
-1.0007397	xe trước bốn
-0.9942688	mã trước bốn
-1.0007397	pháo trước bốn
-1.3126154	tốt trước bốn
-1.3126154	binh trước bốn
-1.3126154	chốt trước bốn
-0.6249873	sĩ sau bốn
-1.0225687	tượng sau bốn
-1.0225687	tịnh sau bốn
-1.0225687	bộ sau bốn
-1.0007397	xe sau bốn
-0.9942688	mã sau bốn
-1.0007397	pháo sau bốn
-1.3126154	tốt sau bốn
-1.3126154	binh sau bốn
-1.3126154	chốt sau bốn
-0.6249873	sĩ trên bốn
-1.0225687	tượng trên bốn
-1.0225687	tịnh trên bốn
-1.0225687	bộ trên bốn
-1.0007397	xe trên bốn
-0.9942688	mã trên bốn
-1.0007397	pháo trên bốn
-1.3126154	tốt trên bốn
-1.3126154	binh trên bốn
-1.3126154	chốt trên bốn
-0.6249873	sĩ dưới bốn
-1.0225687	tượng dưới bốn
-1.0225687	tịnh dưới bốn
-1.0225687	bộ dưới bốn
-1.0007397	xe dưới bốn
-0.9942688	mã dưới bốn
-1.0007397	pháo dưới bốn
-1.3126154	tốt dưới bốn
-1.3126154	binh dưới bốn
-1.3126154	chốt dưới bốn
-1.7728165	<s> tượng bốn
-1.7162576	ăn tượng bốn
-1.7162576	bắt tượng bốn
-1.7728165	<s> tịnh bốn
-1.7162576	ăn tịnh bốn
-1.7162576	bắt tịnh bốn
-1.7728165	<s> bộ bốn
-1.7162576	ăn bộ bốn
-1.7162576	bắt bộ bốn
-1.7171234	<s> xe bốn
-1.7162656	ăn xe bốn
-1.7162656	bắt xe bốn
-1.7229161	<s> mã bốn
-1.7162576	ăn mã bốn
-1.7162576	bắt mã bốn
-1.7171234	<s> pháo bốn
-1.7162656	ăn pháo bốn
-1.7162656	bắt pháo bốn
-1.9821669	<s> tốt bốn
-2.017258	ăn tốt bốn
-2.017258	bắt tốt bốn
-1.0115929	trước giữa bốn
-1.0115929	sau giữa bốn
-1.0115929	trên giữa bốn
-1.0115929	dưới giữa bốn
-1.0116148	tốt giữa bốn
-1.0116148	binh giữa bốn
-1.0116148	chốt giữa bốn
-1.9821669	<s> binh bốn
-2.017258	ăn binh bốn
-2.017258	bắt binh bốn
-1.9821669	<s> chốt bốn
-2.017258	ăn chốt bốn
-2.017258	bắt chốt bốn
-0.6296798	<s> soái bốn
-1.0364385	năm tiến bốn
-0.4793474	sĩ tiến bốn
-0.93307424	trước tiến bốn
-1.247988	bốn tiến bốn
-0.93307424	sau tiến bốn
-0.93307424	trái tiến bốn
-0.93307424	trên tiến bốn
-0.93307424	dưới tiến bốn
-0.7708569	sáu tiến bốn
-0.93307424	phải tiến bốn
-0.9543895	tượng tiến bốn
-1.2304636	bảy tiến bốn
-1.1613827	một tiến bốn
-1.0543675	ba tiến bốn
-0.6989749	hai tiến bốn
-1.176106	tám tiến bốn
-1.1613827	chín tiến bốn
-0.9543895	tịnh tiến bốn
-0.9543895	bộ tiến bốn
-0.9543895	xe tiến bốn
-0.9543895	mã tiến bốn
-0.9543895	pháo tiến bốn
-1.0364385	năm tấn bốn
-0.4793474	sĩ tấn bốn
-0.93307424	trước tấn bốn
-1.247988	bốn tấn bốn
-0.93307424	sau tấn bốn
-0.93307424	trái tấn bốn
-0.93307424	trên tấn bốn
-0.93307424	dưới tấn bốn
-0.7708569	sáu tấn bốn
-0.93307424	phải tấn bốn
-0.9543895	tượng tấn bốn
-1.2304636	bảy tấn bốn
-1.1613827	một tấn bốn
-1.0543675	ba tấn bốn
-0.6989749	hai tấn bốn
-1.176106	tám tấn bốn
-1.1613827	chín tấn bốn
-0.9543895	tịnh tấn bốn
-0.9543895	bộ tấn bốn
-0.9543895	xe tấn bốn
-0.9543895	mã tấn bốn
-0.9543895	pháo tấn bốn
-0.4792802	tướng bình bốn
-0.53512067	năm bình bốn
-0.9542318	trước bình bốn
-0.9542318	sau bình bốn
-0.9542318	trái bình bốn
-0.9542318	trên bình bốn
-0.9542318	dưới bình bốn
-1.1523198	sáu bình bốn
-0.9542318	phải bình bốn
-1.1461594	bảy bình bốn
-1.0414242	một bình bốn
-0.5440759	ba bình bốn
-1.1461594	hai bình bốn
-1.1461594	tám bình bốn
-1.0414242	chín bình bốn
-0.9541889	xe bình bốn
-0.9541889	pháo bình bốn
-0.9541889	tốt bình bốn
-0.95423996	giữa bình bốn
-0.9541889	binh bình bốn
-0.9541889	chốt bình bốn
-0.4792802	soái bình bốn
-0.9542477	năm thoái bốn
-0.47932595	sĩ thoái bốn
-0.91078866	trước thoái bốn
-1.1673256	bốn thoái bốn
-0.91078866	sau thoái bốn
-0.91078866	trái thoái bốn
-0.91078866	trên thoái bốn
-0.91078866	dưới thoái bốn
-0.69019884	sáu thoái bốn
-0.91078866	phải thoái bốn
-0.9543254	tượng thoái bốn
-1.1461363	bảy thoái bốn
-1.0607061	một thoái bốn
-0.9700423	ba thoái bốn
-0.60206276	hai thoái bốn
-1.0791895	tám thoái bốn
-1.0607061	chín thoái bốn
-0.9543254	tịnh thoái bốn
-0.9543254	bộ thoái bốn
-0.9543254	xe thoái bốn
-0.9543254	mã thoái bốn
-0.9543254	pháo thoái bốn
-0.9542477	năm lùi bốn
-0.47932595	sĩ lùi bốn
-0.91078866	trước lùi bốn
-1.1673256	bốn lùi bốn
-0.91078866	sau lùi bốn
-0.91078866	trái lùi bốn
-0.91078866	trên lùi bốn
-0.91078866	dưới lùi bốn
-0.69019884	sáu lùi bốn
-0.91078866	phải lùi bốn
-0.9543254	tượng lùi bốn
-1.1461363	bảy lùi bốn
-1.0607061	một lùi bốn
-0.9700423	ba lùi bốn
-0.60206276	hai lùi bốn
-1.0791895	tám lùi bốn
-1.0607061	chín lùi bốn
-0.9543254	tịnh lùi bốn
-0.9543254	bộ lùi bốn
-0.9543254	xe lùi bốn
-0.9543254	mã lùi bốn
-0.9543254	pháo lùi bốn
-0.7726556	<s> sĩ sau
-0.74048716	ăn sĩ sau
-0.74048716	bắt sĩ sau
-0.741341	<s> tượng sau
-0.7160454	ăn tượng sau
-0.7160454	bắt tượng sau
-0.741341	<s> tịnh sau
-0.7160454	ăn tịnh sau
-0.7160454	bắt tịnh sau
-0.741341	<s> bộ sau
-0.7160454	ăn bộ sau
-0.7160454	bắt bộ sau
-0.71629316	<s> xe sau
-0.71604615	ăn xe sau
-0.71604615	bắt xe sau
-0.73023385	<s> mã sau
-0.7160454	ăn mã sau
-0.7160454	bắt mã sau
-0.71629316	<s> pháo sau
-0.71604615	ăn pháo sau
-0.71604615	bắt pháo sau
-0.7305079	<s> tốt sau
-0.7160234	ăn tốt sau
-0.7160234	bắt tốt sau
-0.7305079	<s> binh sau
-0.7160234	ăn binh sau
-0.7160234	bắt binh sau
-0.7305079	<s> chốt sau
-0.7160234	ăn chốt sau
-0.7160234	bắt chốt sau
-1.1871802	<s> sĩ trái
-1.3429208	ăn sĩ trái
-1.3429208	bắt sĩ trái
-1.332812	<s> tượng trái
-1.7164236	ăn tượng trái
-1.7164236	bắt tượng trái
-1.332812	<s> tịnh trái
-1.7164236	ăn tịnh trái
-1.7164236	bắt tịnh trái
-1.332812	<s> bộ trái
-1.7164236	ăn bộ trái
-1.7164236	bắt bộ trái
-1.7088593	<s> xe trái
-1.7164317	ăn xe trái
-1.7164317	bắt xe trái
-1.4593637	<s> mã trái
-1.7164236	ăn mã trái
-1.7164236	bắt mã trái
-1.7088593	<s> pháo trái
-1.7164317	ăn pháo trái
-1.7164317	bắt pháo trái
-1.5482041	<s> tốt trái
-1.7162038	ăn tốt trái
-1.7162038	bắt tốt trái
-1.5482041	<s> binh trái
-1.7162038	ăn binh trái
-1.7162038	bắt binh trái
-1.5482041	<s> chốt trái
-1.7162038	ăn chốt trái
-1.7162038	bắt chốt trái
-0.7726556	<s> sĩ trên
-0.74048716	ăn sĩ trên
-0.74048716	bắt sĩ trên
-0.741341	<s> tượng trên
-0.7160454	ăn tượng trên
-0.7160454	bắt tượng trên
-0.741341	<s> tịnh trên
-0.7160454	ăn tịnh trên
-0.7160454	bắt tịnh trên
-0.741341	<s> bộ trên
-0.7160454	ăn bộ trên
-0.7160454	bắt bộ trên
-0.71629316	<s> xe trên
-0.71604615	ăn xe trên
-0.71604615	bắt xe trên
-0.73023385	<s> mã trên
-0.7160454	ăn mã trên
-0.7160454	bắt mã trên
-0.71629316	<s> pháo trên
-0.71604615	ăn pháo trên
-0.71604615	bắt pháo trên
-0.7305079	<s> tốt trên
-0.7160234	ăn tốt trên
-0.7160234	bắt tốt trên
-0.7305079	<s> binh trên
-0.7160234	ăn binh trên
-0.7160234	bắt binh trên
-0.7305079	<s> chốt trên
-0.7160234	ăn chốt trên
-0.7160234	bắt chốt trên
-0.7726556	<s> sĩ dưới
-0.74048716	ăn sĩ dưới
-0.74048716	bắt sĩ dưới
-0.741341	<s> tượng dưới
-0.7160454	ăn tượng dưới
-0.7160454	bắt tượng dưới
-0.741341	<s> tịnh dưới
-0.7160454	ăn tịnh dưới
-0.7160454	bắt tịnh dưới
-0.741341	<s> bộ dưới
-0.7160454	ăn bộ dưới
-0.7160454	bắt bộ dưới
-0.71629316	<s> xe dưới
-0.71604615	ăn xe dưới
-0.71604615	bắt xe dưới
-0.73023385	<s> mã dưới
-0.7160454	ăn mã dưới
-0.7160454	bắt mã dưới
-0.71629316	<s> pháo dưới
-0.71604615	ăn pháo dưới
-0.71604615	bắt pháo dưới
-0.7305079	<s> tốt dưới
-0.7160234	ăn tốt dưới
-0.7160234	bắt tốt dưới
-0.7305079	<s> binh dưới
-0.7160234	ăn binh dưới
-0.7160234	bắt binh dưới
-0.7305079	<s> chốt dưới
-0.7160234	ăn chốt dưới
-0.7160234	bắt chốt dưới
-0.6296798	<s> tướng sáu
-1.0000105	chiếu tướng sáu
-1.4095858	<s> sĩ sáu
-1.342817	ăn sĩ sáu
-1.342817	bắt sĩ sáu
-0.6249873	sĩ trước sáu
-1.0225687	tượng trước sáu
-1.0225687	tịnh trước sáu
-1.0225687	bộ trước sáu
-1.0007397	xe trước sáu
-0.9942688	mã trước sáu
-1.0007397	pháo trước sáu
-1.3126154	tốt trước sáu
-1.3126154	binh trước sáu
-1.3126154	chốt trước sáu
-0.6249873	sĩ sau sáu
-1.0225687	tượng sau sáu
-1.0225687	tịnh sau sáu
-1.0225687	bộ sau sáu
-1.0007397	xe sau sáu
-0.9942688	mã sau sáu
-1.0007397	pháo sau sáu
-1.3126154	tốt sau sáu
-1.3126154	binh sau sáu
-1.3126154	chốt sau sáu
-0.6249873	sĩ trên sáu
-1.0225687	tượng trên sáu
-1.0225687	tịnh trên sáu
-1.0225687	bộ trên sáu
-1.0007397	xe trên sáu
-0.9942688	mã trên sáu
-1.0007397	pháo trên sáu
-1.3126154	tốt trên sáu
-1.3126154	binh trên sáu
-1.3126154	chốt trên sáu
-0.6249873	sĩ dưới sáu
-1.0225687	tượng dưới sáu
-1.0225687	tịnh dưới sáu
-1.0225687	bộ dưới sáu
-1.0007397	xe dưới sáu
-0.9942688	mã dưới sáu
-1.0007397	pháo dưới sáu
-1.3126154	tốt dưới sáu
-1.3126154	binh dưới sáu
-1.3126154	chốt dưới sáu
-1.7728165	<s> tượng sáu
-1.7162576	ăn tượng sáu
-1.7162576	bắt tượng sáu
-1.7728165	<s> tịnh sáu
-1.7162576	ăn tịnh sáu
-1.7162576	bắt tịnh sáu
-1.7728165	<s> bộ sáu
-1.7162576	ăn bộ sáu
-1.7162576	bắt bộ sáu
-1.7171234	<s> xe sáu
-1.7162656	ăn xe sáu
-1.7162656	bắt xe sáu
-1.7229161	<s> mã sáu
-1.7162576	ăn mã sáu
-1.7162576	bắt mã sáu
-1.7171234	<s> pháo sáu
-1.7162656	ăn pháo sáu
-1.7162656	bắt pháo sáu
-1.9821669	<s> tốt sáu
-2.017258	ăn tốt sáu
-2.017258	bắt tốt sáu
-1.0115929	trước giữa sáu
-1.0115929	sau giữa sáu
-1.0115929	trên giữa sáu
-1.0115929	dưới giữa sáu
-1.0116148	tốt giữa sáu
-1.0116148	binh giữa sáu
-1.0116148	chốt giữa sáu
-1.9821669	<s> binh sáu
-2.017258	ăn binh sáu
-2.017258	bắt binh sáu
-1.9821669	<s> chốt sáu
-2.017258	ăn chốt sáu
-2.017258	bắt chốt sáu
-0.6296798	<s> soái sáu
-1.0364385	năm tiến sáu
-0.4793474	sĩ tiến sáu
-0.93307424	trước tiến sáu
-0.7708569	bốn tiến sáu
-0.93307424	sau tiến sáu
-0.93307424	trái tiến sáu
-0.93307424	trên tiến sáu
-0.93307424	dưới tiến sáu
-1.247988	sáu tiến sáu
-0.93307424	phải tiến sáu
-0.9543895	tượng tiến sáu
-1.0543675	bảy tiến sáu
-1.1613827	một tiến sáu
-1.2304636	ba tiến sáu
-1.176106	hai tiến sáu
-0.6989749	tám tiến sáu
-1.1613827	chín tiến sáu
-0.9543895	tịnh tiến sáu
-0.9543895	bộ tiến sáu
-0.9543895	xe tiến sáu
-0.9543895	mã tiến sáu
-0.9543895	pháo tiến sáu
-1.0364385	năm tấn sáu
-0.4793474	sĩ tấn sáu
-0.93307424	trước tấn sáu
-0.7708569	bốn tấn sáu
-0.93307424	sau tấn sáu
-0.93307424	trái tấn sáu
-0.93307424	trên tấn sáu
-0.93307424	dưới tấn sáu
-1.247988	sáu tấn sáu
-0.93307424	phải tấn sáu
-0.9543895	tượng tấn sáu
-1.0543675	bảy tấn sáu
-1.1613827	một tấn sáu
-1.2304636	ba tấn sáu
-1.176106	hai tấn sáu
-0.6989749	tám tấn sáu
-1.1613827	chín tấn sáu
-0.9543895	tịnh tấn sáu
-0.9543895	bộ tấn sáu
-0.9543895	xe tấn sáu
-0.9543895	mã tấn sáu
-0.9543895	pháo tấn sáu
-0.4792802	tướng bình sáu
-0.53512067	năm bình sáu
-0.9542318	trước bình sáu
-1.1523198	bốn bình sáu
-0.9542318	sau bình sáu
-0.9542318	trái bình sáu
-0.9542318	trên bình sáu
-0.9542318	dưới bình sáu
-0.9542318	phải bình sáu
-0.5440759	bảy bình sáu
-1.0414242	một bình sáu
-1.1461594	ba bình sáu
-1.1461594	hai bình sáu
-1.1461594	tám bình sáu
-1.0414242	chín bình sáu
-0.9541889	xe bình sáu
-0.9541889	pháo bình sáu
-0.9541889	tốt bình sáu
-0.95423996	giữa bình sáu
-0.9541889	binh bình sáu
-0.9541889	chốt bình sáu
-0.4792802	soái bình sáu
-0.9542477	năm thoái sáu
-0.47932595	sĩ thoái sáu
-0.91078866	trước thoái sáu
-0.69019884	bốn thoái sáu
-0.91078866	sau thoái sáu
-0.91078866	trái thoái sáu
-0.91078866	trên thoái sáu
-0.91078866	dưới thoái sáu
-1.1673256	sáu thoái sáu
-0.91078866	phải thoái sáu
-0.9543254	tượng thoái sáu
-0.9700423	bảy thoái sáu
-1.0607061	một thoái sáu
-1.1461363	ba thoái sáu
-1.0791895	hai thoái sáu
-0.60206276	tám thoái sáu
-1.0607061	chín thoái sáu
-0.9543254	tịnh thoái sáu
-0.9543254	bộ thoái sáu
-0.9543254	xe thoái sáu
-0.9543254	mã thoái sáu
-0.9543254	pháo thoái sáu
-0.9542477	năm lùi sáu
-0.47932595	sĩ lùi sáu
-0.91078866	trước lùi sáu
-0.69019884	bốn lùi sáu
-0.91078866	sau lùi sáu
-0.91078866	trái lùi sáu
-0.91078866	trên lùi sáu
-0.91078866	dưới lùi sáu
-1.1673256	sáu lùi sáu
-0.91078866	phải lùi sáu
-0.9543254	tượng lùi sáu
-0.9700423	bảy lùi sáu
-1.0607061	một lùi sáu
-1.1461363	ba lùi sáu
-1.0791895	hai lùi sáu
-0.60206276	tám lùi sáu
-1.0607061	chín lùi sáu
-0.9543254	tịnh lùi sáu
-0.9543254	bộ lùi sáu
-0.9543254	xe lùi sáu
-0.9543254	mã lùi sáu
-0.9543254	pháo lùi sáu
-1.1871802	<s> sĩ phải
-1.3429208	ăn sĩ phải
-1.3429208	bắt sĩ phải
-1.332812	<s> tượng phải
-1.7164236	ăn tượng phải
-1.7164236	bắt tượng phải
-1.332812	<s> tịnh phải
-1.7164236	ăn tịnh phải
-1.7164236	bắt tịnh phải
-1.332812	<s> bộ phải
-1.7164236	ăn bộ phải
-1.7164236	bắt bộ phải
-1.7088593	<s> xe phải
-1.7164317	ăn xe phải
-1.7164317	bắt xe phải
-1.4593637	<s> mã phải
-1.7164236	ăn mã phải
-1.7164236	bắt mã phải
-1.7088593	<s> pháo phải
-1.7164317	ăn pháo phải
-1.7164317	bắt pháo phải
-1.5482041	<s> tốt phải
-1.7162038	ăn tốt phải
-1.7162038	bắt tốt phải
-1.5482041	<s> binh phải
-1.7162038	ăn binh phải
-1.7162038	bắt binh phải
-1.5482041	<s> chốt phải
-1.7162038	ăn chốt phải
-1.7162038	bắt chốt phải
-1.0948701	tướng ăn tượng
-1.0942388	năm ăn tượng
-1.0948701	sĩ ăn tượng
-1.0942932	trước ăn tượng
-1.0942388	bốn ăn tượng
-1.0942932	sau ăn tượng
-1.0942932	trái ăn tượng
-1.0942932	trên ăn tượng
-1.0942932	dưới ăn tượng
-1.0942388	sáu ăn tượng
-1.0942932	phải ăn tượng
-1.0948701	tượng ăn tượng
-1.0942398	bảy ăn tượng
-1.0942398	một ăn tượng
-1.0942398	ba ăn tượng
-1.0942398	hai ăn tượng
-1.0942398	tám ăn tượng
-1.0942398	chín ăn tượng
-1.0948701	tịnh ăn tượng
-1.0948701	bộ ăn tượng
-1.0948701	xe ăn tượng
-1.0948701	mã ăn tượng
-1.0948701	pháo ăn tượng
-1.0948701	tốt ăn tượng
-1.0942597	giữa ăn tượng
-1.0948701	binh ăn tượng
-1.0948701	chốt ăn tượng
-1.0948701	soái ăn tượng
-1.0948701	tướng bắt tượng
-1.0942388	năm bắt tượng
-1.0948701	sĩ bắt tượng
-1.0942932	trước bắt tượng
-1.0942388	bốn bắt tượng
-1.0942932	sau bắt tượng
-1.0942932	trái bắt tượng
-1.0942932	trên bắt tượng
-1.0942932	dưới bắt tượng
-1.0942388	sáu bắt tượng
-1.0942932	phải bắt tượng
-1.0948701	tượng bắt tượng
-1.0942398	bảy bắt tượng
-1.0942398	một bắt tượng
-1.0942398	ba bắt tượng
-1.0942398	hai bắt tượng
-1.0942398	tám bắt tượng
-1.0942398	chín bắt tượng
-1.0948701	tịnh bắt tượng
-1.0948701	bộ bắt tượng
-1.0948701	xe bắt tượng
-1.0948701	mã bắt tượng
-1.0948701	pháo bắt tượng
-1.0948701	tốt bắt tượng
-1.0942597	giữa bắt tượng
-1.0948701	binh bắt tượng
-1.0948701	chốt bắt tượng
-1.0948701	soái bắt tượng
-1.0000194	chiếu tướng bảy
-1.022585	tượng trước bảy
-1.022585	tịnh trước bảy
-1.022585	bộ trước bảy
-1.0007463	xe trước bảy
-0.9942808	mã trước bảy
-1.0007463	pháo trước bảy
-1.3126352	tốt trước bảy
-1.3126352	binh trước bảy
-1.3126352	chốt trước bảy
-1.022585	tượng sau bảy
-1.022585	tịnh sau bảy
-1.022585	bộ sau bảy
-1.0007463	xe sau bảy
-0.9942808	mã sau bảy
-1.0007463	pháo sau bảy
-1.3126352	tốt sau bảy
-1.3126352	binh sau bảy
-1.3126352	chốt sau bảy
-1.022585	tượng trên bảy
-1.022585	tịnh trên bảy
-1.022585	bộ trên bảy
-1.0007463	xe trên bảy
-0.9942808	mã trên bảy
-1.0007463	pháo trên bảy
-1.3126352	tốt trên bảy
-1.3126352	binh trên bảy
-1.3126352	chốt trên bảy
-1.022585	tượng dưới bảy
-1.022585	tịnh dưới bảy
-1.022585	bộ dưới bảy
-1.0007463	xe dưới bảy
-0.9942808	mã dưới bảy
-1.0007463	pháo dưới bảy
-1.3126352	tốt dưới bảy
-1.3126352	binh dưới bảy
-1.3126352	chốt dưới bảy
-1.7728244	<s> tượng bảy
-1.7162852	ăn tượng bảy
-1.7162852	bắt tượng bảy
-1.7728244	<s> tịnh bảy
-1.7162852	ăn tịnh bảy
-1.7162852	bắt tịnh bảy
-1.7728244	<s> bộ bảy
-1.7162852	ăn bộ bảy
-1.7162852	bắt bộ bảy
-1.7171259	<s> xe bảy
-1.7162933	ăn xe bảy
-1.7162933	bắt xe bảy
-1.7229214	<s> mã bảy
-1.7162852	ăn mã bảy
-1.7162852	bắt mã bảy
-1.7171259	<s> pháo bảy
-1.7162933	ăn pháo bảy
-1.7162933	bắt pháo bảy
-1.9821758	<s> tốt bảy
-2.0172873	ăn tốt bảy
-2.0172873	bắt tốt bảy
-1.0115935	trước giữa bảy
-1.0115935	sau giữa bảy
-1.0115935	trên giữa bảy
-1.0115935	dưới giữa bảy
-1.0116167	tốt giữa bảy
-1.0116167	binh giữa bảy
-1.0116167	chốt giữa bảy
-1.9821758	<s> binh bảy
-2.0172873	ăn binh bảy
-2.0172873	bắt binh bảy
-1.9821758	<s> chốt bảy
-2.0172873	ăn chốt bảy
-2.0172873	bắt chốt bảy
-0.7634381	năm tiến bảy
-1.0000503	trước tiến bảy
-1.2480035	bốn tiến bảy
-1.0000503	sau tiến bảy
-1.0000503	trái tiến bảy
-1.0000503	trên tiến bảy
-1.0000503	dưới tiến bảy
-1.0719022	sáu tiến bảy
-1.0000503	phải tiến bảy
-0.95454466	tượng tiến bảy
-1.2304791	bảy tiến bảy
-1.1613982	một tiến bảy
-1.2304791	ba tiến bảy
-1.1761215	hai tiến bảy
-1.0000201	tám tiến bảy
-0.68425685	chín tiến bảy
-0.95454466	tịnh tiến bảy
-0.95454466	bộ tiến bảy
-0.95454466	xe tiến bảy
-0.95454466	mã tiến bảy
-0.95454466	pháo tiến bảy
-0.7634381	năm tấn bảy
-1.0000503	trước tấn bảy
-1.2480035	bốn tấn bảy
-1.0000503	sau tấn bảy
-1.0000503	trái tấn bảy
-1.0000503	trên tấn bảy
-1.0000503	dưới tấn bảy
-1.0719022	sáu tấn bảy
-1.0000503	phải tấn bảy
-0.95454466	tượng tấn bảy
-1.2304791	bảy tấn bảy
-1.1613982	một tấn bảy
-1.2304791	ba tấn bảy
-1.1761215	hai tấn bảy
-1.0000201	tám tấn bảy
-0.68425685	chín tấn bảy
-0.95454466	tịnh tấn bảy
-0.95454466	bộ tấn bảy
-0.95454466	xe tấn bảy
-0.95454466	mã tấn bảy
-0.95454466	pháo tấn bảy
-1.1584226	năm bình bảy
-0.95429635	trước bình bảy
-1.1523484	bốn bình bảy
-0.95429635	sau bình bảy
-0.95429635	trái bình bảy
-0.95429635	trên bình bảy
-0.95429635	dưới bình bảy
-0.5502434	sáu bình bảy
-0.95429635	phải bình bảy
-1.0414528	một bình bảy
-1.1461881	ba bình bảy
-1.1461881	hai bình bảy
-0.54408306	tám bình bảy
-1.0414528	chín bình bảy
-0.9545116	xe bình bảy
-0.9545116	pháo bình bảy
-0.9545116	tốt bình bảy
-0.95425534	giữa bình bảy
-0.9545116	binh bình bảy
-0.9545116	chốt bình bảy
-0.68124926	năm thoái bảy
-0.9777638	trước thoái bảy
-1.1673415	bốn thoái bảy
-0.9777638	sau thoái bảy
-0.9777638	trái thoái bảy
-0.9777638	trên thoái bảy
-0.9777638	dưới thoái bảy
-0.9912422	sáu thoái bảy
-0.9777638	phải thoái bảy
-0.9544836	tượng thoái bảy
-1.1461521	bảy thoái bảy
-1.060722	một thoái bảy
-1.1461521	ba thoái bảy
-1.0792054	hai thoái bảy
-0.90310603	tám thoái bảy
-0.58358467	chín thoái bảy
-0.9544836	tịnh thoái bảy
-0.9544836	bộ thoái bảy
-0.9544836	xe thoái bảy
-0.9544836	mã thoái bảy
-0.9544836	pháo thoái bảy
-0.68124926	năm lùi bảy
-0.9777638	trước lùi bảy
-1.1673415	bốn lùi bảy
-0.9777638	sau lùi bảy
-0.9777638	trái lùi bảy
-0.9777638	trên lùi bảy
-0.9777638	dưới lùi bảy
-0.9912422	sáu lùi bảy
-0.9777638	phải lùi bảy
-0.9544836	tượng lùi bảy
-1.1461521	bảy lùi bảy
-1.060722	một lùi bảy
-1.1461521	ba lùi bảy
-1.0792054	hai lùi bảy
-0.90310603	tám lùi bảy
-0.58358467	chín lùi bảy
-0.9544836	tịnh lùi bảy
-0.9544836	bộ lùi bảy
-0.9544836	xe lùi bảy
-0.9544836	mã lùi bảy
-0.9544836	pháo lùi bảy
-1.0000194	chiếu tướng một
-1.1076	tượng trước một
-1.1076	tịnh trước một
-1.1076	bộ trước một
-1.0007463	xe trước một
-1.1264032	mã trước một
-1.0007463	pháo trước một
-1.3367702	tốt trước một
-1.3367702	binh trước một
-1.3367702	chốt trước một
-1.1076	tượng sau một
-1.1076	tịnh sau một
-1.1076	bộ sau một
-1.0007463	xe sau một
-1.1264032	mã sau một
-1.0007463	pháo sau một
-1.3367702	tốt sau một
-1.3367702	binh sau một
-1.3367702	chốt sau một
-1.1076	tượng trên một
-1.1076	tịnh trên một
-1.1076	bộ trên một
-1.0007463	xe trên một
-1.1264032	mã trên một
-1.0007463	pháo trên một
-1.3367702	tốt trên một
-1.3367702	binh trên một
-1.3367702	chốt trên một
-1.1076	tượng dưới một
-1.1076	tịnh dưới một
-1.1076	bộ dưới một
-1.0007463	xe dưới một
-1.1264032	mã dưới một
-1.0007463	pháo dưới một
-1.3367702	tốt dưới một
-1.3367702	binh dưới một
-1.3367702	chốt dưới một
-1.8981271	<s> tượng một
-1.7162852	ăn tượng một
-1.7162852	bắt tượng một
-1.8981271	<s> tịnh một
-1.7162852	ăn tịnh một
-1.7162852	bắt tịnh một
-1.8981271	<s> bộ một
-1.7162852	ăn bộ một
-1.7162852	bắt bộ một
-1.7171259	<s> xe một
-1.7162933	ăn xe một
-1.7162933	bắt xe một
-1.8993763	<s> mã một
-1.7162852	ăn mã một
-1.7162852	bắt mã một
-1.7171259	<s> pháo một
-1.7162933	ăn pháo một
-1.7162933	bắt pháo một
-2.014457	<s> tốt một
-2.0172873	ăn tốt một
-2.0172873	bắt tốt một
-1.0357279	trước giữa một
-1.0357279	sau giữa một
-1.0357279	trên giữa một
-1.0357279	dưới giữa một
-1.0357523	tốt giữa một
-1.0357523	binh giữa một
-1.0357523	chốt giữa một
-2.014457	<s> binh một
-2.0172873	ăn binh một
-2.0172873	bắt binh một
-2.014457	<s> chốt một
-2.0172873	ăn chốt một
-2.0172873	bắt chốt một
-0.0028394007	tướng tiến một
-0.617286	năm tiến một
-0.8238436	trước tiến một
-0.62471	bốn tiến một
-0.8238436	sau tiến một
-0.8238436	trái tiến một
-0.8238436	trên tiến một
-0.8238436	dưới tiến một
-0.62471	sáu tiến một
-0.8238436	phải tiến một
-0.9536566	tượng tiến một
-0.6283743	bảy tiến một
-0.5592934	một tiến một
-0.4522879	ba tiến một
-0.5228657	hai tiến một
-0.5740166	tám tiến một
-0.5592934	chín tiến một
-0.9536566	tịnh tiến một
-0.9536566	bộ tiến một
-0.9536566	xe tiến một
-0.9536566	mã tiến một
-0.9536566	pháo tiến một
-0.0028394007	tốt tiến một
-0.00013478327	giữa tiến một
-0.0028394007	binh tiến một
-0.0028394007	chốt tiến một
-0.0028394007	soái tiến một
-0.0028394007	tướng tấn một
-0.617286	năm tấn một
-0.8238436	trước tấn một
-0.62471	bốn tấn một
-0.8238436	sau tấn một
-0.8238436	trái tấn một
-0.8238436	trên tấn một
-0.8238436	dưới tấn một
-0.62471	sáu tấn một
-0.8238436	phải tấn một
-0.9536566	tượng tấn một
-0.6283743	bảy tấn một
-0.5592934	một tấn một
-0.4522879	ba tấn một
-0.5228657	hai tấn một
-0.5740166	tám tấn một
-0.5592934	chín tấn một
-0.9536566	tịnh tấn một
-0.9536566	bộ tấn một
-0.9536566	xe tấn một
-0.9536566	mã tấn một
-0.9536566	pháo tấn một
-0.0028394007	tốt tấn một
-0.00013478327	giữa tấn một
-0.0028394007	binh tấn một
-0.0028394007	chốt tấn một
-0.0028394007	soái tấn một
-1.1584226	năm bình một
-0.95429635	trước bình một
-1.1523484	bốn bình một
-0.95429635	sau bình một
-0.95429635	trái bình một
-0.95429635	trên bình một
-0.95429635	dưới bình một
-1.1523484	sáu bình một
-0.95429635	phải bình một
-1.1461881	bảy bình một
-1.1461881	ba bình một
-0.54408306	hai bình một
-1.1461881	tám bình một
-1.0414528	chín bình một
-0.9545116	xe bình một
-0.9545116	pháo bình một
-0.9545116	tốt bình một
-0.95425534	giữa bình một
-0.9545116	binh bình một
-0.9545116	chốt bình một
-0.0028981604	tướng thoái một
-1.0791762	năm thoái một
-0.9777134	trước thoái một
-1.0881311	bốn thoái một
-0.9777134	sau thoái một
-0.9777134	trái thoái một
-0.9777134	trên thoái một
-0.9777134	dưới thoái một
-1.0881311	sáu thoái một
-0.9777134	phải thoái một
-0.9541814	tượng thoái một
-1.146122	bảy thoái một
-1.0606917	một thoái một
-0.66900474	ba thoái một
-0.90308595	hai thoái một
-1.0791751	tám thoái một
-1.0606917	chín thoái một
-0.9541814	tịnh thoái một
-0.9541814	bộ thoái một
-0.9541814	xe thoái một
-0.9541814	mã thoái một
-0.9541814	pháo thoái một
-0.0028981604	soái thoái một
-0.0028981604	tướng lùi một
-1.0791762	năm lùi một
-0.9777134	trước lùi một
-1.0881311	bốn lùi một
-0.9777134	sau lùi một
-0.9777134	trái lùi một
-0.9777134	trên lùi một
-0.9777134	dưới lùi một
-1.0881311	sáu lùi một
-0.9777134	phải lùi một
-0.9541814	tượng lùi một
-1.146122	bảy lùi một
-1.0606917	một lùi một
-0.66900474	ba lùi một
-0.90308595	hai lùi một
-1.0791751	tám lùi một
-1.0606917	chín lùi một
-0.9541814	tịnh lùi một
-0.9541814	bộ lùi một
-0.9541814	xe lùi một
-0.9541814	mã lùi một
-0.9541814	pháo lùi một
-0.0028981604	soái lùi một
-1.0000194	chiếu tướng ba
-1.022585	tượng trước ba
-1.022585	tịnh trước ba
-1.022585	bộ trước ba
-1.0007463	xe trước ba
-0.9942808	mã trước ba
-1.0007463	pháo trước ba
-1.3126352	tốt trước ba
-1.3126352	binh trước ba
-1.3126352	chốt trước ba
-1.022585	tượng sau ba
-1.022585	tịnh sau ba
-1.022585	bộ sau ba
-1.0007463	xe sau ba
-0.9942808	mã sau ba
-1.0007463	pháo sau ba
-1.3126352	tốt sau ba
-1.3126352	binh sau ba
-1.3126352	chốt sau ba
-1.022585	tượng trên ba
-1.022585	tịnh trên ba
-1.022585	bộ trên ba
-1.0007463	xe trên ba
-0.9942808	mã trên ba
-1.0007463	pháo trên ba
-1.3126352	tốt trên ba
-1.3126352	binh trên ba
-1.3126352	chốt trên ba
-1.022585	tượng dưới ba
-1.022585	tịnh dưới ba
-1.022585	bộ dưới ba
-1.0007463	xe dưới ba
-0.9942808	mã dưới ba
-1.0007463	pháo dưới ba
-1.3126352	tốt dưới ba
-1.3126352	binh dưới ba
-1.3126352	chốt dưới ba
-1.7728244	<s> tượng ba
-1.7162852	ăn tượng ba
-1.7162852	bắt tượng ba
-1.7728244	<s> tịnh ba
-1.7162852	ăn tịnh ba
-1.7162852	bắt tịnh ba
-1.7728244	<s> bộ ba
-1.7162852	ăn bộ ba
-1.7162852	bắt bộ ba
-1.7171259	<s> xe ba
-1.7162933	ăn xe ba
-1.7162933	bắt xe ba
-1.7229214	<s> mã ba
-1.7162852	ăn mã ba
-1.7162852	bắt mã ba
-1.7171259	<s> pháo ba
-1.7162933	ăn pháo ba
-1.7162933	bắt pháo ba
-1.9821758	<s> tốt ba
-2.0172873	ăn tốt ba
-2.0172873	bắt tốt ba
-1.0115935	trước giữa ba
-1.0115935	sau giữa ba
-1.0115935	trên giữa ba
-1.0115935	dưới giữa ba
-1.0116167	tốt giữa ba
-1.0116167	binh giữa ba
-1.0116167	chốt giữa ba
-1.9821758	<s> binh ba
-2.0172873	ăn binh ba
-2.0172873	bắt binh ba
-1.9821758	<s> chốt ba
-2.0172873	ăn chốt ba
-2.0172873	bắt chốt ba
-0.7634381	năm tiến ba
-1.0000503	trước tiến ba
-1.0719022	bốn tiến ba
-1.0000503	sau tiến ba
-1.0000503	trái tiến ba
-1.0000503	trên tiến ba
-1.0000503	dưới tiến ba
-1.2480035	sáu tiến ba
-1.0000503	phải tiến ba
-0.95454466	tượng tiến ba
-1.2304791	bảy tiến ba
-0.68425685	một tiến ba
-1.2304791	ba tiến ba
-1.0000201	hai tiến ba
-1.1761215	tám tiến ba
-1.1613982	chín tiến ba
-0.95454466	tịnh tiến ba
-0.95454466	bộ tiến ba
-0.95454466	xe tiến ba
-0.95454466	mã tiến ba
-0.95454466	pháo tiến ba
-0.7634381	năm tấn ba
-1.0000503	trước tấn ba
-1.0719022	bốn tấn ba
-1.0000503	sau tấn ba
-1.0000503	trái tấn ba
-1.0000503	trên tấn ba
-1.0000503	dưới tấn ba
-1.2480035	sáu tấn ba
-1.0000503	phải tấn ba
-0.95454466	tượng tấn ba
-1.2304791	bảy tấn ba
-0.68425685	một tấn ba
-1.2304791	ba tấn ba
-1.0000201	hai tấn ba
-1.1761215	tám tấn ba
-1.1613982	chín tấn ba
-0.95454466	tịnh tấn ba
-0.95454466	bộ tấn ba
-0.95454466	xe tấn ba
-0.95454466	mã tấn ba
-0.95454466	pháo tấn ba
-1.1584226	năm bình ba
-0.95429635	trước bình ba
-0.5502434	bốn bình ba
-0.95429635	sau bình ba
-0.95429635	trái bình ba
-0.95429635	trên bình ba
-0.95429635	dưới bình ba
-1.1523484	sáu bình ba
-0.95429635	phải bình ba
-1.1461881	bảy bình ba
-1.0414528	một bình ba
-0.54408306	hai bình ba
-1.1461881	tám bình ba
-1.0414528	chín bình ba
-0.9545116	xe bình ba
-0.9545116	pháo bình ba
-0.9545116	tốt bình ba
-0.95425534	giữa bình ba
-0.9545116	binh bình ba
-0.9545116	chốt bình ba
-0.68124926	năm thoái ba
-0.9777638	trước thoái ba
-0.9912422	bốn thoái ba
-0.9777638	sau thoái ba
-0.9777638	trái thoái ba
-0.9777638	trên thoái ba
-0.9777638	dưới thoái ba
-1.1673415	sáu thoái ba
-0.9777638	phải thoái ba
-0.9544836	tượng thoái ba
-1.1461521	bảy thoái ba
-0.58358467	một thoái ba
-1.1461521	ba thoái ba
-0.90310603	hai thoái ba
-1.0792054	tám thoái ba
-1.060722	chín thoái ba
-0.9544836	tịnh thoái ba
-0.9544836	bộ thoái ba
-0.9544836	xe thoái ba
-0.9544836	mã thoái ba
-0.9544836	pháo thoái ba
-0.68124926	năm lùi ba
-0.9777638	trước lùi ba
-0.9912422	bốn lùi ba
-0.9777638	sau lùi ba
-0.9777638	trái lùi ba
-0.9777638	trên lùi ba
-0.9777638	dưới lùi ba
-1.1673415	sáu lùi ba
-0.9777638	phải lùi ba
-0.9544836	tượng lùi ba
-1.1461521	bảy lùi ba
-0.58358467	một lùi ba
-1.1461521	ba lùi ba
-0.90310603	hai lùi ba
-1.0792054	tám lùi ba
-1.060722	chín lùi ba
-0.9544836	tịnh lùi ba
-0.9544836	bộ lùi ba
-0.9544836	xe lùi ba
-0.9544836	mã lùi ba
-0.9544836	pháo lùi ba
-1.0000194	chiếu tướng hai
-1.1076	tượng trước hai
-1.1076	tịnh trước hai
-1.1076	bộ trước hai
-1.0007463	xe trước hai
-1.055337	mã trước hai
-1.0007463	pháo trước hai
-1.3126352	tốt trước hai
-1.3126352	binh trước hai
-1.3126352	chốt trước hai
-1.1076	tượng sau hai
-1.1076	tịnh sau hai
-1.1076	bộ sau hai
-1.0007463	xe sau hai
-1.055337	mã sau hai
-1.0007463	pháo sau hai
-1.3126352	tốt sau hai
-1.3126352	binh sau hai
-1.3126352	chốt sau hai
-1.1076	tượng trên hai
-1.1076	tịnh trên hai
-1.1076	bộ trên hai
-1.0007463	xe trên hai
-1.055337	mã trên hai
-1.0007463	pháo trên hai
-1.3126352	tốt trên hai
-1.3126352	binh trên hai
-1.3126352	chốt trên hai
-1.1076	tượng dưới hai
-1.1076	tịnh dưới hai
-1.1076	bộ dưới hai
-1.0007463	xe dưới hai
-1.055337	mã dưới hai
-1.0007463	pháo dưới hai
-1.3126352	tốt dưới hai
-1.3126352	binh dưới hai
-1.3126352	chốt dưới hai
-1.8981271	<s> tượng hai
-1.7162852	ăn tượng hai
-1.7162852	bắt tượng hai
-1.8981271	<s> tịnh hai
-1.7162852	ăn tịnh hai
-1.7162852	bắt tịnh hai
-1.8981271	<s> bộ hai
-1.7162852	ăn bộ hai
-1.7162852	bắt bộ hai
-1.7171259	<s> xe hai
-1.7162933	ăn xe hai
-1.7162933	bắt xe hai
-1.802248	<s> mã hai
-1.7162852	ăn mã hai
-1.7162852	bắt mã hai
-1.7171259	<s> pháo hai
-1.7162933	ăn pháo hai
-1.7162933	bắt pháo hai
-1.9821758	<s> tốt hai
-2.0172873	ăn tốt hai
-2.0172873	bắt tốt hai
-1.0115935	trước giữa hai
-1.0115935	sau giữa hai
-1.0115935	trên giữa hai
-1.0115935	dưới giữa hai
-1.0116167	tốt giữa hai
-1.0116167	binh giữa hai
-1.0116167	chốt giữa hai
-1.9821758	<s> binh hai
-2.0172873	ăn binh hai
-2.0172873	bắt binh hai
-1.9821758	<s> chốt hai
-2.0172873	ăn chốt hai
-2.0172873	bắt chốt hai
-1.2405795	năm tiến hai
-1.0000503	trước tiến hai
-0.7708621	bốn tiến hai
-1.0000503	sau tiến hai
-1.0000503	trái tiến hai
-1.0000503	trên tiến hai
-1.0000503	dưới tiến hai
-1.2480035	sáu tiến hai
-1.0000503	phải tiến hai
-0.95454466	tượng tiến hai
-1.2304791	bảy tiến hai
-0.98529685	một tiến hai
-1.0543778	ba tiến hai
-1.1761215	hai tiến hai
-1.1761215	tám tiến hai
-1.1613982	chín tiến hai
-0.95454466	tịnh tiến hai
-0.95454466	bộ tiến hai
-0.95454466	xe tiến hai
-0.95454466	mã tiến hai
-0.95454466	pháo tiến hai
-1.2405795	năm tấn hai
-1.0000503	trước tấn hai
-0.7708621	bốn tấn hai
-1.0000503	sau tấn hai
-1.0000503	trái tấn hai
-1.0000503	trên tấn hai
-1.0000503	dưới tấn hai
-1.2480035	sáu tấn hai
-1.0000503	phải tấn hai
-0.95454466	tượng tấn hai
-1.2304791	bảy tấn hai
-0.98529685	một tấn hai
-1.0543778	ba tấn hai
-1.1761215	hai tấn hai
-1.1761215	tám tấn hai
-1.1613982	chín tấn hai
-0.95454466	tịnh tấn hai
-0.95454466	bộ tấn hai
-0.95454466	xe tấn hai
-0.95454466	mã tấn hai
-0.95454466	pháo tấn hai
-1.1584226	năm bình hai
-0.95429635	trước bình hai
-1.1523484	bốn bình hai
-0.95429635	sau bình hai
-0.95429635	trái bình hai
-0.95429635	trên bình hai
-0.95429635	dưới bình hai
-1.1523484	sáu bình hai
-0.95429635	phải bình hai
-1.1461881	bảy bình hai
-0.4393477	một bình hai
-0.54408306	ba bình hai
-1.1461881	tám bình hai
-1.0414528	chín bình hai
-0.9545116	xe bình hai
-0.9545116	pháo bình hai
-0.9545116	tốt bình hai
-0.95425534	giữa bình hai
-0.9545116	binh bình hai
-0.9545116	chốt bình hai
-1.1583866	năm thoái hai
-0.9777638	trước thoái hai
-0.69020414	bốn thoái hai
-0.9777638	sau thoái hai
-0.9777638	trái thoái hai
-0.9777638	trên thoái hai
-0.9777638	dưới thoái hai
-1.1673415	sáu thoái hai
-0.9777638	phải thoái hai
-0.9544836	tượng thoái hai
-1.1461521	bảy thoái hai
-0.8846227	một thoái hai
-0.97005284	ba thoái hai
-1.0792054	hai thoái hai
-1.0792054	tám thoái hai
-1.060722	chín thoái hai
-0.9544836	tịnh thoái hai
-0.9544836	bộ thoái hai
-0.9544836	xe thoái hai
-0.9544836	mã thoái hai
-0.9544836	pháo thoái hai
-1.1583866	năm lùi hai
-0.9777638	trước lùi hai
-0.69020414	bốn lùi hai
-0.9777638	sau lùi hai
-0.9777638	trái lùi hai
-0.9777638	trên lùi hai
-0.9777638	dưới lùi hai
-1.1673415	sáu lùi hai
-0.9777638	phải lùi hai
-0.9544836	tượng lùi hai
-1.1461521	bảy lùi hai
-0.8846227	một lùi hai
-0.97005284	ba lùi hai
-1.0792054	hai lùi hai
-1.0792054	tám lùi hai
-1.060722	chín lùi hai
-0.9544836	tịnh lùi hai
-0.9544836	bộ lùi hai
-0.9544836	xe lùi hai
-0.9544836	mã lùi hai
-0.9544836	pháo lùi hai
-1.0000194	chiếu tướng tám
-1.1076	tượng trước tám
-1.1076	tịnh trước tám
-1.1076	bộ trước tám
-1.0007463	xe trước tám
-1.055337	mã trước tám
-1.0007463	pháo trước tám
-1.3126352	tốt trước tám
-1.3126352	binh trước tám
-1.3126352	chốt trước tám
-1.1076	tượng sau tám
-1.1076	tịnh sau tám
-1.1076	bộ sau tám
-1.0007463	xe sau tám
-1.055337	mã sau tám
-1.0007463	pháo sau tám
-1.3126352	tốt sau tám
-1.3126352	binh sau tám
-1.3126352	chốt sau tám
-1.1076	tượng trên tám
-1.1076	tịnh trên tám
-1.1076	bộ trên tám
-1.0007463	xe trên tám
-1.055337	mã trên tám
-1.0007463	pháo trên tám
-1.3126352	tốt trên tám
-1.3126352	binh trên tám
-1.3126352	chốt trên tám
-1.1076	tượng dưới tám
-1.1076	tịnh dưới tám
-1.1076	bộ dưới tám
-1.0007463	xe dưới tám
-1.055337	mã dưới tám
-1.0007463	pháo dưới tám
-1.3126352	tốt dưới tám
-1.3126352	binh dưới tám
-1.3126352	chốt dưới tám
-1.8981271	<s> tượng tám
-1.7162852	ăn tượng tám
-1.7162852	bắt tượng tám
-1.8981271	<s> tịnh tám
-1.7162852	ăn tịnh tám
-1.7162852	bắt tịnh tám
-1.8981271	<s> bộ tám
-1.7162852	ăn bộ tám
-1.7162852	bắt bộ tám
-1.7171259	<s> xe tám
-1.7162933	ăn xe tám
-1.7162933	bắt xe tám
-1.802248	<s> mã tám
-1.7162852	ăn mã tám
-1.7162852	bắt mã tám
-1.7171259	<s> pháo tám
-1.7162933	ăn pháo tám
-1.7162933	bắt pháo tám
-1.9821758	<s> tốt tám
-2.0172873	ăn tốt tám
-2.0172873	bắt tốt tám
-1.0115935	trước giữa tám
-1.0115935	sau giữa tám
-1.0115935	trên giữa tám
-1.0115935	dưới giữa tám
-1.0116167	tốt giữa tám
-1.0116167	binh giữa tám
-1.0116167	chốt giữa tám
-1.9821758	<s> binh tám
-2.0172873	ăn binh tám
-2.0172873	bắt binh tám
-1.9821758	<s> chốt tám
-2.0172873	ăn chốt tám
-2.0172873	bắt chốt tám
-1.2405795	năm tiến tám
-1.0000503	trước tiến tám
-1.2480035	bốn tiến tám
-1.0000503	sau tiến tám
-1.0000503	trái tiến tám
-1.0000503	trên tiến tám
-1.0000503	dưới tiến tám
-0.7708621	sáu tiến tám
-1.0000503	phải tiến tám
-0.95454466	tượng tiến tám
-1.0543778	bảy tiến tám
-1.1613982	một tiến tám
-1.2304791	ba tiến tám
-1.1761215	hai tiến tám
-1.1761215	tám tiến tám
-0.98529685	chín tiến tám
-0.95454466	tịnh tiến tám
-0.95454466	bộ tiến tám
-0.95454466	xe tiến tám
-0.95454466	mã tiến tám
-0.95454466	pháo tiến tám
-1.2405795	năm tấn tám
-1.0000503	trước tấn tám
-1.2480035	bốn tấn tám
-1.0000503	sau tấn tám
-1.0000503	trái tấn tám
-1.0000503	trên tấn tám
-1.0000503	dưới tấn tám
-0.7708621	sáu tấn tám
-1.0000503	phải tấn tám
-0.95454466	tượng tấn tám
-1.0543778	bảy tấn tám
-1.1613982	một tấn tám
-1.2304791	ba tấn tám
-1.1761215	hai tấn tám
-1.1761215	tám tấn tám
-0.98529685	chín tấn tám
-0.95454466	tịnh tấn tám
-0.95454466	bộ tấn tám
-0.95454466	xe tấn tám
-0.95454466	mã tấn tám
-0.95454466	pháo tấn tám
-1.1584226	năm bình tám
-0.95429635	trước bình tám
-1.1523484	bốn bình tám
-0.95429635	sau bình tám
-0.95429635	trái bình tám
-0.95429635	trên bình tám
-0.95429635	dưới bình tám
-1.1523484	sáu bình tám
-0.95429635	phải bình tám
-0.54408306	bảy bình tám
-1.0414528	một bình tám
-1.1461881	ba bình tám
-1.1461881	hai bình tám
-0.4393477	chín bình tám
-0.9545116	xe bình tám
-0.9545116	pháo bình tám
-0.9545116	tốt bình tám
-0.95425534	giữa bình tám
-0.9545116	binh bình tám
-0.9545116	chốt bình tám
-1.1583866	năm thoái tám
-0.9777638	trước thoái tám
-1.1673415	bốn thoái tám
-0.9777638	sau thoái tám
-0.9777638	trái thoái tám
-0.9777638	trên thoái tám
-0.9777638	dưới thoái tám
-0.69020414	sáu thoái tám
-0.9777638	phải thoái tám
-0.9544836	tượng thoái tám
-0.97005284	bảy thoái tám
-1.060722	một thoái tám
-1.1461521	ba thoái tám
-1.0792054	hai thoái tám
-1.0792054	tám thoái tám
-0.8846227	chín thoái tám
-0.9544836	tịnh thoái tám
-0.9544836	bộ thoái tám
-0.9544836	xe thoái tám
-0.9544836	mã thoái tám
-0.9544836	pháo thoái tám
-1.1583866	năm lùi tám
-0.9777638	trước lùi tám
-1.1673415	bốn lùi tám
-0.9777638	sau lùi tám
-0.9777638	trái lùi tám
-0.9777638	trên lùi tám
-0.9777638	dưới lùi tám
-0.69020414	sáu lùi tám
-0.9777638	phải lùi tám
-0.9544836	tượng lùi tám
-0.97005284	bảy lùi tám
-1.060722	một lùi tám
-1.1461521	ba lùi tám
-1.0792054	hai lùi tám
-1.0792054	tám lùi tám
-0.8846227	chín lùi tám
-0.9544836	tịnh lùi tám
-0.9544836	bộ lùi tám
-0.9544836	xe lùi tám
-0.9544836	mã lùi tám
-0.9544836	pháo lùi tám
-1.0000194	chiếu tướng chín
-1.1076	tượng trước chín
-1.1076	tịnh trước chín
-1.1076	bộ trước chín
-1.0007463	xe trước chín
-1.1264032	mã trước chín
-1.0007463	pháo trước chín
-1.3367702	tốt trước chín
-1.3367702	binh trước chín
-1.3367702	chốt trước chín
-1.1076	tượng sau chín
-1.1076	tịnh sau chín
-1.1076	bộ sau chín
-1.0007463	xe sau chín
-1.1264032	mã sau chín
-1.0007463	pháo sau chín
-1.3367702	tốt sau chín
-1.3367702	binh sau chín
-1.3367702	chốt sau chín
-1.1076	tượng trên chín
-1.1076	tịnh trên chín
-1.1076	bộ trên chín
-1.0007463	xe trên chín
-1.1264032	mã trên chín
-1.0007463	pháo trên chín
-1.3367702	tốt trên chín
-1.3367702	binh trên chín
-1.3367702	chốt trên chín
-1.1076	tượng dưới chín
-1.1076	tịnh dưới chín
-1.1076	bộ dưới chín
-1.0007463	xe dưới chín
-1.1264032	mã dưới chín
-1.0007463	pháo dưới chín
-1.3367702	tốt dưới chín
-1.3367702	binh dưới chín
-1.3367702	chốt dưới chín
-1.8981271	<s> tượng chín
-1.7162852	ăn tượng chín
-1.7162852	bắt tượng chín
-1.8981271	<s> tịnh chín
-1.7162852	ăn tịnh chín
-1.7162852	bắt tịnh chín
-1.8981271	<s> bộ chín
-1.7162852	ăn bộ chín
-1.7162852	bắt bộ chín
-1.7171259	<s> xe chín
-1.7162933	ăn xe chín
-1.7162933	bắt xe chín
-1.8993763	<s> mã chín
-1.7162852	ăn mã chín
-1.7162852	bắt mã chín
-1.7171259	<s> pháo chín
-1.7162933	ăn pháo chín
-1.7162933	bắt pháo chín
-2.014457	<s> tốt chín
-2.0172873	ăn tốt chín
-2.0172873	bắt tốt chín
-1.0357279	trước giữa chín
-1.0357279	sau giữa chín
-1.0357279	trên giữa chín
-1.0357279	dưới giữa chín
-1.0357523	tốt giữa chín
-1.0357523	binh giữa chín
-1.0357523	chốt giữa chín
-2.014457	<s> binh chín
-2.0172873	ăn binh chín
-2.0172873	bắt binh chín
-2.014457	<s> chốt chín
-2.0172873	ăn chốt chín
-2.0172873	bắt chốt chín
-1.2405795	năm tiến chín
-1.0000503	trước tiến chín
-1.2480035	bốn tiến chín
-1.0000503	sau tiến chín
-1.0000503	trái tiến chín
-1.0000503	trên tiến chín
-1.0000503	dưới tiến chín
-1.2480035	sáu tiến chín
-1.0000503	phải tiến chín
-0.95454466	tượng tiến chín
-0.75333774	bảy tiến chín
-1.1613982	một tiến chín
-1.2304791	ba tiến chín
-1.1761215	hai tiến chín
-1.0000201	tám tiến chín
-1.1613982	chín tiến chín
-0.95454466	tịnh tiến chín
-0.95454466	bộ tiến chín
-0.95454466	xe tiến chín
-0.95454466	mã tiến chín
-0.95454466	pháo tiến chín
-1.2405795	năm tấn chín
-1.0000503	trước tấn chín
-1.2480035	bốn tấn chín
-1.0000503	sau tấn chín
-1.0000503	trái tấn chín
-1.0000503	trên tấn chín
-1.0000503	dưới tấn chín
-1.2480035	sáu tấn chín
-1.0000503	phải tấn chín
-0.95454466	tượng tấn chín
-0.75333774	bảy tấn chín
-1.1613982	một tấn chín
-1.2304791	ba tấn chín
-1.1761215	hai tấn chín
-1.0000201	tám tấn chín
-1.1613982	chín tấn chín
-0.95454466	tịnh tấn chín
-0.95454466	bộ tấn chín
-0.95454466	xe tấn chín
-0.95454466	mã tấn chín
-0.95454466	pháo tấn chín
-1.1584226	năm bình chín
-0.95429635	trước bình chín
-1.1523484	bốn bình chín
-0.95429635	sau bình chín
-0.95429635	trái bình chín
-0.95429635	trên bình chín
-0.95429635	dưới bình chín
-1.1523484	sáu bình chín
-0.95429635	phải bình chín
-1.1461881	bảy bình chín
-1.0414528	một bình chín
-1.1461881	ba bình chín
-1.1461881	hai bình chín
-0.54408306	tám bình chín
-0.9545116	xe bình chín
-0.9545116	pháo bình chín
-0.9545116	tốt bình chín
-0.95425534	giữa bình chín
-0.9545116	binh bình chín
-0.9545116	chốt bình chín
-1.1583866	năm thoái chín
-0.9777638	trước thoái chín
-1.1673415	bốn thoái chín
-0.9777638	sau thoái chín
-0.9777638	trái thoái chín
-0.9777638	trên thoái chín
-0.9777638	dưới thoái chín
-1.1673415	sáu thoái chín
-0.9777638	phải thoái chín
-0.9544836	tượng thoái chín
-0.6690148	bảy thoái chín
-1.060722	một thoái chín
-1.1461521	ba thoái chín
-1.0792054	hai thoái chín
-0.90310603	tám thoái chín
-1.060722	chín thoái chín
-0.9544836	tịnh thoái chín
-0.9544836	bộ thoái chín
-0.9544836	xe thoái chín
-0.9544836	mã thoái chín
-0.9544836	pháo thoái chín
-1.1583866	năm lùi chín
-0.9777638	trước lùi chín
-1.1673415	bốn lùi chín
-0.9777638	sau lùi chín
-0.9777638	trái lùi chín
-0.9777638	trên lùi chín
-0.9777638	dưới lùi chín
-1.1673415	sáu lùi chín
-0.9777638	phải lùi chín
-0.9544836	tượng lùi chín
-0.6690148	bảy lùi chín
-1.060722	một lùi chín
-1.1461521	ba lùi chín
-1.0792054	hai lùi chín
-0.90310603	tám lùi chín
-1.060722	chín lùi chín
-0.9544836	tịnh lùi chín
-0.9544836	bộ lùi chín
-0.9544836	xe lùi chín
-0.9544836	mã lùi chín
-0.9544836	pháo lùi chín
-1.0948701	tướng ăn tịnh
-1.0942388	năm ăn tịnh
-1.0948701	sĩ ăn tịnh
-1.0942932	trước ăn tịnh
-1.0942388	bốn ăn tịnh
-1.0942932	sau ăn tịnh
-1.0942932	trái ăn tịnh
-1.0942932	trên ăn tịnh
-1.0942932	dưới ăn tịnh
-1.0942388	sáu ăn tịnh
-1.0942932	phải ăn tịnh
-1.0948701	tượng ăn tịnh
-1.0942398	bảy ăn tịnh
-1.0942398	một ăn tịnh
-1.0942398	ba ăn tịnh
-1.0942398	hai ăn tịnh
-1.0942398	tám ăn tịnh
-1.0942398	chín ăn tịnh
-1.0948701	tịnh ăn tịnh
-1.0948701	bộ ăn tịnh
-1.0948701	xe ăn tịnh
-1.0948701	mã ăn tịnh
-1.0948701	pháo ăn tịnh
-1.0948701	tốt ăn tịnh
-1.0942597	giữa ăn tịnh
-1.0948701	binh ăn tịnh
-1.0948701	chốt ăn tịnh
-1.0948701	soái ăn tịnh
-1.0948701	tướng bắt tịnh
-1.0942388	năm bắt tịnh
-1.0948701	sĩ bắt tịnh
-1.0942932	trước bắt tịnh
-1.0942388	bốn bắt tịnh
-1.0942932	sau bắt tịnh
-1.0942932	trái bắt tịnh
-1.0942932	trên bắt tịnh
-1.0942932	dưới bắt tịnh
-1.0942388	sáu bắt tịnh
-1.0942932	phải bắt tịnh
-1.0948701	tượng bắt tịnh
-1.0942398	bảy bắt tịnh
-1.0942398	một bắt tịnh
-1.0942398	ba bắt tịnh
-1.0942398	hai bắt tịnh
-1.0942398	tám bắt tịnh
-1.0942398	chín bắt tịnh
-1.0948701	tịnh bắt tịnh
-1.0948701	bộ bắt tịnh
-1.0948701	xe bắt tịnh
-1.0948701	mã bắt tịnh
-1.0948701	pháo bắt tịnh
-1.0948701	tốt bắt tịnh
-1.0942597	giữa bắt tịnh
-1.0948701	binh bắt tịnh
-1.0948701	chốt bắt tịnh
-1.0948701	soái bắt tịnh
-1.0948701	tướng ăn bộ
-1.0942388	năm ăn bộ
-1.0948701	sĩ ăn bộ
-1.0942932	trước ăn bộ
-1.0942388	bốn ăn bộ
-1.0942932	sau ăn bộ
-1.0942932	trái ăn bộ
-1.0942932	trên ăn bộ
-1.0942932	dưới ăn bộ
-1.0942388	sáu ăn bộ
-1.0942932	phải ăn bộ
-1.0948701	tượng ăn bộ
-1.0942398	bảy ăn bộ
-1.0942398	một ăn bộ
-1.0942398	ba ăn bộ
-1.0942398	hai ăn bộ
-1.0942398	tám ăn bộ
-1.0942398	chín ăn bộ
-1.0948701	tịnh ăn bộ
-1.0948701	bộ ăn bộ
-1.0948701	xe ăn bộ
-1.0948701	mã ăn bộ
-1.0948701	pháo ăn bộ
-1.0948701	tốt ăn bộ
-1.0942597	giữa ăn bộ
-1.0948701	binh ăn bộ
-1.0948701	chốt ăn bộ
-1.0948701	soái ăn bộ
-1.0948701	tướng bắt bộ
-1.0942388	năm bắt bộ
-1.0948701	sĩ bắt bộ
-1.0942932	trước bắt bộ
-1.0942388	bốn bắt bộ
-1.0942932	sau bắt bộ
-1.0942932	trái bắt bộ
-1.0942932	trên bắt bộ
-1.0942932	dưới bắt bộ
-1.0942388	sáu bắt bộ
-1.0942932	phải bắt bộ
-1.0948701	tượng bắt bộ
-1.0942398	bảy bắt bộ
-1.0942398	một bắt bộ
-1.0942398	ba bắt bộ
-1.0942398	hai bắt bộ
-1.0942398	tám bắt bộ
-1.0942398	chín bắt bộ
-1.0948701	tịnh bắt bộ
-1.0948701	bộ bắt bộ
-1.0948701	xe bắt bộ
-1.0948701	mã bắt bộ
-1.0948701	pháo bắt bộ
-1.0948701	tốt bắt bộ
-1.0942597	giữa bắt bộ
-1.0948701	binh bắt bộ
-1.0948701	chốt bắt bộ
-1.0948701	soái bắt bộ
-1.0948701	tướng ăn xe
-1.0942388	năm ăn xe
-1.0948701	sĩ ăn xe
-1.0942932	trước ăn xe
-1.0942388	bốn ăn xe
-1.0942932	sau ăn xe
-1.0942932	trái ăn xe
-1.0942932	trên ăn xe
-1.0942932	dưới ăn xe
-1.0942388	sáu ăn xe
-1.0942932	phải ăn xe
-1.0948701	tượng ăn xe
-1.0942398	bảy ăn xe
-1.0942398	một ăn xe
-1.0942398	ba ăn xe
-1.0942398	hai ăn xe
-1.0942398	tám ăn xe
-1.0942398	chín ăn xe
-1.0948701	tịnh ăn xe
-1.0948701	bộ ăn xe
-1.0948701	xe ăn xe
-1.0948701	mã ăn xe
-1.0948701	pháo ăn xe
-1.0948701	tốt ăn xe
-1.0942597	giữa ăn xe
-1.0948701	binh ăn xe
-1.0948701	chốt ăn xe
-1.0948701	soái ăn xe
-1.0948701	tướng bắt xe
-1.0942388	năm bắt xe
-1.0948701	sĩ bắt xe
-1.0942932	trước bắt xe
-1.0942388	bốn bắt xe
-1.0942932	sau bắt xe
-1.0942932	trái bắt xe
-1.0942932	trên bắt xe
-1.0942932	dưới bắt xe
-1.0942388	sáu bắt xe
-1.0942932	phải bắt xe
-1.0948701	tượng bắt xe
-1.0942398	bảy bắt xe
-1.0942398	một bắt xe
-1.0942398	ba bắt xe
-1.0942398	hai bắt xe
-1.0942398	tám bắt xe
-1.0942398	chín bắt xe
-1.0948701	tịnh bắt xe
-1.0948701	bộ bắt xe
-1.0948701	xe bắt xe
-1.0948701	mã bắt xe
-1.0948701	pháo bắt xe
-1.0948701	tốt bắt xe
-1.0942597	giữa bắt xe
-1.0948701	binh bắt xe
-1.0948701	chốt bắt xe
-1.0948701	soái bắt xe
-1.0948701	tướng ăn mã
-1.0942388	năm ăn mã
-1.0948701	sĩ ăn mã
-1.0942932	trước ăn mã
-1.0942388	bốn ăn mã
-1.0942932	sau ăn mã
-1.0942932	trái ăn mã
-1.0942932	trên ăn mã
-1.0942932	dưới ăn mã
-1.0942388	sáu ăn mã
-1.0942932	phải ăn mã
-1.0948701	tượng ăn mã
-1.0942398	bảy ăn mã
-1.0942398	một ăn mã
-1.0942398	ba ăn mã
-1.0942398	hai ăn mã
-1.0942398	tám ăn mã
-1.0942398	chín ăn mã
-1.0948701	tịnh ăn mã
-1.0948701	bộ ăn mã
-1.0948701	xe ăn mã
-1.0948701	mã ăn mã
-1.0948701	pháo ăn mã
-1.0948701	tốt ăn mã
-1.0942597	giữa ăn mã
-1.0948701	binh ăn mã
-1.0948701	chốt ăn mã
-1.0948701	soái ăn mã
-1.0948701	tướng bắt mã
-1.0942388	năm bắt mã
-1.0948701	sĩ bắt mã
-1.0942932	trước bắt mã
-1.0942388	bốn bắt mã
-1.0942932	sau bắt mã
-1.0942932	trái bắt mã
-1.0942932	trên bắt mã
-1.0942932	dưới bắt mã
-1.0942388	sáu bắt mã
-1.0942932	phải bắt mã
-1.0948701	tượng bắt mã
-1.0942398	bảy bắt mã
-1.0942398	một bắt mã
-1.0942398	ba bắt mã
-1.0942398	hai bắt mã
-1.0942398	tám bắt mã
-1.0942398	chín bắt mã
-1.0948701	tịnh bắt mã
-1.0948701	bộ bắt mã
-1.0948701	xe bắt mã
-1.0948701	mã bắt mã
-1.0948701	pháo bắt mã
-1.0948701	tốt bắt mã
-1.0942597	giữa bắt mã
-1.0948701	binh bắt mã
-1.0948701	chốt bắt mã
-1.0948701	soái bắt mã
-1.0948701	tướng ăn pháo
-1.0942388	năm ăn pháo
-1.0948701	sĩ ăn pháo
-1.0942932	trước ăn pháo
-1.0942388	bốn ăn pháo
-1.0942932	sau ăn pháo
-1.0942932	trái ăn pháo
-1.0942932	trên ăn pháo
-1.0942932	dưới ăn pháo
-1.0942388	sáu ăn pháo
-1.0942932	phải ăn pháo
-1.0948701	tượng ăn pháo
-1.0942398	bảy ăn pháo
-1.0942398	một ăn pháo
-1.0942398	ba ăn pháo
-1.0942398	hai ăn pháo
-1.0942398	tám ăn pháo
-1.0942398	chín ăn pháo
-1.0948701	tịnh ăn pháo
-1.0948701	bộ ăn pháo
-1.0948701	xe ăn pháo
-1.0948701	mã ăn pháo
-1.0948701	pháo ăn pháo
-1.0948701	tốt ăn pháo
-1.0942597	giữa ăn pháo
-1.0948701	binh ăn pháo
-1.0948701	chốt ăn pháo
-1.0948701	soái ăn pháo
-1.0948701	tướng bắt pháo
-1.0942388	năm bắt pháo
-1.0948701	sĩ bắt pháo
-1.0942932	trước bắt pháo
-1.0942388	bốn bắt pháo
-1.0942932	sau bắt pháo
-1.0942932	trái bắt pháo
-1.0942932	trên bắt pháo
-1.0942932	dưới bắt pháo
-1.0942388	sáu bắt pháo
-1.0942932	phải bắt pháo
-1.0948701	tượng bắt pháo
-1.0942398	bảy bắt pháo
-1.0942398	một bắt pháo
-1.0942398	ba bắt pháo
-1.0942398	hai bắt pháo
-1.0942398	tám bắt pháo
-1.0942398	chín bắt pháo
-1.0948701	tịnh bắt pháo
-1.0948701	bộ bắt pháo
-1.0948701	xe bắt pháo
-1.0948701	mã bắt pháo
-1.0948701	pháo bắt pháo
-1.0948701	tốt bắt pháo
-1.0942597	giữa bắt pháo
-1.0948701	binh bắt pháo
-1.0948701	chốt bắt pháo
-1.0948701	soái bắt pháo
-0.79351956	tướng ăn tốt
-0.79320395	năm ăn tốt
-0.79351956	sĩ ăn tốt
-0.7932312	trước ăn tốt
-0.79320395	bốn ăn tốt
-0.7932312	sau ăn tốt
-0.7932312	trái ăn tốt
-0.7932312	trên ăn tốt
-0.7932312	dưới ăn tốt
-0.79320395	sáu ăn tốt
-0.7932312	phải ăn tốt
-0.79351956	tượng ăn tốt
-0.79320455	bảy ăn tốt
-0.79320455	một ăn tốt
-0.79320455	ba ăn tốt
-0.79320455	hai ăn tốt
-0.79320455	tám ăn tốt
-0.79320455	chín ăn tốt
-0.79351956	tịnh ăn tốt
-0.79351956	bộ ăn tốt
-0.79351956	xe ăn tốt
-0.79351956	mã ăn tốt
-0.79351956	pháo ăn tốt
-0.79351956	tốt ăn tốt
-0.79321444	giữa ăn tốt
-0.79351956	binh ăn tốt
-0.79351956	chốt ăn tốt
-0.79351956	soái ăn tốt
-0.79351956	tướng bắt tốt
-0.79320395	năm bắt tốt
-0.79351956	sĩ bắt tốt
-0.7932312	trước bắt tốt
-0.79320395	bốn bắt tốt
-0.7932312	sau bắt tốt
-0.7932312	trái bắt tốt
-0.7932312	trên bắt tốt
-0.7932312	dưới bắt tốt
-0.79320395	sáu bắt tốt
-0.7932312	phải bắt tốt
-0.79351956	tượng bắt tốt
-0.79320455	bảy bắt tốt
-0.79320455	một bắt tốt
-0.79320455	ba bắt tốt
-0.79320455	hai bắt tốt
-0.79320455	tám bắt tốt
-0.79320455	chín bắt tốt
-0.79351956	tịnh bắt tốt
-0.79351956	bộ bắt tốt
-0.79351956	xe bắt tốt
-0.79351956	mã bắt tốt
-0.79351956	pháo bắt tốt
-0.79351956	tốt bắt tốt
-0.79321444	giữa bắt tốt
-0.79351956	binh bắt tốt
-0.79351956	chốt bắt tốt
-0.79351956	soái bắt tốt
-0.30104375	tốt trước giữa
-0.30104375	binh trước giữa
-0.30104375	chốt trước giữa
-0.30104375	tốt sau giữa
-0.30104375	binh sau giữa
-0.30104375	chốt sau giữa
-0.30113626	tốt trái giữa
-0.30113626	binh trái giữa
-0.30113626	chốt trái giữa
-0.30104375	tốt trên giữa
-0.30104375	binh trên giữa
-0.30104375	chốt trên giữa
-0.30104375	tốt dưới giữa
-0.30104375	binh dưới giữa
-0.30104375	chốt dưới giữa
-0.30113626	tốt phải giữa
-0.30113626	binh phải giữa
-0.30113626	chốt phải giữa
-1.0315413	<s> tốt giữa
-1.017075	ăn tốt giữa
-1.017075	bắt tốt giữa
-1.0315413	<s> binh giữa
-1.017075	ăn binh giữa
-1.017075	bắt binh giữa
-1.0315413	<s> chốt giữa
-1.017075	ăn chốt giữa
-1.017075	bắt chốt giữa
-0.79351956	tướng ăn binh
-0.79320395	năm ăn binh
-0.79351956	sĩ ăn binh
-0.7932312	trước ăn binh
-0.79320395	bốn ăn binh
-0.7932312	sau ăn binh
-0.7932312	trái ăn binh
-0.7932312	trên ăn binh
-0.7932312	dưới ăn binh
-0.79320395	sáu ăn binh
-0.7932312	phải ăn binh
-0.79351956	tượng ăn binh
-0.79320455	bảy ăn binh
-0.79320455	một ăn binh
-0.79320455	ba ăn binh
-0.79320455	hai ăn binh
-0.79320455	tám ăn binh
-0.79320455	chín ăn binh
-0.79351956	tịnh ăn binh
-0.79351956	bộ ăn binh
-0.79351956	xe ăn binh
-0.79351956	mã ăn binh
-0.79351956	pháo ăn binh
-0.79351956	tốt ăn binh
-0.79321444	giữa ăn binh
-0.79351956	binh ăn binh
-0.79351956	chốt ăn binh
-0.79351956	soái ăn binh
-0.79351956	tướng bắt binh
-0.79320395	năm bắt binh
-0.79351956	sĩ bắt binh
-0.7932312	trước bắt binh
-0.79320395	bốn bắt binh
-0.7932312	sau bắt binh
-0.7932312	trái bắt binh
-0.7932312	trên bắt binh
-0.7932312	dưới bắt binh
-0.79320395	sáu bắt binh
-0.7932312	phải bắt binh
-0.79351956	tượng bắt binh
-0.79320455	bảy bắt binh
-0.79320455	một bắt binh
-0.79320455	ba bắt binh
-0.79320455	hai bắt binh
-0.79320455	tám bắt binh
-0.79320455	chín bắt binh
-0.79351956	tịnh bắt binh
-0.79351956	bộ bắt binh
-0.79351956	xe bắt binh
-0.79351956	mã bắt binh
-0.79351956	pháo bắt binh
-0.79351956	tốt bắt binh
-0.79321444	giữa bắt binh
-0.79351956	binh bắt binh
-0.79351956	chốt bắt binh
-0.79351956	soái bắt binh
-0.79351956	tướng ăn chốt
-0.79320395	năm ăn chốt
-0.79351956	sĩ ăn chốt
-0.7932312	trước ăn chốt
-0.79320395	bốn ăn chốt
-0.7932312	sau ăn chốt
-0.7932312	trái ăn chốt
-0.7932312	trên ăn chốt
-0.7932312	dưới ăn chốt
-0.79320395	sáu ăn chốt
-0.7932312	phải ăn chốt
-0.79351956	tượng ăn chốt
-0.79320455	bảy ăn chốt
-0.79320455	một ăn chốt
-0.79320455	ba ăn chốt
-0.79320455	hai ăn chốt
-0.79320455	tám ăn chốt
-0.79320455	chín ăn chốt
-0.79351956	tịnh ăn chốt
-0.79351956	bộ ăn chốt
-0.79351956	xe ăn chốt
-0.79351956	mã ăn chốt
-0.79351956	pháo ăn chốt
-0.79351956	tốt ăn chốt
-0.79321444	giữa ăn chốt
-0.79351956	binh ăn chốt
-0.79351956	chốt ăn chốt
-0.79351956	soái ăn chốt
-0.79351956	tướng bắt chốt
-0.79320395	năm bắt chốt
-0.79351956	sĩ bắt chốt
-0.7932312	trước bắt chốt
-0.79320395	bốn bắt chốt
-0.7932312	sau bắt chốt
-0.7932312	trái bắt chốt
-0.7932312	trên bắt chốt
-0.7932312	dưới bắt chốt
-0.79320395	sáu bắt chốt
-0.7932312	phải bắt chốt
-0.79351956	tượng bắt chốt
-0.79320455	bảy bắt chốt
-0.79320455	một bắt chốt
-0.79320455	ba bắt chốt
-0.79320455	hai bắt chốt
-0.79320455	tám bắt chốt
-0.79320455	chín bắt chốt
-0.79351956	tịnh bắt chốt
-0.79351956	bộ bắt chốt
-0.79351956	xe bắt chốt
-0.79351956	mã bắt chốt
-0.79351956	pháo bắt chốt
-0.79351956	tốt bắt chốt
-0.79321444	giữa bắt chốt
-0.79351956	binh bắt chốt
-0.79351956	chốt bắt chốt
-0.79351956	soái bắt chốt
-1.6904405	<s> tướng tiến
-2.0392475	tướng năm tiến
-1.051347	sĩ năm tiến
-0.96348417	trước năm tiến
-0.96348417	sau năm tiến
-0.96348417	trên năm tiến
-0.96348417	dưới năm tiến
-1.051347	tượng năm tiến
-1.051347	tịnh năm tiến
-1.051347	bộ năm tiến
-0.8129167	xe năm tiến
-0.8823371	mã năm tiến
-0.8129167	pháo năm tiến
-1.3117841	tốt năm tiến
-1.2672216	giữa năm tiến
-1.3117841	binh năm tiến
-1.3117841	chốt năm tiến
-1.096266	soái năm tiến
-2.0106149	<s> sĩ tiến
-1.4153492	sĩ trước tiến
-1.4205021	tượng trước tiến
-1.4205021	tịnh trước tiến
-1.4205021	bộ trước tiến
-1.8136299	xe trước tiến
-1.5243202	mã trước tiến
-1.8136299	pháo trước tiến
-2.5797493	tốt trước tiến
-2.5797493	binh trước tiến
-2.5797493	chốt trước tiến
-2.035258	tướng bốn tiến
-1.2675607	sĩ bốn tiến
-0.9557488	trước bốn tiến
-0.9557488	sau bốn tiến
-0.9557488	trên bốn tiến
-0.9557488	dưới bốn tiến
-1.051347	tượng bốn tiến
-1.051347	tịnh bốn tiến
-1.051347	bộ bốn tiến
-0.8129167	xe bốn tiến
-0.8823371	mã bốn tiến
-0.8129167	pháo bốn tiến
-1.3117841	tốt bốn tiến
-1.2672216	giữa bốn tiến
-1.3117841	binh bốn tiến
-1.3117841	chốt bốn tiến
-1.0599326	soái bốn tiến
-1.4153492	sĩ sau tiến
-1.4205021	tượng sau tiến
-1.4205021	tịnh sau tiến
-1.4205021	bộ sau tiến
-1.8136299	xe sau tiến
-1.5243202	mã sau tiến
-1.8136299	pháo sau tiến
-2.5797493	tốt sau tiến
-2.5797493	binh sau tiến
-2.5797493	chốt sau tiến
-0.9462338	sĩ trái tiến
-0.74908525	tượng trái tiến
-0.74908525	tịnh trái tiến
-0.74908525	bộ trái tiến
-0.8202701	xe trái tiến
-0.74908525	mã trái tiến
-0.8202701	pháo trái tiến
-1.7078978	tốt trái tiến
-1.7078978	binh trái tiến
-1.7078978	chốt trái tiến
-1.4153492	sĩ trên tiến
-1.4205021	tượng trên tiến
-1.4205021	tịnh trên tiến
-1.4205021	bộ trên tiến
-1.8136299	xe trên tiến
-1.5243202	mã trên tiến
-1.8136299	pháo trên tiến
-2.5797493	tốt trên tiến
-2.5797493	binh trên tiến
-2.5797493	chốt trên tiến
-1.4153492	sĩ dưới tiến
-1.4205021	tượng dưới tiến
-1.4205021	tịnh dưới tiến
-1.4205021	bộ dưới tiến
-1.8136299	xe dưới tiến
-1.5243202	mã dưới tiến
-1.8136299	pháo dưới tiến
-2.5797493	tốt dưới tiến
-2.5797493	binh dưới tiến
-2.5797493	chốt dưới tiến
-2.035258	tướng sáu tiến
-1.2675607	sĩ sáu tiến
-0.9557488	trước sáu tiến
-0.9557488	sau sáu tiến
-0.9557488	trên sáu tiến
-0.9557488	dưới sáu tiến
-1.051347	tượng sáu tiến
-1.051347	tịnh sáu tiến
-1.051347	bộ sáu tiến
-0.8129167	xe sáu tiến
-0.8823371	mã sáu tiến
-0.8129167	pháo sáu tiến
-1.3117841	tốt sáu tiến
-1.2672216	giữa sáu tiến
-1.3117841	binh sáu tiến
-1.3117841	chốt sáu tiến
-1.0599326	soái sáu tiến
-0.9462338	sĩ phải tiến
-0.74908525	tượng phải tiến
-0.74908525	tịnh phải tiến
-0.74908525	bộ phải tiến
-0.8202701	xe phải tiến
-0.74908525	mã phải tiến
-0.8202701	pháo phải tiến
-1.7078978	tốt phải tiến
-1.7078978	binh phải tiến
-1.7078978	chốt phải tiến
-2.0217092	<s> tượng tiến
-0.94081086	trước bảy tiến
-0.94081086	sau bảy tiến
-0.94081086	trên bảy tiến
-0.94081086	dưới bảy tiến
-1.0514069	tượng bảy tiến
-1.0514069	tịnh bảy tiến
-1.0514069	bộ bảy tiến
-0.81293166	xe bảy tiến
-0.882367	mã bảy tiến
-0.81293166	pháo bảy tiến
-1.3119187	tốt bảy tiến
-1.2672285	giữa bảy tiến
-1.3119187	binh bảy tiến
-1.3119187	chốt bảy tiến
-0.9786082	trước một tiến
-0.9786082	sau một tiến
-0.9786082	trên một tiến
-0.9786082	dưới một tiến
-1.2676805	tượng một tiến
-1.2676805	tịnh một tiến
-1.2676805	bộ một tiến
-0.81293166	xe một tiến
-1.0514069	mã một tiến
-0.81293166	pháo một tiến
-1.2901995	tốt một tiến
-1.2430949	giữa một tiến
-1.2901995	binh một tiến
-1.2901995	chốt một tiến
-0.94081086	trước ba tiến
-0.94081086	sau ba tiến
-0.94081086	trên ba tiến
-0.94081086	dưới ba tiến
-1.0514069	tượng ba tiến
-1.0514069	tịnh ba tiến
-1.0514069	bộ ba tiến
-0.81293166	xe ba tiến
-0.882367	mã ba tiến
-0.81293166	pháo ba tiến
-1.3119187	tốt ba tiến
-1.2672285	giữa ba tiến
-1.3119187	binh ba tiến
-1.3119187	chốt ba tiến
-0.9743301	trước hai tiến
-0.9743301	sau hai tiến
-0.9743301	trên hai tiến
-0.9743301	dưới hai tiến
-1.2676805	tượng hai tiến
-1.2676805	tịnh hai tiến
-1.2676805	bộ hai tiến
-0.81293166	xe hai tiến
-0.9462941	mã hai tiến
-0.81293166	pháo hai tiến
-1.3119187	tốt hai tiến
-1.2672285	giữa hai tiến
-1.3119187	binh hai tiến
-1.3119187	chốt hai tiến
-0.9743301	trước tám tiến
-0.9743301	sau tám tiến
-0.9743301	trên tám tiến
-0.9743301	dưới tám tiến
-1.2676805	tượng tám tiến
-1.2676805	tịnh tám tiến
-1.2676805	bộ tám tiến
-0.81293166	xe tám tiến
-0.9462941	mã tám tiến
-0.81293166	pháo tám tiến
-1.3119187	tốt tám tiến
-1.2672285	giữa tám tiến
-1.3119187	binh tám tiến
-1.3119187	chốt tám tiến
-0.9786082	trước chín tiến
-0.9786082	sau chín tiến
-0.9786082	trên chín tiến
-0.9786082	dưới chín tiến
-1.2676805	tượng chín tiến
-1.2676805	tịnh chín tiến
-1.2676805	bộ chín tiến
-0.81293166	xe chín tiến
-1.0514069	mã chín tiến
-0.81293166	pháo chín tiến
-1.2901995	tốt chín tiến
-1.2430949	giữa chín tiến
-1.2901995	binh chín tiến
-1.2901995	chốt chín tiến
-2.0217092	<s> tịnh tiến
-2.0217092	<s> bộ tiến
-2.4786403	<s> xe tiến
-2.148261	<s> mã tiến
-2.4786403	<s> pháo tiến
-3.1279526	<s> tốt tiến
-2.2786465	trước giữa tiến
-2.2786465	sau giữa tiến
-1.4071045	trái giữa tiến
-2.2786465	trên giữa tiến
-2.2786465	dưới giữa tiến
-1.4071045	phải giữa tiến
-2.2784326	tốt giữa tiến
-2.2784326	binh giữa tiến
-2.2784326	chốt giữa tiến
-3.1279526	<s> binh tiến
