\data\
ngram 1=62
ngram 2=632
ngram 3=5017

\1-grams:
-2.7471979	<unk>	0
0	<s>	-5.1017647
-1.1812987	</s>	0
-2.4721036	tướng	-0.30103
-1.4092324	bốn	-0.98663604
-1.3593181	ăn	-1.2710668
-2.3805718	sĩ	-0.30103
-1.3593181	bắt	-1.2710668
-1.6354387	phải	-0.67569864
-1.817039	sau	-0.7558749
-1.817039	trên	-0.7558749
-1.4092324	sáu	-0.98663604
-1.4092324	năm	-0.98663604
-1.817039	trước	-0.7558749
-1.817039	dưới	-0.7558749
-1.6354387	trái	-0.67569864
-2.3805718	tượng	-0.30103
-1.4460106	chín	-0.91605496
-1.4460106	tám	-0.91605496
-1.4460106	một	-0.91605496
-1.4460106	ba	-0.91605496
-1.4460106	hai	-0.91605496
-1.4460106	bảy	-0.91605496
-2.3805718	tịnh	-0.30103
-2.3805718	bộ	-0.30103
-2.3805718	xe	-0.30103
-2.3805718	mã	-0.30103
-2.3805718	pháo	-0.30103
-2.3805718	tốt	-0.30103
-1.8646486	giữa	-0.72379357
-2.3805718	binh	-0.30103
-2.3805718	chốt	-0.30103
-2.588224	soái	-0.30103
-1.3593181	tiến	-1.1580273
-1.3593181	tấn	-1.1580273
-1.4460106	bình	-1.1391792
-1.4272323	thoái	-1.1231254
-1.4272323	lùi	-1.1231254
-1.4460106	sang	-1.0871502
-1.8646486	qua	-0.7781512
-2.4721036	sông	-0.30103
-2.588224	chấp	-0.30103
-2.4721036	nhận	-0.30103
-2.588224	xác	-0.30103
-2.588224	đồng	-0.30103
-2.588224	ý	-0.30103
-2.588224	ô	-0.30103
-2.588224	kê	-0.30103
-2.588224	hủy	-0.30103
-2.588224	bỏ	-0.30103
-2.588224	từ	-0.30103
-2.588224	chối	-0.30103
-2.588224	đầu	-0.30103
-2.588224	hàng	-0.30103
-2.588224	xin	-0.30103
-2.588224	hòa	-0.30103
-2.588224	đổi	-0.30103
-2.588224	phe	-0.30103
-2.588224	chơi	-0.30103
-2.4721036	lại	-0.30103
-2.588224	đi	-0.30103
-1.391949	chiếu	-1.2388821

\2-grams:
-1.2460681	tướng </s>	0
-0.83144933	bốn </s>	0
-1.2167125	sĩ </s>	0
-0.86089945	phải </s>	0
-1.212794	sau </s>	0
-1.212794	trên </s>	0
-0.83144933	sáu </s>	0
-0.83144933	năm </s>	0
-1.212794	trước </s>	0
-1.212794	dưới </s>	0
-0.86089945	trái </s>	0
-1.2885761	tượng </s>	0
-0.7796825	chín </s>	0
-0.7796825	tám </s>	0
-0.7796825	một </s>	0
-0.7796825	ba </s>	0
-0.7796825	hai </s>	0
-0.7796825	bảy </s>	0
-1.2885761	tịnh </s>	0
-1.2885761	bộ </s>	0
-1.2941946	xe </s>	0
-1.2885761	mã </s>	0
-1.2941946	pháo </s>	0
-1.2968816	tốt </s>	0
-1.1675035	giữa </s>	0
-1.2968816	binh </s>	0
-1.2968816	chốt </s>	0
-1.0976295	tiến </s>	0
-1.0976295	tấn </s>	0
-1.7076237	thoái </s>	0
-1.7076237	lùi </s>	0
-0.27332494	sông </s>	0
-0.27332494	nhận </s>	0
-0.27332494	ý </s>	0
-0.27332494	kê </s>	0
-0.27332494	bỏ </s>	0
-0.27332494	chối </s>	0
-0.27332494	hàng </s>	0
-0.27332494	hòa </s>	0
-0.27332494	phe </s>	0
-0.27332494	lại </s>	0
-1.0483485	chiếu </s>	0
-2.45692	<s> tướng	-2.945916
-1.0662148	chiếu tướng	-4.1112623
-1.1732405	tướng bốn	-3.2289703
-1.2135799	sĩ bốn	-2.6690068
-1.8924208	phải bốn	-4.141972
-1.2476056	sau bốn	-3.7269988
-1.2476056	trên bốn	-3.7269988
-1.2476056	trước bốn	-3.7269988
-1.2476056	dưới bốn	-3.7269988
-1.8924208	trái bốn	-4.141972
-1.3254654	tượng bốn	-2.7269988
-1.3254654	tịnh bốn	-2.7269988
-1.3254654	bộ bốn	-2.7269988
-1.3346782	xe bốn	-3.0170333
-1.3254654	mã bốn	-2.90309
-1.3346782	pháo bốn	-3.0170333
-1.3391112	tốt bốn	-2.5856695
-1.3178335	giữa bốn	-3.7781513
-1.3391112	binh bốn	-2.5856695
-1.3391112	chốt bốn	-2.5856695
-1.1874796	soái bốn	-2.463893
-1.0869328	tiến bốn	-4.4036922
-1.0869328	tấn bốn	-4.4036922
-0.9467534	bình bốn	-4.4259686
-1.0520309	thoái bốn	-4.4036922
-1.0520309	lùi bốn	-4.4036922
-1.0559479	chiếu bốn	-4.1112623
-1.3403727	tướng ăn	-1.6341412
-0.99403214	bốn ăn	-3.460216
-1.4467365	sĩ ăn	-1.6341412
-1.0594486	phải ăn	-2.6341412
-1.241256	sau ăn	-2.6341412
-1.241256	trên ăn	-2.6341412
-0.99403214	sáu ăn	-3.460216
-0.99403214	năm ăn	-3.460216
-1.241256	trước ăn	-2.6341412
-1.241256	dưới ăn	-2.6341412
-1.0594486	trái ăn	-2.6341412
-1.5069696	tượng ăn	-1.6341412
-1.012262	chín ăn	-3.4122925
-1.012262	tám ăn	-3.4122925
-1.012262	một ăn	-3.4122925
-1.012262	ba ăn	-3.4122925
-1.012262	hai ăn	-3.4122925
-1.012262	bảy ăn	-3.4122925
-1.5069696	tịnh ăn	-1.6341412
-1.5069696	bộ ăn	-1.6341412
-1.5116093	xe ăn	-1.6341412
-1.5069696	mã ăn	-1.6341412
-1.5116093	pháo ăn	-1.6341412
-1.5138245	tốt ăn	-1.6341412
-1.1950853	giữa ăn	-2.9563606
-1.5138245	binh ăn	-1.6341412
-1.5138245	chốt ăn	-1.6341412
-1.1718905	soái ăn	-1.6341412
-1.6343015	<s> sĩ	-3.6057718
-1.02289	ăn sĩ	-2.9819093
-1.02289	bắt sĩ	-2.9819093
-1.3403727	tướng bắt	-1.6341412
-0.99403214	bốn bắt	-3.460216
-1.4467365	sĩ bắt	-1.6341412
-1.0594486	phải bắt	-2.6341412
-1.241256	sau bắt	-2.6341412
-1.241256	trên bắt	-2.6341412
-0.99403214	sáu bắt	-3.460216
-0.99403214	năm bắt	-3.460216
-1.241256	trước bắt	-2.6341412
-1.241256	dưới bắt	-2.6341412
-1.0594486	trái bắt	-2.6341412
-1.5069696	tượng bắt	-1.6341412
-1.012262	chín bắt	-3.4122925
-1.012262	tám bắt	-3.4122925
-1.012262	một bắt	-3.4122925
-1.012262	ba bắt	-3.4122925
-1.012262	hai bắt	-3.4122925
-1.012262	bảy bắt	-3.4122925
-1.5069696	tịnh bắt	-1.6341412
-1.5069696	bộ bắt	-1.6341412
-1.5116093	xe bắt	-1.6341412
-1.5069696	mã bắt	-1.6341412
-1.5116093	pháo bắt	-1.6341412
-1.5138245	tốt bắt	-1.6341412
-1.1950853	giữa bắt	-2.9563606
-1.5138245	binh bắt	-1.6341412
-1.5138245	chốt bắt	-1.6341412
-1.1718905	soái bắt	-1.6341412
-1.2737461	sĩ phải	-2.7781513
-1.4050217	tượng phải	-3
-1.4050217	tịnh phải	-3
-1.4050217	bộ phải	-3
-1.4161102	xe phải	-3.0225658
-1.4050217	mã phải	-3.0543578
-1.4161102	pháo phải	-3.0225658
-1.4214633	tốt phải	-2.963088
-1.4214633	binh phải	-2.963088
-1.4214633	chốt phải	-2.963088
-1.1364541	tiến phải	-4.091862
-1.1364541	tấn phải	-4.091862
-1.1015524	thoái phải	-4.091862
-1.1015524	lùi phải	-4.091862
-0.40582493	sang phải	-4.2239285
-1.3072742	sĩ sau	-3.1169698
-1.4510292	tượng sau	-3.415628
-1.4510292	tịnh sau	-3.415628
-1.4510292	bộ sau	-3.415628
-1.4633747	xe sau	-3.738836
-1.4510292	mã sau	-3.5720968
-1.4633747	pháo sau	-3.738836
-1.4693475	tốt sau	-3.5598624
-1.4693475	binh sau	-3.5598624
-1.4693475	chốt sau	-3.5598624
-1.3072742	sĩ trên	-3.1169698
-1.4510292	tượng trên	-3.415628
-1.4510292	tịnh trên	-3.415628
-1.4510292	bộ trên	-3.415628
-1.4633747	xe trên	-3.738836
-1.4510292	mã trên	-3.5720968
-1.4633747	pháo trên	-3.738836
-1.4693475	tốt trên	-3.5598624
-1.4693475	binh trên	-3.5598624
-1.4693475	chốt trên	-3.5598624
-1.1732405	tướng sáu	-3.2289703
-1.2135799	sĩ sáu	-2.6690068
-1.8924208	phải sáu	-4.141972
-1.2476056	sau sáu	-3.7269988
-1.2476056	trên sáu	-3.7269988
-1.2476056	trước sáu	-3.7269988
-1.2476056	dưới sáu	-3.7269988
-1.8924208	trái sáu	-4.141972
-1.3254654	tượng sáu	-2.7269988
-1.3254654	tịnh sáu	-2.7269988
-1.3254654	bộ sáu	-2.7269988
-1.3346782	xe sáu	-3.0170333
-1.3254654	mã sáu	-2.90309
-1.3346782	pháo sáu	-3.0170333
-1.3391112	tốt sáu	-2.5856695
-1.3178335	giữa sáu	-3.7781513
-1.3391112	binh sáu	-2.5856695
-1.3391112	chốt sáu	-2.5856695
-1.1874796	soái sáu	-2.463893
-1.0869328	tiến sáu	-4.4036922
-1.0869328	tấn sáu	-4.4036922
-0.9467534	bình sáu	-4.4259686
-1.0520309	thoái sáu	-4.4036922
-1.0520309	lùi sáu	-4.4036922
-1.0559479	chiếu sáu	-4.1112623
-1.1732405	tướng năm	-3.2327514
-1.2135799	sĩ năm	-2.7269988
-1.8924208	phải năm	-4.141972
-1.2476056	sau năm	-3.7137704
-1.2476056	trên năm	-3.7137704
-1.2476056	trước năm	-3.7137704
-1.2476056	dưới năm	-3.7137704
-1.8924208	trái năm	-4.141972
-1.3254654	tượng năm	-2.7269988
-1.3254654	tịnh năm	-2.7269988
-1.3254654	bộ năm	-2.7269988
-1.3346782	xe năm	-3.0170333
-1.3254654	mã năm	-2.90309
-1.3346782	pháo năm	-3.0170333
-1.3391112	tốt năm	-2.5856695
-1.3178335	giữa năm	-3.7781513
-1.3391112	binh năm	-2.5856695
-1.3391112	chốt năm	-2.5856695
-1.1874796	soái năm	-2.4880805
-1.0869328	tiến năm	-4.423792
-1.0869328	tấn năm	-4.423792
-0.9467534	bình năm	-4.43029
-1.0520309	thoái năm	-4.423792
-1.0520309	lùi năm	-4.423792
-1.0559479	chiếu năm	-4.1112623
-1.3072742	sĩ trước	-3.1169698
-1.4510292	tượng trước	-3.415628
-1.4510292	tịnh trước	-3.415628
-1.4510292	bộ trước	-3.415628
-1.4633747	xe trước	-3.738836
-1.4510292	mã trước	-3.5720968
-1.4633747	pháo trước	-3.738836
-1.4693475	tốt trước	-3.5598624
-1.4693475	binh trước	-3.5598624
-1.4693475	chốt trước	-3.5598624
-1.3072742	sĩ dưới	-3.1169698
-1.4510292	tượng dưới	-3.415628
-1.4510292	tịnh dưới	-3.415628
-1.4510292	bộ dưới	-3.415628
-1.4633747	xe dưới	-3.738836
-1.4510292	mã dưới	-3.5720968
-1.4633747	pháo dưới	-3.738836
-1.4693475	tốt dưới	-3.5598624
-1.4693475	binh dưới	-3.5598624
-1.4693475	chốt dưới	-3.5598624
-1.2737461	sĩ trái	-2.7781513
-1.4050217	tượng trái	-3
-1.4050217	tịnh trái	-3
-1.4050217	bộ trái	-3
-1.4161102	xe trái	-3.0225658
-1.4050217	mã trái	-3.0543578
-1.4161102	pháo trái	-3.0225658
-1.4214633	tốt trái	-2.963088
-1.4214633	binh trái	-2.963088
-1.4214633	chốt trái	-2.963088
-1.1364541	tiến trái	-4.091862
-1.1364541	tấn trái	-4.091862
-1.1015524	thoái trái	-4.091862
-1.1015524	lùi trái	-4.091862
-0.40582493	sang trái	-4.2239285
-1.1609123	<s> tượng	-3.9408543
-1.02289	ăn tượng	-3.1513698
-1.02289	bắt tượng	-3.1513698
-1.379719	tướng chín	-4.1112623
-1.9156692	phải chín	-4.141972
-1.2997993	sau chín	-3.6677642
-1.2997993	trên chín	-3.6677642
-1.2997993	trước chín	-3.6677642
-1.2997993	dưới chín	-3.6677642
-1.9156692	trái chín	-4.141972
-1.3402534	tượng chín	-2.6690068
-1.3402534	tịnh chín	-2.6690068
-1.3402534	bộ chín	-2.6690068
-1.3497887	xe chín	-3.0170333
-1.3402534	mã chín	-2.8239088
-1.3497887	pháo chín	-3.0170333
-1.3543795	tốt chín	-2.5686362
-1.3232641	giữa chín	-3.7596679
-1.3543795	binh chín	-2.5686362
-1.3543795	chốt chín	-2.5686362
-1.1091421	tiến chín	-4.3208385
-1.1091421	tấn chín	-4.3208385
-0.9911385	bình chín	-4.345047
-1.0742402	thoái chín	-4.3208385
-1.0742402	lùi chín	-4.3208385
-1.0568507	chiếu chín	-4.1112623
-1.379719	tướng tám	-4.1112623
-1.9156692	phải tám	-4.141972
-1.2997993	sau tám	-3.6763887
-1.2997993	trên tám	-3.6763887
-1.2997993	trước tám	-3.6763887
-1.2997993	dưới tám	-3.6763887
-1.9156692	trái tám	-4.141972
-1.3402534	tượng tám	-2.6690068
-1.3402534	tịnh tám	-2.6690068
-1.3402534	bộ tám	-2.6690068
-1.3497887	xe tám	-3.0170333
-1.3402534	mã tám	-2.8653014
-1.3497887	pháo tám	-3.0170333
-1.3543795	tốt tám	-2.5856695
-1.3232641	giữa tám	-3.7781513
-1.3543795	binh tám	-2.5856695
-1.3543795	chốt tám	-2.5856695
-1.1091421	tiến tám	-4.3344536
-1.1091421	tấn tám	-4.3344536
-0.9911385	bình tám	-4.417195
-1.0742402	thoái tám	-4.3344536
-1.0742402	lùi tám	-4.3344536
-1.0568507	chiếu tám	-4.1112623
-1.379719	tướng một	-4.1112623
-1.4015808	phải một	-4.6190934
-1.2997993	sau một	-3.6677642
-1.2997993	trên một	-3.6677642
-1.2997993	trước một	-3.6677642
-1.2997993	dưới một	-3.6677642
-1.4015808	trái một	-4.6190934
-1.3402534	tượng một	-2.6690068
-1.3402534	tịnh một	-2.6690068
-1.3402534	bộ một	-2.6690068
-1.3497887	xe một	-3.0170333
-1.3402534	mã một	-2.8239088
-1.3497887	pháo một	-3.0170333
-1.3543795	tốt một	-2.5686362
-1.3232641	giữa một	-3.7596679
-1.3543795	binh một	-2.5686362
-1.3543795	chốt một	-2.5686362
-0.99591845	tiến một	-4.8034573
-0.99591845	tấn một	-4.8034573
-0.9911385	bình một	-4.345047
-1.0331309	thoái một	-4.3424225
-1.0331309	lùi một	-4.3424225
-1.0568507	chiếu một	-4.1112623
-1.379719	tướng ba	-4.1112623
-1.9156692	phải ba	-4.141972
-1.2997993	sau ba	-3.6954818
-1.2997993	trên ba	-3.6954818
-1.2997993	trước ba	-3.6954818
-1.2997993	dưới ba	-3.6954818
-1.9156692	trái ba	-4.141972
-1.3402534	tượng ba	-2.7269988
-1.3402534	tịnh ba	-2.7269988
-1.3402534	bộ ba	-2.7269988
-1.3497887	xe ba	-3.0170333
-1.3402534	mã ba	-2.90309
-1.3497887	pháo ba	-3.0170333
-1.3543795	tốt ba	-2.5856695
-1.3232641	giữa ba	-3.7781513
-1.3543795	binh ba	-2.5856695
-1.3543795	chốt ba	-2.5856695
-1.1091421	tiến ba	-4.3850102
-1.1091421	tấn ba	-4.3850102
-0.9911385	bình ba	-4.417195
-1.0742402	thoái ba	-4.3850102
-1.0742402	lùi ba	-4.3850102
-1.0568507	chiếu ba	-4.1112623
-1.379719	tướng hai	-4.1112623
-1.4015808	phải hai	-4.6190934
-1.2997993	sau hai	-3.6763887
-1.2997993	trên hai	-3.6763887
-1.2997993	trước hai	-3.6763887
-1.2997993	dưới hai	-3.6763887
-1.4015808	trái hai	-4.6190934
-1.3402534	tượng hai	-2.6690068
-1.3402534	tịnh hai	-2.6690068
-1.3402534	bộ hai	-2.6690068
-1.3497887	xe hai	-3.0170333
-1.3402534	mã hai	-2.8653014
-1.3497887	pháo hai	-3.0170333
-1.3543795	tốt hai	-2.5856695
-1.3232641	giữa hai	-3.7781513
-1.3543795	binh hai	-2.5856695
-1.3543795	chốt hai	-2.5856695
-1.1091421	tiến hai	-4.3344536
-1.1091421	tấn hai	-4.3344536
-0.9911385	bình hai	-4.417195
-1.0742402	thoái hai	-4.3344536
-1.0742402	lùi hai	-4.3344536
-1.0568507	chiếu hai	-4.1112623
-1.379719	tướng bảy	-4.1112623
-1.9156692	phải bảy	-4.141972
-1.2997993	sau bảy	-3.6954818
-1.2997993	trên bảy	-3.6954818
-1.2997993	trước bảy	-3.6954818
-1.2997993	dưới bảy	-3.6954818
-1.9156692	trái bảy	-4.141972
-1.3402534	tượng bảy	-2.7269988
-1.3402534	tịnh bảy	-2.7269988
-1.3402534	bộ bảy	-2.7269988
-1.3497887	xe bảy	-3.0170333
-1.3402534	mã bảy	-2.90309
-1.3497887	pháo bảy	-3.0170333
-1.3543795	tốt bảy	-2.5856695
-1.3232641	giữa bảy	-3.7781513
-1.3543795	binh bảy	-2.5856695
-1.3543795	chốt bảy	-2.5856695
-1.1091421	tiến bảy	-4.3850102
-1.1091421	tấn bảy	-4.3850102
-0.9911385	bình bảy	-4.417195
-1.0742402	thoái bảy	-4.3850102
-1.0742402	lùi bảy	-4.3850102
-1.0568507	chiếu bảy	-4.1112623
-1.1609123	<s> tịnh	-3.9408543
-1.02289	ăn tịnh	-3.1513698
-1.02289	bắt tịnh	-3.1513698
-1.1609123	<s> bộ	-3.9408543
-1.02289	ăn bộ	-3.1513698
-1.02289	bắt bộ	-3.1513698
-0.7483656	<s> xe	-4.3156114
-1.02289	ăn xe	-3.1513698
-1.02289	bắt xe	-3.1513698
-0.98160696	<s> mã	-4.120159
-1.02289	ăn mã	-3.1513698
-1.02289	bắt mã	-3.1513698
-0.7483656	<s> pháo	-4.3156114
-1.02289	ăn pháo	-3.1513698
-1.02289	bắt pháo	-3.1513698
-1.0377985	<s> tốt	-4.0446625
-1.02289	ăn tốt	-3.426071
-1.02289	bắt tốt	-3.426071
-1.7787633	phải giữa	-3.1903317
-1.9520295	sau giữa	-3.7607772
-1.9520295	trên giữa	-3.7607772
-1.9520295	trước giữa	-3.7607772
-1.9520295	dưới giữa	-3.7607772
-1.7787633	trái giữa	-3.1903317
-1.4795921	tốt giữa	-3.283656
-1.4795921	binh giữa	-3.283656
-1.4795921	chốt giữa	-3.283656
-1.0377985	<s> binh	-4.0446625
-1.02289	ăn binh	-3.426071
-1.02289	bắt binh	-3.426071
-1.0377985	<s> chốt	-4.0446625
-1.02289	ăn chốt	-3.426071
-1.02289	bắt chốt	-3.426071
-2.4569209	<s> soái	-2.945916
-1.3403727	tướng tiến	-2.1249387
-0.99403214	bốn tiến	-3.47551
-1.4467365	sĩ tiến	-2.1249387
-1.0594486	phải tiến	-2.9208188
-1.241256	sau tiến	-2.9208188
-1.241256	trên tiến	-2.9208188
-0.99403214	sáu tiến	-3.47551
-0.99403214	năm tiến	-3.4573772
-1.241256	trước tiến	-2.9208188
-1.241256	dưới tiến	-2.9208188
-1.0594486	trái tiến	-2.9208188
-1.5069696	tượng tiến	-2.1249387
-1.012262	chín tiến	-3.39794
-1.012262	tám tiến	-3.4074852
-1.012262	một tiến	-3.39794
-1.012262	ba tiến	-3.4436975
-1.012262	hai tiến	-3.4074852
-1.012262	bảy tiến	-3.4436975
-1.5069696	tịnh tiến	-2.1249387
-1.5069696	bộ tiến	-2.1249387
-1.5116093	xe tiến	-2.1249387
-1.5069696	mã tiến	-2.1974895
-1.5116093	pháo tiến	-2.1249387
-1.5138245	tốt tiến	-2.1249387
-1.1950853	giữa tiến	-3.447158
-1.5138245	binh tiến	-2.1249387
-1.5138245	chốt tiến	-2.1249387
-1.1718905	soái tiến	-2.1249387
-1.3403727	tướng tấn	-2.1249387
-0.99403214	bốn tấn	-3.47551
-1.4467365	sĩ tấn	-2.1249387
-1.0594486	phải tấn	-2.9208188
-1.241256	sau tấn	-2.9208188
-1.241256	trên tấn	-2.9208188
-0.99403214	sáu tấn	-3.47551
-0.99403214	năm tấn	-3.4573772
-1.241256	trước tấn	-2.9208188
-1.241256	dưới tấn	-2.9208188
-1.0594486	trái tấn	-2.9208188
-1.5069696	tượng tấn	-2.1249387
-1.012262	chín tấn	-3.39794
-1.012262	tám tấn	-3.4074852
-1.012262	một tấn	-3.39794
-1.012262	ba tấn	-3.4436975
-1.012262	hai tấn	-3.4074852
-1.012262	bảy tấn	-3.4436975
-1.5069696	tịnh tấn	-2.1249387
-1.5069696	bộ tấn	-2.1249387
-1.5116093	xe tấn	-2.1249387
-1.5069696	mã tấn	-2.1974895
-1.5116093	pháo tấn	-2.1249387
-1.5138245	tốt tấn	-2.1249387
-1.1950853	giữa tấn	-3.447158
-1.5138245	binh tấn	-2.1249387
-1.5138245	chốt tấn	-2.1249387
-1.1718905	soái tấn	-2.1249387
-1.379719	tướng bình	-2.1249387
-1.1591554	bốn bình	-3.3741372
-1.4015808	phải bình	-2.8239088
-1.572675	sau bình	-2.8239088
-1.572675	trên bình	-2.8239088
-1.1591554	sáu bình	-3.3741372
-1.1591554	năm bình	-3.3802114
-1.572675	trước bình	-2.8239088
-1.572675	dưới bình	-2.8239088
-1.4015808	trái bình	-2.8239088
-1.1749346	chín bình	-3.2632415
-1.1749346	tám bình	-3.367977
-1.1749346	một bình	-3.2632415
-1.1749346	ba bình	-3.367977
-1.1749346	hai bình	-3.367977
-1.1749346	bảy bình	-3.367977
-1.5713314	xe bình	-2.1249387
-1.5713314	pháo bình	-2.1249387
-1.5738741	tốt bình	-2.1249387
-1.2053765	giữa bình	-3.447158
-1.5738741	binh bình	-2.1249387
-1.5738741	chốt bình	-2.1249387
-1.1981921	soái bình	-2.1249387
-1.3715595	tướng thoái	-2.1249387
-1.1207266	bốn thoái	-3.3659039
-1.48699	sĩ thoái	-2.1249387
-1.2339698	phải thoái	-2.9223952
-1.4120245	sau thoái	-2.9223952
-1.4120245	trên thoái	-2.9223952
-1.1207266	sáu thoái	-3.3659039
-1.1207266	năm thoái	-3.3424227
-1.4120245	trước thoái	-2.9223952
-1.4120245	dưới thoái	-2.9223952
-1.2339698	trái thoái	-2.9223952
-1.5535438	tượng thoái	-2.1249387
-1.1736892	chín thoái	-3.30103
-1.1736892	tám thoái	-3.313995
-1.1736892	một thoái	-3.30103
-1.1736892	ba thoái	-3.3622997
-1.1736892	hai thoái	-3.313995
-1.1736892	bảy thoái	-3.3622997
-1.5535438	tịnh thoái	-2.1249387
-1.5535438	bộ thoái	-2.1249387
-1.5587119	xe thoái	-2.1249387
-1.5535438	mã thoái	-2.1974895
-1.5587119	pháo thoái	-2.1249387
-1.1928029	soái thoái	-2.1249387
-1.3715595	tướng lùi	-2.1249387
-1.1207266	bốn lùi	-3.3659039
-1.48699	sĩ lùi	-2.1249387
-1.2339698	phải lùi	-2.9223952
-1.4120245	sau lùi	-2.9223952
-1.4120245	trên lùi	-2.9223952
-1.1207266	sáu lùi	-3.3659039
-1.1207266	năm lùi	-3.3424227
-1.4120245	trước lùi	-2.9223952
-1.4120245	dưới lùi	-2.9223952
-1.2339698	trái lùi	-2.9223952
-1.5535438	tượng lùi	-2.1249387
-1.1736892	chín lùi	-3.30103
-1.1736892	tám lùi	-3.313995
-1.1736892	một lùi	-3.30103
-1.1736892	ba lùi	-3.3622997
-1.1736892	hai lùi	-3.313995
-1.1736892	bảy lùi	-3.3622997
-1.5535438	tịnh lùi	-2.1249387
-1.5535438	bộ lùi	-2.1249387
-1.5587119	xe lùi	-2.1249387
-1.5535438	mã lùi	-2.1974895
-1.5587119	pháo lùi	-2.1249387
-1.1928029	soái lùi	-2.1249387
-1.379719	tướng sang	-2.1249387
-1.1591554	bốn sang	-4.0405145
-1.4015808	phải sang	-3.447158
-1.572675	sau sang	-3.447158
-1.572675	trên sang	-3.447158
-1.1591554	sáu sang	-4.0405145
-1.1591554	năm sang	-4.0405145
-1.572675	trước sang	-3.447158
-1.572675	dưới sang	-3.447158
-1.4015808	trái sang	-3.447158
-1.1749346	chín sang	-4.033424
-1.1749346	tám sang	-4.033424
-1.1749346	một sang	-4.033424
-1.1749346	ba sang	-4.033424
-1.1749346	hai sang	-4.033424
-1.1749346	bảy sang	-4.033424
-1.5713314	xe sang	-3.0791812
-1.5713314	pháo sang	-3.0791812
-1.5738741	tốt sang	-2.1249387
-1.2053765	giữa sang	-3.447158
-1.5738741	binh sang	-2.1249387
-1.5738741	chốt sang	-2.1249387
-1.1981921	soái sang	-2.1249387
-1.9672457	bốn qua	-2.60206
-1.9672457	sáu qua	-2.60206
-1.9672457	năm qua	-2.60206
-1.8966646	chín qua	-2.60206
-1.8966646	tám qua	-2.60206
-1.8966646	một qua	-2.60206
-1.8966646	ba qua	-2.60206
-1.8966646	hai qua	-2.60206
-1.8966646	bảy qua	-2.60206
-0.86442363	sang sông	-3.5563025
-0.07888846	qua sông	-3.5563025
-2.6203399	<s> chấp	-3.8239088
-0.299568	chấp nhận	-3.8239088
-0.299568	xác nhận	-3.8239088
-2.6203399	<s> xác	-3.8239088
-2.6203399	<s> đồng	-3.8239088
-0.2999106	đồng ý	-3.8239088
-2.6203399	<s> ô	-3.8239088
-0.2999106	ô kê	-3.8239088
-2.6203399	<s> hủy	-3.8239088
-0.2999106	hủy bỏ	-3.8239088
-2.6203399	<s> từ	-3.8239088
-0.2999106	từ chối	-3.8239088
-2.6203399	<s> đầu	-3.8239088
-0.2999106	đầu hàng	-3.8239088
-2.3192792	<s> xin	-3.8239088
-0.599824	xin hòa	-3.8239088
-2.6203399	<s> đổi	-3.8239088
-0.2999106	đổi phe	-3.8239088
-0.599824	xin chơi	-3.8239088
-0.299568	chơi lại	-3.8239088
-0.299568	đi lại	-3.8239088
-2.6203399	<s> đi	-3.8239088
-1.0527756	bốn chiếu	-3.3735807
-1.466397	sĩ chiếu	-1.5606673
-1.0627868	phải chiếu	-2.5606673
-1.2454787	sau chiếu	-2.5606673
-1.2454787	trên chiếu	-2.5606673
-1.0527756	sáu chiếu	-3.3735807
-1.0527756	năm chiếu	-3.3735807
-1.2454787	trước chiếu	-2.5606673
-1.2454787	dưới chiếu	-2.5606673
-1.0627868	trái chiếu	-2.5606673
-1.5296327	tượng chiếu	-1.5606673
-1.0139806	chín chiếu	-3.3388186
-1.0139806	tám chiếu	-3.3388186
-1.0139806	một chiếu	-3.3388186
-1.0139806	ba chiếu	-3.3388186
-1.0139806	hai chiếu	-3.3388186
-1.0139806	bảy chiếu	-3.3388186
-1.5296327	tịnh chiếu	-1.5606673
-1.5296327	bộ chiếu	-1.5606673
-1.5345223	xe chiếu	-1.5606673
-1.5296327	mã chiếu	-1.5606673
-1.5345223	pháo chiếu	-1.5606673
-1.5368578	tốt chiếu	-1.5606673
-1.1991726	giữa chiếu	-2.8828866
-1.5368578	binh chiếu	-1.5606673
-1.5368578	chốt chiếu	-1.5606673

\3-grams:
-1.0000145	chiếu tướng </s>
-0.0719394	tướng bốn </s>
-0.63149095	sĩ bốn </s>
-0.00002671514	phải bốn </s>
-0.7864586	sau bốn </s>
-0.7864586	trên bốn </s>
-0.7864586	trước bốn </s>
-0.7864586	dưới bốn </s>
-0.00002671514	trái bốn </s>
-0.6894829	tượng bốn </s>
-0.6894829	tịnh bốn </s>
-0.6894829	bộ bốn </s>
-1.0762807	xe bốn </s>
-0.8655742	mã bốn </s>
-1.0762807	pháo bốn </s>
-0.5992329	tốt bốn </s>
-0.5646275	giữa bốn </s>
-0.5992329	binh bốn </s>
-0.5992329	chốt bốn </s>
-0.000014599931	tiến bốn </s>
-0.000014599931	tấn bốn </s>
-0.0000138751	bình bốn </s>
-0.000014599931	thoái bốn </s>
-0.000014599931	lùi bốn </s>
-0.000028682602	chiếu bốn </s>
-1.3428142	ăn sĩ </s>
-1.3428142	bắt sĩ </s>
-0.74067396	sĩ phải </s>
-0.9625227	tượng phải </s>
-0.9625227	tịnh phải </s>
-0.9625227	bộ phải </s>
-1.0818614	xe phải </s>
-1.0168804	mã phải </s>
-1.0818614	pháo phải </s>
-0.9766946	tốt phải </s>
-0.9766946	binh phải </s>
-0.9766946	chốt phải </s>
-0.20350653	tiến phải </s>
-0.20350653	tấn phải </s>
-0.20350653	thoái phải </s>
-0.20350653	lùi phải </s>
-0.59383583	sang phải </s>
-1.2180084	sĩ sau </s>
-1.7055397	tượng sau </s>
-1.7055397	tịnh sau </s>
-1.7055397	bộ sau </s>
-2.0769916	xe sau </s>
-1.8620086	mã sau </s>
-2.0769916	pháo sau </s>
-1.8745672	tốt sau </s>
-1.8745672	binh sau </s>
-1.8745672	chốt sau </s>
-1.2180084	sĩ trên </s>
-1.7055397	tượng trên </s>
-1.7055397	tịnh trên </s>
-1.7055397	bộ trên </s>
-2.0769916	xe trên </s>
-1.8620086	mã trên </s>
-2.0769916	pháo trên </s>
-1.8745672	tốt trên </s>
-1.8745672	binh trên </s>
-1.8745672	chốt trên </s>
-0.0719394	tướng sáu </s>
-0.63149095	sĩ sáu </s>
-0.00002671514	phải sáu </s>
-0.7864586	sau sáu </s>
-0.7864586	trên sáu </s>
-0.7864586	trước sáu </s>
-0.7864586	dưới sáu </s>
-0.00002671514	trái sáu </s>
-0.6894829	tượng sáu </s>
-0.6894829	tịnh sáu </s>
-0.6894829	bộ sáu </s>
-1.0762807	xe sáu </s>
-0.8655742	mã sáu </s>
-1.0762807	pháo sáu </s>
-0.5992329	tốt sáu </s>
-0.5646275	giữa sáu </s>
-0.5992329	binh sáu </s>
-0.5992329	chốt sáu </s>
-0.000014599931	tiến sáu </s>
-0.000014599931	tấn sáu </s>
-0.0000138751	bình sáu </s>
-0.000014599931	thoái sáu </s>
-0.000014599931	lùi sáu </s>
-0.000028682602	chiếu sáu </s>
-0.07572048	tướng năm </s>
-0.6894829	sĩ năm </s>
-0.00002671514	phải năm </s>
-0.7732304	sau năm </s>
-0.7732304	trên năm </s>
-0.7732304	trước năm </s>
-0.7732304	dưới năm </s>
-0.00002671514	trái năm </s>
-0.6894829	tượng năm </s>
-0.6894829	tịnh năm </s>
-0.6894829	bộ năm </s>
-1.0762807	xe năm </s>
-0.8655742	mã năm </s>
-1.0762807	pháo năm </s>
-0.5992329	tốt năm </s>
-0.5646275	giữa năm </s>
-0.5992329	binh năm </s>
-0.5992329	chốt năm </s>
-0.000013952762	tiến năm </s>
-0.000013952762	tấn năm </s>
-0.000013745667	bình năm </s>
-0.000013952762	thoái năm </s>
-0.000013952762	lùi năm </s>
-0.000028682602	chiếu năm </s>
-1.2180084	sĩ trước </s>
-1.7055397	tượng trước </s>
-1.7055397	tịnh trước </s>
-1.7055397	bộ trước </s>
-2.0769916	xe trước </s>
-1.8620086	mã trước </s>
-2.0769916	pháo trước </s>
-1.8745672	tốt trước </s>
-1.8745672	binh trước </s>
-1.8745672	chốt trước </s>
-1.2180084	sĩ dưới </s>
-1.7055397	tượng dưới </s>
-1.7055397	tịnh dưới </s>
-1.7055397	bộ dưới </s>
-2.0769916	xe dưới </s>
-1.8620086	mã dưới </s>
-2.0769916	pháo dưới </s>
-1.8745672	tốt dưới </s>
-1.8745672	binh dưới </s>
-1.8745672	chốt dưới </s>
-0.74067396	sĩ trái </s>
-0.9625227	tượng trái </s>
-0.9625227	tịnh trái </s>
-0.9625227	bộ trái </s>
-1.0818614	xe trái </s>
-1.0168804	mã trái </s>
-1.0818614	pháo trái </s>
-0.9766946	tốt trái </s>
-0.9766946	binh trái </s>
-0.9766946	chốt trái </s>
-0.20350653	tiến trái </s>
-0.20350653	tấn trái </s>
-0.20350653	thoái trái </s>
-0.20350653	lùi trái </s>
-0.59383583	sang trái </s>
-1.7161794	ăn tượng </s>
-1.7161794	bắt tượng </s>
-0.000028035409	tướng chín </s>
-0.000026119727	phải chín </s>
-0.7729686	sau chín </s>
-0.7729686	trên chín </s>
-0.7729686	trước chín </s>
-0.7729686	dưới chín </s>
-0.000026119727	trái chín </s>
-0.6314166	tượng chín </s>
-0.6314166	tịnh chín </s>
-0.6314166	bộ chín </s>
-1.0761878	xe chín </s>
-0.7863186	mã chín </s>
-1.0761878	pháo chín </s>
-0.582116	tốt chín </s>
-0.54613924	giữa chín </s>
-0.582116	binh chín </s>
-0.582116	chốt chín </s>
-0.000017292172	tiến chín </s>
-0.000017292172	tấn chín </s>
-0.00001636024	bình chín </s>
-0.000017292172	thoái chín </s>
-0.000017292172	lùi chín </s>
-0.000028035409	chiếu chín </s>
-0.000028035409	tướng tám </s>
-0.000026119727	phải tám </s>
-0.78159314	sau tám </s>
-0.78159314	trên tám </s>
-0.78159314	trước tám </s>
-0.78159314	dưới tám </s>
-0.000026119727	trái tám </s>
-0.6314166	tượng tám </s>
-0.6314166	tịnh tám </s>
-0.6314166	bộ tám </s>
-1.0761878	xe tám </s>
-0.8277113	mã tám </s>
-1.0761878	pháo tám </s>
-0.5991493	tốt tám </s>
-0.5646226	giữa tám </s>
-0.5991493	binh tám </s>
-0.5991493	chốt tám </s>
-0.000016774431	tiến tám </s>
-0.000016774431	tấn tám </s>
-0.000013849214	bình tám </s>
-0.000016774431	thoái tám </s>
-0.000016774431	lùi tám </s>
-0.000028035409	chiếu tám </s>
-0.000028035409	tướng một </s>
-0.0000086977725	phải một </s>
-0.7729686	sau một </s>
-0.7729686	trên một </s>
-0.7729686	trước một </s>
-0.7729686	dưới một </s>
-0.0000086977725	trái một </s>
-0.6314166	tượng một </s>
-0.6314166	tịnh một </s>
-0.6314166	bộ một </s>
-1.0761878	xe một </s>
-0.7863186	mã một </s>
-1.0761878	pháo một </s>
-0.582116	tốt một </s>
-0.54613924	giữa một </s>
-0.582116	binh một </s>
-0.582116	chốt một </s>
-0.0000056949507	tiến một </s>
-0.0000056949507	tấn một </s>
-0.00001636024	bình một </s>
-0.00001646379	thoái một </s>
-0.00001646379	lùi một </s>
-0.000028035409	chiếu một </s>
-0.000028035409	tướng ba </s>
-0.000026119727	phải ba </s>
-0.8006861	sau ba </s>
-0.8006861	trên ba </s>
-0.8006861	trước ba </s>
-0.8006861	dưới ba </s>
-0.000026119727	trái ba </s>
-0.6894086	tượng ba </s>
-0.6894086	tịnh ba </s>
-0.6894086	bộ ba </s>
-1.0761878	xe ba </s>
-0.86549985	mã ba </s>
-1.0761878	pháo ba </s>
-0.5991493	tốt ba </s>
-0.5646226	giữa ba </s>
-0.5991493	binh ba </s>
-0.5991493	chốt ba </s>
-0.0000149105745	tiến ba </s>
-0.0000149105745	tấn ba </s>
-0.000013849214	bình ba </s>
-0.0000149105745	thoái ba </s>
-0.0000149105745	lùi ba </s>
-0.000028035409	chiếu ba </s>
-0.000028035409	tướng hai </s>
-0.0000086977725	phải hai </s>
-0.78159314	sau hai </s>
-0.78159314	trên hai </s>
-0.78159314	trước hai </s>
-0.78159314	dưới hai </s>
-0.0000086977725	trái hai </s>
-0.6314166	tượng hai </s>
-0.6314166	tịnh hai </s>
-0.6314166	bộ hai </s>
-1.0761878	xe hai </s>
-0.8277113	mã hai </s>
-1.0761878	pháo hai </s>
-0.5991493	tốt hai </s>
-0.5646226	giữa hai </s>
-0.5991493	binh hai </s>
-0.5991493	chốt hai </s>
-0.000016774431	tiến hai </s>
-0.000016774431	tấn hai </s>
-0.000013849214	bình hai </s>
-0.000016774431	thoái hai </s>
-0.000016774431	lùi hai </s>
-0.000028035409	chiếu hai </s>
-0.000028035409	tướng bảy </s>
-0.000026119727	phải bảy </s>
-0.8006861	sau bảy </s>
-0.8006861	trên bảy </s>
-0.8006861	trước bảy </s>
-0.8006861	dưới bảy </s>
-0.000026119727	trái bảy </s>
-0.6894086	tượng bảy </s>
-0.6894086	tịnh bảy </s>
-0.6894086	bộ bảy </s>
-1.0761878	xe bảy </s>
-0.86549985	mã bảy </s>
-1.0761878	pháo bảy </s>
-0.5991493	tốt bảy </s>
-0.5646226	giữa bảy </s>
-0.5991493	binh bảy </s>
-0.5991493	chốt bảy </s>
-0.0000149105745	tiến bảy </s>
-0.0000149105745	tấn bảy </s>
-0.000013849214	bình bảy </s>
-0.0000149105745	thoái bảy </s>
-0.0000149105745	lùi bảy </s>
-0.000028035409	chiếu bảy </s>
-1.7161794	ăn tịnh </s>
-1.7161794	bắt tịnh </s>
-1.7161794	ăn bộ </s>
-1.7161794	bắt bộ </s>
-1.71619	ăn xe </s>
-1.71619	bắt xe </s>
-1.7161794	ăn mã </s>
-1.7161794	bắt mã </s>
-1.71619	ăn pháo </s>
-1.71619	bắt pháo </s>
-2.0171747	ăn tốt </s>
-2.0171747	bắt tốt </s>
-0.6758597	phải giữa </s>
-1.5735624	sau giữa </s>
-1.5735624	trên giữa </s>
-1.5735624	trước giữa </s>
-1.5735624	dưới giữa </s>
-0.6758597	trái giữa </s>
-1.5735106	tốt giữa </s>
-1.5735106	binh giữa </s>
-1.5735106	chốt giữa </s>
-2.0171747	ăn binh </s>
-2.0171747	bắt binh </s>
-2.0171747	ăn chốt </s>
-2.0171747	bắt chốt </s>
-0.30377558	tướng tiến </s>
-0.92460656	bốn tiến </s>
-1.3979852	phải tiến </s>
-1.3979852	sau tiến </s>
-1.3979852	trên tiến </s>
-0.92460656	sáu tiến </s>
-0.906474	năm tiến </s>
-1.3979852	trước tiến </s>
-1.3979852	dưới tiến </s>
-1.3979852	trái tiến </s>
-0.8750658	chín tiến </s>
-0.8846111	tám tiến </s>
-0.8750658	một tiến </s>
-0.9208233	ba tiến </s>
-0.8846111	hai tiến </s>
-0.9208233	bảy tiến </s>
-0.30377558	tốt tiến </s>
-0.30116037	giữa tiến </s>
-0.30377558	binh tiến </s>
-0.30377558	chốt tiến </s>
-0.30377558	soái tiến </s>
-0.30377558	tướng tấn </s>
-0.92460656	bốn tấn </s>
-1.3979852	phải tấn </s>
-1.3979852	sau tấn </s>
-1.3979852	trên tấn </s>
-0.92460656	sáu tấn </s>
-0.906474	năm tấn </s>
-1.3979852	trước tấn </s>
-1.3979852	dưới tấn </s>
-1.3979852	trái tấn </s>
-0.8750658	chín tấn </s>
-0.8846111	tám tấn </s>
-0.8750658	một tấn </s>
-0.9208233	ba tấn </s>
-0.8846111	hai tấn </s>
-0.9208233	bảy tấn </s>
-0.30377558	tốt tấn </s>
-0.30116037	giữa tấn </s>
-0.30377558	binh tấn </s>
-0.30377558	chốt tấn </s>
-0.30377558	soái tấn </s>
-0.30417082	tướng thoái </s>
-2.0203636	bốn thoái </s>
-2.0203636	sáu thoái </s>
-1.9968824	năm thoái </s>
-0.30417082	soái thoái </s>
-0.30417082	tướng lùi </s>
-2.0203636	bốn lùi </s>
-2.0203636	sáu lùi </s>
-1.9968824	năm lùi </s>
-0.30417082	soái lùi </s>
-0.000056331523	sang sông </s>
-0.000056331523	qua sông </s>
-0.000030442967	chấp nhận </s>
-0.000030442967	xác nhận </s>
-0.000030442967	đồng ý </s>
-0.000030442967	ô kê </s>
-0.000030442967	hủy bỏ </s>
-0.000030442967	từ chối </s>
-0.000030442967	đầu hàng </s>
-0.000030442967	xin hòa </s>
-0.000030442967	đổi phe </s>
-0.000030442967	chơi lại </s>
-0.000030442967	đi lại </s>
-1.3010353	bốn chiếu </s>
-1.3013752	sĩ chiếu </s>
-1.3010645	phải chiếu </s>
-1.3010645	sau chiếu </s>
-1.3010645	trên chiếu </s>
-1.3010353	sáu chiếu </s>
-1.3010353	năm chiếu </s>
-1.3010645	trước chiếu </s>
-1.3010645	dưới chiếu </s>
-1.3010645	trái chiếu </s>
-1.3013752	tượng chiếu </s>
-1.3010358	chín chiếu </s>
-1.3010358	tám chiếu </s>
-1.3010358	một chiếu </s>
-1.3010358	ba chiếu </s>
-1.3010358	hai chiếu </s>
-1.3010358	bảy chiếu </s>
-1.3013752	tịnh chiếu </s>
-1.3013752	bộ chiếu </s>
-1.3013752	xe chiếu </s>
-1.3013752	mã chiếu </s>
-1.3013752	pháo chiếu </s>
-1.3013752	tốt chiếu </s>
-1.3010464	giữa chiếu </s>
-1.3013752	binh chiếu </s>
-1.3013752	chốt chiếu </s>
-0.30103186	bốn chiếu tướng
-0.30115065	sĩ chiếu tướng
-0.30104205	phải chiếu tướng
-0.30104205	sau chiếu tướng
-0.30104205	trên chiếu tướng
-0.30103186	sáu chiếu tướng
-0.30103186	năm chiếu tướng
-0.30104205	trước chiếu tướng
-0.30104205	dưới chiếu tướng
-0.30104205	trái chiếu tướng
-0.30115065	tượng chiếu tướng
-0.301032	chín chiếu tướng
-0.301032	tám chiếu tướng
-0.301032	một chiếu tướng
-0.301032	ba chiếu tướng
-0.301032	hai chiếu tướng
-0.301032	bảy chiếu tướng
-0.30115065	tịnh chiếu tướng
-0.30115065	bộ chiếu tướng
-0.30115065	xe chiếu tướng
-0.30115065	mã chiếu tướng
-0.30115065	pháo chiếu tướng
-0.30115065	tốt chiếu tướng
-0.30103573	giữa chiếu tướng
-0.30115065	binh chiếu tướng
-0.30115065	chốt chiếu tướng
-0.62037456	<s> tướng bốn
-1.0000111	chiếu tướng bốn
-1.3533266	<s> sĩ bốn
-1.3428098	ăn sĩ bốn
-1.3428098	bắt sĩ bốn
-1.0819836	sang phải bốn
-0.5863098	sĩ sau bốn
-1.015992	tượng sau bốn
-1.015992	tịnh sau bốn
-1.015992	bộ sau bốn
-1.0005533	xe sau bốn
-0.99636835	mã sau bốn
-1.0005533	pháo sau bốn
-1.3099824	tốt sau bốn
-1.3099824	binh sau bốn
-1.3099824	chốt sau bốn
-0.5863098	sĩ trên bốn
-1.015992	tượng trên bốn
-1.015992	tịnh trên bốn
-1.015992	bộ trên bốn
-1.0005533	xe trên bốn
-0.99636835	mã trên bốn
-1.0005533	pháo trên bốn
-1.3099824	tốt trên bốn
-1.3099824	binh trên bốn
-1.3099824	chốt trên bốn
-0.5863098	sĩ trước bốn
-1.015992	tượng trước bốn
-1.015992	tịnh trước bốn
-1.015992	bộ trước bốn
-1.0005533	xe trước bốn
-0.99636835	mã trước bốn
-1.0005533	pháo trước bốn
-1.3099824	tốt trước bốn
-1.3099824	binh trước bốn
-1.3099824	chốt trước bốn
-0.5863098	sĩ dưới bốn
-1.015992	tượng dưới bốn
-1.015992	tịnh dưới bốn
-1.015992	bộ dưới bốn
-1.0005533	xe dưới bốn
-0.99636835	mã dưới bốn
-1.0005533	pháo dưới bốn
-1.3099824	tốt dưới bốn
-1.3099824	binh dưới bốn
-1.3099824	chốt dưới bốn
-1.0819836	sang trái bốn
-1.7524748	<s> tượng bốn
-1.7162462	ăn tượng bốn
-1.7162462	bắt tượng bốn
-1.7524748	<s> tịnh bốn
-1.7162462	ăn tịnh bốn
-1.7162462	bắt tịnh bốn
-1.7524748	<s> bộ bốn
-1.7162462	ăn bộ bốn
-1.7162462	bắt bộ bốn
-1.7168157	<s> xe bốn
-1.716262	ăn xe bốn
-1.716262	bắt xe bốn
-1.7200105	<s> mã bốn
-1.7162462	ăn mã bốn
-1.7162462	bắt mã bốn
-1.7168157	<s> pháo bốn
-1.716262	ăn pháo bốn
-1.716262	bắt pháo bốn
-1.9922998	<s> tốt bốn
-2.0172539	ăn tốt bốn
-2.0172539	bắt tốt bốn
-1.0089631	sau giữa bốn
-1.0089631	trên giữa bốn
-1.0089631	trước giữa bốn
-1.0089631	dưới giữa bốn
-1.0089796	tốt giữa bốn
-1.0089796	binh giữa bốn
-1.0089796	chốt giữa bốn
-1.9922998	<s> binh bốn
-2.0172539	ăn binh bốn
-2.0172539	bắt binh bốn
-1.9922998	<s> chốt bốn
-2.0172539	ăn chốt bốn
-2.0172539	bắt chốt bốn
-0.620379	<s> soái bốn
-1.4297581	bốn tiến bốn
-0.7008983	sĩ tiến bốn
-1.0299715	phải tiến bốn
-1.0299715	sau tiến bốn
-1.0299715	trên tiến bốn
-0.9526329	sáu tiến bốn
-1.2075033	năm tiến bốn
-1.0299715	trước tiến bốn
-1.0299715	dưới tiến bốn
-1.0299715	trái tiến bốn
-1.041717	tượng tiến bốn
-1.3521882	chín tiến bốn
-1.3617337	tám tiến bốn
-1.3521882	một tiến bốn
-1.2218525	ba tiến bốn
-0.8846085	hai tiến bốn
-1.3979458	bảy tiến bốn
-1.041717	tịnh tiến bốn
-1.041717	bộ tiến bốn
-0.9551009	xe tiến bốn
-1.1142677	mã tiến bốn
-0.9551009	pháo tiến bốn
-1.4297581	bốn tấn bốn
-0.7008983	sĩ tấn bốn
-1.0299715	phải tấn bốn
-1.0299715	sau tấn bốn
-1.0299715	trên tấn bốn
-0.9526329	sáu tấn bốn
-1.2075033	năm tấn bốn
-1.0299715	trước tấn bốn
-1.0299715	dưới tấn bốn
-1.0299715	trái tấn bốn
-1.041717	tượng tấn bốn
-1.3521882	chín tấn bốn
-1.3617337	tám tấn bốn
-1.3521882	một tấn bốn
-1.2218525	ba tấn bốn
-0.8846085	hai tấn bốn
-1.3979458	bảy tấn bốn
-1.041717	tịnh tấn bốn
-1.041717	bộ tấn bốn
-0.9551009	xe tấn bốn
-1.1142677	mã tấn bốn
-0.9551009	pháo tấn bốn
-0.47927922	tướng bình bốn
-0.9542312	phải bình bốn
-0.9542312	sau bình bốn
-0.9542312	trên bình bốn
-1.1523196	sáu bình bốn
-0.5351206	năm bình bốn
-0.9542312	trước bình bốn
-0.9542312	dưới bình bốn
-0.9542312	trái bình bốn
-1.0414238	chín bình bốn
-1.1461592	tám bình bốn
-1.0414238	một bình bốn
-0.54407585	ba bình bốn
-1.1461592	hai bình bốn
-1.1461592	bảy bình bốn
-0.95418584	xe bình bốn
-0.95418584	pháo bình bốn
-0.95418584	tốt bình bốn
-0.9542398	giữa bình bốn
-0.95418584	binh bình bốn
-0.95418584	chốt bình bốn
-0.47927922	soái bình bốn
-1.3201253	bốn thoái bốn
-0.70078623	sĩ thoái bốn
-0.9937623	phải thoái bốn
-0.9937623	sau thoái bốn
-0.9937623	trên thoái bốn
-0.843018	sáu thoái bốn
-1.092532	năm thoái bốn
-0.9937623	trước thoái bốn
-0.9937623	dưới thoái bốn
-0.9937623	trái thoái bốn
-1.0414715	tượng thoái bốn
-1.2174919	chín thoái bốn
-1.2304568	tám thoái bốn
-1.2174919	một thoái bốn
-1.1026676	ba thoái bốn
-0.7533303	hai thoái bốn
-1.2787615	bảy thoái bốn
-1.0414715	tịnh thoái bốn
-1.0414715	bộ thoái bốn
-0.95489967	xe thoái bốn
-1.1140221	mã thoái bốn
-0.95489967	pháo thoái bốn
-1.3201253	bốn lùi bốn
-0.70078623	sĩ lùi bốn
-0.9937623	phải lùi bốn
-0.9937623	sau lùi bốn
-0.9937623	trên lùi bốn
-0.843018	sáu lùi bốn
-1.092532	năm lùi bốn
-0.9937623	trước lùi bốn
-0.9937623	dưới lùi bốn
-0.9937623	trái lùi bốn
-1.0414715	tượng lùi bốn
-1.2174919	chín lùi bốn
-1.2304568	tám lùi bốn
-1.2174919	một lùi bốn
-1.1026676	ba lùi bốn
-0.7533303	hai lùi bốn
-1.2787615	bảy lùi bốn
-1.0414715	tịnh lùi bốn
-1.0414715	bộ lùi bốn
-0.95489967	xe lùi bốn
-1.1140221	mã lùi bốn
-0.95489967	pháo lùi bốn
-1.301041	bốn chiếu bốn
-1.3017462	sĩ chiếu bốn
-1.3011016	phải chiếu bốn
-1.3011016	sau chiếu bốn
-1.3011016	trên chiếu bốn
-1.301041	sáu chiếu bốn
-1.301041	năm chiếu bốn
-1.3011016	trước chiếu bốn
-1.3011016	dưới chiếu bốn
-1.3011016	trái chiếu bốn
-1.3017462	tượng chiếu bốn
-1.301042	chín chiếu bốn
-1.301042	tám chiếu bốn
-1.301042	một chiếu bốn
-1.301042	ba chiếu bốn
-1.301042	hai chiếu bốn
-1.301042	bảy chiếu bốn
-1.3017462	tịnh chiếu bốn
-1.3017462	bộ chiếu bốn
-1.3017462	xe chiếu bốn
-1.3017462	mã chiếu bốn
-1.3017462	pháo chiếu bốn
-1.3017462	tốt chiếu bốn
-1.3010641	giữa chiếu bốn
-1.3017462	binh chiếu bốn
-1.3017462	chốt chiếu bốn
-1.3536695	<s> tướng ăn
-1.5491599	tướng bốn ăn
-0.93814605	sĩ bốn ăn
-1.092856	sau bốn ăn
-1.092856	trên bốn ăn
-1.092856	trước bốn ăn
-1.092856	dưới bốn ăn
-0.99613804	tượng bốn ăn
-0.99613804	tịnh bốn ăn
-0.99613804	bộ bốn ăn
-1.3828782	xe bốn ăn
-1.1722293	mã bốn ăn
-1.3828782	pháo bốn ăn
-0.9058591	tốt bốn ăn
-0.8710214	giữa bốn ăn
-0.9058591	binh bốn ăn
-0.9058591	chốt bốn ăn
-0.7330322	soái bốn ăn
-2.1761823	<s> sĩ ăn
-1.047405	sĩ phải ăn
-1.2692537	tượng phải ăn
-1.2692537	tịnh phải ăn
-1.2692537	bộ phải ăn
-1.3885536	xe phải ăn
-1.3236114	mã phải ăn
-1.3885536	pháo phải ăn
-1.2834061	tốt phải ăn
-1.2834061	binh phải ăn
-1.2834061	chốt phải ăn
-1.5245934	sĩ sau ăn
-2.0119603	tượng sau ăn
-2.0119603	tịnh sau ăn
-2.0119603	bộ sau ăn
-2.3833575	xe sau ăn
-2.1684291	mã sau ăn
-2.3833575	pháo sau ăn
-2.1809604	tốt sau ăn
-2.1809604	binh sau ăn
-2.1809604	chốt sau ăn
-1.5245934	sĩ trên ăn
-2.0119603	tượng trên ăn
-2.0119603	tịnh trên ăn
-2.0119603	bộ trên ăn
-2.3833575	xe trên ăn
-2.1684291	mã trên ăn
-2.3833575	pháo trên ăn
-2.1809604	tốt trên ăn
-2.1809604	binh trên ăn
-2.1809604	chốt trên ăn
-1.5491599	tướng sáu ăn
-0.93814605	sĩ sáu ăn
-1.092856	sau sáu ăn
-1.092856	trên sáu ăn
-1.092856	trước sáu ăn
-1.092856	dưới sáu ăn
-0.99613804	tượng sáu ăn
-0.99613804	tịnh sáu ăn
-0.99613804	bộ sáu ăn
-1.3828782	xe sáu ăn
-1.1722293	mã sáu ăn
-1.3828782	pháo sáu ăn
-0.9058591	tốt sáu ăn
-0.8710214	giữa sáu ăn
-0.9058591	binh sáu ăn
-0.9058591	chốt sáu ăn
-0.7330322	soái sáu ăn
-1.5529411	tướng năm ăn
-0.99613804	sĩ năm ăn
-1.0796278	sau năm ăn
-1.0796278	trên năm ăn
-1.0796278	trước năm ăn
-1.0796278	dưới năm ăn
-0.99613804	tượng năm ăn
-0.99613804	tịnh năm ăn
-0.99613804	bộ năm ăn
-1.3828782	xe năm ăn
-1.1722293	mã năm ăn
-1.3828782	pháo năm ăn
-0.9058591	tốt năm ăn
-0.8710214	giữa năm ăn
-0.9058591	binh năm ăn
-0.9058591	chốt năm ăn
-0.75721973	soái năm ăn
-1.5245934	sĩ trước ăn
-2.0119603	tượng trước ăn
-2.0119603	tịnh trước ăn
-2.0119603	bộ trước ăn
-2.3833575	xe trước ăn
-2.1684291	mã trước ăn
-2.3833575	pháo trước ăn
-2.1809604	tốt trước ăn
-2.1809604	binh trước ăn
-2.1809604	chốt trước ăn
-1.5245934	sĩ dưới ăn
-2.0119603	tượng dưới ăn
-2.0119603	tịnh dưới ăn
-2.0119603	bộ dưới ăn
-2.3833575	xe dưới ăn
-2.1684291	mã dưới ăn
-2.3833575	pháo dưới ăn
-2.1809604	tốt dưới ăn
-2.1809604	binh dưới ăn
-2.1809604	chốt dưới ăn
-1.047405	sĩ trái ăn
-1.2692537	tượng trái ăn
-1.2692537	tịnh trái ăn
-1.2692537	bộ trái ăn
-1.3885536	xe trái ăn
-1.3236114	mã trái ăn
-1.3885536	pháo trái ăn
-1.2834061	tốt trái ăn
-1.2834061	binh trái ăn
-1.2834061	chốt trái ăn
-2.6494539	<s> tượng ăn
-1.0793835	sau chín ăn
-1.0793835	trên chín ăn
-1.0793835	trước chín ăn
-1.0793835	dưới chín ăn
-0.93817973	tượng chín ăn
-0.93817973	tịnh chín ăn
-0.93817973	bộ chín ăn
-1.3829201	xe chín ăn
-1.0930817	mã chín ăn
-1.3829201	pháo chín ăn
-0.88886356	tốt chín ăn
-0.85254025	giữa chín ăn
-0.88886356	binh chín ăn
-0.88886356	chốt chín ăn
-1.088008	sau tám ăn
-1.088008	trên tám ăn
-1.088008	trước tám ăn
-1.088008	dưới tám ăn
-0.93817973	tượng tám ăn
-0.93817973	tịnh tám ăn
-0.93817973	bộ tám ăn
-1.3829201	xe tám ăn
-1.1344744	mã tám ăn
-1.3829201	pháo tám ăn
-0.90589696	tốt tám ăn
-0.87102365	giữa tám ăn
-0.90589696	binh tám ăn
-0.90589696	chốt tám ăn
-1.0793835	sau một ăn
-1.0793835	trên một ăn
-1.0793835	trước một ăn
-1.0793835	dưới một ăn
-0.93817973	tượng một ăn
-0.93817973	tịnh một ăn
-0.93817973	bộ một ăn
-1.3829201	xe một ăn
-1.0930817	mã một ăn
-1.3829201	pháo một ăn
-0.88886356	tốt một ăn
-0.85254025	giữa một ăn
-0.88886356	binh một ăn
-0.88886356	chốt một ăn
-1.107101	sau ba ăn
-1.107101	trên ba ăn
-1.107101	trước ba ăn
-1.107101	dưới ba ăn
-0.99617165	tượng ba ăn
-0.99617165	tịnh ba ăn
-0.99617165	bộ ba ăn
-1.3829201	xe ba ăn
-1.1722629	mã ba ăn
-1.3829201	pháo ba ăn
-0.90589696	tốt ba ăn
-0.87102365	giữa ba ăn
-0.90589696	binh ba ăn
-0.90589696	chốt ba ăn
-1.088008	sau hai ăn
-1.088008	trên hai ăn
-1.088008	trước hai ăn
-1.088008	dưới hai ăn
-0.93817973	tượng hai ăn
-0.93817973	tịnh hai ăn
-0.93817973	bộ hai ăn
-1.3829201	xe hai ăn
-1.1344744	mã hai ăn
-1.3829201	pháo hai ăn
-0.90589696	tốt hai ăn
-0.87102365	giữa hai ăn
-0.90589696	binh hai ăn
-0.90589696	chốt hai ăn
-1.107101	sau bảy ăn
-1.107101	trên bảy ăn
-1.107101	trước bảy ăn
-1.107101	dưới bảy ăn
-0.99617165	tượng bảy ăn
-0.99617165	tịnh bảy ăn
-0.99617165	bộ bảy ăn
-1.3829201	xe bảy ăn
-1.1722629	mã bảy ăn
-1.3829201	pháo bảy ăn
-0.90589696	tốt bảy ăn
-0.87102365	giữa bảy ăn
-0.90589696	binh bảy ăn
-0.90589696	chốt bảy ăn
-2.6494539	<s> tịnh ăn
-2.6494539	<s> bộ ăn
-3.0619445	<s> xe ăn
-2.8287585	<s> mã ăn
-3.0619445	<s> pháo ăn
-2.772547	<s> tốt ăn
-0.98232377	phải giữa ăn
-1.879935	sau giữa ăn
-1.879935	trên giữa ăn
-1.879935	trước giữa ăn
-1.879935	dưới giữa ăn
-0.98232377	trái giữa ăn
-1.879878	tốt giữa ăn
-1.879878	binh giữa ăn
-1.879878	chốt giữa ăn
-2.772547	<s> binh ăn
-2.772547	<s> chốt ăn
-1.3534292	<s> soái ăn
-1.4693327	tướng ăn sĩ
-1.4678326	bốn ăn sĩ
-1.4693327	sĩ ăn sĩ
-1.4679619	phải ăn sĩ
-1.4679619	sau ăn sĩ
-1.4679619	trên ăn sĩ
-1.4678326	sáu ăn sĩ
-1.4678326	năm ăn sĩ
-1.4679619	trước ăn sĩ
-1.4679619	dưới ăn sĩ
-1.4679619	trái ăn sĩ
-1.4693327	tượng ăn sĩ
-1.4678352	chín ăn sĩ
-1.4678352	tám ăn sĩ
-1.4678352	một ăn sĩ
-1.4678352	ba ăn sĩ
-1.4678352	hai ăn sĩ
-1.4678352	bảy ăn sĩ
-1.4693327	tịnh ăn sĩ
-1.4693327	bộ ăn sĩ
-1.4693327	xe ăn sĩ
-1.4693327	mã ăn sĩ
-1.4693327	pháo ăn sĩ
-1.4693327	tốt ăn sĩ
-1.4678823	giữa ăn sĩ
-1.4693327	binh ăn sĩ
-1.4693327	chốt ăn sĩ
-1.4693327	soái ăn sĩ
-1.4693327	tướng bắt sĩ
-1.4678326	bốn bắt sĩ
-1.4693327	sĩ bắt sĩ
-1.4679619	phải bắt sĩ
-1.4679619	sau bắt sĩ
-1.4679619	trên bắt sĩ
-1.4678326	sáu bắt sĩ
-1.4678326	năm bắt sĩ
-1.4679619	trước bắt sĩ
-1.4679619	dưới bắt sĩ
-1.4679619	trái bắt sĩ
-1.4693327	tượng bắt sĩ
-1.4678352	chín bắt sĩ
-1.4678352	tám bắt sĩ
-1.4678352	một bắt sĩ
-1.4678352	ba bắt sĩ
-1.4678352	hai bắt sĩ
-1.4678352	bảy bắt sĩ
-1.4693327	tịnh bắt sĩ
-1.4693327	bộ bắt sĩ
-1.4693327	xe bắt sĩ
-1.4693327	mã bắt sĩ
-1.4693327	pháo bắt sĩ
-1.4693327	tốt bắt sĩ
-1.4678823	giữa bắt sĩ
-1.4693327	binh bắt sĩ
-1.4693327	chốt bắt sĩ
-1.4693327	soái bắt sĩ
-1.3536695	<s> tướng bắt
-1.5491599	tướng bốn bắt
-0.93814605	sĩ bốn bắt
-1.092856	sau bốn bắt
-1.092856	trên bốn bắt
-1.092856	trước bốn bắt
-1.092856	dưới bốn bắt
-0.99613804	tượng bốn bắt
-0.99613804	tịnh bốn bắt
-0.99613804	bộ bốn bắt
-1.3828782	xe bốn bắt
-1.1722293	mã bốn bắt
-1.3828782	pháo bốn bắt
-0.9058591	tốt bốn bắt
-0.8710214	giữa bốn bắt
-0.9058591	binh bốn bắt
-0.9058591	chốt bốn bắt
-0.7330322	soái bốn bắt
-2.1761823	<s> sĩ bắt
-1.047405	sĩ phải bắt
-1.2692537	tượng phải bắt
-1.2692537	tịnh phải bắt
-1.2692537	bộ phải bắt
-1.3885536	xe phải bắt
-1.3236114	mã phải bắt
-1.3885536	pháo phải bắt
-1.2834061	tốt phải bắt
-1.2834061	binh phải bắt
-1.2834061	chốt phải bắt
-1.5245934	sĩ sau bắt
-2.0119603	tượng sau bắt
-2.0119603	tịnh sau bắt
-2.0119603	bộ sau bắt
-2.3833575	xe sau bắt
-2.1684291	mã sau bắt
-2.3833575	pháo sau bắt
-2.1809604	tốt sau bắt
-2.1809604	binh sau bắt
-2.1809604	chốt sau bắt
-1.5245934	sĩ trên bắt
-2.0119603	tượng trên bắt
-2.0119603	tịnh trên bắt
-2.0119603	bộ trên bắt
-2.3833575	xe trên bắt
-2.1684291	mã trên bắt
-2.3833575	pháo trên bắt
-2.1809604	tốt trên bắt
-2.1809604	binh trên bắt
-2.1809604	chốt trên bắt
-1.5491599	tướng sáu bắt
-0.93814605	sĩ sáu bắt
-1.092856	sau sáu bắt
-1.092856	trên sáu bắt
-1.092856	trước sáu bắt
-1.092856	dưới sáu bắt
-0.99613804	tượng sáu bắt
-0.99613804	tịnh sáu bắt
-0.99613804	bộ sáu bắt
-1.3828782	xe sáu bắt
-1.1722293	mã sáu bắt
-1.3828782	pháo sáu bắt
-0.9058591	tốt sáu bắt
-0.8710214	giữa sáu bắt
-0.9058591	binh sáu bắt
-0.9058591	chốt sáu bắt
-0.7330322	soái sáu bắt
-1.5529411	tướng năm bắt
-0.99613804	sĩ năm bắt
-1.0796278	sau năm bắt
-1.0796278	trên năm bắt
-1.0796278	trước năm bắt
-1.0796278	dưới năm bắt
-0.99613804	tượng năm bắt
-0.99613804	tịnh năm bắt
-0.99613804	bộ năm bắt
-1.3828782	xe năm bắt
-1.1722293	mã năm bắt
-1.3828782	pháo năm bắt
-0.9058591	tốt năm bắt
-0.8710214	giữa năm bắt
-0.9058591	binh năm bắt
-0.9058591	chốt năm bắt
-0.75721973	soái năm bắt
-1.5245934	sĩ trước bắt
-2.0119603	tượng trước bắt
-2.0119603	tịnh trước bắt
-2.0119603	bộ trước bắt
-2.3833575	xe trước bắt
-2.1684291	mã trước bắt
-2.3833575	pháo trước bắt
-2.1809604	tốt trước bắt
-2.1809604	binh trước bắt
-2.1809604	chốt trước bắt
-1.5245934	sĩ dưới bắt
-2.0119603	tượng dưới bắt
-2.0119603	tịnh dưới bắt
-2.0119603	bộ dưới bắt
-2.3833575	xe dưới bắt
-2.1684291	mã dưới bắt
-2.3833575	pháo dưới bắt
-2.1809604	tốt dưới bắt
-2.1809604	binh dưới bắt
-2.1809604	chốt dưới bắt
-1.047405	sĩ trái bắt
-1.2692537	tượng trái bắt
-1.2692537	tịnh trái bắt
-1.2692537	bộ trái bắt
-1.3885536	xe trái bắt
-1.3236114	mã trái bắt
-1.3885536	pháo trái bắt
-1.2834061	tốt trái bắt
-1.2834061	binh trái bắt
-1.2834061	chốt trái bắt
-2.6494539	<s> tượng bắt
-1.0793835	sau chín bắt
-1.0793835	trên chín bắt
-1.0793835	trước chín bắt
-1.0793835	dưới chín bắt
-0.93817973	tượng chín bắt
-0.93817973	tịnh chín bắt
-0.93817973	bộ chín bắt
-1.3829201	xe chín bắt
-1.0930817	mã chín bắt
-1.3829201	pháo chín bắt
-0.88886356	tốt chín bắt
-0.85254025	giữa chín bắt
-0.88886356	binh chín bắt
-0.88886356	chốt chín bắt
-1.088008	sau tám bắt
-1.088008	trên tám bắt
-1.088008	trước tám bắt
-1.088008	dưới tám bắt
-0.93817973	tượng tám bắt
-0.93817973	tịnh tám bắt
-0.93817973	bộ tám bắt
-1.3829201	xe tám bắt
-1.1344744	mã tám bắt
-1.3829201	pháo tám bắt
-0.90589696	tốt tám bắt
-0.87102365	giữa tám bắt
-0.90589696	binh tám bắt
-0.90589696	chốt tám bắt
-1.0793835	sau một bắt
-1.0793835	trên một bắt
-1.0793835	trước một bắt
-1.0793835	dưới một bắt
-0.93817973	tượng một bắt
-0.93817973	tịnh một bắt
-0.93817973	bộ một bắt
-1.3829201	xe một bắt
-1.0930817	mã một bắt
-1.3829201	pháo một bắt
-0.88886356	tốt một bắt
-0.85254025	giữa một bắt
-0.88886356	binh một bắt
-0.88886356	chốt một bắt
-1.107101	sau ba bắt
-1.107101	trên ba bắt
-1.107101	trước ba bắt
-1.107101	dưới ba bắt
-0.99617165	tượng ba bắt
-0.99617165	tịnh ba bắt
-0.99617165	bộ ba bắt
-1.3829201	xe ba bắt
-1.1722629	mã ba bắt
-1.3829201	pháo ba bắt
-0.90589696	tốt ba bắt
-0.87102365	giữa ba bắt
-0.90589696	binh ba bắt
-0.90589696	chốt ba bắt
-1.088008	sau hai bắt
-1.088008	trên hai bắt
-1.088008	trước hai bắt
-1.088008	dưới hai bắt
-0.93817973	tượng hai bắt
-0.93817973	tịnh hai bắt
-0.93817973	bộ hai bắt
-1.3829201	xe hai bắt
-1.1344744	mã hai bắt
-1.3829201	pháo hai bắt
-0.90589696	tốt hai bắt
-0.87102365	giữa hai bắt
-0.90589696	binh hai bắt
-0.90589696	chốt hai bắt
-1.107101	sau bảy bắt
-1.107101	trên bảy bắt
-1.107101	trước bảy bắt
-1.107101	dưới bảy bắt
-0.99617165	tượng bảy bắt
-0.99617165	tịnh bảy bắt
-0.99617165	bộ bảy bắt
-1.3829201	xe bảy bắt
-1.1722629	mã bảy bắt
-1.3829201	pháo bảy bắt
-0.90589696	tốt bảy bắt
-0.87102365	giữa bảy bắt
-0.90589696	binh bảy bắt
-0.90589696	chốt bảy bắt
-2.6494539	<s> tịnh bắt
-2.6494539	<s> bộ bắt
-3.0619445	<s> xe bắt
-2.8287585	<s> mã bắt
-3.0619445	<s> pháo bắt
-2.772547	<s> tốt bắt
-0.98232377	phải giữa bắt
-1.879935	sau giữa bắt
-1.879935	trên giữa bắt
-1.879935	trước giữa bắt
-1.879935	dưới giữa bắt
-0.98232377	trái giữa bắt
-1.879878	tốt giữa bắt
-1.879878	binh giữa bắt
-1.879878	chốt giữa bắt
-2.772547	<s> binh bắt
-2.772547	<s> chốt bắt
-1.3534292	<s> soái bắt
-1.2157366	<s> sĩ phải
-1.3428887	ăn sĩ phải
-1.3428887	bắt sĩ phải
-1.4303176	<s> tượng phải
-1.7163724	ăn tượng phải
-1.7163724	bắt tượng phải
-1.4303176	<s> tịnh phải
-1.7163724	ăn tịnh phải
-1.7163724	bắt tịnh phải
-1.4303176	<s> bộ phải
-1.7163724	ăn bộ phải
-1.7163724	bắt bộ phải
-1.710789	<s> xe phải
-1.7163882	ăn xe phải
-1.7163882	bắt xe phải
-1.5490575	<s> mã phải
-1.7163724	ăn mã phải
-1.7163724	bắt mã phải
-1.710789	<s> pháo phải
-1.7163882	ăn pháo phải
-1.7163882	bắt pháo phải
-1.5919737	<s> tốt phải
-1.7161806	ăn tốt phải
-1.7161806	bắt tốt phải
-1.5919737	<s> binh phải
-1.7161806	ăn binh phải
-1.7161806	bắt binh phải
-1.5919737	<s> chốt phải
-1.7161806	ăn chốt phải
-1.7161806	bắt chốt phải
-0.9526444	bốn tiến phải
-0.70104265	sĩ tiến phải
-1.0969771	phải tiến phải
-1.0969771	sau tiến phải
-1.0969771	trên tiến phải
-0.9526444	sáu tiến phải
-0.99666184	năm tiến phải
-1.0969771	trước tiến phải
-1.0969771	dưới tiến phải
-1.0969771	trái tiến phải
-1.0420334	tượng tiến phải
-0.9542586	chín tiến phải
-0.9638039	tám tiến phải
-0.9542586	một tiến phải
-1.0000161	ba tiến phải
-0.9638039	hai tiến phải
-1.0000161	bảy tiến phải
-1.0420334	tịnh tiến phải
-1.0420334	bộ tiến phải
-0.8132337	mã tiến phải
-0.9526444	bốn tấn phải
-0.70104265	sĩ tấn phải
-1.0969771	phải tấn phải
-1.0969771	sau tấn phải
-1.0969771	trên tấn phải
-0.9526444	sáu tấn phải
-0.99666184	năm tấn phải
-1.0969771	trước tấn phải
-1.0969771	dưới tấn phải
-1.0969771	trái tấn phải
-1.0420334	tượng tấn phải
-0.9542586	chín tấn phải
-0.9638039	tám tấn phải
-0.9542586	một tấn phải
-1.0000161	ba tấn phải
-0.9638039	hai tấn phải
-1.0000161	bảy tấn phải
-1.0420334	tịnh tấn phải
-1.0420334	bộ tấn phải
-0.8132337	mã tấn phải
-0.8430305	bốn thoái phải
-0.70094264	sĩ thoái phải
-1.0607681	phải thoái phải
-1.0607681	sau thoái phải
-1.0607681	trên thoái phải
-0.8430305	sáu thoái phải
-0.88169813	năm thoái phải
-1.0607681	trước thoái phải
-1.0607681	dưới thoái phải
-1.0607681	trái thoái phải
-1.0418142	tượng thoái phải
-0.81956077	chín thoái phải
-0.83252573	tám thoái phải
-0.81956077	một thoái phải
-0.8808304	ba thoái phải
-0.83252573	hai thoái phải
-0.8808304	bảy thoái phải
-1.0418142	tịnh thoái phải
-1.0418142	bộ thoái phải
-0.8131241	mã thoái phải
-0.8430305	bốn lùi phải
-0.70094264	sĩ lùi phải
-1.0607681	phải lùi phải
-1.0607681	sau lùi phải
-1.0607681	trên lùi phải
-0.8430305	sáu lùi phải
-0.88169813	năm lùi phải
-1.0607681	trước lùi phải
-1.0607681	dưới lùi phải
-1.0607681	trái lùi phải
-1.0418142	tượng lùi phải
-0.81956077	chín lùi phải
-0.83252573	tám lùi phải
-0.81956077	một lùi phải
-0.8808304	ba lùi phải
-0.83252573	hai lùi phải
-0.8808304	bảy lùi phải
-1.0418142	tịnh lùi phải
-1.0418142	bộ lùi phải
-0.8131241	mã lùi phải
-0.30172887	tướng sang phải
-0.30633235	bốn sang phải
-0.30106327	phải sang phải
-0.30106327	sau sang phải
-0.30106327	trên sang phải
-0.30633235	sáu sang phải
-0.30633235	năm sang phải
-0.30106327	trước sang phải
-0.30106327	dưới sang phải
-0.30106327	trái sang phải
-0.3064202	chín sang phải
-0.3064202	tám sang phải
-0.3064202	một sang phải
-0.3064202	ba sang phải
-0.3064202	hai sang phải
-0.3064202	bảy sang phải
-0.3011076	xe sang phải
-0.3011076	pháo sang phải
-0.30172887	tốt sang phải
-0.30106327	giữa sang phải
-0.30172887	binh sang phải
-0.30172887	chốt sang phải
-0.30172887	soái sang phải
-0.77199584	<s> sĩ sau
-0.740489	ăn sĩ sau
-0.740489	bắt sĩ sau
-0.73248094	<s> tượng sau
-0.7160466	ăn tượng sau
-0.7160466	bắt tượng sau
-0.73248094	<s> tịnh sau
-0.7160466	ăn tịnh sau
-0.7160466	bắt tịnh sau
-0.73248094	<s> bộ sau
-0.7160466	ăn bộ sau
-0.7160466	bắt bộ sau
-0.7162142	<s> xe sau
-0.7160481	ăn xe sau
-0.7160481	bắt xe sau
-0.72422576	<s> mã sau
-0.7160466	ăn mã sau
-0.7160466	bắt mã sau
-0.7162142	<s> pháo sau
-0.7160481	ăn pháo sau
-0.7160481	bắt pháo sau
-0.72611725	<s> tốt sau
-0.7160244	ăn tốt sau
-0.7160244	bắt tốt sau
-0.72611725	<s> binh sau
-0.7160244	ăn binh sau
-0.7160244	bắt binh sau
-0.72611725	<s> chốt sau
-0.7160244	ăn chốt sau
-0.7160244	bắt chốt sau
-0.77199584	<s> sĩ trên
-0.740489	ăn sĩ trên
-0.740489	bắt sĩ trên
-0.73248094	<s> tượng trên
-0.7160466	ăn tượng trên
-0.7160466	bắt tượng trên
-0.73248094	<s> tịnh trên
-0.7160466	ăn tịnh trên
-0.7160466	bắt tịnh trên
-0.73248094	<s> bộ trên
-0.7160466	ăn bộ trên
-0.7160466	bắt bộ trên
-0.7162142	<s> xe trên
-0.7160481	ăn xe trên
-0.7160481	bắt xe trên
-0.72422576	<s> mã trên
-0.7160466	ăn mã trên
-0.7160466	bắt mã trên
-0.7162142	<s> pháo trên
-0.7160481	ăn pháo trên
-0.7160481	bắt pháo trên
-0.72611725	<s> tốt trên
-0.7160244	ăn tốt trên
-0.7160244	bắt tốt trên
-0.72611725	<s> binh trên
-0.7160244	ăn binh trên
-0.7160244	bắt binh trên
-0.72611725	<s> chốt trên
-0.7160244	ăn chốt trên
-0.7160244	bắt chốt trên
-0.62037456	<s> tướng sáu
-1.0000111	chiếu tướng sáu
-1.3533266	<s> sĩ sáu
-1.3428098	ăn sĩ sáu
-1.3428098	bắt sĩ sáu
-1.0819836	sang phải sáu
-0.5863098	sĩ sau sáu
-1.015992	tượng sau sáu
-1.015992	tịnh sau sáu
-1.015992	bộ sau sáu
-1.0005533	xe sau sáu
-0.99636835	mã sau sáu
-1.0005533	pháo sau sáu
-1.3099824	tốt sau sáu
-1.3099824	binh sau sáu
-1.3099824	chốt sau sáu
-0.5863098	sĩ trên sáu
-1.015992	tượng trên sáu
-1.015992	tịnh trên sáu
-1.015992	bộ trên sáu
-1.0005533	xe trên sáu
-0.99636835	mã trên sáu
-1.0005533	pháo trên sáu
-1.3099824	tốt trên sáu
-1.3099824	binh trên sáu
-1.3099824	chốt trên sáu
-0.5863098	sĩ trước sáu
-1.015992	tượng trước sáu
-1.015992	tịnh trước sáu
-1.015992	bộ trước sáu
-1.0005533	xe trước sáu
-0.99636835	mã trước sáu
-1.0005533	pháo trước sáu
-1.3099824	tốt trước sáu
-1.3099824	binh trước sáu
-1.3099824	chốt trước sáu
-0.5863098	sĩ dưới sáu
-1.015992	tượng dưới sáu
-1.015992	tịnh dưới sáu
-1.015992	bộ dưới sáu
-1.0005533	xe dưới sáu
-0.99636835	mã dưới sáu
-1.0005533	pháo dưới sáu
-1.3099824	tốt dưới sáu
-1.3099824	binh dưới sáu
-1.3099824	chốt dưới sáu
-1.0819836	sang trái sáu
-1.7524748	<s> tượng sáu
-1.7162462	ăn tượng sáu
-1.7162462	bắt tượng sáu
-1.7524748	<s> tịnh sáu
-1.7162462	ăn tịnh sáu
-1.7162462	bắt tịnh sáu
-1.7524748	<s> bộ sáu
-1.7162462	ăn bộ sáu
-1.7162462	bắt bộ sáu
-1.7168157	<s> xe sáu
-1.716262	ăn xe sáu
-1.716262	bắt xe sáu
-1.7200105	<s> mã sáu
-1.7162462	ăn mã sáu
-1.7162462	bắt mã sáu
-1.7168157	<s> pháo sáu
-1.716262	ăn pháo sáu
-1.716262	bắt pháo sáu
-1.9922998	<s> tốt sáu
-2.0172539	ăn tốt sáu
-2.0172539	bắt tốt sáu
-1.0089631	sau giữa sáu
-1.0089631	trên giữa sáu
-1.0089631	trước giữa sáu
-1.0089631	dưới giữa sáu
-1.0089796	tốt giữa sáu
-1.0089796	binh giữa sáu
-1.0089796	chốt giữa sáu
-1.9922998	<s> binh sáu
-2.0172539	ăn binh sáu
-2.0172539	bắt binh sáu
-1.9922998	<s> chốt sáu
-2.0172539	ăn chốt sáu
-2.0172539	bắt chốt sáu
-0.620379	<s> soái sáu
-0.9526329	bốn tiến sáu
-0.7008983	sĩ tiến sáu
-1.0299715	phải tiến sáu
-1.0299715	sau tiến sáu
-1.0299715	trên tiến sáu
-1.4297581	sáu tiến sáu
-1.2075033	năm tiến sáu
-1.0299715	trước tiến sáu
-1.0299715	dưới tiến sáu
-1.0299715	trái tiến sáu
-1.041717	tượng tiến sáu
-1.3521882	chín tiến sáu
-0.8846085	tám tiến sáu
-1.3521882	một tiến sáu
-1.3979458	ba tiến sáu
-1.3617337	hai tiến sáu
-1.2218525	bảy tiến sáu
-1.041717	tịnh tiến sáu
-1.041717	bộ tiến sáu
-0.9551009	xe tiến sáu
-1.1142677	mã tiến sáu
-0.9551009	pháo tiến sáu
-0.9526329	bốn tấn sáu
-0.7008983	sĩ tấn sáu
-1.0299715	phải tấn sáu
-1.0299715	sau tấn sáu
-1.0299715	trên tấn sáu
-1.4297581	sáu tấn sáu
-1.2075033	năm tấn sáu
-1.0299715	trước tấn sáu
-1.0299715	dưới tấn sáu
-1.0299715	trái tấn sáu
-1.041717	tượng tấn sáu
-1.3521882	chín tấn sáu
-0.8846085	tám tấn sáu
-1.3521882	một tấn sáu
-1.3979458	ba tấn sáu
-1.3617337	hai tấn sáu
-1.2218525	bảy tấn sáu
-1.041717	tịnh tấn sáu
-1.041717	bộ tấn sáu
-0.9551009	xe tấn sáu
-1.1142677	mã tấn sáu
-0.9551009	pháo tấn sáu
-0.47927922	tướng bình sáu
-1.1523196	bốn bình sáu
-0.9542312	phải bình sáu
-0.9542312	sau bình sáu
-0.9542312	trên bình sáu
-0.5351206	năm bình sáu
-0.9542312	trước bình sáu
-0.9542312	dưới bình sáu
-0.9542312	trái bình sáu
-1.0414238	chín bình sáu
-1.1461592	tám bình sáu
-1.0414238	một bình sáu
-1.1461592	ba bình sáu
-1.1461592	hai bình sáu
-0.54407585	bảy bình sáu
-0.95418584	xe bình sáu
-0.95418584	pháo bình sáu
-0.95418584	tốt bình sáu
-0.9542398	giữa bình sáu
-0.95418584	binh bình sáu
-0.95418584	chốt bình sáu
-0.47927922	soái bình sáu
-0.843018	bốn thoái sáu
-0.70078623	sĩ thoái sáu
-0.9937623	phải thoái sáu
-0.9937623	sau thoái sáu
-0.9937623	trên thoái sáu
-1.3201253	sáu thoái sáu
-1.092532	năm thoái sáu
-0.9937623	trước thoái sáu
-0.9937623	dưới thoái sáu
-0.9937623	trái thoái sáu
-1.0414715	tượng thoái sáu
-1.2174919	chín thoái sáu
-0.7533303	tám thoái sáu
-1.2174919	một thoái sáu
-1.2787615	ba thoái sáu
-1.2304568	hai thoái sáu
-1.1026676	bảy thoái sáu
-1.0414715	tịnh thoái sáu
-1.0414715	bộ thoái sáu
-0.95489967	xe thoái sáu
-1.1140221	mã thoái sáu
-0.95489967	pháo thoái sáu
-0.843018	bốn lùi sáu
-0.70078623	sĩ lùi sáu
-0.9937623	phải lùi sáu
-0.9937623	sau lùi sáu
-0.9937623	trên lùi sáu
-1.3201253	sáu lùi sáu
-1.092532	năm lùi sáu
-0.9937623	trước lùi sáu
-0.9937623	dưới lùi sáu
-0.9937623	trái lùi sáu
-1.0414715	tượng lùi sáu
-1.2174919	chín lùi sáu
-0.7533303	tám lùi sáu
-1.2174919	một lùi sáu
-1.2787615	ba lùi sáu
-1.2304568	hai lùi sáu
-1.1026676	bảy lùi sáu
-1.0414715	tịnh lùi sáu
-1.0414715	bộ lùi sáu
-0.95489967	xe lùi sáu
-1.1140221	mã lùi sáu
-0.95489967	pháo lùi sáu
-1.301041	bốn chiếu sáu
-1.3017462	sĩ chiếu sáu
-1.3011016	phải chiếu sáu
-1.3011016	sau chiếu sáu
-1.3011016	trên chiếu sáu
-1.301041	sáu chiếu sáu
-1.301041	năm chiếu sáu
-1.3011016	trước chiếu sáu
-1.3011016	dưới chiếu sáu
-1.3011016	trái chiếu sáu
-1.3017462	tượng chiếu sáu
-1.301042	chín chiếu sáu
-1.301042	tám chiếu sáu
-1.301042	một chiếu sáu
-1.301042	ba chiếu sáu
-1.301042	hai chiếu sáu
-1.301042	bảy chiếu sáu
-1.3017462	tịnh chiếu sáu
-1.3017462	bộ chiếu sáu
-1.3017462	xe chiếu sáu
-1.3017462	mã chiếu sáu
-1.3017462	pháo chiếu sáu
-1.3017462	tốt chiếu sáu
-1.3010641	giữa chiếu sáu
-1.3017462	binh chiếu sáu
-1.3017462	chốt chiếu sáu
-0.5961845	<s> tướng năm
-1.0000111	chiếu tướng năm
-1.2790973	<s> sĩ năm
-1.3428098	ăn sĩ năm
-1.3428098	bắt sĩ năm
-1.0819836	sang phải năm
-0.8293807	sĩ sau năm
-1.015992	tượng sau năm
-1.015992	tịnh sau năm
-1.015992	bộ sau năm
-1.0005533	xe sau năm
-0.99636835	mã sau năm
-1.0005533	pháo sau năm
-1.3099824	tốt sau năm
-1.3099824	binh sau năm
-1.3099824	chốt sau năm
-0.8293807	sĩ trên năm
-1.015992	tượng trên năm
-1.015992	tịnh trên năm
-1.015992	bộ trên năm
-1.0005533	xe trên năm
-0.99636835	mã trên năm
-1.0005533	pháo trên năm
-1.3099824	tốt trên năm
-1.3099824	binh trên năm
-1.3099824	chốt trên năm
-0.8293807	sĩ trước năm
-1.015992	tượng trước năm
-1.015992	tịnh trước năm
-1.015992	bộ trước năm
-1.0005533	xe trước năm
-0.99636835	mã trước năm
-1.0005533	pháo trước năm
-1.3099824	tốt trước năm
-1.3099824	binh trước năm
-1.3099824	chốt trước năm
-0.8293807	sĩ dưới năm
-1.015992	tượng dưới năm
-1.015992	tịnh dưới năm
-1.015992	bộ dưới năm
-1.0005533	xe dưới năm
-0.99636835	mã dưới năm
-1.0005533	pháo dưới năm
-1.3099824	tốt dưới năm
-1.3099824	binh dưới năm
-1.3099824	chốt dưới năm
-1.0819836	sang trái năm
-1.7524748	<s> tượng năm
-1.7162462	ăn tượng năm
-1.7162462	bắt tượng năm
-1.7524748	<s> tịnh năm
-1.7162462	ăn tịnh năm
-1.7162462	bắt tịnh năm
-1.7524748	<s> bộ năm
-1.7162462	ăn bộ năm
-1.7162462	bắt bộ năm
-1.7168157	<s> xe năm
-1.716262	ăn xe năm
-1.716262	bắt xe năm
-1.7200105	<s> mã năm
-1.7162462	ăn mã năm
-1.7162462	bắt mã năm
-1.7168157	<s> pháo năm
-1.716262	ăn pháo năm
-1.716262	bắt pháo năm
-1.9922998	<s> tốt năm
-2.0172539	ăn tốt năm
-2.0172539	bắt tốt năm
-1.0089631	sau giữa năm
-1.0089631	trên giữa năm
-1.0089631	trước giữa năm
-1.0089631	dưới giữa năm
-1.0089796	tốt giữa năm
-1.0089796	binh giữa năm
-1.0089796	chốt giữa năm
-1.9922998	<s> binh năm
-2.0172539	ăn binh năm
-2.0172539	bắt binh năm
-1.9922998	<s> chốt năm
-2.0172539	ăn chốt năm
-2.0172539	bắt chốt năm
-0.59618866	<s> soái năm
-1.1287252	bốn tiến năm
-0.7008983	sĩ tiến năm
-1.0299715	phải tiến năm
-1.0299715	sau tiến năm
-1.0299715	trên tiến năm
-1.1287252	sáu tiến năm
-1.4116255	năm tiến năm
-1.0299715	trước tiến năm
-1.0299715	dưới tiến năm
-1.0299715	trái tiến năm
-1.041717	tượng tiến năm
-1.3521882	chín tiến năm
-1.3617337	tám tiến năm
-1.3521882	một tiến năm
-0.92082065	ba tiến năm
-1.3617337	hai tiến năm
-0.92082065	bảy tiến năm
-1.041717	tịnh tiến năm
-1.041717	bộ tiến năm
-0.9551009	xe tiến năm
-1.1142677	mã tiến năm
-0.9551009	pháo tiến năm
-1.1287252	bốn tấn năm
-0.7008983	sĩ tấn năm
-1.0299715	phải tấn năm
-1.0299715	sau tấn năm
-1.0299715	trên tấn năm
-1.1287252	sáu tấn năm
-1.4116255	năm tấn năm
-1.0299715	trước tấn năm
-1.0299715	dưới tấn năm
-1.0299715	trái tấn năm
-1.041717	tượng tấn năm
-1.3521882	chín tấn năm
-1.3617337	tám tấn năm
-1.3521882	một tấn năm
-0.92082065	ba tấn năm
-1.3617337	hai tấn năm
-0.92082065	bảy tấn năm
-1.041717	tịnh tấn năm
-1.041717	bộ tấn năm
-0.9551009	xe tấn năm
-1.1142677	mã tấn năm
-0.9551009	pháo tấn năm
-0.47927922	tướng bình năm
-0.5290465	bốn bình năm
-0.9542312	phải bình năm
-0.9542312	sau bình năm
-0.9542312	trên bình năm
-0.5290465	sáu bình năm
-0.9542312	trước bình năm
-0.9542312	dưới bình năm
-0.9542312	trái bình năm
-1.0414238	chín bình năm
-1.1461592	tám bình năm
-1.0414238	một bình năm
-1.1461592	ba bình năm
-1.1461592	hai bình năm
-1.1461592	bảy bình năm
-0.95418584	xe bình năm
-0.95418584	pháo bình năm
-0.95418584	tốt bình năm
-0.9542398	giữa bình năm
-0.95418584	binh bình năm
-0.95418584	chốt bình năm
-0.47927922	soái bình năm
-1.0191058	bốn thoái năm
-0.70078623	sĩ thoái năm
-0.9937623	phải thoái năm
-0.9937623	sau thoái năm
-0.9937623	trên thoái năm
-1.0191058	sáu thoái năm
-1.2966442	năm thoái năm
-0.9937623	trước thoái năm
-0.9937623	dưới thoái năm
-0.9937623	trái thoái năm
-1.0414715	tượng thoái năm
-1.2174919	chín thoái năm
-1.2304568	tám thoái năm
-1.2174919	một thoái năm
-0.80163497	ba thoái năm
-1.2304568	hai thoái năm
-0.80163497	bảy thoái năm
-1.0414715	tịnh thoái năm
-1.0414715	bộ thoái năm
-0.95489967	xe thoái năm
-1.1140221	mã thoái năm
-0.95489967	pháo thoái năm
-1.0191058	bốn lùi năm
-0.70078623	sĩ lùi năm
-0.9937623	phải lùi năm
-0.9937623	sau lùi năm
-0.9937623	trên lùi năm
-1.0191058	sáu lùi năm
-1.2966442	năm lùi năm
-0.9937623	trước lùi năm
-0.9937623	dưới lùi năm
-0.9937623	trái lùi năm
-1.0414715	tượng lùi năm
-1.2174919	chín lùi năm
-1.2304568	tám lùi năm
-1.2174919	một lùi năm
-0.80163497	ba lùi năm
-1.2304568	hai lùi năm
-0.80163497	bảy lùi năm
-1.0414715	tịnh lùi năm
-1.0414715	bộ lùi năm
-0.95489967	xe lùi năm
-1.1140221	mã lùi năm
-0.95489967	pháo lùi năm
-1.301041	bốn chiếu năm
-1.3017462	sĩ chiếu năm
-1.3011016	phải chiếu năm
-1.3011016	sau chiếu năm
-1.3011016	trên chiếu năm
-1.301041	sáu chiếu năm
-1.301041	năm chiếu năm
-1.3011016	trước chiếu năm
-1.3011016	dưới chiếu năm
-1.3011016	trái chiếu năm
-1.3017462	tượng chiếu năm
-1.301042	chín chiếu năm
-1.301042	tám chiếu năm
-1.301042	một chiếu năm
-1.301042	ba chiếu năm
-1.301042	hai chiếu năm
-1.301042	bảy chiếu năm
-1.3017462	tịnh chiếu năm
-1.3017462	bộ chiếu năm
-1.3017462	xe chiếu năm
-1.3017462	mã chiếu năm
-1.3017462	pháo chiếu năm
-1.3017462	tốt chiếu năm
-1.3010641	giữa chiếu năm
-1.3017462	binh chiếu năm
-1.3017462	chốt chiếu năm
-0.77199584	<s> sĩ trước
-0.740489	ăn sĩ trước
-0.740489	bắt sĩ trước
-0.73248094	<s> tượng trước
-0.7160466	ăn tượng trước
-0.7160466	bắt tượng trước
-0.73248094	<s> tịnh trước
-0.7160466	ăn tịnh trước
-0.7160466	bắt tịnh trước
-0.73248094	<s> bộ trước
-0.7160466	ăn bộ trước
-0.7160466	bắt bộ trước
-0.7162142	<s> xe trước
-0.7160481	ăn xe trước
-0.7160481	bắt xe trước
-0.72422576	<s> mã trước
-0.7160466	ăn mã trước
-0.7160466	bắt mã trước
-0.7162142	<s> pháo trước
-0.7160481	ăn pháo trước
-0.7160481	bắt pháo trước
-0.72611725	<s> tốt trước
-0.7160244	ăn tốt trước
-0.7160244	bắt tốt trước
-0.72611725	<s> binh trước
-0.7160244	ăn binh trước
-0.7160244	bắt binh trước
-0.72611725	<s> chốt trước
-0.7160244	ăn chốt trước
-0.7160244	bắt chốt trước
-0.77199584	<s> sĩ dưới
-0.740489	ăn sĩ dưới
-0.740489	bắt sĩ dưới
-0.73248094	<s> tượng dưới
-0.7160466	ăn tượng dưới
-0.7160466	bắt tượng dưới
-0.73248094	<s> tịnh dưới
-0.7160466	ăn tịnh dưới
-0.7160466	bắt tịnh dưới
-0.73248094	<s> bộ dưới
-0.7160466	ăn bộ dưới
-0.7160466	bắt bộ dưới
-0.7162142	<s> xe dưới
-0.7160481	ăn xe dưới
-0.7160481	bắt xe dưới
-0.72422576	<s> mã dưới
-0.7160466	ăn mã dưới
-0.7160466	bắt mã dưới
-0.7162142	<s> pháo dưới
-0.7160481	ăn pháo dưới
-0.7160481	bắt pháo dưới
-0.72611725	<s> tốt dưới
-0.7160244	ăn tốt dưới
-0.7160244	bắt tốt dưới
-0.72611725	<s> binh dưới
-0.7160244	ăn binh dưới
-0.7160244	bắt binh dưới
-0.72611725	<s> chốt dưới
-0.7160244	ăn chốt dưới
-0.7160244	bắt chốt dưới
-1.2157366	<s> sĩ trái
-1.3428887	ăn sĩ trái
-1.3428887	bắt sĩ trái
-1.4303176	<s> tượng trái
-1.7163724	ăn tượng trái
-1.7163724	bắt tượng trái
-1.4303176	<s> tịnh trái
-1.7163724	ăn tịnh trái
-1.7163724	bắt tịnh trái
-1.4303176	<s> bộ trái
-1.7163724	ăn bộ trái
-1.7163724	bắt bộ trái
-1.710789	<s> xe trái
-1.7163882	ăn xe trái
-1.7163882	bắt xe trái
-1.5490575	<s> mã trái
-1.7163724	ăn mã trái
-1.7163724	bắt mã trái
-1.710789	<s> pháo trái
-1.7163882	ăn pháo trái
-1.7163882	bắt pháo trái
-1.5919737	<s> tốt trái
-1.7161806	ăn tốt trái
-1.7161806	bắt tốt trái
-1.5919737	<s> binh trái
-1.7161806	ăn binh trái
-1.7161806	bắt binh trái
-1.5919737	<s> chốt trái
-1.7161806	ăn chốt trái
-1.7161806	bắt chốt trái
-0.9526444	bốn tiến trái
-0.70104265	sĩ tiến trái
-1.0969771	phải tiến trái
-1.0969771	sau tiến trái
-1.0969771	trên tiến trái
-0.9526444	sáu tiến trái
-0.99666184	năm tiến trái
-1.0969771	trước tiến trái
-1.0969771	dưới tiến trái
-1.0969771	trái tiến trái
-1.0420334	tượng tiến trái
-0.9542586	chín tiến trái
-0.9638039	tám tiến trái
-0.9542586	một tiến trái
-1.0000161	ba tiến trái
-0.9638039	hai tiến trái
-1.0000161	bảy tiến trái
-1.0420334	tịnh tiến trái
-1.0420334	bộ tiến trái
-0.8132337	mã tiến trái
-0.9526444	bốn tấn trái
-0.70104265	sĩ tấn trái
-1.0969771	phải tấn trái
-1.0969771	sau tấn trái
-1.0969771	trên tấn trái
-0.9526444	sáu tấn trái
-0.99666184	năm tấn trái
-1.0969771	trước tấn trái
-1.0969771	dưới tấn trái
-1.0969771	trái tấn trái
-1.0420334	tượng tấn trái
-0.9542586	chín tấn trái
-0.9638039	tám tấn trái
-0.9542586	một tấn trái
-1.0000161	ba tấn trái
-0.9638039	hai tấn trái
-1.0000161	bảy tấn trái
-1.0420334	tịnh tấn trái
-1.0420334	bộ tấn trái
-0.8132337	mã tấn trái
-0.8430305	bốn thoái trái
-0.70094264	sĩ thoái trái
-1.0607681	phải thoái trái
-1.0607681	sau thoái trái
-1.0607681	trên thoái trái
-0.8430305	sáu thoái trái
-0.88169813	năm thoái trái
-1.0607681	trước thoái trái
-1.0607681	dưới thoái trái
-1.0607681	trái thoái trái
-1.0418142	tượng thoái trái
-0.81956077	chín thoái trái
-0.83252573	tám thoái trái
-0.81956077	một thoái trái
-0.8808304	ba thoái trái
-0.83252573	hai thoái trái
-0.8808304	bảy thoái trái
-1.0418142	tịnh thoái trái
-1.0418142	bộ thoái trái
-0.8131241	mã thoái trái
-0.8430305	bốn lùi trái
-0.70094264	sĩ lùi trái
-1.0607681	phải lùi trái
-1.0607681	sau lùi trái
-1.0607681	trên lùi trái
-0.8430305	sáu lùi trái
-0.88169813	năm lùi trái
-1.0607681	trước lùi trái
-1.0607681	dưới lùi trái
-1.0607681	trái lùi trái
-1.0418142	tượng lùi trái
-0.81956077	chín lùi trái
-0.83252573	tám lùi trái
-0.81956077	một lùi trái
-0.8808304	ba lùi trái
-0.83252573	hai lùi trái
-0.8808304	bảy lùi trái
-1.0418142	tịnh lùi trái
-1.0418142	bộ lùi trái
-0.8131241	mã lùi trái
-0.30172887	tướng sang trái
-0.30633235	bốn sang trái
-0.30106327	phải sang trái
-0.30106327	sau sang trái
-0.30106327	trên sang trái
-0.30633235	sáu sang trái
-0.30633235	năm sang trái
-0.30106327	trước sang trái
-0.30106327	dưới sang trái
-0.30106327	trái sang trái
-0.3064202	chín sang trái
-0.3064202	tám sang trái
-0.3064202	một sang trái
-0.3064202	ba sang trái
-0.3064202	hai sang trái
-0.3064202	bảy sang trái
-0.3011076	xe sang trái
-0.3011076	pháo sang trái
-0.30172887	tốt sang trái
-0.30106327	giữa sang trái
-0.30172887	binh sang trái
-0.30172887	chốt sang trái
-0.30172887	soái sang trái
-1.0948728	tướng ăn tượng
-1.0942388	bốn ăn tượng
-1.0948728	sĩ ăn tượng
-1.0942935	phải ăn tượng
-1.0942935	sau ăn tượng
-1.0942935	trên ăn tượng
-1.0942388	sáu ăn tượng
-1.0942388	năm ăn tượng
-1.0942935	trước ăn tượng
-1.0942935	dưới ăn tượng
-1.0942935	trái ăn tượng
-1.0948728	tượng ăn tượng
-1.0942398	chín ăn tượng
-1.0942398	tám ăn tượng
-1.0942398	một ăn tượng
-1.0942398	ba ăn tượng
-1.0942398	hai ăn tượng
-1.0942398	bảy ăn tượng
-1.0948728	tịnh ăn tượng
-1.0948728	bộ ăn tượng
-1.0948728	xe ăn tượng
-1.0948728	mã ăn tượng
-1.0948728	pháo ăn tượng
-1.0948728	tốt ăn tượng
-1.0942599	giữa ăn tượng
-1.0948728	binh ăn tượng
-1.0948728	chốt ăn tượng
-1.0948728	soái ăn tượng
-1.0948728	tướng bắt tượng
-1.0942388	bốn bắt tượng
-1.0948728	sĩ bắt tượng
-1.0942935	phải bắt tượng
-1.0942935	sau bắt tượng
-1.0942935	trên bắt tượng
-1.0942388	sáu bắt tượng
-1.0942388	năm bắt tượng
-1.0942935	trước bắt tượng
-1.0942935	dưới bắt tượng
-1.0942935	trái bắt tượng
-1.0948728	tượng bắt tượng
-1.0942398	chín bắt tượng
-1.0942398	tám bắt tượng
-1.0942398	một bắt tượng
-1.0942398	ba bắt tượng
-1.0942398	hai bắt tượng
-1.0942398	bảy bắt tượng
-1.0948728	tịnh bắt tượng
-1.0948728	bộ bắt tượng
-1.0948728	xe bắt tượng
-1.0948728	mã bắt tượng
-1.0948728	pháo bắt tượng
-1.0948728	tốt bắt tượng
-1.0942599	giữa bắt tượng
-1.0948728	binh bắt tượng
-1.0948728	chốt bắt tượng
-1.0948728	soái bắt tượng
-1.0000196	chiếu tướng chín
-1.0819838	sang phải chín
-1.0739973	tượng sau chín
-1.0739973	tịnh sau chín
-1.0739973	bộ sau chín
-1.0005584	xe sau chín
-1.0755589	mã sau chín
-1.0005584	pháo sau chín
-1.328482	tốt sau chín
-1.328482	binh sau chín
-1.328482	chốt sau chín
-1.0739973	tượng trên chín
-1.0739973	tịnh trên chín
-1.0739973	bộ trên chín
-1.0005584	xe trên chín
-1.0755589	mã trên chín
-1.0005584	pháo trên chín
-1.328482	tốt trên chín
-1.328482	binh trên chín
-1.328482	chốt trên chín
-1.0739973	tượng trước chín
-1.0739973	tịnh trước chín
-1.0739973	bộ trước chín
-1.0005584	xe trước chín
-1.0755589	mã trước chín
-1.0005584	pháo trước chín
-1.328482	tốt trước chín
-1.328482	binh trước chín
-1.328482	chốt trước chín
-1.0739973	tượng dưới chín
-1.0739973	tịnh dưới chín
-1.0739973	bộ dưới chín
-1.0005584	xe dưới chín
-1.0755589	mã dưới chín
-1.0005584	pháo dưới chín
-1.328482	tốt dưới chín
-1.328482	binh dưới chín
-1.328482	chốt dưới chín
-1.0819838	sang trái chín
-1.8267078	<s> tượng chín
-1.7162714	ăn tượng chín
-1.7162714	bắt tượng chín
-1.8267078	<s> tịnh chín
-1.7162714	ăn tịnh chín
-1.7162714	bắt tịnh chín
-1.8267078	<s> bộ chín
-1.7162714	ăn bộ chín
-1.7162714	bắt bộ chín
-1.7168174	<s> xe chín
-1.7162873	ăn xe chín
-1.7162873	bắt xe chín
-1.8131166	<s> mã chín
-1.7162714	ăn mã chín
-1.7162714	bắt mã chín
-1.7168174	<s> pháo chín
-1.7162873	ăn pháo chín
-1.7162873	bắt pháo chín
-2.0152168	<s> tốt chín
-2.0172806	ăn tốt chín
-2.0172806	bắt tốt chín
-1.0274473	sau giữa chín
-1.0274473	trên giữa chín
-1.0274473	trước giữa chín
-1.0274473	dưới giữa chín
-1.0274655	tốt giữa chín
-1.0274655	binh giữa chín
-1.0274655	chốt giữa chín
-2.0152168	<s> binh chín
-2.0172806	ăn binh chín
-2.0172806	bắt binh chín
-2.0152168	<s> chốt chín
-2.0172806	ăn chốt chín
-2.0172806	bắt chốt chín
-1.429774	bốn tiến chín
-1.0969462	phải tiến chín
-1.0969462	sau tiến chín
-1.0969462	trên tiến chín
-1.429774	sáu tiến chín
-1.4116414	năm tiến chín
-1.0969462	trước tiến chín
-1.0969462	dưới tiến chín
-1.0969462	trái tiến chín
-1.0418634	tượng tiến chín
-1.3522042	chín tiến chín
-1.1856511	tám tiến chín
-1.3522042	một tiến chín
-1.3979617	ba tiến chín
-1.3617495	hai tiến chín
-0.920826	bảy tiến chín
-1.0418634	tịnh tiến chín
-1.0418634	bộ tiến chín
-0.95522076	xe tiến chín
-1.1144141	mã tiến chín
-0.95522076	pháo tiến chín
-1.429774	bốn tấn chín
-1.0969462	phải tấn chín
-1.0969462	sau tấn chín
-1.0969462	trên tấn chín
-1.429774	sáu tấn chín
-1.4116414	năm tấn chín
-1.0969462	trước tấn chín
-1.0969462	dưới tấn chín
-1.0969462	trái tấn chín
-1.0418634	tượng tấn chín
-1.3522042	chín tấn chín
-1.1856511	tám tấn chín
-1.3522042	một tấn chín
-1.3979617	ba tấn chín
-1.3617495	hai tấn chín
-0.920826	bảy tấn chín
-1.0418634	tịnh tấn chín
-1.0418634	bộ tấn chín
-0.95522076	xe tấn chín
-1.1144141	mã tấn chín
-0.95522076	pháo tấn chín
-1.152348	bốn bình chín
-0.9542956	phải bình chín
-0.9542956	sau bình chín
-0.9542956	trên bình chín
-1.152348	sáu bình chín
-1.1584222	năm bình chín
-0.9542956	trước bình chín
-0.9542956	dưới bình chín
-0.9542956	trái bình chín
-0.544083	tám bình chín
-1.0414524	một bình chín
-1.1461878	ba bình chín
-1.1461878	hai bình chín
-1.1461878	bảy bình chín
-0.9545079	xe bình chín
-0.9545079	pháo bình chín
-0.9545079	tốt bình chín
-0.95425516	giữa bình chín
-0.9545079	binh bình chín
-0.9545079	chốt bình chín
-1.3201425	bốn thoái chín
-1.0607374	phải thoái chín
-1.0607374	sau thoái chín
-1.0607374	trên thoái chín
-1.3201425	sáu thoái chín
-1.2966615	năm thoái chín
-1.0607374	trước thoái chín
-1.0607374	dưới thoái chín
-1.0607374	trái thoái chín
-1.04163	tượng thoái chín
-1.2175077	chín thoái chín
-1.0543735	tám thoái chín
-1.2175077	một thoái chín
-1.2787774	ba thoái chín
-1.2304727	hai thoái chín
-0.8016403	bảy thoái chín
-1.04163	tịnh thoái chín
-1.04163	bộ thoái chín
-0.95502955	xe thoái chín
-1.1141807	mã thoái chín
-0.95502955	pháo thoái chín
-1.3201425	bốn lùi chín
-1.0607374	phải lùi chín
-1.0607374	sau lùi chín
-1.0607374	trên lùi chín
-1.3201425	sáu lùi chín
-1.2966615	năm lùi chín
-1.0607374	trước lùi chín
-1.0607374	dưới lùi chín
-1.0607374	trái lùi chín
-1.04163	tượng lùi chín
-1.2175077	chín lùi chín
-1.0543735	tám lùi chín
-1.2175077	một lùi chín
-1.2787774	ba lùi chín
-1.2304727	hai lùi chín
-0.8016403	bảy lùi chín
-1.04163	tịnh lùi chín
-1.04163	bộ lùi chín
-0.95502955	xe lùi chín
-1.1141807	mã lùi chín
-0.95502955	pháo lùi chín
-1.3010417	bốn chiếu chín
-1.30179	sĩ chiếu chín
-1.301106	phải chiếu chín
-1.301106	sau chiếu chín
-1.301106	trên chiếu chín
-1.3010417	sáu chiếu chín
-1.3010417	năm chiếu chín
-1.301106	trước chiếu chín
-1.301106	dưới chiếu chín
-1.301106	trái chiếu chín
-1.30179	tượng chiếu chín
-1.3010427	chín chiếu chín
-1.3010427	tám chiếu chín
-1.3010427	một chiếu chín
-1.3010427	ba chiếu chín
-1.3010427	hai chiếu chín
-1.3010427	bảy chiếu chín
-1.30179	tịnh chiếu chín
-1.30179	bộ chiếu chín
-1.30179	xe chiếu chín
-1.30179	mã chiếu chín
-1.30179	pháo chiếu chín
-1.30179	tốt chiếu chín
-1.3010662	giữa chiếu chín
-1.30179	binh chiếu chín
-1.30179	chốt chiếu chín
-1.0000196	chiếu tướng tám
-1.0819838	sang phải tám
-1.0739973	tượng sau tám
-1.0739973	tịnh sau tám
-1.0739973	bộ sau tám
-1.0005584	xe sau tám
-1.0341651	mã sau tám
-1.0005584	pháo sau tám
-1.309998	tốt sau tám
-1.309998	binh sau tám
-1.309998	chốt sau tám
-1.0739973	tượng trên tám
-1.0739973	tịnh trên tám
-1.0739973	bộ trên tám
-1.0005584	xe trên tám
-1.0341651	mã trên tám
-1.0005584	pháo trên tám
-1.309998	tốt trên tám
-1.309998	binh trên tám
-1.309998	chốt trên tám
-1.0739973	tượng trước tám
-1.0739973	tịnh trước tám
-1.0739973	bộ trước tám
-1.0005584	xe trước tám
-1.0341651	mã trước tám
-1.0005584	pháo trước tám
-1.309998	tốt trước tám
-1.309998	binh trước tám
-1.309998	chốt trước tám
-1.0739973	tượng dưới tám
-1.0739973	tịnh dưới tám
-1.0739973	bộ dưới tám
-1.0005584	xe dưới tám
-1.0341651	mã dưới tám
-1.0005584	pháo dưới tám
-1.309998	tốt dưới tám
-1.309998	binh dưới tám
-1.309998	chốt dưới tám
-1.0819838	sang trái tám
-1.8267078	<s> tượng tám
-1.7162714	ăn tượng tám
-1.7162714	bắt tượng tám
-1.8267078	<s> tịnh tám
-1.7162714	ăn tịnh tám
-1.7162714	bắt tịnh tám
-1.8267078	<s> bộ tám
-1.7162714	ăn bộ tám
-1.7162714	bắt bộ tám
-1.7168174	<s> xe tám
-1.7162873	ăn xe tám
-1.7162873	bắt xe tám
-1.7640747	<s> mã tám
-1.7162714	ăn mã tám
-1.7162714	bắt mã tám
-1.7168174	<s> pháo tám
-1.7162873	ăn pháo tám
-1.7162873	bắt pháo tám
-1.9923059	<s> tốt tám
-2.0172806	ăn tốt tám
-2.0172806	bắt tốt tám
-1.0089636	sau giữa tám
-1.0089636	trên giữa tám
-1.0089636	trước giữa tám
-1.0089636	dưới giữa tám
-1.008981	tốt giữa tám
-1.008981	binh giữa tám
-1.008981	chốt giữa tám
-1.9923059	<s> binh tám
-2.0172806	ăn binh tám
-2.0172806	bắt binh tám
-1.9923059	<s> chốt tám
-2.0172806	ăn chốt tám
-2.0172806	bắt chốt tám
-1.429774	bốn tiến tám
-1.0969462	phải tiến tám
-1.0969462	sau tiến tám
-1.0969462	trên tiến tám
-0.95263827	sáu tiến tám
-1.4116414	năm tiến tám
-1.0969462	trước tiến tám
-1.0969462	dưới tiến tám
-1.0969462	trái tiến tám
-1.0418634	tượng tiến tám
-1.1761057	chín tiến tám
-1.3617495	tám tiến tám
-1.3522042	một tiến tám
-1.3979617	ba tiến tám
-1.3617495	hai tiến tám
-1.2218633	bảy tiến tám
-1.0418634	tịnh tiến tám
-1.0418634	bộ tiến tám
-0.95522076	xe tiến tám
-1.1144141	mã tiến tám
-0.95522076	pháo tiến tám
-1.429774	bốn tấn tám
-1.0969462	phải tấn tám
-1.0969462	sau tấn tám
-1.0969462	trên tấn tám
-0.95263827	sáu tấn tám
-1.4116414	năm tấn tám
-1.0969462	trước tấn tám
-1.0969462	dưới tấn tám
-1.0969462	trái tấn tám
-1.0418634	tượng tấn tám
-1.1761057	chín tấn tám
-1.3617495	tám tấn tám
-1.3522042	một tấn tám
-1.3979617	ba tấn tám
-1.3617495	hai tấn tám
-1.2218633	bảy tấn tám
-1.0418634	tịnh tấn tám
-1.0418634	bộ tấn tám
-0.95522076	xe tấn tám
-1.1144141	mã tấn tám
-0.95522076	pháo tấn tám
-1.152348	bốn bình tám
-0.9542956	phải bình tám
-0.9542956	sau bình tám
-0.9542956	trên bình tám
-1.152348	sáu bình tám
-1.1584222	năm bình tám
-0.9542956	trước bình tám
-0.9542956	dưới bình tám
-0.9542956	trái bình tám
-0.43934762	chín bình tám
-1.0414524	một bình tám
-1.1461878	ba bình tám
-1.1461878	hai bình tám
-0.544083	bảy bình tám
-0.9545079	xe bình tám
-0.9545079	pháo bình tám
-0.9545079	tốt bình tám
-0.95425516	giữa bình tám
-0.9545079	binh bình tám
-0.9545079	chốt bình tám
-1.3201425	bốn thoái tám
-1.0607374	phải thoái tám
-1.0607374	sau thoái tám
-1.0607374	trên thoái tám
-0.8430238	sáu thoái tám
-1.2966615	năm thoái tám
-1.0607374	trước thoái tám
-1.0607374	dưới thoái tám
-1.0607374	trái thoái tám
-1.04163	tượng thoái tám
-1.0414085	chín thoái tám
-1.2304727	tám thoái tám
-1.2175077	một thoái tám
-1.2787774	ba thoái tám
-1.2304727	hai thoái tám
-1.1026782	bảy thoái tám
-1.04163	tịnh thoái tám
-1.04163	bộ thoái tám
-0.95502955	xe thoái tám
-1.1141807	mã thoái tám
-0.95502955	pháo thoái tám
-1.3201425	bốn lùi tám
-1.0607374	phải lùi tám
-1.0607374	sau lùi tám
-1.0607374	trên lùi tám
-0.8430238	sáu lùi tám
-1.2966615	năm lùi tám
-1.0607374	trước lùi tám
-1.0607374	dưới lùi tám
-1.0607374	trái lùi tám
-1.04163	tượng lùi tám
-1.0414085	chín lùi tám
-1.2304727	tám lùi tám
-1.2175077	một lùi tám
-1.2787774	ba lùi tám
-1.2304727	hai lùi tám
-1.1026782	bảy lùi tám
-1.04163	tịnh lùi tám
-1.04163	bộ lùi tám
-0.95502955	xe lùi tám
-1.1141807	mã lùi tám
-0.95502955	pháo lùi tám
-1.3010417	bốn chiếu tám
-1.30179	sĩ chiếu tám
-1.301106	phải chiếu tám
-1.301106	sau chiếu tám
-1.301106	trên chiếu tám
-1.3010417	sáu chiếu tám
-1.3010417	năm chiếu tám
-1.301106	trước chiếu tám
-1.301106	dưới chiếu tám
-1.301106	trái chiếu tám
-1.30179	tượng chiếu tám
-1.3010427	chín chiếu tám
-1.3010427	tám chiếu tám
-1.3010427	một chiếu tám
-1.3010427	ba chiếu tám
-1.3010427	hai chiếu tám
-1.3010427	bảy chiếu tám
-1.30179	tịnh chiếu tám
-1.30179	bộ chiếu tám
-1.30179	xe chiếu tám
-1.30179	mã chiếu tám
-1.30179	pháo chiếu tám
-1.30179	tốt chiếu tám
-1.3010662	giữa chiếu tám
-1.30179	binh chiếu tám
-1.30179	chốt chiếu tám
-1.0000196	chiếu tướng một
-0.72809666	tiến phải một
-0.72809666	tấn phải một
-0.72809666	thoái phải một
-0.72809666	lùi phải một
-1.0819752	sang phải một
-1.0739973	tượng sau một
-1.0739973	tịnh sau một
-1.0739973	bộ sau một
-1.0005584	xe sau một
-1.0755589	mã sau một
-1.0005584	pháo sau một
-1.328482	tốt sau một
-1.328482	binh sau một
-1.328482	chốt sau một
-1.0739973	tượng trên một
-1.0739973	tịnh trên một
-1.0739973	bộ trên một
-1.0005584	xe trên một
-1.0755589	mã trên một
-1.0005584	pháo trên một
-1.328482	tốt trên một
-1.328482	binh trên một
-1.328482	chốt trên một
-1.0739973	tượng trước một
-1.0739973	tịnh trước một
-1.0739973	bộ trước một
-1.0005584	xe trước một
-1.0755589	mã trước một
-1.0005584	pháo trước một
-1.328482	tốt trước một
-1.328482	binh trước một
-1.328482	chốt trước một
-1.0739973	tượng dưới một
-1.0739973	tịnh dưới một
-1.0739973	bộ dưới một
-1.0005584	xe dưới một
-1.0755589	mã dưới một
-1.0005584	pháo dưới một
-1.328482	tốt dưới một
-1.328482	binh dưới một
-1.328482	chốt dưới một
-0.72809666	tiến trái một
-0.72809666	tấn trái một
-0.72809666	thoái trái một
-0.72809666	lùi trái một
-1.0819752	sang trái một
-1.8267078	<s> tượng một
-1.7162714	ăn tượng một
-1.7162714	bắt tượng một
-1.8267078	<s> tịnh một
-1.7162714	ăn tịnh một
-1.7162714	bắt tịnh một
-1.8267078	<s> bộ một
-1.7162714	ăn bộ một
-1.7162714	bắt bộ một
-1.7168174	<s> xe một
-1.7162873	ăn xe một
-1.7162873	bắt xe một
-1.8131166	<s> mã một
-1.7162714	ăn mã một
-1.7162714	bắt mã một
-1.7168174	<s> pháo một
-1.7162873	ăn pháo một
-1.7162873	bắt pháo một
-2.0152168	<s> tốt một
-2.0172806	ăn tốt một
-2.0172806	bắt tốt một
-1.0274473	sau giữa một
-1.0274473	trên giữa một
-1.0274473	trước giữa một
-1.0274473	dưới giữa một
-1.0274655	tốt giữa một
-1.0274655	binh giữa một
-1.0274655	chốt giữa một
-2.0152168	<s> binh một
-2.0172806	ăn binh một
-2.0172806	bắt binh một
-2.0152168	<s> chốt một
-2.0172806	ăn chốt một
-2.0172806	bắt chốt một
-0.30363744	tướng tiến một
-0.8064866	bốn tiến một
-0.9207423	phải tiến một
-0.9207423	sau tiến một
-0.9207423	trên tiến một
-0.8064866	sáu tiến một
-0.78835404	năm tiến một
-0.9207423	trước tiến một
-0.9207423	dưới tiến một
-0.9207423	trái tiến một
-1.0410333	tượng tiến một
-0.7501053	chín tiến một
-0.75965065	tám tiến một
-0.7501053	một tiến một
-0.61977726	ba tiến một
-0.7085	hai tiến một
-0.7958628	bảy tiến một
-1.0410333	tịnh tiến một
-1.0410333	bộ tiến một
-0.9545406	xe tiến một
-1.1135839	mã tiến một
-0.9545406	pháo tiến một
-0.30363744	tốt tiến một
-0.3011538	giữa tiến một
-0.30363744	binh tiến một
-0.30363744	chốt tiến một
-0.30363744	soái tiến một
-0.30363744	tướng tấn một
-0.8064866	bốn tấn một
-0.9207423	phải tấn một
-0.9207423	sau tấn một
-0.9207423	trên tấn một
-0.8064866	sáu tấn một
-0.78835404	năm tấn một
-0.9207423	trước tấn một
-0.9207423	dưới tấn một
-0.9207423	trái tấn một
-1.0410333	tượng tấn một
-0.7501053	chín tấn một
-0.75965065	tám tấn một
-0.7501053	một tấn một
-0.61977726	ba tấn một
-0.7085	hai tấn một
-0.7958628	bảy tấn một
-1.0410333	tịnh tấn một
-1.0410333	bộ tấn một
-0.9545406	xe tấn một
-1.1135839	mã tấn một
-0.9545406	pháo tấn một
-0.30363744	tốt tấn một
-0.3011538	giữa tấn một
-0.30363744	binh tấn một
-0.30363744	chốt tấn một
-0.30363744	soái tấn một
-1.152348	bốn bình một
-0.9542956	phải bình một
-0.9542956	sau bình một
-0.9542956	trên bình một
-1.152348	sáu bình một
-1.1584222	năm bình một
-0.9542956	trước bình một
-0.9542956	dưới bình một
-0.9542956	trái bình một
-1.0414524	chín bình một
-1.1461878	tám bình một
-1.1461878	ba bình một
-0.544083	hai bình một
-1.1461878	bảy bình một
-0.9545079	xe bình một
-0.9545079	pháo bình một
-0.9545079	tốt bình một
-0.95425516	giữa bình một
-0.9545079	binh bình một
-0.9545079	chốt bình một
-0.30369174	tướng thoái một
-1.2409347	bốn thoái một
-1.0606874	phải thoái một
-1.0606874	sau thoái một
-1.0606874	trên thoái một
-1.2409347	sáu thoái một
-1.2174536	năm thoái một
-1.0606874	trước thoái một
-1.0606874	dưới thoái một
-1.0606874	trái thoái một
-1.0413301	tượng thoái một
-1.2174777	chín thoái một
-1.2304426	tám thoái một
-1.2174777	một thoái một
-0.80163026	ba thoái một
-1.0543535	hai thoái một
-1.2787473	bảy thoái một
-1.0413301	tịnh thoái một
-1.0413301	bộ thoái một
-0.95478386	xe thoái một
-1.1138809	mã thoái một
-0.95478386	pháo thoái một
-0.30369174	soái thoái một
-0.30369174	tướng lùi một
-1.2409347	bốn lùi một
-1.0606874	phải lùi một
-1.0606874	sau lùi một
-1.0606874	trên lùi một
-1.2409347	sáu lùi một
-1.2174536	năm lùi một
-1.0606874	trước lùi một
-1.0606874	dưới lùi một
-1.0606874	trái lùi một
-1.0413301	tượng lùi một
-1.2174777	chín lùi một
-1.2304426	tám lùi một
-1.2174777	một lùi một
-0.80163026	ba lùi một
-1.0543535	hai lùi một
-1.2787473	bảy lùi một
-1.0413301	tịnh lùi một
-1.0413301	bộ lùi một
-0.95478386	xe lùi một
-1.1138809	mã lùi một
-0.95478386	pháo lùi một
-0.30369174	soái lùi một
-1.3010417	bốn chiếu một
-1.30179	sĩ chiếu một
-1.301106	phải chiếu một
-1.301106	sau chiếu một
-1.301106	trên chiếu một
-1.3010417	sáu chiếu một
-1.3010417	năm chiếu một
-1.301106	trước chiếu một
-1.301106	dưới chiếu một
-1.301106	trái chiếu một
-1.30179	tượng chiếu một
-1.3010427	chín chiếu một
-1.3010427	tám chiếu một
-1.3010427	một chiếu một
-1.3010427	ba chiếu một
-1.3010427	hai chiếu một
-1.3010427	bảy chiếu một
-1.30179	tịnh chiếu một
-1.30179	bộ chiếu một
-1.30179	xe chiếu một
-1.30179	mã chiếu một
-1.30179	pháo chiếu một
-1.30179	tốt chiếu một
-1.3010662	giữa chiếu một
-1.30179	binh chiếu một
-1.30179	chốt chiếu một
-1.0000196	chiếu tướng ba
-1.0819838	sang phải ba
-1.0160031	tượng sau ba
-1.0160031	tịnh sau ba
-1.0160031	bộ sau ba
-1.0005584	xe sau ba
-0.99637574	mã sau ba
-1.0005584	pháo sau ba
-1.309998	tốt sau ba
-1.309998	binh sau ba
-1.309998	chốt sau ba
-1.0160031	tượng trên ba
-1.0160031	tịnh trên ba
-1.0160031	bộ trên ba
-1.0005584	xe trên ba
-0.99637574	mã trên ba
-1.0005584	pháo trên ba
-1.309998	tốt trên ba
-1.309998	binh trên ba
-1.309998	chốt trên ba
-1.0160031	tượng trước ba
-1.0160031	tịnh trước ba
-1.0160031	bộ trước ba
-1.0005584	xe trước ba
-0.99637574	mã trước ba
-1.0005584	pháo trước ba
-1.309998	tốt trước ba
-1.309998	binh trước ba
-1.309998	chốt trước ba
-1.0160031	tượng dưới ba
-1.0160031	tịnh dưới ba
-1.0160031	bộ dưới ba
-1.0005584	xe dưới ba
-0.99637574	mã dưới ba
-1.0005584	pháo dưới ba
-1.309998	tốt dưới ba
-1.309998	binh dưới ba
-1.309998	chốt dưới ba
-1.0819838	sang trái ba
-1.7524793	<s> tượng ba
-1.7162714	ăn tượng ba
-1.7162714	bắt tượng ba
-1.7524793	<s> tịnh ba
-1.7162714	ăn tịnh ba
-1.7162714	bắt tịnh ba
-1.7524793	<s> bộ ba
-1.7162714	ăn bộ ba
-1.7162714	bắt bộ ba
-1.7168174	<s> xe ba
-1.7162873	ăn xe ba
-1.7162873	bắt xe ba
-1.7200133	<s> mã ba
-1.7162714	ăn mã ba
-1.7162714	bắt mã ba
-1.7168174	<s> pháo ba
-1.7162873	ăn pháo ba
-1.7162873	bắt pháo ba
-1.9923059	<s> tốt ba
-2.0172806	ăn tốt ba
-2.0172806	bắt tốt ba
-1.0089636	sau giữa ba
-1.0089636	trên giữa ba
-1.0089636	trước giữa ba
-1.0089636	dưới giữa ba
-1.008981	tốt giữa ba
-1.008981	binh giữa ba
-1.008981	chốt giữa ba
-1.9923059	<s> binh ba
-2.0172806	ăn binh ba
-2.0172806	bắt binh ba
-1.9923059	<s> chốt ba
-2.0172806	ăn chốt ba
-2.0172806	bắt chốt ba
-1.2536755	bốn tiến ba
-1.0969462	phải tiến ba
-1.0969462	sau tiến ba
-1.0969462	trên tiến ba
-1.429774	sáu tiến ba
-0.9345057	năm tiến ba
-1.0969462	trước tiến ba
-1.0969462	dưới tiến ba
-1.0969462	trái tiến ba
-1.0418634	tượng tiến ba
-1.3522042	chín tiến ba
-1.3617495	tám tiến ba
-0.8750685	một tiến ba
-1.3979617	ba tiến ba
-1.1856511	hai tiến ba
-1.3979617	bảy tiến ba
-1.0418634	tịnh tiến ba
-1.0418634	bộ tiến ba
-0.95522076	xe tiến ba
-1.1144141	mã tiến ba
-0.95522076	pháo tiến ba
-1.2536755	bốn tấn ba
-1.0969462	phải tấn ba
-1.0969462	sau tấn ba
-1.0969462	trên tấn ba
-1.429774	sáu tấn ba
-0.9345057	năm tấn ba
-1.0969462	trước tấn ba
-1.0969462	dưới tấn ba
-1.0969462	trái tấn ba
-1.0418634	tượng tấn ba
-1.3522042	chín tấn ba
-1.3617495	tám tấn ba
-0.8750685	một tấn ba
-1.3979617	ba tấn ba
-1.1856511	hai tấn ba
-1.3979617	bảy tấn ba
-1.0418634	tịnh tấn ba
-1.0418634	bộ tấn ba
-0.95522076	xe tấn ba
-1.1144141	mã tấn ba
-0.95522076	pháo tấn ba
-0.5502433	bốn bình ba
-0.9542956	phải bình ba
-0.9542956	sau bình ba
-0.9542956	trên bình ba
-1.152348	sáu bình ba
-1.1584222	năm bình ba
-0.9542956	trước bình ba
-0.9542956	dưới bình ba
-0.9542956	trái bình ba
-1.0414524	chín bình ba
-1.1461878	tám bình ba
-1.0414524	một bình ba
-0.544083	hai bình ba
-1.1461878	bảy bình ba
-0.9545079	xe bình ba
-0.9545079	pháo bình ba
-0.9545079	tốt bình ba
-0.95425516	giữa bình ba
-0.9545079	binh bình ba
-0.9545079	chốt bình ba
-1.1440525	bốn thoái ba
-1.0607374	phải thoái ba
-1.0607374	sau thoái ba
-1.0607374	trên thoái ba
-1.3201425	sáu thoái ba
-0.8195427	năm thoái ba
-1.0607374	trước thoái ba
-1.0607374	dưới thoái ba
-1.0607374	trái thoái ba
-1.04163	tượng thoái ba
-1.2175077	chín thoái ba
-1.2304727	tám thoái ba
-0.74037063	một thoái ba
-1.2787774	ba thoái ba
-1.0543735	hai thoái ba
-1.2787774	bảy thoái ba
-1.04163	tịnh thoái ba
-1.04163	bộ thoái ba
-0.95502955	xe thoái ba
-1.1141807	mã thoái ba
-0.95502955	pháo thoái ba
-1.1440525	bốn lùi ba
-1.0607374	phải lùi ba
-1.0607374	sau lùi ba
-1.0607374	trên lùi ba
-1.3201425	sáu lùi ba
-0.8195427	năm lùi ba
-1.0607374	trước lùi ba
-1.0607374	dưới lùi ba
-1.0607374	trái lùi ba
-1.04163	tượng lùi ba
-1.2175077	chín lùi ba
-1.2304727	tám lùi ba
-0.74037063	một lùi ba
-1.2787774	ba lùi ba
-1.0543735	hai lùi ba
-1.2787774	bảy lùi ba
-1.04163	tịnh lùi ba
-1.04163	bộ lùi ba
-0.95502955	xe lùi ba
-1.1141807	mã lùi ba
-0.95502955	pháo lùi ba
-1.3010417	bốn chiếu ba
-1.30179	sĩ chiếu ba
-1.301106	phải chiếu ba
-1.301106	sau chiếu ba
-1.301106	trên chiếu ba
-1.3010417	sáu chiếu ba
-1.3010417	năm chiếu ba
-1.301106	trước chiếu ba
-1.301106	dưới chiếu ba
-1.301106	trái chiếu ba
-1.30179	tượng chiếu ba
-1.3010427	chín chiếu ba
-1.3010427	tám chiếu ba
-1.3010427	một chiếu ba
-1.3010427	ba chiếu ba
-1.3010427	hai chiếu ba
-1.3010427	bảy chiếu ba
-1.30179	tịnh chiếu ba
-1.30179	bộ chiếu ba
-1.30179	xe chiếu ba
-1.30179	mã chiếu ba
-1.30179	pháo chiếu ba
-1.30179	tốt chiếu ba
-1.3010662	giữa chiếu ba
-1.30179	binh chiếu ba
-1.30179	chốt chiếu ba
-1.0000196	chiếu tướng hai
-0.72809666	tiến phải hai
-0.72809666	tấn phải hai
-0.72809666	thoái phải hai
-0.72809666	lùi phải hai
-1.0819752	sang phải hai
-1.0739973	tượng sau hai
-1.0739973	tịnh sau hai
-1.0739973	bộ sau hai
-1.0005584	xe sau hai
-1.0341651	mã sau hai
-1.0005584	pháo sau hai
-1.309998	tốt sau hai
-1.309998	binh sau hai
-1.309998	chốt sau hai
-1.0739973	tượng trên hai
-1.0739973	tịnh trên hai
-1.0739973	bộ trên hai
-1.0005584	xe trên hai
-1.0341651	mã trên hai
-1.0005584	pháo trên hai
-1.309998	tốt trên hai
-1.309998	binh trên hai
-1.309998	chốt trên hai
-1.0739973	tượng trước hai
-1.0739973	tịnh trước hai
-1.0739973	bộ trước hai
-1.0005584	xe trước hai
-1.0341651	mã trước hai
-1.0005584	pháo trước hai
-1.309998	tốt trước hai
-1.309998	binh trước hai
-1.309998	chốt trước hai
-1.0739973	tượng dưới hai
-1.0739973	tịnh dưới hai
-1.0739973	bộ dưới hai
-1.0005584	xe dưới hai
-1.0341651	mã dưới hai
-1.0005584	pháo dưới hai
-1.309998	tốt dưới hai
-1.309998	binh dưới hai
-1.309998	chốt dưới hai
-0.72809666	tiến trái hai
-0.72809666	tấn trái hai
-0.72809666	thoái trái hai
-0.72809666	lùi trái hai
-1.0819752	sang trái hai
-1.8267078	<s> tượng hai
-1.7162714	ăn tượng hai
-1.7162714	bắt tượng hai
-1.8267078	<s> tịnh hai
-1.7162714	ăn tịnh hai
-1.7162714	bắt tịnh hai
-1.8267078	<s> bộ hai
-1.7162714	ăn bộ hai
-1.7162714	bắt bộ hai
-1.7168174	<s> xe hai
-1.7162873	ăn xe hai
-1.7162873	bắt xe hai
-1.7640747	<s> mã hai
-1.7162714	ăn mã hai
-1.7162714	bắt mã hai
-1.7168174	<s> pháo hai
-1.7162873	ăn pháo hai
-1.7162873	bắt pháo hai
-1.9923059	<s> tốt hai
-2.0172806	ăn tốt hai
-2.0172806	bắt tốt hai
-1.0089636	sau giữa hai
-1.0089636	trên giữa hai
-1.0089636	trước giữa hai
-1.0089636	dưới giữa hai
-1.008981	tốt giữa hai
-1.008981	binh giữa hai
-1.008981	chốt giữa hai
-1.9923059	<s> binh hai
-2.0172806	ăn binh hai
-2.0172806	bắt binh hai
-1.9923059	<s> chốt hai
-2.0172806	ăn chốt hai
-2.0172806	bắt chốt hai
-0.95263827	bốn tiến hai
-1.0969462	phải tiến hai
-1.0969462	sau tiến hai
-1.0969462	trên tiến hai
-1.429774	sáu tiến hai
-1.4116414	năm tiến hai
-1.0969462	trước tiến hai
-1.0969462	dưới tiến hai
-1.0969462	trái tiến hai
-1.0418634	tượng tiến hai
-1.3522042	chín tiến hai
-1.3617495	tám tiến hai
-1.1761057	một tiến hai
-1.2218633	ba tiến hai
-1.3617495	hai tiến hai
-1.3979617	bảy tiến hai
-1.0418634	tịnh tiến hai
-1.0418634	bộ tiến hai
-0.95522076	xe tiến hai
-1.1144141	mã tiến hai
-0.95522076	pháo tiến hai
-0.95263827	bốn tấn hai
-1.0969462	phải tấn hai
-1.0969462	sau tấn hai
-1.0969462	trên tấn hai
-1.429774	sáu tấn hai
-1.4116414	năm tấn hai
-1.0969462	trước tấn hai
-1.0969462	dưới tấn hai
-1.0969462	trái tấn hai
-1.0418634	tượng tấn hai
-1.3522042	chín tấn hai
-1.3617495	tám tấn hai
-1.1761057	một tấn hai
-1.2218633	ba tấn hai
-1.3617495	hai tấn hai
-1.3979617	bảy tấn hai
-1.0418634	tịnh tấn hai
-1.0418634	bộ tấn hai
-0.95522076	xe tấn hai
-1.1144141	mã tấn hai
-0.95522076	pháo tấn hai
-1.152348	bốn bình hai
-0.9542956	phải bình hai
-0.9542956	sau bình hai
-0.9542956	trên bình hai
-1.152348	sáu bình hai
-1.1584222	năm bình hai
-0.9542956	trước bình hai
-0.9542956	dưới bình hai
-0.9542956	trái bình hai
-1.0414524	chín bình hai
-1.1461878	tám bình hai
-0.43934762	một bình hai
-0.544083	ba bình hai
-1.1461878	bảy bình hai
-0.9545079	xe bình hai
-0.9545079	pháo bình hai
-0.9545079	tốt bình hai
-0.95425516	giữa bình hai
-0.9545079	binh bình hai
-0.9545079	chốt bình hai
-0.8430238	bốn thoái hai
-1.0607374	phải thoái hai
-1.0607374	sau thoái hai
-1.0607374	trên thoái hai
-1.3201425	sáu thoái hai
-1.2966615	năm thoái hai
-1.0607374	trước thoái hai
-1.0607374	dưới thoái hai
-1.0607374	trái thoái hai
-1.04163	tượng thoái hai
-1.2175077	chín thoái hai
-1.2304727	tám thoái hai
-1.0414085	một thoái hai
-1.1026782	ba thoái hai
-1.2304727	hai thoái hai
-1.2787774	bảy thoái hai
-1.04163	tịnh thoái hai
-1.04163	bộ thoái hai
-0.95502955	xe thoái hai
-1.1141807	mã thoái hai
-0.95502955	pháo thoái hai
-0.8430238	bốn lùi hai
-1.0607374	phải lùi hai
-1.0607374	sau lùi hai
-1.0607374	trên lùi hai
-1.3201425	sáu lùi hai
-1.2966615	năm lùi hai
-1.0607374	trước lùi hai
-1.0607374	dưới lùi hai
-1.0607374	trái lùi hai
-1.04163	tượng lùi hai
-1.2175077	chín lùi hai
-1.2304727	tám lùi hai
-1.0414085	một lùi hai
-1.1026782	ba lùi hai
-1.2304727	hai lùi hai
-1.2787774	bảy lùi hai
-1.04163	tịnh lùi hai
-1.04163	bộ lùi hai
-0.95502955	xe lùi hai
-1.1141807	mã lùi hai
-0.95502955	pháo lùi hai
-1.3010417	bốn chiếu hai
-1.30179	sĩ chiếu hai
-1.301106	phải chiếu hai
-1.301106	sau chiếu hai
-1.301106	trên chiếu hai
-1.3010417	sáu chiếu hai
-1.3010417	năm chiếu hai
-1.301106	trước chiếu hai
-1.301106	dưới chiếu hai
-1.301106	trái chiếu hai
-1.30179	tượng chiếu hai
-1.3010427	chín chiếu hai
-1.3010427	tám chiếu hai
-1.3010427	một chiếu hai
-1.3010427	ba chiếu hai
-1.3010427	hai chiếu hai
-1.3010427	bảy chiếu hai
-1.30179	tịnh chiếu hai
-1.30179	bộ chiếu hai
-1.30179	xe chiếu hai
-1.30179	mã chiếu hai
-1.30179	pháo chiếu hai
-1.30179	tốt chiếu hai
-1.3010662	giữa chiếu hai
-1.30179	binh chiếu hai
-1.30179	chốt chiếu hai
-1.0000196	chiếu tướng bảy
-1.0819838	sang phải bảy
-1.0160031	tượng sau bảy
-1.0160031	tịnh sau bảy
-1.0160031	bộ sau bảy
-1.0005584	xe sau bảy
-0.99637574	mã sau bảy
-1.0005584	pháo sau bảy
-1.309998	tốt sau bảy
-1.309998	binh sau bảy
-1.309998	chốt sau bảy
-1.0160031	tượng trên bảy
-1.0160031	tịnh trên bảy
-1.0160031	bộ trên bảy
-1.0005584	xe trên bảy
-0.99637574	mã trên bảy
-1.0005584	pháo trên bảy
-1.309998	tốt trên bảy
-1.309998	binh trên bảy
-1.309998	chốt trên bảy
-1.0160031	tượng trước bảy
-1.0160031	tịnh trước bảy
-1.0160031	bộ trước bảy
-1.0005584	xe trước bảy
-0.99637574	mã trước bảy
-1.0005584	pháo trước bảy
-1.309998	tốt trước bảy
-1.309998	binh trước bảy
-1.309998	chốt trước bảy
-1.0160031	tượng dưới bảy
-1.0160031	tịnh dưới bảy
-1.0160031	bộ dưới bảy
-1.0005584	xe dưới bảy
-0.99637574	mã dưới bảy
-1.0005584	pháo dưới bảy
-1.309998	tốt dưới bảy
-1.309998	binh dưới bảy
-1.309998	chốt dưới bảy
-1.0819838	sang trái bảy
-1.7524793	<s> tượng bảy
-1.7162714	ăn tượng bảy
-1.7162714	bắt tượng bảy
-1.7524793	<s> tịnh bảy
-1.7162714	ăn tịnh bảy
-1.7162714	bắt tịnh bảy
-1.7524793	<s> bộ bảy
-1.7162714	ăn bộ bảy
-1.7162714	bắt bộ bảy
-1.7168174	<s> xe bảy
-1.7162873	ăn xe bảy
-1.7162873	bắt xe bảy
-1.7200133	<s> mã bảy
-1.7162714	ăn mã bảy
-1.7162714	bắt mã bảy
-1.7168174	<s> pháo bảy
-1.7162873	ăn pháo bảy
-1.7162873	bắt pháo bảy
-1.9923059	<s> tốt bảy
-2.0172806	ăn tốt bảy
-2.0172806	bắt tốt bảy
-1.0089636	sau giữa bảy
-1.0089636	trên giữa bảy
-1.0089636	trước giữa bảy
-1.0089636	dưới giữa bảy
-1.008981	tốt giữa bảy
-1.008981	binh giữa bảy
-1.008981	chốt giữa bảy
-1.9923059	<s> binh bảy
-2.0172806	ăn binh bảy
-2.0172806	bắt binh bảy
-1.9923059	<s> chốt bảy
-2.0172806	ăn chốt bảy
-2.0172806	bắt chốt bảy
-1.429774	bốn tiến bảy
-1.0969462	phải tiến bảy
-1.0969462	sau tiến bảy
-1.0969462	trên tiến bảy
-1.2536755	sáu tiến bảy
-0.9345057	năm tiến bảy
-1.0969462	trước tiến bảy
-1.0969462	dưới tiến bảy
-1.0969462	trái tiến bảy
-1.0418634	tượng tiến bảy
-0.8750685	chín tiến bảy
-1.1856511	tám tiến bảy
-1.3522042	một tiến bảy
-1.3979617	ba tiến bảy
-1.3617495	hai tiến bảy
-1.3979617	bảy tiến bảy
-1.0418634	tịnh tiến bảy
-1.0418634	bộ tiến bảy
-0.95522076	xe tiến bảy
-1.1144141	mã tiến bảy
-0.95522076	pháo tiến bảy
-1.429774	bốn tấn bảy
-1.0969462	phải tấn bảy
-1.0969462	sau tấn bảy
-1.0969462	trên tấn bảy
-1.2536755	sáu tấn bảy
-0.9345057	năm tấn bảy
-1.0969462	trước tấn bảy
-1.0969462	dưới tấn bảy
-1.0969462	trái tấn bảy
-1.0418634	tượng tấn bảy
-0.8750685	chín tấn bảy
-1.1856511	tám tấn bảy
-1.3522042	một tấn bảy
-1.3979617	ba tấn bảy
-1.3617495	hai tấn bảy
-1.3979617	bảy tấn bảy
-1.0418634	tịnh tấn bảy
-1.0418634	bộ tấn bảy
-0.95522076	xe tấn bảy
-1.1144141	mã tấn bảy
-0.95522076	pháo tấn bảy
-1.152348	bốn bình bảy
-0.9542956	phải bình bảy
-0.9542956	sau bình bảy
-0.9542956	trên bình bảy
-0.5502433	sáu bình bảy
-1.1584222	năm bình bảy
-0.9542956	trước bình bảy
-0.9542956	dưới bình bảy
-0.9542956	trái bình bảy
-1.0414524	chín bình bảy
-0.544083	tám bình bảy
-1.0414524	một bình bảy
-1.1461878	ba bình bảy
-1.1461878	hai bình bảy
-0.9545079	xe bình bảy
-0.9545079	pháo bình bảy
-0.9545079	tốt bình bảy
-0.95425516	giữa bình bảy
-0.9545079	binh bình bảy
-0.9545079	chốt bình bảy
-1.3201425	bốn thoái bảy
-1.0607374	phải thoái bảy
-1.0607374	sau thoái bảy
-1.0607374	trên thoái bảy
-1.1440525	sáu thoái bảy
-0.8195427	năm thoái bảy
-1.0607374	trước thoái bảy
-1.0607374	dưới thoái bảy
-1.0607374	trái thoái bảy
-1.04163	tượng thoái bảy
-0.74037063	chín thoái bảy
-1.0543735	tám thoái bảy
-1.2175077	một thoái bảy
-1.2787774	ba thoái bảy
-1.2304727	hai thoái bảy
-1.2787774	bảy thoái bảy
-1.04163	tịnh thoái bảy
-1.04163	bộ thoái bảy
-0.95502955	xe thoái bảy
-1.1141807	mã thoái bảy
-0.95502955	pháo thoái bảy
-1.3201425	bốn lùi bảy
-1.0607374	phải lùi bảy
-1.0607374	sau lùi bảy
-1.0607374	trên lùi bảy
-1.1440525	sáu lùi bảy
-0.8195427	năm lùi bảy
-1.0607374	trước lùi bảy
-1.0607374	dưới lùi bảy
-1.0607374	trái lùi bảy
-1.04163	tượng lùi bảy
-0.74037063	chín lùi bảy
-1.0543735	tám lùi bảy
-1.2175077	một lùi bảy
-1.2787774	ba lùi bảy
-1.2304727	hai lùi bảy
-1.2787774	bảy lùi bảy
-1.04163	tịnh lùi bảy
-1.04163	bộ lùi bảy
-0.95502955	xe lùi bảy
-1.1141807	mã lùi bảy
-0.95502955	pháo lùi bảy
-1.3010417	bốn chiếu bảy
-1.30179	sĩ chiếu bảy
-1.301106	phải chiếu bảy
-1.301106	sau chiếu bảy
-1.301106	trên chiếu bảy
-1.3010417	sáu chiếu bảy
-1.3010417	năm chiếu bảy
-1.301106	trước chiếu bảy
-1.301106	dưới chiếu bảy
-1.301106	trái chiếu bảy
-1.30179	tượng chiếu bảy
-1.3010427	chín chiếu bảy
-1.3010427	tám chiếu bảy
-1.3010427	một chiếu bảy
-1.3010427	ba chiếu bảy
-1.3010427	hai chiếu bảy
-1.3010427	bảy chiếu bảy
-1.30179	tịnh chiếu bảy
-1.30179	bộ chiếu bảy
-1.30179	xe chiếu bảy
-1.30179	mã chiếu bảy
-1.30179	pháo chiếu bảy
-1.30179	tốt chiếu bảy
-1.3010662	giữa chiếu bảy
-1.30179	binh chiếu bảy
-1.30179	chốt chiếu bảy
-1.0948728	tướng ăn tịnh
-1.0942388	bốn ăn tịnh
-1.0948728	sĩ ăn tịnh
-1.0942935	phải ăn tịnh
-1.0942935	sau ăn tịnh
-1.0942935	trên ăn tịnh
-1.0942388	sáu ăn tịnh
