\data\
ngram 1=62
ngram 2=586
ngram 3=4582

\1-grams:
-2.7143784	<unk>	0
0	<s>	-4.9718614
-1.1923501	</s>	0
-2.439284	tướng	-0.30103
-1.3264987	ăn	-1.2710668
-2.3477523	sĩ	-0.30103
-1.3264987	bắt	-1.2710668
-1.7842196	trên	-0.7652632
-1.4131911	bốn	-0.9557023
-1.7842196	phải	-0.7377226
-1.7842196	trước	-0.7652632
-1.7842196	trái	-0.7377226
-1.4131911	sáu	-0.9557023
-1.7842196	sau	-0.7652632
-1.4131911	năm	-0.9557023
-1.7842196	dưới	-0.7652632
-2.3477523	tượng	-0.30103
-1.4533743	bảy	-0.88631976
-1.4533743	hai	-0.88631976
-1.4533743	ba	-0.88631976
-1.4533743	một	-0.88631976
-1.4533743	chín	-0.88631976
-1.4533743	tám	-0.88631976
-2.3477523	tịnh	-0.30103
-2.3477523	bộ	-0.30103
-2.3477523	xe	-0.30103
-2.3477523	mã	-0.30103
-2.3477523	pháo	-0.30103
-2.3477523	tốt	-0.30103
-1.8318291	giữa	-0.7201593
-2.3477523	binh	-0.30103
-2.3477523	chốt	-0.30103
-2.5554044	soái	-0.30103
-1.3264987	tiến	-1.1663314
-1.3264987	tấn	-1.1663314
-1.4131911	bình	-1.1391792
-1.3944129	thoái	-1.157468
-1.3944129	lùi	-1.157468
-1.8318291	qua	-0.7781512
-2.439284	sông	-0.30103
-1.8318291	sang	-0.7781512
-2.5554044	chấp	-0.30103
-2.439284	nhận	-0.30103
-2.5554044	xác	-0.30103
-2.5554044	đồng	-0.30103
-2.5554044	ý	-0.30103
-2.5554044	ô	-0.30103
-2.5554044	kê	-0.30103
-2.5554044	hủy	-0.30103
-2.5554044	bỏ	-0.30103
-2.5554044	từ	-0.30103
-2.5554044	chối	-0.30103
-2.5554044	đầu	-0.30103
-2.5554044	hàng	-0.30103
-2.5554044	xin	-0.30103
-2.5554044	hòa	-0.30103
-2.5554044	đổi	-0.30103
-2.5554044	phe	-0.30103
-2.5554044	chơi	-0.30103
-2.439284	lại	-0.30103
-2.5554044	đi	-0.30103
-1.3591295	chiếu	-1.2388821

\2-grams:
-1.2432994	tướng </s>	0
-1.2226727	sĩ </s>	0
-1.206	trên </s>	0
-0.83954597	bốn </s>	0
-0.93777335	phải </s>	0
-1.206	trước </s>	0
-0.93777335	trái </s>	0
-0.83954597	sáu </s>	0
-1.206	sau </s>	0
-0.83954597	năm </s>	0
-1.206	dưới </s>	0
-1.2956177	tượng </s>	0
-0.7907895	bảy </s>	0
-0.7907895	hai </s>	0
-0.7907895	ba </s>	0
-0.7907895	một </s>	0
-0.7907895	chín </s>	0
-0.7907895	tám </s>	0
-1.2956177	tịnh </s>	0
-1.2956177	bộ </s>	0
-1.2985157	xe </s>	0
-1.2956177	mã </s>	0
-1.2985157	pháo </s>	0
-1.3013285	tốt </s>	0
-1.144144	giữa </s>	0
-1.3013285	binh </s>	0
-1.3013285	chốt </s>	0
-0.2739998	sông </s>	0
-0.2739998	nhận </s>	0
-0.2739998	ý </s>	0
-0.2739998	kê </s>	0
-0.2739998	bỏ </s>	0
-0.2739998	chối </s>	0
-0.2739998	hàng </s>	0
-0.2739998	hòa </s>	0
-0.2739998	phe </s>	0
-0.2739998	lại </s>	0
-1.0488123	chiếu </s>	0
-2.500631	<s> tướng	-2.8137145
-1.0661376	chiếu tướng	-4.1112623
-1.3135777	tướng ăn	-1.6341412
-1.4263748	sĩ ăn	-1.6341412
-1.2269437	trên ăn	-2.6341412
-0.9615849	bốn ăn	-3.460216
-0.9496824	phải ăn	-2.6341412
-1.2269437	trước ăn	-2.6341412
-0.9496824	trái ăn	-2.6341412
-0.9615849	sáu ăn	-3.460216
-1.2269437	sau ăn	-2.6341412
-0.9615849	năm ăn	-3.460216
-1.2269437	dưới ăn	-2.6341412
-1.4836587	tượng ăn	-1.6341412
-0.98067075	bảy ăn	-3.4122925
-0.98067075	hai ăn	-3.4122925
-0.98067075	ba ăn	-3.4122925
-0.98067075	một ăn	-3.4122925
-0.98067075	chín ăn	-3.4122925
-0.98067075	tám ăn	-3.4122925
-1.4836587	tịnh ăn	-1.6341412
-1.4836587	bộ ăn	-1.6341412
-1.4858911	xe ăn	-1.6341412
-1.4836587	mã ăn	-1.6341412
-1.4858911	pháo ăn	-1.6341412
-1.4880548	tốt ăn	-1.6341412
-1.1642767	giữa ăn	-2.9563606
-1.4880548	binh ăn	-1.6341412
-1.4880548	chốt ăn	-1.6341412
-1.1332635	soái ăn	-1.6341412
-1.6577219	<s> sĩ	-3.452451
-1.0228099	ăn sĩ	-2.9819093
-1.0228099	bắt sĩ	-2.9819093
-1.3135777	tướng bắt	-1.6341412
-1.4263748	sĩ bắt	-1.6341412
-1.2269437	trên bắt	-2.6341412
-0.9615849	bốn bắt	-3.460216
-0.9496824	phải bắt	-2.6341412
-1.2269437	trước bắt	-2.6341412
-0.9496824	trái bắt	-2.6341412
-0.9615849	sáu bắt	-3.460216
-1.2269437	sau bắt	-2.6341412
-0.9615849	năm bắt	-3.460216
-1.2269437	dưới bắt	-2.6341412
-1.4836587	tượng bắt	-1.6341412
-0.98067075	bảy bắt	-3.4122925
-0.98067075	hai bắt	-3.4122925
-0.98067075	ba bắt	-3.4122925
-0.98067075	một bắt	-3.4122925
-0.98067075	chín bắt	-3.4122925
-0.98067075	tám bắt	-3.4122925
-1.4836587	tịnh bắt	-1.6341412
-1.4836587	bộ bắt	-1.6341412
-1.4858911	xe bắt	-1.6341412
-1.4836587	mã bắt	-1.6341412
-1.4858911	pháo bắt	-1.6341412
-1.4880548	tốt bắt	-1.6341412
-1.1642767	giữa bắt	-2.9563606
-1.4880548	binh bắt	-1.6341412
-1.4880548	chốt bắt	-1.6341412
-1.1332635	soái bắt	-1.6341412
-1.3020355	sĩ trên	-3.0078254
-1.443752	tượng trên	-3.2958903
-1.443752	tịnh trên	-3.2958903
-1.443752	bộ trên	-3.2958903
-1.4498887	xe trên	-3.6485407
-1.443752	mã trên	-3.394177
-1.4498887	pháo trên	-3.6485407
-1.4558896	tốt trên	-3.5072737
-1.4558896	binh trên	-3.5072737
-1.4558896	chốt trên	-3.5072737
-1.1592051	tướng bốn	-3.2567177
-1.2148373	sĩ bốn	-2.5228786
-1.2378069	trên bốn	-3.65357
-1.2378069	trước bốn	-3.65357
-1.2378069	sau bốn	-3.65357
-1.2378069	dưới bốn	-3.65357
-1.3270931	tượng bốn	-2.60206
-1.3270931	tịnh bốn	-2.60206
-1.3270931	bộ bốn	-2.60206
-1.3317765	xe bốn	-2.9488475
-1.3270931	mã bốn	-2.7269988
-1.3317765	pháo bốn	-2.9488475
-1.3363409	tốt bốn	-2.513119
-1.2923708	giữa bốn	-3.756962
-1.3363409	binh bốn	-2.513119
-1.3363409	chốt bốn	-2.513119
-1.1592051	soái bốn	-2.3390253
-0.97400427	tiến bốn	-4.4036922
-0.97400427	tấn bốn	-4.4036922
-0.946852	bình bốn	-4.4259686
-0.9651408	thoái bốn	-4.4036922
-0.9651408	lùi bốn	-4.4036922
-1.0560486	chiếu bốn	-4.1112623
-1.3020355	sĩ phải	-2.6690068
-1.443752	tượng phải	-2.9378521
-1.443752	tịnh phải	-2.9378521
-1.443752	bộ phải	-2.9378521
-1.4498887	xe phải	-2.956026
-1.443752	mã phải	-2.9378521
-1.4498887	pháo phải	-2.956026
-1.4558896	tốt phải	-2.9542425
-1.4558896	binh phải	-2.9542425
-1.4558896	chốt phải	-2.9542425
-1.3020355	sĩ trước	-3.0078254
-1.443752	tượng trước	-3.2958903
-1.443752	tịnh trước	-3.2958903
-1.443752	bộ trước	-3.2958903
-1.4498887	xe trước	-3.6485407
-1.443752	mã trước	-3.394177
-1.4498887	pháo trước	-3.6485407
-1.4558896	tốt trước	-3.5072737
-1.4558896	binh trước	-3.5072737
-1.4558896	chốt trước	-3.5072737
-1.3020355	sĩ trái	-2.6690068
-1.443752	tượng trái	-2.9378521
-1.443752	tịnh trái	-2.9378521
-1.443752	bộ trái	-2.9378521
-1.4498887	xe trái	-2.956026
-1.443752	mã trái	-2.9378521
-1.4498887	pháo trái	-2.956026
-1.4558896	tốt trái	-2.9542425
-1.4558896	binh trái	-2.9542425
-1.4558896	chốt trái	-2.9542425
-1.1592051	tướng sáu	-3.2567177
-1.2148373	sĩ sáu	-2.5228786
-1.2378069	trên sáu	-3.65357
-1.2378069	trước sáu	-3.65357
-1.2378069	sau sáu	-3.65357
-1.2378069	dưới sáu	-3.65357
-1.3270931	tượng sáu	-2.60206
-1.3270931	tịnh sáu	-2.60206
-1.3270931	bộ sáu	-2.60206
-1.3317765	xe sáu	-2.9488475
-1.3270931	mã sáu	-2.7269988
-1.3317765	pháo sáu	-2.9488475
-1.3363409	tốt sáu	-2.513119
-1.2923708	giữa sáu	-3.756962
-1.3363409	binh sáu	-2.513119
-1.3363409	chốt sáu	-2.513119
-1.1592051	soái sáu	-2.3390253
-0.97400427	tiến sáu	-4.4036922
-0.97400427	tấn sáu	-4.4036922
-0.946852	bình sáu	-4.4259686
-0.9651408	thoái sáu	-4.4036922
-0.9651408	lùi sáu	-4.4036922
-1.0560486	chiếu sáu	-4.1112623
-1.3020355	sĩ sau	-3.0078254
-1.443752	tượng sau	-3.2958903
-1.443752	tịnh sau	-3.2958903
-1.443752	bộ sau	-3.2958903
-1.4498887	xe sau	-3.6485407
-1.443752	mã sau	-3.394177
-1.4498887	pháo sau	-3.6485407
-1.4558896	tốt sau	-3.5072737
-1.4558896	binh sau	-3.5072737
-1.4558896	chốt sau	-3.5072737
-1.1592051	tướng năm	-3.2607074
-1.2148373	sĩ năm	-2.60206
-1.2378069	trên năm	-3.6478174
-1.2378069	trước năm	-3.6478174
-1.2378069	sau năm	-3.6478174
-1.2378069	dưới năm	-3.6478174
-1.3270931	tượng năm	-2.60206
-1.3270931	tịnh năm	-2.60206
-1.3270931	bộ năm	-2.60206
-1.3317765	xe năm	-2.9488475
-1.3270931	mã năm	-2.7269988
-1.3317765	pháo năm	-2.9488475
-1.3363409	tốt năm	-2.513119
-1.2923708	giữa năm	-3.756962
-1.3363409	binh năm	-2.513119
-1.3363409	chốt năm	-2.513119
-1.1592051	soái năm	-2.3753588
-0.97400427	tiến năm	-4.423792
-0.97400427	tấn năm	-4.423792
-0.946852	bình năm	-4.43029
-0.9651408	thoái năm	-4.423792
-0.9651408	lùi năm	-4.423792
-1.0560486	chiếu năm	-4.1112623
-1.3020355	sĩ dưới	-3.0078254
-1.443752	tượng dưới	-3.2958903
-1.443752	tịnh dưới	-3.2958903
-1.443752	bộ dưới	-3.2958903
-1.4498887	xe dưới	-3.6485407
-1.443752	mã dưới	-3.394177
-1.4498887	pháo dưới	-3.6485407
-1.4558896	tốt dưới	-3.5072737
-1.4558896	binh dưới	-3.5072737
-1.4558896	chốt dưới	-3.5072737
-1.1790824	<s> tượng	-3.792782
-1.0228099	ăn tượng	-3.1513698
-1.0228099	bắt tượng	-3.1513698
-1.3705561	tướng bảy	-4.1112623
-1.2905159	trên bảy	-3.6240146
-1.2905159	trước bảy	-3.6240146
-1.2905159	sau bảy	-3.6240146
-1.2905159	dưới bảy	-3.6240146
-1.3431246	tượng bảy	-2.60206
-1.3431246	tịnh bảy	-2.60206
-1.3431246	bộ bảy	-2.60206
-1.3479849	xe bảy	-2.9488475
-1.3431246	mã bảy	-2.7269988
-1.3479849	pháo bảy	-2.9488475
-1.3527238	tốt bảy	-2.513119
-1.2979416	giữa bảy	-3.756962
-1.3527238	binh bảy	-2.513119
-1.3527238	chốt bảy	-2.513119
-0.9961721	tiến bảy	-4.3850102
-0.9961721	tấn bảy	-4.3850102
-0.9913245	bình bảy	-4.417195
-0.9873086	thoái bảy	-4.3850102
-0.9873086	lùi bảy	-4.3850102
-1.0570227	chiếu bảy	-4.1112623
-1.3705561	tướng hai	-4.1112623
-1.2905159	trên hai	-3.598831
-1.2905159	trước hai	-3.598831
-1.2905159	sau hai	-3.598831
-1.2905159	dưới hai	-3.598831
-1.3431246	tượng hai	-2.5228786
-1.3431246	tịnh hai	-2.5228786
-1.3431246	bộ hai	-2.5228786
-1.3479849	xe hai	-2.9488475
-1.3431246	mã hai	-2.6690068
-1.3479849	pháo hai	-2.9488475
-1.3527238	tốt hai	-2.513119
-1.2979416	giữa hai	-3.756962
-1.3527238	binh hai	-2.513119
-1.3527238	chốt hai	-2.513119
-0.9961721	tiến hai	-4.3344536
-0.9961721	tấn hai	-4.3344536
-0.9913245	bình hai	-4.417195
-0.9873086	thoái hai	-4.3344536
-0.9873086	lùi hai	-4.3344536
-1.0570227	chiếu hai	-4.1112623
-1.3705561	tướng ba	-4.1112623
-1.2905159	trên ba	-3.6240146
-1.2905159	trước ba	-3.6240146
-1.2905159	sau ba	-3.6240146
-1.2905159	dưới ba	-3.6240146
-1.3431246	tượng ba	-2.60206
-1.3431246	tịnh ba	-2.60206
-1.3431246	bộ ba	-2.60206
-1.3479849	xe ba	-2.9488475
-1.3431246	mã ba	-2.7269988
-1.3479849	pháo ba	-2.9488475
-1.3527238	tốt ba	-2.513119
-1.2979416	giữa ba	-3.756962
-1.3527238	binh ba	-2.513119
-1.3527238	chốt ba	-2.513119
-0.9961721	tiến ba	-4.3850102
-0.9961721	tấn ba	-4.3850102
-0.9913245	bình ba	-4.417195
-0.9873086	thoái ba	-4.3850102
-0.9873086	lùi ba	-4.3850102
-1.0570227	chiếu ba	-4.1112623
-1.3705561	tướng một	-4.1112623
-1.2905159	trên một	-3.5873368
-1.2905159	trước một	-3.5873368
-1.2905159	sau một	-3.5873368
-1.2905159	dưới một	-3.5873368
-1.3431246	tượng một	-2.5228786
-1.3431246	tịnh một	-2.5228786
-1.3431246	bộ một	-2.5228786
-1.3479849	xe một	-2.9488475
-1.3431246	mã một	-2.60206
-1.3479849	pháo một	-2.9488475
-1.3527238	tốt một	-2.4929156
-1.2979416	giữa một	-3.7346857
-1.3527238	binh một	-2.4929156
-1.3527238	chốt một	-2.4929156
-0.88210475	tiến một	-4.8034573
-0.88210475	tấn một	-4.8034573
-0.9913245	bình một	-4.345047
-0.9458671	thoái một	-4.3424225
-0.9458671	lùi một	-4.3424225
-1.0570227	chiếu một	-4.1112623
-1.3705561	tướng chín	-4.1112623
-1.2905159	trên chín	-3.5873368
-1.2905159	trước chín	-3.5873368
-1.2905159	sau chín	-3.5873368
-1.2905159	dưới chín	-3.5873368
-1.3431246	tượng chín	-2.5228786
-1.3431246	tịnh chín	-2.5228786
-1.3431246	bộ chín	-2.5228786
-1.3479849	xe chín	-2.9488475
-1.3431246	mã chín	-2.60206
-1.3479849	pháo chín	-2.9488475
-1.3527238	tốt chín	-2.4929156
-1.2979416	giữa chín	-3.7346857
-1.3527238	binh chín	-2.4929156
-1.3527238	chốt chín	-2.4929156
-0.9961721	tiến chín	-4.3208385
-0.9961721	tấn chín	-4.3208385
-0.9913245	bình chín	-4.345047
-0.9873086	thoái chín	-4.3208385
-0.9873086	lùi chín	-4.3208385
-1.0570227	chiếu chín	-4.1112623
-1.3705561	tướng tám	-4.1112623
-1.2905159	trên tám	-3.598831
-1.2905159	trước tám	-3.598831
-1.2905159	sau tám	-3.598831
-1.2905159	dưới tám	-3.598831
-1.3431246	tượng tám	-2.5228786
-1.3431246	tịnh tám	-2.5228786
-1.3431246	bộ tám	-2.5228786
-1.3479849	xe tám	-2.9488475
-1.3431246	mã tám	-2.6690068
-1.3479849	pháo tám	-2.9488475
-1.3527238	tốt tám	-2.513119
-1.2979416	giữa tám	-3.756962
-1.3527238	binh tám	-2.513119
-1.3527238	chốt tám	-2.513119
-0.9961721	tiến tám	-4.3344536
-0.9961721	tấn tám	-4.3344536
-0.9913245	bình tám	-4.417195
-0.9873086	thoái tám	-4.3344536
-0.9873086	lùi tám	-4.3344536
-1.0570227	chiếu tám	-4.1112623
-1.1790824	<s> tịnh	-3.792782
-1.0228099	ăn tịnh	-3.1513698
-1.0228099	bắt tịnh	-3.1513698
-1.1790824	<s> bộ	-3.792782
-1.0228099	ăn bộ	-3.1513698
-1.0228099	bắt bộ	-3.1513698
-0.744222	<s> xe	-4.2083354
-1.0228099	ăn xe	-3.1513698
-1.0228099	bắt xe	-3.1513698
-1.0609742	<s> mã	-3.9108894
-1.0228099	ăn mã	-3.1513698
-1.0228099	bắt mã	-3.1513698
-0.744222	<s> pháo	-4.2083354
-1.0228099	ăn pháo	-3.1513698
-1.0228099	bắt pháo	-3.1513698
-1.0144622	<s> tốt	-3.9574013
-1.0228099	ăn tốt	-3.426071
-1.0228099	bắt tốt	-3.426071
-1.9368579	trên giữa	-3.709694
-1.6780497	phải giữa	-3.1883256
-1.9368579	trước giữa	-3.709694
-1.6780497	trái giữa	-3.1883256
-1.9368579	sau giữa	-3.709694
-1.9368579	dưới giữa	-3.709694
-1.4666071	tốt giữa	-3.2325726
-1.4666071	binh giữa	-3.2325726
-1.4666071	chốt giữa	-3.2325726
-1.0144622	<s> binh	-3.9574013
-1.0228099	ăn binh	-3.426071
-1.0228099	bắt binh	-3.426071
-1.0144622	<s> chốt	-3.9574013
-1.0228099	ăn chốt	-3.426071
-1.0228099	bắt chốt	-3.426071
-2.5006323	<s> soái	-2.8137145
-1.3135777	tướng tiến	-2.1249387
-1.4263748	sĩ tiến	-2.1249387
-1.2269437	trên tiến	-2.9488475
-0.9615849	bốn tiến	-3.4186695
-0.9496824	phải tiến	-2.9488475
-1.2269437	trước tiến	-2.9488475
-0.9496824	trái tiến	-2.9488475
-0.9615849	sáu tiến	-3.4186695
-1.2269437	sau tiến	-2.9488475
-0.9615849	năm tiến	-3.4112456
-1.2269437	dưới tiến	-2.9488475
-1.4836587	tượng tiến	-2.1249387
-0.98067075	bảy tiến	-3.4011452
-0.98067075	hai tiến	-3.3467875
-0.98067075	ba tiến	-3.4011452
-0.98067075	một tiến	-3.3320642
-0.98067075	chín tiến	-3.3320642
-0.98067075	tám tiến	-3.3467875
-1.4836587	tịnh tiến	-2.1249387
-1.4836587	bộ tiến	-2.1249387
-1.4858911	xe tiến	-2.1249387
-1.4836587	mã tiến	-2.1249387
-1.4858911	pháo tiến	-2.1249387
-1.4880548	tốt tiến	-2.1249387
-1.1642767	giữa tiến	-3.447158
-1.4880548	binh tiến	-2.1249387
-1.4880548	chốt tiến	-2.1249387
-1.1332635	soái tiến	-2.1249387
-1.3135777	tướng tấn	-2.1249387
-1.4263748	sĩ tấn	-2.1249387
-1.2269437	trên tấn	-2.9488475
-0.9615849	bốn tấn	-3.4186695
-0.9496824	phải tấn	-2.9488475
-1.2269437	trước tấn	-2.9488475
-0.9496824	trái tấn	-2.9488475
-0.9615849	sáu tấn	-3.4186695
-1.2269437	sau tấn	-2.9488475
-0.9615849	năm tấn	-3.4112456
-1.2269437	dưới tấn	-2.9488475
-1.4836587	tượng tấn	-2.1249387
-0.98067075	bảy tấn	-3.4011452
-0.98067075	hai tấn	-3.3467875
-0.98067075	ba tấn	-3.4011452
-0.98067075	một tấn	-3.3320642
-0.98067075	chín tấn	-3.3320642
-0.98067075	tám tấn	-3.3467875
-1.4836587	tịnh tấn	-2.1249387
-1.4836587	bộ tấn	-2.1249387
-1.4858911	xe tấn	-2.1249387
-1.4836587	mã tấn	-2.1249387
-1.4858911	pháo tấn	-2.1249387
-1.4880548	tốt tấn	-2.1249387
-1.1642767	giữa tấn	-3.447158
-1.4880548	binh tấn	-2.1249387
-1.4880548	chốt tấn	-2.1249387
-1.1332635	soái tấn	-2.1249387
-1.3534997	tướng bình	-2.1249387
-1.5572878	trên bình	-2.8239088
-1.1264093	bốn bình	-3.3741372
-1.3032286	phải bình	-2.8239088
-1.5572878	trước bình	-2.8239088
-1.3032286	trái bình	-2.8239088
-1.1264093	sáu bình	-3.3741372
-1.5572878	sau bình	-2.8239088
-1.1264093	năm bình	-3.3802114
-1.5572878	dưới bình	-2.8239088
-1.1429894	bảy bình	-3.367977
-1.1429894	hai bình	-3.367977
-1.1429894	ba bình	-3.367977
-1.1429894	một bình	-3.2632415
-1.1429894	chín bình	-3.2632415
-1.1429894	tám bình	-3.367977
-1.5466701	xe bình	-2.1249387
-1.5466701	pháo bình	-2.1249387
-1.5491595	tốt bình	-2.1249387
-1.1747041	giữa bình	-3.447158
-1.5491595	binh bình	-2.1249387
-1.5491595	chốt bình	-2.1249387
-1.1592051	soái bình	-2.1249387
-1.3452163	tướng thoái	-2.1249387
-1.4678576	sĩ thoái	-2.1249387
-1.3973324	trên thoái	-2.9265711
-1.0880605	bốn thoái	-3.3380136
-1.1281358	phải thoái	-2.9265711
-1.3973324	trước thoái	-2.9265711
-1.1281358	trái thoái	-2.9265711
-1.0880605	sáu thoái	-3.3380136
-1.3973324	sau thoái	-2.9265711
-1.0880605	năm thoái	-3.3290586
-1.3973324	dưới thoái	-2.9265711
-1.5313226	tượng thoái	-2.1249387
-1.1416532	bảy thoái	-3.3168242
-1.1416532	hai thoái	-3.2498775
-1.1416532	ba thoái	-3.3168242
-1.1416532	một thoái	-3.231394
-1.1416532	chín thoái	-3.231394
-1.1416532	tám thoái	-3.2498775
-1.5313226	tịnh thoái	-2.1249387
-1.5313226	bộ thoái	-2.1249387
-1.5338147	xe thoái	-2.1249387
-1.5313226	mã thoái	-2.1249387
-1.5338147	pháo thoái	-2.1249387
-1.1538913	soái thoái	-2.1249387
-1.3452163	tướng lùi	-2.1249387
-1.4678576	sĩ lùi	-2.1249387
-1.3973324	trên lùi	-2.9265711
-1.0880605	bốn lùi	-3.3380136
-1.1281358	phải lùi	-2.9265711
-1.3973324	trước lùi	-2.9265711
-1.1281358	trái lùi	-2.9265711
-1.0880605	sáu lùi	-3.3380136
-1.3973324	sau lùi	-2.9265711
-1.0880605	năm lùi	-3.3290586
-1.3973324	dưới lùi	-2.9265711
-1.5313226	tượng lùi	-2.1249387
-1.1416532	bảy lùi	-3.3168242
-1.1416532	hai lùi	-3.2498775
-1.1416532	ba lùi	-3.3168242
-1.1416532	một lùi	-3.231394
-1.1416532	chín lùi	-3.231394
-1.1416532	tám lùi	-3.2498775
-1.5313226	tịnh lùi	-2.1249387
-1.5313226	bộ lùi	-2.1249387
-1.5338147	xe lùi	-2.1249387
-1.5313226	mã lùi	-2.1249387
-1.5338147	pháo lùi	-2.1249387
-1.1538913	soái lùi	-2.1249387
-1.9318821	bốn qua	-2.60206
-1.9318821	sáu qua	-2.60206
-1.9318821	năm qua	-2.60206
-1.8624996	bảy qua	-2.60206
-1.8624996	hai qua	-2.60206
-1.8624996	ba qua	-2.60206
-1.8624996	một qua	-2.60206
-1.8624996	chín qua	-2.60206
-1.8624996	tám qua	-2.60206
-0.07886549	qua sông	-3.5563025
-0.07886549	sang sông	-3.5563025
-1.9318821	bốn sang	-2.60206
-1.9318821	sáu sang	-2.60206
-1.9318821	năm sang	-2.60206
-1.8624996	bảy sang	-2.60206
-1.8624996	hai sang	-2.60206
-1.8624996	ba sang	-2.60206
-1.8624996	một sang	-2.60206
-1.8624996	chín sang	-2.60206
-1.8624996	tám sang	-2.60206
-2.4904366	<s> chấp	-3.8239088
-0.29945347	chấp nhận	-3.8239088
-0.29945347	xác nhận	-3.8239088
-2.4904366	<s> xác	-3.8239088
-2.4904366	<s> đồng	-3.8239088
-0.2998228	đồng ý	-3.8239088
-2.4904366	<s> ô	-3.8239088
-0.2998228	ô kê	-3.8239088
-2.4904366	<s> hủy	-3.8239088
-0.2998228	hủy bỏ	-3.8239088
-2.4904366	<s> từ	-3.8239088
-0.2998228	từ chối	-3.8239088
-2.4904366	<s> đầu	-3.8239088
-0.2998228	đầu hàng	-3.8239088
-2.189376	<s> xin	-3.8239088
-0.59964895	xin hòa	-3.8239088
-2.4904366	<s> đổi	-3.8239088
-0.2998228	đổi phe	-3.8239088
-0.59964895	xin chơi	-3.8239088
-0.29945347	chơi lại	-3.8239088
-0.29945347	đi lại	-3.8239088
-2.4904366	<s> đi	-3.8239088
-1.4466211	sĩ chiếu	-1.5606673
-1.2312565	trên chiếu	-2.5606673
-1.0202348	bốn chiếu	-3.3735807
-0.9521039	phải chiếu	-2.5606673
-1.2312565	trước chiếu	-2.5606673
-0.9521039	trái chiếu	-2.5606673
-1.0202348	sáu chiếu	-3.3735807
-1.2312565	sau chiếu	-2.5606673
-1.0202348	năm chiếu	-3.3735807
-1.2312565	dưới chiếu	-2.5606673
-1.5068371	tượng chiếu	-1.5606673
-0.9825165	bảy chiếu	-3.3388186
-0.9825165	hai chiếu	-3.3388186
-0.9825165	ba chiếu	-3.3388186
-0.9825165	một chiếu	-3.3388186
-0.9825165	chín chiếu	-3.3388186
-0.9825165	tám chiếu	-3.3388186
-1.5068371	tịnh chiếu	-1.5606673
-1.5068371	bộ chiếu	-1.5606673
-1.5091922	xe chiếu	-1.5606673
-1.5068371	mã chiếu	-1.5606673
-1.5091922	pháo chiếu	-1.5606673
-1.5114753	tốt chiếu	-1.5606673
-1.1684177	giữa chiếu	-2.8828866
-1.5114753	binh chiếu	-1.5606673
-1.5114753	chốt chiếu	-1.5606673

\3-grams:
-1.0000144	chiếu tướng </s>
-1.3428224	ăn sĩ </s>
-1.3428224	bắt sĩ </s>
-1.1088587	sĩ trên </s>
-1.585794	tượng trên </s>
-1.585794	tịnh trên </s>
-1.585794	bộ trên </s>
-1.9632369	xe trên </s>
-1.6840805	mã trên </s>
-1.9632369	pháo trên </s>
-1.7971773	tốt trên </s>
-1.7971773	binh trên </s>
-1.7971773	chốt trên </s>
-0.048539937	tướng bốn </s>
-0.4853738	sĩ bốn </s>
-0.6672808	trên bốn </s>
-0.6672808	trước bốn </s>
-0.6672808	sau bốn </s>
-0.6672808	dưới bốn </s>
-0.56455505	tượng bốn </s>
-0.56455505	tịnh bốn </s>
-0.56455505	bộ bốn </s>
-0.962423	xe bốn </s>
-0.6894938	mã bốn </s>
-0.962423	pháo bốn </s>
-0.52669436	tốt bốn </s>
-0.48545182	giữa bốn </s>
-0.52669436	binh bốn </s>
-0.52669436	chốt bốn </s>
-0.000014651705	tiến bốn </s>
-0.000014651705	tấn bốn </s>
-0.000013926874	bình bốn </s>
-0.000014651705	thoái bốn </s>
-0.000014651705	lùi bốn </s>
-0.000028760263	chiếu bốn </s>
-0.6316185	sĩ phải </s>
-0.9004638	tượng phải </s>
-0.9004638	tịnh phải </s>
-0.9004638	bộ phải </s>
-0.9697329	xe phải </s>
-0.9004638	mã phải </s>
-0.9697329	pháo phải </s>
-0.9168542	tốt phải </s>
-0.9168542	binh phải </s>
-0.9168542	chốt phải </s>
-1.1088587	sĩ trước </s>
-1.585794	tượng trước </s>
-1.585794	tịnh trước </s>
-1.585794	bộ trước </s>
-1.9632369	xe trước </s>
-1.6840805	mã trước </s>
-1.9632369	pháo trước </s>
-1.7971773	tốt trước </s>
-1.7971773	binh trước </s>
-1.7971773	chốt trước </s>
-0.6316185	sĩ trái </s>
-0.9004638	tượng trái </s>
-0.9004638	tịnh trái </s>
-0.9004638	bộ trái </s>
-0.9697329	xe trái </s>
-0.9004638	mã trái </s>
-0.9697329	pháo trái </s>
-0.9168542	tốt trái </s>
-0.9168542	binh trái </s>
-0.9168542	chốt trái </s>
-0.048539937	tướng sáu </s>
-0.4853738	sĩ sáu </s>
-0.6672808	trên sáu </s>
-0.6672808	trước sáu </s>
-0.6672808	sau sáu </s>
-0.6672808	dưới sáu </s>
-0.56455505	tượng sáu </s>
-0.56455505	tịnh sáu </s>
-0.56455505	bộ sáu </s>
-0.962423	xe sáu </s>
-0.6894938	mã sáu </s>
-0.962423	pháo sáu </s>
-0.52669436	tốt sáu </s>
-0.48545182	giữa sáu </s>
-0.52669436	binh sáu </s>
-0.52669436	chốt sáu </s>
-0.000014651705	tiến sáu </s>
-0.000014651705	tấn sáu </s>
-0.000013926874	bình sáu </s>
-0.000014651705	thoái sáu </s>
-0.000014651705	lùi sáu </s>
-0.000028760263	chiếu sáu </s>
-1.1088587	sĩ sau </s>
-1.585794	tượng sau </s>
-1.585794	tịnh sau </s>
-1.585794	bộ sau </s>
-1.9632369	xe sau </s>
-1.6840805	mã sau </s>
-1.9632369	pháo sau </s>
-1.7971773	tốt sau </s>
-1.7971773	binh sau </s>
-1.7971773	chốt sau </s>
-0.05252942	tướng năm </s>
-0.56455505	sĩ năm </s>
-0.6615284	trên năm </s>
-0.6615284	trước năm </s>
-0.6615284	sau năm </s>
-0.6615284	dưới năm </s>
-0.56455505	tượng năm </s>
-0.56455505	tịnh năm </s>
-0.56455505	bộ năm </s>
-0.962423	xe năm </s>
-0.6894938	mã năm </s>
-0.962423	pháo năm </s>
-0.52669436	tốt năm </s>
-0.48545182	giữa năm </s>
-0.52669436	binh năm </s>
-0.52669436	chốt năm </s>
-0.000014004535	tiến năm </s>
-0.000014004535	tấn năm </s>
-0.000013797441	bình năm </s>
-0.000014004535	thoái năm </s>
-0.000014004535	lùi năm </s>
-0.000028760263	chiếu năm </s>
-1.1088587	sĩ dưới </s>
-1.585794	tượng dưới </s>
-1.585794	tịnh dưới </s>
-1.585794	bộ dưới </s>
-1.9632369	xe dưới </s>
-1.6840805	mã dưới </s>
-1.9632369	pháo dưới </s>
-1.7971773	tốt dưới </s>
-1.7971773	binh dưới </s>
-1.7971773	chốt dưới </s>
-1.7161926	ăn tượng </s>
-1.7161926	bắt tượng </s>
-0.000028190736	tướng bảy </s>
-0.6834728	trên bảy </s>
-0.6834728	trước bảy </s>
-0.6834728	sau bảy </s>
-0.6834728	dưới bảy </s>
-0.5644866	tượng bảy </s>
-0.5644866	tịnh bảy </s>
-0.5644866	bộ bảy </s>
-0.96234596	xe bảy </s>
-0.6894253	mã bảy </s>
-0.96234596	pháo bảy </s>
-0.5266174	tốt bảy </s>
-0.48544782	giữa bảy </s>
-0.5266174	binh bảy </s>
-0.5266174	chốt bảy </s>
-0.000014988235	tiến bảy </s>
-0.000014988235	tấn bảy </s>
-0.000013926874	bình bảy </s>
-0.000014988235	thoái bảy </s>
-0.000014988235	lùi bảy </s>
-0.000028190736	chiếu bảy </s>
-0.000028190736	tướng hai </s>
-0.65828925	trên hai </s>
-0.65828925	trước hai </s>
-0.65828925	sau hai </s>
-0.65828925	dưới hai </s>
-0.4853053	tượng hai </s>
-0.4853053	tịnh hai </s>
-0.4853053	bộ hai </s>
-0.96234596	xe hai </s>
-0.6314333	mã hai </s>
-0.96234596	pháo hai </s>
-0.5266174	tốt hai </s>
-0.48544782	giữa hai </s>
-0.5266174	binh hai </s>
-0.5266174	chốt hai </s>
-0.000016852093	tiến hai </s>
-0.000016852093	tấn hai </s>
-0.000013926874	bình hai </s>
-0.000016852093	thoái hai </s>
-0.000016852093	lùi hai </s>
-0.000028190736	chiếu hai </s>
-0.000028190736	tướng ba </s>
-0.6834728	trên ba </s>
-0.6834728	trước ba </s>
-0.6834728	sau ba </s>
-0.6834728	dưới ba </s>
-0.5644866	tượng ba </s>
-0.5644866	tịnh ba </s>
-0.5644866	bộ ba </s>
-0.96234596	xe ba </s>
-0.6894253	mã ba </s>
-0.96234596	pháo ba </s>
-0.5266174	tốt ba </s>
-0.48544782	giữa ba </s>
-0.5266174	binh ba </s>
-0.5266174	chốt ba </s>
-0.000014988235	tiến ba </s>
-0.000014988235	tấn ba </s>
-0.000013926874	bình ba </s>
-0.000014988235	thoái ba </s>
-0.000014988235	lùi ba </s>
-0.000028190736	chiếu ba </s>
-0.000028190736	tướng một </s>
-0.646795	trên một </s>
-0.646795	trước một </s>
-0.646795	sau một </s>
-0.646795	dưới một </s>
-0.4853053	tượng một </s>
-0.4853053	tịnh một </s>
-0.4853053	bộ một </s>
-0.96234596	xe một </s>
-0.5644866	mã một </s>
-0.96234596	pháo một </s>
-0.50641406	tốt một </s>
-0.46317142	giữa một </s>
-0.50641406	binh một </s>
-0.50641406	chốt một </s>
-0.0000057208367	tiến một </s>
-0.0000057208367	tấn một </s>
-0.000016437902	bình một </s>
-0.000016567335	thoái một </s>
-0.000016567335	lùi một </s>
-0.000028190736	chiếu một </s>
-0.000028190736	tướng chín </s>
-0.646795	trên chín </s>
-0.646795	trước chín </s>
-0.646795	sau chín </s>
-0.646795	dưới chín </s>
-0.4853053	tượng chín </s>
-0.4853053	tịnh chín </s>
-0.4853053	bộ chín </s>
-0.96234596	xe chín </s>
-0.5644866	mã chín </s>
-0.96234596	pháo chín </s>
-0.50641406	tốt chín </s>
-0.46317142	giữa chín </s>
-0.50641406	binh chín </s>
-0.50641406	chốt chín </s>
-0.000017369834	tiến chín </s>
-0.000017369834	tấn chín </s>
-0.000016437902	bình chín </s>
-0.000017369834	thoái chín </s>
-0.000017369834	lùi chín </s>
-0.000028190736	chiếu chín </s>
-0.000028190736	tướng tám </s>
-0.65828925	trên tám </s>
-0.65828925	trước tám </s>
-0.65828925	sau tám </s>
-0.65828925	dưới tám </s>
-0.4853053	tượng tám </s>
-0.4853053	tịnh tám </s>
-0.4853053	bộ tám </s>
-0.96234596	xe tám </s>
-0.6314333	mã tám </s>
-0.96234596	pháo tám </s>
-0.5266174	tốt tám </s>
-0.48544782	giữa tám </s>
-0.5266174	binh tám </s>
-0.5266174	chốt tám </s>
-0.000016852093	tiến tám </s>
-0.000016852093	tấn tám </s>
-0.000013926874	bình tám </s>
-0.000016852093	thoái tám </s>
-0.000016852093	lùi tám </s>
-0.000028190736	chiếu tám </s>
-1.7161926	ăn tịnh </s>
-1.7161926	bắt tịnh </s>
-1.7161926	ăn bộ </s>
-1.7161926	bắt bộ </s>
-1.716198	ăn xe </s>
-1.716198	bắt xe </s>
-1.7161926	ăn mã </s>
-1.7161926	bắt mã </s>
-1.716198	ăn pháo </s>
-1.716198	bắt pháo </s>
-2.0171833	ăn tốt </s>
-2.0171833	bắt tốt </s>
-1.4961516	trên giữa </s>
-0.6158687	phải giữa </s>
-1.4961516	trước giữa </s>
-0.6158687	trái giữa </s>
-1.4961516	sau giữa </s>
-1.4961516	dưới giữa </s>
-1.4961023	tốt giữa </s>
-1.4961023	binh giữa </s>
-1.4961023	chốt giữa </s>
-2.0171833	ăn binh </s>
-2.0171833	bắt binh </s>
-2.0171833	ăn chốt </s>
-2.0171833	bắt chốt </s>
-0.000056435078	qua sông </s>
-0.000056435078	sang sông </s>
-0.000030494743	chấp nhận </s>
-0.000030494743	xác nhận </s>
-0.000030494743	đồng ý </s>
-0.000030494743	ô kê </s>
-0.000030494743	hủy bỏ </s>
-0.000030494743	từ chối </s>
-0.000030494743	đầu hàng </s>
-0.000030494743	xin hòa </s>
-0.000030494743	đổi phe </s>
-0.000030494743	chơi lại </s>
-0.000030494743	đi lại </s>
-1.301398	sĩ chiếu </s>
-1.3010668	trên chiếu </s>
-1.3010356	bốn chiếu </s>
-1.3010668	phải chiếu </s>
-1.3010668	trước chiếu </s>
-1.3010668	trái chiếu </s>
-1.3010356	sáu chiếu </s>
-1.3010668	sau chiếu </s>
-1.3010356	năm chiếu </s>
-1.3010668	dưới chiếu </s>
-1.301398	tượng chiếu </s>
-1.3010361	bảy chiếu </s>
-1.3010361	hai chiếu </s>
-1.3010361	ba chiếu </s>
-1.3010361	một chiếu </s>
-1.3010361	chín chiếu </s>
-1.3010361	tám chiếu </s>
-1.301398	tịnh chiếu </s>
-1.301398	bộ chiếu </s>
-1.301398	xe chiếu </s>
-1.301398	mã chiếu </s>
-1.301398	pháo chiếu </s>
-1.301398	tốt chiếu </s>
-1.3010476	giữa chiếu </s>
-1.301398	binh chiếu </s>
-1.301398	chốt chiếu </s>
-0.3011503	sĩ chiếu tướng
-0.30104202	trên chiếu tướng
-0.30103186	bốn chiếu tướng
-0.30104202	phải chiếu tướng
-0.30104202	trước chiếu tướng
-0.30104202	trái chiếu tướng
-0.30103186	sáu chiếu tướng
-0.30104202	sau chiếu tướng
-0.30103186	năm chiếu tướng
-0.30104202	dưới chiếu tướng
-0.3011503	tượng chiếu tướng
-0.30103198	bảy chiếu tướng
-0.30103198	hai chiếu tướng
-0.30103198	ba chiếu tướng
-0.30103198	một chiếu tướng
-0.30103198	chín chiếu tướng
-0.30103198	tám chiếu tướng
-0.3011503	tịnh chiếu tướng
-0.3011503	bộ chiếu tướng
-0.3011503	xe chiếu tướng
-0.3011503	mã chiếu tướng
-0.3011503	pháo chiếu tướng
-0.3011503	tốt chiếu tướng
-0.30103573	giữa chiếu tướng
-0.3011503	binh chiếu tướng
-0.3011503	chốt chiếu tướng
-1.1800921	<s> tướng ăn
-2.0228338	<s> sĩ ăn
-1.4154276	sĩ trên ăn
-1.8921899	tượng trên ăn
-1.8921899	tịnh trên ăn
-1.8921899	bộ trên ăn
-2.269604	xe trên ăn
-1.9904764	mã trên ăn
-2.269604	pháo trên ăn
-2.103573	tốt trên ăn
-2.103573	binh trên ăn
-2.103573	chốt trên ăn
-1.5257936	tướng bốn ăn
-0.7919545	sĩ bốn ăn
-0.97367275	trên bốn ăn
-0.97367275	trước bốn ăn
-0.97367275	sau bốn ăn
-0.97367275	dưới bốn ăn
-0.87113583	tượng bốn ăn
-0.87113583	tịnh bốn ăn
-0.87113583	bộ bốn ăn
-1.2689656	xe bốn ăn
-0.99607456	mã bốn ăn
-1.2689656	pháo bốn ăn
-0.8332371	tốt bốn ăn
-0.7918433	giữa bốn ăn
-0.8332371	binh bốn ăn
-0.8332371	chốt bốn ăn
-0.5502194	soái bốn ăn
-0.93805814	sĩ phải ăn
-1.2069035	tượng phải ăn
-1.2069035	tịnh phải ăn
-1.2069035	bộ phải ăn
-1.2761166	xe phải ăn
-1.2069035	mã phải ăn
-1.2761166	pháo phải ăn
-1.2232939	tốt phải ăn
-1.2232939	binh phải ăn
-1.2232939	chốt phải ăn
-1.4154276	sĩ trước ăn
-1.8921899	tượng trước ăn
-1.8921899	tịnh trước ăn
-1.8921899	bộ trước ăn
-2.269604	xe trước ăn
-1.9904764	mã trước ăn
-2.269604	pháo trước ăn
-2.103573	tốt trước ăn
-2.103573	binh trước ăn
-2.103573	chốt trước ăn
-0.93805814	sĩ trái ăn
-1.2069035	tượng trái ăn
-1.2069035	tịnh trái ăn
-1.2069035	bộ trái ăn
-1.2761166	xe trái ăn
-1.2069035	mã trái ăn
-1.2761166	pháo trái ăn
-1.2232939	tốt trái ăn
-1.2232939	binh trái ăn
-1.2232939	chốt trái ăn
-1.5257936	tướng sáu ăn
-0.7919545	sĩ sáu ăn
-0.97367275	trên sáu ăn
-0.97367275	trước sáu ăn
-0.97367275	sau sáu ăn
-0.97367275	dưới sáu ăn
-0.87113583	tượng sáu ăn
-0.87113583	tịnh sáu ăn
-0.87113583	bộ sáu ăn
-1.2689656	xe sáu ăn
-0.99607456	mã sáu ăn
-1.2689656	pháo sáu ăn
-0.8332371	tốt sáu ăn
-0.7918433	giữa sáu ăn
-0.8332371	binh sáu ăn
-0.8332371	chốt sáu ăn
-0.5502194	soái sáu ăn
-1.4154276	sĩ sau ăn
-1.8921899	tượng sau ăn
-1.8921899	tịnh sau ăn
-1.8921899	bộ sau ăn
-2.269604	xe sau ăn
-1.9904764	mã sau ăn
-2.269604	pháo sau ăn
-2.103573	tốt sau ăn
-2.103573	binh sau ăn
-2.103573	chốt sau ăn
-1.5297831	tướng năm ăn
-0.87113583	sĩ năm ăn
-0.9679204	trên năm ăn
-0.9679204	trước năm ăn
-0.9679204	sau năm ăn
-0.9679204	dưới năm ăn
-0.87113583	tượng năm ăn
-0.87113583	tịnh năm ăn
-0.87113583	bộ năm ăn
-1.2689656	xe năm ăn
-0.99607456	mã năm ăn
-1.2689656	pháo năm ăn
-0.8332371	tốt năm ăn
-0.7918433	giữa năm ăn
-0.8332371	binh năm ăn
-0.8332371	chốt năm ăn
-0.58655286	soái năm ăn
-1.4154276	sĩ dưới ăn
-1.8921899	tượng dưới ăn
-1.8921899	tịnh dưới ăn
-1.8921899	bộ dưới ăn
-2.269604	xe dưới ăn
-1.9904764	mã dưới ăn
-2.269604	pháo dưới ăn
-2.103573	tốt dưới ăn
-2.103573	binh dưới ăn
-2.103573	chốt dưới ăn
-2.5013435	<s> tượng ăn
-0.9898799	trên bảy ăn
-0.9898799	trước bảy ăn
-0.9898799	sau bảy ăn
-0.9898799	dưới bảy ăn
-0.87117374	tượng bảy ăn
-0.87117374	tịnh bảy ăn
-0.87117374	bộ bảy ăn
-1.2690083	xe bảy ăn
-0.99611247	mã bảy ăn
-1.2690083	pháo bảy ăn
-0.8332797	tốt bảy ăn
-0.7918455	giữa bảy ăn
-0.8332797	binh bảy ăn
-0.8332797	chốt bảy ăn
-0.9646964	trên hai ăn
-0.9646964	trước hai ăn
-0.9646964	sau hai ăn
-0.9646964	dưới hai ăn
-0.7919924	tượng hai ăn
-0.7919924	tịnh hai ăn
-0.7919924	bộ hai ăn
-1.2690083	xe hai ăn
-0.93812054	mã hai ăn
-1.2690083	pháo hai ăn
-0.8332797	tốt hai ăn
-0.7918455	giữa hai ăn
-0.8332797	binh hai ăn
-0.8332797	chốt hai ăn
-0.9898799	trên ba ăn
-0.9898799	trước ba ăn
-0.9898799	sau ba ăn
-0.9898799	dưới ba ăn
-0.87117374	tượng ba ăn
-0.87117374	tịnh ba ăn
-0.87117374	bộ ba ăn
-1.2690083	xe ba ăn
-0.99611247	mã ba ăn
-1.2690083	pháo ba ăn
-0.8332797	tốt ba ăn
-0.7918455	giữa ba ăn
-0.8332797	binh ba ăn
-0.8332797	chốt ba ăn
-0.9532021	trên một ăn
-0.9532021	trước một ăn
-0.9532021	sau một ăn
-0.9532021	dưới một ăn
-0.7919924	tượng một ăn
-0.7919924	tịnh một ăn
-0.7919924	bộ một ăn
-1.2690083	xe một ăn
-0.87117374	mã một ăn
-1.2690083	pháo một ăn
-0.8130763	tốt một ăn
-0.7695691	giữa một ăn
-0.8130763	binh một ăn
-0.8130763	chốt một ăn
-0.9532021	trên chín ăn
-0.9532021	trước chín ăn
-0.9532021	sau chín ăn
-0.9532021	dưới chín ăn
-0.7919924	tượng chín ăn
-0.7919924	tịnh chín ăn
-0.7919924	bộ chín ăn
-1.2690083	xe chín ăn
-0.87117374	mã chín ăn
-1.2690083	pháo chín ăn
-0.8130763	tốt chín ăn
-0.7695691	giữa chín ăn
-0.8130763	binh chín ăn
-0.8130763	chốt chín ăn
-0.9646964	trên tám ăn
-0.9646964	trước tám ăn
-0.9646964	sau tám ăn
-0.9646964	dưới tám ăn
-0.7919924	tượng tám ăn
-0.7919924	tịnh tám ăn
-0.7919924	bộ tám ăn
-1.2690083	xe tám ăn
-0.93812054	mã tám ăn
-1.2690083	pháo tám ăn
-0.8332797	tốt tám ăn
-0.7918455	giữa tám ăn
-0.8332797	binh tám ăn
-0.8332797	chốt tám ăn
-2.5013435	<s> tịnh ăn
-2.5013435	<s> bộ ăn
-2.9361727	<s> xe ăn
-2.619451	<s> mã ăn
-2.9361727	<s> pháo ăn
-2.66597	<s> tốt ăn
-1.8025191	trên giữa ăn
-0.9223362	phải giữa ăn
-1.8025191	trước giữa ăn
-0.9223362	trái giữa ăn
-1.8025191	sau giữa ăn
-1.8025191	dưới giữa ăn
-1.8024545	tốt giữa ăn
-1.8024545	binh giữa ăn
-1.8024545	chốt giữa ăn
-2.66597	<s> binh ăn
-2.66597	<s> chốt ăn
-1.1798396	<s> soái ăn
-1.4693276	tướng ăn sĩ
-1.4693276	sĩ ăn sĩ
-1.4679613	trên ăn sĩ
-1.4678324	bốn ăn sĩ
-1.4679613	phải ăn sĩ
-1.4679613	trước ăn sĩ
-1.4679613	trái ăn sĩ
-1.4678324	sáu ăn sĩ
-1.4679613	sau ăn sĩ
-1.4678324	năm ăn sĩ
-1.4679613	dưới ăn sĩ
-1.4693276	tượng ăn sĩ
-1.4678351	bảy ăn sĩ
-1.4678351	hai ăn sĩ
-1.4678351	ba ăn sĩ
-1.4678351	một ăn sĩ
-1.4678351	chín ăn sĩ
-1.4678351	tám ăn sĩ
-1.4693276	tịnh ăn sĩ
-1.4693276	bộ ăn sĩ
-1.4693276	xe ăn sĩ
-1.4693276	mã ăn sĩ
-1.4693276	pháo ăn sĩ
-1.4693276	tốt ăn sĩ
-1.467882	giữa ăn sĩ
-1.4693276	binh ăn sĩ
-1.4693276	chốt ăn sĩ
-1.4693276	soái ăn sĩ
-1.4693276	tướng bắt sĩ
-1.4693276	sĩ bắt sĩ
-1.4679613	trên bắt sĩ
-1.4678324	bốn bắt sĩ
-1.4679613	phải bắt sĩ
-1.4679613	trước bắt sĩ
-1.4679613	trái bắt sĩ
-1.4678324	sáu bắt sĩ
-1.4679613	sau bắt sĩ
-1.4678324	năm bắt sĩ
-1.4679613	dưới bắt sĩ
-1.4693276	tượng bắt sĩ
-1.4678351	bảy bắt sĩ
-1.4678351	hai bắt sĩ
-1.4678351	ba bắt sĩ
-1.4678351	một bắt sĩ
-1.4678351	chín bắt sĩ
-1.4678351	tám bắt sĩ
-1.4693276	tịnh bắt sĩ
-1.4693276	bộ bắt sĩ
-1.4693276	xe bắt sĩ
-1.4693276	mã bắt sĩ
-1.4693276	pháo bắt sĩ
-1.4693276	tốt bắt sĩ
-1.467882	giữa bắt sĩ
-1.4693276	binh bắt sĩ
-1.4693276	chốt bắt sĩ
-1.4693276	soái bắt sĩ
-1.1800921	<s> tướng bắt
-2.0228338	<s> sĩ bắt
-1.4154276	sĩ trên bắt
-1.8921899	tượng trên bắt
-1.8921899	tịnh trên bắt
-1.8921899	bộ trên bắt
-2.269604	xe trên bắt
-1.9904764	mã trên bắt
-2.269604	pháo trên bắt
-2.103573	tốt trên bắt
-2.103573	binh trên bắt
-2.103573	chốt trên bắt
-1.5257936	tướng bốn bắt
-0.7919545	sĩ bốn bắt
-0.97367275	trên bốn bắt
-0.97367275	trước bốn bắt
-0.97367275	sau bốn bắt
-0.97367275	dưới bốn bắt
-0.87113583	tượng bốn bắt
-0.87113583	tịnh bốn bắt
-0.87113583	bộ bốn bắt
-1.2689656	xe bốn bắt
-0.99607456	mã bốn bắt
-1.2689656	pháo bốn bắt
-0.8332371	tốt bốn bắt
-0.7918433	giữa bốn bắt
-0.8332371	binh bốn bắt
-0.8332371	chốt bốn bắt
-0.5502194	soái bốn bắt
-0.93805814	sĩ phải bắt
-1.2069035	tượng phải bắt
-1.2069035	tịnh phải bắt
-1.2069035	bộ phải bắt
-1.2761166	xe phải bắt
-1.2069035	mã phải bắt
-1.2761166	pháo phải bắt
-1.2232939	tốt phải bắt
-1.2232939	binh phải bắt
-1.2232939	chốt phải bắt
-1.4154276	sĩ trước bắt
-1.8921899	tượng trước bắt
-1.8921899	tịnh trước bắt
-1.8921899	bộ trước bắt
-2.269604	xe trước bắt
-1.9904764	mã trước bắt
-2.269604	pháo trước bắt
-2.103573	tốt trước bắt
-2.103573	binh trước bắt
-2.103573	chốt trước bắt
-0.93805814	sĩ trái bắt
-1.2069035	tượng trái bắt
-1.2069035	tịnh trái bắt
-1.2069035	bộ trái bắt
-1.2761166	xe trái bắt
-1.2069035	mã trái bắt
-1.2761166	pháo trái bắt
-1.2232939	tốt trái bắt
-1.2232939	binh trái bắt
-1.2232939	chốt trái bắt
-1.5257936	tướng sáu bắt
-0.7919545	sĩ sáu bắt
-0.97367275	trên sáu bắt
-0.97367275	trước sáu bắt
-0.97367275	sau sáu bắt
-0.97367275	dưới sáu bắt
-0.87113583	tượng sáu bắt
-0.87113583	tịnh sáu bắt
-0.87113583	bộ sáu bắt
-1.2689656	xe sáu bắt
-0.99607456	mã sáu bắt
-1.2689656	pháo sáu bắt
-0.8332371	tốt sáu bắt
-0.7918433	giữa sáu bắt
-0.8332371	binh sáu bắt
-0.8332371	chốt sáu bắt
-0.5502194	soái sáu bắt
-1.4154276	sĩ sau bắt
-1.8921899	tượng sau bắt
-1.8921899	tịnh sau bắt
-1.8921899	bộ sau bắt
-2.269604	xe sau bắt
-1.9904764	mã sau bắt
-2.269604	pháo sau bắt
-2.103573	tốt sau bắt
-2.103573	binh sau bắt
-2.103573	chốt sau bắt
-1.5297831	tướng năm bắt
-0.87113583	sĩ năm bắt
-0.9679204	trên năm bắt
-0.9679204	trước năm bắt
-0.9679204	sau năm bắt
-0.9679204	dưới năm bắt
-0.87113583	tượng năm bắt
-0.87113583	tịnh năm bắt
-0.87113583	bộ năm bắt
-1.2689656	xe năm bắt
-0.99607456	mã năm bắt
-1.2689656	pháo năm bắt
-0.8332371	tốt năm bắt
-0.7918433	giữa năm bắt
-0.8332371	binh năm bắt
-0.8332371	chốt năm bắt
-0.58655286	soái năm bắt
-1.4154276	sĩ dưới bắt
-1.8921899	tượng dưới bắt
-1.8921899	tịnh dưới bắt
-1.8921899	bộ dưới bắt
-2.269604	xe dưới bắt
-1.9904764	mã dưới bắt
-2.269604	pháo dưới bắt
-2.103573	tốt dưới bắt
-2.103573	binh dưới bắt
-2.103573	chốt dưới bắt
-2.5013435	<s> tượng bắt
-0.9898799	trên bảy bắt
-0.9898799	trước bảy bắt
-0.9898799	sau bảy bắt
-0.9898799	dưới bảy bắt
-0.87117374	tượng bảy bắt
-0.87117374	tịnh bảy bắt
-0.87117374	bộ bảy bắt
-1.2690083	xe bảy bắt
-0.99611247	mã bảy bắt
-1.2690083	pháo bảy bắt
-0.8332797	tốt bảy bắt
-0.7918455	giữa bảy bắt
-0.8332797	binh bảy bắt
-0.8332797	chốt bảy bắt
-0.9646964	trên hai bắt
-0.9646964	trước hai bắt
-0.9646964	sau hai bắt
-0.9646964	dưới hai bắt
-0.7919924	tượng hai bắt
-0.7919924	tịnh hai bắt
-0.7919924	bộ hai bắt
-1.2690083	xe hai bắt
-0.93812054	mã hai bắt
-1.2690083	pháo hai bắt
-0.8332797	tốt hai bắt
-0.7918455	giữa hai bắt
-0.8332797	binh hai bắt
-0.8332797	chốt hai bắt
-0.9898799	trên ba bắt
-0.9898799	trước ba bắt
-0.9898799	sau ba bắt
-0.9898799	dưới ba bắt
-0.87117374	tượng ba bắt
-0.87117374	tịnh ba bắt
-0.87117374	bộ ba bắt
-1.2690083	xe ba bắt
-0.99611247	mã ba bắt
-1.2690083	pháo ba bắt
-0.8332797	tốt ba bắt
-0.7918455	giữa ba bắt
-0.8332797	binh ba bắt
-0.8332797	chốt ba bắt
-0.9532021	trên một bắt
-0.9532021	trước một bắt
-0.9532021	sau một bắt
-0.9532021	dưới một bắt
-0.7919924	tượng một bắt
-0.7919924	tịnh một bắt
-0.7919924	bộ một bắt
-1.2690083	xe một bắt
-0.87117374	mã một bắt
-1.2690083	pháo một bắt
-0.8130763	tốt một bắt
-0.7695691	giữa một bắt
-0.8130763	binh một bắt
-0.8130763	chốt một bắt
-0.9532021	trên chín bắt
-0.9532021	trước chín bắt
-0.9532021	sau chín bắt
-0.9532021	dưới chín bắt
-0.7919924	tượng chín bắt
-0.7919924	tịnh chín bắt
-0.7919924	bộ chín bắt
-1.2690083	xe chín bắt
-0.87117374	mã chín bắt
-1.2690083	pháo chín bắt
-0.8130763	tốt chín bắt
-0.7695691	giữa chín bắt
-0.8130763	binh chín bắt
-0.8130763	chốt chín bắt
-0.9646964	trên tám bắt
-0.9646964	trước tám bắt
-0.9646964	sau tám bắt
-0.9646964	dưới tám bắt
-0.7919924	tượng tám bắt
-0.7919924	tịnh tám bắt
-0.7919924	bộ tám bắt
-1.2690083	xe tám bắt
-0.93812054	mã tám bắt
-1.2690083	pháo tám bắt
-0.8332797	tốt tám bắt
-0.7918455	giữa tám bắt
-0.8332797	binh tám bắt
-0.8332797	chốt tám bắt
-2.5013435	<s> tịnh bắt
-2.5013435	<s> bộ bắt
-2.9361727	<s> xe bắt
-2.619451	<s> mã bắt
-2.9361727	<s> pháo bắt
-2.66597	<s> tốt bắt
-1.8025191	trên giữa bắt
-0.9223362	phải giữa bắt
-1.8025191	trước giữa bắt
-0.9223362	trái giữa bắt
-1.8025191	sau giữa bắt
-1.8025191	dưới giữa bắt
-1.8024545	tốt giữa bắt
-1.8024545	binh giữa bắt
-1.8024545	chốt giữa bắt
-2.66597	<s> binh bắt
-2.66597	<s> chốt bắt
-1.1798396	<s> soái bắt
-0.76941526	<s> sĩ trên
-0.7404875	ăn sĩ trên
-0.7404875	bắt sĩ trên
-0.739358	<s> tượng trên
-0.71604556	ăn tượng trên
-0.71604556	bắt tượng trên
-0.739358	<s> tịnh trên
-0.71604556	ăn tịnh trên
-0.71604556	bắt tịnh trên
-0.739358	<s> bộ trên
-0.71604556	ăn bộ trên
-0.71604556	bắt bộ trên
-0.71628505	<s> xe trên
-0.7160464	ăn xe trên
-0.7160464	bắt xe trên
-0.72939503	<s> mã trên
-0.71604556	ăn mã trên
-0.71604556	bắt mã trên
-0.71628505	<s> pháo trên
-0.7160464	ăn pháo trên
-0.7160464	bắt pháo trên
-0.72897243	<s> tốt trên
-0.7160235	ăn tốt trên
-0.7160235	bắt tốt trên
-0.72897243	<s> binh trên
-0.7160235	ăn binh trên
-0.7160235	bắt binh trên
-0.72897243	<s> chốt trên
-0.7160235	ăn chốt trên
-0.7160235	bắt chốt trên
-0.62967825	<s> tướng bốn
-1.0000103	chiếu tướng bốn
-1.402593	<s> sĩ bốn
-1.3428116	ăn sĩ bốn
-1.3428116	bắt sĩ bốn
-0.62330854	sĩ trên bốn
-1.0211916	tượng trên bốn
-1.0211916	tịnh trên bốn
-1.0211916	bộ trên bốn
-1.000721	xe trên bốn
-0.9945388	mã trên bốn
-1.000721	pháo trên bốn
-1.3117566	tốt trên bốn
-1.3117566	binh trên bốn
-1.3117566	chốt trên bốn
-0.62330854	sĩ trước bốn
-1.0211916	tượng trước bốn
-1.0211916	tịnh trước bốn
-1.0211916	bộ trước bốn
-1.000721	xe trước bốn
-0.9945388	mã trước bốn
-1.000721	pháo trước bốn
-1.3117566	tốt trước bốn
-1.3117566	binh trước bốn
-1.3117566	chốt trước bốn
-0.62330854	sĩ sau bốn
-1.0211916	tượng sau bốn
-1.0211916	tịnh sau bốn
-1.0211916	bộ sau bốn
-1.000721	xe sau bốn
-0.9945388	mã sau bốn
-1.000721	pháo sau bốn
-1.3117566	tốt sau bốn
-1.3117566	binh sau bốn
-1.3117566	chốt sau bốn
-0.62330854	sĩ dưới bốn
-1.0211916	tượng dưới bốn
-1.0211916	tịnh dưới bốn
-1.0211916	bộ dưới bốn
-1.000721	xe dưới bốn
-0.9945388	mã dưới bốn
-1.000721	pháo dưới bốn
-1.3117566	tốt dưới bốn
-1.3117566	binh dưới bốn
-1.3117566	chốt dưới bốn
-1.7682152	<s> tượng bốn
-1.716249	ăn tượng bốn
-1.716249	bắt tượng bốn
-1.7682152	<s> tịnh bốn
-1.716249	ăn tịnh bốn
-1.716249	bắt tịnh bốn
-1.7682152	<s> bộ bốn
-1.716249	ăn bộ bốn
-1.716249	bắt bộ bốn
-1.7170912	<s> xe bốn
-1.7162571	ăn xe bốn
-1.7162571	bắt xe bốn
-1.7225105	<s> mã bốn
-1.716249	ăn mã bốn
-1.716249	bắt mã bốn
-1.7170912	<s> pháo bốn
-1.7162571	ăn pháo bốn
-1.7162571	bắt pháo bốn
-1.9856727	<s> tốt bốn
-2.0172489	ăn tốt bốn
-2.0172489	bắt tốt bốn
-1.0107338	trên giữa bốn
-1.0107338	trước giữa bốn
-1.0107338	sau giữa bốn
-1.0107338	dưới giữa bốn
-1.0107539	tốt giữa bốn
-1.0107539	binh giữa bốn
-1.0107539	chốt giữa bốn
-1.9856727	<s> binh bốn
-2.0172489	ăn binh bốn
-2.0172489	bắt binh bốn
-1.9856727	<s> chốt bốn
-2.0172489	ăn chốt bốn
-2.0172489	bắt chốt bốn
-0.62967825	<s> soái bốn
-0.4793467	sĩ tiến bốn
-0.9330739	trên tiến bốn
-1.2479877	bốn tiến bốn
-0.9330739	phải tiến bốn
-0.9330739	trước tiến bốn
-0.9330739	trái tiến bốn
-0.77085686	sáu tiến bốn
-0.9330739	sau tiến bốn
-1.0364383	năm tiến bốn
-0.9330739	dưới tiến bốn
-0.9543874	tượng tiến bốn
-1.2304634	bảy tiến bốn
-0.69897485	hai tiến bốn
-1.0543673	ba tiến bốn
-1.1613826	một tiến bốn
-1.1613826	chín tiến bốn
-1.1761057	tám tiến bốn
-0.9543874	tịnh tiến bốn
-0.9543874	bộ tiến bốn
-0.9543874	xe tiến bốn
-0.9543874	mã tiến bốn
-0.9543874	pháo tiến bốn
-0.4793467	sĩ tấn bốn
-0.9330739	trên tấn bốn
-1.2479877	bốn tấn bốn
-0.9330739	phải tấn bốn
-0.9330739	trước tấn bốn
-0.9330739	trái tấn bốn
-0.77085686	sáu tấn bốn
-0.9330739	sau tấn bốn
-1.0364383	năm tấn bốn
-0.9330739	dưới tấn bốn
-0.9543874	tượng tấn bốn
-1.2304634	bảy tấn bốn
-0.69897485	hai tấn bốn
-1.0543673	ba tấn bốn
-1.1613826	một tấn bốn
-1.1613826	chín tấn bốn
-1.1761057	tám tấn bốn
-0.9543874	tịnh tấn bốn
-0.9543874	bộ tấn bốn
-0.9543874	xe tấn bốn
-0.9543874	mã tấn bốn
-0.9543874	pháo tấn bốn
-0.47927943	tướng bình bốn
-0.9542313	trên bình bốn
-0.9542313	phải bình bốn
-0.9542313	trước bình bốn
-0.9542313	trái bình bốn
-1.1523196	sáu bình bốn
-0.9542313	sau bình bốn
-0.5351206	năm bình bốn
-0.9542313	dưới bình bốn
-1.1461593	bảy bình bốn
-1.1461593	hai bình bốn
-0.54407585	ba bình bốn
-1.0414239	một bình bốn
-1.0414239	chín bình bốn
-1.1461593	tám bình bốn
-0.9541866	xe bình bốn
-0.9541866	pháo bình bốn
-0.9541866	tốt bình bốn
-0.95423985	giữa bình bốn
-0.9541866	binh bình bốn
-0.9541866	chốt bình bốn
-0.47927943	soái bình bốn
-0.4793252	sĩ thoái bốn
-0.9107883	trên thoái bốn
-1.1673255	bốn thoái bốn
-0.9107883	phải thoái bốn
-0.9107883	trước thoái bốn
-0.9107883	trái thoái bốn
-0.6901988	sáu thoái bốn
-0.9107883	sau thoái bốn
-0.9542476	năm thoái bốn
-0.9107883	dưới thoái bốn
-0.95432323	tượng thoái bốn
-1.1461362	bảy thoái bốn
-0.6020627	hai thoái bốn
-0.97004217	ba thoái bốn
-1.0607059	một thoái bốn
-1.0607059	chín thoái bốn
-1.0791893	tám thoái bốn
-0.95432323	tịnh thoái bốn
-0.95432323	bộ thoái bốn
-0.95432323	xe thoái bốn
-0.95432323	mã thoái bốn
-0.95432323	pháo thoái bốn
-0.4793252	sĩ lùi bốn
-0.9107883	trên lùi bốn
-1.1673255	bốn lùi bốn
-0.9107883	phải lùi bốn
-0.9107883	trước lùi bốn
-0.9107883	trái lùi bốn
-0.6901988	sáu lùi bốn
-0.9107883	sau lùi bốn
-0.9542476	năm lùi bốn
-0.9107883	dưới lùi bốn
-0.95432323	tượng lùi bốn
-1.1461362	bảy lùi bốn
-0.6020627	hai lùi bốn
-0.97004217	ba lùi bốn
-1.0607059	một lùi bốn
-1.0607059	chín lùi bốn
-1.0791893	tám lùi bốn
-0.95432323	tịnh lùi bốn
-0.95432323	bộ lùi bốn
-0.95432323	xe lùi bốn
-0.95432323	mã lùi bốn
-0.95432323	pháo lùi bốn
-1.3017511	sĩ chiếu bốn
-1.301102	trên chiếu bốn
-1.3010411	bốn chiếu bốn
-1.301102	phải chiếu bốn
-1.301102	trước chiếu bốn
-1.301102	trái chiếu bốn
-1.3010411	sáu chiếu bốn
-1.301102	sau chiếu bốn
-1.3010411	năm chiếu bốn
-1.301102	dưới chiếu bốn
-1.3017511	tượng chiếu bốn
-1.301042	bảy chiếu bốn
-1.301042	hai chiếu bốn
-1.301042	ba chiếu bốn
-1.301042	một chiếu bốn
-1.301042	chín chiếu bốn
-1.301042	tám chiếu bốn
-1.3017511	tịnh chiếu bốn
-1.3017511	bộ chiếu bốn
-1.3017511	xe chiếu bốn
-1.3017511	mã chiếu bốn
-1.3017511	pháo chiếu bốn
-1.3017511	tốt chiếu bốn
-1.3010644	giữa chiếu bốn
-1.3017511	binh chiếu bốn
-1.3017511	chốt chiếu bốn
-1.2000331	<s> sĩ phải
-1.3429222	ăn sĩ phải
-1.3429222	bắt sĩ phải
-1.3526515	<s> tượng phải
-1.7164259	ăn tượng phải
-1.7164259	bắt tượng phải
-1.3526515	<s> tịnh phải
-1.7164259	ăn tịnh phải
-1.7164259	bắt tịnh phải
-1.3526515	<s> bộ phải
-1.7164259	ăn bộ phải
-1.7164259	bắt bộ phải
-1.7090578	<s> xe phải
-1.716434	ăn xe phải
-1.716434	bắt xe phải
-1.4707589	<s> mã phải
-1.7164259	ăn mã phải
-1.7164259	bắt mã phải
-1.7090578	<s> pháo phải
-1.716434	ăn pháo phải
-1.716434	bắt pháo phải
-1.5629678	<s> tốt phải
-1.7162051	ăn tốt phải
-1.7162051	bắt tốt phải
-1.5629678	<s> binh phải
-1.7162051	ăn binh phải
-1.7162051	bắt binh phải
-1.5629678	<s> chốt phải
-1.7162051	ăn chốt phải
-1.7162051	bắt chốt phải
-0.76941526	<s> sĩ trước
-0.7404875	ăn sĩ trước
-0.7404875	bắt sĩ trước
-0.739358	<s> tượng trước
-0.71604556	ăn tượng trước
-0.71604556	bắt tượng trước
-0.739358	<s> tịnh trước
-0.71604556	ăn tịnh trước
-0.71604556	bắt tịnh trước
-0.739358	<s> bộ trước
-0.71604556	ăn bộ trước
-0.71604556	bắt bộ trước
-0.71628505	<s> xe trước
-0.7160464	ăn xe trước
-0.7160464	bắt xe trước
-0.72939503	<s> mã trước
-0.71604556	ăn mã trước
-0.71604556	bắt mã trước
-0.71628505	<s> pháo trước
-0.7160464	ăn pháo trước
-0.7160464	bắt pháo trước
-0.72897243	<s> tốt trước
-0.7160235	ăn tốt trước
-0.7160235	bắt tốt trước
-0.72897243	<s> binh trước
-0.7160235	ăn binh trước
-0.7160235	bắt binh trước
-0.72897243	<s> chốt trước
-0.7160235	ăn chốt trước
-0.7160235	bắt chốt trước
-1.2000331	<s> sĩ trái
-1.3429222	ăn sĩ trái
-1.3429222	bắt sĩ trái
-1.3526515	<s> tượng trái
-1.7164259	ăn tượng trái
-1.7164259	bắt tượng trái
-1.3526515	<s> tịnh trái
-1.7164259	ăn tịnh trái
-1.7164259	bắt tịnh trái
-1.3526515	<s> bộ trái
-1.7164259	ăn bộ trái
-1.7164259	bắt bộ trái
-1.7090578	<s> xe trái
-1.716434	ăn xe trái
-1.716434	bắt xe trái
-1.4707589	<s> mã trái
-1.7164259	ăn mã trái
-1.7164259	bắt mã trái
-1.7090578	<s> pháo trái
-1.716434	ăn pháo trái
-1.716434	bắt pháo trái
-1.5629678	<s> tốt trái
-1.7162051	ăn tốt trái
-1.7162051	bắt tốt trái
-1.5629678	<s> binh trái
-1.7162051	ăn binh trái
-1.7162051	bắt binh trái
-1.5629678	<s> chốt trái
-1.7162051	ăn chốt trái
-1.7162051	bắt chốt trái
-0.62967825	<s> tướng sáu
-1.0000103	chiếu tướng sáu
-1.402593	<s> sĩ sáu
-1.3428116	ăn sĩ sáu
-1.3428116	bắt sĩ sáu
-0.62330854	sĩ trên sáu
-1.0211916	tượng trên sáu
-1.0211916	tịnh trên sáu
-1.0211916	bộ trên sáu
-1.000721	xe trên sáu
-0.9945388	mã trên sáu
-1.000721	pháo trên sáu
-1.3117566	tốt trên sáu
-1.3117566	binh trên sáu
-1.3117566	chốt trên sáu
-0.62330854	sĩ trước sáu
-1.0211916	tượng trước sáu
-1.0211916	tịnh trước sáu
-1.0211916	bộ trước sáu
-1.000721	xe trước sáu
-0.9945388	mã trước sáu
-1.000721	pháo trước sáu
-1.3117566	tốt trước sáu
-1.3117566	binh trước sáu
-1.3117566	chốt trước sáu
-0.62330854	sĩ sau sáu
-1.0211916	tượng sau sáu
-1.0211916	tịnh sau sáu
-1.0211916	bộ sau sáu
-1.000721	xe sau sáu
-0.9945388	mã sau sáu
-1.000721	pháo sau sáu
-1.3117566	tốt sau sáu
-1.3117566	binh sau sáu
-1.3117566	chốt sau sáu
-0.62330854	sĩ dưới sáu
-1.0211916	tượng dưới sáu
-1.0211916	tịnh dưới sáu
-1.0211916	bộ dưới sáu
-1.000721	xe dưới sáu
-0.9945388	mã dưới sáu
-1.000721	pháo dưới sáu
-1.3117566	tốt dưới sáu
-1.3117566	binh dưới sáu
-1.3117566	chốt dưới sáu
-1.7682152	<s> tượng sáu
-1.716249	ăn tượng sáu
-1.716249	bắt tượng sáu
-1.7682152	<s> tịnh sáu
-1.716249	ăn tịnh sáu
-1.716249	bắt tịnh sáu
-1.7682152	<s> bộ sáu
-1.716249	ăn bộ sáu
-1.716249	bắt bộ sáu
-1.7170912	<s> xe sáu
-1.7162571	ăn xe sáu
-1.7162571	bắt xe sáu
-1.7225105	<s> mã sáu
-1.716249	ăn mã sáu
-1.716249	bắt mã sáu
-1.7170912	<s> pháo sáu
-1.7162571	ăn pháo sáu
-1.7162571	bắt pháo sáu
-1.9856727	<s> tốt sáu
-2.0172489	ăn tốt sáu
-2.0172489	bắt tốt sáu
-1.0107338	trên giữa sáu
-1.0107338	trước giữa sáu
-1.0107338	sau giữa sáu
-1.0107338	dưới giữa sáu
-1.0107539	tốt giữa sáu
-1.0107539	binh giữa sáu
-1.0107539	chốt giữa sáu
-1.9856727	<s> binh sáu
-2.0172489	ăn binh sáu
-2.0172489	bắt binh sáu
-1.9856727	<s> chốt sáu
-2.0172489	ăn chốt sáu
-2.0172489	bắt chốt sáu
-0.62967825	<s> soái sáu
-0.4793467	sĩ tiến sáu
-0.9330739	trên tiến sáu
-0.77085686	bốn tiến sáu
-0.9330739	phải tiến sáu
-0.9330739	trước tiến sáu
-0.9330739	trái tiến sáu
-1.2479877	sáu tiến sáu
-0.9330739	sau tiến sáu
-1.0364383	năm tiến sáu
-0.9330739	dưới tiến sáu
-0.9543874	tượng tiến sáu
-1.0543673	bảy tiến sáu
-1.1761057	hai tiến sáu
-1.2304634	ba tiến sáu
-1.1613826	một tiến sáu
-1.1613826	chín tiến sáu
-0.69897485	tám tiến sáu
-0.9543874	tịnh tiến sáu
-0.9543874	bộ tiến sáu
-0.9543874	xe tiến sáu
-0.9543874	mã tiến sáu
-0.9543874	pháo tiến sáu
-0.4793467	sĩ tấn sáu
-0.9330739	trên tấn sáu
-0.77085686	bốn tấn sáu
-0.9330739	phải tấn sáu
-0.9330739	trước tấn sáu
-0.9330739	trái tấn sáu
-1.2479877	sáu tấn sáu
-0.9330739	sau tấn sáu
-1.0364383	năm tấn sáu
-0.9330739	dưới tấn sáu
-0.9543874	tượng tấn sáu
-1.0543673	bảy tấn sáu
-1.1761057	hai tấn sáu
-1.2304634	ba tấn sáu
-1.1613826	một tấn sáu
-1.1613826	chín tấn sáu
-0.69897485	tám tấn sáu
-0.9543874	tịnh tấn sáu
-0.9543874	bộ tấn sáu
-0.9543874	xe tấn sáu
-0.9543874	mã tấn sáu
-0.9543874	pháo tấn sáu
-0.47927943	tướng bình sáu
-0.9542313	trên bình sáu
-1.1523196	bốn bình sáu
-0.9542313	phải bình sáu
-0.9542313	trước bình sáu
-0.9542313	trái bình sáu
-0.9542313	sau bình sáu
-0.5351206	năm bình sáu
-0.9542313	dưới bình sáu
-0.54407585	bảy bình sáu
-1.1461593	hai bình sáu
-1.1461593	ba bình sáu
-1.0414239	một bình sáu
-1.0414239	chín bình sáu
-1.1461593	tám bình sáu
-0.9541866	xe bình sáu
-0.9541866	pháo bình sáu
-0.9541866	tốt bình sáu
-0.95423985	giữa bình sáu
-0.9541866	binh bình sáu
-0.9541866	chốt bình sáu
-0.47927943	soái bình sáu
-0.4793252	sĩ thoái sáu
-0.9107883	trên thoái sáu
-0.6901988	bốn thoái sáu
-0.9107883	phải thoái sáu
-0.9107883	trước thoái sáu
-0.9107883	trái thoái sáu
-1.1673255	sáu thoái sáu
-0.9107883	sau thoái sáu
-0.9542476	năm thoái sáu
-0.9107883	dưới thoái sáu
-0.95432323	tượng thoái sáu
-0.97004217	bảy thoái sáu
-1.0791893	hai thoái sáu
-1.1461362	ba thoái sáu
-1.0607059	một thoái sáu
-1.0607059	chín thoái sáu
-0.6020627	tám thoái sáu
-0.95432323	tịnh thoái sáu
-0.95432323	bộ thoái sáu
-0.95432323	xe thoái sáu
-0.95432323	mã thoái sáu
-0.95432323	pháo thoái sáu
-0.4793252	sĩ lùi sáu
-0.9107883	trên lùi sáu
-0.6901988	bốn lùi sáu
-0.9107883	phải lùi sáu
-0.9107883	trước lùi sáu
-0.9107883	trái lùi sáu
-1.1673255	sáu lùi sáu
-0.9107883	sau lùi sáu
-0.9542476	năm lùi sáu
-0.9107883	dưới lùi sáu
-0.95432323	tượng lùi sáu
-0.97004217	bảy lùi sáu
-1.0791893	hai lùi sáu
-1.1461362	ba lùi sáu
-1.0607059	một lùi sáu
-1.0607059	chín lùi sáu
-0.6020627	tám lùi sáu
-0.95432323	tịnh lùi sáu
-0.95432323	bộ lùi sáu
-0.95432323	xe lùi sáu
-0.95432323	mã lùi sáu
-0.95432323	pháo lùi sáu
-1.3017511	sĩ chiếu sáu
-1.301102	trên chiếu sáu
-1.3010411	bốn chiếu sáu
-1.301102	phải chiếu sáu
-1.301102	trước chiếu sáu
-1.301102	trái chiếu sáu
-1.3010411	sáu chiếu sáu
-1.301102	sau chiếu sáu
-1.3010411	năm chiếu sáu
-1.301102	dưới chiếu sáu
-1.3017511	tượng chiếu sáu
-1.301042	bảy chiếu sáu
-1.301042	hai chiếu sáu
-1.301042	ba chiếu sáu
-1.301042	một chiếu sáu
-1.301042	chín chiếu sáu
-1.301042	tám chiếu sáu
-1.3017511	tịnh chiếu sáu
-1.3017511	bộ chiếu sáu
-1.3017511	xe chiếu sáu
-1.3017511	mã chiếu sáu
-1.3017511	pháo chiếu sáu
-1.3017511	tốt chiếu sáu
-1.3010644	giữa chiếu sáu
-1.3017511	binh chiếu sáu
-1.3017511	chốt chiếu sáu
-0.76941526	<s> sĩ sau
-0.7404875	ăn sĩ sau
-0.7404875	bắt sĩ sau
-0.739358	<s> tượng sau
-0.71604556	ăn tượng sau
-0.71604556	bắt tượng sau
-0.739358	<s> tịnh sau
-0.71604556	ăn tịnh sau
-0.71604556	bắt tịnh sau
-0.739358	<s> bộ sau
-0.71604556	ăn bộ sau
-0.71604556	bắt bộ sau
-0.71628505	<s> xe sau
-0.7160464	ăn xe sau
-0.7160464	bắt xe sau
-0.72939503	<s> mã sau
-0.71604556	ăn mã sau
-0.71604556	bắt mã sau
-0.71628505	<s> pháo sau
-0.7160464	ăn pháo sau
-0.7160464	bắt pháo sau
-0.72897243	<s> tốt sau
-0.7160235	ăn tốt sau
-0.7160235	bắt tốt sau
-0.72897243	<s> binh sau
-0.7160235	ăn binh sau
-0.7160235	bắt binh sau
-0.72897243	<s> chốt sau
-0.7160235	ăn chốt sau
-0.7160235	bắt chốt sau
-0.5933379	<s> tướng năm
-1.0000103	chiếu tướng năm
-1.2895925	<s> sĩ năm
-1.3428116	ăn sĩ năm
-1.3428116	bắt sĩ năm
-0.7202334	sĩ trên năm
-1.0211916	tượng trên năm
-1.0211916	tịnh trên năm
-1.0211916	bộ trên năm
-1.000721	xe trên năm
-0.9945388	mã trên năm
-1.000721	pháo trên năm
-1.3117566	tốt trên năm
-1.3117566	binh trên năm
-1.3117566	chốt trên năm
-0.7202334	sĩ trước năm
-1.0211916	tượng trước năm
-1.0211916	tịnh trước năm
-1.0211916	bộ trước năm
-1.000721	xe trước năm
-0.9945388	mã trước năm
-1.000721	pháo trước năm
-1.3117566	tốt trước năm
-1.3117566	binh trước năm
-1.3117566	chốt trước năm
-0.7202334	sĩ sau năm
-1.0211916	tượng sau năm
-1.0211916	tịnh sau năm
-1.0211916	bộ sau năm
-1.000721	xe sau năm
-0.9945388	mã sau năm
-1.000721	pháo sau năm
-1.3117566	tốt sau năm
-1.3117566	binh sau năm
-1.3117566	chốt sau năm
-0.7202334	sĩ dưới năm
-1.0211916	tượng dưới năm
-1.0211916	tịnh dưới năm
-1.0211916	bộ dưới năm
-1.000721	xe dưới năm
-0.9945388	mã dưới năm
-1.000721	pháo dưới năm
-1.3117566	tốt dưới năm
-1.3117566	binh dưới năm
-1.3117566	chốt dưới năm
-1.7682152	<s> tượng năm
-1.716249	ăn tượng năm
-1.716249	bắt tượng năm
-1.7682152	<s> tịnh năm
-1.716249	ăn tịnh năm
-1.716249	bắt tịnh năm
-1.7682152	<s> bộ năm
-1.716249	ăn bộ năm
-1.716249	bắt bộ năm
-1.7170912	<s> xe năm
-1.7162571	ăn xe năm
-1.7162571	bắt xe năm
-1.7225105	<s> mã năm
-1.716249	ăn mã năm
-1.716249	bắt mã năm
-1.7170912	<s> pháo năm
-1.7162571	ăn pháo năm
-1.7162571	bắt pháo năm
-1.9856727	<s> tốt năm
-2.0172489	ăn tốt năm
-2.0172489	bắt tốt năm
-1.0107338	trên giữa năm
-1.0107338	trước giữa năm
-1.0107338	sau giữa năm
-1.0107338	dưới giữa năm
-1.0107539	tốt giữa năm
-1.0107539	binh giữa năm
-1.0107539	chốt giữa năm
-1.9856727	<s> binh năm
-2.0172489	ăn binh năm
-2.0172489	bắt binh năm
-1.9856727	<s> chốt năm
-2.0172489	ăn chốt năm
-2.0172489	bắt chốt năm
-0.5933379	<s> soái năm
-0.4793467	sĩ tiến năm
-0.9330739	trên tiến năm
-0.9469505	bốn tiến năm
-0.9330739	phải tiến năm
-0.9330739	trước tiến năm
-0.9330739	trái tiến năm
-0.9469505	sáu tiến năm
-0.9330739	sau tiến năm
-1.2405638	năm tiến năm
-0.9330739	dưới tiến năm
-0.9543874	tượng tiến năm
-0.7533325	bảy tiến năm
-1.1761057	hai tiến năm
-0.7533325	ba tiến năm
-1.1613826	một tiến năm
-1.1613826	chín tiến năm
-1.1761057	tám tiến năm
-0.9543874	tịnh tiến năm
-0.9543874	bộ tiến năm
-0.9543874	xe tiến năm
-0.9543874	mã tiến năm
-0.9543874	pháo tiến năm
-0.4793467	sĩ tấn năm
-0.9330739	trên tấn năm
-0.9469505	bốn tấn năm
-0.9330739	phải tấn năm
-0.9330739	trước tấn năm
-0.9330739	trái tấn năm
-0.9469505	sáu tấn năm
-0.9330739	sau tấn năm
-1.2405638	năm tấn năm
-0.9330739	dưới tấn năm
-0.9543874	tượng tấn năm
-0.7533325	bảy tấn năm
-1.1761057	hai tấn năm
-0.7533325	ba tấn năm
-1.1613826	một tấn năm
-1.1613826	chín tấn năm
-1.1761057	tám tấn năm
-0.9543874	tịnh tấn năm
-0.9543874	bộ tấn năm
-0.9543874	xe tấn năm
-0.9543874	mã tấn năm
-0.9543874	pháo tấn năm
-0.47927943	tướng bình năm
-0.9542313	trên bình năm
-0.52904654	bốn bình năm
-0.9542313	phải bình năm
-0.9542313	trước bình năm
-0.9542313	trái bình năm
-0.52904654	sáu bình năm
-0.9542313	sau bình năm
-0.9542313	dưới bình năm
-1.1461593	bảy bình năm
-1.1461593	hai bình năm
-1.1461593	ba bình năm
-1.0414239	một bình năm
-1.0414239	chín bình năm
-1.1461593	tám bình năm
-0.9541866	xe bình năm
-0.9541866	pháo bình năm
-0.9541866	tốt bình năm
-0.95423985	giữa bình năm
-0.9541866	binh bình năm
-0.9541866	chốt bình năm
-0.47927943	soái bình năm
-0.4793252	sĩ thoái năm
-0.9107883	trên thoái năm
-0.8662914	bốn thoái năm
-0.9107883	phải thoái năm
-0.9107883	trước thoái năm
-0.9107883	trái thoái năm
-0.8662914	sáu thoái năm
-0.9107883	sau thoái năm
-1.1583706	năm thoái năm
-0.9107883	dưới thoái năm
-0.95432323	tượng thoái năm
-0.66900945	bảy thoái năm
-1.0791893	hai thoái năm
-0.66900945	ba thoái năm
-1.0607059	một thoái năm
-1.0607059	chín thoái năm
-1.0791893	tám thoái năm
-0.95432323	tịnh thoái năm
-0.95432323	bộ thoái năm
-0.95432323	xe thoái năm
-0.95432323	mã thoái năm
-0.95432323	pháo thoái năm
-0.4793252	sĩ lùi năm
-0.9107883	trên lùi năm
-0.8662914	bốn lùi năm
-0.9107883	phải lùi năm
-0.9107883	trước lùi năm
-0.9107883	trái lùi năm
-0.8662914	sáu lùi năm
-0.9107883	sau lùi năm
-1.1583706	năm lùi năm
-0.9107883	dưới lùi năm
-0.95432323	tượng lùi năm
-0.66900945	bảy lùi năm
-1.0791893	hai lùi năm
-0.66900945	ba lùi năm
-1.0607059	một lùi năm
-1.0607059	chín lùi năm
-1.0791893	tám lùi năm
-0.95432323	tịnh lùi năm
-0.95432323	bộ lùi năm
-0.95432323	xe lùi năm
-0.95432323	mã lùi năm
-0.95432323	pháo lùi năm
-1.3017511	sĩ chiếu năm
-1.301102	trên chiếu năm
-1.3010411	bốn chiếu năm
-1.301102	phải chiếu năm
-1.301102	trước chiếu năm
-1.301102	trái chiếu năm
-1.3010411	sáu chiếu năm
-1.301102	sau chiếu năm
-1.3010411	năm chiếu năm
-1.301102	dưới chiếu năm
-1.3017511	tượng chiếu năm
-1.301042	bảy chiếu năm
-1.301042	hai chiếu năm
-1.301042	ba chiếu năm
-1.301042	một chiếu năm
-1.301042	chín chiếu năm
-1.301042	tám chiếu năm
-1.3017511	tịnh chiếu năm
-1.3017511	bộ chiếu năm
-1.3017511	xe chiếu năm
-1.3017511	mã chiếu năm
-1.3017511	pháo chiếu năm
-1.3017511	tốt chiếu năm
-1.3010644	giữa chiếu năm
-1.3017511	binh chiếu năm
-1.3017511	chốt chiếu năm
-0.76941526	<s> sĩ dưới
-0.7404875	ăn sĩ dưới
-0.7404875	bắt sĩ dưới
-0.739358	<s> tượng dưới
-0.71604556	ăn tượng dưới
-0.71604556	bắt tượng dưới
-0.739358	<s> tịnh dưới
-0.71604556	ăn tịnh dưới
-0.71604556	bắt tịnh dưới
-0.739358	<s> bộ dưới
-0.71604556	ăn bộ dưới
-0.71604556	bắt bộ dưới
-0.71628505	<s> xe dưới
-0.7160464	ăn xe dưới
-0.7160464	bắt xe dưới
-0.72939503	<s> mã dưới
-0.71604556	ăn mã dưới
-0.71604556	bắt mã dưới
-0.71628505	<s> pháo dưới
-0.7160464	ăn pháo dưới
-0.7160464	bắt pháo dưới
-0.72897243	<s> tốt dưới
-0.7160235	ăn tốt dưới
-0.7160235	bắt tốt dưới
-0.72897243	<s> binh dưới
-0.7160235	ăn binh dưới
-0.7160235	bắt binh dưới
-0.72897243	<s> chốt dưới
-0.7160235	ăn chốt dưới
-0.7160235	bắt chốt dưới
-1.0948707	tướng ăn tượng
-1.0948707	sĩ ăn tượng
-1.0942932	trên ăn tượng
-1.0942388	bốn ăn tượng
-1.0942932	phải ăn tượng
-1.0942932	trước ăn tượng
-1.0942932	trái ăn tượng
-1.0942388	sáu ăn tượng
-1.0942932	sau ăn tượng
-1.0942388	năm ăn tượng
-1.0942932	dưới ăn tượng
-1.0948707	tượng ăn tượng
-1.0942398	bảy ăn tượng
-1.0942398	hai ăn tượng
-1.0942398	ba ăn tượng
-1.0942398	một ăn tượng
-1.0942398	chín ăn tượng
-1.0942398	tám ăn tượng
-1.0948707	tịnh ăn tượng
-1.0948707	bộ ăn tượng
-1.0948707	xe ăn tượng
-1.0948707	mã ăn tượng
-1.0948707	pháo ăn tượng
-1.0948707	tốt ăn tượng
-1.0942597	giữa ăn tượng
-1.0948707	binh ăn tượng
-1.0948707	chốt ăn tượng
-1.0948707	soái ăn tượng
-1.0948707	tướng bắt tượng
-1.0948707	sĩ bắt tượng
-1.0942932	trên bắt tượng
-1.0942388	bốn bắt tượng
-1.0942932	phải bắt tượng
-1.0942932	trước bắt tượng
-1.0942932	trái bắt tượng
-1.0942388	sáu bắt tượng
-1.0942932	sau bắt tượng
-1.0942388	năm bắt tượng
-1.0942932	dưới bắt tượng
-1.0948707	tượng bắt tượng
-1.0942398	bảy bắt tượng
-1.0942398	hai bắt tượng
-1.0942398	ba bắt tượng
-1.0942398	một bắt tượng
-1.0942398	chín bắt tượng
-1.0942398	tám bắt tượng
-1.0948707	tịnh bắt tượng
-1.0948707	bộ bắt tượng
-1.0948707	xe bắt tượng
-1.0948707	mã bắt tượng
-1.0948707	pháo bắt tượng
-1.0948707	tốt bắt tượng
-1.0942597	giữa bắt tượng
-1.0948707	binh bắt tượng
-1.0948707	chốt bắt tượng
-1.0948707	soái bắt tượng
-1.0000193	chiếu tướng bảy
-1.0212069	tượng trên bảy
-1.0212069	tịnh trên bảy
-1.0212069	bộ trên bảy
-1.0007275	xe trên bảy
-0.9945502	mã trên bảy
-1.0007275	pháo trên bảy
-1.3117748	tốt trên bảy
-1.3117748	binh trên bảy
-1.3117748	chốt trên bảy
-1.0212069	tượng trước bảy
-1.0212069	tịnh trước bảy
-1.0212069	bộ trước bảy
-1.0007275	xe trước bảy
-0.9945502	mã trước bảy
-1.0007275	pháo trước bảy
-1.3117748	tốt trước bảy
-1.3117748	binh trước bảy
-1.3117748	chốt trước bảy
-1.0212069	tượng sau bảy
-1.0212069	tịnh sau bảy
-1.0212069	bộ sau bảy
-1.0007275	xe sau bảy
-0.9945502	mã sau bảy
-1.0007275	pháo sau bảy
-1.3117748	tốt sau bảy
-1.3117748	binh sau bảy
-1.3117748	chốt sau bảy
-1.0212069	tượng dưới bảy
-1.0212069	tịnh dưới bảy
-1.0212069	bộ dưới bảy
-1.0007275	xe dưới bảy
-0.9945502	mã dưới bảy
-1.0007275	pháo dưới bảy
-1.3117748	tốt dưới bảy
-1.3117748	binh dưới bảy
-1.3117748	chốt dưới bảy
-1.7682221	<s> tượng bảy
-1.7162763	ăn tượng bảy
-1.7162763	bắt tượng bảy
-1.7682221	<s> tịnh bảy
-1.7162763	ăn tịnh bảy
-1.7162763	bắt tịnh bảy
-1.7682221	<s> bộ bảy
-1.7162763	ăn bộ bảy
-1.7162763	bắt bộ bảy
-1.7170936	<s> xe bảy
-1.7162843	ăn xe bảy
-1.7162843	bắt xe bảy
-1.7225152	<s> mã bảy
-1.7162763	ăn mã bảy
-1.7162763	bắt mã bảy
-1.7170936	<s> pháo bảy
-1.7162843	ăn pháo bảy
-1.7162843	bắt pháo bảy
-1.9856806	<s> tốt bảy
-2.0172777	ăn tốt bảy
-2.0172777	bắt tốt bảy
-1.0107344	trên giữa bảy
-1.0107344	trước giữa bảy
-1.0107344	sau giữa bảy
-1.0107344	dưới giữa bảy
-1.0107555	tốt giữa bảy
-1.0107555	binh giữa bảy
-1.0107555	chốt giữa bảy
-1.9856806	<s> binh bảy
-2.0172777	ăn binh bảy
-2.0172777	bắt binh bảy
-1.9856806	<s> chốt bảy
-2.0172777	ăn chốt bảy
-2.0172777	bắt chốt bảy
-1.00005	trên tiến bảy
-1.2480032	bốn tiến bảy
-1.00005	phải tiến bảy
-1.00005	trước tiến bảy
-1.00005	trái tiến bảy
-1.0719019	sáu tiến bảy
-1.00005	sau tiến bảy
-0.763438	năm tiến bảy
-1.00005	dưới tiến bảy
-0.9545424	tượng tiến bảy
-1.2304789	bảy tiến bảy
-1.1761212	hai tiến bảy
-1.2304789	ba tiến bảy
-1.1613979	một tiến bảy
-0.68425673	chín tiến bảy
-1.00002	tám tiến bảy
-0.9545424	tịnh tiến bảy
-0.9545424	bộ tiến bảy
-0.9545424	xe tiến bảy
-0.9545424	mã tiến bảy
-0.9545424	pháo tiến bảy
-1.00005	trên tấn bảy
-1.2480032	bốn tấn bảy
-1.00005	phải tấn bảy
-1.00005	trước tấn bảy
-1.00005	trái tấn bảy
-1.0719019	sáu tấn bảy
-1.00005	sau tấn bảy
-0.763438	năm tấn bảy
-1.00005	dưới tấn bảy
-0.9545424	tượng tấn bảy
-1.2304789	bảy tấn bảy
-1.1761212	hai tấn bảy
-1.2304789	ba tấn bảy
-1.1613979	một tấn bảy
-0.68425673	chín tấn bảy
-1.00002	tám tấn bảy
-0.9545424	tịnh tấn bảy
-0.9545424	bộ tấn bảy
-0.9545424	xe tấn bảy
-0.9545424	mã tấn bảy
-0.9545424	pháo tấn bảy
-0.9542958	trên bình bảy
-1.1523482	bốn bình bảy
-0.9542958	phải bình bảy
-0.9542958	trước bình bảy
-0.9542958	trái bình bảy
-0.5502434	sáu bình bảy
-0.9542958	sau bình bảy
-1.1584225	năm bình bảy
-0.9542958	dưới bình bảy
-1.146188	hai bình bảy
-1.146188	ba bình bảy
-1.0414526	một bình bảy
-1.0414526	chín bình bảy
-0.544083	tám bình bảy
-0.95450914	xe bình bảy
-0.95450914	pháo bình bảy
-0.95450914	tốt bình bảy
-0.9542552	giữa bình bảy
-0.95450914	binh bình bảy
-0.95450914	chốt bình bảy
-0.9777634	trên thoái bảy
-1.1673412	bốn thoái bảy
-0.9777634	phải thoái bảy
-0.9777634	trước thoái bảy
-0.9777634	trái thoái bảy
-0.991242	sáu thoái bảy
-0.9777634	sau thoái bảy
-0.6812492	năm thoái bảy
-0.9777634	dưới thoái bảy
-0.95448136	tượng thoái bảy
-1.1461519	bảy thoái bảy
-1.0792052	hai thoái bảy
-1.1461519	ba thoái bảy
-1.0607218	một thoái bảy
-0.58358455	chín thoái bảy
-0.9031059	tám thoái bảy
-0.95448136	tịnh thoái bảy
-0.95448136	bộ thoái bảy
-0.95448136	xe thoái bảy
-0.95448136	mã thoái bảy
-0.95448136	pháo thoái bảy
-0.9777634	trên lùi bảy
-1.1673412	bốn lùi bảy
-0.9777634	phải lùi bảy
-0.9777634	trước lùi bảy
-0.9777634	trái lùi bảy
-0.991242	sáu lùi bảy
-0.9777634	sau lùi bảy
-0.6812492	năm lùi bảy
-0.9777634	dưới lùi bảy
-0.95448136	tượng lùi bảy
-1.1461519	bảy lùi bảy
-1.0792052	hai lùi bảy
-1.1461519	ba lùi bảy
-1.0607218	một lùi bảy
-0.58358455	chín lùi bảy
-0.9031059	tám lùi bảy
-0.95448136	tịnh lùi bảy
-0.95448136	bộ lùi bảy
-0.95448136	xe lùi bảy
-0.95448136	mã lùi bảy
-0.95448136	pháo lùi bảy
-1.3017983	sĩ chiếu bảy
-1.3011067	trên chiếu bảy
-1.3010418	bốn chiếu bảy
-1.3011067	phải chiếu bảy
-1.3011067	trước chiếu bảy
-1.3011067	trái chiếu bảy
-1.3010418	sáu chiếu bảy
-1.3011067	sau chiếu bảy
-1.3010418	năm chiếu bảy
-1.3011067	dưới chiếu bảy
-1.3017983	tượng chiếu bảy
-1.3010428	bảy chiếu bảy
-1.3010428	hai chiếu bảy
-1.3010428	ba chiếu bảy
-1.3010428	một chiếu bảy
-1.3010428	chín chiếu bảy
-1.3010428	tám chiếu bảy
-1.3017983	tịnh chiếu bảy
-1.3017983	bộ chiếu bảy
-1.3017983	xe chiếu bảy
-1.3017983	mã chiếu bảy
-1.3017983	pháo chiếu bảy
-1.3017983	tốt chiếu bảy
-1.3010665	giữa chiếu bảy
-1.3017983	binh chiếu bảy
-1.3017983	chốt chiếu bảy
-1.0000193	chiếu tướng hai
-1.1003916	tượng trên hai
-1.1003916	tịnh trên hai
-1.1003916	bộ trên hai
-1.0007275	xe trên hai
-1.0525441	mã trên hai
-1.0007275	pháo trên hai
-1.3117748	tốt trên hai
-1.3117748	binh trên hai
-1.3117748	chốt trên hai
-1.1003916	tượng trước hai
-1.1003916	tịnh trước hai
-1.1003916	bộ trước hai
-1.0007275	xe trước hai
-1.0525441	mã trước hai
-1.0007275	pháo trước hai
-1.3117748	tốt trước hai
-1.3117748	binh trước hai
-1.3117748	chốt trước hai
-1.1003916	tượng sau hai
-1.1003916	tịnh sau hai
-1.1003916	bộ sau hai
-1.0007275	xe sau hai
-1.0525441	mã sau hai
-1.0007275	pháo sau hai
-1.3117748	tốt sau hai
-1.3117748	binh sau hai
-1.3117748	chốt sau hai
-1.1003916	tượng dưới hai
-1.1003916	tịnh dưới hai
-1.1003916	bộ dưới hai
-1.0007275	xe dưới hai
-1.0525441	mã dưới hai
-1.0007275	pháo dưới hai
-1.3117748	tốt dưới hai
-1.3117748	binh dưới hai
-1.3117748	chốt dưới hai
-1.8812213	<s> tượng hai
-1.7162763	ăn tượng hai
-1.7162763	bắt tượng hai
-1.8812213	<s> tịnh hai
-1.7162763	ăn tịnh hai
-1.7162763	bắt tịnh hai
-1.8812213	<s> bộ hai
-1.7162763	ăn bộ hai
-1.7162763	bắt bộ hai
-1.7170936	<s> xe hai
-1.7162843	ăn xe hai
-1.7162843	bắt xe hai
-1.796744	<s> mã hai
-1.7162763	ăn mã hai
-1.7162763	bắt mã hai
-1.7170936	<s> pháo hai
-1.7162843	ăn pháo hai
-1.7162843	bắt pháo hai
-1.9856806	<s> tốt hai
-2.0172777	ăn tốt hai
-2.0172777	bắt tốt hai
-1.0107344	trên giữa hai
-1.0107344	trước giữa hai
-1.0107344	sau giữa hai
-1.0107344	dưới giữa hai
-1.0107555	tốt giữa hai
-1.0107555	binh giữa hai
-1.0107555	chốt giữa hai
-1.9856806	<s> binh hai
-2.0172777	ăn binh hai
-2.0172777	bắt binh hai
-1.9856806	<s> chốt hai
-2.0172777	ăn chốt hai
-2.0172777	bắt chốt hai
-1.00005	trên tiến hai
-0.770862	bốn tiến hai
-1.00005	phải tiến hai
-1.00005	trước tiến hai
-1.00005	trái tiến hai
-1.2480032	sáu tiến hai
-1.00005	sau tiến hai
-1.2405792	năm tiến hai
-1.00005	dưới tiến hai
-0.9545424	tượng tiến hai
-1.2304789	bảy tiến hai
-1.1761212	hai tiến hai
-1.0543777	ba tiến hai
-0.9852967	một tiến hai
-1.1613979	chín tiến hai
-1.1761212	tám tiến hai
-0.9545424	tịnh tiến hai
-0.9545424	bộ tiến hai
-0.9545424	xe tiến hai
-0.9545424	mã tiến hai
-0.9545424	pháo tiến hai
-1.00005	trên tấn hai
-0.770862	bốn tấn hai
-1.00005	phải tấn hai
-1.00005	trước tấn hai
-1.00005	trái tấn hai
-1.2480032	sáu tấn hai
-1.00005	sau tấn hai
-1.2405792	năm tấn hai
-1.00005	dưới tấn hai
-0.9545424	tượng tấn hai
-1.2304789	bảy tấn hai
-1.1761212	hai tấn hai
-1.0543777	ba tấn hai
-0.9852967	một tấn hai
-1.1613979	chín tấn hai
-1.1761212	tám tấn hai
-0.9545424	tịnh tấn hai
-0.9545424	bộ tấn hai
-0.9545424	xe tấn hai
-0.9545424	mã tấn hai
-0.9545424	pháo tấn hai
-0.9542958	trên bình hai
-1.1523482	bốn bình hai
-0.9542958	phải bình hai
-0.9542958	trước bình hai
-0.9542958	trái bình hai
-1.1523482	sáu bình hai
-0.9542958	sau bình hai
-1.1584225	năm bình hai
-0.9542958	dưới bình hai
-1.146188	bảy bình hai
-0.544083	ba bình hai
-0.43934768	một bình hai
-1.0414526	chín bình hai
-1.146188	tám bình hai
-0.95450914	xe bình hai
-0.95450914	pháo bình hai
-0.95450914	tốt bình hai
-0.9542552	giữa bình hai
-0.95450914	binh bình hai
-0.95450914	chốt bình hai
-0.9777634	trên thoái hai
-0.690204	bốn thoái hai
-0.9777634	phải thoái hai
-0.9777634	trước thoái hai
-0.9777634	trái thoái hai
-1.1673412	sáu thoái hai
-0.9777634	sau thoái hai
-1.1583863	năm thoái hai
-0.9777634	dưới thoái hai
-0.95448136	tượng thoái hai
-1.1461519	bảy thoái hai
-1.0792052	hai thoái hai
-0.9700527	ba thoái hai
-0.8846226	một thoái hai
-1.0607218	chín thoái hai
-1.0792052	tám thoái hai
-0.95448136	tịnh thoái hai
-0.95448136	bộ thoái hai
-0.95448136	xe thoái hai
-0.95448136	mã thoái hai
-0.95448136	pháo thoái hai
-0.9777634	trên lùi hai
-0.690204	bốn lùi hai
-0.9777634	phải lùi hai
-0.9777634	trước lùi hai
-0.9777634	trái lùi hai
-1.1673412	sáu lùi hai
-0.9777634	sau lùi hai
-1.1583863	năm lùi hai
-0.9777634	dưới lùi hai
-0.95448136	tượng lùi hai
-1.1461519	bảy lùi hai
-1.0792052	hai lùi hai
-0.9700527	ba lùi hai
-0.8846226	một lùi hai
-1.0607218	chín lùi hai
-1.0792052	tám lùi hai
-0.95448136	tịnh lùi hai
-0.95448136	bộ lùi hai
-0.95448136	xe lùi hai
-0.95448136	mã lùi hai
-0.95448136	pháo lùi hai
-1.3017983	sĩ chiếu hai
-1.3011067	trên chiếu hai
-1.3010418	bốn chiếu hai
-1.3011067	phải chiếu hai
-1.3011067	trước chiếu hai
-1.3011067	trái chiếu hai
-1.3010418	sáu chiếu hai
-1.3011067	sau chiếu hai
-1.3010418	năm chiếu hai
-1.3011067	dưới chiếu hai
-1.3017983	tượng chiếu hai
-1.3010428	bảy chiếu hai
-1.3010428	hai chiếu hai
-1.3010428	ba chiếu hai
-1.3010428	một chiếu hai
-1.3010428	chín chiếu hai
-1.3010428	tám chiếu hai
-1.3017983	tịnh chiếu hai
-1.3017983	bộ chiếu hai
-1.3017983	xe chiếu hai
-1.3017983	mã chiếu hai
-1.3017983	pháo chiếu hai
-1.3017983	tốt chiếu hai
-1.3010665	giữa chiếu hai
-1.3017983	binh chiếu hai
-1.3017983	chốt chiếu hai
-1.0000193	chiếu tướng ba
-1.0212069	tượng trên ba
-1.0212069	tịnh trên ba
-1.0212069	bộ trên ba
-1.0007275	xe trên ba
-0.9945502	mã trên ba
-1.0007275	pháo trên ba
-1.3117748	tốt trên ba
-1.3117748	binh trên ba
-1.3117748	chốt trên ba
-1.0212069	tượng trước ba
-1.0212069	tịnh trước ba
-1.0212069	bộ trước ba
-1.0007275	xe trước ba
-0.9945502	mã trước ba
-1.0007275	pháo trước ba
-1.3117748	tốt trước ba
-1.3117748	binh trước ba
-1.3117748	chốt trước ba
-1.0212069	tượng sau ba
-1.0212069	tịnh sau ba
-1.0212069	bộ sau ba
-1.0007275	xe sau ba
-0.9945502	mã sau ba
-1.0007275	pháo sau ba
-1.3117748	tốt sau ba
-1.3117748	binh sau ba
-1.3117748	chốt sau ba
-1.0212069	tượng dưới ba
-1.0212069	tịnh dưới ba
-1.0212069	bộ dưới ba
-1.0007275	xe dưới ba
-0.9945502	mã dưới ba
-1.0007275	pháo dưới ba
-1.3117748	tốt dưới ba
-1.3117748	binh dưới ba
-1.3117748	chốt dưới ba
-1.7682221	<s> tượng ba
-1.7162763	ăn tượng ba
-1.7162763	bắt tượng ba
-1.7682221	<s> tịnh ba
-1.7162763	ăn tịnh ba
-1.7162763	bắt tịnh ba
-1.7682221	<s> bộ ba
-1.7162763	ăn bộ ba
-1.7162763	bắt bộ ba
-1.7170936	<s> xe ba
-1.7162843	ăn xe ba
-1.7162843	bắt xe ba
-1.7225152	<s> mã ba
-1.7162763	ăn mã ba
-1.7162763	bắt mã ba
-1.7170936	<s> pháo ba
-1.7162843	ăn pháo ba
-1.7162843	bắt pháo ba
-1.9856806	<s> tốt ba
-2.0172777	ăn tốt ba
-2.0172777	bắt tốt ba
-1.0107344	trên giữa ba
-1.0107344	trước giữa ba
-1.0107344	sau giữa ba
-1.0107344	dưới giữa ba
-1.0107555	tốt giữa ba
-1.0107555	binh giữa ba
-1.0107555	chốt giữa ba
-1.9856806	<s> binh ba
-2.0172777	ăn binh ba
-2.0172777	bắt binh ba
-1.9856806	<s> chốt ba
-2.0172777	ăn chốt ba
-2.0172777	bắt chốt ba
-1.00005	trên tiến ba
-1.0719019	bốn tiến ba
-1.00005	phải tiến ba
-1.00005	trước tiến ba
-1.00005	trái tiến ba
-1.2480032	sáu tiến ba
-1.00005	sau tiến ba
-0.763438	năm tiến ba
-1.00005	dưới tiến ba
-0.9545424	tượng tiến ba
-1.2304789	bảy tiến ba
-1.00002	hai tiến ba
-1.2304789	ba tiến ba
-0.68425673	một tiến ba
-1.1613979	chín tiến ba
-1.1761212	tám tiến ba
-0.9545424	tịnh tiến ba
-0.9545424	bộ tiến ba
-0.9545424	xe tiến ba
-0.9545424	mã tiến ba
-0.9545424	pháo tiến ba
-1.00005	trên tấn ba
-1.0719019	bốn tấn ba
-1.00005	phải tấn ba
-1.00005	trước tấn ba
-1.00005	trái tấn ba
-1.2480032	sáu tấn ba
-1.00005	sau tấn ba
-0.763438	năm tấn ba
-1.00005	dưới tấn ba
-0.9545424	tượng tấn ba
-1.2304789	bảy tấn ba
-1.00002	hai tấn ba
-1.2304789	ba tấn ba
-0.68425673	một tấn ba
-1.1613979	chín tấn ba
-1.1761212	tám tấn ba
-0.9545424	tịnh tấn ba
-0.9545424	bộ tấn ba
-0.9545424	xe tấn ba
-0.9545424	mã tấn ba
-0.9545424	pháo tấn ba
-0.9542958	trên bình ba
-0.5502434	bốn bình ba
-0.9542958	phải bình ba
-0.9542958	trước bình ba
-0.9542958	trái bình ba
-1.1523482	sáu bình ba
-0.9542958	sau bình ba
-1.1584225	năm bình ba
-0.9542958	dưới bình ba
-1.146188	bảy bình ba
-0.544083	hai bình ba
-1.0414526	một bình ba
-1.0414526	chín bình ba
-1.146188	tám bình ba
-0.95450914	xe bình ba
-0.95450914	pháo bình ba
-0.95450914	tốt bình ba
-0.9542552	giữa bình ba
-0.95450914	binh bình ba
-0.95450914	chốt bình ba
-0.9777634	trên thoái ba
-0.991242	bốn thoái ba
-0.9777634	phải thoái ba
-0.9777634	trước thoái ba
-0.9777634	trái thoái ba
-1.1673412	sáu thoái ba
-0.9777634	sau thoái ba
-0.6812492	năm thoái ba
-0.9777634	dưới thoái ba
-0.95448136	tượng thoái ba
-1.1461519	bảy thoái ba
-0.9031059	hai thoái ba
-1.1461519	ba thoái ba
-0.58358455	một thoái ba
-1.0607218	chín thoái ba
-1.0792052	tám thoái ba
-0.95448136	tịnh thoái ba
-0.95448136	bộ thoái ba
-0.95448136	xe thoái ba
-0.95448136	mã thoái ba
-0.95448136	pháo thoái ba
-0.9777634	trên lùi ba
-0.991242	bốn lùi ba
-0.9777634	phải lùi ba
-0.9777634	trước lùi ba
-0.9777634	trái lùi ba
-1.1673412	sáu lùi ba
-0.9777634	sau lùi ba
-0.6812492	năm lùi ba
-0.9777634	dưới lùi ba
-0.95448136	tượng lùi ba
-1.1461519	bảy lùi ba
-0.9031059	hai lùi ba
-1.1461519	ba lùi ba
-0.58358455	một lùi ba
-1.0607218	chín lùi ba
-1.0792052	tám lùi ba
-0.95448136	tịnh lùi ba
-0.95448136	bộ lùi ba
-0.95448136	xe lùi ba
-0.95448136	mã lùi ba
-0.95448136	pháo lùi ba
-1.3017983	sĩ chiếu ba
-1.3011067	trên chiếu ba
-1.3010418	bốn chiếu ba
-1.3011067	phải chiếu ba
-1.3011067	trước chiếu ba
-1.3011067	trái chiếu ba
-1.3010418	sáu chiếu ba
-1.3011067	sau chiếu ba
-1.3010418	năm chiếu ba
-1.3011067	dưới chiếu ba
-1.3017983	tượng chiếu ba
-1.3010428	bảy chiếu ba
-1.3010428	hai chiếu ba
-1.3010428	ba chiếu ba
-1.3010428	một chiếu ba
-1.3010428	chín chiếu ba
-1.3010428	tám chiếu ba
-1.3017983	tịnh chiếu ba
-1.3017983	bộ chiếu ba
-1.3017983	xe chiếu ba
-1.3017983	mã chiếu ba
-1.3017983	pháo chiếu ba
-1.3017983	tốt chiếu ba
-1.3010665	giữa chiếu ba
-1.3017983	binh chiếu ba
-1.3017983	chốt chiếu ba
-1.0000193	chiếu tướng một
-1.1003916	tượng trên một
-1.1003916	tịnh trên một
-1.1003916	bộ trên một
-1.0007275	xe trên một
-1.1194934	mã trên một
-1.0007275	pháo trên một
-1.3340524	tốt trên một
-1.3340524	binh trên một
-1.3340524	chốt trên một
-1.1003916	tượng trước một
-1.1003916	tịnh trước một
-1.1003916	bộ trước một
-1.0007275	xe trước một
-1.1194934	mã trước một
-1.0007275	pháo trước một
-1.3340524	tốt trước một
-1.3340524	binh trước một
-1.3340524	chốt trước một
-1.1003916	tượng sau một
-1.1003916	tịnh sau một
-1.1003916	bộ sau một
-1.0007275	xe sau một
-1.1194934	mã sau một
-1.0007275	pháo sau một
-1.3340524	tốt sau một
-1.3340524	binh sau một
-1.3340524	chốt sau một
-1.1003916	tượng dưới một
-1.1003916	tịnh dưới một
-1.1003916	bộ dưới một
-1.0007275	xe dưới một
-1.1194934	mã dưới một
-1.0007275	pháo dưới một
-1.3340524	tốt dưới một
-1.3340524	binh dưới một
-1.3340524	chốt dưới một
-1.8812213	<s> tượng một
-1.7162763	ăn tượng một
-1.7162763	bắt tượng một
-1.8812213	<s> tịnh một
-1.7162763	ăn tịnh một
-1.7162763	bắt tịnh một
-1.8812213	<s> bộ một
-1.7162763	ăn bộ một
-1.7162763	bắt bộ một
-1.7170936	<s> xe một
-1.7162843	ăn xe một
-1.7162843	bắt xe một
-1.8863294	<s> mã một
-1.7162763	ăn mã một
-1.7162763	bắt mã một
-1.7170936	<s> pháo một
-1.7162843	ăn pháo một
-1.7162843	bắt pháo một
-2.014722	<s> tốt một
-2.0172777	ăn tốt một
-2.0172777	bắt tốt một
-1.0330113	trên giữa một
-1.0330113	trước giữa một
-1.0330113	sau giữa một
-1.0330113	dưới giữa một
-1.0330336	tốt giữa một
-1.0330336	binh giữa một
-1.0330336	chốt giữa một
-2.014722	<s> binh một
-2.0172777	ăn binh một
-2.0172777	bắt binh một
-2.014722	<s> chốt một
-2.0172777	ăn chốt một
-2.0172777	bắt chốt một
-0.0028391662	tướng tiến một
-0.82384336	trên tiến một
-0.62470996	bốn tiến một
-0.82384336	phải tiến một
-0.82384336	trước tiến một
-0.82384336	trái tiến một
-0.62470996	sáu tiến một
-0.82384336	sau tiến một
-0.61728597	năm tiến một
-0.82384336	dưới tiến một
-0.95365435	tượng tiến một
-0.6283742	bảy tiến một
-0.52286565	hai tiến một
-0.45228785	ba tiến một
-0.5592933	một tiến một
-0.5592933	chín tiến một
-0.5740166	tám tiến một
-0.95365435	tịnh tiến một
-0.95365435	bộ tiến một
-0.95365435	xe tiến một
-0.95365435	mã tiến một
-0.95365435	pháo tiến một
-0.0028391662	tốt tiến một
-0.00013478327	giữa tiến một
-0.0028391662	binh tiến một
-0.0028391662	chốt tiến một
-0.0028391662	soái tiến một
-0.0028391662	tướng tấn một
-0.82384336	trên tấn một
-0.62470996	bốn tấn một
-0.82384336	phải tấn một
-0.82384336	trước tấn một
-0.82384336	trái tấn một
-0.62470996	sáu tấn một
-0.82384336	sau tấn một
-0.61728597	năm tấn một
-0.82384336	dưới tấn một
-0.95365435	tượng tấn một
-0.6283742	bảy tấn một
-0.52286565	hai tấn một
-0.45228785	ba tấn một
-0.5592933	một tấn một
-0.5592933	chín tấn một
-0.5740166	tám tấn một
-0.95365435	tịnh tấn một
-0.95365435	bộ tấn một
-0.95365435	xe tấn một
-0.95365435	mã tấn một
-0.95365435	pháo tấn một
-0.0028391662	tốt tấn một
-0.00013478327	giữa tấn một
-0.0028391662	binh tấn một
-0.0028391662	chốt tấn một
-0.0028391662	soái tấn một
-0.9542958	trên bình một
-1.1523482	bốn bình một
-0.9542958	phải bình một
-0.9542958	trước bình một
-0.9542958	trái bình một
-1.1523482	sáu bình một
-0.9542958	sau bình một
-1.1584225	năm bình một
-0.9542958	dưới bình một
-1.146188	bảy bình một
-0.544083	hai bình một
-1.146188	ba bình một
-1.0414526	chín bình một
-1.146188	tám bình một
-0.95450914	xe bình một
-0.95450914	pháo bình một
-0.95450914	tốt bình một
-0.9542552	giữa bình một
-0.95450914	binh bình một
-0.95450914	chốt bình một
-0.0028978998	tướng thoái một
-0.97771305	trên thoái một
-1.0881308	bốn thoái một
-0.97771305	phải thoái một
-0.97771305	trước thoái một
-0.97771305	trái thoái một
-1.0881308	sáu thoái một
-0.97771305	sau thoái một
-1.079176	năm thoái một
-0.97771305	dưới thoái một
-0.9541791	tượng thoái một
-1.1461217	bảy thoái một
-0.9030858	hai thoái một
-0.6690047	ba thoái một
-1.0606915	một thoái một
-1.0606915	chín thoái một
-1.0791749	tám thoái một
-0.9541791	tịnh thoái một
-0.9541791	bộ thoái một
-0.9541791	xe thoái một
-0.9541791	mã thoái một
-0.9541791	pháo thoái một
-0.0028978998	soái thoái một
-0.0028978998	tướng lùi một
-0.97771305	trên lùi một
-1.0881308	bốn lùi một
-0.97771305	phải lùi một
-0.97771305	trước lùi một
-0.97771305	trái lùi một
-1.0881308	sáu lùi một
-0.97771305	sau lùi một
-1.079176	năm lùi một
-0.97771305	dưới lùi một
-0.9541791	tượng lùi một
-1.1461217	bảy lùi một
-0.9030858	hai lùi một
-0.6690047	ba lùi một
-1.0606915	một lùi một
-1.0606915	chín lùi một
-1.0791749	tám lùi một
-0.9541791	tịnh lùi một
-0.9541791	bộ lùi một
-0.9541791	xe lùi một
-0.9541791	mã lùi một
-0.9541791	pháo lùi một
-0.0028978998	soái lùi một
-1.3017983	sĩ chiếu một
-1.3011067	trên chiếu một
-1.3010418	bốn chiếu một
-1.3011067	phải chiếu một
-1.3011067	trước chiếu một
-1.3011067	trái chiếu một
-1.3010418	sáu chiếu một
-1.3011067	sau chiếu một
-1.3010418	năm chiếu một
-1.3011067	dưới chiếu một
-1.3017983	tượng chiếu một
-1.3010428	bảy chiếu một
-1.3010428	hai chiếu một
-1.3010428	ba chiếu một
-1.3010428	một chiếu một
-1.3010428	chín chiếu một
-1.3010428	tám chiếu một
-1.3017983	tịnh chiếu một
-1.3017983	bộ chiếu một
-1.3017983	xe chiếu một
-1.3017983	mã chiếu một
-1.3017983	pháo chiếu một
-1.3017983	tốt chiếu một
-1.3010665	giữa chiếu một
-1.3017983	binh chiếu một
-1.3017983	chốt chiếu một
-1.0000193	chiếu tướng chín
-1.1003916	tượng trên chín
-1.1003916	tịnh trên chín
-1.1003916	bộ trên chín
-1.0007275	xe trên chín
-1.1194934	mã trên chín
-1.0007275	pháo trên chín
-1.3340524	tốt trên chín
-1.3340524	binh trên chín
-1.3340524	chốt trên chín
-1.1003916	tượng trước chín
-1.1003916	tịnh trước chín
-1.1003916	bộ trước chín
-1.0007275	xe trước chín
-1.1194934	mã trước chín
-1.0007275	pháo trước chín
-1.3340524	tốt trước chín
-1.3340524	binh trước chín
-1.3340524	chốt trước chín
-1.1003916	tượng sau chín
-1.1003916	tịnh sau chín
-1.1003916	bộ sau chín
-1.0007275	xe sau chín
-1.1194934	mã sau chín
-1.0007275	pháo sau chín
-1.3340524	tốt sau chín
-1.3340524	binh sau chín
-1.3340524	chốt sau chín
-1.1003916	tượng dưới chín
-1.1003916	tịnh dưới chín
-1.1003916	bộ dưới chín
-1.0007275	xe dưới chín
-1.1194934	mã dưới chín
-1.0007275	pháo dưới chín
-1.3340524	tốt dưới chín
-1.3340524	binh dưới chín
-1.3340524	chốt dưới chín
-1.8812213	<s> tượng chín
-1.7162763	ăn tượng chín
-1.7162763	bắt tượng chín
-1.8812213	<s> tịnh chín
-1.7162763	ăn tịnh chín
-1.7162763	bắt tịnh chín
-1.8812213	<s> bộ chín
-1.7162763	ăn bộ chín
-1.7162763	bắt bộ chín
-1.7170936	<s> xe chín
-1.7162843	ăn xe chín
-1.7162843	bắt xe chín
-1.8863294	<s> mã chín
-1.7162763	ăn mã chín
-1.7162763	bắt mã chín
-1.7170936	<s> pháo chín
-1.7162843	ăn pháo chín
-1.7162843	bắt pháo chín
-2.014722	<s> tốt chín
-2.0172777	ăn tốt chín
-2.0172777	bắt tốt chín
-1.0330113	trên giữa chín
-1.0330113	trước giữa chín
-1.0330113	sau giữa chín
-1.0330113	dưới giữa chín
-1.0330336	tốt giữa chín
-1.0330336	binh giữa chín
-1.0330336	chốt giữa chín
-2.014722	<s> binh chín
-2.0172777	ăn binh chín
-2.0172777	bắt binh chín
-2.014722	<s> chốt chín
-2.0172777	ăn chốt chín
-2.0172777	bắt chốt chín
-1.00005	trên tiến chín
-1.2480032	bốn tiến chín
-1.00005	phải tiến chín
-1.00005	trước tiến chín
-1.00005	trái tiến chín
-1.2480032	sáu tiến chín
-1.00005	sau tiến chín
-1.2405792	năm tiến chín
-1.00005	dưới tiến chín
-0.9545424	tượng tiến chín
-0.7533377	bảy tiến chín
-1.1761212	hai tiến chín
-1.2304789	ba tiến chín
-1.1613979	một tiến chín
-1.1613979	chín tiến chín
-1.00002	tám tiến chín
-0.9545424	tịnh tiến chín
-0.9545424	bộ tiến chín
-0.9545424	xe tiến chín
-0.9545424	mã tiến chín
-0.9545424	pháo tiến chín
-1.00005	trên tấn chín
-1.2480032	bốn tấn chín
-1.00005	phải tấn chín
-1.00005	trước tấn chín
-1.00005	trái tấn chín
-1.2480032	sáu tấn chín
-1.00005	sau tấn chín
-1.2405792	năm tấn chín
-1.00005	dưới tấn chín
-0.9545424	tượng tấn chín
-0.7533377	bảy tấn chín
-1.1761212	hai tấn chín
-1.2304789	ba tấn chín
-1.1613979	một tấn chín
-1.1613979	chín tấn chín
-1.00002	tám tấn chín
-0.9545424	tịnh tấn chín
-0.9545424	bộ tấn chín
-0.9545424	xe tấn chín
-0.9545424	mã tấn chín
-0.9545424	pháo tấn chín
-0.9542958	trên bình chín
-1.1523482	bốn bình chín
-0.9542958	phải bình chín
-0.9542958	trước bình chín
-0.9542958	trái bình chín
-1.1523482	sáu bình chín
-0.9542958	sau bình chín
-1.1584225	năm bình chín
-0.9542958	dưới bình chín
-1.146188	bảy bình chín
-1.146188	hai bình chín
-1.146188	ba bình chín
-1.0414526	một bình chín
-0.544083	tám bình chín
-0.95450914	xe bình chín
-0.95450914	pháo bình chín
-0.95450914	tốt bình chín
-0.9542552	giữa bình chín
-0.95450914	binh bình chín
-0.95450914	chốt bình chín
-0.9777634	trên thoái chín
-1.1673412	bốn thoái chín
-0.9777634	phải thoái chín
-0.9777634	trước thoái chín
-0.9777634	trái thoái chín
-1.1673412	sáu thoái chín
-0.9777634	sau thoái chín
-1.1583863	năm thoái chín
-0.9777634	dưới thoái chín
-0.95448136	tượng thoái chín
-0.6690147	bảy thoái chín
-1.0792052	hai thoái chín
-1.1461519	ba thoái chín
-1.0607218	một thoái chín
-1.0607218	chín thoái chín
-0.9031059	tám thoái chín
-0.95448136	tịnh thoái chín
-0.95448136	bộ thoái chín
-0.95448136	xe thoái chín
-0.95448136	mã thoái chín
-0.95448136	pháo thoái chín
-0.9777634	trên lùi chín
-1.1673412	bốn lùi chín
-0.9777634	phải lùi chín
-0.9777634	trước lùi chín
-0.9777634	trái lùi chín
-1.1673412	sáu lùi chín
-0.9777634	sau lùi chín
-1.1583863	năm lùi chín
-0.9777634	dưới lùi chín
-0.95448136	tượng lùi chín
-0.6690147	bảy lùi chín
-1.0792052	hai lùi chín
-1.1461519	ba lùi chín
-1.0607218	một lùi chín
-1.0607218	chín lùi chín
-0.9031059	tám lùi chín
-0.95448136	tịnh lùi chín
-0.95448136	bộ lùi chín
-0.95448136	xe lùi chín
-0.95448136	mã lùi chín
-0.95448136	pháo lùi chín
-1.3017983	sĩ chiếu chín
-1.3011067	trên chiếu chín
-1.3010418	bốn chiếu chín
-1.3011067	phải chiếu chín
-1.3011067	trước chiếu chín
-1.3011067	trái chiếu chín
-1.3010418	sáu chiếu chín
-1.3011067	sau chiếu chín
-1.3010418	năm chiếu chín
-1.3011067	dưới chiếu chín
-1.3017983	tượng chiếu chín
-1.3010428	bảy chiếu chín
-1.3010428	hai chiếu chín
-1.3010428	ba chiếu chín
-1.3010428	một chiếu chín
-1.3010428	chín chiếu chín
-1.3010428	tám chiếu chín
-1.3017983	tịnh chiếu chín
-1.3017983	bộ chiếu chín
-1.3017983	xe chiếu chín
-1.3017983	mã chiếu chín
-1.3017983	pháo chiếu chín
-1.3017983	tốt chiếu chín
-1.3010665	giữa chiếu chín
-1.3017983	binh chiếu chín
-1.3017983	chốt chiếu chín
-1.0000193	chiếu tướng tám
-1.1003916	tượng trên tám
-1.1003916	tịnh trên tám
-1.1003916	bộ trên tám
-1.0007275	xe trên tám
-1.0525441	mã trên tám
-1.0007275	pháo trên tám
-1.3117748	tốt trên tám
-1.3117748	binh trên tám
-1.3117748	chốt trên tám
-1.1003916	tượng trước tám
-1.1003916	tịnh trước tám
-1.1003916	bộ trước tám
-1.0007275	xe trước tám
-1.0525441	mã trước tám
-1.0007275	pháo trước tám
-1.3117748	tốt trước tám
-1.3117748	binh trước tám
-1.3117748	chốt trước tám
-1.1003916	tượng sau tám
-1.1003916	tịnh sau tám
-1.1003916	bộ sau tám
-1.0007275	xe sau tám
-1.0525441	mã sau tám
-1.0007275	pháo sau tám
-1.3117748	tốt sau tám
-1.3117748	binh sau tám
-1.3117748	chốt sau tám
-1.1003916	tượng dưới tám
-1.1003916	tịnh dưới tám
-1.1003916	bộ dưới tám
-1.0007275	xe dưới tám
-1.0525441	mã dưới tám
-1.0007275	pháo dưới tám
-1.3117748	tốt dưới tám
-1.3117748	binh dưới tám
-1.3117748	chốt dưới tám
-1.8812213	<s> tượng tám
-1.7162763	ăn tượng tám
-1.7162763	bắt tượng tám
-1.8812213	<s> tịnh tám
-1.7162763	ăn tịnh tám
-1.7162763	bắt tịnh tám
-1.8812213	<s> bộ tám
-1.7162763	ăn bộ tám
-1.7162763	bắt bộ tám
-1.7170936	<s> xe tám
-1.7162843	ăn xe tám
-1.7162843	bắt xe tám
-1.796744	<s> mã tám
-1.7162763	ăn mã tám
-1.7162763	bắt mã tám
-1.7170936	<s> pháo tám
-1.7162843	ăn pháo tám
-1.7162843	bắt pháo tám
-1.9856806	<s> tốt tám
-2.0172777	ăn tốt tám
-2.0172777	bắt tốt tám
-1.0107344	trên giữa tám
-1.0107344	trước giữa tám
-1.0107344	sau giữa tám
-1.0107344	dưới giữa tám
-1.0107555	tốt giữa tám
-1.0107555	binh giữa tám
-1.0107555	chốt giữa tám
-1.9856806	<s> binh tám
-2.0172777	ăn binh tám
-2.0172777	bắt binh tám
-1.9856806	<s> chốt tám
-2.0172777	ăn chốt tám
-2.0172777	bắt chốt tám
-1.00005	trên tiến tám
-1.2480032	bốn tiến tám
-1.00005	phải tiến tám
-1.00005	trước tiến tám
-1.00005	trái tiến tám
-0.770862	sáu tiến tám
-1.00005	sau tiến tám
-1.2405792	năm tiến tám
-1.00005	dưới tiến tám
-0.9545424	tượng tiến tám
-1.0543777	bảy tiến tám
-1.1761212	hai tiến tám
-1.2304789	ba tiến tám
-1.1613979	một tiến tám
-0.9852967	chín tiến tám
-1.1761212	tám tiến tám
-0.9545424	tịnh tiến tám
-0.9545424	bộ tiến tám
-0.9545424	xe tiến tám
-0.9545424	mã tiến tám
-0.9545424	pháo tiến tám
-1.00005	trên tấn tám
-1.2480032	bốn tấn tám
-1.00005	phải tấn tám
-1.00005	trước tấn tám
-1.00005	trái tấn tám
-0.770862	sáu tấn tám
-1.00005	sau tấn tám
-1.2405792	năm tấn tám
-1.00005	dưới tấn tám
-0.9545424	tượng tấn tám
-1.0543777	bảy tấn tám
-1.1761212	hai tấn tám
-1.2304789	ba tấn tám
-1.1613979	một tấn tám
-0.9852967	chín tấn tám
-1.1761212	tám tấn tám
-0.9545424	tịnh tấn tám
-0.9545424	bộ tấn tám
-0.9545424	xe tấn tám
-0.9545424	mã tấn tám
-0.9545424	pháo tấn tám
-0.9542958	trên bình tám
-1.1523482	bốn bình tám
-0.9542958	phải bình tám
-0.9542958	trước bình tám
-0.9542958	trái bình tám
-1.1523482	sáu bình tám
-0.9542958	sau bình tám
-1.1584225	năm bình tám
-0.9542958	dưới bình tám
-0.544083	bảy bình tám
-1.146188	hai bình tám
-1.146188	ba bình tám
-1.0414526	một bình tám
-0.43934768	chín bình tám
-0.95450914	xe bình tám
-0.95450914	pháo bình tám
-0.95450914	tốt bình tám
-0.9542552	giữa bình tám
-0.95450914	binh bình tám
-0.95450914	chốt bình tám
-0.9777634	trên thoái tám
-1.1673412	bốn thoái tám
-0.9777634	phải thoái tám
-0.9777634	trước thoái tám
-0.9777634	trái thoái tám
-0.690204	sáu thoái tám
-0.9777634	sau thoái tám
-1.1583863	năm thoái tám
-0.9777634	dưới thoái tám
-0.95448136	tượng thoái tám
-0.9700527	bảy thoái tám
-1.0792052	hai thoái tám
-1.1461519	ba thoái tám
-1.0607218	một thoái tám
-0.8846226	chín thoái tám
-1.0792052	tám thoái tám
-0.95448136	tịnh thoái tám
-0.95448136	bộ thoái tám
-0.95448136	xe thoái tám
-0.95448136	mã thoái tám
-0.95448136	pháo thoái tám
-0.9777634	trên lùi tám
-1.1673412	bốn lùi tám
-0.9777634	phải lùi tám
-0.9777634	trước lùi tám
-0.9777634	trái lùi tám
-0.690204	sáu lùi tám
-0.9777634	sau lùi tám
-1.1583863	năm lùi tám
-0.9777634	dưới lùi tám
-0.95448136	tượng lùi tám
-0.9700527	bảy lùi tám
-1.0792052	hai lùi tám
-1.1461519	ba lùi tám
-1.0607218	một lùi tám
-0.8846226	chín lùi tám
-1.0792052	tám lùi tám
-0.95448136	tịnh lùi tám
-0.95448136	bộ lùi tám
-0.95448136	xe lùi tám
-0.95448136	mã lùi tám
-0.95448136	pháo lùi tám
-1.3017983	sĩ chiếu tám
-1.3011067	trên chiếu tám
-1.3010418	bốn chiếu tám
-1.3011067	phải chiếu tám
-1.3011067	trước chiếu tám
-1.3011067	trái chiếu tám
-1.3010418	sáu chiếu tám
-1.3011067	sau chiếu tám
-1.3010418	năm chiếu tám
-1.3011067	dưới chiếu tám
-1.3017983	tượng chiếu tám
-1.3010428	bảy chiếu tám
-1.3010428	hai chiếu tám
-1.3010428	ba chiếu tám
-1.3010428	một chiếu tám
-1.3010428	chín chiếu tám
-1.3010428	tám chiếu tám
-1.3017983	tịnh chiếu tám
-1.3017983	bộ chiếu tám
-1.3017983	xe chiếu tám
-1.3017983	mã chiếu tám
-1.3017983	pháo chiếu tám
-1.3017983	tốt chiếu tám
-1.3010665	giữa chiếu tám
-1.3017983	binh chiếu tám
-1.3017983	chốt chiếu tám
-1.0948707	tướng ăn tịnh
-1.0948707	sĩ ăn tịnh
-1.0942932	trên ăn tịnh
-1.0942388	bốn ăn tịnh
-1.0942932	phải ăn tịnh
-1.0942932	trước ăn tịnh
-1.0942932	trái ăn tịnh
-1.0942388	sáu ăn tịnh
-1.0942932	sau ăn tịnh
-1.0942388	năm ăn tịnh
-1.0942932	dưới ăn tịnh
-1.0948707	tượng ăn tịnh
-1.0942398	bảy ăn tịnh
-1.0942398	hai ăn tịnh
-1.0942398	ba ăn tịnh
-1.0942398	một ăn tịnh
-1.0942398	chín ăn tịnh
-1.0942398	tám ăn tịnh
-1.0948707	tịnh ăn tịnh
-1.0948707	bộ ăn tịnh
-1.0948707	xe ăn tịnh
-1.0948707	mã ăn tịnh
-1.0948707	pháo ăn tịnh
-1.0948707	tốt ăn tịnh
-1.0942597	giữa ăn tịnh
-1.0948707	binh ăn tịnh
-1.0948707	chốt ăn tịnh
-1.0948707	soái ăn tịnh
-1.0948707	tướng bắt tịnh
-1.0948707	sĩ bắt tịnh
-1.0942932	trên bắt tịnh
-1.0942388	bốn bắt tịnh
-1.0942932	phải bắt tịnh
-1.0942932	trước bắt tịnh
-1.0942932	trái bắt tịnh
-1.0942388	sáu bắt tịnh
-1.0942932	sau bắt tịnh
-1.0942388	năm bắt tịnh
-1.0942932	dưới bắt tịnh
-1.0948707	tượng bắt tịnh
-1.0942398	bảy bắt tịnh
-1.0942398	hai bắt tịnh
-1.0942398	ba bắt tịnh
-1.0942398	một bắt tịnh
-1.0942398	chín bắt tịnh
-1.0942398	tám bắt tịnh
-1.0948707	tịnh bắt tịnh
-1.0948707	bộ bắt tịnh
-1.0948707	xe bắt tịnh
-1.0948707	mã bắt tịnh
-1.0948707	pháo bắt tịnh
-1.0948707	tốt bắt tịnh
-1.0942597	giữa bắt tịnh
-1.0948707	binh bắt tịnh
-1.0948707	chốt bắt tịnh
-1.0948707	soái bắt tịnh
-1.0948707	tướng ăn bộ
-1.0948707	sĩ ăn bộ
-1.0942932	trên ăn bộ
-1.0942388	bốn ăn bộ
-1.0942932	phải ăn bộ
-1.0942932	trước ăn bộ
-1.0942932	trái ăn bộ
-1.0942388	sáu ăn bộ
-1.0942932	sau ăn bộ
-1.0942388	năm ăn bộ
-1.0942932	dưới ăn bộ
-1.0948707	tượng ăn bộ
-1.0942398	bảy ăn bộ
-1.0942398	hai ăn bộ
-1.0942398	ba ăn bộ
-1.0942398	một ăn bộ
-1.0942398	chín ăn bộ
-1.0942398	tám ăn bộ
-1.0948707	tịnh ăn bộ
-1.0948707	bộ ăn bộ
-1.0948707	xe ăn bộ
-1.0948707	mã ăn bộ
-1.0948707	pháo ăn bộ
-1.0948707	tốt ăn bộ
-1.0942597	giữa ăn bộ
-1.0948707	binh ăn bộ
-1.0948707	chốt ăn bộ
-1.0948707	soái ăn bộ
-1.0948707	tướng bắt bộ
-1.0948707	sĩ bắt bộ
-1.0942932	trên bắt bộ
-1.0942388	bốn bắt bộ
-1.0942932	phải bắt bộ
-1.0942932	trước bắt bộ
-1.0942932	trái bắt bộ
-1.0942388	sáu bắt bộ
-1.0942932	sau bắt bộ
-1.0942388	năm bắt bộ
-1.0942932	dưới bắt bộ
-1.0948707	tượng bắt bộ
-1.0942398	bảy bắt bộ
-1.0942398	hai bắt bộ
-1.0942398	ba bắt bộ
-1.0942398	một bắt bộ
-1.0942398	chín bắt bộ
-1.0942398	tám bắt bộ
-1.0948707	tịnh bắt bộ
-1.0948707	bộ bắt bộ
-1.0948707	xe bắt bộ
-1.0948707	mã bắt bộ
-1.0948707	pháo bắt bộ
-1.0948707	tốt bắt bộ
-1.0942597	giữa bắt bộ
-1.0948707	binh bắt bộ
-1.0948707	chốt bắt bộ
-1.0948707	soái bắt bộ
-1.0948707	tướng ăn xe
-1.0948707	sĩ ăn xe
-1.0942932	trên ăn xe
-1.0942388	bốn ăn xe
-1.0942932	phải ăn xe
-1.0942932	trước ăn xe
-1.0942932	trái ăn xe
-1.0942388	sáu ăn xe
-1.0942932	sau ăn xe
-1.0942388	năm ăn xe
-1.0942932	dưới ăn xe
-1.0948707	tượng ăn xe
-1.0942398	bảy ăn xe
-1.0942398	hai ăn xe
-1.0942398	ba ăn xe
-1.0942398	một ăn xe
-1.0942398	chín ăn xe
-1.0942398	tám ăn xe
-1.0948707	tịnh ăn xe
-1.0948707	bộ ăn xe
-1.0948707	xe ăn xe
-1.0948707	mã ăn xe
-1.0948707	pháo ăn xe
-1.0948707	tốt ăn xe
-1.0942597	giữa ăn xe
-1.0948707	binh ăn xe
-1.0948707	chốt ăn xe
-1.0948707	soái ăn xe
-1.0948707	tướng bắt xe
-1.0948707	sĩ bắt xe
-1.0942932	trên bắt xe
-1.0942388	bốn bắt xe
-1.0942932	phải bắt xe
-1.0942932	trước bắt xe
-1.0942932	trái bắt xe
-1.0942388	sáu bắt xe
-1.0942932	sau bắt xe
-1.0942388	năm bắt xe
-1.0942932	dưới bắt xe
-1.0948707	tượng bắt xe
-1.0942398	bảy bắt xe
-1.0942398	hai bắt xe
-1.0942398	ba bắt xe
-1.0942398	một bắt xe
-1.0942398	chín bắt xe
-1.0942398	tám bắt xe
-1.0948707	tịnh bắt xe
-1.0948707	bộ bắt xe
-1.0948707	xe bắt xe
-1.0948707	mã bắt xe
-1.0948707	pháo bắt xe
-1.0948707	tốt bắt xe
-1.0942597	giữa bắt xe
-1.0948707	binh bắt xe
-1.0948707	chốt bắt xe
-1.0948707	soái bắt xe
-1.0948707	tướng ăn mã
-1.0948707	sĩ ăn mã
-1.0942932	trên ăn mã
-1.0942388	bốn ăn mã
-1.0942932	phải ăn mã
-1.0942932	trước ăn mã
-1.0942932	trái ăn mã
-1.0942388	sáu ăn mã
-1.0942932	sau ăn mã
-1.0942388	năm ăn mã
-1.0942932	dưới ăn mã
-1.0948707	tượng ăn mã
-1.0942398	bảy ăn mã
-1.0942398	hai ăn mã
-1.0942398	ba ăn mã
-1.0942398	một ăn mã
-1.0942398	chín ăn mã
-1.0942398	tám ăn mã
-1.0948707	tịnh ăn mã
-1.0948707	bộ ăn mã
-1.0948707	xe ăn mã
-1.0948707	mã ăn mã
-1.0948707	pháo ăn mã
-1.0948707	tốt ăn mã
-1.0942597	giữa ăn mã
-1.0948707	binh ăn mã
-1.0948707	chốt ăn mã
-1.0948707	soái ăn mã
-1.0948707	tướng bắt mã
-1.0948707	sĩ bắt mã
-1.0942932	trên bắt mã
-1.0942388	bốn bắt mã
-1.0942932	phải bắt mã
-1.0942932	trước bắt mã
-1.0942932	trái bắt mã
-1.0942388	sáu bắt mã
-1.0942932	sau bắt mã
-1.0942388	năm bắt mã
-1.0942932	dưới bắt mã
-1.0948707	tượng bắt mã
-1.0942398	bảy bắt mã
-1.0942398	hai bắt mã
-1.0942398	ba bắt mã
-1.0942398	một bắt mã
-1.0942398	chín bắt mã
-1.0942398	tám bắt mã
-1.0948707	tịnh bắt mã
-1.0948707	bộ bắt mã
-1.0948707	xe bắt mã
-1.0948707	mã bắt mã
-1.0948707	pháo bắt mã
-1.0948707	tốt bắt mã
-1.0942597	giữa bắt mã
-1.0948707	binh bắt mã
-1.0948707	chốt bắt mã
-1.0948707	soái bắt mã
-1.0948707	tướng ăn pháo
-1.0948707	sĩ ăn pháo
-1.0942932	trên ăn pháo
-1.0942388	bốn ăn pháo
-1.0942932	phải ăn pháo
-1.0942932	trước ăn pháo
-1.0942932	trái ăn pháo
-1.0942388	sáu ăn pháo
-1.0942932	sau ăn pháo
-1.0942388	năm ăn pháo
-1.0942932	dưới ăn pháo
-1.0948707	tượng ăn pháo
-1.0942398	bảy ăn pháo
-1.0942398	hai ăn pháo
-1.0942398	ba ăn pháo
-1.0942398	một ăn pháo
-1.0942398	chín ăn pháo
-1.0942398	tám ăn pháo
-1.0948707	tịnh ăn pháo
-1.0948707	bộ ăn pháo
-1.0948707	xe ăn pháo
-1.0948707	mã ăn pháo
-1.0948707	pháo ăn pháo
-1.0948707	tốt ăn pháo
-1.0942597	giữa ăn pháo
-1.0948707	binh ăn pháo
-1.0948707	chốt ăn pháo
-1.0948707	soái ăn pháo
-1.0948707	tướng bắt pháo
-1.0948707	sĩ bắt pháo
-1.0942932	trên bắt pháo
-1.0942388	bốn bắt pháo
-1.0942932	phải bắt pháo
-1.0942932	trước bắt pháo
-1.0942932	trái bắt pháo
-1.0942388	sáu bắt pháo
-1.0942932	sau bắt pháo
-1.0942388	năm bắt pháo
-1.0942932	dưới bắt pháo
-1.0948707	tượng bắt pháo
-1.0942398	bảy bắt pháo
-1.0942398	hai bắt pháo
-1.0942398	ba bắt pháo
-1.0942398	một bắt pháo
-1.0942398	chín bắt pháo
-1.0942398	tám bắt pháo
-1.0948707	tịnh bắt pháo
-1.0948707	bộ bắt pháo
-1.0948707	xe bắt pháo
-1.0948707	mã bắt pháo
-1.0948707	pháo bắt pháo
-1.0948707	tốt bắt pháo
-1.0942597	giữa bắt pháo
-1.0948707	binh bắt pháo
-1.0948707	chốt bắt pháo
-1.0948707	soái bắt pháo
-0.7935198	tướng ăn tốt
-0.7935198	sĩ ăn tốt
-0.79323125	trên ăn tốt
-0.79320395	bốn ăn tốt
-0.79323125	phải ăn tốt
-0.79323125	trước ăn tốt
-0.79323125	trái ăn tốt
-0.79320395	sáu ăn tốt
-0.79323125	sau ăn tốt
-0.79320395	năm ăn tốt
-0.79323125	dưới ăn tốt
-0.7935198	tượng ăn tốt
-0.79320455	bảy ăn tốt
-0.79320455	hai ăn tốt
-0.79320455	ba ăn tốt
-0.79320455	một ăn tốt
-0.79320455	chín ăn tốt
-0.79320455	tám ăn tốt
-0.7935198	tịnh ăn tốt
-0.7935198	bộ ăn tốt
-0.7935198	xe ăn tốt
-0.7935198	mã ăn tốt
-0.7935198	pháo ăn tốt
-0.7935198	tốt ăn tốt
-0.79321444	giữa ăn tốt
-0.7935198	binh ăn tốt
-0.7935198	chốt ăn tốt
-0.7935198	soái ăn tốt
-0.7935198	tướng bắt tốt
-0.7935198	sĩ bắt tốt
-0.79323125	trên bắt tốt
-0.79320395	bốn bắt tốt
-0.79323125	phải bắt tốt
-0.79323125	trước bắt tốt
-0.79323125	trái bắt tốt
-0.79320395	sáu bắt tốt
-0.79323125	sau bắt tốt
-0.79320395	năm bắt tốt
-0.79323125	dưới bắt tốt
-0.7935198	tượng bắt tốt
-0.79320455	bảy bắt tốt
-0.79320455	hai bắt tốt
-0.79320455	ba bắt tốt
-0.79320455	một bắt tốt
-0.79320455	chín bắt tốt
-0.79320455	tám bắt tốt
-0.7935198	tịnh bắt tốt
-0.7935198	bộ bắt tốt
-0.7935198	xe bắt tốt
-0.7935198	mã bắt tốt
-0.7935198	pháo bắt tốt
-0.7935198	tốt bắt tốt
-0.79321444	giữa bắt tốt
-0.7935198	binh bắt tốt
-0.7935198	chốt bắt tốt
-0.7935198	soái bắt tốt
-0.30104277	tốt trên giữa
-0.30104277	binh trên giữa
-0.30104277	chốt trên giữa
-0.30113038	tốt phải giữa
-0.30113038	binh phải giữa
-0.30113038	chốt phải giữa
-0.30104277	tốt trước giữa
-0.30104277	binh trước giữa
-0.30104277	chốt trước giữa
-0.30113038	tốt trái giữa
-0.30113038	binh trái giữa
-0.30113038	chốt trái giữa
-0.30104277	tốt sau giữa
-0.30104277	binh sau giữa
-0.30104277	chốt sau giữa
-0.30104277	tốt dưới giữa
-0.30104277	binh dưới giữa
-0.30104277	chốt dưới giữa
-1.0300056	<s> tốt giữa
-1.0170752	ăn tốt giữa
-1.0170752	bắt tốt giữa
-1.0300056	<s> binh giữa
-1.0170752	ăn binh giữa
-1.0170752	bắt binh giữa
-1.0300056	<s> chốt giữa
-1.0170752	ăn chốt giữa
-1.0170752	bắt chốt giữa
-0.7935198	tướng ăn binh
-0.7935198	sĩ ăn binh
-0.79323125	trên ăn binh
-0.79320395	bốn ăn binh
-0.79323125	phải ăn binh
-0.79323125	trước ăn binh
-0.79323125	trái ăn binh
-0.79320395	sáu ăn binh
-0.79323125	sau ăn binh
-0.79320395	năm ăn binh
-0.79323125	dưới ăn binh
-0.7935198	tượng ăn binh
-0.79320455	bảy ăn binh
-0.79320455	hai ăn binh
-0.79320455	ba ăn binh
-0.79320455	một ăn binh
-0.79320455	chín ăn binh
-0.79320455	tám ăn binh
-0.7935198	tịnh ăn binh
-0.7935198	bộ ăn binh
-0.7935198	xe ăn binh
-0.7935198	mã ăn binh
-0.7935198	pháo ăn binh
-0.7935198	tốt ăn binh
-0.79321444	giữa ăn binh
-0.7935198	binh ăn binh
-0.7935198	chốt ăn binh
-0.7935198	soái ăn binh
-0.7935198	tướng bắt binh
-0.7935198	sĩ bắt binh
-0.79323125	trên bắt binh
-0.79320395	bốn bắt binh
-0.79323125	phải bắt binh
-0.79323125	trước bắt binh
-0.79323125	trái bắt binh
-0.79320395	sáu bắt binh
-0.79323125	sau bắt binh
-0.79320395	năm bắt binh
-0.79323125	dưới bắt binh
-0.7935198	tượng bắt binh
-0.79320455	bảy bắt binh
