\data\
ngram 1=62
ngram 2=586
ngram 3=4582
ngram 4=27726

\1-grams:
-2.7143784	<unk>	0
0	<s>	-4.9718614
-1.1923501	</s>	0
-2.439284	tướng	-0.30103
-1.3264987	ăn	-1.2710668
-2.3477523	sĩ	-0.30103
-1.3264987	bắt	-1.2710668
-1.7842196	trên	-0.7652632
-1.4131911	bốn	-0.9557023
-1.7842196	phải	-0.7377226
-1.7842196	trước	-0.7652632
-1.7842196	trái	-0.7377226
-1.4131911	sáu	-0.9557023
-1.7842196	sau	-0.7652632
-1.4131911	năm	-0.9557023
-1.7842196	dưới	-0.7652632
-2.3477523	tượng	-0.30103
-1.4533743	bảy	-0.88631976
-1.4533743	hai	-0.88631976
-1.4533743	ba	-0.88631976
-1.4533743	một	-0.88631976
-1.4533743	chín	-0.88631976
-1.4533743	tám	-0.88631976
-2.3477523	tịnh	-0.30103
-2.3477523	bộ	-0.30103
-2.3477523	xe	-0.30103
-2.3477523	mã	-0.30103
-2.3477523	pháo	-0.30103
-2.3477523	tốt	-0.30103
-1.8318291	giữa	-0.7201593
-2.3477523	binh	-0.30103
-2.3477523	chốt	-0.30103
-2.5554044	soái	-0.30103
-1.3264987	tiến	-1.1663314
-1.3264987	tấn	-1.1663314
-1.4131911	bình	-1.1391792
-1.3944129	thoái	-1.157468
-1.3944129	lùi	-1.157468
-1.8318291	qua	-0.7781512
-2.439284	sông	-0.30103
-1.8318291	sang	-0.7781512
-2.5554044	chấp	-0.30103
-2.439284	nhận	-0.30103
-2.5554044	xác	-0.30103
-2.5554044	đồng	-0.30103
-2.5554044	ý	-0.30103
-2.5554044	ô	-0.30103
-2.5554044	kê	-0.30103
-2.5554044	hủy	-0.30103
-2.5554044	bỏ	-0.30103
-2.5554044	từ	-0.30103
-2.5554044	chối	-0.30103
-2.5554044	đầu	-0.30103
-2.5554044	hàng	-0.30103
-2.5554044	xin	-0.30103
-2.5554044	hòa	-0.30103
-2.5554044	đổi	-0.30103
-2.5554044	phe	-0.30103
-2.5554044	chơi	-0.30103
-2.439284	lại	-0.30103
-2.5554044	đi	-0.30103
-1.3591295	chiếu	-1.2388821

\2-grams:
-1.2432994	tướng </s>	0
-1.2226727	sĩ </s>	0
-1.206	trên </s>	0
-0.83954597	bốn </s>	0
-0.93777335	phải </s>	0
-1.206	trước </s>	0
-0.93777335	trái </s>	0
-0.83954597	sáu </s>	0
-1.206	sau </s>	0
-0.83954597	năm </s>	0
-1.206	dưới </s>	0
-1.2956177	tượng </s>	0
-0.7907895	bảy </s>	0
-0.7907895	hai </s>	0
-0.7907895	ba </s>	0
-0.7907895	một </s>	0
-0.7907895	chín </s>	0
-0.7907895	tám </s>	0
-1.2956177	tịnh </s>	0
-1.2956177	bộ </s>	0
-1.2985157	xe </s>	0
-1.2956177	mã </s>	0
-1.2985157	pháo </s>	0
-1.3013285	tốt </s>	0
-1.144144	giữa </s>	0
-1.3013285	binh </s>	0
-1.3013285	chốt </s>	0
-0.2739998	sông </s>	0
-0.2739998	nhận </s>	0
-0.2739998	ý </s>	0
-0.2739998	kê </s>	0
-0.2739998	bỏ </s>	0
-0.2739998	chối </s>	0
-0.2739998	hàng </s>	0
-0.2739998	hòa </s>	0
-0.2739998	phe </s>	0
-0.2739998	lại </s>	0
-1.0488123	chiếu </s>	0
-2.500631	<s> tướng	-2.8137145
-1.0661376	chiếu tướng	-1.2388821
-1.3135777	tướng ăn	-0.30103
-1.4263748	sĩ ăn	-0.30103
-1.2269437	trên ăn	-0.8239087
-0.9615849	bốn ăn	-1.0543576
-0.9496824	phải ăn	-0.8239087
-1.2269437	trước ăn	-0.8239087
-0.9496824	trái ăn	-0.8239087
-0.9615849	sáu ăn	-1.0543576
-1.2269437	sau ăn	-0.8239087
-0.9615849	năm ăn	-1.0543576
-1.2269437	dưới ăn	-0.8239087
-1.4836587	tượng ăn	-0.30103
-0.98067075	bảy ăn	-0.97003675
-0.98067075	hai ăn	-0.97003675
-0.98067075	ba ăn	-0.97003675
-0.98067075	một ăn	-0.97003675
-0.98067075	chín ăn	-0.97003675
-0.98067075	tám ăn	-0.97003675
-1.4836587	tịnh ăn	-0.30103
-1.4836587	bộ ăn	-0.30103
-1.4858911	xe ăn	-0.30103
-1.4836587	mã ăn	-0.30103
-1.4858911	pháo ăn	-0.30103
-1.4880548	tốt ăn	-0.30103
-1.1642767	giữa ăn	-0.7781512
-1.4880548	binh ăn	-0.30103
-1.4880548	chốt ăn	-0.30103
-1.1332635	soái ăn	-0.30103
-1.6577219	<s> sĩ	-3.452451
-1.0228099	ăn sĩ	-1.2710668
-1.0228099	bắt sĩ	-1.2710668
-1.3135777	tướng bắt	-0.30103
-1.4263748	sĩ bắt	-0.30103
-1.2269437	trên bắt	-0.8239087
-0.9615849	bốn bắt	-1.0543576
-0.9496824	phải bắt	-0.8239087
-1.2269437	trước bắt	-0.8239087
-0.9496824	trái bắt	-0.8239087
-0.9615849	sáu bắt	-1.0543576
-1.2269437	sau bắt	-0.8239087
-0.9615849	năm bắt	-1.0543576
-1.2269437	dưới bắt	-0.8239087
-1.4836587	tượng bắt	-0.30103
-0.98067075	bảy bắt	-0.97003675
-0.98067075	hai bắt	-0.97003675
-0.98067075	ba bắt	-0.97003675
-0.98067075	một bắt	-0.97003675
-0.98067075	chín bắt	-0.97003675
-0.98067075	tám bắt	-0.97003675
-1.4836587	tịnh bắt	-0.30103
-1.4836587	bộ bắt	-0.30103
-1.4858911	xe bắt	-0.30103
-1.4836587	mã bắt	-0.30103
-1.4858911	pháo bắt	-0.30103
-1.4880548	tốt bắt	-0.30103
-1.1642767	giữa bắt	-0.7781512
-1.4880548	binh bắt	-0.30103
-1.4880548	chốt bắt	-0.30103
-1.1332635	soái bắt	-0.30103
-1.3020355	sĩ trên	-0.30103
-1.443752	tượng trên	-0.30103
-1.443752	tịnh trên	-0.30103
-1.443752	bộ trên	-0.30103
-1.4498887	xe trên	-0.30103
-1.443752	mã trên	-0.30103
-1.4498887	pháo trên	-0.30103
-1.4558896	tốt trên	-0.30103
-1.4558896	binh trên	-0.30103
-1.4558896	chốt trên	-0.30103
-1.1592051	tướng bốn	-0.30103
-1.2148373	sĩ bốn	-0.30103
-1.2378069	trên bốn	-0.76729333
-1.2378069	trước bốn	-0.76729333
-1.2378069	sau bốn	-0.76729333
-1.2378069	dưới bốn	-0.76729333
-1.3270931	tượng bốn	-0.30103
-1.3270931	tịnh bốn	-0.30103
-1.3270931	bộ bốn	-0.30103
-1.3317765	xe bốn	-0.30103
-1.3270931	mã bốn	-0.30103
-1.3317765	pháo bốn	-0.30103
-1.3363409	tốt bốn	-0.30103
-1.2923708	giữa bốn	-0.66900676
-1.3363409	binh bốn	-0.30103
-1.3363409	chốt bốn	-0.30103
-1.1592051	soái bốn	-0.30103
-0.97400427	tiến bốn	-1.1663314
-0.97400427	tấn bốn	-1.1663314
-0.946852	bình bốn	-1.1663314
-0.9651408	thoái bốn	-1.1663314
-0.9651408	lùi bốn	-1.1663314
-1.0560486	chiếu bốn	-1.2388821
-1.3020355	sĩ phải	-0.30103
-1.443752	tượng phải	-0.30103
-1.443752	tịnh phải	-0.30103
-1.443752	bộ phải	-0.30103
-1.4498887	xe phải	-0.30103
-1.443752	mã phải	-0.30103
-1.4498887	pháo phải	-0.30103
-1.4558896	tốt phải	-0.30103
-1.4558896	binh phải	-0.30103
-1.4558896	chốt phải	-0.30103
-1.3020355	sĩ trước	-0.30103
-1.443752	tượng trước	-0.30103
-1.443752	tịnh trước	-0.30103
-1.443752	bộ trước	-0.30103
-1.4498887	xe trước	-0.30103
-1.443752	mã trước	-0.30103
-1.4498887	pháo trước	-0.30103
-1.4558896	tốt trước	-0.30103
-1.4558896	binh trước	-0.30103
-1.4558896	chốt trước	-0.30103
-1.3020355	sĩ trái	-0.30103
-1.443752	tượng trái	-0.30103
-1.443752	tịnh trái	-0.30103
-1.443752	bộ trái	-0.30103
-1.4498887	xe trái	-0.30103
-1.443752	mã trái	-0.30103
-1.4498887	pháo trái	-0.30103
-1.4558896	tốt trái	-0.30103
-1.4558896	binh trái	-0.30103
-1.4558896	chốt trái	-0.30103
-1.1592051	tướng sáu	-0.30103
-1.2148373	sĩ sáu	-0.30103
-1.2378069	trên sáu	-0.76729333
-1.2378069	trước sáu	-0.76729333
-1.2378069	sau sáu	-0.76729333
-1.2378069	dưới sáu	-0.76729333
-1.3270931	tượng sáu	-0.30103
-1.3270931	tịnh sáu	-0.30103
-1.3270931	bộ sáu	-0.30103
-1.3317765	xe sáu	-0.30103
-1.3270931	mã sáu	-0.30103
-1.3317765	pháo sáu	-0.30103
-1.3363409	tốt sáu	-0.30103
-1.2923708	giữa sáu	-0.66900676
-1.3363409	binh sáu	-0.30103
-1.3363409	chốt sáu	-0.30103
-1.1592051	soái sáu	-0.30103
-0.97400427	tiến sáu	-1.1663314
-0.97400427	tấn sáu	-1.1663314
-0.946852	bình sáu	-1.1663314
-0.9651408	thoái sáu	-1.1663314
-0.9651408	lùi sáu	-1.1663314
-1.0560486	chiếu sáu	-1.2388821
-1.3020355	sĩ sau	-0.30103
-1.443752	tượng sau	-0.30103
-1.443752	tịnh sau	-0.30103
-1.443752	bộ sau	-0.30103
-1.4498887	xe sau	-0.30103
-1.443752	mã sau	-0.30103
-1.4498887	pháo sau	-0.30103
-1.4558896	tốt sau	-0.30103
-1.4558896	binh sau	-0.30103
-1.4558896	chốt sau	-0.30103
-1.1592051	tướng năm	-0.30103
-1.2148373	sĩ năm	-0.30103
-1.2378069	trên năm	-0.7447275
-1.2378069	trước năm	-0.7447275
-1.2378069	sau năm	-0.7447275
-1.2378069	dưới năm	-0.7447275
-1.3270931	tượng năm	-0.30103
-1.3270931	tịnh năm	-0.30103
-1.3270931	bộ năm	-0.30103
-1.3317765	xe năm	-0.30103
-1.3270931	mã năm	-0.30103
-1.3317765	pháo năm	-0.30103
-1.3363409	tốt năm	-0.30103
-1.2923708	giữa năm	-0.66900676
-1.3363409	binh năm	-0.30103
-1.3363409	chốt năm	-0.30103
-1.1592051	soái năm	-0.30103
-0.97400427	tiến năm	-1.1663314
-0.97400427	tấn năm	-1.1663314
-0.946852	bình năm	-1.1663314
-0.9651408	thoái năm	-1.1663314
-0.9651408	lùi năm	-1.1663314
-1.0560486	chiếu năm	-1.2388821
-1.3020355	sĩ dưới	-0.30103
-1.443752	tượng dưới	-0.30103
-1.443752	tịnh dưới	-0.30103
-1.443752	bộ dưới	-0.30103
-1.4498887	xe dưới	-0.30103
-1.443752	mã dưới	-0.30103
-1.4498887	pháo dưới	-0.30103
-1.4558896	tốt dưới	-0.30103
-1.4558896	binh dưới	-0.30103
-1.4558896	chốt dưới	-0.30103
-1.1790824	<s> tượng	-3.792782
-1.0228099	ăn tượng	-1.2710668
-1.0228099	bắt tượng	-1.2710668
-1.3705561	tướng bảy	-0.30103
-1.2905159	trên bảy	-0.72092456
-1.2905159	trước bảy	-0.72092456
-1.2905159	sau bảy	-0.72092456
-1.2905159	dưới bảy	-0.72092456
-1.3431246	tượng bảy	-0.30103
-1.3431246	tịnh bảy	-0.30103
-1.3431246	bộ bảy	-0.30103
-1.3479849	xe bảy	-0.30103
-1.3431246	mã bảy	-0.30103
-1.3479849	pháo bảy	-0.30103
-1.3527238	tốt bảy	-0.30103
-1.2979416	giữa bảy	-0.66900676
-1.3527238	binh bảy	-0.30103
-1.3527238	chốt bảy	-0.30103
-0.9961721	tiến bảy	-1.146128
-0.9961721	tấn bảy	-1.146128
-0.9913245	bình bảy	-1.1249387
-0.9873086	thoái bảy	-1.146128
-0.9873086	lùi bảy	-1.146128
-1.0570227	chiếu bảy	-1.2388821
-1.3705561	tướng hai	-0.30103
-1.2905159	trên hai	-0.72092456
-1.2905159	trước hai	-0.72092456
-1.2905159	sau hai	-0.72092456
-1.2905159	dưới hai	-0.72092456
-1.3431246	tượng hai	-0.30103
-1.3431246	tịnh hai	-0.30103
-1.3431246	bộ hai	-0.30103
-1.3479849	xe hai	-0.30103
-1.3431246	mã hai	-0.30103
-1.3479849	pháo hai	-0.30103
-1.3527238	tốt hai	-0.30103
-1.2979416	giữa hai	-0.66900676
-1.3527238	binh hai	-0.30103
-1.3527238	chốt hai	-0.30103
-0.9961721	tiến hai	-1.146128
-0.9961721	tấn hai	-1.146128
-0.9913245	bình hai	-1.1249387
-0.9873086	thoái hai	-1.146128
-0.9873086	lùi hai	-1.146128
-1.0570227	chiếu hai	-1.2388821
-1.3705561	tướng ba	-0.30103
-1.2905159	trên ba	-0.72092456
-1.2905159	trước ba	-0.72092456
-1.2905159	sau ba	-0.72092456
-1.2905159	dưới ba	-0.72092456
-1.3431246	tượng ba	-0.30103
-1.3431246	tịnh ba	-0.30103
-1.3431246	bộ ba	-0.30103
-1.3479849	xe ba	-0.30103
-1.3431246	mã ba	-0.30103
-1.3479849	pháo ba	-0.30103
-1.3527238	tốt ba	-0.30103
-1.2979416	giữa ba	-0.66900676
-1.3527238	binh ba	-0.30103
-1.3527238	chốt ba	-0.30103
-0.9961721	tiến ba	-1.146128
-0.9961721	tấn ba	-1.146128
-0.9913245	bình ba	-1.1249387
-0.9873086	thoái ba	-1.146128
-0.9873086	lùi ba	-1.146128
-1.0570227	chiếu ba	-1.2388821
-1.3705561	tướng một	-0.30103
-1.2905159	trên một	-0.72092456
-1.2905159	trước một	-0.72092456
-1.2905159	sau một	-0.72092456
-1.2905159	dưới một	-0.72092456
-1.3431246	tượng một	-0.30103
-1.3431246	tịnh một	-0.30103
-1.3431246	bộ một	-0.30103
-1.3479849	xe một	-0.30103
-1.3431246	mã một	-0.30103
-1.3479849	pháo một	-0.30103
-1.3527238	tốt một	-0.30103
-1.2979416	giữa một	-0.66900676
-1.3527238	binh một	-0.30103
-1.3527238	chốt một	-0.30103
-0.88210475	tiến một	-1.2552725
-0.88210475	tấn một	-1.2552725
-0.9913245	bình một	-1.1249387
-0.9458671	thoái một	-1.1856365
-0.9458671	lùi một	-1.1856365
-1.0570227	chiếu một	-1.2388821
-1.3705561	tướng chín	-0.30103
-1.2905159	trên chín	-0.72092456
-1.2905159	trước chín	-0.72092456
-1.2905159	sau chín	-0.72092456
-1.2905159	dưới chín	-0.72092456
-1.3431246	tượng chín	-0.30103
-1.3431246	tịnh chín	-0.30103
-1.3431246	bộ chín	-0.30103
-1.3479849	xe chín	-0.30103
-1.3431246	mã chín	-0.30103
-1.3479849	pháo chín	-0.30103
-1.3527238	tốt chín	-0.30103
-1.2979416	giữa chín	-0.66900676
-1.3527238	binh chín	-0.30103
-1.3527238	chốt chín	-0.30103
-0.9961721	tiến chín	-1.146128
-0.9961721	tấn chín	-1.146128
-0.9913245	bình chín	-1.1249387
-0.9873086	thoái chín	-1.146128
-0.9873086	lùi chín	-1.146128
-1.0570227	chiếu chín	-1.2388821
-1.3705561	tướng tám	-0.30103
-1.2905159	trên tám	-0.72092456
-1.2905159	trước tám	-0.72092456
-1.2905159	sau tám	-0.72092456
-1.2905159	dưới tám	-0.72092456
-1.3431246	tượng tám	-0.30103
-1.3431246	tịnh tám	-0.30103
-1.3431246	bộ tám	-0.30103
-1.3479849	xe tám	-0.30103
-1.3431246	mã tám	-0.30103
-1.3479849	pháo tám	-0.30103
-1.3527238	tốt tám	-0.30103
-1.2979416	giữa tám	-0.66900676
-1.3527238	binh tám	-0.30103
-1.3527238	chốt tám	-0.30103
-0.9961721	tiến tám	-1.146128
-0.9961721	tấn tám	-1.146128
-0.9913245	bình tám	-1.1249387
-0.9873086	thoái tám	-1.146128
-0.9873086	lùi tám	-1.146128
-1.0570227	chiếu tám	-1.2388821
-1.1790824	<s> tịnh	-3.792782
-1.0228099	ăn tịnh	-1.2710668
-1.0228099	bắt tịnh	-1.2710668
-1.1790824	<s> bộ	-3.792782
-1.0228099	ăn bộ	-1.2710668
-1.0228099	bắt bộ	-1.2710668
-0.744222	<s> xe	-4.2083354
-1.0228099	ăn xe	-1.2710668
-1.0228099	bắt xe	-1.2710668
-1.0609742	<s> mã	-3.9108894
-1.0228099	ăn mã	-1.2710668
-1.0228099	bắt mã	-1.2710668
-0.744222	<s> pháo	-4.2083354
-1.0228099	ăn pháo	-1.2710668
-1.0228099	bắt pháo	-1.2710668
-1.0144622	<s> tốt	-3.9574013
-1.0228099	ăn tốt	-1.2710668
-1.0228099	bắt tốt	-1.2710668
-1.9368579	trên giữa	-0.30103
-1.6780497	phải giữa	-0.30103
-1.9368579	trước giữa	-0.30103
-1.6780497	trái giữa	-0.30103
-1.9368579	sau giữa	-0.30103
-1.9368579	dưới giữa	-0.30103
-1.4666071	tốt giữa	-0.30103
-1.4666071	binh giữa	-0.30103
-1.4666071	chốt giữa	-0.30103
-1.0144622	<s> binh	-3.9574013
-1.0228099	ăn binh	-1.2710668
-1.0228099	bắt binh	-1.2710668
-1.0144622	<s> chốt	-3.9574013
-1.0228099	ăn chốt	-1.2710668
-1.0228099	bắt chốt	-1.2710668
-2.5006323	<s> soái	-2.8137145
-1.3135777	tướng tiến	-0.30103
-1.4263748	sĩ tiến	-0.30103
-1.2269437	trên tiến	-0.6478175
-0.9615849	bốn tiến	-0.72092456
-0.9496824	phải tiến	-0.6478175
-1.2269437	trước tiến	-0.6478175
-0.9496824	trái tiến	-0.6478175
-0.9615849	sáu tiến	-0.72092456
-1.2269437	sau tiến	-0.6478175
-0.9615849	năm tiến	-0.72699875
-1.2269437	dưới tiến	-0.6478175
-1.4836587	tượng tiến	-0.30103
-0.98067075	bảy tiến	-0.70217514
-0.98067075	hai tiến	-0.6758462
-0.98067075	ba tiến	-0.70217514
-0.98067075	một tiến	-0.66900676
-0.98067075	chín tiến	-0.66900676
-0.98067075	tám tiến	-0.6758462
-1.4836587	tịnh tiến	-0.30103
-1.4836587	bộ tiến	-0.30103
-1.4858911	xe tiến	-0.30103
-1.4836587	mã tiến	-0.30103
-1.4858911	pháo tiến	-0.30103
-1.4880548	tốt tiến	-0.30103
-1.1642767	giữa tiến	-0.7781512
-1.4880548	binh tiến	-0.30103
-1.4880548	chốt tiến	-0.30103
-1.1332635	soái tiến	-0.30103
-1.3135777	tướng tấn	-0.30103
-1.4263748	sĩ tấn	-0.30103
-1.2269437	trên tấn	-0.6478175
-0.9615849	bốn tấn	-0.72092456
-0.9496824	phải tấn	-0.6478175
-1.2269437	trước tấn	-0.6478175
-0.9496824	trái tấn	-0.6478175
-0.9615849	sáu tấn	-0.72092456
-1.2269437	sau tấn	-0.6478175
-0.9615849	năm tấn	-0.72699875
-1.2269437	dưới tấn	-0.6478175
-1.4836587	tượng tấn	-0.30103
-0.98067075	bảy tấn	-0.70217514
-0.98067075	hai tấn	-0.6758462
-0.98067075	ba tấn	-0.70217514
-0.98067075	một tấn	-0.66900676
-0.98067075	chín tấn	-0.66900676
-0.98067075	tám tấn	-0.6758462
-1.4836587	tịnh tấn	-0.30103
-1.4836587	bộ tấn	-0.30103
-1.4858911	xe tấn	-0.30103
-1.4836587	mã tấn	-0.30103
-1.4858911	pháo tấn	-0.30103
-1.4880548	tốt tấn	-0.30103
-1.1642767	giữa tấn	-0.7781512
-1.4880548	binh tấn	-0.30103
-1.4880548	chốt tấn	-0.30103
-1.1332635	soái tấn	-0.30103
-1.3534997	tướng bình	-0.30103
-1.5572878	trên bình	-0.5228787
-1.1264093	bốn bình	-0.6842467
-1.3032286	phải bình	-0.5228787
-1.5572878	trước bình	-0.5228787
-1.3032286	trái bình	-0.5228787
-1.1264093	sáu bình	-0.6842467
-1.5572878	sau bình	-0.5228787
-1.1264093	năm bình	-0.69897
-1.5572878	dưới bình	-0.5228787
-1.1429894	bảy bình	-0.66900676
-1.1429894	hai bình	-0.66900676
-1.1429894	ba bình	-0.66900676
-1.1429894	một bình	-0.6368221
-1.1429894	chín bình	-0.6368221
-1.1429894	tám bình	-0.66900676
-1.5466701	xe bình	-0.30103
-1.5466701	pháo bình	-0.30103
-1.5491595	tốt bình	-0.30103
-1.1747041	giữa bình	-0.7781512
-1.5491595	binh bình	-0.30103
-1.5491595	chốt bình	-0.30103
-1.1592051	soái bình	-0.30103
-1.3452163	tướng thoái	-0.30103
-1.4678576	sĩ thoái	-0.30103
-1.3973324	trên thoái	-0.6255411
-1.0880605	bốn thoái	-0.69574106
-1.1281358	phải thoái	-0.6255411
-1.3973324	trước thoái	-0.6255411
-1.1281358	trái thoái	-0.6255411
-1.0880605	sáu thoái	-0.69574106
-1.3973324	sau thoái	-0.6255411
-1.0880605	năm thoái	-0.70217514
-1.3973324	dưới thoái	-0.6255411
-1.5313226	tượng thoái	-0.30103
-1.1416532	bảy thoái	-0.6758462
-1.1416532	hai thoái	-0.6478175
-1.1416532	ba thoái	-0.6758462
-1.1416532	một thoái	-0.64051825
-1.1416532	chín thoái	-0.64051825
-1.1416532	tám thoái	-0.6478175
-1.5313226	tịnh thoái	-0.30103
-1.5313226	bộ thoái	-0.30103
-1.5338147	xe thoái	-0.30103
-1.5313226	mã thoái	-0.30103
-1.5338147	pháo thoái	-0.30103
-1.1538913	soái thoái	-0.30103
-1.3452163	tướng lùi	-0.30103
-1.4678576	sĩ lùi	-0.30103
-1.3973324	trên lùi	-0.6255411
-1.0880605	bốn lùi	-0.69574106
-1.1281358	phải lùi	-0.6255411
-1.3973324	trước lùi	-0.6255411
-1.1281358	trái lùi	-0.6255411
-1.0880605	sáu lùi	-0.69574106
-1.3973324	sau lùi	-0.6255411
-1.0880605	năm lùi	-0.70217514
-1.3973324	dưới lùi	-0.6255411
-1.5313226	tượng lùi	-0.30103
-1.1416532	bảy lùi	-0.6758462
-1.1416532	hai lùi	-0.6478175
-1.1416532	ba lùi	-0.6758462
-1.1416532	một lùi	-0.64051825
-1.1416532	chín lùi	-0.64051825
-1.1416532	tám lùi	-0.6478175
-1.5313226	tịnh lùi	-0.30103
-1.5313226	bộ lùi	-0.30103
-1.5338147	xe lùi	-0.30103
-1.5313226	mã lùi	-0.30103
-1.5338147	pháo lùi	-0.30103
-1.1538913	soái lùi	-0.30103
-1.9318821	bốn qua	-0.30103
-1.9318821	sáu qua	-0.30103
-1.9318821	năm qua	-0.30103
-1.8624996	bảy qua	-0.30103
-1.8624996	hai qua	-0.30103
-1.8624996	ba qua	-0.30103
-1.8624996	một qua	-0.30103
-1.8624996	chín qua	-0.30103
-1.8624996	tám qua	-0.30103
-0.07886549	qua sông	-0.7781512
-0.07886549	sang sông	-0.7781512
-1.9318821	bốn sang	-0.30103
-1.9318821	sáu sang	-0.30103
-1.9318821	năm sang	-0.30103
-1.8624996	bảy sang	-0.30103
-1.8624996	hai sang	-0.30103
-1.8624996	ba sang	-0.30103
-1.8624996	một sang	-0.30103
-1.8624996	chín sang	-0.30103
-1.8624996	tám sang	-0.30103
-2.4904366	<s> chấp	-3.8239088
-0.29945347	chấp nhận	-0.30103
-0.29945347	xác nhận	-0.30103
-2.4904366	<s> xác	-3.8239088
-2.4904366	<s> đồng	-3.8239088
-0.2998228	đồng ý	-0.30103
-2.4904366	<s> ô	-3.8239088
-0.2998228	ô kê	-0.30103
-2.4904366	<s> hủy	-3.8239088
-0.2998228	hủy bỏ	-0.30103
-2.4904366	<s> từ	-3.8239088
-0.2998228	từ chối	-0.30103
-2.4904366	<s> đầu	-3.8239088
-0.2998228	đầu hàng	-0.30103
-2.189376	<s> xin	-3.8239088
-0.59964895	xin hòa	-0.30103
-2.4904366	<s> đổi	-3.8239088
-0.2998228	đổi phe	-0.30103
-0.59964895	xin chơi	-0.30103
-0.29945347	chơi lại	-0.30103
-0.29945347	đi lại	-0.30103
-2.4904366	<s> đi	-3.8239088
-1.4466211	sĩ chiếu	-0.30103
-1.2312565	trên chiếu	-0.8239087
-1.0202348	bốn chiếu	-1
-0.9521039	phải chiếu	-0.8239087
-1.2312565	trước chiếu	-0.8239087
-0.9521039	trái chiếu	-0.8239087
-1.0202348	sáu chiếu	-1
-1.2312565	sau chiếu	-0.8239087
-1.0202348	năm chiếu	-1
-1.2312565	dưới chiếu	-0.8239087
-1.5068371	tượng chiếu	-0.30103
-0.9825165	bảy chiếu	-0.97003675
-0.9825165	hai chiếu	-0.97003675
-0.9825165	ba chiếu	-0.97003675
-0.9825165	một chiếu	-0.97003675
-0.9825165	chín chiếu	-0.97003675
-0.9825165	tám chiếu	-0.97003675
-1.5068371	tịnh chiếu	-0.30103
-1.5068371	bộ chiếu	-0.30103
-1.5091922	xe chiếu	-0.30103
-1.5068371	mã chiếu	-0.30103
-1.5091922	pháo chiếu	-0.30103
-1.5114753	tốt chiếu	-0.30103
-1.1684177	giữa chiếu	-0.7781512
-1.5114753	binh chiếu	-0.30103
-1.5114753	chốt chiếu	-0.30103

\3-grams:
-1.0108819	chiếu tướng </s>	0
-1.0094346	ăn sĩ </s>	0
-1.0094346	bắt sĩ </s>	0
-1.0621283	sĩ trên </s>	0
-1.2299379	tượng trên </s>	0
-1.2299379	tịnh trên </s>	0
-1.2299379	bộ trên </s>	0
-1.2355098	xe trên </s>	0
-1.2299379	mã trên </s>	0
-1.2355098	pháo trên </s>	0
-1.2408551	tốt trên </s>	0
-1.2408551	binh trên </s>	0
-1.2408551	chốt trên </s>	0
-0.8701569	tướng bốn </s>	0
-0.7364617	sĩ bốn </s>	0
-0.87837017	trên bốn </s>	0
-0.87837017	trước bốn </s>	0
-0.87837017	sau bốn </s>	0
-0.87837017	dưới bốn </s>	0
-0.7364617	tượng bốn </s>	0
-0.7364617	tịnh bốn </s>	0
-0.7364617	bộ bốn </s>	0
-0.7635948	xe bốn </s>	0
-0.7364617	mã bốn </s>	0
-0.7635948	pháo bốn </s>	0
-0.7635948	tốt bốn </s>	0
-0.84390235	giữa bốn </s>	0
-0.7635948	binh bốn </s>	0
-0.7635948	chốt bốn </s>	0
-0.026094915	tiến bốn </s>	0
-0.026094915	tấn bốn </s>	0
-0.026094915	bình bốn </s>	0
-0.026094915	thoái bốn </s>	0
-0.026094915	lùi bốn </s>	0
-0.021976827	chiếu bốn </s>	0
-0.7725918	sĩ phải </s>	0
-0.7725918	tượng phải </s>	0
-0.7725918	tịnh phải </s>	0
-0.7725918	bộ phải </s>	0
-0.8021607	xe phải </s>	0
-0.7725918	mã phải </s>	0
-0.8021607	pháo phải </s>	0
-0.8279465	tốt phải </s>	0
-0.8279465	binh phải </s>	0
-0.8279465	chốt phải </s>	0
-1.0621283	sĩ trước </s>	0
-1.2299379	tượng trước </s>	0
-1.2299379	tịnh trước </s>	0
-1.2299379	bộ trước </s>	0
-1.2355098	xe trước </s>	0
-1.2299379	mã trước </s>	0
-1.2355098	pháo trước </s>	0
-1.2408551	tốt trước </s>	0
-1.2408551	binh trước </s>	0
-1.2408551	chốt trước </s>	0
-0.7725918	sĩ trái </s>	0
-0.7725918	tượng trái </s>	0
-0.7725918	tịnh trái </s>	0
-0.7725918	bộ trái </s>	0
-0.8021607	xe trái </s>	0
-0.7725918	mã trái </s>	0
-0.8021607	pháo trái </s>	0
-0.8279465	tốt trái </s>	0
-0.8279465	binh trái </s>	0
-0.8279465	chốt trái </s>	0
-0.8701569	tướng sáu </s>	0
-0.7364617	sĩ sáu </s>	0
-0.87837017	trên sáu </s>	0
-0.87837017	trước sáu </s>	0
-0.87837017	sau sáu </s>	0
-0.87837017	dưới sáu </s>	0
-0.7364617	tượng sáu </s>	0
-0.7364617	tịnh sáu </s>	0
-0.7364617	bộ sáu </s>	0
-0.7635948	xe sáu </s>	0
-0.7364617	mã sáu </s>	0
-0.7635948	pháo sáu </s>	0
-0.7635948	tốt sáu </s>	0
-0.84390235	giữa sáu </s>	0
-0.7635948	binh sáu </s>	0
-0.7635948	chốt sáu </s>	0
-0.026094915	tiến sáu </s>	0
-0.026094915	tấn sáu </s>	0
-0.026094915	bình sáu </s>	0
-0.026094915	thoái sáu </s>	0
-0.026094915	lùi sáu </s>	0
-0.021976827	chiếu sáu </s>	0
-1.0621283	sĩ sau </s>	0
-1.2299379	tượng sau </s>	0
-1.2299379	tịnh sau </s>	0
-1.2299379	bộ sau </s>	0
-1.2355098	xe sau </s>	0
-1.2299379	mã sau </s>	0
-1.2355098	pháo sau </s>	0
-1.2408551	tốt sau </s>	0
-1.2408551	binh sau </s>	0
-1.2408551	chốt sau </s>	0
-0.8701569	tướng năm </s>	0
-0.7364617	sĩ năm </s>	0
-0.8558043	trên năm </s>	0
-0.8558043	trước năm </s>	0
-0.8558043	sau năm </s>	0
-0.8558043	dưới năm </s>	0
-0.7364617	tượng năm </s>	0
-0.7364617	tịnh năm </s>	0
-0.7364617	bộ năm </s>	0
-0.7635948	xe năm </s>	0
-0.7364617	mã năm </s>	0
-0.7635948	pháo năm </s>	0
-0.7635948	tốt năm </s>	0
-0.84390235	giữa năm </s>	0
-0.7635948	binh năm </s>	0
-0.7635948	chốt năm </s>	0
-0.026094915	tiến năm </s>	0
-0.026094915	tấn năm </s>	0
-0.026094915	bình năm </s>	0
-0.026094915	thoái năm </s>	0
-0.026094915	lùi năm </s>	0
-0.021976827	chiếu năm </s>	0
-1.0621283	sĩ dưới </s>	0
-1.2299379	tượng dưới </s>	0
-1.2299379	tịnh dưới </s>	0
-1.2299379	bộ dưới </s>	0
-1.2355098	xe dưới </s>	0
-1.2299379	mã dưới </s>	0
-1.2355098	pháo dưới </s>	0
-1.2408551	tốt dưới </s>	0
-1.2408551	binh dưới </s>	0
-1.2408551	chốt dưới </s>	0
-1.2085624	ăn tượng </s>	0
-1.2085624	bắt tượng </s>	0
-0.23586632	tướng bảy </s>	0
-0.8651378	trên bảy </s>	0
-0.8651378	trước bảy </s>	0
-0.8651378	sau bảy </s>	0
-0.8651378	dưới bảy </s>	0
-0.71657586	tượng bảy </s>	0
-0.71657586	tịnh bảy </s>	0
-0.71657586	bộ bảy </s>	0
-0.7424577	xe bảy </s>	0
-0.71657586	mã bảy </s>	0
-0.7424577	pháo bảy </s>	0
-0.7424577	tốt bảy </s>	0
-0.8328752	giữa bảy </s>	0
-0.7424577	binh bảy </s>	0
-0.7424577	chốt bảy </s>	0
-0.026809916	tiến bảy </s>	0
-0.026809916	tấn bảy </s>	0
-0.02819484	bình bảy </s>	0
-0.026809916	thoái bảy </s>	0
-0.026809916	lùi bảy </s>	0
-0.021523962	chiếu bảy </s>	0
-0.23586632	tướng hai </s>	0
-0.8651378	trên hai </s>	0
-0.8651378	trước hai </s>	0
-0.8651378	sau hai </s>	0
-0.8651378	dưới hai </s>	0
-0.71657586	tượng hai </s>	0
-0.71657586	tịnh hai </s>	0
-0.71657586	bộ hai </s>	0
-0.7424577	xe hai </s>	0
-0.71657586	mã hai </s>	0
-0.7424577	pháo hai </s>	0
-0.7424577	tốt hai </s>	0
-0.8328752	giữa hai </s>	0
-0.7424577	binh hai </s>	0
-0.7424577	chốt hai </s>	0
-0.026809916	tiến hai </s>	0
-0.026809916	tấn hai </s>	0
-0.02819484	bình hai </s>	0
-0.026809916	thoái hai </s>	0
-0.026809916	lùi hai </s>	0
-0.021523962	chiếu hai </s>	0
-0.23586632	tướng ba </s>	0
-0.8651378	trên ba </s>	0
-0.8651378	trước ba </s>	0
-0.8651378	sau ba </s>	0
-0.8651378	dưới ba </s>	0
-0.71657586	tượng ba </s>	0
-0.71657586	tịnh ba </s>	0
-0.71657586	bộ ba </s>	0
-0.7424577	xe ba </s>	0
-0.71657586	mã ba </s>	0
-0.7424577	pháo ba </s>	0
-0.7424577	tốt ba </s>	0
-0.8328752	giữa ba </s>	0
-0.7424577	binh ba </s>	0
-0.7424577	chốt ba </s>	0
-0.026809916	tiến ba </s>	0
-0.026809916	tấn ba </s>	0
-0.02819484	bình ba </s>	0
-0.026809916	thoái ba </s>	0
-0.026809916	lùi ba </s>	0
-0.021523962	chiếu ba </s>	0
-0.23586632	tướng một </s>	0
-0.8651378	trên một </s>	0
-0.8651378	trước một </s>	0
-0.8651378	sau một </s>	0
-0.8651378	dưới một </s>	0
-0.71657586	tượng một </s>	0
-0.71657586	tịnh một </s>	0
-0.71657586	bộ một </s>	0
-0.7424577	xe một </s>	0
-0.71657586	mã một </s>	0
-0.7424577	pháo một </s>	0
-0.7424577	tốt một </s>	0
-0.8328752	giữa một </s>	0
-0.7424577	binh một </s>	0
-0.7424577	chốt một </s>	0
-0.020707497	tiến một </s>	0
-0.020707497	tấn một </s>	0
-0.02819484	bình một </s>	0
-0.024411757	thoái một </s>	0
-0.024411757	lùi một </s>	0
-0.021523962	chiếu một </s>	0
-0.23586632	tướng chín </s>	0
-0.8651378	trên chín </s>	0
-0.8651378	trước chín </s>	0
-0.8651378	sau chín </s>	0
-0.8651378	dưới chín </s>	0
-0.71657586	tượng chín </s>	0
-0.71657586	tịnh chín </s>	0
-0.71657586	bộ chín </s>	0
-0.7424577	xe chín </s>	0
-0.71657586	mã chín </s>	0
-0.7424577	pháo chín </s>	0
-0.7424577	tốt chín </s>	0
-0.8328752	giữa chín </s>	0
-0.7424577	binh chín </s>	0
-0.7424577	chốt chín </s>	0
-0.026809916	tiến chín </s>	0
-0.026809916	tấn chín </s>	0
-0.02819484	bình chín </s>	0
-0.026809916	thoái chín </s>	0
-0.026809916	lùi chín </s>	0
-0.021523962	chiếu chín </s>	0
-0.23586632	tướng tám </s>	0
-0.8651378	trên tám </s>	0
-0.8651378	trước tám </s>	0
-0.8651378	sau tám </s>	0
-0.8651378	dưới tám </s>	0
-0.71657586	tượng tám </s>	0
-0.71657586	tịnh tám </s>	0
-0.71657586	bộ tám </s>	0
-0.7424577	xe tám </s>	0
-0.71657586	mã tám </s>	0
-0.7424577	pháo tám </s>	0
-0.7424577	tốt tám </s>	0
-0.8328752	giữa tám </s>	0
-0.7424577	binh tám </s>	0
-0.7424577	chốt tám </s>	0
-0.026809916	tiến tám </s>	0
-0.026809916	tấn tám </s>	0
-0.02819484	bình tám </s>	0
-0.026809916	thoái tám </s>	0
-0.026809916	lùi tám </s>	0
-0.021523962	chiếu tám </s>	0
-1.2085624	ăn tịnh </s>	0
-1.2085624	bắt tịnh </s>	0
-1.2085624	ăn bộ </s>	0
-1.2085624	bắt bộ </s>	0
-1.208689	ăn xe </s>	0
-1.208689	bắt xe </s>	0
-1.2085624	ăn mã </s>	0
-1.2085624	bắt mã </s>	0
-1.208689	ăn pháo </s>	0
-1.208689	bắt pháo </s>	0
-1.2339666	ăn tốt </s>	0
-1.2339666	bắt tốt </s>	0
-1.1730976	trên giữa </s>	0
-0.9693744	phải giữa </s>	0
-1.1730976	trước giữa </s>	0
-0.9693744	trái giữa </s>	0
-1.1730976	sau giữa </s>	0
-1.1730976	dưới giữa </s>	0
-1.1907823	tốt giữa </s>	0
-1.1907823	binh giữa </s>	0
-1.1907823	chốt giữa </s>	0
-1.2339666	ăn binh </s>	0
-1.2339666	bắt binh </s>	0
-1.2339666	ăn chốt </s>	0
-1.2339666	bắt chốt </s>	0
-0.035260577	qua sông </s>	0
-0.035260577	sang sông </s>	0
-0.11574046	chấp nhận </s>	0
-0.11574046	xác nhận </s>	0
-0.11574046	đồng ý </s>	0
-0.11574046	ô kê </s>	0
-0.11574046	hủy bỏ </s>	0
-0.11574046	từ chối </s>	0
-0.11574046	đầu hàng </s>	0
-0.11574046	xin hòa </s>	0
-0.11574046	đổi phe </s>	0
-0.11574046	chơi lại </s>	0
-0.11574046	đi lại </s>	0
-1.0450866	sĩ chiếu </s>	0
-1.0424976	trên chiếu </s>	0
-1.042129	bốn chiếu </s>	0
-1.0424976	phải chiếu </s>	0
-1.0424976	trước chiếu </s>	0
-1.0424976	trái chiếu </s>	0
-1.042129	sáu chiếu </s>	0
-1.0424976	sau chiếu </s>	0
-1.042129	năm chiếu </s>	0
-1.0424976	dưới chiếu </s>	0
-1.0450866	tượng chiếu </s>	0
-1.0421816	bảy chiếu </s>	0
-1.0421816	hai chiếu </s>	0
-1.0421816	ba chiếu </s>	0
-1.0421816	một chiếu </s>	0
-1.0421816	chín chiếu </s>	0
-1.0421816	tám chiếu </s>	0
-1.0450866	tịnh chiếu </s>	0
-1.0450866	bộ chiếu </s>	0
-1.0450866	xe chiếu </s>	0
-1.0450866	mã chiếu </s>	0
-1.0450866	pháo chiếu </s>	0
-1.0450866	tốt chiếu </s>	0
-1.0426205	giữa chiếu </s>	0
-1.0450866	binh chiếu </s>	0
-1.0450866	chốt chiếu </s>	0
-1.0535889	sĩ chiếu tướng	-1.30103
-1.0450157	trên chiếu tướng	-2.30103
-1.0438048	bốn chiếu tướng	-3.1139433
-1.0450157	phải chiếu tướng	-2.30103
-1.0450157	trước chiếu tướng	-2.30103
-1.0450157	trái chiếu tướng	-2.30103
-1.0438048	sáu chiếu tướng	-3.1139433
-1.0450157	sau chiếu tướng	-2.30103
-1.0438048	năm chiếu tướng	-3.1139433
-1.0450157	dưới chiếu tướng	-2.30103
-1.0535889	tượng chiếu tướng	-1.30103
-1.0439775	bảy chiếu tướng	-3.0791812
-1.0439775	hai chiếu tướng	-3.0791812
-1.0439775	ba chiếu tướng	-3.0791812
-1.0439775	một chiếu tướng	-3.0791812
-1.0439775	chín chiếu tướng	-3.0791812
-1.0439775	tám chiếu tướng	-3.0791812
-1.0535889	tịnh chiếu tướng	-1.30103
-1.0535889	bộ chiếu tướng	-1.30103
-1.0535889	xe chiếu tướng	-1.30103
-1.0535889	mã chiếu tướng	-1.30103
-1.0535889	pháo chiếu tướng	-1.30103
-1.0535889	tốt chiếu tướng	-1.30103
-1.0454202	giữa chiếu tướng	-2.6232493
-1.0535889	binh chiếu tướng	-1.30103
-1.0535889	chốt chiếu tướng	-1.30103
-1.1800921	<s> tướng ăn	-1.6341412
-2.0228338	<s> sĩ ăn	-1.6341412
-1.2408772	sĩ trên ăn	-1.6341412
-1.3611217	tượng trên ăn	-1.6341412
-1.3611217	tịnh trên ăn	-1.6341412
-1.3611217	bộ trên ăn	-1.6341412
-1.3648821	xe trên ăn	-1.6341412
-1.3611217	mã trên ăn	-1.6341412
-1.3648821	pháo trên ăn	-1.6341412
-1.3684751	tốt trên ăn	-1.6341412
-1.3684751	binh trên ăn	-1.6341412
-1.3684751	chốt trên ăn	-1.6341412
-0.9313534	tướng bốn ăn	-1.6341412
-0.9578982	sĩ bốn ăn	-1.6341412
-0.8987206	trên bốn ăn	-2.6341412
-0.8987206	trước bốn ăn	-2.6341412
-0.8987206	sau bốn ăn	-2.6341412
-0.8987206	dưới bốn ăn	-2.6341412
-0.9578982	tượng bốn ăn	-1.6341412
-0.9578982	tịnh bốn ăn	-1.6341412
-0.9578982	bộ bốn ăn	-1.6341412
-0.98036784	xe bốn ăn	-1.6341412
-0.9578982	mã bốn ăn	-1.6341412
-0.98036784	pháo bốn ăn	-1.6341412
-0.98036784	tốt bốn ăn	-1.6341412
-0.86756337	giữa bốn ăn	-2.8102326
-0.98036784	binh bốn ăn	-1.6341412
-0.98036784	chốt bốn ăn	-1.6341412
-0.8994476	soái bốn ăn	-1.6341412
-0.95195645	sĩ phải ăn	-1.6341412
-0.95195645	tượng phải ăn	-1.6341412
-0.95195645	tịnh phải ăn	-1.6341412
-0.95195645	bộ phải ăn	-1.6341412
-0.97411287	xe phải ăn	-1.6341412
-0.95195645	mã phải ăn	-1.6341412
-0.97411287	pháo phải ăn	-1.6341412
-0.99312127	tốt phải ăn	-1.6341412
-0.99312127	binh phải ăn	-1.6341412
-0.99312127	chốt phải ăn	-1.6341412
-1.2408772	sĩ trước ăn	-1.6341412
-1.3611217	tượng trước ăn	-1.6341412
-1.3611217	tịnh trước ăn	-1.6341412
-1.3611217	bộ trước ăn	-1.6341412
-1.3648821	xe trước ăn	-1.6341412
-1.3611217	mã trước ăn	-1.6341412
-1.3648821	pháo trước ăn	-1.6341412
-1.3684751	tốt trước ăn	-1.6341412
-1.3684751	binh trước ăn	-1.6341412
-1.3684751	chốt trước ăn	-1.6341412
-0.95195645	sĩ trái ăn	-1.6341412
-0.95195645	tượng trái ăn	-1.6341412
-0.95195645	tịnh trái ăn	-1.6341412
-0.95195645	bộ trái ăn	-1.6341412
-0.97411287	xe trái ăn	-1.6341412
-0.95195645	mã trái ăn	-1.6341412
-0.97411287	pháo trái ăn	-1.6341412
-0.99312127	tốt trái ăn	-1.6341412
-0.99312127	binh trái ăn	-1.6341412
-0.99312127	chốt trái ăn	-1.6341412
-0.9313534	tướng sáu ăn	-1.6341412
-0.9578982	sĩ sáu ăn	-1.6341412
-0.8987206	trên sáu ăn	-2.6341412
-0.8987206	trước sáu ăn	-2.6341412
-0.8987206	sau sáu ăn	-2.6341412
-0.8987206	dưới sáu ăn	-2.6341412
-0.9578982	tượng sáu ăn	-1.6341412
-0.9578982	tịnh sáu ăn	-1.6341412
-0.9578982	bộ sáu ăn	-1.6341412
-0.98036784	xe sáu ăn	-1.6341412
-0.9578982	mã sáu ăn	-1.6341412
-0.98036784	pháo sáu ăn	-1.6341412
-0.98036784	tốt sáu ăn	-1.6341412
-0.86756337	giữa sáu ăn	-2.8102326
-0.98036784	binh sáu ăn	-1.6341412
-0.98036784	chốt sáu ăn	-1.6341412
-0.8994476	soái sáu ăn	-1.6341412
-1.2408772	sĩ sau ăn	-1.6341412
-1.3611217	tượng sau ăn	-1.6341412
-1.3611217	tịnh sau ăn	-1.6341412
-1.3611217	bộ sau ăn	-1.6341412
-1.3648821	xe sau ăn	-1.6341412
-1.3611217	mã sau ăn	-1.6341412
-1.3648821	pháo sau ăn	-1.6341412
-1.3684751	tốt sau ăn	-1.6341412
-1.3684751	binh sau ăn	-1.6341412
-1.3684751	chốt sau ăn	-1.6341412
-0.9313534	tướng năm ăn	-1.6341412
-0.9578982	sĩ năm ăn	-1.6341412
-0.8761548	trên năm ăn	-2.6341412
-0.8761548	trước năm ăn	-2.6341412
-0.8761548	sau năm ăn	-2.6341412
-0.8761548	dưới năm ăn	-2.6341412
-0.9578982	tượng năm ăn	-1.6341412
-0.9578982	tịnh năm ăn	-1.6341412
-0.9578982	bộ năm ăn	-1.6341412
-0.98036784	xe năm ăn	-1.6341412
-0.9578982	mã năm ăn	-1.6341412
-0.98036784	pháo năm ăn	-1.6341412
-0.98036784	tốt năm ăn	-1.6341412
-0.86756337	giữa năm ăn	-2.8102326
-0.98036784	binh năm ăn	-1.6341412
-0.98036784	chốt năm ăn	-1.6341412
-0.8994476	soái năm ăn	-1.6341412
-1.2408772	sĩ dưới ăn	-1.6341412
-1.3611217	tượng dưới ăn	-1.6341412
-1.3611217	tịnh dưới ăn	-1.6341412
-1.3611217	bộ dưới ăn	-1.6341412
-1.3648821	xe dưới ăn	-1.6341412
-1.3611217	mã dưới ăn	-1.6341412
-1.3648821	pháo dưới ăn	-1.6341412
-1.3684751	tốt dưới ăn	-1.6341412
-1.3684751	binh dưới ăn	-1.6341412
-1.3684751	chốt dưới ăn	-1.6341412
-2.5013435	<s> tượng ăn	-1.6341412
-0.9013103	trên bảy ăn	-2.5883837
-0.9013103	trước bảy ăn	-2.5883837
-0.9013103	sau bảy ăn	-2.5883837
-0.9013103	dưới bảy ăn	-2.5883837
-0.96725565	tượng bảy ăn	-1.6341412
-0.96725565	tịnh bảy ăn	-1.6341412
-0.96725565	bộ bảy ăn	-1.6341412
-0.9902279	xe bảy ăn	-1.6341412
-0.96725565	mã bảy ăn	-1.6341412
-0.9902279	pháo bảy ăn	-1.6341412
-0.9902279	tốt bảy ăn	-1.6341412
-0.87079775	giữa bảy ăn	-2.8102326
-0.9902279	binh bảy ăn	-1.6341412
-0.9902279	chốt bảy ăn	-1.6341412
-0.9013103	trên hai ăn	-2.5883837
-0.9013103	trước hai ăn	-2.5883837
-0.9013103	sau hai ăn	-2.5883837
-0.9013103	dưới hai ăn	-2.5883837
-0.96725565	tượng hai ăn	-1.6341412
-0.96725565	tịnh hai ăn	-1.6341412
-0.96725565	bộ hai ăn	-1.6341412
-0.9902279	xe hai ăn	-1.6341412
-0.96725565	mã hai ăn	-1.6341412
-0.9902279	pháo hai ăn	-1.6341412
-0.9902279	tốt hai ăn	-1.6341412
-0.87079775	giữa hai ăn	-2.8102326
-0.9902279	binh hai ăn	-1.6341412
-0.9902279	chốt hai ăn	-1.6341412
-0.9013103	trên ba ăn	-2.5883837
-0.9013103	trước ba ăn	-2.5883837
-0.9013103	sau ba ăn	-2.5883837
-0.9013103	dưới ba ăn	-2.5883837
-0.96725565	tượng ba ăn	-1.6341412
-0.96725565	tịnh ba ăn	-1.6341412
-0.96725565	bộ ba ăn	-1.6341412
-0.9902279	xe ba ăn	-1.6341412
-0.96725565	mã ba ăn	-1.6341412
-0.9902279	pháo ba ăn	-1.6341412
-0.9902279	tốt ba ăn	-1.6341412
-0.87079775	giữa ba ăn	-2.8102326
-0.9902279	binh ba ăn	-1.6341412
-0.9902279	chốt ba ăn	-1.6341412
-0.9013103	trên một ăn	-2.5883837
-0.9013103	trước một ăn	-2.5883837
-0.9013103	sau một ăn	-2.5883837
-0.9013103	dưới một ăn	-2.5883837
-0.96725565	tượng một ăn	-1.6341412
-0.96725565	tịnh một ăn	-1.6341412
-0.96725565	bộ một ăn	-1.6341412
-0.9902279	xe một ăn	-1.6341412
-0.96725565	mã một ăn	-1.6341412
-0.9902279	pháo một ăn	-1.6341412
-0.9902279	tốt một ăn	-1.6341412
-0.87079775	giữa một ăn	-2.8102326
-0.9902279	binh một ăn	-1.6341412
-0.9902279	chốt một ăn	-1.6341412
-0.9013103	trên chín ăn	-2.5883837
-0.9013103	trước chín ăn	-2.5883837
-0.9013103	sau chín ăn	-2.5883837
-0.9013103	dưới chín ăn	-2.5883837
-0.96725565	tượng chín ăn	-1.6341412
-0.96725565	tịnh chín ăn	-1.6341412
-0.96725565	bộ chín ăn	-1.6341412
-0.9902279	xe chín ăn	-1.6341412
-0.96725565	mã chín ăn	-1.6341412
-0.9902279	pháo chín ăn	-1.6341412
-0.9902279	tốt chín ăn	-1.6341412
-0.87079775	giữa chín ăn	-2.8102326
-0.9902279	binh chín ăn	-1.6341412
-0.9902279	chốt chín ăn	-1.6341412
-0.9013103	trên tám ăn	-2.5883837
-0.9013103	trước tám ăn	-2.5883837
-0.9013103	sau tám ăn	-2.5883837
-0.9013103	dưới tám ăn	-2.5883837
-0.96725565	tượng tám ăn	-1.6341412
-0.96725565	tịnh tám ăn	-1.6341412
-0.96725565	bộ tám ăn	-1.6341412
-0.9902279	xe tám ăn	-1.6341412
-0.96725565	mã tám ăn	-1.6341412
-0.9902279	pháo tám ăn	-1.6341412
-0.9902279	tốt tám ăn	-1.6341412
-0.87079775	giữa tám ăn	-2.8102326
-0.9902279	binh tám ăn	-1.6341412
-0.9902279	chốt tám ăn	-1.6341412
-2.5013435	<s> tịnh ăn	-1.6341412
-2.5013435	<s> bộ ăn	-1.6341412
-2.9361727	<s> xe ăn	-1.6341412
-2.619451	<s> mã ăn	-1.6341412
-2.9361727	<s> pháo ăn	-1.6341412
-2.66597	<s> tốt ăn	-1.6341412
-1.1837416	trên giữa ăn	-2.1112626
-0.97600245	phải giữa ăn	-2.1112626
-1.1837416	trước giữa ăn	-2.1112626
-0.97600245	trái giữa ăn	-2.1112626
-1.1837416	sau giữa ăn	-2.1112626
-1.1837416	dưới giữa ăn	-2.1112626
-1.3139155	tốt giữa ăn	-1.6341412
-1.3139155	binh giữa ăn	-1.6341412
-1.3139155	chốt giữa ăn	-1.6341412
-2.66597	<s> binh ăn	-1.6341412
-2.66597	<s> chốt ăn	-1.6341412
-1.1798396	<s> soái ăn	-1.6341412
-1.0112551	tướng ăn sĩ	-0.38818017
-1.0112551	sĩ ăn sĩ	-0.38818017
-1.003346	trên ăn sĩ	-1.1663314
-1.0019652	bốn ăn sĩ	-1.9924062
-1.003346	phải ăn sĩ	-1.1663314
-1.003346	trước ăn sĩ	-1.1663314
-1.003346	trái ăn sĩ	-1.1663314
-1.0019652	sáu ăn sĩ	-1.9924062
-1.003346	sau ăn sĩ	-1.1663314
-1.0019652	năm ăn sĩ	-1.9924062
-1.003346	dưới ăn sĩ	-1.1663314
-1.0112551	tượng ăn sĩ	-0.38818017
-1.0023874	bảy ăn sĩ	-1.9444827
-1.0023874	hai ăn sĩ	-1.9444827
-1.0023874	ba ăn sĩ	-1.9444827
-1.0023874	một ăn sĩ	-1.9444827
-1.0023874	chín ăn sĩ	-1.9444827
-1.0023874	tám ăn sĩ	-1.9444827
-1.0112551	tịnh ăn sĩ	-0.38818017
-1.0112551	bộ ăn sĩ	-0.38818017
-1.0112551	xe ăn sĩ	-0.38818017
-1.0112551	mã ăn sĩ	-0.38818017
-1.0112551	pháo ăn sĩ	-0.38818017
-1.0112551	tốt ăn sĩ	-0.38818017
-1.0037194	giữa ăn sĩ	-1.4885507
-1.0112551	binh ăn sĩ	-0.38818017
-1.0112551	chốt ăn sĩ	-0.38818017
-1.0112551	soái ăn sĩ	-0.38818017
-1.0112551	tướng bắt sĩ	-0.38818017
-1.0112551	sĩ bắt sĩ	-0.38818017
-1.003346	trên bắt sĩ	-1.1663314
-1.0019652	bốn bắt sĩ	-1.9924062
-1.003346	phải bắt sĩ	-1.1663314
-1.003346	trước bắt sĩ	-1.1663314
-1.003346	trái bắt sĩ	-1.1663314
-1.0019652	sáu bắt sĩ	-1.9924062
-1.003346	sau bắt sĩ	-1.1663314
-1.0019652	năm bắt sĩ	-1.9924062
-1.003346	dưới bắt sĩ	-1.1663314
-1.0112551	tượng bắt sĩ	-0.38818017
-1.0023874	bảy bắt sĩ	-1.9444827
-1.0023874	hai bắt sĩ	-1.9444827
-1.0023874	ba bắt sĩ	-1.9444827
-1.0023874	một bắt sĩ	-1.9444827
-1.0023874	chín bắt sĩ	-1.9444827
-1.0023874	tám bắt sĩ	-1.9444827
-1.0112551	tịnh bắt sĩ	-0.38818017
-1.0112551	bộ bắt sĩ	-0.38818017
-1.0112551	xe bắt sĩ	-0.38818017
-1.0112551	mã bắt sĩ	-0.38818017
-1.0112551	pháo bắt sĩ	-0.38818017
-1.0112551	tốt bắt sĩ	-0.38818017
-1.0037194	giữa bắt sĩ	-1.4885507
-1.0112551	binh bắt sĩ	-0.38818017
-1.0112551	chốt bắt sĩ	-0.38818017
-1.0112551	soái bắt sĩ	-0.38818017
-1.1800921	<s> tướng bắt	-1.6341412
-2.0228338	<s> sĩ bắt	-1.6341412
-1.2408772	sĩ trên bắt	-1.6341412
-1.3611217	tượng trên bắt	-1.6341412
-1.3611217	tịnh trên bắt	-1.6341412
-1.3611217	bộ trên bắt	-1.6341412
-1.3648821	xe trên bắt	-1.6341412
-1.3611217	mã trên bắt	-1.6341412
-1.3648821	pháo trên bắt	-1.6341412
-1.3684751	tốt trên bắt	-1.6341412
-1.3684751	binh trên bắt	-1.6341412
-1.3684751	chốt trên bắt	-1.6341412
-0.9313534	tướng bốn bắt	-1.6341412
-0.9578982	sĩ bốn bắt	-1.6341412
-0.8987206	trên bốn bắt	-2.6341412
-0.8987206	trước bốn bắt	-2.6341412
-0.8987206	sau bốn bắt	-2.6341412
-0.8987206	dưới bốn bắt	-2.6341412
-0.9578982	tượng bốn bắt	-1.6341412
-0.9578982	tịnh bốn bắt	-1.6341412
-0.9578982	bộ bốn bắt	-1.6341412
-0.98036784	xe bốn bắt	-1.6341412
-0.9578982	mã bốn bắt	-1.6341412
-0.98036784	pháo bốn bắt	-1.6341412
-0.98036784	tốt bốn bắt	-1.6341412
-0.86756337	giữa bốn bắt	-2.8102326
-0.98036784	binh bốn bắt	-1.6341412
-0.98036784	chốt bốn bắt	-1.6341412
-0.8994476	soái bốn bắt	-1.6341412
-0.95195645	sĩ phải bắt	-1.6341412
-0.95195645	tượng phải bắt	-1.6341412
-0.95195645	tịnh phải bắt	-1.6341412
-0.95195645	bộ phải bắt	-1.6341412
-0.97411287	xe phải bắt	-1.6341412
-0.95195645	mã phải bắt	-1.6341412
-0.97411287	pháo phải bắt	-1.6341412
-0.99312127	tốt phải bắt	-1.6341412
-0.99312127	binh phải bắt	-1.6341412
-0.99312127	chốt phải bắt	-1.6341412
-1.2408772	sĩ trước bắt	-1.6341412
-1.3611217	tượng trước bắt	-1.6341412
-1.3611217	tịnh trước bắt	-1.6341412
-1.3611217	bộ trước bắt	-1.6341412
-1.3648821	xe trước bắt	-1.6341412
-1.3611217	mã trước bắt	-1.6341412
-1.3648821	pháo trước bắt	-1.6341412
-1.3684751	tốt trước bắt	-1.6341412
-1.3684751	binh trước bắt	-1.6341412
-1.3684751	chốt trước bắt	-1.6341412
-0.95195645	sĩ trái bắt	-1.6341412
-0.95195645	tượng trái bắt	-1.6341412
-0.95195645	tịnh trái bắt	-1.6341412
-0.95195645	bộ trái bắt	-1.6341412
-0.97411287	xe trái bắt	-1.6341412
-0.95195645	mã trái bắt	-1.6341412
-0.97411287	pháo trái bắt	-1.6341412
-0.99312127	tốt trái bắt	-1.6341412
-0.99312127	binh trái bắt	-1.6341412
-0.99312127	chốt trái bắt	-1.6341412
-0.9313534	tướng sáu bắt	-1.6341412
-0.9578982	sĩ sáu bắt	-1.6341412
-0.8987206	trên sáu bắt	-2.6341412
-0.8987206	trước sáu bắt	-2.6341412
-0.8987206	sau sáu bắt	-2.6341412
-0.8987206	dưới sáu bắt	-2.6341412
-0.9578982	tượng sáu bắt	-1.6341412
-0.9578982	tịnh sáu bắt	-1.6341412
-0.9578982	bộ sáu bắt	-1.6341412
-0.98036784	xe sáu bắt	-1.6341412
-0.9578982	mã sáu bắt	-1.6341412
-0.98036784	pháo sáu bắt	-1.6341412
-0.98036784	tốt sáu bắt	-1.6341412
-0.86756337	giữa sáu bắt	-2.8102326
-0.98036784	binh sáu bắt	-1.6341412
-0.98036784	chốt sáu bắt	-1.6341412
-0.8994476	soái sáu bắt	-1.6341412
-1.2408772	sĩ sau bắt	-1.6341412
-1.3611217	tượng sau bắt	-1.6341412
-1.3611217	tịnh sau bắt	-1.6341412
-1.3611217	bộ sau bắt	-1.6341412
-1.3648821	xe sau bắt	-1.6341412
-1.3611217	mã sau bắt	-1.6341412
-1.3648821	pháo sau bắt	-1.6341412
-1.3684751	tốt sau bắt	-1.6341412
-1.3684751	binh sau bắt	-1.6341412
-1.3684751	chốt sau bắt	-1.6341412
-0.9313534	tướng năm bắt	-1.6341412
-0.9578982	sĩ năm bắt	-1.6341412
-0.8761548	trên năm bắt	-2.6341412
-0.8761548	trước năm bắt	-2.6341412
-0.8761548	sau năm bắt	-2.6341412
-0.8761548	dưới năm bắt	-2.6341412
-0.9578982	tượng năm bắt	-1.6341412
-0.9578982	tịnh năm bắt	-1.6341412
-0.9578982	bộ năm bắt	-1.6341412
-0.98036784	xe năm bắt	-1.6341412
-0.9578982	mã năm bắt	-1.6341412
-0.98036784	pháo năm bắt	-1.6341412
-0.98036784	tốt năm bắt	-1.6341412
-0.86756337	giữa năm bắt	-2.8102326
-0.98036784	binh năm bắt	-1.6341412
-0.98036784	chốt năm bắt	-1.6341412
-0.8994476	soái năm bắt	-1.6341412
-1.2408772	sĩ dưới bắt	-1.6341412
-1.3611217	tượng dưới bắt	-1.6341412
-1.3611217	tịnh dưới bắt	-1.6341412
-1.3611217	bộ dưới bắt	-1.6341412
-1.3648821	xe dưới bắt	-1.6341412
-1.3611217	mã dưới bắt	-1.6341412
-1.3648821	pháo dưới bắt	-1.6341412
-1.3684751	tốt dưới bắt	-1.6341412
-1.3684751	binh dưới bắt	-1.6341412
-1.3684751	chốt dưới bắt	-1.6341412
-2.5013435	<s> tượng bắt	-1.6341412
-0.9013103	trên bảy bắt	-2.5883837
-0.9013103	trước bảy bắt	-2.5883837
-0.9013103	sau bảy bắt	-2.5883837
-0.9013103	dưới bảy bắt	-2.5883837
-0.96725565	tượng bảy bắt	-1.6341412
-0.96725565	tịnh bảy bắt	-1.6341412
-0.96725565	bộ bảy bắt	-1.6341412
-0.9902279	xe bảy bắt	-1.6341412
-0.96725565	mã bảy bắt	-1.6341412
-0.9902279	pháo bảy bắt	-1.6341412
-0.9902279	tốt bảy bắt	-1.6341412
-0.87079775	giữa bảy bắt	-2.8102326
-0.9902279	binh bảy bắt	-1.6341412
-0.9902279	chốt bảy bắt	-1.6341412
-0.9013103	trên hai bắt	-2.5883837
-0.9013103	trước hai bắt	-2.5883837
-0.9013103	sau hai bắt	-2.5883837
-0.9013103	dưới hai bắt	-2.5883837
-0.96725565	tượng hai bắt	-1.6341412
-0.96725565	tịnh hai bắt	-1.6341412
-0.96725565	bộ hai bắt	-1.6341412
-0.9902279	xe hai bắt	-1.6341412
-0.96725565	mã hai bắt	-1.6341412
-0.9902279	pháo hai bắt	-1.6341412
-0.9902279	tốt hai bắt	-1.6341412
-0.87079775	giữa hai bắt	-2.8102326
-0.9902279	binh hai bắt	-1.6341412
-0.9902279	chốt hai bắt	-1.6341412
-0.9013103	trên ba bắt	-2.5883837
-0.9013103	trước ba bắt	-2.5883837
-0.9013103	sau ba bắt	-2.5883837
-0.9013103	dưới ba bắt	-2.5883837
-0.96725565	tượng ba bắt	-1.6341412
-0.96725565	tịnh ba bắt	-1.6341412
-0.96725565	bộ ba bắt	-1.6341412
-0.9902279	xe ba bắt	-1.6341412
-0.96725565	mã ba bắt	-1.6341412
-0.9902279	pháo ba bắt	-1.6341412
-0.9902279	tốt ba bắt	-1.6341412
-0.87079775	giữa ba bắt	-2.8102326
-0.9902279	binh ba bắt	-1.6341412
-0.9902279	chốt ba bắt	-1.6341412
-0.9013103	trên một bắt	-2.5883837
-0.9013103	trước một bắt	-2.5883837
-0.9013103	sau một bắt	-2.5883837
-0.9013103	dưới một bắt	-2.5883837
-0.96725565	tượng một bắt	-1.6341412
-0.96725565	tịnh một bắt	-1.6341412
-0.96725565	bộ một bắt	-1.6341412
-0.9902279	xe một bắt	-1.6341412
-0.96725565	mã một bắt	-1.6341412
-0.9902279	pháo một bắt	-1.6341412
-0.9902279	tốt một bắt	-1.6341412
-0.87079775	giữa một bắt	-2.8102326
-0.9902279	binh một bắt	-1.6341412
-0.9902279	chốt một bắt	-1.6341412
-0.9013103	trên chín bắt	-2.5883837
-0.9013103	trước chín bắt	-2.5883837
-0.9013103	sau chín bắt	-2.5883837
-0.9013103	dưới chín bắt	-2.5883837
-0.96725565	tượng chín bắt	-1.6341412
-0.96725565	tịnh chín bắt	-1.6341412
-0.96725565	bộ chín bắt	-1.6341412
-0.9902279	xe chín bắt	-1.6341412
-0.96725565	mã chín bắt	-1.6341412
-0.9902279	pháo chín bắt	-1.6341412
-0.9902279	tốt chín bắt	-1.6341412
-0.87079775	giữa chín bắt	-2.8102326
-0.9902279	binh chín bắt	-1.6341412
-0.9902279	chốt chín bắt	-1.6341412
-0.9013103	trên tám bắt	-2.5883837
-0.9013103	trước tám bắt	-2.5883837
-0.9013103	sau tám bắt	-2.5883837
-0.9013103	dưới tám bắt	-2.5883837
-0.96725565	tượng tám bắt	-1.6341412
-0.96725565	tịnh tám bắt	-1.6341412
-0.96725565	bộ tám bắt	-1.6341412
-0.9902279	xe tám bắt	-1.6341412
-0.96725565	mã tám bắt	-1.6341412
-0.9902279	pháo tám bắt	-1.6341412
-0.9902279	tốt tám bắt	-1.6341412
-0.87079775	giữa tám bắt	-2.8102326
-0.9902279	binh tám bắt	-1.6341412
-0.9902279	chốt tám bắt	-1.6341412
-2.5013435	<s> tịnh bắt	-1.6341412
-2.5013435	<s> bộ bắt	-1.6341412
-2.9361727	<s> xe bắt	-1.6341412
-2.619451	<s> mã bắt	-1.6341412
-2.9361727	<s> pháo bắt	-1.6341412
-2.66597	<s> tốt bắt	-1.6341412
-1.1837416	trên giữa bắt	-2.1112626
-0.97600245	phải giữa bắt	-2.1112626
-1.1837416	trước giữa bắt	-2.1112626
-0.97600245	trái giữa bắt	-2.1112626
-1.1837416	sau giữa bắt	-2.1112626
-1.1837416	dưới giữa bắt	-2.1112626
-1.3139155	tốt giữa bắt	-1.6341412
-1.3139155	binh giữa bắt	-1.6341412
-1.3139155	chốt giữa bắt	-1.6341412
-2.66597	<s> binh bắt	-1.6341412
-2.66597	<s> chốt bắt	-1.6341412
-1.1798396	<s> soái bắt	-1.6341412
-0.76941526	<s> sĩ trên	-2.887167
-1.0118192	ăn sĩ trên	-2.6394866
-1.0118192	bắt sĩ trên	-2.6394866
-0.739358	<s> tượng trên	-3.1917305
-1.2141001	ăn tượng trên	-2.6394866
-1.2141001	bắt tượng trên	-2.6394866
-0.739358	<s> tịnh trên	-3.1917305
-1.2141001	ăn tịnh trên	-2.6394866
-1.2141001	bắt tịnh trên	-2.6394866
-0.739358	<s> bộ trên	-3.1917305
-1.2141001	ăn bộ trên	-2.6394866
-1.2141001	bắt bộ trên	-2.6394866
-0.71628505	<s> xe trên	-3.6233304
-1.2142925	ăn xe trên	-2.6394866
-1.2142925	bắt xe trên	-2.6394866
-0.72939503	<s> mã trên	-3.3198
-1.2141001	ăn mã trên	-2.6394866
-1.2141001	bắt mã trên	-2.6394866
-0.71628505	<s> pháo trên	-3.6233304
-1.2142925	ăn pháo trên	-2.6394866
-1.2142925	bắt pháo trên	-2.6394866
-0.72897243	<s> tốt trên	-3.3667343
-1.2399739	ăn tốt trên	-2.8991237
-1.2399739	bắt tốt trên	-2.8991237
-0.72897243	<s> binh trên	-3.3667343
-1.2399739	ăn binh trên	-2.8991237
-1.2399739	bắt binh trên	-2.8991237
-0.72897243	<s> chốt trên	-3.3667343
-1.2399739	ăn chốt trên	-2.8991237
-1.2399739	bắt chốt trên	-2.8991237
-0.62967825	<s> tướng bốn	-2.3390253
-1.0077584	chiếu tướng bốn	-4.1112623
-1.402593	<s> sĩ bốn	-2.4088857
-1.0091753	ăn sĩ bốn	-2.6394866
-1.0091753	bắt sĩ bốn	-2.6394866
-0.9498098	sĩ trên bốn	-2.5228786
-1.1512917	tượng trên bốn	-2.60206
-1.1512917	tịnh trên bốn	-2.60206
-1.1512917	bộ trên bốn	-2.60206
-1.1582766	xe trên bốn	-2.9488475
-1.1512917	mã trên bốn	-2.7269988
-1.1582766	pháo trên bốn	-2.9488475
-1.1649989	tốt trên bốn	-2.5808706
-1.1649989	binh trên bốn	-2.5808706
-1.1649989	chốt trên bốn	-2.5808706
-0.9498098	sĩ trước bốn	-2.5228786
-1.1512917	tượng trước bốn	-2.60206
-1.1512917	tịnh trước bốn	-2.60206
-1.1512917	bộ trước bốn	-2.60206
-1.1582766	xe trước bốn	-2.9488475
-1.1512917	mã trước bốn	-2.7269988
-1.1582766	pháo trước bốn	-2.9488475
-1.1649989	tốt trước bốn	-2.5808706
-1.1649989	binh trước bốn	-2.5808706
-1.1649989	chốt trước bốn	-2.5808706
-0.9498098	sĩ sau bốn	-2.5228786
-1.1512917	tượng sau bốn	-2.60206
-1.1512917	tịnh sau bốn	-2.60206
-1.1512917	bộ sau bốn	-2.60206
-1.1582766	xe sau bốn	-2.9488475
-1.1512917	mã sau bốn	-2.7269988
-1.1582766	pháo sau bốn	-2.9488475
-1.1649989	tốt sau bốn	-2.5808706
-1.1649989	binh sau bốn	-2.5808706
-1.1649989	chốt sau bốn	-2.5808706
-0.9498098	sĩ dưới bốn	-2.5228786
-1.1512917	tượng dưới bốn	-2.60206
-1.1512917	tịnh dưới bốn	-2.60206
-1.1512917	bộ dưới bốn	-2.60206
-1.1582766	xe dưới bốn	-2.9488475
-1.1512917	mã dưới bốn	-2.7269988
-1.1582766	pháo dưới bốn	-2.9488475
-1.1649989	tốt dưới bốn	-2.5808706
-1.1649989	binh dưới bốn	-2.5808706
-1.1649989	chốt dưới bốn	-2.5808706
-1.7682152	<s> tượng bốn	-2.521885
-1.2098955	ăn tượng bốn	-2.6394866
-1.2098955	bắt tượng bốn	-2.6394866
-1.7682152	<s> tịnh bốn	-2.521885
-1.2098955	ăn tịnh bốn	-2.6394866
-1.2098955	bắt tịnh bốn	-2.6394866
-1.7682152	<s> bộ bốn	-2.521885
-1.2098955	ăn bộ bốn	-2.6394866
-1.2098955	bắt bộ bốn	-2.6394866
-1.7170912	<s> xe bốn	-2.9498777
-1.2100861	ăn xe bốn	-2.6394866
-1.2100861	bắt xe bốn	-2.6394866
-1.7225105	<s> mã bốn	-2.685699
-1.2098955	ăn mã bốn	-2.6394866
-1.2098955	bắt mã bốn	-2.6394866
-1.7170912	<s> pháo bốn	-2.9498777
-1.2100861	ăn pháo bốn	-2.6394866
-1.2100861	bắt pháo bốn	-2.6394866
-1.9856727	<s> tốt bốn	-2.4110582
-1.2355125	ăn tốt bốn	-2.6394866
-1.2355125	bắt tốt bốn	-2.6394866
-1.2460077	trên giữa bốn	-3.057992
-1.2460077	trước giữa bốn	-3.057992
-1.2460077	sau giữa bốn	-3.057992
-1.2460077	dưới giữa bốn	-3.057992
-1.165194	tốt giữa bốn	-2.5808706
-1.165194	binh giữa bốn	-2.5808706
-1.165194	chốt giữa bốn	-2.5808706
-1.9856727	<s> binh bốn	-2.4110582
-1.2355125	ăn binh bốn	-2.6394866
-1.2355125	bắt binh bốn	-2.6394866
-1.9856727	<s> chốt bốn	-2.4110582
-1.2355125	ăn chốt bốn	-2.6394866
-1.2355125	bắt chốt bốn	-2.6394866
-0.62967825	<s> soái bốn	-2.3390253
-0.6580693	sĩ tiến bốn	-2.1249387
-0.9372128	trên tiến bốn	-2.9700367
-1.077964	bốn tiến bốn	-3.1249387
-0.9372128	phải tiến bốn	-2.9700367
-0.9372128	trước tiến bốn	-2.9700367
-0.9372128	trái tiến bốn	-2.9700367
-0.8541659	sáu tiến bốn	-3.60206
-0.9372128	sau tiến bốn	-2.9700367
-0.95788	năm tiến bốn	-3.3290586
-0.9372128	dưới tiến bốn	-2.9700367
-0.964011	tượng tiến bốn	-2.1249387
-1.0592145	bảy tiến bốn	-3.1249387
-0.8090875	hai tiến bốn	-3.60206
-0.9915705	ba tiến bốn	-3.30103
-1.026046	một tiến bốn	-3.1249387
-1.026046	chín tiến bốn	-3.1249387
-1.0328854	tám tiến bốn	-3.1249387
-0.964011	tịnh tiến bốn	-2.1249387
-0.964011	bộ tiến bốn	-2.1249387
-0.964011	xe tiến bốn	-2.1249387
-0.964011	mã tiến bốn	-2.1249387
-0.964011	pháo tiến bốn	-2.1249387
-0.6580693	sĩ tấn bốn	-2.1249387
-0.9372128	trên tấn bốn	-2.9700367
-1.077964	bốn tấn bốn	-3.1249387
-0.9372128	phải tấn bốn	-2.9700367
-0.9372128	trước tấn bốn	-2.9700367
-0.9372128	trái tấn bốn	-2.9700367
-0.8541659	sáu tấn bốn	-3.60206
-0.9372128	sau tấn bốn	-2.9700367
-0.95788	năm tấn bốn	-3.3290586
-0.9372128	dưới tấn bốn	-2.9700367
-0.964011	tượng tấn bốn	-2.1249387
-1.0592145	bảy tấn bốn	-3.1249387
-0.8090875	hai tấn bốn	-3.60206
-0.9915705	ba tấn bốn	-3.30103
-1.026046	một tấn bốn	-3.1249387
-1.026046	chín tấn bốn	-3.1249387
-1.0328854	tám tấn bốn	-3.1249387
-0.964011	tịnh tấn bốn	-2.1249387
-0.964011	bộ tấn bốn	-2.1249387
-0.964011	xe tấn bốn	-2.1249387
-0.964011	mã tấn bốn	-2.1249387
-0.964011	pháo tấn bốn	-2.1249387
-0.65135306	tướng bình bốn	-2.1249387
-0.9520121	trên bình bốn	-2.8239088
-0.9520121	phải bình bốn	-2.8239088
-0.9520121	trước bình bốn	-2.8239088
-0.9520121	trái bình bốn	-2.8239088
-0.99581087	sáu bình bốn	-3.1249387
-0.9520121	sau bình bốn	-2.8239088
-0.7042051	năm bình bốn	-3.748188
-0.9520121	dưới bình bốn	-2.8239088
-0.98057085	bảy bình bốn	-3.1249387
-0.98057085	hai bình bốn	-3.1249387
-0.7544778	ba bình bốn	-3.7269988
-0.94838613	một bình bốn	-3.1249387
-0.94838613	chín bình bốn	-3.1249387
-0.98057085	tám bình bốn	-3.1249387
-0.95053154	xe bình bốn	-2.1249387
-0.95053154	pháo bình bốn	-2.1249387
-0.95053154	tốt bình bốn	-2.1249387
-0.953002	giữa bình bốn	-3.447158
-0.95053154	binh bình bốn	-2.1249387
-0.95053154	chốt bình bốn	-2.1249387
-0.65135306	soái bình bốn	-2.1249387
-0.65591156	sĩ thoái bốn	-2.1249387
-0.9130892	trên thoái bốn	-2.9700367
-1.0506226	bốn thoái bốn	-3.1249387
-0.9130892	phải thoái bốn	-2.9700367
-0.9130892	trước thoái bốn	-2.9700367
-0.9130892	trái thoái bốn	-2.9700367
-0.8276922	sáu thoái bốn	-3.60206
-0.9130892	sau thoái bốn	-2.9700367
-0.9314416	năm thoái bốn	-3.3290586
-0.9130892	dưới thoái bốn	-2.9700367
-0.9596575	tượng thoái bốn	-2.1249387
-1.0307277	bảy thoái bốn	-3.1249387
-0.7797687	hai thoái bốn	-3.60206
-0.9633944	ba thoái bốn	-3.30103
-0.99539983	một thoái bốn	-3.1249387
-0.99539983	chín thoái bốn	-3.1249387
-1.002699	tám thoái bốn	-3.1249387
-0.9596575	tịnh thoái bốn	-2.1249387
-0.9596575	bộ thoái bốn	-2.1249387
-0.9596575	xe thoái bốn	-2.1249387
-0.9596575	mã thoái bốn	-2.1249387
-0.9596575	pháo thoái bốn	-2.1249387
-0.65591156	sĩ lùi bốn	-2.1249387
-0.9130892	trên lùi bốn	-2.9700367
-1.0506226	bốn lùi bốn	-3.1249387
-0.9130892	phải lùi bốn	-2.9700367
-0.9130892	trước lùi bốn	-2.9700367
-0.9130892	trái lùi bốn	-2.9700367
-0.8276922	sáu lùi bốn	-3.60206
-0.9130892	sau lùi bốn	-2.9700367
-0.9314416	năm lùi bốn	-3.3290586
-0.9130892	dưới lùi bốn	-2.9700367
-0.9596575	tượng lùi bốn	-2.1249387
-1.0307277	bảy lùi bốn	-3.1249387
-0.7797687	hai lùi bốn	-3.60206
-0.9633944	ba lùi bốn	-3.30103
-0.99539983	một lùi bốn	-3.1249387
-0.99539983	chín lùi bốn	-3.1249387
-1.002699	tám lùi bốn	-3.1249387
-0.9596575	tịnh lùi bốn	-2.1249387
-0.9596575	bộ lùi bốn	-2.1249387
-0.9596575	xe lùi bốn	-2.1249387
-0.9596575	mã lùi bốn	-2.1249387
-0.9596575	pháo lùi bốn	-2.1249387
-1.0486588	sĩ chiếu bốn	-1.30103
-1.0435598	trên chiếu bốn	-2.30103
-1.0428362	bốn chiếu bốn	-3.1139433
-1.0435598	phải chiếu bốn	-2.30103
-1.0435598	trước chiếu bốn	-2.30103
-1.0435598	trái chiếu bốn	-2.30103
-1.0428362	sáu chiếu bốn	-3.1139433
-1.0435598	sau chiếu bốn	-2.30103
-1.0428362	năm chiếu bốn	-3.1139433
-1.0435598	dưới chiếu bốn	-2.30103
-1.0486588	tượng chiếu bốn	-1.30103
-1.0429395	bảy chiếu bốn	-3.0791812
-1.0429395	hai chiếu bốn	-3.0791812
-1.0429395	ba chiếu bốn	-3.0791812
-1.0429395	một chiếu bốn	-3.0791812
-1.0429395	chín chiếu bốn	-3.0791812
-1.0429395	tám chiếu bốn	-3.0791812
-1.0486588	tịnh chiếu bốn	-1.30103
-1.0486588	bộ chiếu bốn	-1.30103
-1.0486588	xe chiếu bốn	-1.30103
-1.0486588	mã chiếu bốn	-1.30103
-1.0486588	pháo chiếu bốn	-1.30103
-1.0486588	tốt chiếu bốn	-1.30103
-1.0438013	giữa chiếu bốn	-2.6232493
-1.0486588	binh chiếu bốn	-1.30103
-1.0486588	chốt chiếu bốn	-1.30103
-1.2000331	<s> sĩ phải	-2.6114705
-1.0118192	ăn sĩ phải	-2.6394866
-1.0118192	bắt sĩ phải	-2.6394866
-1.3526515	<s> tượng phải	-2.9374702
-1.2141001	ăn tượng phải	-2.6394866
-1.2141001	bắt tượng phải	-2.6394866
-1.3526515	<s> tịnh phải	-2.9374702
-1.2141001	ăn tịnh phải	-2.6394866
-1.2141001	bắt tịnh phải	-2.6394866
-1.3526515	<s> bộ phải	-2.9374702
-1.2141001	ăn bộ phải	-2.6394866
-1.2141001	bắt bộ phải	-2.6394866
-1.7090578	<s> xe phải	-2.9579263
-1.2142925	ăn xe phải	-2.6394866
-1.2142925	bắt xe phải	-2.6394866
-1.4707589	<s> mã phải	-2.9374702
-1.2141001	ăn mã phải	-2.6394866
-1.2141001	bắt mã phải	-2.6394866
-1.7090578	<s> pháo phải	-2.9579263
-1.2142925	ăn pháo phải	-2.6394866
-1.2142925	bắt pháo phải	-2.6394866
-1.5629678	<s> tốt phải	-2.8917763
-1.2399739	ăn tốt phải	-2.6394866
-1.2399739	bắt tốt phải	-2.6394866
-1.5629678	<s> binh phải	-2.8917763
-1.2399739	ăn binh phải	-2.6394866
-1.2399739	bắt binh phải	-2.6394866
-1.5629678	<s> chốt phải	-2.8917763
-1.2399739	ăn chốt phải	-2.6394866
-1.2399739	bắt chốt phải	-2.6394866
-0.76941526	<s> sĩ trước	-2.887167
-1.0118192	ăn sĩ trước	-2.6394866
-1.0118192	bắt sĩ trước	-2.6394866
-0.739358	<s> tượng trước	-3.1917305
-1.2141001	ăn tượng trước	-2.6394866
-1.2141001	bắt tượng trước	-2.6394866
-0.739358	<s> tịnh trước	-3.1917305
-1.2141001	ăn tịnh trước	-2.6394866
-1.2141001	bắt tịnh trước	-2.6394866
-0.739358	<s> bộ trước	-3.1917305
-1.2141001	ăn bộ trước	-2.6394866
-1.2141001	bắt bộ trước	-2.6394866
-0.71628505	<s> xe trước	-3.6233304
-1.2142925	ăn xe trước	-2.6394866
-1.2142925	bắt xe trước	-2.6394866
-0.72939503	<s> mã trước	-3.3198
-1.2141001	ăn mã trước	-2.6394866
-1.2141001	bắt mã trước	-2.6394866
-0.71628505	<s> pháo trước	-3.6233304
-1.2142925	ăn pháo trước	-2.6394866
-1.2142925	bắt pháo trước	-2.6394866
-0.72897243	<s> tốt trước	-3.3667343
-1.2399739	ăn tốt trước	-2.8991237
-1.2399739	bắt tốt trước	-2.8991237
-0.72897243	<s> binh trước	-3.3667343
-1.2399739	ăn binh trước	-2.8991237
-1.2399739	bắt binh trước	-2.8991237
-0.72897243	<s> chốt trước	-3.3667343
-1.2399739	ăn chốt trước	-2.8991237
-1.2399739	bắt chốt trước	-2.8991237
-1.2000331	<s> sĩ trái	-2.6114705
-1.0118192	ăn sĩ trái	-2.6394866
-1.0118192	bắt sĩ trái	-2.6394866
-1.3526515	<s> tượng trái	-2.9374702
-1.2141001	ăn tượng trái	-2.6394866
-1.2141001	bắt tượng trái	-2.6394866
-1.3526515	<s> tịnh trái	-2.9374702
-1.2141001	ăn tịnh trái	-2.6394866
-1.2141001	bắt tịnh trái	-2.6394866
-1.3526515	<s> bộ trái	-2.9374702
-1.2141001	ăn bộ trái	-2.6394866
-1.2141001	bắt bộ trái	-2.6394866
-1.7090578	<s> xe trái	-2.9579263
-1.2142925	ăn xe trái	-2.6394866
-1.2142925	bắt xe trái	-2.6394866
-1.4707589	<s> mã trái	-2.9374702
-1.2141001	ăn mã trái	-2.6394866
-1.2141001	bắt mã trái	-2.6394866
-1.7090578	<s> pháo trái	-2.9579263
-1.2142925	ăn pháo trái	-2.6394866
-1.2142925	bắt pháo trái	-2.6394866
-1.5629678	<s> tốt trái	-2.8917763
-1.2399739	ăn tốt trái	-2.6394866
-1.2399739	bắt tốt trái	-2.6394866
-1.5629678	<s> binh trái	-2.8917763
-1.2399739	ăn binh trái	-2.6394866
-1.2399739	bắt binh trái	-2.6394866
-1.5629678	<s> chốt trái	-2.8917763
-1.2399739	ăn chốt trái	-2.6394866
-1.2399739	bắt chốt trái	-2.6394866
-0.62967825	<s> tướng sáu	-2.3390253
-1.0077584	chiếu tướng sáu	-4.1112623
-1.402593	<s> sĩ sáu	-2.4088857
-1.0091753	ăn sĩ sáu	-2.6394866
-1.0091753	bắt sĩ sáu	-2.6394866
-0.9498098	sĩ trên sáu	-2.5228786
-1.1512917	tượng trên sáu	-2.60206
-1.1512917	tịnh trên sáu	-2.60206
-1.1512917	bộ trên sáu	-2.60206
-1.1582766	xe trên sáu	-2.9488475
-1.1512917	mã trên sáu	-2.7269988
-1.1582766	pháo trên sáu	-2.9488475
-1.1649989	tốt trên sáu	-2.5808706
-1.1649989	binh trên sáu	-2.5808706
-1.1649989	chốt trên sáu	-2.5808706
-0.9498098	sĩ trước sáu	-2.5228786
-1.1512917	tượng trước sáu	-2.60206
-1.1512917	tịnh trước sáu	-2.60206
-1.1512917	bộ trước sáu	-2.60206
-1.1582766	xe trước sáu	-2.9488475
-1.1512917	mã trước sáu	-2.7269988
-1.1582766	pháo trước sáu	-2.9488475
-1.1649989	tốt trước sáu	-2.5808706
-1.1649989	binh trước sáu	-2.5808706
-1.1649989	chốt trước sáu	-2.5808706
-0.9498098	sĩ sau sáu	-2.5228786
-1.1512917	tượng sau sáu	-2.60206
-1.1512917	tịnh sau sáu	-2.60206
-1.1512917	bộ sau sáu	-2.60206
-1.1582766	xe sau sáu	-2.9488475
-1.1512917	mã sau sáu	-2.7269988
-1.1582766	pháo sau sáu	-2.9488475
-1.1649989	tốt sau sáu	-2.5808706
-1.1649989	binh sau sáu	-2.5808706
-1.1649989	chốt sau sáu	-2.5808706
-0.9498098	sĩ dưới sáu	-2.5228786
-1.1512917	tượng dưới sáu	-2.60206
-1.1512917	tịnh dưới sáu	-2.60206
-1.1512917	bộ dưới sáu	-2.60206
-1.1582766	xe dưới sáu	-2.9488475
-1.1512917	mã dưới sáu	-2.7269988
-1.1582766	pháo dưới sáu	-2.9488475
-1.1649989	tốt dưới sáu	-2.5808706
-1.1649989	binh dưới sáu	-2.5808706
-1.1649989	chốt dưới sáu	-2.5808706
-1.7682152	<s> tượng sáu	-2.521885
-1.2098955	ăn tượng sáu	-2.6394866
-1.2098955	bắt tượng sáu	-2.6394866
-1.7682152	<s> tịnh sáu	-2.521885
-1.2098955	ăn tịnh sáu	-2.6394866
-1.2098955	bắt tịnh sáu	-2.6394866
-1.7682152	<s> bộ sáu	-2.521885
-1.2098955	ăn bộ sáu	-2.6394866
-1.2098955	bắt bộ sáu	-2.6394866
-1.7170912	<s> xe sáu	-2.9498777
-1.2100861	ăn xe sáu	-2.6394866
-1.2100861	bắt xe sáu	-2.6394866
-1.7225105	<s> mã sáu	-2.685699
-1.2098955	ăn mã sáu	-2.6394866
-1.2098955	bắt mã sáu	-2.6394866
-1.7170912	<s> pháo sáu	-2.9498777
-1.2100861	ăn pháo sáu	-2.6394866
-1.2100861	bắt pháo sáu	-2.6394866
-1.9856727	<s> tốt sáu	-2.4110582
-1.2355125	ăn tốt sáu	-2.6394866
-1.2355125	bắt tốt sáu	-2.6394866
-1.2460077	trên giữa sáu	-3.057992
-1.2460077	trước giữa sáu	-3.057992
-1.2460077	sau giữa sáu	-3.057992
-1.2460077	dưới giữa sáu	-3.057992
-1.165194	tốt giữa sáu	-2.5808706
-1.165194	binh giữa sáu	-2.5808706
-1.165194	chốt giữa sáu	-2.5808706
-1.9856727	<s> binh sáu	-2.4110582
-1.2355125	ăn binh sáu	-2.6394866
-1.2355125	bắt binh sáu	-2.6394866
-1.9856727	<s> chốt sáu	-2.4110582
-1.2355125	ăn chốt sáu	-2.6394866
-1.2355125	bắt chốt sáu	-2.6394866
-0.62967825	<s> soái sáu	-2.3390253
-0.6580693	sĩ tiến sáu	-2.1249387
-0.9372128	trên tiến sáu	-2.9700367
-0.8541659	bốn tiến sáu	-3.60206
-0.9372128	phải tiến sáu	-2.9700367
-0.9372128	trước tiến sáu	-2.9700367
-0.9372128	trái tiến sáu	-2.9700367
-1.077964	sáu tiến sáu	-3.1249387
-0.9372128	sau tiến sáu	-2.9700367
-0.95788	năm tiến sáu	-3.3290586
-0.9372128	dưới tiến sáu	-2.9700367
-0.964011	tượng tiến sáu	-2.1249387
-0.9915705	bảy tiến sáu	-3.30103
-1.0328854	hai tiến sáu	-3.1249387
-1.0592145	ba tiến sáu	-3.1249387
-1.026046	một tiến sáu	-3.1249387
-1.026046	chín tiến sáu	-3.1249387
-0.8090875	tám tiến sáu	-3.60206
-0.964011	tịnh tiến sáu	-2.1249387
-0.964011	bộ tiến sáu	-2.1249387
-0.964011	xe tiến sáu	-2.1249387
-0.964011	mã tiến sáu	-2.1249387
-0.964011	pháo tiến sáu	-2.1249387
-0.6580693	sĩ tấn sáu	-2.1249387
-0.9372128	trên tấn sáu	-2.9700367
-0.8541659	bốn tấn sáu	-3.60206
-0.9372128	phải tấn sáu	-2.9700367
-0.9372128	trước tấn sáu	-2.9700367
-0.9372128	trái tấn sáu	-2.9700367
-1.077964	sáu tấn sáu	-3.1249387
-0.9372128	sau tấn sáu	-2.9700367
-0.95788	năm tấn sáu	-3.3290586
-0.9372128	dưới tấn sáu	-2.9700367
-0.964011	tượng tấn sáu	-2.1249387
-0.9915705	bảy tấn sáu	-3.30103
-1.0328854	hai tấn sáu	-3.1249387
-1.0592145	ba tấn sáu	-3.1249387
-1.026046	một tấn sáu	-3.1249387
-1.026046	chín tấn sáu	-3.1249387
-0.8090875	tám tấn sáu	-3.60206
-0.964011	tịnh tấn sáu	-2.1249387
-0.964011	bộ tấn sáu	-2.1249387
-0.964011	xe tấn sáu	-2.1249387
-0.964011	mã tấn sáu	-2.1249387
-0.964011	pháo tấn sáu	-2.1249387
-0.65135306	tướng bình sáu	-2.1249387
-0.9520121	trên bình sáu	-2.8239088
-0.99581087	bốn bình sáu	-3.1249387
-0.9520121	phải bình sáu	-2.8239088
-0.9520121	trước bình sáu	-2.8239088
-0.9520121	trái bình sáu	-2.8239088
-0.9520121	sau bình sáu	-2.8239088
-0.7042051	năm bình sáu	-3.748188
-0.9520121	dưới bình sáu	-2.8239088
-0.7544778	bảy bình sáu	-3.7269988
-0.98057085	hai bình sáu	-3.1249387
-0.98057085	ba bình sáu	-3.1249387
-0.94838613	một bình sáu	-3.1249387
-0.94838613	chín bình sáu	-3.1249387
-0.98057085	tám bình sáu	-3.1249387
-0.95053154	xe bình sáu	-2.1249387
-0.95053154	pháo bình sáu	-2.1249387
-0.95053154	tốt bình sáu	-2.1249387
-0.953002	giữa bình sáu	-3.447158
-0.95053154	binh bình sáu	-2.1249387
-0.95053154	chốt bình sáu	-2.1249387
-0.65135306	soái bình sáu	-2.1249387
-0.65591156	sĩ thoái sáu	-2.1249387
-0.9130892	trên thoái sáu	-2.9700367
-0.8276922	bốn thoái sáu	-3.60206
-0.9130892	phải thoái sáu	-2.9700367
-0.9130892	trước thoái sáu	-2.9700367
-0.9130892	trái thoái sáu	-2.9700367
-1.0506226	sáu thoái sáu	-3.1249387
-0.9130892	sau thoái sáu	-2.9700367
-0.9314416	năm thoái sáu	-3.3290586
-0.9130892	dưới thoái sáu	-2.9700367
-0.9596575	tượng thoái sáu	-2.1249387
-0.9633944	bảy thoái sáu	-3.30103
-1.002699	hai thoái sáu	-3.1249387
-1.0307277	ba thoái sáu	-3.1249387
-0.99539983	một thoái sáu	-3.1249387
-0.99539983	chín thoái sáu	-3.1249387
-0.7797687	tám thoái sáu	-3.60206
-0.9596575	tịnh thoái sáu	-2.1249387
-0.9596575	bộ thoái sáu	-2.1249387
-0.9596575	xe thoái sáu	-2.1249387
-0.9596575	mã thoái sáu	-2.1249387
-0.9596575	pháo thoái sáu	-2.1249387
-0.65591156	sĩ lùi sáu	-2.1249387
-0.9130892	trên lùi sáu	-2.9700367
-0.8276922	bốn lùi sáu	-3.60206
-0.9130892	phải lùi sáu	-2.9700367
-0.9130892	trước lùi sáu	-2.9700367
-0.9130892	trái lùi sáu	-2.9700367
-1.0506226	sáu lùi sáu	-3.1249387
-0.9130892	sau lùi sáu	-2.9700367
-0.9314416	năm lùi sáu	-3.3290586
-0.9130892	dưới lùi sáu	-2.9700367
-0.9596575	tượng lùi sáu	-2.1249387
-0.9633944	bảy lùi sáu	-3.30103
-1.002699	hai lùi sáu	-3.1249387
-1.0307277	ba lùi sáu	-3.1249387
-0.99539983	một lùi sáu	-3.1249387
-0.99539983	chín lùi sáu	-3.1249387
-0.7797687	tám lùi sáu	-3.60206
-0.9596575	tịnh lùi sáu	-2.1249387
-0.9596575	bộ lùi sáu	-2.1249387
-0.9596575	xe lùi sáu	-2.1249387
-0.9596575	mã lùi sáu	-2.1249387
-0.9596575	pháo lùi sáu	-2.1249387
-1.0486588	sĩ chiếu sáu	-1.30103
-1.0435598	trên chiếu sáu	-2.30103
-1.0428362	bốn chiếu sáu	-3.1139433
-1.0435598	phải chiếu sáu	-2.30103
-1.0435598	trước chiếu sáu	-2.30103
-1.0435598	trái chiếu sáu	-2.30103
-1.0428362	sáu chiếu sáu	-3.1139433
-1.0435598	sau chiếu sáu	-2.30103
-1.0428362	năm chiếu sáu	-3.1139433
-1.0435598	dưới chiếu sáu	-2.30103
-1.0486588	tượng chiếu sáu	-1.30103
-1.0429395	bảy chiếu sáu	-3.0791812
-1.0429395	hai chiếu sáu	-3.0791812
-1.0429395	ba chiếu sáu	-3.0791812
-1.0429395	một chiếu sáu	-3.0791812
-1.0429395	chín chiếu sáu	-3.0791812
-1.0429395	tám chiếu sáu	-3.0791812
-1.0486588	tịnh chiếu sáu	-1.30103
-1.0486588	bộ chiếu sáu	-1.30103
-1.0486588	xe chiếu sáu	-1.30103
-1.0486588	mã chiếu sáu	-1.30103
-1.0486588	pháo chiếu sáu	-1.30103
-1.0486588	tốt chiếu sáu	-1.30103
-1.0438013	giữa chiếu sáu	-2.6232493
-1.0486588	binh chiếu sáu	-1.30103
-1.0486588	chốt chiếu sáu	-1.30103
-0.76941526	<s> sĩ sau	-2.887167
-1.0118192	ăn sĩ sau	-2.6394866
-1.0118192	bắt sĩ sau	-2.6394866
-0.739358	<s> tượng sau	-3.1917305
-1.2141001	ăn tượng sau	-2.6394866
-1.2141001	bắt tượng sau	-2.6394866
-0.739358	<s> tịnh sau	-3.1917305
-1.2141001	ăn tịnh sau	-2.6394866
-1.2141001	bắt tịnh sau	-2.6394866
-0.739358	<s> bộ sau	-3.1917305
-1.2141001	ăn bộ sau	-2.6394866
-1.2141001	bắt bộ sau	-2.6394866
-0.71628505	<s> xe sau	-3.6233304
-1.2142925	ăn xe sau	-2.6394866
-1.2142925	bắt xe sau	-2.6394866
-0.72939503	<s> mã sau	-3.3198
-1.2141001	ăn mã sau	-2.6394866
-1.2141001	bắt mã sau	-2.6394866
-0.71628505	<s> pháo sau	-3.6233304
-1.2142925	ăn pháo sau	-2.6394866
-1.2142925	bắt pháo sau	-2.6394866
-0.72897243	<s> tốt sau	-3.3667343
-1.2399739	ăn tốt sau	-2.8991237
-1.2399739	bắt tốt sau	-2.8991237
-0.72897243	<s> binh sau	-3.3667343
-1.2399739	ăn binh sau	-2.8991237
-1.2399739	bắt binh sau	-2.8991237
-0.72897243	<s> chốt sau	-3.3667343
-1.2399739	ăn chốt sau	-2.8991237
-1.2399739	bắt chốt sau	-2.8991237
-0.5933379	<s> tướng năm	-2.3753588
-1.0077584	chiếu tướng năm	-4.1112623
-1.2895925	<s> sĩ năm	-2.521885
-1.0091753	ăn sĩ năm	-2.6394866
-1.0091753	bắt sĩ năm	-2.6394866
-0.9498098	sĩ trên năm	-2.7269988
-1.1512917	tượng trên năm	-2.60206
-1.1512917	tịnh trên năm	-2.60206
-1.1512917	bộ trên năm	-2.60206
-1.1582766	xe trên năm	-2.9488475
-1.1512917	mã trên năm	-2.7269988
-1.1582766	pháo trên năm	-2.9488475
-1.1649989	tốt trên năm	-2.5808706
-1.1649989	binh trên năm	-2.5808706
-1.1649989	chốt trên năm	-2.5808706
-0.9498098	sĩ trước năm	-2.7269988
-1.1512917	tượng trước năm	-2.60206
-1.1512917	tịnh trước năm	-2.60206
-1.1512917	bộ trước năm	-2.60206
-1.1582766	xe trước năm	-2.9488475
-1.1512917	mã trước năm	-2.7269988
-1.1582766	pháo trước năm	-2.9488475
-1.1649989	tốt trước năm	-2.5808706
-1.1649989	binh trước năm	-2.5808706
-1.1649989	chốt trước năm	-2.5808706
-0.9498098	sĩ sau năm	-2.7269988
-1.1512917	tượng sau năm	-2.60206
-1.1512917	tịnh sau năm	-2.60206
-1.1512917	bộ sau năm	-2.60206
-1.1582766	xe sau năm	-2.9488475
-1.1512917	mã sau năm	-2.7269988
-1.1582766	pháo sau năm	-2.9488475
-1.1649989	tốt sau năm	-2.5808706
-1.1649989	binh sau năm	-2.5808706
-1.1649989	chốt sau năm	-2.5808706
-0.9498098	sĩ dưới năm	-2.7269988
-1.1512917	tượng dưới năm	-2.60206
-1.1512917	tịnh dưới năm	-2.60206
-1.1512917	bộ dưới năm	-2.60206
-1.1582766	xe dưới năm	-2.9488475
-1.1512917	mã dưới năm	-2.7269988
-1.1582766	pháo dưới năm	-2.9488475
-1.1649989	tốt dưới năm	-2.5808706
-1.1649989	binh dưới năm	-2.5808706
-1.1649989	chốt dưới năm	-2.5808706
-1.7682152	<s> tượng năm	-2.521885
-1.2098955	ăn tượng năm	-2.6394866
-1.2098955	bắt tượng năm	-2.6394866
-1.7682152	<s> tịnh năm	-2.521885
-1.2098955	ăn tịnh năm	-2.6394866
-1.2098955	bắt tịnh năm	-2.6394866
-1.7682152	<s> bộ năm	-2.521885
-1.2098955	ăn bộ năm	-2.6394866
-1.2098955	bắt bộ năm	-2.6394866
-1.7170912	<s> xe năm	-2.9498777
-1.2100861	ăn xe năm	-2.6394866
-1.2100861	bắt xe năm	-2.6394866
-1.7225105	<s> mã năm	-2.685699
-1.2098955	ăn mã năm	-2.6394866
-1.2098955	bắt mã năm	-2.6394866
-1.7170912	<s> pháo năm	-2.9498777
-1.2100861	ăn pháo năm	-2.6394866
-1.2100861	bắt pháo năm	-2.6394866
-1.9856727	<s> tốt năm	-2.4110582
-1.2355125	ăn tốt năm	-2.6394866
-1.2355125	bắt tốt năm	-2.6394866
-1.2460077	trên giữa năm	-3.057992
-1.2460077	trước giữa năm	-3.057992
-1.2460077	sau giữa năm	-3.057992
-1.2460077	dưới giữa năm	-3.057992
-1.165194	tốt giữa năm	-2.5808706
-1.165194	binh giữa năm	-2.5808706
-1.165194	chốt giữa năm	-2.5808706
-1.9856727	<s> binh năm	-2.4110582
-1.2355125	ăn binh năm	-2.6394866
-1.2355125	bắt binh năm	-2.6394866
-1.9856727	<s> chốt năm	-2.4110582
-1.2355125	ăn chốt năm	-2.6394866
-1.2355125	bắt chốt năm	-2.6394866
-0.5933379	<s> soái năm	-2.3753588
-0.6580693	sĩ tiến năm	-2.1249387
-0.9372128	trên tiến năm	-2.9700367
-0.95180583	bốn tiến năm	-3.4259686
-0.9372128	phải tiến năm	-2.9700367
-0.9372128	trước tiến năm	-2.9700367
-0.9372128	trái tiến năm	-2.9700367
-0.95180583	sáu tiến năm	-3.4259686
-0.9372128	sau tiến năm	-2.9700367
-1.084038	năm tiến năm	-3.1249387
-0.9372128	dưới tiến năm	-2.9700367
-0.964011	tượng tiến năm	-2.1249387
-0.83541644	bảy tiến năm	-3.60206
-1.0328854	hai tiến năm	-3.1249387
-0.83541644	ba tiến năm	-3.60206
-1.026046	một tiến năm	-3.1249387
-1.026046	chín tiến năm	-3.1249387
-1.0328854	tám tiến năm	-3.1249387
-0.964011	tịnh tiến năm	-2.1249387
-0.964011	bộ tiến năm	-2.1249387
-0.964011	xe tiến năm	-2.1249387
-0.964011	mã tiến năm	-2.1249387
-0.964011	pháo tiến năm	-2.1249387
-0.6580693	sĩ tấn năm	-2.1249387
-0.9372128	trên tấn năm	-2.9700367
-0.95180583	bốn tấn năm	-3.4259686
-0.9372128	phải tấn năm	-2.9700367
-0.9372128	trước tấn năm	-2.9700367
-0.9372128	trái tấn năm	-2.9700367
-0.95180583	sáu tấn năm	-3.4259686
-0.9372128	sau tấn năm	-2.9700367
-1.084038	năm tấn năm	-3.1249387
-0.9372128	dưới tấn năm	-2.9700367
-0.964011	tượng tấn năm	-2.1249387
-0.83541644	bảy tấn năm	-3.60206
-1.0328854	hai tấn năm	-3.1249387
-0.83541644	ba tấn năm	-3.60206
-1.026046	một tấn năm	-3.1249387
-1.026046	chín tấn năm	-3.1249387
-1.0328854	tám tấn năm	-3.1249387
-0.964011	tịnh tấn năm	-2.1249387
-0.964011	bộ tấn năm	-2.1249387
-0.964011	xe tấn năm	-2.1249387
-0.964011	mã tấn năm	-2.1249387
-0.964011	pháo tấn năm	-2.1249387
-0.65135306	tướng bình năm	-2.1249387
-0.9520121	trên bình năm	-2.8239088
-0.68948185	bốn bình năm	-3.748188
-0.9520121	phải bình năm	-2.8239088
-0.9520121	trước bình năm	-2.8239088
-0.9520121	trái bình năm	-2.8239088
-0.68948185	sáu bình năm	-3.748188
-0.9520121	sau bình năm	-2.8239088
-0.9520121	dưới bình năm	-2.8239088
-0.98057085	bảy bình năm	-3.1249387
-0.98057085	hai bình năm	-3.1249387
-0.98057085	ba bình năm	-3.1249387
-0.94838613	một bình năm	-3.1249387
-0.94838613	chín bình năm	-3.1249387
-0.98057085	tám bình năm	-3.1249387
-0.95053154	xe bình năm	-2.1249387
-0.95053154	pháo bình năm	-2.1249387
-0.95053154	tốt bình năm	-2.1249387
-0.953002	giữa bình năm	-3.447158
-0.95053154	binh bình năm	-2.1249387
-0.95053154	chốt bình năm	-2.1249387
-0.65135306	soái bình năm	-2.1249387
-0.65591156	sĩ thoái năm	-2.1249387
-0.9130892	trên thoái năm	-2.9700367
-0.9250075	bốn thoái năm	-3.4259686
-0.9130892	phải thoái năm	-2.9700367
-0.9130892	trước thoái năm	-2.9700367
-0.9130892	trái thoái năm	-2.9700367
-0.9250075	sáu thoái năm	-3.4259686
-0.9130892	sau thoái năm	-2.9700367
-1.0570567	năm thoái năm	-3.1249387
-0.9130892	dưới thoái năm	-2.9700367
-0.9596575	tượng thoái năm	-2.1249387
-0.80779743	bảy thoái năm	-3.60206
-1.002699	hai thoái năm	-3.1249387
-0.80779743	ba thoái năm	-3.60206
-0.99539983	một thoái năm	-3.1249387
-0.99539983	chín thoái năm	-3.1249387
-1.002699	tám thoái năm	-3.1249387
-0.9596575	tịnh thoái năm	-2.1249387
-0.9596575	bộ thoái năm	-2.1249387
-0.9596575	xe thoái năm	-2.1249387
-0.9596575	mã thoái năm	-2.1249387
-0.9596575	pháo thoái năm	-2.1249387
-0.65591156	sĩ lùi năm	-2.1249387
-0.9130892	trên lùi năm	-2.9700367
-0.9250075	bốn lùi năm	-3.4259686
-0.9130892	phải lùi năm	-2.9700367
-0.9130892	trước lùi năm	-2.9700367
-0.9130892	trái lùi năm	-2.9700367
-0.9250075	sáu lùi năm	-3.4259686
-0.9130892	sau lùi năm	-2.9700367
-1.0570567	năm lùi năm	-3.1249387
-0.9130892	dưới lùi năm	-2.9700367
-0.9596575	tượng lùi năm	-2.1249387
-0.80779743	bảy lùi năm	-3.60206
-1.002699	hai lùi năm	-3.1249387
-0.80779743	ba lùi năm	-3.60206
-0.99539983	một lùi năm	-3.1249387
-0.99539983	chín lùi năm	-3.1249387
-1.002699	tám lùi năm	-3.1249387
-0.9596575	tịnh lùi năm	-2.1249387
-0.9596575	bộ lùi năm	-2.1249387
-0.9596575	xe lùi năm	-2.1249387
-0.9596575	mã lùi năm	-2.1249387
-0.9596575	pháo lùi năm	-2.1249387
-1.0486588	sĩ chiếu năm	-1.30103
-1.0435598	trên chiếu năm	-2.30103
-1.0428362	bốn chiếu năm	-3.1139433
-1.0435598	phải chiếu năm	-2.30103
-1.0435598	trước chiếu năm	-2.30103
-1.0435598	trái chiếu năm	-2.30103
-1.0428362	sáu chiếu năm	-3.1139433
-1.0435598	sau chiếu năm	-2.30103
-1.0428362	năm chiếu năm	-3.1139433
-1.0435598	dưới chiếu năm	-2.30103
-1.0486588	tượng chiếu năm	-1.30103
-1.0429395	bảy chiếu năm	-3.0791812
-1.0429395	hai chiếu năm	-3.0791812
-1.0429395	ba chiếu năm	-3.0791812
-1.0429395	một chiếu năm	-3.0791812
-1.0429395	chín chiếu năm	-3.0791812
-1.0429395	tám chiếu năm	-3.0791812
-1.0486588	tịnh chiếu năm	-1.30103
-1.0486588	bộ chiếu năm	-1.30103
-1.0486588	xe chiếu năm	-1.30103
-1.0486588	mã chiếu năm	-1.30103
-1.0486588	pháo chiếu năm	-1.30103
-1.0486588	tốt chiếu năm	-1.30103
-1.0438013	giữa chiếu năm	-2.6232493
-1.0486588	binh chiếu năm	-1.30103
-1.0486588	chốt chiếu năm	-1.30103
-0.76941526	<s> sĩ dưới	-2.887167
-1.0118192	ăn sĩ dưới	-2.6394866
-1.0118192	bắt sĩ dưới	-2.6394866
-0.739358	<s> tượng dưới	-3.1917305
-1.2141001	ăn tượng dưới	-2.6394866
-1.2141001	bắt tượng dưới	-2.6394866
-0.739358	<s> tịnh dưới	-3.1917305
-1.2141001	ăn tịnh dưới	-2.6394866
-1.2141001	bắt tịnh dưới	-2.6394866
-0.739358	<s> bộ dưới	-3.1917305
-1.2141001	ăn bộ dưới	-2.6394866
-1.2141001	bắt bộ dưới	-2.6394866
-0.71628505	<s> xe dưới	-3.6233304
-1.2142925	ăn xe dưới	-2.6394866
-1.2142925	bắt xe dưới	-2.6394866
-0.72939503	<s> mã dưới	-3.3198
-1.2141001	ăn mã dưới	-2.6394866
-1.2141001	bắt mã dưới	-2.6394866
-0.71628505	<s> pháo dưới	-3.6233304
-1.2142925	ăn pháo dưới	-2.6394866
-1.2142925	bắt pháo dưới	-2.6394866
-0.72897243	<s> tốt dưới	-3.3667343
-1.2399739	ăn tốt dưới	-2.8991237
-1.2399739	bắt tốt dưới	-2.8991237
-0.72897243	<s> binh dưới	-3.3667343
-1.2399739	ăn binh dưới	-2.8991237
-1.2399739	bắt binh dưới	-2.8991237
-0.72897243	<s> chốt dưới	-3.3667343
-1.2399739	ăn chốt dưới	-2.8991237
-1.2399739	bắt chốt dưới	-2.8991237
-1.0112551	tướng ăn tượng	-0.6368221
-1.0112551	sĩ ăn tượng	-0.6368221
-1.003346	trên ăn tượng	-1.3357921
-1.0019652	bốn ăn tượng	-2.161867
-1.003346	phải ăn tượng	-1.3357921
-1.003346	trước ăn tượng	-1.3357921
-1.003346	trái ăn tượng	-1.3357921
-1.0019652	sáu ăn tượng	-2.161867
-1.003346	sau ăn tượng	-1.3357921
-1.0019652	năm ăn tượng	-2.161867
-1.003346	dưới ăn tượng	-1.3357921
-1.0112551	tượng ăn tượng	-0.6368221
-1.0023874	bảy ăn tượng	-2.1139433
-1.0023874	hai ăn tượng	-2.1139433
-1.0023874	ba ăn tượng	-2.1139433
-1.0023874	một ăn tượng	-2.1139433
-1.0023874	chín ăn tượng	-2.1139433
-1.0023874	tám ăn tượng	-2.1139433
-1.0112551	tịnh ăn tượng	-0.6368221
-1.0112551	bộ ăn tượng	-0.6368221
-1.0112551	xe ăn tượng	-0.6368221
-1.0112551	mã ăn tượng	-0.6368221
-1.0112551	pháo ăn tượng	-0.6368221
-1.0112551	tốt ăn tượng	-0.6368221
-1.0037194	giữa ăn tượng	-1.6580114
-1.0112551	binh ăn tượng	-0.6368221
-1.0112551	chốt ăn tượng	-0.6368221
-1.0112551	soái ăn tượng	-0.6368221
-1.0112551	tướng bắt tượng	-0.6368221
-1.0112551	sĩ bắt tượng	-0.6368221
-1.003346	trên bắt tượng	-1.3357921
-1.0019652	bốn bắt tượng	-2.161867
-1.003346	phải bắt tượng	-1.3357921
-1.003346	trước bắt tượng	-1.3357921
-1.003346	trái bắt tượng	-1.3357921
-1.0019652	sáu bắt tượng	-2.161867
-1.003346	sau bắt tượng	-1.3357921
-1.0019652	năm bắt tượng	-2.161867
-1.003346	dưới bắt tượng	-1.3357921
-1.0112551	tượng bắt tượng	-0.6368221
-1.0023874	bảy bắt tượng	-2.1139433
-1.0023874	hai bắt tượng	-2.1139433
-1.0023874	ba bắt tượng	-2.1139433
-1.0023874	một bắt tượng	-2.1139433
-1.0023874	chín bắt tượng	-2.1139433
-1.0023874	tám bắt tượng	-2.1139433
-1.0112551	tịnh bắt tượng	-0.6368221
-1.0112551	bộ bắt tượng	-0.6368221
-1.0112551	xe bắt tượng	-0.6368221
-1.0112551	mã bắt tượng	-0.6368221
-1.0112551	pháo bắt tượng	-0.6368221
-1.0112551	tốt bắt tượng	-0.6368221
-1.0037194	giữa bắt tượng	-1.6580114
-1.0112551	binh bắt tượng	-0.6368221
-1.0112551	chốt bắt tượng	-0.6368221
-1.0112551	soái bắt tượng	-0.6368221
-1.0146245	chiếu tướng bảy	-4.1112623
-1.1721187	tượng trên bảy	-2.60206
-1.1721187	tịnh trên bảy	-2.60206
-1.1721187	bộ trên bảy	-2.60206
-1.1794493	xe trên bảy	-2.9488475
-1.1721187	mã trên bảy	-2.7269988
-1.1794493	pháo trên bảy	-2.9488475
-1.1865104	tốt trên bảy	-2.5808706
-1.1865104	binh trên bảy	-2.5808706
-1.1865104	chốt trên bảy	-2.5808706
-1.1721187	tượng trước bảy	-2.60206
-1.1721187	tịnh trước bảy	-2.60206
-1.1721187	bộ trước bảy	-2.60206
-1.1794493	xe trước bảy	-2.9488475
-1.1721187	mã trước bảy	-2.7269988
-1.1794493	pháo trước bảy	-2.9488475
-1.1865104	tốt trước bảy	-2.5808706
-1.1865104	binh trước bảy	-2.5808706
-1.1865104	chốt trước bảy	-2.5808706
-1.1721187	tượng sau bảy	-2.60206
-1.1721187	tịnh sau bảy	-2.60206
-1.1721187	bộ sau bảy	-2.60206
-1.1794493	xe sau bảy	-2.9488475
-1.1721187	mã sau bảy	-2.7269988
-1.1794493	pháo sau bảy	-2.9488475
-1.1865104	tốt sau bảy	-2.5808706
-1.1865104	binh sau bảy	-2.5808706
-1.1865104	chốt sau bảy	-2.5808706
-1.1721187	tượng dưới bảy	-2.60206
-1.1721187	tịnh dưới bảy	-2.60206
-1.1721187	bộ dưới bảy	-2.60206
-1.1794493	xe dưới bảy	-2.9488475
-1.1721187	mã dưới bảy	-2.7269988
-1.1794493	pháo dưới bảy	-2.9488475
-1.1865104	tốt dưới bảy	-2.5808706
-1.1865104	binh dưới bảy	-2.5808706
-1.1865104	chốt dưới bảy	-2.5808706
-1.7682221	<s> tượng bảy	-2.521885
-1.2105397	ăn tượng bảy	-2.6394866
-1.2105397	bắt tượng bảy	-2.6394866
-1.7682221	<s> tịnh bảy	-2.521885
-1.2105397	ăn tịnh bảy	-2.6394866
-1.2105397	bắt tịnh bảy	-2.6394866
-1.7682221	<s> bộ bảy	-2.521885
-1.2105397	ăn bộ bảy	-2.6394866
-1.2105397	bắt bộ bảy	-2.6394866
-1.7170936	<s> xe bảy	-2.9498777
-1.2107306	ăn xe bảy	-2.6394866
-1.2107306	bắt xe bảy	-2.6394866
-1.7225152	<s> mã bảy	-2.685699
-1.2105397	ăn mã bảy	-2.6394866
-1.2105397	bắt mã bảy	-2.6394866
-1.7170936	<s> pháo bảy	-2.9498777
-1.2107306	ăn pháo bảy	-2.6394866
-1.2107306	bắt pháo bảy	-2.6394866
-1.9856806	<s> tốt bảy	-2.4110582
-1.2361958	ăn tốt bảy	-2.6394866
-1.2361958	bắt tốt bảy	-2.6394866
-1.2485021	trên giữa bảy	-3.057992
-1.2485021	trước giữa bảy	-3.057992
-1.2485021	sau giữa bảy	-3.057992
-1.2485021	dưới giữa bảy	-3.057992
-1.167264	tốt giữa bảy	-2.5808706
-1.167264	binh giữa bảy	-2.5808706
-1.167264	chốt giữa bảy	-2.5808706
-1.9856806	<s> binh bảy	-2.4110582
-1.2361958	ăn binh bảy	-2.6394866
-1.2361958	bắt binh bảy	-2.6394866
-1.9856806	<s> chốt bảy	-2.4110582
-1.2361958	ăn chốt bảy	-2.6394866
-1.2361958	bắt chốt bảy	-2.6394866
-1.0101091	trên tiến bảy	-2.90309
-1.0832161	bốn tiến bảy	-3.1249387
-1.0101091	phải tiến bảy	-2.90309
-1.0101091	trước tiến bảy	-2.90309
-1.0101091	trái tiến bảy	-2.90309
-1.0148107	sáu tiến bảy	-3.30103
-1.0101091	sau tiến bảy	-2.90309
-0.86336964	năm tiến bảy	-3.60206
-1.0101091	dưới tiến bảy	-2.90309
-0.97470146	tượng tiến bảy	-2.1249387
-1.0644667	bảy tiến bảy	-3.1249387
-1.0381377	hai tiến bảy	-3.1249387
-1.0644667	ba tiến bảy	-3.1249387
-1.0312983	một tiến bảy	-3.1249387
-0.80537766	chín tiến bảy	-3.60206
-0.9697323	tám tiến bảy	-3.30103
-0.97470146	tịnh tiến bảy	-2.1249387
-0.97470146	bộ tiến bảy	-2.1249387
-0.97470146	xe tiến bảy	-2.1249387
-0.97470146	mã tiến bảy	-2.1249387
-0.97470146	pháo tiến bảy	-2.1249387
-1.0101091	trên tấn bảy	-2.90309
-1.0832161	bốn tấn bảy	-3.1249387
-1.0101091	phải tấn bảy	-2.90309
-1.0101091	trước tấn bảy	-2.90309
-1.0101091	trái tấn bảy	-2.90309
-1.0148107	sáu tấn bảy	-3.30103
-1.0101091	sau tấn bảy	-2.90309
-0.86336964	năm tấn bảy	-3.60206
-1.0101091	dưới tấn bảy	-2.90309
-0.97470146	tượng tấn bảy	-2.1249387
-1.0644667	bảy tấn bảy	-3.1249387
-1.0381377	hai tấn bảy	-3.1249387
-1.0644667	ba tấn bảy	-3.1249387
-1.0312983	một tấn bảy	-3.1249387
-0.80537766	chín tấn bảy	-3.60206
-0.9697323	tám tấn bảy	-3.30103
-0.97470146	tịnh tấn bảy	-2.1249387
-0.97470146	bộ tấn bảy	-2.1249387
-0.97470146	xe tấn bảy	-2.1249387
-0.97470146	mã tấn bảy	-2.1249387
-0.97470146	pháo tấn bảy	-2.1249387
-0.9650385	trên bình bảy	-2.8239088
-1.0057123	bốn bình bảy	-3.1249387
-0.9650385	phải bình bảy	-2.8239088
-0.9650385	trước bình bảy	-2.8239088
-0.9650385	trái bình bảy	-2.8239088
-0.77557355	sáu bình bảy	-3.7269988
-0.9650385	sau bình bảy	-2.8239088
-1.0204355	năm bình bảy	-3.1249387
-0.9650385	dưới bình bảy	-2.8239088
-0.9904723	hai bình bảy	-3.1249387
-0.9904723	ba bình bảy	-3.1249387
-0.9582876	một bình bảy	-3.1249387
-0.9582876	chín bình bảy	-3.1249387
-0.76033354	tám bình bảy	-3.7269988
-0.97238785	xe bình bảy	-2.1249387
-0.97238785	pháo bình bảy	-2.1249387
-0.97238785	tốt bình bảy	-2.1249387
-0.9602071	giữa bình bảy	-3.447158
-0.97238785	binh bình bảy	-2.1249387
-0.97238785	chốt bình bảy	-2.1249387
-0.9857571	trên thoái bảy	-2.90309
-1.0559571	bốn thoái bảy	-3.1249387
-0.9857571	phải thoái bảy	-2.90309
-0.9857571	trước thoái bảy	-2.90309
-0.9857571	trái thoái bảy	-2.90309
-0.9878535	sáu thoái bảy	-3.30103
-0.9857571	sau thoái bảy	-2.90309
-0.83731115	năm thoái bảy	-3.60206
-0.9857571	dưới thoái bảy	-2.90309
-0.97046095	tượng thoái bảy	-2.1249387
-1.0360622	bảy thoái bảy	-3.1249387
-1.0080335	hai thoái bảy	-3.1249387
-1.0360622	ba thoái bảy	-3.1249387
-1.0007343	một thoái bảy	-3.1249387
-0.77565426	chín thoái bảy	-3.60206
-0.93992996	tám thoái bảy	-3.30103
-0.97046095	tịnh thoái bảy	-2.1249387
-0.97046095	bộ thoái bảy	-2.1249387
-0.97046095	xe thoái bảy	-2.1249387
-0.97046095	mã thoái bảy	-2.1249387
-0.97046095	pháo thoái bảy	-2.1249387
-0.9857571	trên lùi bảy	-2.90309
-1.0559571	bốn lùi bảy	-3.1249387
-0.9857571	phải lùi bảy	-2.90309
-0.9857571	trước lùi bảy	-2.90309
-0.9857571	trái lùi bảy	-2.90309
-0.9878535	sáu lùi bảy	-3.30103
-0.9857571	sau lùi bảy	-2.90309
-0.83731115	năm lùi bảy	-3.60206
-0.9857571	dưới lùi bảy	-2.90309
-0.97046095	tượng lùi bảy	-2.1249387
-1.0360622	bảy lùi bảy	-3.1249387
-1.0080335	hai lùi bảy	-3.1249387
-1.0360622	ba lùi bảy	-3.1249387
-1.0007343	một lùi bảy	-3.1249387
-0.77565426	chín lùi bảy	-3.60206
-0.93992996	tám lùi bảy	-3.30103
-0.97046095	tịnh lùi bảy	-2.1249387
-0.97046095	bộ lùi bảy	-2.1249387
-0.97046095	xe lùi bảy	-2.1249387
-0.97046095	mã lùi bảy	-2.1249387
-0.97046095	pháo lùi bảy	-2.1249387
-1.0491374	sĩ chiếu bảy	-1.30103
-1.0437016	trên chiếu bảy	-2.30103
-1.0429306	bốn chiếu bảy	-3.1139433
-1.0437016	phải chiếu bảy	-2.30103
-1.0437016	trước chiếu bảy	-2.30103
-1.0437016	trái chiếu bảy	-2.30103
-1.0429306	sáu chiếu bảy	-3.1139433
-1.0437016	sau chiếu bảy	-2.30103
-1.0429306	năm chiếu bảy	-3.1139433
-1.0437016	dưới chiếu bảy	-2.30103
-1.0491374	tượng chiếu bảy	-1.30103
-1.0430408	bảy chiếu bảy	-3.0791812
-1.0430408	hai chiếu bảy	-3.0791812
-1.0430408	ba chiếu bảy	-3.0791812
-1.0430408	một chiếu bảy	-3.0791812
-1.0430408	chín chiếu bảy	-3.0791812
-1.0430408	tám chiếu bảy	-3.0791812
-1.0491374	tịnh chiếu bảy	-1.30103
-1.0491374	bộ chiếu bảy	-1.30103
-1.0491374	xe chiếu bảy	-1.30103
-1.0491374	mã chiếu bảy	-1.30103
-1.0491374	pháo chiếu bảy	-1.30103
-1.0491374	tốt chiếu bảy	-1.30103
-1.0439589	giữa chiếu bảy	-2.6232493
-1.0491374	binh chiếu bảy	-1.30103
-1.0491374	chốt chiếu bảy	-1.30103
-1.0146245	chiếu tướng hai	-4.1112623
-1.1721187	tượng trên hai	-2.5228786
-1.1721187	tịnh trên hai	-2.5228786
-1.1721187	bộ trên hai	-2.5228786
-1.1794493	xe trên hai	-2.9488475
-1.1721187	mã trên hai	-2.6690068
-1.1794493	pháo trên hai	-2.9488475
-1.1865104	tốt trên hai	-2.5808706
-1.1865104	binh trên hai	-2.5808706
-1.1865104	chốt trên hai	-2.5808706
-1.1721187	tượng trước hai	-2.5228786
-1.1721187	tịnh trước hai	-2.5228786
-1.1721187	bộ trước hai	-2.5228786
-1.1794493	xe trước hai	-2.9488475
-1.1721187	mã trước hai	-2.6690068
-1.1794493	pháo trước hai	-2.9488475
-1.1865104	tốt trước hai	-2.5808706
-1.1865104	binh trước hai	-2.5808706
-1.1865104	chốt trước hai	-2.5808706
-1.1721187	tượng sau hai	-2.5228786
-1.1721187	tịnh sau hai	-2.5228786
-1.1721187	bộ sau hai	-2.5228786
-1.1794493	xe sau hai	-2.9488475
-1.1721187	mã sau hai	-2.6690068
-1.1794493	pháo sau hai	-2.9488475
-1.1865104	tốt sau hai	-2.5808706
-1.1865104	binh sau hai	-2.5808706
-1.1865104	chốt sau hai	-2.5808706
-1.1721187	tượng dưới hai	-2.5228786
-1.1721187	tịnh dưới hai	-2.5228786
-1.1721187	bộ dưới hai	-2.5228786
-1.1794493	xe dưới hai	-2.9488475
-1.1721187	mã dưới hai	-2.6690068
-1.1794493	pháo dưới hai	-2.9488475
-1.1865104	tốt dưới hai	-2.5808706
-1.1865104	binh dưới hai	-2.5808706
-1.1865104	chốt dưới hai	-2.5808706
-1.8812213	<s> tượng hai	-2.4088857
-1.2105397	ăn tượng hai	-2.6394866
-1.2105397	bắt tượng hai	-2.6394866
-1.8812213	<s> tịnh hai	-2.4088857
-1.2105397	ăn tịnh hai	-2.6394866
-1.2105397	bắt tịnh hai	-2.6394866
-1.8812213	<s> bộ hai	-2.4088857
-1.2105397	ăn bộ hai	-2.6394866
-1.2105397	bắt bộ hai	-2.6394866
-1.7170936	<s> xe hai	-2.9498777
-1.2107306	ăn xe hai	-2.6394866
-1.2107306	bắt xe hai	-2.6394866
-1.796744	<s> mã hai	-2.6114705
-1.2105397	ăn mã hai	-2.6394866
-1.2105397	bắt mã hai	-2.6394866
-1.7170936	<s> pháo hai	-2.9498777
-1.2107306	ăn pháo hai	-2.6394866
-1.2107306	bắt pháo hai	-2.6394866
-1.9856806	<s> tốt hai	-2.4110582
-1.2361958	ăn tốt hai	-2.6394866
-1.2361958	bắt tốt hai	-2.6394866
-1.2485021	trên giữa hai	-3.057992
-1.2485021	trước giữa hai	-3.057992
-1.2485021	sau giữa hai	-3.057992
-1.2485021	dưới giữa hai	-3.057992
-1.167264	tốt giữa hai	-2.5808706
-1.167264	binh giữa hai	-2.5808706
-1.167264	chốt giữa hai	-2.5808706
-1.9856806	<s> binh hai	-2.4110582
-1.2361958	ăn binh hai	-2.6394866
-1.2361958	bắt binh hai	-2.6394866
-1.9856806	<s> chốt hai	-2.4110582
-1.2361958	ăn chốt hai	-2.6394866
-1.2361958	bắt chốt hai	-2.6394866
-1.0101091	trên tiến hai	-2.90309
-0.8572955	bốn tiến hai	-3.60206
-1.0101091	phải tiến hai	-2.90309
-1.0101091	trước tiến hai	-2.90309
-1.0101091	trái tiến hai	-2.90309
-1.0832161	sáu tiến hai	-3.1249387
-1.0101091	sau tiến hai	-2.90309
-1.0892903	năm tiến hai	-3.1249387
-1.0101091	dưới tiến hai	-2.90309
-0.97470146	tượng tiến hai	-2.1249387
-1.0644667	bảy tiến hai	-3.1249387
-1.0381377	hai tiến hai	-3.1249387
-0.99606127	ba tiến hai	-3.30103
-0.9628929	một tiến hai	-3.30103
-1.0312983	chín tiến hai	-3.1249387
-1.0381377	tám tiến hai	-3.1249387
-0.97470146	tịnh tiến hai	-2.1249387
-0.97470146	bộ tiến hai	-2.1249387
-0.97470146	xe tiến hai	-2.1249387
-0.97470146	mã tiến hai	-2.1249387
-0.97470146	pháo tiến hai	-2.1249387
-1.0101091	trên tấn hai	-2.90309
-0.8572955	bốn tấn hai	-3.60206
-1.0101091	phải tấn hai	-2.90309
-1.0101091	trước tấn hai	-2.90309
-1.0101091	trái tấn hai	-2.90309
-1.0832161	sáu tấn hai	-3.1249387
-1.0101091	sau tấn hai	-2.90309
-1.0892903	năm tấn hai	-3.1249387
-1.0101091	dưới tấn hai	-2.90309
-0.97470146	tượng tấn hai	-2.1249387
-1.0644667	bảy tấn hai	-3.1249387
-1.0381377	hai tấn hai	-3.1249387
-0.99606127	ba tấn hai	-3.30103
-0.9628929	một tấn hai	-3.30103
-1.0312983	chín tấn hai	-3.1249387
-1.0381377	tám tấn hai	-3.1249387
-0.97470146	tịnh tấn hai	-2.1249387
-0.97470146	bộ tấn hai	-2.1249387
-0.97470146	xe tấn hai	-2.1249387
-0.97470146	mã tấn hai	-2.1249387
-0.97470146	pháo tấn hai	-2.1249387
-0.9650385	trên bình hai	-2.8239088
-1.0057123	bốn bình hai	-3.1249387
-0.9650385	phải bình hai	-2.8239088
-0.9650385	trước bình hai	-2.8239088
-0.9650385	trái bình hai	-2.8239088
-1.0057123	sáu bình hai	-3.1249387
-0.9650385	sau bình hai	-2.8239088
-1.0204355	năm bình hai	-3.1249387
-0.9650385	dưới bình hai	-2.8239088
-0.9904723	bảy bình hai	-3.1249387
-0.76033354	ba bình hai	-3.7269988
-0.72814894	một bình hai	-3.7269988
-0.9582876	chín bình hai	-3.1249387
-0.9904723	tám bình hai	-3.1249387
-0.97238785	xe bình hai	-2.1249387
-0.97238785	pháo bình hai	-2.1249387
-0.97238785	tốt bình hai	-2.1249387
-0.9602071	giữa bình hai	-3.447158
-0.97238785	binh bình hai	-2.1249387
-0.97238785	chốt bình hai	-2.1249387
-0.9857571	trên thoái hai	-2.90309
-0.83087707	bốn thoái hai	-3.60206
-0.9857571	phải thoái hai	-2.90309
-0.9857571	trước thoái hai	-2.90309
-0.9857571	trái thoái hai	-2.90309
-1.0559571	sáu thoái hai	-3.1249387
-0.9857571	sau thoái hai	-2.90309
-1.0623912	năm thoái hai	-3.1249387
-0.9857571	dưới thoái hai	-2.90309
-0.97046095	tượng thoái hai	-2.1249387
-1.0360622	bảy thoái hai	-3.1249387
-1.0080335	hai thoái hai	-3.1249387
-0.9679587	ba thoái hai	-3.30103
-0.9326307	một thoái hai	-3.30103
-1.0007343	chín thoái hai	-3.1249387
-1.0080335	tám thoái hai	-3.1249387
-0.97046095	tịnh thoái hai	-2.1249387
-0.97046095	bộ thoái hai	-2.1249387
-0.97046095	xe thoái hai	-2.1249387
-0.97046095	mã thoái hai	-2.1249387
-0.97046095	pháo thoái hai	-2.1249387
-0.9857571	trên lùi hai	-2.90309
-0.83087707	bốn lùi hai	-3.60206
-0.9857571	phải lùi hai	-2.90309
-0.9857571	trước lùi hai	-2.90309
-0.9857571	trái lùi hai	-2.90309
-1.0559571	sáu lùi hai	-3.1249387
-0.9857571	sau lùi hai	-2.90309
-1.0623912	năm lùi hai	-3.1249387
-0.9857571	dưới lùi hai	-2.90309
-0.97046095	tượng lùi hai	-2.1249387
-1.0360622	bảy lùi hai	-3.1249387
-1.0080335	hai lùi hai	-3.1249387
-0.9679587	ba lùi hai	-3.30103
-0.9326307	một lùi hai	-3.30103
-1.0007343	chín lùi hai	-3.1249387
-1.0080335	tám lùi hai	-3.1249387
-0.97046095	tịnh lùi hai	-2.1249387
-0.97046095	bộ lùi hai	-2.1249387
-0.97046095	xe lùi hai	-2.1249387
-0.97046095	mã lùi hai	-2.1249387
-0.97046095	pháo lùi hai	-2.1249387
-1.0491374	sĩ chiếu hai	-1.30103
-1.0437016	trên chiếu hai	-2.30103
-1.0429306	bốn chiếu hai	-3.1139433
-1.0437016	phải chiếu hai	-2.30103
-1.0437016	trước chiếu hai	-2.30103
-1.0437016	trái chiếu hai	-2.30103
-1.0429306	sáu chiếu hai	-3.1139433
-1.0437016	sau chiếu hai	-2.30103
-1.0429306	năm chiếu hai	-3.1139433
-1.0437016	dưới chiếu hai	-2.30103
-1.0491374	tượng chiếu hai	-1.30103
-1.0430408	bảy chiếu hai	-3.0791812
-1.0430408	hai chiếu hai	-3.0791812
-1.0430408	ba chiếu hai	-3.0791812
-1.0430408	một chiếu hai	-3.0791812
-1.0430408	chín chiếu hai	-3.0791812
-1.0430408	tám chiếu hai	-3.0791812
-1.0491374	tịnh chiếu hai	-1.30103
-1.0491374	bộ chiếu hai	-1.30103
-1.0491374	xe chiếu hai	-1.30103
-1.0491374	mã chiếu hai	-1.30103
-1.0491374	pháo chiếu hai	-1.30103
-1.0491374	tốt chiếu hai	-1.30103
-1.0439589	giữa chiếu hai	-2.6232493
-1.0491374	binh chiếu hai	-1.30103
-1.0491374	chốt chiếu hai	-1.30103
-1.0146245	chiếu tướng ba	-4.1112623
-1.1721187	tượng trên ba	-2.60206
-1.1721187	tịnh trên ba	-2.60206
-1.1721187	bộ trên ba	-2.60206
-1.1794493	xe trên ba	-2.9488475
-1.1721187	mã trên ba	-2.7269988
-1.1794493	pháo trên ba	-2.9488475
-1.1865104	tốt trên ba	-2.5808706
-1.1865104	binh trên ba	-2.5808706
-1.1865104	chốt trên ba	-2.5808706
-1.1721187	tượng trước ba	-2.60206
-1.1721187	tịnh trước ba	-2.60206
-1.1721187	bộ trước ba	-2.60206
-1.1794493	xe trước ba	-2.9488475
-1.1721187	mã trước ba	-2.7269988
-1.1794493	pháo trước ba	-2.9488475
-1.1865104	tốt trước ba	-2.5808706
-1.1865104	binh trước ba	-2.5808706
-1.1865104	chốt trước ba	-2.5808706
-1.1721187	tượng sau ba	-2.60206
-1.1721187	tịnh sau ba	-2.60206
-1.1721187	bộ sau ba	-2.60206
-1.1794493	xe sau ba	-2.9488475
-1.1721187	mã sau ba	-2.7269988
-1.1794493	pháo sau ba	-2.9488475
-1.1865104	tốt sau ba	-2.5808706
-1.1865104	binh sau ba	-2.5808706
-1.1865104	chốt sau ba	-2.5808706
-1.1721187	tượng dưới ba	-2.60206
-1.1721187	tịnh dưới ba	-2.60206
-1.1721187	bộ dưới ba	-2.60206
-1.1794493	xe dưới ba	-2.9488475
-1.1721187	mã dưới ba	-2.7269988
-1.1794493	pháo dưới ba	-2.9488475
-1.1865104	tốt dưới ba	-2.5808706
-1.1865104	binh dưới ba	-2.5808706
-1.1865104	chốt dưới ba	-2.5808706
-1.7682221	<s> tượng ba	-2.521885
-1.2105397	ăn tượng ba	-2.6394866
-1.2105397	bắt tượng ba	-2.6394866
-1.7682221	<s> tịnh ba	-2.521885
-1.2105397	ăn tịnh ba	-2.6394866
-1.2105397	bắt tịnh ba	-2.6394866
-1.7682221	<s> bộ ba	-2.521885
-1.2105397	ăn bộ ba	-2.6394866
-1.2105397	bắt bộ ba	-2.6394866
-1.7170936	<s> xe ba	-2.9498777
-1.2107306	ăn xe ba	-2.6394866
-1.2107306	bắt xe ba	-2.6394866
-1.7225152	<s> mã ba	-2.685699
-1.2105397	ăn mã ba	-2.6394866
-1.2105397	bắt mã ba	-2.6394866
-1.7170936	<s> pháo ba	-2.9498777
-1.2107306	ăn pháo ba	-2.6394866
-1.2107306	bắt pháo ba	-2.6394866
-1.9856806	<s> tốt ba	-2.4110582
-1.2361958	ăn tốt ba	-2.6394866
-1.2361958	bắt tốt ba	-2.6394866
-1.2485021	trên giữa ba	-3.057992
-1.2485021	trước giữa ba	-3.057992
-1.2485021	sau giữa ba	-3.057992
-1.2485021	dưới giữa ba	-3.057992
-1.167264	tốt giữa ba	-2.5808706
-1.167264	binh giữa ba	-2.5808706
-1.167264	chốt giữa ba	-2.5808706
-1.9856806	<s> binh ba	-2.4110582
-1.2361958	ăn binh ba	-2.6394866
-1.2361958	bắt binh ba	-2.6394866
-1.9856806	<s> chốt ba	-2.4110582
-1.2361958	ăn chốt ba	-2.6394866
-1.2361958	bắt chốt ba	-2.6394866
-1.0101091	trên tiến ba	-2.90309
-1.0148107	bốn tiến ba	-3.30103
-1.0101091	phải tiến ba	-2.90309
-1.0101091	trước tiến ba	-2.90309
-1.0101091	trái tiến ba	-2.90309
-1.0832161	sáu tiến ba	-3.1249387
-1.0101091	sau tiến ba	-2.90309
-0.86336964	năm tiến ba	-3.60206
-1.0101091	dưới tiến ba	-2.90309
-0.97470146	tượng tiến ba	-2.1249387
-1.0644667	bảy tiến ba	-3.1249387
-0.9697323	hai tiến ba	-3.30103
-1.0644667	ba tiến ba	-3.1249387
-0.80537766	một tiến ba	-3.60206
-1.0312983	chín tiến ba	-3.1249387
-1.0381377	tám tiến ba	-3.1249387
-0.97470146	tịnh tiến ba	-2.1249387
-0.97470146	bộ tiến ba	-2.1249387
-0.97470146	xe tiến ba	-2.1249387
-0.97470146	mã tiến ba	-2.1249387
-0.97470146	pháo tiến ba	-2.1249387
-1.0101091	trên tấn ba	-2.90309
-1.0148107	bốn tấn ba	-3.30103
-1.0101091	phải tấn ba	-2.90309
-1.0101091	trước tấn ba	-2.90309
-1.0101091	trái tấn ba	-2.90309
-1.0832161	sáu tấn ba	-3.1249387
-1.0101091	sau tấn ba	-2.90309
-0.86336964	năm tấn ba	-3.60206
-1.0101091	dưới tấn ba	-2.90309
-0.97470146	tượng tấn ba	-2.1249387
-1.0644667	bảy tấn ba	-3.1249387
-0.9697323	hai tấn ba	-3.30103
-1.0644667	ba tấn ba	-3.1249387
-0.80537766	một tấn ba	-3.60206
-1.0312983	chín tấn ba	-3.1249387
-1.0381377	tám tấn ba	-3.1249387
-0.97470146	tịnh tấn ba	-2.1249387
-0.97470146	bộ tấn ba	-2.1249387
-0.97470146	xe tấn ba	-2.1249387
-0.97470146	mã tấn ba	-2.1249387
-0.97470146	pháo tấn ba	-2.1249387
-0.9650385	trên bình ba	-2.8239088
-0.77557355	bốn bình ba	-3.7269988
-0.9650385	phải bình ba	-2.8239088
-0.9650385	trước bình ba	-2.8239088
-0.9650385	trái bình ba	-2.8239088
-1.0057123	sáu bình ba	-3.1249387
-0.9650385	sau bình ba	-2.8239088
-1.0204355	năm bình ba	-3.1249387
-0.9650385	dưới bình ba	-2.8239088
-0.9904723	bảy bình ba	-3.1249387
-0.76033354	hai bình ba	-3.7269988
-0.9582876	một bình ba	-3.1249387
-0.9582876	chín bình ba	-3.1249387
-0.9904723	tám bình ba	-3.1249387
-0.97238785	xe bình ba	-2.1249387
-0.97238785	pháo bình ba	-2.1249387
-0.97238785	tốt bình ba	-2.1249387
-0.9602071	giữa bình ba	-3.447158
-0.97238785	binh bình ba	-2.1249387
-0.97238785	chốt bình ba	-2.1249387
-0.9857571	trên thoái ba	-2.90309
-0.9878535	bốn thoái ba	-3.30103
-0.9857571	phải thoái ba	-2.90309
-0.9857571	trước thoái ba	-2.90309
-0.9857571	trái thoái ba	-2.90309
-1.0559571	sáu thoái ba	-3.1249387
-0.9857571	sau thoái ba	-2.90309
-0.83731115	năm thoái ba	-3.60206
-0.9857571	dưới thoái ba	-2.90309
-0.97046095	tượng thoái ba	-2.1249387
-1.0360622	bảy thoái ba	-3.1249387
-0.93992996	hai thoái ba	-3.30103
-1.0360622	ba thoái ba	-3.1249387
-0.77565426	một thoái ba	-3.60206
-1.0007343	chín thoái ba	-3.1249387
-1.0080335	tám thoái ba	-3.1249387
-0.97046095	tịnh thoái ba	-2.1249387
-0.97046095	bộ thoái ba	-2.1249387
-0.97046095	xe thoái ba	-2.1249387
-0.97046095	mã thoái ba	-2.1249387
-0.97046095	pháo thoái ba	-2.1249387
-0.9857571	trên lùi ba	-2.90309
-0.9878535	bốn lùi ba	-3.30103
-0.9857571	phải lùi ba	-2.90309
-0.9857571	trước lùi ba	-2.90309
-0.9857571	trái lùi ba	-2.90309
-1.0559571	sáu lùi ba	-3.1249387
-0.9857571	sau lùi ba	-2.90309
-0.83731115	năm lùi ba	-3.60206
-0.9857571	dưới lùi ba	-2.90309
-0.97046095	tượng lùi ba	-2.1249387
-1.0360622	bảy lùi ba	-3.1249387
-0.93992996	hai lùi ba	-3.30103
-1.0360622	ba lùi ba	-3.1249387
-0.77565426	một lùi ba	-3.60206
-1.0007343	chín lùi ba	-3.1249387
-1.0080335	tám lùi ba	-3.1249387
-0.97046095	tịnh lùi ba	-2.1249387
-0.97046095	bộ lùi ba	-2.1249387
-0.97046095	xe lùi ba	-2.1249387
-0.97046095	mã lùi ba	-2.1249387
-0.97046095	pháo lùi ba	-2.1249387
-1.0491374	sĩ chiếu ba	-1.30103
-1.0437016	trên chiếu ba	-2.30103
-1.0429306	bốn chiếu ba	-3.1139433
-1.0437016	phải chiếu ba	-2.30103
-1.0437016	trước chiếu ba	-2.30103
-1.0437016	trái chiếu ba	-2.30103
-1.0429306	sáu chiếu ba	-3.1139433
-1.0437016	sau chiếu ba	-2.30103
-1.0429306	năm chiếu ba	-3.1139433
-1.0437016	dưới chiếu ba	-2.30103
-1.0491374	tượng chiếu ba	-1.30103
-1.0430408	bảy chiếu ba	-3.0791812
-1.0430408	hai chiếu ba	-3.0791812
-1.0430408	ba chiếu ba	-3.0791812
-1.0430408	một chiếu ba	-3.0791812
-1.0430408	chín chiếu ba	-3.0791812
-1.0430408	tám chiếu ba	-3.0791812
-1.0491374	tịnh chiếu ba	-1.30103
-1.0491374	bộ chiếu ba	-1.30103
-1.0491374	xe chiếu ba	-1.30103
-1.0491374	mã chiếu ba	-1.30103
-1.0491374	pháo chiếu ba	-1.30103
-1.0491374	tốt chiếu ba	-1.30103
-1.0439589	giữa chiếu ba	-2.6232493
-1.0491374	binh chiếu ba	-1.30103
-1.0491374	chốt chiếu ba	-1.30103
-1.0146245	chiếu tướng một	-4.1112623
-1.1721187	tượng trên một	-2.5228786
-1.1721187	tịnh trên một	-2.5228786
-1.1721187	bộ trên một	-2.5228786
-1.1794493	xe trên một	-2.9488475
-1.1721187	mã trên một	-2.60206
-1.1794493	pháo trên một	-2.9488475
-1.1865104	tốt trên một	-2.5585942
-1.1865104	binh trên một	-2.5585942
-1.1865104	chốt trên một	-2.5585942
-1.1721187	tượng trước một	-2.5228786
-1.1721187	tịnh trước một	-2.5228786
-1.1721187	bộ trước một	-2.5228786
-1.1794493	xe trước một	-2.9488475
-1.1721187	mã trước một	-2.60206
-1.1794493	pháo trước một	-2.9488475
-1.1865104	tốt trước một	-2.5585942
-1.1865104	binh trước một	-2.5585942
-1.1865104	chốt trước một	-2.5585942
-1.1721187	tượng sau một	-2.5228786
-1.1721187	tịnh sau một	-2.5228786
-1.1721187	bộ sau một	-2.5228786
-1.1794493	xe sau một	-2.9488475
-1.1721187	mã sau một	-2.60206
-1.1794493	pháo sau một	-2.9488475
-1.1865104	tốt sau một	-2.5585942
-1.1865104	binh sau một	-2.5585942
-1.1865104	chốt sau một	-2.5585942
-1.1721187	tượng dưới một	-2.5228786
-1.1721187	tịnh dưới một	-2.5228786
-1.1721187	bộ dưới một	-2.5228786
-1.1794493	xe dưới một	-2.9488475
-1.1721187	mã dưới một	-2.60206
-1.1794493	pháo dưới một	-2.9488475
-1.1865104	tốt dưới một	-2.5585942
-1.1865104	binh dưới một	-2.5585942
-1.1865104	chốt dưới một	-2.5585942
-1.8812213	<s> tượng một	-2.4088857
-1.2105397	ăn tượng một	-2.6394866
-1.2105397	bắt tượng một	-2.6394866
-1.8812213	<s> tịnh một	-2.4088857
-1.2105397	ăn tịnh một	-2.6394866
-1.2105397	bắt tịnh một	-2.6394866
-1.8812213	<s> bộ một	-2.4088857
-1.2105397	ăn bộ một	-2.6394866
-1.2105397	bắt bộ một	-2.6394866
-1.7170936	<s> xe một	-2.9498777
-1.2107306	ăn xe một	-2.6394866
-1.2107306	bắt xe một	-2.6394866
-1.8863294	<s> mã một	-2.521885
-1.2105397	ăn mã một	-2.6394866
-1.2105397	bắt mã một	-2.6394866
-1.7170936	<s> pháo một	-2.9498777
-1.2107306	ăn pháo một	-2.6394866
-1.2107306	bắt pháo một	-2.6394866
-2.014722	<s> tốt một	-2.3820171
-1.2361958	ăn tốt một	-2.6394866
-1.2361958	bắt tốt một	-2.6394866
-1.2485021	trên giữa một	-3.0357156
-1.2485021	trước giữa một	-3.0357156
-1.2485021	sau giữa một	-3.0357156
-1.2485021	dưới giữa một	-3.0357156
-1.167264	tốt giữa một	-2.5585942
-1.167264	binh giữa một	-2.5585942
-1.167264	chốt giữa một	-2.5585942
-2.014722	<s> binh một	-2.3820171
-1.2361958	ăn binh một	-2.6394866
-1.2361958	bắt binh một	-2.6394866
-2.014722	<s> chốt một	-2.3820171
-1.2361958	ăn chốt một	-2.6394866
-1.2361958	bắt chốt một	-2.6394866
-0.24749506	tướng tiến một	-2.1249387
-0.81102264	trên tiến một	-3.0791812
-0.7623769	bốn tiến một	-3.748188
-0.81102264	phải tiến một	-3.0791812
-0.81102264	trước tiến một	-3.0791812
-0.81102264	trái tiến một	-3.0791812
-0.7623769	sáu tiến một	-3.748188
-0.81102264	sau tiến một	-3.0791812
-0.7684511	năm tiến một	-3.748188
-0.81102264	dưới tiến một	-3.0791812
-0.9166776	tượng tiến một	-2.1249387
-0.8208944	bảy tiến một	-3.7269988
-0.7542159	hai tiến một	-3.7781513
-0.6780532	ba tiến một	-3.90309
-0.787726	một tiến một	-3.7269988
-0.787726	chín tiến một	-3.7269988
-0.79456544	tám tiến một	-3.7269988
