\data\
ngram 1=62
ngram 2=632
ngram 3=5017
ngram 4=30234

\1-grams:
-2.7471979	<unk>	0
0	<s>	-5.1017647
-1.1812987	</s>	0
-2.4721036	tướng	-0.30103
-1.4092324	bốn	-0.98663604
-1.3593181	ăn	-1.2710668
-2.3805718	sĩ	-0.30103
-1.3593181	bắt	-1.2710668
-1.6354387	phải	-0.67569864
-1.817039	sau	-0.7558749
-1.817039	trên	-0.7558749
-1.4092324	sáu	-0.98663604
-1.4092324	năm	-0.98663604
-1.817039	trước	-0.7558749
-1.817039	dưới	-0.7558749
-1.6354387	trái	-0.67569864
-2.3805718	tượng	-0.30103
-1.4460106	chín	-0.91605496
-1.4460106	tám	-0.91605496
-1.4460106	một	-0.91605496
-1.4460106	ba	-0.91605496
-1.4460106	hai	-0.91605496
-1.4460106	bảy	-0.91605496
-2.3805718	tịnh	-0.30103
-2.3805718	bộ	-0.30103
-2.3805718	xe	-0.30103
-2.3805718	mã	-0.30103
-2.3805718	pháo	-0.30103
-2.3805718	tốt	-0.30103
-1.8646486	giữa	-0.72379357
-2.3805718	binh	-0.30103
-2.3805718	chốt	-0.30103
-2.588224	soái	-0.30103
-1.3593181	tiến	-1.1580273
-1.3593181	tấn	-1.1580273
-1.4460106	bình	-1.1391792
-1.4272323	thoái	-1.1231254
-1.4272323	lùi	-1.1231254
-1.4460106	sang	-1.0871502
-1.8646486	qua	-0.7781512
-2.4721036	sông	-0.30103
-2.588224	chấp	-0.30103
-2.4721036	nhận	-0.30103
-2.588224	xác	-0.30103
-2.588224	đồng	-0.30103
-2.588224	ý	-0.30103
-2.588224	ô	-0.30103
-2.588224	kê	-0.30103
-2.588224	hủy	-0.30103
-2.588224	bỏ	-0.30103
-2.588224	từ	-0.30103
-2.588224	chối	-0.30103
-2.588224	đầu	-0.30103
-2.588224	hàng	-0.30103
-2.588224	xin	-0.30103
-2.588224	hòa	-0.30103
-2.588224	đổi	-0.30103
-2.588224	phe	-0.30103
-2.588224	chơi	-0.30103
-2.4721036	lại	-0.30103
-2.588224	đi	-0.30103
-1.391949	chiếu	-1.2388821

\2-grams:
-1.2460681	tướng </s>	0
-0.83144933	bốn </s>	0
-1.2167125	sĩ </s>	0
-0.86089945	phải </s>	0
-1.212794	sau </s>	0
-1.212794	trên </s>	0
-0.83144933	sáu </s>	0
-0.83144933	năm </s>	0
-1.212794	trước </s>	0
-1.212794	dưới </s>	0
-0.86089945	trái </s>	0
-1.2885761	tượng </s>	0
-0.7796825	chín </s>	0
-0.7796825	tám </s>	0
-0.7796825	một </s>	0
-0.7796825	ba </s>	0
-0.7796825	hai </s>	0
-0.7796825	bảy </s>	0
-1.2885761	tịnh </s>	0
-1.2885761	bộ </s>	0
-1.2941946	xe </s>	0
-1.2885761	mã </s>	0
-1.2941946	pháo </s>	0
-1.2968816	tốt </s>	0
-1.1675035	giữa </s>	0
-1.2968816	binh </s>	0
-1.2968816	chốt </s>	0
-1.0976295	tiến </s>	0
-1.0976295	tấn </s>	0
-1.7076237	thoái </s>	0
-1.7076237	lùi </s>	0
-0.27332494	sông </s>	0
-0.27332494	nhận </s>	0
-0.27332494	ý </s>	0
-0.27332494	kê </s>	0
-0.27332494	bỏ </s>	0
-0.27332494	chối </s>	0
-0.27332494	hàng </s>	0
-0.27332494	hòa </s>	0
-0.27332494	phe </s>	0
-0.27332494	lại </s>	0
-1.0483485	chiếu </s>	0
-2.45692	<s> tướng	-2.945916
-1.0662148	chiếu tướng	-1.2388821
-1.1732405	tướng bốn	-0.30103
-1.2135799	sĩ bốn	-0.30103
-1.8924208	phải bốn	-0.30103
-1.2476056	sau bốn	-0.748188
-1.2476056	trên bốn	-0.748188
-1.2476056	trước bốn	-0.748188
-1.2476056	dưới bốn	-0.748188
-1.8924208	trái bốn	-0.30103
-1.3254654	tượng bốn	-0.30103
-1.3254654	tịnh bốn	-0.30103
-1.3254654	bộ bốn	-0.30103
-1.3346782	xe bốn	-0.30103
-1.3254654	mã bốn	-0.30103
-1.3346782	pháo bốn	-0.30103
-1.3391112	tốt bốn	-0.30103
-1.3178335	giữa bốn	-0.66900676
-1.3391112	binh bốn	-0.30103
-1.3391112	chốt bốn	-0.30103
-1.1874796	soái bốn	-0.30103
-1.0869328	tiến bốn	-1.1663314
-1.0869328	tấn bốn	-1.1663314
-0.9467534	bình bốn	-1.1663314
-1.0520309	thoái bốn	-1.1663314
-1.0520309	lùi bốn	-1.1663314
-1.0559479	chiếu bốn	-1.2388821
-1.3403727	tướng ăn	-0.30103
-0.99403214	bốn ăn	-1.0543576
-1.4467365	sĩ ăn	-0.30103
-1.0594486	phải ăn	-0.8239087
-1.241256	sau ăn	-0.8239087
-1.241256	trên ăn	-0.8239087
-0.99403214	sáu ăn	-1.0543576
-0.99403214	năm ăn	-1.0543576
-1.241256	trước ăn	-0.8239087
-1.241256	dưới ăn	-0.8239087
-1.0594486	trái ăn	-0.8239087
-1.5069696	tượng ăn	-0.30103
-1.012262	chín ăn	-0.97003675
-1.012262	tám ăn	-0.97003675
-1.012262	một ăn	-0.97003675
-1.012262	ba ăn	-0.97003675
-1.012262	hai ăn	-0.97003675
-1.012262	bảy ăn	-0.97003675
-1.5069696	tịnh ăn	-0.30103
-1.5069696	bộ ăn	-0.30103
-1.5116093	xe ăn	-0.30103
-1.5069696	mã ăn	-0.30103
-1.5116093	pháo ăn	-0.30103
-1.5138245	tốt ăn	-0.30103
-1.1950853	giữa ăn	-0.7781512
-1.5138245	binh ăn	-0.30103
-1.5138245	chốt ăn	-0.30103
-1.1718905	soái ăn	-0.30103
-1.6343015	<s> sĩ	-3.6057718
-1.02289	ăn sĩ	-1.2710668
-1.02289	bắt sĩ	-1.2710668
-1.3403727	tướng bắt	-0.30103
-0.99403214	bốn bắt	-1.0543576
-1.4467365	sĩ bắt	-0.30103
-1.0594486	phải bắt	-0.8239087
-1.241256	sau bắt	-0.8239087
-1.241256	trên bắt	-0.8239087
-0.99403214	sáu bắt	-1.0543576
-0.99403214	năm bắt	-1.0543576
-1.241256	trước bắt	-0.8239087
-1.241256	dưới bắt	-0.8239087
-1.0594486	trái bắt	-0.8239087
-1.5069696	tượng bắt	-0.30103
-1.012262	chín bắt	-0.97003675
-1.012262	tám bắt	-0.97003675
-1.012262	một bắt	-0.97003675
-1.012262	ba bắt	-0.97003675
-1.012262	hai bắt	-0.97003675
-1.012262	bảy bắt	-0.97003675
-1.5069696	tịnh bắt	-0.30103
-1.5069696	bộ bắt	-0.30103
-1.5116093	xe bắt	-0.30103
-1.5069696	mã bắt	-0.30103
-1.5116093	pháo bắt	-0.30103
-1.5138245	tốt bắt	-0.30103
-1.1950853	giữa bắt	-0.7781512
-1.5138245	binh bắt	-0.30103
-1.5138245	chốt bắt	-0.30103
-1.1718905	soái bắt	-0.30103
-1.2737461	sĩ phải	-0.30103
-1.4050217	tượng phải	-0.30103
-1.4050217	tịnh phải	-0.30103
-1.4050217	bộ phải	-0.30103
-1.4161102	xe phải	-0.30103
-1.4050217	mã phải	-0.30103
-1.4161102	pháo phải	-0.30103
-1.4214633	tốt phải	-0.30103
-1.4214633	binh phải	-0.30103
-1.4214633	chốt phải	-0.30103
-1.1364541	tiến phải	-1.0543576
-1.1364541	tấn phải	-1.0543576
-1.1015524	thoái phải	-1.0543576
-1.1015524	lùi phải	-1.0543576
-0.40582493	sang phải	-1.064458
-1.3072742	sĩ sau	-0.30103
-1.4510292	tượng sau	-0.30103
-1.4510292	tịnh sau	-0.30103
-1.4510292	bộ sau	-0.30103
-1.4633747	xe sau	-0.30103
-1.4510292	mã sau	-0.30103
-1.4633747	pháo sau	-0.30103
-1.4693475	tốt sau	-0.30103
-1.4693475	binh sau	-0.30103
-1.4693475	chốt sau	-0.30103
-1.3072742	sĩ trên	-0.30103
-1.4510292	tượng trên	-0.30103
-1.4510292	tịnh trên	-0.30103
-1.4510292	bộ trên	-0.30103
-1.4633747	xe trên	-0.30103
-1.4510292	mã trên	-0.30103
-1.4633747	pháo trên	-0.30103
-1.4693475	tốt trên	-0.30103
-1.4693475	binh trên	-0.30103
-1.4693475	chốt trên	-0.30103
-1.1732405	tướng sáu	-0.30103
-1.2135799	sĩ sáu	-0.30103
-1.8924208	phải sáu	-0.30103
-1.2476056	sau sáu	-0.748188
-1.2476056	trên sáu	-0.748188
-1.2476056	trước sáu	-0.748188
-1.2476056	dưới sáu	-0.748188
-1.8924208	trái sáu	-0.30103
-1.3254654	tượng sáu	-0.30103
-1.3254654	tịnh sáu	-0.30103
-1.3254654	bộ sáu	-0.30103
-1.3346782	xe sáu	-0.30103
-1.3254654	mã sáu	-0.30103
-1.3346782	pháo sáu	-0.30103
-1.3391112	tốt sáu	-0.30103
-1.3178335	giữa sáu	-0.66900676
-1.3391112	binh sáu	-0.30103
-1.3391112	chốt sáu	-0.30103
-1.1874796	soái sáu	-0.30103
-1.0869328	tiến sáu	-1.1663314
-1.0869328	tấn sáu	-1.1663314
-0.9467534	bình sáu	-1.1663314
-1.0520309	thoái sáu	-1.1663314
-1.0520309	lùi sáu	-1.1663314
-1.0559479	chiếu sáu	-1.2388821
-1.1732405	tướng năm	-0.30103
-1.2135799	sĩ năm	-0.30103
-1.8924208	phải năm	-0.30103
-1.2476056	sau năm	-0.72699875
-1.2476056	trên năm	-0.72699875
-1.2476056	trước năm	-0.72699875
-1.2476056	dưới năm	-0.72699875
-1.8924208	trái năm	-0.30103
-1.3254654	tượng năm	-0.30103
-1.3254654	tịnh năm	-0.30103
-1.3254654	bộ năm	-0.30103
-1.3346782	xe năm	-0.30103
-1.3254654	mã năm	-0.30103
-1.3346782	pháo năm	-0.30103
-1.3391112	tốt năm	-0.30103
-1.3178335	giữa năm	-0.66900676
-1.3391112	binh năm	-0.30103
-1.3391112	chốt năm	-0.30103
-1.1874796	soái năm	-0.30103
-1.0869328	tiến năm	-1.1663314
-1.0869328	tấn năm	-1.1663314
-0.9467534	bình năm	-1.1663314
-1.0520309	thoái năm	-1.1663314
-1.0520309	lùi năm	-1.1663314
-1.0559479	chiếu năm	-1.2388821
-1.3072742	sĩ trước	-0.30103
-1.4510292	tượng trước	-0.30103
-1.4510292	tịnh trước	-0.30103
-1.4510292	bộ trước	-0.30103
-1.4633747	xe trước	-0.30103
-1.4510292	mã trước	-0.30103
-1.4633747	pháo trước	-0.30103
-1.4693475	tốt trước	-0.30103
-1.4693475	binh trước	-0.30103
-1.4693475	chốt trước	-0.30103
-1.3072742	sĩ dưới	-0.30103
-1.4510292	tượng dưới	-0.30103
-1.4510292	tịnh dưới	-0.30103
-1.4510292	bộ dưới	-0.30103
-1.4633747	xe dưới	-0.30103
-1.4510292	mã dưới	-0.30103
-1.4633747	pháo dưới	-0.30103
-1.4693475	tốt dưới	-0.30103
-1.4693475	binh dưới	-0.30103
-1.4693475	chốt dưới	-0.30103
-1.2737461	sĩ trái	-0.30103
-1.4050217	tượng trái	-0.30103
-1.4050217	tịnh trái	-0.30103
-1.4050217	bộ trái	-0.30103
-1.4161102	xe trái	-0.30103
-1.4050217	mã trái	-0.30103
-1.4161102	pháo trái	-0.30103
-1.4214633	tốt trái	-0.30103
-1.4214633	binh trái	-0.30103
-1.4214633	chốt trái	-0.30103
-1.1364541	tiến trái	-1.0543576
-1.1364541	tấn trái	-1.0543576
-1.1015524	thoái trái	-1.0543576
-1.1015524	lùi trái	-1.0543576
-0.40582493	sang trái	-1.064458
-1.1609123	<s> tượng	-3.9408543
-1.02289	ăn tượng	-1.2710668
-1.02289	bắt tượng	-1.2710668
-1.379719	tướng chín	-0.30103
-1.9156692	phải chín	-0.30103
-1.2997993	sau chín	-0.70472234
-1.2997993	trên chín	-0.70472234
-1.2997993	trước chín	-0.70472234
-1.2997993	dưới chín	-0.70472234
-1.9156692	trái chín	-0.30103
-1.3402534	tượng chín	-0.30103
-1.3402534	tịnh chín	-0.30103
-1.3402534	bộ chín	-0.30103
-1.3497887	xe chín	-0.30103
-1.3402534	mã chín	-0.30103
-1.3497887	pháo chín	-0.30103
-1.3543795	tốt chín	-0.30103
-1.3232641	giữa chín	-0.66900676
-1.3543795	binh chín	-0.30103
-1.3543795	chốt chín	-0.30103
-1.1091421	tiến chín	-1.146128
-1.1091421	tấn chín	-1.146128
-0.9911385	bình chín	-1.1249387
-1.0742402	thoái chín	-1.146128
-1.0742402	lùi chín	-1.146128
-1.0568507	chiếu chín	-1.2388821
-1.379719	tướng tám	-0.30103
-1.9156692	phải tám	-0.30103
-1.2997993	sau tám	-0.70472234
-1.2997993	trên tám	-0.70472234
-1.2997993	trước tám	-0.70472234
-1.2997993	dưới tám	-0.70472234
-1.9156692	trái tám	-0.30103
-1.3402534	tượng tám	-0.30103
-1.3402534	tịnh tám	-0.30103
-1.3402534	bộ tám	-0.30103
-1.3497887	xe tám	-0.30103
-1.3402534	mã tám	-0.30103
-1.3497887	pháo tám	-0.30103
-1.3543795	tốt tám	-0.30103
-1.3232641	giữa tám	-0.66900676
-1.3543795	binh tám	-0.30103
-1.3543795	chốt tám	-0.30103
-1.1091421	tiến tám	-1.146128
-1.1091421	tấn tám	-1.146128
-0.9911385	bình tám	-1.1249387
-1.0742402	thoái tám	-1.146128
-1.0742402	lùi tám	-1.146128
-1.0568507	chiếu tám	-1.2388821
-1.379719	tướng một	-0.30103
-1.4015808	phải một	-0.5228787
-1.2997993	sau một	-0.70472234
-1.2997993	trên một	-0.70472234
-1.2997993	trước một	-0.70472234
-1.2997993	dưới một	-0.70472234
-1.4015808	trái một	-0.5228787
-1.3402534	tượng một	-0.30103
-1.3402534	tịnh một	-0.30103
-1.3402534	bộ một	-0.30103
-1.3497887	xe một	-0.30103
-1.3402534	mã một	-0.30103
-1.3497887	pháo một	-0.30103
-1.3543795	tốt một	-0.30103
-1.3232641	giữa một	-0.66900676
-1.3543795	binh một	-0.30103
-1.3543795	chốt một	-0.30103
-0.99591845	tiến một	-1.2552725
-0.99591845	tấn một	-1.2552725
-0.9911385	bình một	-1.1249387
-1.0331309	thoái một	-1.1856365
-1.0331309	lùi một	-1.1856365
-1.0568507	chiếu một	-1.2388821
-1.379719	tướng ba	-0.30103
-1.9156692	phải ba	-0.30103
-1.2997993	sau ba	-0.70472234
-1.2997993	trên ba	-0.70472234
-1.2997993	trước ba	-0.70472234
-1.2997993	dưới ba	-0.70472234
-1.9156692	trái ba	-0.30103
-1.3402534	tượng ba	-0.30103
-1.3402534	tịnh ba	-0.30103
-1.3402534	bộ ba	-0.30103
-1.3497887	xe ba	-0.30103
-1.3402534	mã ba	-0.30103
-1.3497887	pháo ba	-0.30103
-1.3543795	tốt ba	-0.30103
-1.3232641	giữa ba	-0.66900676
-1.3543795	binh ba	-0.30103
-1.3543795	chốt ba	-0.30103
-1.1091421	tiến ba	-1.146128
-1.1091421	tấn ba	-1.146128
-0.9911385	bình ba	-1.1249387
-1.0742402	thoái ba	-1.146128
-1.0742402	lùi ba	-1.146128
-1.0568507	chiếu ba	-1.2388821
-1.379719	tướng hai	-0.30103
-1.4015808	phải hai	-0.5228787
-1.2997993	sau hai	-0.70472234
-1.2997993	trên hai	-0.70472234
-1.2997993	trước hai	-0.70472234
-1.2997993	dưới hai	-0.70472234
-1.4015808	trái hai	-0.5228787
-1.3402534	tượng hai	-0.30103
-1.3402534	tịnh hai	-0.30103
-1.3402534	bộ hai	-0.30103
-1.3497887	xe hai	-0.30103
-1.3402534	mã hai	-0.30103
-1.3497887	pháo hai	-0.30103
-1.3543795	tốt hai	-0.30103
-1.3232641	giữa hai	-0.66900676
-1.3543795	binh hai	-0.30103
-1.3543795	chốt hai	-0.30103
-1.1091421	tiến hai	-1.146128
-1.1091421	tấn hai	-1.146128
-0.9911385	bình hai	-1.1249387
-1.0742402	thoái hai	-1.146128
-1.0742402	lùi hai	-1.146128
-1.0568507	chiếu hai	-1.2388821
-1.379719	tướng bảy	-0.30103
-1.9156692	phải bảy	-0.30103
-1.2997993	sau bảy	-0.70472234
-1.2997993	trên bảy	-0.70472234
-1.2997993	trước bảy	-0.70472234
-1.2997993	dưới bảy	-0.70472234
-1.9156692	trái bảy	-0.30103
-1.3402534	tượng bảy	-0.30103
-1.3402534	tịnh bảy	-0.30103
-1.3402534	bộ bảy	-0.30103
-1.3497887	xe bảy	-0.30103
-1.3402534	mã bảy	-0.30103
-1.3497887	pháo bảy	-0.30103
-1.3543795	tốt bảy	-0.30103
-1.3232641	giữa bảy	-0.66900676
-1.3543795	binh bảy	-0.30103
-1.3543795	chốt bảy	-0.30103
-1.1091421	tiến bảy	-1.146128
-1.1091421	tấn bảy	-1.146128
-0.9911385	bình bảy	-1.1249387
-1.0742402	thoái bảy	-1.146128
-1.0742402	lùi bảy	-1.146128
-1.0568507	chiếu bảy	-1.2388821
-1.1609123	<s> tịnh	-3.9408543
-1.02289	ăn tịnh	-1.2710668
-1.02289	bắt tịnh	-1.2710668
-1.1609123	<s> bộ	-3.9408543
-1.02289	ăn bộ	-1.2710668
-1.02289	bắt bộ	-1.2710668
-0.7483656	<s> xe	-4.3156114
-1.02289	ăn xe	-1.2710668
-1.02289	bắt xe	-1.2710668
-0.98160696	<s> mã	-4.120159
-1.02289	ăn mã	-1.2710668
-1.02289	bắt mã	-1.2710668
-0.7483656	<s> pháo	-4.3156114
-1.02289	ăn pháo	-1.2710668
-1.02289	bắt pháo	-1.2710668
-1.0377985	<s> tốt	-4.0446625
-1.02289	ăn tốt	-1.2710668
-1.02289	bắt tốt	-1.2710668
-1.7787633	phải giữa	-0.30103
-1.9520295	sau giữa	-0.30103
-1.9520295	trên giữa	-0.30103
-1.9520295	trước giữa	-0.30103
-1.9520295	dưới giữa	-0.30103
-1.7787633	trái giữa	-0.30103
-1.4795921	tốt giữa	-0.30103
-1.4795921	binh giữa	-0.30103
-1.4795921	chốt giữa	-0.30103
-1.0377985	<s> binh	-4.0446625
-1.02289	ăn binh	-1.2710668
-1.02289	bắt binh	-1.2710668
-1.0377985	<s> chốt	-4.0446625
-1.02289	ăn chốt	-1.2710668
-1.02289	bắt chốt	-1.2710668
-2.4569209	<s> soái	-2.945916
-1.3403727	tướng tiến	-0.30103
-0.99403214	bốn tiến	-0.74036264
-1.4467365	sĩ tiến	-0.30103
-1.0594486	phải tiến	-0.60805035
-1.241256	sau tiến	-0.60805035
-1.241256	trên tiến	-0.60805035
-0.99403214	sáu tiến	-0.74036264
-0.99403214	năm tiến	-0.7447275
-1.241256	trước tiến	-0.60805035
-1.241256	dưới tiến	-0.60805035
-1.0594486	trái tiến	-0.60805035
-1.5069696	tượng tiến	-0.30103
-1.012262	chín tiến	-0.6842467
-1.012262	tám tiến	-0.6892102
-1.012262	một tiến	-0.6842467
-1.012262	ba tiến	-0.70851535
-1.012262	hai tiến	-0.6892102
-1.012262	bảy tiến	-0.70851535
-1.5069696	tịnh tiến	-0.30103
-1.5069696	bộ tiến	-0.30103
-1.5116093	xe tiến	-0.30103
-1.5069696	mã tiến	-0.30103
-1.5116093	pháo tiến	-0.30103
-1.5138245	tốt tiến	-0.30103
-1.1950853	giữa tiến	-0.7781512
-1.5138245	binh tiến	-0.30103
-1.5138245	chốt tiến	-0.30103
-1.1718905	soái tiến	-0.30103
-1.3403727	tướng tấn	-0.30103
-0.99403214	bốn tấn	-0.74036264
-1.4467365	sĩ tấn	-0.30103
-1.0594486	phải tấn	-0.60805035
-1.241256	sau tấn	-0.60805035
-1.241256	trên tấn	-0.60805035
-0.99403214	sáu tấn	-0.74036264
-0.99403214	năm tấn	-0.7447275
-1.241256	trước tấn	-0.60805035
-1.241256	dưới tấn	-0.60805035
-1.0594486	trái tấn	-0.60805035
-1.5069696	tượng tấn	-0.30103
-1.012262	chín tấn	-0.6842467
-1.012262	tám tấn	-0.6892102
-1.012262	một tấn	-0.6842467
-1.012262	ba tấn	-0.70851535
-1.012262	hai tấn	-0.6892102
-1.012262	bảy tấn	-0.70851535
-1.5069696	tịnh tấn	-0.30103
-1.5069696	bộ tấn	-0.30103
-1.5116093	xe tấn	-0.30103
-1.5069696	mã tấn	-0.30103
-1.5116093	pháo tấn	-0.30103
-1.5138245	tốt tấn	-0.30103
-1.1950853	giữa tấn	-0.7781512
-1.5138245	binh tấn	-0.30103
-1.5138245	chốt tấn	-0.30103
-1.1718905	soái tấn	-0.30103
-1.379719	tướng bình	-0.30103
-1.1591554	bốn bình	-0.6842467
-1.4015808	phải bình	-0.5228787
-1.572675	sau bình	-0.5228787
-1.572675	trên bình	-0.5228787
-1.1591554	sáu bình	-0.6842467
-1.1591554	năm bình	-0.69897
-1.572675	trước bình	-0.5228787
-1.572675	dưới bình	-0.5228787
-1.4015808	trái bình	-0.5228787
-1.1749346	chín bình	-0.6368221
-1.1749346	tám bình	-0.66900676
-1.1749346	một bình	-0.6368221
-1.1749346	ba bình	-0.66900676
-1.1749346	hai bình	-0.66900676
-1.1749346	bảy bình	-0.66900676
-1.5713314	xe bình	-0.30103
-1.5713314	pháo bình	-0.30103
-1.5738741	tốt bình	-0.30103
-1.2053765	giữa bình	-0.7781512
-1.5738741	binh bình	-0.30103
-1.5738741	chốt bình	-0.30103
-1.1981921	soái bình	-0.30103
-1.3715595	tướng thoái	-0.30103
-1.1207266	bốn thoái	-0.6964812
-1.48699	sĩ thoái	-0.30103
-1.2339698	phải thoái	-0.60859084
-1.4120245	sau thoái	-0.60859084
-1.4120245	trên thoái	-0.60859084
-1.1207266	sáu thoái	-0.6964812
-1.1207266	năm thoái	-0.7014446
-1.4120245	trước thoái	-0.60859084
-1.4120245	dưới thoái	-0.60859084
-1.2339698	trái thoái	-0.60859084
-1.5535438	tượng thoái	-0.30103
-1.1736892	chín thoái	-0.65757734
-1.1736892	tám thoái	-0.66332966
-1.1736892	một thoái	-0.65757734
-1.1736892	ba thoái	-0.68560606
-1.1736892	hai thoái	-0.66332966
-1.1736892	bảy thoái	-0.68560606
-1.5535438	tịnh thoái	-0.30103
-1.5535438	bộ thoái	-0.30103
-1.5587119	xe thoái	-0.30103
-1.5535438	mã thoái	-0.30103
-1.5587119	pháo thoái	-0.30103
-1.1928029	soái thoái	-0.30103
-1.3715595	tướng lùi	-0.30103
-1.1207266	bốn lùi	-0.6964812
-1.48699	sĩ lùi	-0.30103
-1.2339698	phải lùi	-0.60859084
-1.4120245	sau lùi	-0.60859084
-1.4120245	trên lùi	-0.60859084
-1.1207266	sáu lùi	-0.6964812
-1.1207266	năm lùi	-0.7014446
-1.4120245	trước lùi	-0.60859084
-1.4120245	dưới lùi	-0.60859084
-1.2339698	trái lùi	-0.60859084
-1.5535438	tượng lùi	-0.30103
-1.1736892	chín lùi	-0.65757734
-1.1736892	tám lùi	-0.66332966
-1.1736892	một lùi	-0.65757734
-1.1736892	ba lùi	-0.68560606
-1.1736892	hai lùi	-0.66332966
-1.1736892	bảy lùi	-0.68560606
-1.5535438	tịnh lùi	-0.30103
-1.5535438	bộ lùi	-0.30103
-1.5587119	xe lùi	-0.30103
-1.5535438	mã lùi	-0.30103
-1.5587119	pháo lùi	-0.30103
-1.1928029	soái lùi	-0.30103
-1.379719	tướng sang	-0.30103
-1.1591554	bốn sang	-0.7781512
-1.4015808	phải sang	-0.5228787
-1.572675	sau sang	-0.5228787
-1.572675	trên sang	-0.5228787
-1.1591554	sáu sang	-0.7781512
-1.1591554	năm sang	-0.7781512
-1.572675	trước sang	-0.5228787
-1.572675	dưới sang	-0.5228787
-1.4015808	trái sang	-0.5228787
-1.1749346	chín sang	-0.70851535
-1.1749346	tám sang	-0.70851535
-1.1749346	một sang	-0.70851535
-1.1749346	ba sang	-0.70851535
-1.1749346	hai sang	-0.70851535
-1.1749346	bảy sang	-0.70851535
-1.5713314	xe sang	-0.30103
-1.5713314	pháo sang	-0.30103
-1.5738741	tốt sang	-0.30103
-1.2053765	giữa sang	-0.7781512
-1.5738741	binh sang	-0.30103
-1.5738741	chốt sang	-0.30103
-1.1981921	soái sang	-0.30103
-1.9672457	bốn qua	-0.30103
-1.9672457	sáu qua	-0.30103
-1.9672457	năm qua	-0.30103
-1.8966646	chín qua	-0.30103
-1.8966646	tám qua	-0.30103
-1.8966646	một qua	-0.30103
-1.8966646	ba qua	-0.30103
-1.8966646	hai qua	-0.30103
-1.8966646	bảy qua	-0.30103
-0.86442363	sang sông	-0.7781512
-0.07888846	qua sông	-0.7781512
-2.6203399	<s> chấp	-3.8239088
-0.299568	chấp nhận	-0.30103
-0.299568	xác nhận	-0.30103
-2.6203399	<s> xác	-3.8239088
-2.6203399	<s> đồng	-3.8239088
-0.2999106	đồng ý	-0.30103
-2.6203399	<s> ô	-3.8239088
-0.2999106	ô kê	-0.30103
-2.6203399	<s> hủy	-3.8239088
-0.2999106	hủy bỏ	-0.30103
-2.6203399	<s> từ	-3.8239088
-0.2999106	từ chối	-0.30103
-2.6203399	<s> đầu	-3.8239088
-0.2999106	đầu hàng	-0.30103
-2.3192792	<s> xin	-3.8239088
-0.599824	xin hòa	-0.30103
-2.6203399	<s> đổi	-3.8239088
-0.2999106	đổi phe	-0.30103
-0.599824	xin chơi	-0.30103
-0.299568	chơi lại	-0.30103
-0.299568	đi lại	-0.30103
-2.6203399	<s> đi	-3.8239088
-1.0527756	bốn chiếu	-1
-1.466397	sĩ chiếu	-0.30103
-1.0627868	phải chiếu	-0.8239087
-1.2454787	sau chiếu	-0.8239087
-1.2454787	trên chiếu	-0.8239087
-1.0527756	sáu chiếu	-1
-1.0527756	năm chiếu	-1
-1.2454787	trước chiếu	-0.8239087
-1.2454787	dưới chiếu	-0.8239087
-1.0627868	trái chiếu	-0.8239087
-1.5296327	tượng chiếu	-0.30103
-1.0139806	chín chiếu	-0.97003675
-1.0139806	tám chiếu	-0.97003675
-1.0139806	một chiếu	-0.97003675
-1.0139806	ba chiếu	-0.97003675
-1.0139806	hai chiếu	-0.97003675
-1.0139806	bảy chiếu	-0.97003675
-1.5296327	tịnh chiếu	-0.30103
-1.5296327	bộ chiếu	-0.30103
-1.5345223	xe chiếu	-0.30103
-1.5296327	mã chiếu	-0.30103
-1.5345223	pháo chiếu	-0.30103
-1.5368578	tốt chiếu	-0.30103
-1.1991726	giữa chiếu	-0.7781512
-1.5368578	binh chiếu	-0.30103
-1.5368578	chốt chiếu	-0.30103

\3-grams:
-1.0109751	chiếu tướng </s>	0
-0.8885205	tướng bốn </s>	0
-0.7332507	sĩ bốn </s>	0
-0.24130833	phải bốn </s>	0
-0.89443827	sau bốn </s>	0
-0.89443827	trên bốn </s>	0
-0.89443827	trước bốn </s>	0
-0.89443827	dưới bốn </s>	0
-0.24130833	trái bốn </s>	0
-0.7332507	tượng bốn </s>	0
-0.7332507	tịnh bốn </s>	0
-0.7332507	bộ bốn </s>	0
-0.78352237	xe bốn </s>	0
-0.7332507	mã bốn </s>	0
-0.78352237	pháo bốn </s>	0
-0.7601776	tốt bốn </s>	0
-0.8867124	giữa bốn </s>	0
-0.7601776	binh bốn </s>	0
-0.7601776	chốt bốn </s>	0
-0.026009297	tiến bốn </s>	0
-0.026009297	tấn bốn </s>	0
-0.026009297	bình bốn </s>	0
-0.026009297	thoái bốn </s>	0
-0.026009297	lùi bốn </s>	0
-0.021905081	chiếu bốn </s>	0
-1.0092378	ăn sĩ </s>	0
-1.0092378	bắt sĩ </s>	0
-0.7447576	sĩ phải </s>	0
-0.7447576	tượng phải </s>	0
-0.7447576	tịnh phải </s>	0
-0.7447576	bộ phải </s>	0
-0.7964626	xe phải </s>	0
-0.7447576	mã phải </s>	0
-0.7964626	pháo phải </s>	0
-0.8175575	tốt phải </s>	0
-0.8175575	binh phải </s>	0
-0.8175575	chốt phải </s>	0
-0.44941467	tiến phải </s>	0
-0.44941467	tấn phải </s>	0
-0.44941467	thoái phải </s>	0
-0.44941467	lùi phải </s>	0
-0.90677375	sang phải </s>	0
-1.0645552	sĩ sau </s>	0
-1.2335141	tượng sau </s>	0
-1.2335141	tịnh sau </s>	0
-1.2335141	bộ sau </s>	0
-1.2445227	xe sau </s>	0
-1.2335141	mã sau </s>	0
-1.2445227	pháo sau </s>	0
-1.2496994	tốt sau </s>	0
-1.2496994	binh sau </s>	0
-1.2496994	chốt sau </s>	0
-1.0645552	sĩ trên </s>	0
-1.2335141	tượng trên </s>	0
-1.2335141	tịnh trên </s>	0
-1.2335141	bộ trên </s>	0
-1.2445227	xe trên </s>	0
-1.2335141	mã trên </s>	0
-1.2445227	pháo trên </s>	0
-1.2496994	tốt trên </s>	0
-1.2496994	binh trên </s>	0
-1.2496994	chốt trên </s>	0
-0.8885205	tướng sáu </s>	0
-0.7332507	sĩ sáu </s>	0
-0.24130833	phải sáu </s>	0
-0.89443827	sau sáu </s>	0
-0.89443827	trên sáu </s>	0
-0.89443827	trước sáu </s>	0
-0.89443827	dưới sáu </s>	0
-0.24130833	trái sáu </s>	0
-0.7332507	tượng sáu </s>	0
-0.7332507	tịnh sáu </s>	0
-0.7332507	bộ sáu </s>	0
-0.78352237	xe sáu </s>	0
-0.7332507	mã sáu </s>	0
-0.78352237	pháo sáu </s>	0
-0.7601776	tốt sáu </s>	0
-0.8867124	giữa sáu </s>	0
-0.7601776	binh sáu </s>	0
-0.7601776	chốt sáu </s>	0
-0.026009297	tiến sáu </s>	0
-0.026009297	tấn sáu </s>	0
-0.026009297	bình sáu </s>	0
-0.026009297	thoái sáu </s>	0
-0.026009297	lùi sáu </s>	0
-0.021905081	chiếu sáu </s>	0
-0.8885205	tướng năm </s>	0
-0.7332507	sĩ năm </s>	0
-0.24130833	phải năm </s>	0
-0.87324905	sau năm </s>	0
-0.87324905	trên năm </s>	0
-0.87324905	trước năm </s>	0
-0.87324905	dưới năm </s>	0
-0.24130833	trái năm </s>	0
-0.7332507	tượng năm </s>	0
-0.7332507	tịnh năm </s>	0
-0.7332507	bộ năm </s>	0
-0.78352237	xe năm </s>	0
-0.7332507	mã năm </s>	0
-0.78352237	pháo năm </s>	0
-0.7601776	tốt năm </s>	0
-0.8867124	giữa năm </s>	0
-0.7601776	binh năm </s>	0
-0.7601776	chốt năm </s>	0
-0.026009297	tiến năm </s>	0
-0.026009297	tấn năm </s>	0
-0.026009297	bình năm </s>	0
-0.026009297	thoái năm </s>	0
-0.026009297	lùi năm </s>	0
-0.021905081	chiếu năm </s>	0
-1.0645552	sĩ trước </s>	0
-1.2335141	tượng trước </s>	0
-1.2335141	tịnh trước </s>	0
-1.2335141	bộ trước </s>	0
-1.2445227	xe trước </s>	0
-1.2335141	mã trước </s>	0
-1.2445227	pháo trước </s>	0
-1.2496994	tốt trước </s>	0
-1.2496994	binh trước </s>	0
-1.2496994	chốt trước </s>	0
-1.0645552	sĩ dưới </s>	0
-1.2335141	tượng dưới </s>	0
-1.2335141	tịnh dưới </s>	0
-1.2335141	bộ dưới </s>	0
-1.2445227	xe dưới </s>	0
-1.2335141	mã dưới </s>	0
-1.2445227	pháo dưới </s>	0
-1.2496994	tốt dưới </s>	0
-1.2496994	binh dưới </s>	0
-1.2496994	chốt dưới </s>	0
-0.7447576	sĩ trái </s>	0
-0.7447576	tượng trái </s>	0
-0.7447576	tịnh trái </s>	0
-0.7447576	bộ trái </s>	0
-0.7964626	xe trái </s>	0
-0.7447576	mã trái </s>	0
-0.7964626	pháo trái </s>	0
-0.8175575	tốt trái </s>	0
-0.8175575	binh trái </s>	0
-0.8175575	chốt trái </s>	0
-0.44941467	tiến trái </s>	0
-0.44941467	tấn trái </s>	0
-0.44941467	thoái trái </s>	0
-0.44941467	lùi trái </s>	0
-0.90677375	sang trái </s>	0
-1.2082512	ăn tượng </s>	0
-1.2082512	bắt tượng </s>	0
-0.23430161	tướng chín </s>	0
-0.23430161	phải chín </s>	0
-0.8811959	sau chín </s>	0
-0.8811959	trên chín </s>	0
-0.8811959	trước chín </s>	0
-0.8811959	dưới chín </s>	0
-0.23430161	trái chín </s>	0
-0.71186006	tượng chín </s>	0
-0.71186006	tịnh chín </s>	0
-0.71186006	bộ chín </s>	0
-0.75957775	xe chín </s>	0
-0.71186006	mã chín </s>	0
-0.75957775	pháo chín </s>	0
-0.73745394	tốt chín </s>	0
-0.87353456	giữa chín </s>	0
-0.73745394	binh chín </s>	0
-0.73745394	chốt chín </s>	0
-0.02667155	tiến chín </s>	0
-0.02667155	tấn chín </s>	0
-0.0280491	bình chín </s>	0
-0.02667155	thoái chín </s>	0
-0.02667155	lùi chín </s>	0
-0.021413567	chiếu chín </s>	0
-0.23430161	tướng tám </s>	0
-0.23430161	phải tám </s>	0
-0.8811959	sau tám </s>	0
-0.8811959	trên tám </s>	0
-0.8811959	trước tám </s>	0
-0.8811959	dưới tám </s>	0
-0.23430161	trái tám </s>	0
-0.71186006	tượng tám </s>	0
-0.71186006	tịnh tám </s>	0
-0.71186006	bộ tám </s>	0
-0.75957775	xe tám </s>	0
-0.71186006	mã tám </s>	0
-0.75957775	pháo tám </s>	0
-0.73745394	tốt tám </s>	0
-0.87353456	giữa tám </s>	0
-0.73745394	binh tám </s>	0
-0.73745394	chốt tám </s>	0
-0.02667155	tiến tám </s>	0
-0.02667155	tấn tám </s>	0
-0.0280491	bình tám </s>	0
-0.02667155	thoái tám </s>	0
-0.02667155	lùi tám </s>	0
-0.021413567	chiếu tám </s>	0
-0.23430161	tướng một </s>	0
-0.12504067	phải một </s>	0
-0.8811959	sau một </s>	0
-0.8811959	trên một </s>	0
-0.8811959	trước một </s>	0
-0.8811959	dưới một </s>	0
-0.12504067	trái một </s>	0
-0.71186006	tượng một </s>	0
-0.71186006	tịnh một </s>	0
-0.71186006	bộ một </s>	0
-0.75957775	xe một </s>	0
-0.71186006	mã một </s>	0
-0.75957775	pháo một </s>	0
-0.73745394	tốt một </s>	0
-0.87353456	giữa một </s>	0
-0.73745394	binh một </s>	0
-0.73745394	chốt một </s>	0
-0.020601379	tiến một </s>	0
-0.020601379	tấn một </s>	0
-0.0280491	bình một </s>	0
-0.024286143	thoái một </s>	0
-0.024286143	lùi một </s>	0
-0.021413567	chiếu một </s>	0
-0.23430161	tướng ba </s>	0
-0.23430161	phải ba </s>	0
-0.8811959	sau ba </s>	0
-0.8811959	trên ba </s>	0
-0.8811959	trước ba </s>	0
-0.8811959	dưới ba </s>	0
-0.23430161	trái ba </s>	0
-0.71186006	tượng ba </s>	0
-0.71186006	tịnh ba </s>	0
-0.71186006	bộ ba </s>	0
-0.75957775	xe ba </s>	0
-0.71186006	mã ba </s>	0
-0.75957775	pháo ba </s>	0
-0.73745394	tốt ba </s>	0
-0.87353456	giữa ba </s>	0
-0.73745394	binh ba </s>	0
-0.73745394	chốt ba </s>	0
-0.02667155	tiến ba </s>	0
-0.02667155	tấn ba </s>	0
-0.0280491	bình ba </s>	0
-0.02667155	thoái ba </s>	0
-0.02667155	lùi ba </s>	0
-0.021413567	chiếu ba </s>	0
-0.23430161	tướng hai </s>	0
-0.12504067	phải hai </s>	0
-0.8811959	sau hai </s>	0
-0.8811959	trên hai </s>	0
-0.8811959	trước hai </s>	0
-0.8811959	dưới hai </s>	0
-0.12504067	trái hai </s>	0
-0.71186006	tượng hai </s>	0
-0.71186006	tịnh hai </s>	0
-0.71186006	bộ hai </s>	0
-0.75957775	xe hai </s>	0
-0.71186006	mã hai </s>	0
-0.75957775	pháo hai </s>	0
-0.73745394	tốt hai </s>	0
-0.87353456	giữa hai </s>	0
-0.73745394	binh hai </s>	0
-0.73745394	chốt hai </s>	0
-0.02667155	tiến hai </s>	0
-0.02667155	tấn hai </s>	0
-0.0280491	bình hai </s>	0
-0.02667155	thoái hai </s>	0
-0.02667155	lùi hai </s>	0
-0.021413567	chiếu hai </s>	0
-0.23430161	tướng bảy </s>	0
-0.23430161	phải bảy </s>	0
-0.8811959	sau bảy </s>	0
-0.8811959	trên bảy </s>	0
-0.8811959	trước bảy </s>	0
-0.8811959	dưới bảy </s>	0
-0.23430161	trái bảy </s>	0
-0.71186006	tượng bảy </s>	0
-0.71186006	tịnh bảy </s>	0
-0.71186006	bộ bảy </s>	0
-0.75957775	xe bảy </s>	0
-0.71186006	mã bảy </s>	0
-0.75957775	pháo bảy </s>	0
-0.73745394	tốt bảy </s>	0
-0.87353456	giữa bảy </s>	0
-0.73745394	binh bảy </s>	0
-0.73745394	chốt bảy </s>	0
-0.02667155	tiến bảy </s>	0
-0.02667155	tấn bảy </s>	0
-0.0280491	bình bảy </s>	0
-0.02667155	thoái bảy </s>	0
-0.02667155	lùi bảy </s>	0
-0.021413567	chiếu bảy </s>	0
-1.2082512	ăn tịnh </s>	0
-1.2082512	bắt tịnh </s>	0
-1.2082512	ăn bộ </s>	0
-1.2082512	bắt bộ </s>	0
-1.2084999	ăn xe </s>	0
-1.2084999	bắt xe </s>	0
-1.2082512	ăn mã </s>	0
-1.2082512	bắt mã </s>	0
-1.2084999	ăn pháo </s>	0
-1.2084999	bắt pháo </s>	0
-1.2337615	ăn tốt </s>	0
-1.2337615	bắt tốt </s>	0
-1.0154771	phải giữa </s>	0
-1.1978369	sau giữa </s>	0
-1.1978369	trên giữa </s>	0
-1.1978369	trước giữa </s>	0
-1.1978369	dưới giữa </s>	0
-1.0154771	trái giữa </s>	0
-1.2091745	tốt giữa </s>	0
-1.2091745	binh giữa </s>	0
-1.2091745	chốt giữa </s>	0
-1.2337615	ăn binh </s>	0
-1.2337615	bắt binh </s>	0
-1.2337615	ăn chốt </s>	0
-1.2337615	bắt chốt </s>	0
-0.5377012	tướng tiến </s>	0
-0.998353	bốn tiến </s>	0
-1.3953278	phải tiến </s>	0
-1.3953278	sau tiến </s>	0
-1.3953278	trên tiến </s>	0
-0.998353	sáu tiến </s>	0
-1.0027177	năm tiến </s>	0
-1.3953278	trước tiến </s>	0
-1.3953278	dưới tiến </s>	0
-1.3953278	trái tiến </s>	0
-1.0398291	chín tiến </s>	0
-1.0447927	tám tiến </s>	0
-1.0398291	một tiến </s>	0
-1.0640978	ba tiến </s>	0
-1.0447927	hai tiến </s>	0
-1.0640978	bảy tiến </s>	0
-0.5377012	tốt tiến </s>	0
-0.36655384	giữa tiến </s>	0
-0.5377012	binh tiến </s>	0
-0.5377012	chốt tiến </s>	0
-0.5377012	soái tiến </s>	0
-0.5377012	tướng tấn </s>	0
-0.998353	bốn tấn </s>	0
-1.3953278	phải tấn </s>	0
-1.3953278	sau tấn </s>	0
-1.3953278	trên tấn </s>	0
-0.998353	sáu tấn </s>	0
-1.0027177	năm tấn </s>	0
-1.3953278	trước tấn </s>	0
-1.3953278	dưới tấn </s>	0
-1.3953278	trái tấn </s>	0
-1.0398291	chín tấn </s>	0
-1.0447927	tám tấn </s>	0
-1.0398291	một tấn </s>	0
-1.0640978	ba tấn </s>	0
-1.0447927	hai tấn </s>	0
-1.0640978	bảy tấn </s>	0
-0.5377012	tốt tấn </s>	0
-0.36655384	giữa tấn </s>	0
-0.5377012	binh tấn </s>	0
-0.5377012	chốt tấn </s>	0
-0.5377012	soái tấn </s>	0
-0.58535635	tướng thoái </s>	0
-1.8114126	bốn thoái </s>	0
-1.8114126	sáu thoái </s>	0
-1.816376	năm thoái </s>	0
-0.58535635	soái thoái </s>	0
-0.58535635	tướng lùi </s>	0
-1.8114126	bốn lùi </s>	0
-1.8114126	sáu lùi </s>	0
-1.816376	năm lùi </s>	0
-0.58535635	soái lùi </s>	0
-0.035195615	sang sông </s>	0
-0.035195615	qua sông </s>	0
-0.11550595	chấp nhận </s>	0
-0.11550595	xác nhận </s>	0
-0.11550595	đồng ý </s>	0
-0.11550595	ô kê </s>	0
-0.11550595	hủy bỏ </s>	0
-0.11550595	từ chối </s>	0
-0.11550595	đầu hàng </s>	0
-0.11550595	xin hòa </s>	0
-0.11550595	đổi phe </s>	0
-0.11550595	chơi lại </s>	0
-0.11550595	đi lại </s>	0
-1.0420833	bốn chiếu </s>	0
-1.0448567	sĩ chiếu </s>	0
-1.042429	phải chiếu </s>	0
-1.042429	sau chiếu </s>	0
-1.042429	trên chiếu </s>	0
-1.0420833	sáu chiếu </s>	0
-1.0420833	năm chiếu </s>	0
-1.042429	trước chiếu </s>	0
-1.042429	dưới chiếu </s>	0
-1.042429	trái chiếu </s>	0
-1.0448567	tượng chiếu </s>	0
-1.0421326	chín chiếu </s>	0
-1.0421326	tám chiếu </s>	0
-1.0421326	một chiếu </s>	0
-1.0421326	ba chiếu </s>	0
-1.0421326	hai chiếu </s>	0
-1.0421326	bảy chiếu </s>	0
-1.0448567	tịnh chiếu </s>	0
-1.0448567	bộ chiếu </s>	0
-1.0448567	xe chiếu </s>	0
-1.0448567	mã chiếu </s>	0
-1.0448567	pháo chiếu </s>	0
-1.0448567	tốt chiếu </s>	0
-1.0425442	giữa chiếu </s>	0
-1.0448567	binh chiếu </s>	0
-1.0448567	chốt chiếu </s>	0
-1.043812	bốn chiếu tướng	-3.1139433
-1.0536264	sĩ chiếu tướng	-1.30103
-1.0450268	phải chiếu tướng	-2.30103
-1.0450268	sau chiếu tướng	-2.30103
-1.0450268	trên chiếu tướng	-2.30103
-1.043812	sáu chiếu tướng	-3.1139433
-1.043812	năm chiếu tướng	-3.1139433
-1.0450268	trước chiếu tướng	-2.30103
-1.0450268	dưới chiếu tướng	-2.30103
-1.0450268	trái chiếu tướng	-2.30103
-1.0536264	tượng chiếu tướng	-1.30103
-1.0439854	chín chiếu tướng	-3.0791812
-1.0439854	tám chiếu tướng	-3.0791812
-1.0439854	một chiếu tướng	-3.0791812
-1.0439854	ba chiếu tướng	-3.0791812
-1.0439854	hai chiếu tướng	-3.0791812
-1.0439854	bảy chiếu tướng	-3.0791812
-1.0536264	tịnh chiếu tướng	-1.30103
-1.0536264	bộ chiếu tướng	-1.30103
-1.0536264	xe chiếu tướng	-1.30103
-1.0536264	mã chiếu tướng	-1.30103
-1.0536264	pháo chiếu tướng	-1.30103
-1.0536264	tốt chiếu tướng	-1.30103
-1.0454324	giữa chiếu tướng	-2.6232493
-1.0536264	binh chiếu tướng	-1.30103
-1.0536264	chốt chiếu tướng	-1.30103
-0.62037456	<s> tướng bốn	-2.463893
-1.008321	chiếu tướng bốn	-4.1112623
-1.3533266	<s> sĩ bốn	-2.6114705
-1.0091333	ăn sĩ bốn	-2.6394866
-1.0091333	bắt sĩ bốn	-2.6394866
-1.0448664	sang phải bốn	-4.141972
-0.952313	sĩ sau bốn	-2.6690068
-1.1552794	tượng sau bốn	-2.7269988
-1.1552794	tịnh sau bốn	-2.7269988
-1.1552794	bộ sau bốn	-2.7269988
-1.1691151	xe sau bốn	-3.0170333
-1.1552794	mã sau bốn	-2.90309
-1.1691151	pháo sau bốn	-3.0170333
-1.1756525	tốt sau bốn	-2.60206
-1.1756525	binh sau bốn	-2.60206
-1.1756525	chốt sau bốn	-2.60206
-0.952313	sĩ trên bốn	-2.6690068
-1.1552794	tượng trên bốn	-2.7269988
-1.1552794	tịnh trên bốn	-2.7269988
-1.1552794	bộ trên bốn	-2.7269988
-1.1691151	xe trên bốn	-3.0170333
-1.1552794	mã trên bốn	-2.90309
-1.1691151	pháo trên bốn	-3.0170333
-1.1756525	tốt trên bốn	-2.60206
-1.1756525	binh trên bốn	-2.60206
-1.1756525	chốt trên bốn	-2.60206
-0.952313	sĩ trước bốn	-2.6690068
-1.1552794	tượng trước bốn	-2.7269988
-1.1552794	tịnh trước bốn	-2.7269988
-1.1552794	bộ trước bốn	-2.7269988
-1.1691151	xe trước bốn	-3.0170333
-1.1552794	mã trước bốn	-2.90309
-1.1691151	pháo trước bốn	-3.0170333
-1.1756525	tốt trước bốn	-2.60206
-1.1756525	binh trước bốn	-2.60206
-1.1756525	chốt trước bốn	-2.60206
-0.952313	sĩ dưới bốn	-2.6690068
-1.1552794	tượng dưới bốn	-2.7269988
-1.1552794	tịnh dưới bốn	-2.7269988
-1.1552794	bộ dưới bốn	-2.7269988
-1.1691151	xe dưới bốn	-3.0170333
-1.1552794	mã dưới bốn	-2.90309
-1.1691151	pháo dưới bốn	-3.0170333
-1.1756525	tốt dưới bốn	-2.60206
-1.1756525	binh dưới bốn	-2.60206
-1.1756525	chốt dưới bốn	-2.60206
-1.0448664	sang trái bốn	-4.141972
-1.7524748	<s> tượng bốn	-2.685699
-1.2098289	ăn tượng bốn	-2.6394866
-1.2098289	bắt tượng bốn	-2.6394866
-1.7524748	<s> tịnh bốn	-2.685699
-1.2098289	ăn tịnh bốn	-2.6394866
-1.2098289	bắt tịnh bốn	-2.6394866
-1.7524748	<s> bộ bốn	-2.685699
-1.2098289	ăn bộ bốn	-2.6394866
-1.2098289	bắt bộ bốn	-2.6394866
-1.7168157	<s> xe bốn	-3.0247593
-1.2102032	ăn xe bốn	-2.6394866
-1.2102032	bắt xe bốn	-2.6394866
-1.7200105	<s> mã bốn	-2.89747
-1.2098289	ăn mã bốn	-2.6394866
-1.2098289	bắt mã bốn	-2.6394866
-1.7168157	<s> pháo bốn	-3.0247593
-1.2102032	ăn pháo bốn	-2.6394866
-1.2102032	bắt pháo bốn	-2.6394866
-1.9922998	<s> tốt bốn	-2.5109916
-1.2356298	ăn tốt bốn	-2.6394866
-1.2356298	bắt tốt bốn	-2.6394866
-1.271947	sau giữa bốn	-3.0791812
-1.271947	trên giữa bốn	-3.0791812
-1.271947	trước giữa bốn	-3.0791812
-1.271947	dưới giữa bốn	-3.0791812
-1.1823167	tốt giữa bốn	-2.60206
-1.1823167	binh giữa bốn	-2.60206
-1.1823167	chốt giữa bốn	-2.60206
-1.9922998	<s> binh bốn	-2.5109916
-1.2356298	ăn binh bốn	-2.6394866
-1.2356298	bắt binh bốn	-2.6394866
-1.9922998	<s> chốt bốn	-2.5109916
-1.2356298	ăn chốt bốn	-2.6394866
-1.2356298	bắt chốt bốn	-2.6394866
-0.620379	<s> soái bốn	-2.463893
-1.2194089	bốn tiến bốn	-3.1249387
-0.85099787	sĩ tiến bốn	-2.1249387
-1.0198742	phải tiến bốn	-2.9700367
-1.0198742	sau tiến bốn	-2.9700367
-1.0198742	trên tiến bốn	-2.9700367
-0.99678916	sáu tiến bốn	-3.60206
-1.0983529	năm tiến bốn	-3.3290586
-1.0198742	trước tiến bốn	-2.9700367
-1.0198742	dưới tiến bốn	-2.9700367
-1.0198742	trái tiến bốn	-2.9700367
-1.0635661	tượng tiến bốn	-2.1249387
-1.163293	chín tiến bốn	-3.1249387
-1.1682564	tám tiến bốn	-3.1249387
-1.163293	một tiến bốn	-3.1249387
-1.1203393	ba tiến bốn	-3.30103
-0.94563663	hai tiến bốn	-3.60206
-1.1875615	bảy tiến bốn	-3.1249387
-1.0635661	tịnh tiến bốn	-2.1249387
-1.0635661	bộ tiến bốn	-2.1249387
-1.0155396	xe tiến bốn	-2.1249387
-1.0635661	mã tiến bốn	-2.1249387
-1.0155396	pháo tiến bốn	-2.1249387
-1.2194089	bốn tấn bốn	-3.1249387
-0.85099787	sĩ tấn bốn	-2.1249387
-1.0198742	phải tấn bốn	-2.9700367
-1.0198742	sau tấn bốn	-2.9700367
-1.0198742	trên tấn bốn	-2.9700367
-0.99678916	sáu tấn bốn	-3.60206
-1.0983529	năm tấn bốn	-3.3290586
-1.0198742	trước tấn bốn	-2.9700367
-1.0198742	dưới tấn bốn	-2.9700367
-1.0198742	trái tấn bốn	-2.9700367
-1.0635661	tượng tấn bốn	-2.1249387
-1.163293	chín tấn bốn	-3.1249387
-1.1682564	tám tấn bốn	-3.1249387
-1.163293	một tấn bốn	-3.1249387
-1.1203393	ba tấn bốn	-3.30103
-0.94563663	hai tấn bốn	-3.60206
-1.1875615	bảy tấn bốn	-3.1249387
-1.0635661	tịnh tấn bốn	-2.1249387
-1.0635661	bộ tấn bốn	-2.1249387
-1.0155396	xe tấn bốn	-2.1249387
-1.0635661	mã tấn bốn	-2.1249387
-1.0155396	pháo tấn bốn	-2.1249387
-0.6513281	tướng bình bốn	-2.1249387
-0.9519822	phải bình bốn	-2.8239088
-0.9519822	sau bình bốn	-2.8239088
-0.9519822	trên bình bốn	-2.8239088
-0.995788	sáu bình bốn	-3.1249387
-0.70419383	năm bình bốn	-3.748188
-0.9519822	trước bình bốn	-2.8239088
-0.9519822	dưới bình bốn	-2.8239088
-0.9519822	trái bình bốn	-2.8239088
-0.9483633	chín bình bốn	-3.1249387
-0.980548	tám bình bốn	-3.1249387
-0.9483633	một bình bốn	-3.1249387
-0.75446415	ba bình bốn	-3.7269988
-0.980548	hai bình bốn	-3.1249387
-0.980548	bảy bình bốn	-3.1249387
-0.95048183	xe bình bốn	-2.1249387
-0.95048183	pháo bình bốn	-2.1249387
-0.95048183	tốt bình bốn	-2.1249387
-0.95298535	giữa bình bốn	-3.447158
-0.95048183	binh bình bốn	-2.1249387
-0.95048183	chốt bình bốn	-2.1249387
-0.6513281	soái bình bốn	-2.1249387
-1.1575907	bốn thoái bốn	-3.1249387
-0.84056926	sĩ thoái bốn	-2.1249387
-0.9832345	phải thoái bốn	-2.9700367
-0.9832345	sau thoái bốn	-2.9700367
-0.9832345	trên thoái bốn	-2.9700367
-0.93724895	sáu thoái bốn	-3.60206
-1.0385567	năm thoái bốn	-3.3290586
-0.9832345	trước thoái bốn	-2.9700367
-0.9832345	dưới thoái bốn	-2.9700367
-0.9832345	trái thoái bốn	-2.9700367
-1.0466793	tượng thoái bốn	-2.1249387
-1.0995452	chín thoái bốn	-3.1249387
-1.1052976	tám thoái bốn	-3.1249387
-1.0995452	một thoái bốn	-3.1249387
-1.0602497	ba thoái bốn	-3.30103
-0.8823928	hai thoái bốn	-3.60206
-1.127574	bảy thoái bốn	-3.1249387
-1.0466793	tịnh thoái bốn	-2.1249387
-1.0466793	bộ thoái bốn	-2.1249387
-1.0003902	xe thoái bốn	-2.1249387
-1.0466793	mã thoái bốn	-2.1249387
-1.0003902	pháo thoái bốn	-2.1249387
-1.1575907	bốn lùi bốn	-3.1249387
-0.84056926	sĩ lùi bốn	-2.1249387
-0.9832345	phải lùi bốn	-2.9700367
-0.9832345	sau lùi bốn	-2.9700367
-0.9832345	trên lùi bốn	-2.9700367
-0.93724895	sáu lùi bốn	-3.60206
-1.0385567	năm lùi bốn	-3.3290586
-0.9832345	trước lùi bốn	-2.9700367
-0.9832345	dưới lùi bốn	-2.9700367
-0.9832345	trái lùi bốn	-2.9700367
-1.0466793	tượng lùi bốn	-2.1249387
-1.0995452	chín lùi bốn	-3.1249387
-1.1052976	tám lùi bốn	-3.1249387
-1.0995452	một lùi bốn	-3.1249387
-1.0602497	ba lùi bốn	-3.30103
-0.8823928	hai lùi bốn	-3.60206
-1.127574	bảy lùi bốn	-3.1249387
-1.0466793	tịnh lùi bốn	-2.1249387
-1.0466793	bộ lùi bốn	-2.1249387
-1.0003902	xe lùi bốn	-2.1249387
-1.0466793	mã lùi bốn	-2.1249387
-1.0003902	pháo lùi bốn	-2.1249387
-1.0428264	bốn chiếu bốn	-3.1139433
-1.0486093	sĩ chiếu bốn	-1.30103
-1.0435451	phải chiếu bốn	-2.30103
-1.0435451	sau chiếu bốn	-2.30103
-1.0435451	trên chiếu bốn	-2.30103
-1.0428264	sáu chiếu bốn	-3.1139433
-1.0428264	năm chiếu bốn	-3.1139433
-1.0435451	trước chiếu bốn	-2.30103
-1.0435451	dưới chiếu bốn	-2.30103
-1.0435451	trái chiếu bốn	-2.30103
-1.0486093	tượng chiếu bốn	-1.30103
-1.042929	chín chiếu bốn	-3.0791812
-1.042929	tám chiếu bốn	-3.0791812
-1.042929	một chiếu bốn	-3.0791812
-1.042929	ba chiếu bốn	-3.0791812
-1.042929	hai chiếu bốn	-3.0791812
-1.042929	bảy chiếu bốn	-3.0791812
-1.0486093	tịnh chiếu bốn	-1.30103
-1.0486093	bộ chiếu bốn	-1.30103
-1.0486093	xe chiếu bốn	-1.30103
-1.0486093	mã chiếu bốn	-1.30103
-1.0486093	pháo chiếu bốn	-1.30103
-1.0486093	tốt chiếu bốn	-1.30103
-1.043785	giữa chiếu bốn	-2.6232493
-1.0486093	binh chiếu bốn	-1.30103
-1.0486093	chốt chiếu bốn	-1.30103
-1.3536695	<s> tướng ăn	-1.6341412
-0.97368175	tướng bốn ăn	-1.6341412
-0.97368175	sĩ bốn ăn	-1.6341412
-0.9233788	sau bốn ăn	-2.6341412
-0.9233788	trên bốn ăn	-2.6341412
-0.9233788	trước bốn ăn	-2.6341412
-0.9233788	dưới bốn ăn	-2.6341412
-0.97368175	tượng bốn ăn	-1.6341412
-0.97368175	tịnh bốn ăn	-1.6341412
-0.97368175	bộ bốn ăn	-1.6341412
-1.0170671	xe bốn ăn	-1.6341412
-0.97368175	mã bốn ăn	-1.6341412
-1.0170671	pháo bốn ăn	-1.6341412
-0.9970058	tốt bốn ăn	-1.6341412
-0.9210383	giữa bốn ăn	-2.8102326
-0.9970058	binh bốn ăn	-1.6341412
-0.9970058	chốt bốn ăn	-1.6341412
-0.94618493	soái bốn ăn	-1.6341412
-2.1761823	<s> sĩ ăn	-1.6341412
-1.0036676	sĩ phải ăn	-1.6341412
-1.0036676	tượng phải ăn	-1.6341412
-1.0036676	tịnh phải ăn	-1.6341412
-1.0036676	bộ phải ăn	-1.6341412
-1.0503268	xe phải ăn	-1.6341412
-1.0036676	mã phải ăn	-1.6341412
-1.0503268	pháo phải ăn	-1.6341412
-1.0692029	tốt phải ăn	-1.6341412
-1.0692029	binh phải ăn	-1.6341412
-1.0692029	chốt phải ăn	-1.6341412
-1.2482077	sĩ sau ăn	-1.6341412
-1.3708168	tượng sau ăn	-1.6341412
-1.3708168	tịnh sau ăn	-1.6341412
-1.3708168	bộ sau ăn	-1.6341412
-1.3783377	xe sau ăn	-1.6341412
-1.3708168	mã sau ăn	-1.6341412
-1.3783377	pháo sau ăn	-1.6341412
-1.3818533	tốt sau ăn	-1.6341412
-1.3818533	binh sau ăn	-1.6341412
-1.3818533	chốt sau ăn	-1.6341412
-1.2482077	sĩ trên ăn	-1.6341412
-1.3708168	tượng trên ăn	-1.6341412
-1.3708168	tịnh trên ăn	-1.6341412
-1.3708168	bộ trên ăn	-1.6341412
-1.3783377	xe trên ăn	-1.6341412
-1.3708168	mã trên ăn	-1.6341412
-1.3783377	pháo trên ăn	-1.6341412
-1.3818533	tốt trên ăn	-1.6341412
-1.3818533	binh trên ăn	-1.6341412
-1.3818533	chốt trên ăn	-1.6341412
-0.97368175	tướng sáu ăn	-1.6341412
-0.97368175	sĩ sáu ăn	-1.6341412
-0.9233788	sau sáu ăn	-2.6341412
-0.9233788	trên sáu ăn	-2.6341412
-0.9233788	trước sáu ăn	-2.6341412
-0.9233788	dưới sáu ăn	-2.6341412
-0.97368175	tượng sáu ăn	-1.6341412
-0.97368175	tịnh sáu ăn	-1.6341412
-0.97368175	bộ sáu ăn	-1.6341412
-1.0170671	xe sáu ăn	-1.6341412
-0.97368175	mã sáu ăn	-1.6341412
-1.0170671	pháo sáu ăn	-1.6341412
-0.9970058	tốt sáu ăn	-1.6341412
-0.9210383	giữa sáu ăn	-2.8102326
-0.9970058	binh sáu ăn	-1.6341412
-0.9970058	chốt sáu ăn	-1.6341412
-0.94618493	soái sáu ăn	-1.6341412
-0.97368175	tướng năm ăn	-1.6341412
-0.97368175	sĩ năm ăn	-1.6341412
-0.9021896	sau năm ăn	-2.6341412
-0.9021896	trên năm ăn	-2.6341412
-0.9021896	trước năm ăn	-2.6341412
-0.9021896	dưới năm ăn	-2.6341412
-0.97368175	tượng năm ăn	-1.6341412
-0.97368175	tịnh năm ăn	-1.6341412
-0.97368175	bộ năm ăn	-1.6341412
-1.0170671	xe năm ăn	-1.6341412
-0.97368175	mã năm ăn	-1.6341412
-1.0170671	pháo năm ăn	-1.6341412
-0.9970058	tốt năm ăn	-1.6341412
-0.9210383	giữa năm ăn	-2.8102326
-0.9970058	binh năm ăn	-1.6341412
-0.9970058	chốt năm ăn	-1.6341412
-0.94618493	soái năm ăn	-1.6341412
-1.2482077	sĩ trước ăn	-1.6341412
-1.3708168	tượng trước ăn	-1.6341412
-1.3708168	tịnh trước ăn	-1.6341412
-1.3708168	bộ trước ăn	-1.6341412
-1.3783377	xe trước ăn	-1.6341412
-1.3708168	mã trước ăn	-1.6341412
-1.3783377	pháo trước ăn	-1.6341412
-1.3818533	tốt trước ăn	-1.6341412
-1.3818533	binh trước ăn	-1.6341412
-1.3818533	chốt trước ăn	-1.6341412
-1.2482077	sĩ dưới ăn	-1.6341412
-1.3708168	tượng dưới ăn	-1.6341412
-1.3708168	tịnh dưới ăn	-1.6341412
-1.3708168	bộ dưới ăn	-1.6341412
-1.3783377	xe dưới ăn	-1.6341412
-1.3708168	mã dưới ăn	-1.6341412
-1.3783377	pháo dưới ăn	-1.6341412
-1.3818533	tốt dưới ăn	-1.6341412
-1.3818533	binh dưới ăn	-1.6341412
-1.3818533	chốt dưới ăn	-1.6341412
-1.0036676	sĩ trái ăn	-1.6341412
-1.0036676	tượng trái ăn	-1.6341412
-1.0036676	tịnh trái ăn	-1.6341412
-1.0036676	bộ trái ăn	-1.6341412
-1.0503268	xe trái ăn	-1.6341412
-1.0036676	mã trái ăn	-1.6341412
-1.0503268	pháo trái ăn	-1.6341412
-1.0692029	tốt trái ăn	-1.6341412
-1.0692029	binh trái ăn	-1.6341412
-1.0692029	chốt trái ăn	-1.6341412
-2.6494539	<s> tượng ăn	-1.6341412
-0.92859083	sau chín ăn	-2.5883837
-0.92859083	trên chín ăn	-2.5883837
-0.92859083	trước chín ăn	-2.5883837
-0.92859083	dưới chín ăn	-2.5883837
-0.98228407	tượng chín ăn	-1.6341412
-0.98228407	tịnh chín ăn	-1.6341412
-0.98228407	bộ chín ăn	-1.6341412
-1.0265832	xe chín ăn	-1.6341412
-0.98228407	mã chín ăn	-1.6341412
-1.0265832	pháo chín ăn	-1.6341412
-1.0060878	tốt chín ăn	-1.6341412
-0.9242841	giữa chín ăn	-2.8102326
-1.0060878	binh chín ăn	-1.6341412
-1.0060878	chốt chín ăn	-1.6341412
-0.92859083	sau tám ăn	-2.5883837
-0.92859083	trên tám ăn	-2.5883837
-0.92859083	trước tám ăn	-2.5883837
-0.92859083	dưới tám ăn	-2.5883837
-0.98228407	tượng tám ăn	-1.6341412
-0.98228407	tịnh tám ăn	-1.6341412
-0.98228407	bộ tám ăn	-1.6341412
-1.0265832	xe tám ăn	-1.6341412
-0.98228407	mã tám ăn	-1.6341412
-1.0265832	pháo tám ăn	-1.6341412
-1.0060878	tốt tám ăn	-1.6341412
-0.9242841	giữa tám ăn	-2.8102326
-1.0060878	binh tám ăn	-1.6341412
-1.0060878	chốt tám ăn	-1.6341412
-0.92859083	sau một ăn	-2.5883837
-0.92859083	trên một ăn	-2.5883837
-0.92859083	trước một ăn	-2.5883837
-0.92859083	dưới một ăn	-2.5883837
-0.98228407	tượng một ăn	-1.6341412
-0.98228407	tịnh một ăn	-1.6341412
-0.98228407	bộ một ăn	-1.6341412
-1.0265832	xe một ăn	-1.6341412
-0.98228407	mã một ăn	-1.6341412
-1.0265832	pháo một ăn	-1.6341412
-1.0060878	tốt một ăn	-1.6341412
-0.9242841	giữa một ăn	-2.8102326
-1.0060878	binh một ăn	-1.6341412
-1.0060878	chốt một ăn	-1.6341412
-0.92859083	sau ba ăn	-2.5883837
-0.92859083	trên ba ăn	-2.5883837
-0.92859083	trước ba ăn	-2.5883837
-0.92859083	dưới ba ăn	-2.5883837
-0.98228407	tượng ba ăn	-1.6341412
-0.98228407	tịnh ba ăn	-1.6341412
-0.98228407	bộ ba ăn	-1.6341412
-1.0265832	xe ba ăn	-1.6341412
-0.98228407	mã ba ăn	-1.6341412
-1.0265832	pháo ba ăn	-1.6341412
-1.0060878	tốt ba ăn	-1.6341412
-0.9242841	giữa ba ăn	-2.8102326
-1.0060878	binh ba ăn	-1.6341412
-1.0060878	chốt ba ăn	-1.6341412
-0.92859083	sau hai ăn	-2.5883837
-0.92859083	trên hai ăn	-2.5883837
-0.92859083	trước hai ăn	-2.5883837
-0.92859083	dưới hai ăn	-2.5883837
-0.98228407	tượng hai ăn	-1.6341412
-0.98228407	tịnh hai ăn	-1.6341412
-0.98228407	bộ hai ăn	-1.6341412
-1.0265832	xe hai ăn	-1.6341412
-0.98228407	mã hai ăn	-1.6341412
-1.0265832	pháo hai ăn	-1.6341412
-1.0060878	tốt hai ăn	-1.6341412
-0.9242841	giữa hai ăn	-2.8102326
-1.0060878	binh hai ăn	-1.6341412
-1.0060878	chốt hai ăn	-1.6341412
-0.92859083	sau bảy ăn	-2.5883837
-0.92859083	trên bảy ăn	-2.5883837
-0.92859083	trước bảy ăn	-2.5883837
-0.92859083	dưới bảy ăn	-2.5883837
-0.98228407	tượng bảy ăn	-1.6341412
-0.98228407	tịnh bảy ăn	-1.6341412
-0.98228407	bộ bảy ăn	-1.6341412
-1.0265832	xe bảy ăn	-1.6341412
-0.98228407	mã bảy ăn	-1.6341412
-1.0265832	pháo bảy ăn	-1.6341412
-1.0060878	tốt bảy ăn	-1.6341412
-0.9242841	giữa bảy ăn	-2.8102326
-1.0060878	binh bảy ăn	-1.6341412
-1.0060878	chốt bảy ăn	-1.6341412
-2.6494539	<s> tịnh ăn	-1.6341412
-2.6494539	<s> bộ ăn	-1.6341412
-3.0619445	<s> xe ăn	-1.6341412
-2.8287585	<s> mã ăn	-1.6341412
-3.0619445	<s> pháo ăn	-1.6341412
-2.772547	<s> tốt ăn	-1.6341412
-1.0249963	phải giữa ăn	-2.1112626
-1.2124072	sau giữa ăn	-2.1112626
-1.2124072	trên giữa ăn	-2.1112626
-1.2124072	trước giữa ăn	-2.1112626
-1.2124072	dưới giữa ăn	-2.1112626
-1.0249963	trái giữa ăn	-2.1112626
-1.3391744	tốt giữa ăn	-1.6341412
-1.3391744	binh giữa ăn	-1.6341412
-1.3391744	chốt giữa ăn	-1.6341412
-2.772547	<s> binh ăn	-1.6341412
-2.772547	<s> chốt ăn	-1.6341412
-1.3534292	<s> soái ăn	-1.6341412
-1.0112941	tướng ăn sĩ	-0.38818017
-1.0019718	bốn ăn sĩ	-1.9924062
-1.0112941	sĩ ăn sĩ	-0.38818017
-1.0033575	phải ăn sĩ	-1.1663314
-1.0033575	sau ăn sĩ	-1.1663314
-1.0033575	trên ăn sĩ	-1.1663314
-1.0019718	sáu ăn sĩ	-1.9924062
-1.0019718	năm ăn sĩ	-1.9924062
-1.0033575	trước ăn sĩ	-1.1663314
-1.0033575	dưới ăn sĩ	-1.1663314
-1.0033575	trái ăn sĩ	-1.1663314
-1.0112941	tượng ăn sĩ	-0.38818017
-1.0023956	chín ăn sĩ	-1.9444827
-1.0023956	tám ăn sĩ	-1.9444827
-1.0023956	một ăn sĩ	-1.9444827
-1.0023956	ba ăn sĩ	-1.9444827
-1.0023956	hai ăn sĩ	-1.9444827
-1.0023956	bảy ăn sĩ	-1.9444827
-1.0112941	tịnh ăn sĩ	-0.38818017
-1.0112941	bộ ăn sĩ	-0.38818017
-1.0112941	xe ăn sĩ	-0.38818017
-1.0112941	mã ăn sĩ	-0.38818017
-1.0112941	pháo ăn sĩ	-0.38818017
-1.0112941	tốt ăn sĩ	-0.38818017
-1.0037322	giữa ăn sĩ	-1.4885507
-1.0112941	binh ăn sĩ	-0.38818017
-1.0112941	chốt ăn sĩ	-0.38818017
-1.0112941	soái ăn sĩ	-0.38818017
-1.0112941	tướng bắt sĩ	-0.38818017
-1.0019718	bốn bắt sĩ	-1.9924062
-1.0112941	sĩ bắt sĩ	-0.38818017
-1.0033575	phải bắt sĩ	-1.1663314
-1.0033575	sau bắt sĩ	-1.1663314
-1.0033575	trên bắt sĩ	-1.1663314
-1.0019718	sáu bắt sĩ	-1.9924062
-1.0019718	năm bắt sĩ	-1.9924062
-1.0033575	trước bắt sĩ	-1.1663314
-1.0033575	dưới bắt sĩ	-1.1663314
-1.0033575	trái bắt sĩ	-1.1663314
-1.0112941	tượng bắt sĩ	-0.38818017
-1.0023956	chín bắt sĩ	-1.9444827
-1.0023956	tám bắt sĩ	-1.9444827
-1.0023956	một bắt sĩ	-1.9444827
-1.0023956	ba bắt sĩ	-1.9444827
-1.0023956	hai bắt sĩ	-1.9444827
-1.0023956	bảy bắt sĩ	-1.9444827
-1.0112941	tịnh bắt sĩ	-0.38818017
-1.0112941	bộ bắt sĩ	-0.38818017
-1.0112941	xe bắt sĩ	-0.38818017
-1.0112941	mã bắt sĩ	-0.38818017
-1.0112941	pháo bắt sĩ	-0.38818017
-1.0112941	tốt bắt sĩ	-0.38818017
-1.0037322	giữa bắt sĩ	-1.4885507
-1.0112941	binh bắt sĩ	-0.38818017
-1.0112941	chốt bắt sĩ	-0.38818017
-1.0112941	soái bắt sĩ	-0.38818017
-1.3536695	<s> tướng bắt	-1.6341412
-0.97368175	tướng bốn bắt	-1.6341412
-0.97368175	sĩ bốn bắt	-1.6341412
-0.9233788	sau bốn bắt	-2.6341412
-0.9233788	trên bốn bắt	-2.6341412
-0.9233788	trước bốn bắt	-2.6341412
-0.9233788	dưới bốn bắt	-2.6341412
-0.97368175	tượng bốn bắt	-1.6341412
-0.97368175	tịnh bốn bắt	-1.6341412
-0.97368175	bộ bốn bắt	-1.6341412
-1.0170671	xe bốn bắt	-1.6341412
-0.97368175	mã bốn bắt	-1.6341412
-1.0170671	pháo bốn bắt	-1.6341412
-0.9970058	tốt bốn bắt	-1.6341412
-0.9210383	giữa bốn bắt	-2.8102326
-0.9970058	binh bốn bắt	-1.6341412
-0.9970058	chốt bốn bắt	-1.6341412
-0.94618493	soái bốn bắt	-1.6341412
-2.1761823	<s> sĩ bắt	-1.6341412
-1.0036676	sĩ phải bắt	-1.6341412
-1.0036676	tượng phải bắt	-1.6341412
-1.0036676	tịnh phải bắt	-1.6341412
-1.0036676	bộ phải bắt	-1.6341412
-1.0503268	xe phải bắt	-1.6341412
-1.0036676	mã phải bắt	-1.6341412
-1.0503268	pháo phải bắt	-1.6341412
-1.0692029	tốt phải bắt	-1.6341412
-1.0692029	binh phải bắt	-1.6341412
-1.0692029	chốt phải bắt	-1.6341412
-1.2482077	sĩ sau bắt	-1.6341412
-1.3708168	tượng sau bắt	-1.6341412
-1.3708168	tịnh sau bắt	-1.6341412
-1.3708168	bộ sau bắt	-1.6341412
-1.3783377	xe sau bắt	-1.6341412
-1.3708168	mã sau bắt	-1.6341412
-1.3783377	pháo sau bắt	-1.6341412
-1.3818533	tốt sau bắt	-1.6341412
-1.3818533	binh sau bắt	-1.6341412
-1.3818533	chốt sau bắt	-1.6341412
-1.2482077	sĩ trên bắt	-1.6341412
-1.3708168	tượng trên bắt	-1.6341412
-1.3708168	tịnh trên bắt	-1.6341412
-1.3708168	bộ trên bắt	-1.6341412
-1.3783377	xe trên bắt	-1.6341412
-1.3708168	mã trên bắt	-1.6341412
-1.3783377	pháo trên bắt	-1.6341412
-1.3818533	tốt trên bắt	-1.6341412
-1.3818533	binh trên bắt	-1.6341412
-1.3818533	chốt trên bắt	-1.6341412
-0.97368175	tướng sáu bắt	-1.6341412
-0.97368175	sĩ sáu bắt	-1.6341412
-0.9233788	sau sáu bắt	-2.6341412
-0.9233788	trên sáu bắt	-2.6341412
-0.9233788	trước sáu bắt	-2.6341412
-0.9233788	dưới sáu bắt	-2.6341412
-0.97368175	tượng sáu bắt	-1.6341412
-0.97368175	tịnh sáu bắt	-1.6341412
-0.97368175	bộ sáu bắt	-1.6341412
-1.0170671	xe sáu bắt	-1.6341412
-0.97368175	mã sáu bắt	-1.6341412
-1.0170671	pháo sáu bắt	-1.6341412
-0.9970058	tốt sáu bắt	-1.6341412
-0.9210383	giữa sáu bắt	-2.8102326
-0.9970058	binh sáu bắt	-1.6341412
-0.9970058	chốt sáu bắt	-1.6341412
-0.94618493	soái sáu bắt	-1.6341412
-0.97368175	tướng năm bắt	-1.6341412
-0.97368175	sĩ năm bắt	-1.6341412
-0.9021896	sau năm bắt	-2.6341412
-0.9021896	trên năm bắt	-2.6341412
-0.9021896	trước năm bắt	-2.6341412
-0.9021896	dưới năm bắt	-2.6341412
-0.97368175	tượng năm bắt	-1.6341412
-0.97368175	tịnh năm bắt	-1.6341412
-0.97368175	bộ năm bắt	-1.6341412
-1.0170671	xe năm bắt	-1.6341412
-0.97368175	mã năm bắt	-1.6341412
-1.0170671	pháo năm bắt	-1.6341412
-0.9970058	tốt năm bắt	-1.6341412
-0.9210383	giữa năm bắt	-2.8102326
-0.9970058	binh năm bắt	-1.6341412
-0.9970058	chốt năm bắt	-1.6341412
-0.94618493	soái năm bắt	-1.6341412
-1.2482077	sĩ trước bắt	-1.6341412
-1.3708168	tượng trước bắt	-1.6341412
-1.3708168	tịnh trước bắt	-1.6341412
-1.3708168	bộ trước bắt	-1.6341412
-1.3783377	xe trước bắt	-1.6341412
-1.3708168	mã trước bắt	-1.6341412
-1.3783377	pháo trước bắt	-1.6341412
-1.3818533	tốt trước bắt	-1.6341412
-1.3818533	binh trước bắt	-1.6341412
-1.3818533	chốt trước bắt	-1.6341412
-1.2482077	sĩ dưới bắt	-1.6341412
-1.3708168	tượng dưới bắt	-1.6341412
-1.3708168	tịnh dưới bắt	-1.6341412
-1.3708168	bộ dưới bắt	-1.6341412
-1.3783377	xe dưới bắt	-1.6341412
-1.3708168	mã dưới bắt	-1.6341412
-1.3783377	pháo dưới bắt	-1.6341412
-1.3818533	tốt dưới bắt	-1.6341412
-1.3818533	binh dưới bắt	-1.6341412
-1.3818533	chốt dưới bắt	-1.6341412
-1.0036676	sĩ trái bắt	-1.6341412
-1.0036676	tượng trái bắt	-1.6341412
-1.0036676	tịnh trái bắt	-1.6341412
-1.0036676	bộ trái bắt	-1.6341412
-1.0503268	xe trái bắt	-1.6341412
-1.0036676	mã trái bắt	-1.6341412
-1.0503268	pháo trái bắt	-1.6341412
-1.0692029	tốt trái bắt	-1.6341412
-1.0692029	binh trái bắt	-1.6341412
-1.0692029	chốt trái bắt	-1.6341412
-2.6494539	<s> tượng bắt	-1.6341412
-0.92859083	sau chín bắt	-2.5883837
-0.92859083	trên chín bắt	-2.5883837
-0.92859083	trước chín bắt	-2.5883837
-0.92859083	dưới chín bắt	-2.5883837
-0.98228407	tượng chín bắt	-1.6341412
-0.98228407	tịnh chín bắt	-1.6341412
-0.98228407	bộ chín bắt	-1.6341412
-1.0265832	xe chín bắt	-1.6341412
-0.98228407	mã chín bắt	-1.6341412
-1.0265832	pháo chín bắt	-1.6341412
-1.0060878	tốt chín bắt	-1.6341412
-0.9242841	giữa chín bắt	-2.8102326
-1.0060878	binh chín bắt	-1.6341412
-1.0060878	chốt chín bắt	-1.6341412
-0.92859083	sau tám bắt	-2.5883837
-0.92859083	trên tám bắt	-2.5883837
-0.92859083	trước tám bắt	-2.5883837
-0.92859083	dưới tám bắt	-2.5883837
-0.98228407	tượng tám bắt	-1.6341412
-0.98228407	tịnh tám bắt	-1.6341412
-0.98228407	bộ tám bắt	-1.6341412
-1.0265832	xe tám bắt	-1.6341412
-0.98228407	mã tám bắt	-1.6341412
-1.0265832	pháo tám bắt	-1.6341412
-1.0060878	tốt tám bắt	-1.6341412
-0.9242841	giữa tám bắt	-2.8102326
-1.0060878	binh tám bắt	-1.6341412
-1.0060878	chốt tám bắt	-1.6341412
-0.92859083	sau một bắt	-2.5883837
-0.92859083	trên một bắt	-2.5883837
-0.92859083	trước một bắt	-2.5883837
-0.92859083	dưới một bắt	-2.5883837
-0.98228407	tượng một bắt	-1.6341412
-0.98228407	tịnh một bắt	-1.6341412
-0.98228407	bộ một bắt	-1.6341412
-1.0265832	xe một bắt	-1.6341412
-0.98228407	mã một bắt	-1.6341412
-1.0265832	pháo một bắt	-1.6341412
-1.0060878	tốt một bắt	-1.6341412
-0.9242841	giữa một bắt	-2.8102326
-1.0060878	binh một bắt	-1.6341412
-1.0060878	chốt một bắt	-1.6341412
-0.92859083	sau ba bắt	-2.5883837
-0.92859083	trên ba bắt	-2.5883837
-0.92859083	trước ba bắt	-2.5883837
-0.92859083	dưới ba bắt	-2.5883837
-0.98228407	tượng ba bắt	-1.6341412
-0.98228407	tịnh ba bắt	-1.6341412
-0.98228407	bộ ba bắt	-1.6341412
-1.0265832	xe ba bắt	-1.6341412
-0.98228407	mã ba bắt	-1.6341412
-1.0265832	pháo ba bắt	-1.6341412
-1.0060878	tốt ba bắt	-1.6341412
-0.9242841	giữa ba bắt	-2.8102326
-1.0060878	binh ba bắt	-1.6341412
-1.0060878	chốt ba bắt	-1.6341412
-0.92859083	sau hai bắt	-2.5883837
-0.92859083	trên hai bắt	-2.5883837
-0.92859083	trước hai bắt	-2.5883837
-0.92859083	dưới hai bắt	-2.5883837
-0.98228407	tượng hai bắt	-1.6341412
-0.98228407	tịnh hai bắt	-1.6341412
-0.98228407	bộ hai bắt	-1.6341412
-1.0265832	xe hai bắt	-1.6341412
-0.98228407	mã hai bắt	-1.6341412
-1.0265832	pháo hai bắt	-1.6341412
-1.0060878	tốt hai bắt	-1.6341412
-0.9242841	giữa hai bắt	-2.8102326
-1.0060878	binh hai bắt	-1.6341412
-1.0060878	chốt hai bắt	-1.6341412
-0.92859083	sau bảy bắt	-2.5883837
-0.92859083	trên bảy bắt	-2.5883837
-0.92859083	trước bảy bắt	-2.5883837
-0.92859083	dưới bảy bắt	-2.5883837
-0.98228407	tượng bảy bắt	-1.6341412
-0.98228407	tịnh bảy bắt	-1.6341412
-0.98228407	bộ bảy bắt	-1.6341412
-1.0265832	xe bảy bắt	-1.6341412
-0.98228407	mã bảy bắt	-1.6341412
-1.0265832	pháo bảy bắt	-1.6341412
-1.0060878	tốt bảy bắt	-1.6341412
-0.9242841	giữa bảy bắt	-2.8102326
-1.0060878	binh bảy bắt	-1.6341412
-1.0060878	chốt bảy bắt	-1.6341412
-2.6494539	<s> tịnh bắt	-1.6341412
-2.6494539	<s> bộ bắt	-1.6341412
-3.0619445	<s> xe bắt	-1.6341412
-2.8287585	<s> mã bắt	-1.6341412
-3.0619445	<s> pháo bắt	-1.6341412
-2.772547	<s> tốt bắt	-1.6341412
-1.0249963	phải giữa bắt	-2.1112626
-1.2124072	sau giữa bắt	-2.1112626
-1.2124072	trên giữa bắt	-2.1112626
-1.2124072	trước giữa bắt	-2.1112626
-1.2124072	dưới giữa bắt	-2.1112626
-1.0249963	trái giữa bắt	-2.1112626
-1.3391744	tốt giữa bắt	-1.6341412
-1.3391744	binh giữa bắt	-1.6341412
-1.3391744	chốt giữa bắt	-1.6341412
-2.772547	<s> binh bắt	-1.6341412
-2.772547	<s> chốt bắt	-1.6341412
-1.3534292	<s> soái bắt	-1.6341412
-1.2157366	<s> sĩ phải	-2.7490735
-1.0110172	ăn sĩ phải	-2.6394866
-1.0110172	bắt sĩ phải	-2.6394866
-1.4303176	<s> tượng phải	-3.0078697
-1.2128232	ăn tượng phải	-2.6394866
-1.2128232	bắt tượng phải	-2.6394866
-1.4303176	<s> tịnh phải	-3.0078697
-1.2128232	ăn tịnh phải	-2.6394866
-1.2128232	bắt tịnh phải	-2.6394866
-1.4303176	<s> bộ phải	-3.0078697
-1.2128232	ăn bộ phải	-2.6394866
-1.2128232	bắt bộ phải	-2.6394866
-1.710789	<s> xe phải	-3.0307946
-1.2132001	ăn xe phải	-2.6394866
-1.2132001	bắt xe phải	-2.6394866
-1.5490575	<s> mã phải	-3.0684333
-1.2128232	ăn mã phải	-2.6394866
-1.2128232	bắt mã phải	-2.6394866
-1.710789	<s> pháo phải	-3.0307946
-1.2132001	ăn pháo phải	-2.6394866
-1.2132001	bắt pháo phải	-2.6394866
-1.5919737	<s> tốt phải	-2.9113352
-1.238808	ăn tốt phải	-2.6394866
-1.238808	bắt tốt phải	-2.6394866
-1.5919737	<s> binh phải	-2.9113352
-1.238808	ăn binh phải	-2.6394866
-1.238808	bắt binh phải	-2.6394866
-1.5919737	<s> chốt phải	-2.9113352
-1.238808	ăn chốt phải	-2.6394866
-1.238808	bắt chốt phải	-2.6394866
-1.0504289	bốn tiến phải	-3.1249387
-0.8648077	sĩ tiến phải	-2.1249387
-1.180756	phải tiến phải	-2.4259686
-1.180756	sau tiến phải	-2.4259686
-1.180756	trên tiến phải	-2.4259686
-1.0504289	sáu tiến phải	-3.1249387
-1.0547937	năm tiến phải	-3.0627909
-1.180756	trước tiến phải	-2.4259686
-1.180756	dưới tiến phải	-2.4259686
-1.180756	trái tiến phải	-2.4259686
-1.0863277	tượng tiến phải	-2.1249387
-1.0466083	chín tiến phải	-3.0457575
-1.0515717	tám tiến phải	-3.0457575
-1.0466083	một tiến phải	-3.0457575
-1.070877	ba tiến phải	-3.0457575
-1.0515717	hai tiến phải	-3.0457575
-1.070877	bảy tiến phải	-3.0457575
-1.0863277	tịnh tiến phải	-2.1249387
-1.0863277	bộ tiến phải	-2.1249387
-1.0863277	mã tiến phải	-2.1249387
-1.0504289	bốn tấn phải	-3.1249387
-0.8648077	sĩ tấn phải	-2.1249387
-1.180756	phải tấn phải	-2.4259686
-1.180756	sau tấn phải	-2.4259686
-1.180756	trên tấn phải	-2.4259686
-1.0504289	sáu tấn phải	-3.1249387
-1.0547937	năm tấn phải	-3.0627909
-1.180756	trước tấn phải	-2.4259686
-1.180756	dưới tấn phải	-2.4259686
-1.180756	trái tấn phải	-2.4259686
-1.0863277	tượng tấn phải	-2.1249387
-1.0466083	chín tấn phải	-3.0457575
-1.0515717	tám tấn phải	-3.0457575
-1.0466083	một tấn phải	-3.0457575
-1.070877	ba tấn phải	-3.0457575
-1.0515717	hai tấn phải	-3.0457575
-1.070877	bảy tấn phải	-3.0457575
-1.0863277	tịnh tấn phải	-2.1249387
-1.0863277	bộ tấn phải	-2.1249387
-1.0863277	mã tấn phải	-2.1249387
-0.99085623	bốn thoái phải	-3.1249387
-0.85519326	sĩ thoái phải	-2.1249387
-1.1442943	phải thoái phải	-2.4259686
-1.1442943	sau thoái phải	-2.4259686
-1.1442943	trên thoái phải	-2.4259686
-0.99085623	sáu thoái phải	-3.1249387
-0.9958196	năm thoái phải	-3.0627909
-1.1442943	trước thoái phải	-2.4259686
-1.1442943	dưới thoái phải	-2.4259686
-1.1442943	trái thoái phải	-2.4259686
-1.0704317	tượng thoái phải	-2.1249387
-0.98263466	chín thoái phải	-3.0457575
-0.988387	tám thoái phải	-3.0457575
-0.98263466	một thoái phải	-3.0457575
-1.0106634	ba thoái phải	-3.0457575
-0.988387	hai thoái phải	-3.0457575
-1.0106634	bảy thoái phải	-3.0457575
-1.0704317	tịnh thoái phải	-2.1249387
-1.0704317	bộ thoái phải	-2.1249387
-1.0704317	mã thoái phải	-2.1249387
-0.99085623	bốn lùi phải	-3.1249387
-0.85519326	sĩ lùi phải	-2.1249387
-1.1442943	phải lùi phải	-2.4259686
-1.1442943	sau lùi phải	-2.4259686
-1.1442943	trên lùi phải	-2.4259686
-0.99085623	sáu lùi phải	-3.1249387
-0.9958196	năm lùi phải	-3.0627909
-1.1442943	trước lùi phải	-2.4259686
-1.1442943	dưới lùi phải	-2.4259686
-1.1442943	trái lùi phải	-2.4259686
-1.0704317	tượng lùi phải	-2.1249387
-0.98263466	chín lùi phải	-3.0457575
-0.988387	tám lùi phải	-3.0457575
-0.98263466	một lùi phải	-3.0457575
-1.0106634	ba lùi phải	-3.0457575
-0.988387	hai lùi phải	-3.0457575
-1.0106634	bảy lùi phải	-3.0457575
-1.0704317	tịnh lùi phải	-2.1249387
-1.0704317	bộ lùi phải	-2.1249387
-1.0704317	mã lùi phải	-2.1249387
-0.35027424	tướng sang phải	-2.1249387
-0.34260362	bốn sang phải	-3.2112985
-0.32990175	phải sang phải	-2.447158
-0.32990175	sau sang phải	-2.447158
-0.32990175	trên sang phải	-2.447158
-0.34260362	sáu sang phải	-3.2112985
-0.34260362	năm sang phải	-3.2112985
-0.32990175	trước sang phải	-2.447158
-0.32990175	dưới sang phải	-2.447158
-0.32990175	trái sang phải	-2.447158
-0.3502583	chín sang phải	-3.20412
-0.3502583	tám sang phải	-3.20412
-0.3502583	một sang phải	-3.20412
-0.3502583	ba sang phải	-3.20412
-0.3502583	hai sang phải	-3.20412
-0.3502583	bảy sang phải	-3.20412
-0.35027424	xe sang phải	-2.1249387
-0.35027424	pháo sang phải	-2.1249387
-0.35027424	tốt sang phải	-2.1249387
-0.31683236	giữa sang phải	-3.447158
-0.35027424	binh sang phải	-2.1249387
-0.35027424	chốt sang phải	-2.1249387
-0.35027424	soái sang phải	-2.1249387
-0.77199584	<s> sĩ sau	-3.0379043
-1.0119622	ăn sĩ sau	-2.6394866
-1.0119622	bắt sĩ sau	-2.6394866
-0.73248094	<s> tượng sau	-3.346679
-1.214328	ăn tượng sau	-2.6394866
-1.214328	bắt tượng sau	-2.6394866
-0.73248094	<s> tịnh sau	-3.346679
-1.214328	ăn tịnh sau	-2.6394866
-1.214328	bắt tịnh sau	-2.6394866
-0.73248094	<s> bộ sau	-3.346679
-1.214328	ăn bộ sau	-2.6394866
-1.214328	bắt bộ sau	-2.6394866
-0.7162142	<s> xe sau	-3.7243366
-1.2147063	ăn xe sau	-2.6394866
-1.2147063	bắt xe sau	-2.6394866
-0.72422576	<s> mã sau	-3.5342376
-1.214328	ăn mã sau	-2.6394866
-1.214328	bắt mã sau	-2.6394866
-0.7162142	<s> pháo sau	-3.7243366
-1.2147063	ăn pháo sau	-2.6394866
-1.2147063	bắt pháo sau	-2.6394866
-0.72611725	<s> tốt sau	-3.4498262
-1.2404059	ăn tốt sau	-2.8991237
-1.2404059	bắt tốt sau	-2.8991237
-0.72611725	<s> binh sau	-3.4498262
-1.2404059	ăn binh sau	-2.8991237
-1.2404059	bắt binh sau	-2.8991237
-0.72611725	<s> chốt sau	-3.4498262
-1.2404059	ăn chốt sau	-2.8991237
-1.2404059	bắt chốt sau	-2.8991237
-0.77199584	<s> sĩ trên	-3.0379043
-1.0119622	ăn sĩ trên	-2.6394866
-1.0119622	bắt sĩ trên	-2.6394866
-0.73248094	<s> tượng trên	-3.346679
-1.214328	ăn tượng trên	-2.6394866
-1.214328	bắt tượng trên	-2.6394866
-0.73248094	<s> tịnh trên	-3.346679
-1.214328	ăn tịnh trên	-2.6394866
-1.214328	bắt tịnh trên	-2.6394866
-0.73248094	<s> bộ trên	-3.346679
-1.214328	ăn bộ trên	-2.6394866
-1.214328	bắt bộ trên	-2.6394866
-0.7162142	<s> xe trên	-3.7243366
-1.2147063	ăn xe trên	-2.6394866
-1.2147063	bắt xe trên	-2.6394866
-0.72422576	<s> mã trên	-3.5342376
-1.214328	ăn mã trên	-2.6394866
-1.214328	bắt mã trên	-2.6394866
-0.7162142	<s> pháo trên	-3.7243366
-1.2147063	ăn pháo trên	-2.6394866
-1.2147063	bắt pháo trên	-2.6394866
-0.72611725	<s> tốt trên	-3.4498262
-1.2404059	ăn tốt trên	-2.8991237
-1.2404059	bắt tốt trên	-2.8991237
-0.72611725	<s> binh trên	-3.4498262
-1.2404059	ăn binh trên	-2.8991237
-1.2404059	bắt binh trên	-2.8991237
-0.72611725	<s> chốt trên	-3.4498262
-1.2404059	ăn chốt trên	-2.8991237
-1.2404059	bắt chốt trên	-2.8991237
-0.62037456	<s> tướng sáu	-2.463893
-1.008321	chiếu tướng sáu	-4.1112623
-1.3533266	<s> sĩ sáu	-2.6114705
-1.0091333	ăn sĩ sáu	-2.6394866
-1.0091333	bắt sĩ sáu	-2.6394866
-1.0448664	sang phải sáu	-4.141972
-0.952313	sĩ sau sáu	-2.6690068
-1.1552794	tượng sau sáu	-2.7269988
-1.1552794	tịnh sau sáu	-2.7269988
-1.1552794	bộ sau sáu	-2.7269988
-1.1691151	xe sau sáu	-3.0170333
-1.1552794	mã sau sáu	-2.90309
-1.1691151	pháo sau sáu	-3.0170333
-1.1756525	tốt sau sáu	-2.60206
-1.1756525	binh sau sáu	-2.60206
-1.1756525	chốt sau sáu	-2.60206
-0.952313	sĩ trên sáu	-2.6690068
-1.1552794	tượng trên sáu	-2.7269988
-1.1552794	tịnh trên sáu	-2.7269988
-1.1552794	bộ trên sáu	-2.7269988
-1.1691151	xe trên sáu	-3.0170333
-1.1552794	mã trên sáu	-2.90309
-1.1691151	pháo trên sáu	-3.0170333
-1.1756525	tốt trên sáu	-2.60206
-1.1756525	binh trên sáu	-2.60206
-1.1756525	chốt trên sáu	-2.60206
-0.952313	sĩ trước sáu	-2.6690068
-1.1552794	tượng trước sáu	-2.7269988
-1.1552794	tịnh trước sáu	-2.7269988
-1.1552794	bộ trước sáu	-2.7269988
-1.1691151	xe trước sáu	-3.0170333
-1.1552794	mã trước sáu	-2.90309
-1.1691151	pháo trước sáu	-3.0170333
-1.1756525	tốt trước sáu	-2.60206
-1.1756525	binh trước sáu	-2.60206
-1.1756525	chốt trước sáu	-2.60206
-0.952313	sĩ dưới sáu	-2.6690068
-1.1552794	tượng dưới sáu	-2.7269988
-1.1552794	tịnh dưới sáu	-2.7269988
-1.1552794	bộ dưới sáu	-2.7269988
-1.1691151	xe dưới sáu	-3.0170333
-1.1552794	mã dưới sáu	-2.90309
-1.1691151	pháo dưới sáu	-3.0170333
-1.1756525	tốt dưới sáu	-2.60206
-1.1756525	binh dưới sáu	-2.60206
-1.1756525	chốt dưới sáu	-2.60206
-1.0448664	sang trái sáu	-4.141972
-1.7524748	<s> tượng sáu	-2.685699
-1.2098289	ăn tượng sáu	-2.6394866
-1.2098289	bắt tượng sáu	-2.6394866
-1.7524748	<s> tịnh sáu	-2.685699
-1.2098289	ăn tịnh sáu	-2.6394866
-1.2098289	bắt tịnh sáu	-2.6394866
-1.7524748	<s> bộ sáu	-2.685699
-1.2098289	ăn bộ sáu	-2.6394866
-1.2098289	bắt bộ sáu	-2.6394866
-1.7168157	<s> xe sáu	-3.0247593
-1.2102032	ăn xe sáu	-2.6394866
-1.2102032	bắt xe sáu	-2.6394866
-1.7200105	<s> mã sáu	-2.89747
-1.2098289	ăn mã sáu	-2.6394866
-1.2098289	bắt mã sáu	-2.6394866
-1.7168157	<s> pháo sáu	-3.0247593
-1.2102032	ăn pháo sáu	-2.6394866
-1.2102032	bắt pháo sáu	-2.6394866
-1.9922998	<s> tốt sáu	-2.5109916
-1.2356298	ăn tốt sáu	-2.6394866
-1.2356298	bắt tốt sáu	-2.6394866
-1.271947	sau giữa sáu	-3.0791812
-1.271947	trên giữa sáu	-3.0791812
-1.271947	trước giữa sáu	-3.0791812
-1.271947	dưới giữa sáu	-3.0791812
-1.1823167	tốt giữa sáu	-2.60206
-1.1823167	binh giữa sáu	-2.60206
-1.1823167	chốt giữa sáu	-2.60206
-1.9922998	<s> binh sáu	-2.5109916
-1.2356298	ăn binh sáu	-2.6394866
-1.2356298	bắt binh sáu	-2.6394866
-1.9922998	<s> chốt sáu	-2.5109916
-1.2356298	ăn chốt sáu	-2.6394866
-1.2356298	bắt chốt sáu	-2.6394866
-0.620379	<s> soái sáu	-2.463893
-0.99678916	bốn tiến sáu	-3.60206
-0.85099787	sĩ tiến sáu	-2.1249387
-1.0198742	phải tiến sáu	-2.9700367
-1.0198742	sau tiến sáu	-2.9700367
-1.0198742	trên tiến sáu	-2.9700367
-1.2194089	sáu tiến sáu	-3.1249387
-1.0983529	năm tiến sáu	-3.3290586
-1.0198742	trước tiến sáu	-2.9700367
-1.0198742	dưới tiến sáu	-2.9700367
-1.0198742	trái tiến sáu	-2.9700367
-1.0635661	tượng tiến sáu	-2.1249387
-1.163293	chín tiến sáu	-3.1249387
-0.94563663	tám tiến sáu	-3.60206
-1.163293	một tiến sáu	-3.1249387
-1.1875615	ba tiến sáu	-3.1249387
-1.1682564	hai tiến sáu	-3.1249387
-1.1203393	bảy tiến sáu	-3.30103
-1.0635661	tịnh tiến sáu	-2.1249387
-1.0635661	bộ tiến sáu	-2.1249387
-1.0155396	xe tiến sáu	-2.1249387
-1.0635661	mã tiến sáu	-2.1249387
-1.0155396	pháo tiến sáu	-2.1249387
-0.99678916	bốn tấn sáu	-3.60206
-0.85099787	sĩ tấn sáu	-2.1249387
-1.0198742	phải tấn sáu	-2.9700367
-1.0198742	sau tấn sáu	-2.9700367
-1.0198742	trên tấn sáu	-2.9700367
-1.2194089	sáu tấn sáu	-3.1249387
-1.0983529	năm tấn sáu	-3.3290586
-1.0198742	trước tấn sáu	-2.9700367
-1.0198742	dưới tấn sáu	-2.9700367
-1.0198742	trái tấn sáu	-2.9700367
-1.0635661	tượng tấn sáu	-2.1249387
-1.163293	chín tấn sáu	-3.1249387
-0.94563663	tám tấn sáu	-3.60206
-1.163293	một tấn sáu	-3.1249387
-1.1875615	ba tấn sáu	-3.1249387
-1.1682564	hai tấn sáu	-3.1249387
-1.1203393	bảy tấn sáu	-3.30103
-1.0635661	tịnh tấn sáu	-2.1249387
-1.0635661	bộ tấn sáu	-2.1249387
-1.0155396	xe tấn sáu	-2.1249387
-1.0635661	mã tấn sáu	-2.1249387
-1.0155396	pháo tấn sáu	-2.1249387
-0.6513281	tướng bình sáu	-2.1249387
-0.995788	bốn bình sáu	-3.1249387
-0.9519822	phải bình sáu	-2.8239088
-0.9519822	sau bình sáu	-2.8239088
-0.9519822	trên bình sáu	-2.8239088
-0.70419383	năm bình sáu	-3.748188
-0.9519822	trước bình sáu	-2.8239088
-0.9519822	dưới bình sáu	-2.8239088
-0.9519822	trái bình sáu	-2.8239088
-0.9483633	chín bình sáu	-3.1249387
-0.980548	tám bình sáu	-3.1249387
-0.9483633	một bình sáu	-3.1249387
-0.980548	ba bình sáu	-3.1249387
-0.980548	hai bình sáu	-3.1249387
-0.75446415	bảy bình sáu	-3.7269988
-0.95048183	xe bình sáu	-2.1249387
-0.95048183	pháo bình sáu	-2.1249387
-0.95048183	tốt bình sáu	-2.1249387
-0.95298535	giữa bình sáu	-3.447158
-0.95048183	binh bình sáu	-2.1249387
-0.95048183	chốt bình sáu	-2.1249387
-0.6513281	soái bình sáu	-2.1249387
-0.93724895	bốn thoái sáu	-3.60206
-0.84056926	sĩ thoái sáu	-2.1249387
-0.9832345	phải thoái sáu	-2.9700367
-0.9832345	sau thoái sáu	-2.9700367
-0.9832345	trên thoái sáu	-2.9700367
-1.1575907	sáu thoái sáu	-3.1249387
-1.0385567	năm thoái sáu	-3.3290586
-0.9832345	trước thoái sáu	-2.9700367
-0.9832345	dưới thoái sáu	-2.9700367
-0.9832345	trái thoái sáu	-2.9700367
-1.0466793	tượng thoái sáu	-2.1249387
-1.0995452	chín thoái sáu	-3.1249387
-0.8823928	tám thoái sáu	-3.60206
-1.0995452	một thoái sáu	-3.1249387
-1.127574	ba thoái sáu	-3.1249387
-1.1052976	hai thoái sáu	-3.1249387
-1.0602497	bảy thoái sáu	-3.30103
-1.0466793	tịnh thoái sáu	-2.1249387
-1.0466793	bộ thoái sáu	-2.1249387
-1.0003902	xe thoái sáu	-2.1249387
-1.0466793	mã thoái sáu	-2.1249387
-1.0003902	pháo thoái sáu	-2.1249387
-0.93724895	bốn lùi sáu	-3.60206
-0.84056926	sĩ lùi sáu	-2.1249387
-0.9832345	phải lùi sáu	-2.9700367
-0.9832345	sau lùi sáu	-2.9700367
-0.9832345	trên lùi sáu	-2.9700367
-1.1575907	sáu lùi sáu	-3.1249387
-1.0385567	năm lùi sáu	-3.3290586
-0.9832345	trước lùi sáu	-2.9700367
-0.9832345	dưới lùi sáu	-2.9700367
-0.9832345	trái lùi sáu	-2.9700367
-1.0466793	tượng lùi sáu	-2.1249387
-1.0995452	chín lùi sáu	-3.1249387
-0.8823928	tám lùi sáu	-3.60206
-1.0995452	một lùi sáu	-3.1249387
-1.127574	ba lùi sáu	-3.1249387
-1.1052976	hai lùi sáu	-3.1249387
-1.0602497	bảy lùi sáu	-3.30103
-1.0466793	tịnh lùi sáu	-2.1249387
-1.0466793	bộ lùi sáu	-2.1249387
-1.0003902	xe lùi sáu	-2.1249387
-1.0466793	mã lùi sáu	-2.1249387
-1.0003902	pháo lùi sáu	-2.1249387
-1.0428264	bốn chiếu sáu	-3.1139433
-1.0486093	sĩ chiếu sáu	-1.30103
-1.0435451	phải chiếu sáu	-2.30103
-1.0435451	sau chiếu sáu	-2.30103
-1.0435451	trên chiếu sáu	-2.30103
-1.0428264	sáu chiếu sáu	-3.1139433
-1.0428264	năm chiếu sáu	-3.1139433
-1.0435451	trước chiếu sáu	-2.30103
-1.0435451	dưới chiếu sáu	-2.30103
-1.0435451	trái chiếu sáu	-2.30103
-1.0486093	tượng chiếu sáu	-1.30103
-1.042929	chín chiếu sáu	-3.0791812
-1.042929	tám chiếu sáu	-3.0791812
-1.042929	một chiếu sáu	-3.0791812
-1.042929	ba chiếu sáu	-3.0791812
-1.042929	hai chiếu sáu	-3.0791812
-1.042929	bảy chiếu sáu	-3.0791812
-1.0486093	tịnh chiếu sáu	-1.30103
-1.0486093	bộ chiếu sáu	-1.30103
-1.0486093	xe chiếu sáu	-1.30103
-1.0486093	mã chiếu sáu	-1.30103
-1.0486093	pháo chiếu sáu	-1.30103
-1.0486093	tốt chiếu sáu	-1.30103
-1.043785	giữa chiếu sáu	-2.6232493
-1.0486093	binh chiếu sáu	-1.30103
-1.0486093	chốt chiếu sáu	-1.30103
-0.5961845	<s> tướng năm	-2.4880805
-1.008321	chiếu tướng năm	-4.1112623
-1.2790973	<s> sĩ năm	-2.685699
-1.0091333	ăn sĩ năm	-2.6394866
-1.0091333	bắt sĩ năm	-2.6394866
-1.0448664	sang phải năm	-4.141972
-0.952313	sĩ sau năm	-2.7269988
-1.1552794	tượng sau năm	-2.7269988
-1.1552794	tịnh sau năm	-2.7269988
-1.1552794	bộ sau năm	-2.7269988
-1.1691151	xe sau năm	-3.0170333
-1.1552794	mã sau năm	-2.90309
-1.1691151	pháo sau năm	-3.0170333
-1.1756525	tốt sau năm	-2.60206
-1.1756525	binh sau năm	-2.60206
-1.1756525	chốt sau năm	-2.60206
-0.952313	sĩ trên năm	-2.7269988
-1.1552794	tượng trên năm	-2.7269988
-1.1552794	tịnh trên năm	-2.7269988
-1.1552794	bộ trên năm	-2.7269988
-1.1691151	xe trên năm	-3.0170333
-1.1552794	mã trên năm	-2.90309
-1.1691151	pháo trên năm	-3.0170333
-1.1756525	tốt trên năm	-2.60206
-1.1756525	binh trên năm	-2.60206
-1.1756525	chốt trên năm	-2.60206
-0.952313	sĩ trước năm	-2.7269988
-1.1552794	tượng trước năm	-2.7269988
-1.1552794	tịnh trước năm	-2.7269988
-1.1552794	bộ trước năm	-2.7269988
-1.1691151	xe trước năm	-3.0170333
-1.1552794	mã trước năm	-2.90309
-1.1691151	pháo trước năm	-3.0170333
-1.1756525	tốt trước năm	-2.60206
-1.1756525	binh trước năm	-2.60206
-1.1756525	chốt trước năm	-2.60206
-0.952313	sĩ dưới năm	-2.7269988
-1.1552794	tượng dưới năm	-2.7269988
-1.1552794	tịnh dưới năm	-2.7269988
-1.1552794	bộ dưới năm	-2.7269988
-1.1691151	xe dưới năm	-3.0170333
-1.1552794	mã dưới năm	-2.90309
-1.1691151	pháo dưới năm	-3.0170333
-1.1756525	tốt dưới năm	-2.60206
-1.1756525	binh dưới năm	-2.60206
-1.1756525	chốt dưới năm	-2.60206
-1.0448664	sang trái năm	-4.141972
-1.7524748	<s> tượng năm	-2.685699
-1.2098289	ăn tượng năm	-2.6394866
-1.2098289	bắt tượng năm	-2.6394866
-1.7524748	<s> tịnh năm	-2.685699
-1.2098289	ăn tịnh năm	-2.6394866
-1.2098289	bắt tịnh năm	-2.6394866
-1.7524748	<s> bộ năm	-2.685699
-1.2098289	ăn bộ năm	-2.6394866
-1.2098289	bắt bộ năm	-2.6394866
-1.7168157	<s> xe năm	-3.0247593
-1.2102032	ăn xe năm	-2.6394866
-1.2102032	bắt xe năm	-2.6394866
-1.7200105	<s> mã năm	-2.89747
-1.2098289	ăn mã năm	-2.6394866
-1.2098289	bắt mã năm	-2.6394866
-1.7168157	<s> pháo năm	-3.0247593
-1.2102032	ăn pháo năm	-2.6394866
-1.2102032	bắt pháo năm	-2.6394866
-1.9922998	<s> tốt năm	-2.5109916
-1.2356298	ăn tốt năm	-2.6394866
-1.2356298	bắt tốt năm	-2.6394866
-1.271947	sau giữa năm	-3.0791812
-1.271947	trên giữa năm	-3.0791812
-1.271947	trước giữa năm	-3.0791812
-1.271947	dưới giữa năm	-3.0791812
-1.1823167	tốt giữa năm	-2.60206
-1.1823167	binh giữa năm	-2.60206
-1.1823167	chốt giữa năm	-2.60206
-1.9922998	<s> binh năm	-2.5109916
-1.2356298	ăn binh năm	-2.6394866
-1.2356298	bắt binh năm	-2.6394866
-1.9922998	<s> chốt năm	-2.5109916
-1.2356298	ăn chốt năm	-2.6394866
-1.2356298	bắt chốt năm	-2.6394866
-0.59618866	<s> soái năm	-2.4880805
-1.0939882	bốn tiến năm	-3.4259686
-0.85099787	sĩ tiến năm	-2.1249387
-1.0198742	phải tiến năm	-2.9700367
-1.0198742	sau tiến năm	-2.9700367
-1.0198742	trên tiến năm	-2.9700367
-1.0939882	sáu tiến năm	-3.4259686
-1.2237737	năm tiến năm	-3.1249387
-1.0198742	trước tiến năm	-2.9700367
-1.0198742	dưới tiến năm	-2.9700367
-1.0198742	trái tiến năm	-2.9700367
-1.0635661	tượng tiến năm	-2.1249387
-1.163293	chín tiến năm	-3.1249387
-1.1682564	tám tiến năm	-3.1249387
-1.163293	một tiến năm	-3.1249387
-0.96494174	ba tiến năm	-3.60206
-1.1682564	hai tiến năm	-3.1249387
-0.96494174	bảy tiến năm	-3.60206
-1.0635661	tịnh tiến năm	-2.1249387
-1.0635661	bộ tiến năm	-2.1249387
-1.0155396	xe tiến năm	-2.1249387
-1.0635661	mã tiến năm	-2.1249387
-1.0155396	pháo tiến năm	-2.1249387
-1.0939882	bốn tấn năm	-3.4259686
-0.85099787	sĩ tấn năm	-2.1249387
-1.0198742	phải tấn năm	-2.9700367
-1.0198742	sau tấn năm	-2.9700367
-1.0198742	trên tấn năm	-2.9700367
-1.0939882	sáu tấn năm	-3.4259686
-1.2237737	năm tấn năm	-3.1249387
-1.0198742	trước tấn năm	-2.9700367
-1.0198742	dưới tấn năm	-2.9700367
-1.0198742	trái tấn năm	-2.9700367
-1.0635661	tượng tấn năm	-2.1249387
-1.163293	chín tấn năm	-3.1249387
-1.1682564	tám tấn năm	-3.1249387
-1.163293	một tấn năm	-3.1249387
-0.96494174	ba tấn năm	-3.60206
-1.1682564	hai tấn năm	-3.1249387
-0.96494174	bảy tấn năm	-3.60206
-1.0635661	tịnh tấn năm	-2.1249387
-1.0635661	bộ tấn năm	-2.1249387
-1.0155396	xe tấn năm	-2.1249387
-1.0635661	mã tấn năm	-2.1249387
-1.0155396	pháo tấn năm	-2.1249387
-0.6513281	tướng bình năm	-2.1249387
-0.6894706	bốn bình năm	-3.748188
-0.9519822	phải bình năm	-2.8239088
-0.9519822	sau bình năm	-2.8239088
-0.9519822	trên bình năm	-2.8239088
-0.6894706	sáu bình năm	-3.748188
-0.9519822	trước bình năm	-2.8239088
-0.9519822	dưới bình năm	-2.8239088
-0.9519822	trái bình năm	-2.8239088
-0.9483633	chín bình năm	-3.1249387
-0.980548	tám bình năm	-3.1249387
-0.9483633	một bình năm	-3.1249387
-0.980548	ba bình năm	-3.1249387
-0.980548	hai bình năm	-3.1249387
-0.980548	bảy bình năm	-3.1249387
-0.95048183	xe bình năm	-2.1249387
-0.95048183	pháo bình năm	-2.1249387
-0.95048183	tốt bình năm	-2.1249387
-0.95298535	giữa bình năm	-3.447158
-0.95048183	binh bình năm	-2.1249387
-0.95048183	chốt bình năm	-2.1249387
-0.6513281	soái bình năm	-2.1249387
-1.0335933	bốn thoái năm	-3.4259686
-0.84056926	sĩ thoái năm	-2.1249387
-0.9832345	phải thoái năm	-2.9700367
-0.9832345	sau thoái năm	-2.9700367
-0.9832345	trên thoái năm	-2.9700367
-1.0335933	sáu thoái năm	-3.4259686
-1.1625541	năm thoái năm	-3.1249387
-0.9832345	trước thoái năm	-2.9700367
-0.9832345	dưới thoái năm	-2.9700367
-0.9832345	trái thoái năm	-2.9700367
-1.0466793	tượng thoái năm	-2.1249387
-1.0995452	chín thoái năm	-3.1249387
-1.1052976	tám thoái năm	-3.1249387
-1.0995452	một thoái năm	-3.1249387
-0.9046692	ba thoái năm	-3.60206
-1.1052976	hai thoái năm	-3.1249387
-0.9046692	bảy thoái năm	-3.60206
-1.0466793	tịnh thoái năm	-2.1249387
-1.0466793	bộ thoái năm	-2.1249387
-1.0003902	xe thoái năm	-2.1249387
-1.0466793	mã thoái năm	-2.1249387
-1.0003902	pháo thoái năm	-2.1249387
-1.0335933	bốn lùi năm	-3.4259686
-0.84056926	sĩ lùi năm	-2.1249387
-0.9832345	phải lùi năm	-2.9700367
-0.9832345	sau lùi năm	-2.9700367
-0.9832345	trên lùi năm	-2.9700367
-1.0335933	sáu lùi năm	-3.4259686
-1.1625541	năm lùi năm	-3.1249387
-0.9832345	trước lùi năm	-2.9700367
-0.9832345	dưới lùi năm	-2.9700367
-0.9832345	trái lùi năm	-2.9700367
-1.0466793	tượng lùi năm	-2.1249387
-1.0995452	chín lùi năm	-3.1249387
-1.1052976	tám lùi năm	-3.1249387
-1.0995452	một lùi năm	-3.1249387
-0.9046692	ba lùi năm	-3.60206
-1.1052976	hai lùi năm	-3.1249387
-0.9046692	bảy lùi năm	-3.60206
-1.0466793	tịnh lùi năm	-2.1249387
-1.0466793	bộ lùi năm	-2.1249387
-1.0003902	xe lùi năm	-2.1249387
-1.0466793	mã lùi năm	-2.1249387
-1.0003902	pháo lùi năm	-2.1249387
-1.0428264	bốn chiếu năm	-3.1139433
-1.0486093	sĩ chiếu năm	-1.30103
-1.0435451	phải chiếu năm	-2.30103
-1.0435451	sau chiếu năm	-2.30103
-1.0435451	trên chiếu năm	-2.30103
-1.0428264	sáu chiếu năm	-3.1139433
-1.0428264	năm chiếu năm	-3.1139433
-1.0435451	trước chiếu năm	-2.30103
-1.0435451	dưới chiếu năm	-2.30103
-1.0435451	trái chiếu năm	-2.30103
-1.0486093	tượng chiếu năm	-1.30103
-1.042929	chín chiếu năm	-3.0791812
-1.042929	tám chiếu năm	-3.0791812
-1.042929	một chiếu năm	-3.0791812
-1.042929	ba chiếu năm	-3.0791812
-1.042929	hai chiếu năm	-3.0791812
-1.042929	bảy chiếu năm	-3.0791812
-1.0486093	tịnh chiếu năm	-1.30103
-1.0486093	bộ chiếu năm	-1.30103
-1.0486093	xe chiếu năm	-1.30103
-1.0486093	mã chiếu năm	-1.30103
-1.0486093	pháo chiếu năm	-1.30103
-1.0486093	tốt chiếu năm	-1.30103
-1.043785	giữa chiếu năm	-2.6232493
-1.0486093	binh chiếu năm	-1.30103
-1.0486093	chốt chiếu năm	-1.30103
-0.77199584	<s> sĩ trước	-3.0379043
-1.0119622	ăn sĩ trước	-2.6394866
-1.0119622	bắt sĩ trước	-2.6394866
-0.73248094	<s> tượng trước	-3.346679
-1.214328	ăn tượng trước	-2.6394866
-1.214328	bắt tượng trước	-2.6394866
-0.73248094	<s> tịnh trước	-3.346679
-1.214328	ăn tịnh trước	-2.6394866
-1.214328	bắt tịnh trước	-2.6394866
-0.73248094	<s> bộ trước	-3.346679
-1.214328	ăn bộ trước	-2.6394866
-1.214328	bắt bộ trước	-2.6394866
-0.7162142	<s> xe trước	-3.7243366
-1.2147063	ăn xe trước	-2.6394866
-1.2147063	bắt xe trước	-2.6394866
-0.72422576	<s> mã trước	-3.5342376
-1.214328	ăn mã trước	-2.6394866
-1.214328	bắt mã trước	-2.6394866
-0.7162142	<s> pháo trước	-3.7243366
-1.2147063	ăn pháo trước	-2.6394866
-1.2147063	bắt pháo trước	-2.6394866
-0.72611725	<s> tốt trước	-3.4498262
-1.2404059	ăn tốt trước	-2.8991237
-1.2404059	bắt tốt trước	-2.8991237
-0.72611725	<s> binh trước	-3.4498262
-1.2404059	ăn binh trước	-2.8991237
-1.2404059	bắt binh trước	-2.8991237
-0.72611725	<s> chốt trước	-3.4498262
-1.2404059	ăn chốt trước	-2.8991237
-1.2404059	bắt chốt trước	-2.8991237
-0.77199584	<s> sĩ dưới	-3.0379043
-1.0119622	ăn sĩ dưới	-2.6394866
-1.0119622	bắt sĩ dưới	-2.6394866
-0.73248094	<s> tượng dưới	-3.346679
-1.214328	ăn tượng dưới	-2.6394866
-1.214328	bắt tượng dưới	-2.6394866
-0.73248094	<s> tịnh dưới	-3.346679
-1.214328	ăn tịnh dưới	-2.6394866
-1.214328	bắt tịnh dưới	-2.6394866
-0.73248094	<s> bộ dưới	-3.346679
-1.214328	ăn bộ dưới	-2.6394866
-1.214328	bắt bộ dưới	-2.6394866
-0.7162142	<s> xe dưới	-3.7243366
-1.2147063	ăn xe dưới	-2.6394866
-1.2147063	bắt xe dưới	-2.6394866
-0.72422576	<s> mã dưới	-3.5342376
-1.214328	ăn mã dưới	-2.6394866
-1.214328	bắt mã dưới	-2.6394866
-0.7162142	<s> pháo dưới	-3.7243366
-1.2147063	ăn pháo dưới	-2.6394866
-1.2147063	bắt pháo dưới	-2.6394866
-0.72611725	<s> tốt dưới	-3.4498262
-1.2404059	ăn tốt dưới	-2.8991237
-1.2404059	bắt tốt dưới	-2.8991237
-0.72611725	<s> binh dưới	-3.4498262
-1.2404059	ăn binh dưới	-2.8991237
-1.2404059	bắt binh dưới	-2.8991237
-0.72611725	<s> chốt dưới	-3.4498262
-1.2404059	ăn chốt dưới	-2.8991237
-1.2404059	bắt chốt dưới	-2.8991237
-1.2157366	<s> sĩ trái	-2.7490735
-1.0110172	ăn sĩ trái	-2.6394866
-1.0110172	bắt sĩ trái	-2.6394866
-1.4303176	<s> tượng trái	-3.0078697
-1.2128232	ăn tượng trái	-2.6394866
-1.2128232	bắt tượng trái	-2.6394866
-1.4303176	<s> tịnh trái	-3.0078697
-1.2128232	ăn tịnh trái	-2.6394866
-1.2128232	bắt tịnh trái	-2.6394866
-1.4303176	<s> bộ trái	-3.0078697
-1.2128232	ăn bộ trái	-2.6394866
-1.2128232	bắt bộ trái	-2.6394866
-1.710789	<s> xe trái	-3.0307946
-1.2132001	ăn xe trái	-2.6394866
-1.2132001	bắt xe trái	-2.6394866
-1.5490575	<s> mã trái	-3.0684333
-1.2128232	ăn mã trái	-2.6394866
-1.2128232	bắt mã trái	-2.6394866
-1.710789	<s> pháo trái	-3.0307946
-1.2132001	ăn pháo trái	-2.6394866
-1.2132001	bắt pháo trái	-2.6394866
-1.5919737	<s> tốt trái	-2.9113352
-1.238808	ăn tốt trái	-2.6394866
-1.238808	bắt tốt trái	-2.6394866
-1.5919737	<s> binh trái	-2.9113352
-1.238808	ăn binh trái	-2.6394866
-1.238808	bắt binh trái	-2.6394866
-1.5919737	<s> chốt trái	-2.9113352
-1.238808	ăn chốt trái	-2.6394866
-1.238808	bắt chốt trái	-2.6394866
-1.0504289	bốn tiến trái	-3.1249387
-0.8648077	sĩ tiến trái	-2.1249387
-1.180756	phải tiến trái	-2.4259686
-1.180756	sau tiến trái	-2.4259686
-1.180756	trên tiến trái	-2.4259686
-1.0504289	sáu tiến trái	-3.1249387
-1.0547937	năm tiến trái	-3.0627909
-1.180756	trước tiến trái	-2.4259686
-1.180756	dưới tiến trái	-2.4259686
-1.180756	trái tiến trái	-2.4259686
-1.0863277	tượng tiến trái	-2.1249387
-1.0466083	chín tiến trái	-3.0457575
-1.0515717	tám tiến trái	-3.0457575
-1.0466083	một tiến trái	-3.0457575
-1.070877	ba tiến trái	-3.0457575
-1.0515717	hai tiến trái	-3.0457575
-1.070877	bảy tiến trái	-3.0457575
-1.0863277	tịnh tiến trái	-2.1249387
-1.0863277	bộ tiến trái	-2.1249387
-1.0863277	mã tiến trái	-2.1249387
-1.0504289	bốn tấn trái	-3.1249387
-0.8648077	sĩ tấn trái	-2.1249387
-1.180756	phải tấn trái	-2.4259686
-1.180756	sau tấn trái	-2.4259686
-1.180756	trên tấn trái	-2.4259686
-1.0504289	sáu tấn trái	-3.1249387
-1.0547937	năm tấn trái	-3.0627909
-1.180756	trước tấn trái	-2.4259686
-1.180756	dưới tấn trái	-2.4259686
-1.180756	trái tấn trái	-2.4259686
-1.0863277	tượng tấn trái	-2.1249387
-1.0466083	chín tấn trái	-3.0457575
-1.0515717	tám tấn trái	-3.0457575
-1.0466083	một tấn trái	-3.0457575
-1.070877	ba tấn trái	-3.0457575
-1.0515717	hai tấn trái	-3.0457575
-1.070877	bảy tấn trái	-3.0457575
-1.0863277	tịnh tấn trái	-2.1249387
-1.0863277	bộ tấn trái	-2.1249387
-1.0863277	mã tấn trái	-2.1249387
-0.99085623	bốn thoái trái	-3.1249387
-0.85519326	sĩ thoái trái	-2.1249387
-1.1442943	phải thoái trái	-2.4259686
-1.1442943	sau thoái trái	-2.4259686
-1.1442943	trên thoái trái	-2.4259686
-0.99085623	sáu thoái trái	-3.1249387
-0.9958196	năm thoái trái	-3.0627909
-1.1442943	trước thoái trái	-2.4259686
-1.1442943	dưới thoái trái	-2.4259686
-1.1442943	trái thoái trái	-2.4259686
-1.0704317	tượng thoái trái	-2.1249387
-0.98263466	chín thoái trái	-3.0457575
-0.988387	tám thoái trái	-3.0457575
-0.98263466	một thoái trái	-3.0457575
-1.0106634	ba thoái trái	-3.0457575
-0.988387	hai thoái trái	-3.0457575
-1.0106634	bảy thoái trái	-3.0457575
-1.0704317	tịnh thoái trái	-2.1249387
-1.0704317	bộ thoái trái	-2.1249387
-1.0704317	mã thoái trái	-2.1249387
-0.99085623	bốn lùi trái	-3.1249387
-0.85519326	sĩ lùi trái	-2.1249387
-1.1442943	phải lùi trái	-2.4259686
-1.1442943	sau lùi trái	-2.4259686
-1.1442943	trên lùi trái	-2.4259686
-0.99085623	sáu lùi trái	-3.1249387
-0.9958196	năm lùi trái	-3.0627909
-1.1442943	trước lùi trái	-2.4259686
-1.1442943	dưới lùi trái	-2.4259686
-1.1442943	trái lùi trái	-2.4259686
-1.0704317	tượng lùi trái	-2.1249387
-0.98263466	chín lùi trái	-3.0457575
-0.988387	tám lùi trái	-3.0457575
-0.98263466	một lùi trái	-3.0457575
-1.0106634	ba lùi trái	-3.0457575
-0.988387	hai lùi trái	-3.0457575
-1.0106634	bảy lùi trái	-3.0457575
-1.0704317	tịnh lùi trái	-2.1249387
-1.0704317	bộ lùi trái	-2.1249387
-1.0704317	mã lùi trái	-2.1249387
-0.35027424	tướng sang trái	-2.1249387
-0.34260362	bốn sang trái	-3.2112985
-0.32990175	phải sang trái	-2.447158
-0.32990175	sau sang trái	-2.447158
-0.32990175	trên sang trái	-2.447158
-0.34260362	sáu sang trái	-3.2112985
-0.34260362	năm sang trái	-3.2112985
-0.32990175	trước sang trái	-2.447158
-0.32990175	dưới sang trái	-2.447158
-0.32990175	trái sang trái	-2.447158
-0.3502583	chín sang trái	-3.20412
-0.3502583	tám sang trái	-3.20412
-0.3502583	một sang trái	-3.20412
-0.3502583	ba sang trái	-3.20412
-0.3502583	hai sang trái	-3.20412
-0.3502583	bảy sang trái	-3.20412
-0.35027424	xe sang trái	-2.1249387
-0.35027424	pháo sang trái	-2.1249387
-0.35027424	tốt sang trái	-2.1249387
-0.31683236	giữa sang trái	-3.447158
-0.35027424	binh sang trái	-2.1249387
-0.35027424	chốt sang trái	-2.1249387
-0.35027424	soái sang trái	-2.1249387
-1.0112941	tướng ăn tượng	-0.6368221
-1.0019718	bốn ăn tượng	-2.161867
-1.0112941	sĩ ăn tượng	-0.6368221
-1.0033575	phải ăn tượng	-1.3357921
-1.0033575	sau ăn tượng	-1.3357921
-1.0033575	trên ăn tượng	-1.3357921
-1.0019718	sáu ăn tượng	-2.161867
-1.0019718	năm ăn tượng	-2.161867
-1.0033575	trước ăn tượng	-1.3357921
-1.0033575	dưới ăn tượng	-1.3357921
-1.0033575	trái ăn tượng	-1.3357921
-1.0112941	tượng ăn tượng	-0.6368221
-1.0023956	chín ăn tượng	-2.1139433
-1.0023956	tám ăn tượng	-2.1139433
-1.0023956	một ăn tượng	-2.1139433
-1.0023956	ba ăn tượng	-2.1139433
-1.0023956	hai ăn tượng	-2.1139433
-1.0023956	bảy ăn tượng	-2.1139433
-1.0112941	tịnh ăn tượng	-0.6368221
-1.0112941	bộ ăn tượng	-0.6368221
-1.0112941	xe ăn tượng	-0.6368221
-1.0112941	mã ăn tượng	-0.6368221
-1.0112941	pháo ăn tượng	-0.6368221
-1.0112941	tốt ăn tượng	-0.6368221
-1.0037322	giữa ăn tượng	-1.6580114
-1.0112941	binh ăn tượng	-0.6368221
-1.0112941	chốt ăn tượng	-0.6368221
-1.0112941	soái ăn tượng	-0.6368221
-1.0112941	tướng bắt tượng	-0.6368221
-1.0019718	bốn bắt tượng	-2.161867
-1.0112941	sĩ bắt tượng	-0.6368221
-1.0033575	phải bắt tượng	-1.3357921
-1.0033575	sau bắt tượng	-1.3357921
-1.0033575	trên bắt tượng	-1.3357921
-1.0019718	sáu bắt tượng	-2.161867
-1.0019718	năm bắt tượng	-2.161867
-1.0033575	trước bắt tượng	-1.3357921
-1.0033575	dưới bắt tượng	-1.3357921
-1.0033575	trái bắt tượng	-1.3357921
-1.0112941	tượng bắt tượng	-0.6368221
-1.0023956	chín bắt tượng	-2.1139433
-1.0023956	tám bắt tượng	-2.1139433
-1.0023956	một bắt tượng	-2.1139433
-1.0023956	ba bắt tượng	-2.1139433
-1.0023956	hai bắt tượng	-2.1139433
-1.0023956	bảy bắt tượng	-2.1139433
-1.0112941	tịnh bắt tượng	-0.6368221
-1.0112941	bộ bắt tượng	-0.6368221
-1.0112941	xe bắt tượng	-0.6368221
-1.0112941	mã bắt tượng	-0.6368221
-1.0112941	pháo bắt tượng	-0.6368221
-1.0112941	tốt bắt tượng	-0.6368221
-1.0037322	giữa bắt tượng	-1.6580114
-1.0112941	binh bắt tượng	-0.6368221
-1.0112941	chốt bắt tượng	-0.6368221
-1.0112941	soái bắt tượng	-0.6368221
-1.014855	chiếu tướng chín	-4.1112623
-1.0451437	sang phải chín	-4.141972
-1.1756294	tượng sau chín	-2.6690068
-1.1756294	tịnh sau chín	-2.6690068
-1.1756294	bộ sau chín	-2.6690068
-1.1901399	xe sau chín	-3.0170333
-1.1756294	mã sau chín	-2.8239088
-1.1901399	pháo sau chín	-3.0170333
-1.1970042	tốt sau chín	-2.5835767
-1.1970042	binh sau chín	-2.5835767
-1.1970042	chốt sau chín	-2.5835767
-1.1756294	tượng trên chín	-2.6690068
-1.1756294	tịnh trên chín	-2.6690068
-1.1756294	bộ trên chín	-2.6690068
-1.1901399	xe trên chín	-3.0170333
-1.1756294	mã trên chín	-2.8239088
-1.1901399	pháo trên chín	-3.0170333
-1.1970042	tốt trên chín	-2.5835767
-1.1970042	binh trên chín	-2.5835767
-1.1970042	chốt trên chín	-2.5835767
-1.1756294	tượng trước chín	-2.6690068
-1.1756294	tịnh trước chín	-2.6690068
-1.1756294	bộ trước chín	-2.6690068
-1.1901399	xe trước chín	-3.0170333
-1.1756294	mã trước chín	-2.8239088
-1.1901399	pháo trước chín	-3.0170333
-1.1970042	tốt trước chín	-2.5835767
-1.1970042	binh trước chín	-2.5835767
-1.1970042	chốt trước chín	-2.5835767
-1.1756294	tượng dưới chín	-2.6690068
-1.1756294	tịnh dưới chín	-2.6690068
-1.1756294	bộ dưới chín	-2.6690068
-1.1901399	xe dưới chín	-3.0170333
-1.1756294	mã dưới chín	-2.8239088
-1.1901399	pháo dưới chín	-3.0170333
-1.1970042	tốt dưới chín	-2.5835767
-1.1970042	binh dưới chín	-2.5835767
-1.1970042	chốt dưới chín	-2.5835767
-1.0451437	sang trái chín	-4.141972
-1.8267078	<s> tượng chín	-2.6114705
-1.210426	ăn tượng chín	-2.6394866
-1.210426	bắt tượng chín	-2.6394866
-1.8267078	<s> tịnh chín	-2.6114705
-1.210426	ăn tịnh chín	-2.6394866
-1.210426	bắt tịnh chín	-2.6394866
-1.8267078	<s> bộ chín	-2.6114705
-1.210426	ăn bộ chín	-2.6394866
-1.210426	bắt bộ chín	-2.6394866
-1.7168174	<s> xe chín	-3.0247593
-1.2108009	ăn xe chín	-2.6394866
-1.2108009	bắt xe chín	-2.6394866
-1.8131166	<s> mã chín	-2.8043666
-1.210426	ăn mã chín	-2.6394866
-1.210426	bắt mã chín	-2.6394866
-1.7168174	<s> pháo chín	-3.0247593
-1.2108009	ăn pháo chín	-2.6394866
-1.2108009	bắt pháo chín	-2.6394866
-2.0152168	<s> tốt chín	-2.4880805
-1.2362635	ăn tốt chín	-2.6394866
-1.2362635	bắt tốt chín	-2.6394866
-1.2743818	sau giữa chín	-3.0606978
-1.2743818	trên giữa chín	-3.0606978
-1.2743818	trước giữa chín	-3.0606978
-1.2743818	dưới giữa chín	-3.0606978
-1.1842964	tốt giữa chín	-2.5835767
-1.1842964	binh giữa chín	-2.5835767
-1.1842964	chốt giữa chín	-2.5835767
-2.0152168	<s> binh chín	-2.4880805
-1.2362635	ăn binh chín	-2.6394866
-1.2362635	bắt binh chín	-2.6394866
-2.0152168	<s> chốt chín	-2.4880805
-1.2362635	ăn chốt chín	-2.6394866
-1.2362635	bắt chốt chín	-2.6394866
-1.2247826	bốn tiến chín	-3.1249387
-1.0924703	phải tiến chín	-2.90309
-1.0924703	sau tiến chín	-2.90309
-1.0924703	trên tiến chín	-2.90309
-1.2247826	sáu tiến chín	-3.1249387
-1.2291474	năm tiến chín	-3.1249387
-1.0924703	trước tiến chín	-2.90309
-1.0924703	dưới tiến chín	-2.90309
-1.0924703	trái tiến chín	-2.90309
-1.0739475	tượng tiến chín	-2.1249387
-1.1686667	chín tiến chín	-3.1249387
-1.1056331	tám tiến chín	-3.30103
-1.1686667	một tiến chín	-3.1249387
-1.1929352	ba tiến chín	-3.1249387
-1.1736301	hai tiến chín	-3.1249387
-0.9681523	bảy tiến chín	-3.60206
-1.0739475	tịnh tiến chín	-2.1249387
-1.0739475	bộ tiến chín	-2.1249387
-1.0248226	xe tiến chín	-2.1249387
-1.0739475	mã tiến chín	-2.1249387
-1.0248226	pháo tiến chín	-2.1249387
-1.2247826	bốn tấn chín	-3.1249387
-1.0924703	phải tấn chín	-2.90309
-1.0924703	sau tấn chín	-2.90309
-1.0924703	trên tấn chín	-2.90309
-1.2247826	sáu tấn chín	-3.1249387
-1.2291474	năm tấn chín	-3.1249387
-1.0924703	trước tấn chín	-2.90309
-1.0924703	dưới tấn chín	-2.90309
-1.0924703	trái tấn chín	-2.90309
-1.0739475	tượng tấn chín	-2.1249387
-1.1686667	chín tấn chín	-3.1249387
-1.1056331	tám tấn chín	-3.30103
-1.1686667	một tấn chín	-3.1249387
-1.1929352	ba tấn chín	-3.1249387
-1.1736301	hai tấn chín	-3.1249387
-0.9681523	bảy tấn chín	-3.60206
-1.0739475	tịnh tấn chín	-2.1249387
-1.0739475	bộ tấn chín	-2.1249387
-1.0248226	xe tấn chín	-2.1249387
-1.0739475	mã tấn chín	-2.1249387
-1.0248226	pháo tấn chín	-2.1249387
-1.0056725	bốn bình chín	-3.1249387
-0.9649859	phải bình chín	-2.8239088
-0.9649859	sau bình chín	-2.8239088
-0.9649859	trên bình chín	-2.8239088
-1.0056725	sáu bình chín	-3.1249387
-1.0203958	năm bình chín	-3.1249387
-0.9649859	trước bình chín	-2.8239088
-0.9649859	dưới bình chín	-2.8239088
-0.9649859	trái bình chín	-2.8239088
-0.7603102	tám bình chín	-3.7269988
-0.95824784	một bình chín	-3.1249387
-0.9904325	ba bình chín	-3.1249387
-0.9904325	hai bình chín	-3.1249387
-0.9904325	bảy bình chín	-3.1249387
-0.97229886	xe bình chín	-2.1249387
-0.97229886	pháo bình chín	-2.1249387
-0.97229886	tốt bình chín	-2.1249387
-0.96017826	giữa bình chín	-3.447158
-0.97229886	binh bình chín	-2.1249387
-0.97229886	chốt bình chín	-2.1249387
-1.1631799	bốn thoái chín	-3.1249387
-1.0559055	phải thoái chín	-2.90309
-1.0559055	sau thoái chín	-2.90309
-1.0559055	trên thoái chín	-2.90309
-1.1631799	sáu thoái chín	-3.1249387
-1.1681434	năm thoái chín	-3.1249387
-1.0559055	trước thoái chín	-2.90309
-1.0559055	dưới thoái chín	-2.90309
-1.0559055	trái thoái chín	-2.90309
-1.057506	tượng thoái chín	-2.1249387
-1.1048919	chín thoái chín	-3.1249387
-1.0425482	tám thoái chín	-3.30103
-1.1048919	một thoái chín	-3.1249387
-1.1329206	ba thoái chín	-3.1249387
-1.1106442	hai thoái chín	-3.1249387
-0.9078615	bảy thoái chín	-3.60206
-1.057506	tịnh thoái chín	-2.1249387
-1.057506	bộ thoái chín	-2.1249387
-1.0101099	xe thoái chín	-2.1249387
-1.057506	mã thoái chín	-2.1249387
-1.0101099	pháo thoái chín	-2.1249387
-1.1631799	bốn lùi chín	-3.1249387
-1.0559055	phải lùi chín	-2.90309
-1.0559055	sau lùi chín	-2.90309
-1.0559055	trên lùi chín	-2.90309
-1.1631799	sáu lùi chín	-3.1249387
-1.1681434	năm lùi chín	-3.1249387
-1.0559055	trước lùi chín	-2.90309
-1.0559055	dưới lùi chín	-2.90309
-1.0559055	trái lùi chín	-2.90309
-1.057506	tượng lùi chín	-2.1249387
-1.1048919	chín lùi chín	-3.1249387
-1.0425482	tám lùi chín	-3.30103
-1.1048919	một lùi chín	-3.1249387
-1.1329206	ba lùi chín	-3.1249387
-1.1106442	hai lùi chín	-3.1249387
-0.9078615	bảy lùi chín	-3.60206
-1.057506	tịnh lùi chín	-2.1249387
-1.057506	bộ lùi chín	-2.1249387
-1.0101099	xe lùi chín	-2.1249387
-1.057506	mã lùi chín	-2.1249387
-1.0101099	pháo lùi chín	-2.1249387
-1.042914	bốn chiếu chín	-3.1139433
-1.049053	sĩ chiếu chín	-1.30103
-1.0436766	phải chiếu chín	-2.30103
-1.0436766	sau chiếu chín	-2.30103
-1.0436766	trên chiếu chín	-2.30103
-1.042914	sáu chiếu chín	-3.1139433
-1.042914	năm chiếu chín	-3.1139433
-1.0436766	trước chiếu chín	-2.30103
-1.0436766	dưới chiếu chín	-2.30103
-1.0436766	trái chiếu chín	-2.30103
-1.049053	tượng chiếu chín	-1.30103
-1.0430229	chín chiếu chín	-3.0791812
-1.0430229	tám chiếu chín	-3.0791812
-1.0430229	một chiếu chín	-3.0791812
-1.0430229	ba chiếu chín	-3.0791812
-1.0430229	hai chiếu chín	-3.0791812
-1.0430229	bảy chiếu chín	-3.0791812
-1.049053	tịnh chiếu chín	-1.30103
-1.049053	bộ chiếu chín	-1.30103
-1.049053	xe chiếu chín	-1.30103
-1.049053	mã chiếu chín	-1.30103
-1.049053	pháo chiếu chín	-1.30103
-1.049053	tốt chiếu chín	-1.30103
-1.0439311	giữa chiếu chín	-2.6232493
-1.049053	binh chiếu chín	-1.30103
-1.049053	chốt chiếu chín	-1.30103
-1.014855	chiếu tướng tám	-4.1112623
-1.0451437	sang phải tám	-4.141972
-1.1756294	tượng sau tám	-2.6690068
-1.1756294	tịnh sau tám	-2.6690068
-1.1756294	bộ sau tám	-2.6690068
-1.1901399	xe sau tám	-3.0170333
-1.1756294	mã sau tám	-2.8653014
-1.1901399	pháo sau tám	-3.0170333
-1.1970042	tốt sau tám	-2.60206
-1.1970042	binh sau tám	-2.60206
-1.1970042	chốt sau tám	-2.60206
-1.1756294	tượng trên tám	-2.6690068
-1.1756294	tịnh trên tám	-2.6690068
-1.1756294	bộ trên tám	-2.6690068
-1.1901399	xe trên tám	-3.0170333
-1.1756294	mã trên tám	-2.8653014
-1.1901399	pháo trên tám	-3.0170333
-1.1970042	tốt trên tám	-2.60206
-1.1970042	binh trên tám	-2.60206
-1.1970042	chốt trên tám	-2.60206
-1.1756294	tượng trước tám	-2.6690068
-1.1756294	tịnh trước tám	-2.6690068
-1.1756294	bộ trước tám	-2.6690068
-1.1901399	xe trước tám	-3.0170333
-1.1756294	mã trước tám	-2.8653014
-1.1901399	pháo trước tám	-3.0170333
-1.1970042	tốt trước tám	-2.60206
-1.1970042	binh trước tám	-2.60206
-1.1970042	chốt trước tám	-2.60206
-1.1756294	tượng dưới tám	-2.6690068
-1.1756294	tịnh dưới tám	-2.6690068
-1.1756294	bộ dưới tám	-2.6690068
-1.1901399	xe dưới tám	-3.0170333
-1.1756294	mã dưới tám	-2.8653014
-1.1901399	pháo dưới tám	-3.0170333
-1.1970042	tốt dưới tám	-2.60206
-1.1970042	binh dưới tám	-2.60206
-1.1970042	chốt dưới tám	-2.60206
-1.0451437	sang trái tám	-4.141972
-1.8267078	<s> tượng tám	-2.6114705
-1.210426	ăn tượng tám	-2.6394866
-1.210426	bắt tượng tám	-2.6394866
-1.8267078	<s> tịnh tám	-2.6114705
-1.210426	ăn tịnh tám	-2.6394866
-1.210426	bắt tịnh tám	-2.6394866
-1.8267078	<s> bộ tám	-2.6114705
-1.210426	ăn bộ tám	-2.6394866
-1.210426	bắt bộ tám	-2.6394866
-1.7168174	<s> xe tám	-3.0247593
-1.2108009	ăn xe tám	-2.6394866
-1.2108009	bắt xe tám	-2.6394866
-1.7640747	<s> mã tám	-2.8534083
-1.210426	ăn mã tám	-2.6394866
-1.210426	bắt mã tám	-2.6394866
-1.7168174	<s> pháo tám	-3.0247593
-1.2108009	ăn pháo tám	-2.6394866
-1.2108009	bắt pháo tám	-2.6394866
-1.9923059	<s> tốt tám	-2.5109916
-1.2362635	ăn tốt tám	-2.6394866
-1.2362635	bắt tốt tám	-2.6394866
-1.2743818	sau giữa tám	-3.0791812
-1.2743818	trên giữa tám	-3.0791812
-1.2743818	trước giữa tám	-3.0791812
-1.2743818	dưới giữa tám	-3.0791812
-1.1842964	tốt giữa tám	-2.60206
-1.1842964	binh giữa tám	-2.60206
-1.1842964	chốt giữa tám	-2.60206
-1.9923059	<s> binh tám	-2.5109916
-1.2362635	ăn binh tám	-2.6394866
-1.2362635	bắt binh tám	-2.6394866
-1.9923059	<s> chốt tám	-2.5109916
-1.2362635	ăn chốt tám	-2.6394866
-1.2362635	bắt chốt tám	-2.6394866
-1.2247826	bốn tiến tám	-3.1249387
-1.0924703	phải tiến tám	-2.90309
-1.0924703	sau tiến tám	-2.90309
-1.0924703	trên tiến tám	-2.90309
-0.99999964	sáu tiến tám	-3.60206
-1.2291474	năm tiến tám	-3.1249387
-1.0924703	trước tiến tám	-2.90309
-1.0924703	dưới tiến tám	-2.90309
-1.0924703	trái tiến tám	-2.90309
-1.0739475	tượng tiến tám	-2.1249387
-1.1006696	chín tiến tám	-3.30103
-1.1736301	tám tiến tám	-3.1249387
-1.1686667	một tiến tám	-3.1249387
-1.1929352	ba tiến tám	-3.1249387
-1.1736301	hai tiến tám	-3.1249387
-1.1249382	bảy tiến tám	-3.30103
-1.0739475	tịnh tiến tám	-2.1249387
-1.0739475	bộ tiến tám	-2.1249387
-1.0248226	xe tiến tám	-2.1249387
-1.0739475	mã tiến tám	-2.1249387
-1.0248226	pháo tiến tám	-2.1249387
-1.2247826	bốn tấn tám	-3.1249387
-1.0924703	phải tấn tám	-2.90309
-1.0924703	sau tấn tám	-2.90309
-1.0924703	trên tấn tám	-2.90309
-0.99999964	sáu tấn tám	-3.60206
-1.2291474	năm tấn tám	-3.1249387
-1.0924703	trước tấn tám	-2.90309
-1.0924703	dưới tấn tám	-2.90309
-1.0924703	trái tấn tám	-2.90309
-1.0739475	tượng tấn tám	-2.1249387
-1.1006696	chín tấn tám	-3.30103
-1.1736301	tám tấn tám	-3.1249387
-1.1686667	một tấn tám	-3.1249387
-1.1929352	ba tấn tám	-3.1249387
-1.1736301	hai tấn tám	-3.1249387
-1.1249382	bảy tấn tám	-3.30103
-1.0739475	tịnh tấn tám	-2.1249387
-1.0739475	bộ tấn tám	-2.1249387
-1.0248226	xe tấn tám	-2.1249387
-1.0739475	mã tấn tám	-2.1249387
-1.0248226	pháo tấn tám	-2.1249387
-1.0056725	bốn bình tám	-3.1249387
-0.9649859	phải bình tám	-2.8239088
-0.9649859	sau bình tám	-2.8239088
-0.9649859	trên bình tám	-2.8239088
-1.0056725	sáu bình tám	-3.1249387
-1.0203958	năm bình tám	-3.1249387
-0.9649859	trước bình tám	-2.8239088
-0.9649859	dưới bình tám	-2.8239088
-0.9649859	trái bình tám	-2.8239088
-0.7281255	chín bình tám	-3.7269988
-0.95824784	một bình tám	-3.1249387
-0.9904325	ba bình tám	-3.1249387
-0.9904325	hai bình tám	-3.1249387
-0.7603102	bảy bình tám	-3.7269988
-0.97229886	xe bình tám	-2.1249387
-0.97229886	pháo bình tám	-2.1249387
-0.97229886	tốt bình tám	-2.1249387
-0.96017826	giữa bình tám	-3.447158
-0.97229886	binh bình tám	-2.1249387
-0.97229886	chốt bình tám	-2.1249387
-1.1631799	bốn thoái tám	-3.1249387
-1.0559055	phải thoái tám	-2.90309
-1.0559055	sau thoái tám	-2.90309
-1.0559055	trên thoái tám	-2.90309
-0.9406055	sáu thoái tám	-3.60206
-1.1681434	năm thoái tám	-3.1249387
-1.0559055	trước thoái tám	-2.90309
-1.0559055	dưới thoái tám	-2.90309
-1.0559055	trái thoái tám	-2.90309
-1.057506	tượng thoái tám	-2.1249387
-1.0367959	chín thoái tám	-3.30103
-1.1106442	tám thoái tám	-3.1249387
-1.1048919	một thoái tám	-3.1249387
-1.1329206	ba thoái tám	-3.1249387
-1.1106442	hai thoái tám	-3.1249387
-1.0648246	bảy thoái tám	-3.30103
-1.057506	tịnh thoái tám	-2.1249387
-1.057506	bộ thoái tám	-2.1249387
-1.0101099	xe thoái tám	-2.1249387
-1.057506	mã thoái tám	-2.1249387
-1.0101099	pháo thoái tám	-2.1249387
-1.1631799	bốn lùi tám	-3.1249387
-1.0559055	phải lùi tám	-2.90309
