\data\
ngram 1=62
ngram 2=576
ngram 3=4313
ngram 4=25412

\1-grams:
-2.7069032	<unk>	0
0	<s>	-4.9437594
-1.1965721	</s>	0
-2.431809	tướng	-0.30103
-1.4253429	năm	-0.95277774
-1.3190236	ăn	-1.2710668
-2.3402772	sĩ	-0.30103
-1.3190236	bắt	-1.2710668
-1.7767445	trước	-0.7652632
-1.4253429	bốn	-0.95277774
-1.7767445	sau	-0.7652632
-1.7767445	trái	-0.7377226
-1.7767445	trên	-0.7652632
-1.7767445	dưới	-0.7652632
-1.4253429	sáu	-0.95277774
-1.7767445	phải	-0.7377226
-2.3402772	tượng	-0.30103
-1.4674768	bảy	-0.8828866
-1.4674768	một	-0.8828866
-1.4674768	ba	-0.8828866
-1.4674768	hai	-0.8828866
-1.4674768	tám	-0.8828866
-1.4674768	chín	-0.8828866
-2.3402772	tịnh	-0.30103
-2.3402772	bộ	-0.30103
-2.3402772	xe	-0.30103
-2.3402772	mã	-0.30103
-2.3402772	pháo	-0.30103
-2.3402772	tốt	-0.30103
-1.8243539	giữa	-0.7201593
-2.3402772	binh	-0.30103
-2.3402772	chốt	-0.30103
-2.5479293	soái	-0.30103
-1.3190236	tiến	-1.1663314
-1.3190236	tấn	-1.1663314
-1.405716	bình	-1.1391792
-1.3869376	thoái	-1.157468
-1.3869376	lùi	-1.157468
-1.8243539	qua	-0.7781512
-2.431809	sông	-0.30103
-1.8243539	sang	-0.7781512
-2.5479293	chấp	-0.30103
-2.431809	nhận	-0.30103
-2.5479293	xác	-0.30103
-2.5479293	đồng	-0.30103
-2.5479293	ý	-0.30103
-2.5479293	ô	-0.30103
-2.5479293	kê	-0.30103
-2.5479293	hủy	-0.30103
-2.5479293	bỏ	-0.30103
-2.5479293	từ	-0.30103
-2.5479293	chối	-0.30103
-2.5479293	đầu	-0.30103
-2.5479293	hàng	-0.30103
-2.5479293	xin	-0.30103
-2.5479293	hòa	-0.30103
-2.5479293	đổi	-0.30103
-2.5479293	phe	-0.30103
-2.5479293	chơi	-0.30103
-2.431809	lại	-0.30103
-2.5479293	đi	-0.30103
-1.3516544	chiếu	-1.2388821

\2-grams:
-1.2456679	tướng </s>	0
-0.8574641	năm </s>	0
-1.2249312	sĩ </s>	0
-1.206745	trước </s>	0
-0.8574641	bốn </s>	0
-1.206745	sau </s>	0
-0.9382012	trái </s>	0
-1.206745	trên </s>	0
-1.206745	dưới </s>	0
-0.8574641	sáu </s>	0
-0.9382012	phải </s>	0
-1.2982905	tượng </s>	0
-0.8092387	bảy </s>	0
-0.8092387	một </s>	0
-0.8092387	ba </s>	0
-0.8092387	hai </s>	0
-0.8092387	tám </s>	0
-0.8092387	chín </s>	0
-1.2982905	tịnh </s>	0
-1.2982905	bộ </s>	0
-1.3012065	xe </s>	0
-1.2982905	mã </s>	0
-1.3012065	pháo </s>	0
-1.3040369	tốt </s>	0
-1.1448609	giữa </s>	0
-1.3040369	binh </s>	0
-1.3040369	chốt </s>	0
-0.2742534	sông </s>	0
-0.2742534	nhận </s>	0
-0.2742534	ý </s>	0
-0.2742534	kê </s>	0
-0.2742534	bỏ </s>	0
-0.2742534	chối </s>	0
-0.2742534	hàng </s>	0
-0.2742534	hòa </s>	0
-0.2742534	phe </s>	0
-0.2742534	lại </s>	0
-2.472529	<s> tướng	-2.8137145
-0.025708895	chiếu tướng	-1.2388821
-1.1625565	tướng năm	-0.30103
-1.2186489	sĩ năm	-0.30103
-1.239183	trước năm	-0.7447275
-1.239183	sau năm	-0.7447275
-1.239183	trên năm	-0.7447275
-1.239183	dưới năm	-0.7447275
-1.3320354	tượng năm	-0.30103
-1.3320354	tịnh năm	-0.30103
-1.3320354	bộ năm	-0.30103
-1.3367726	xe năm	-0.30103
-1.3320354	mã năm	-0.30103
-1.3367726	pháo năm	-0.30103
-1.34139	tốt năm	-0.30103
-1.2941025	giữa năm	-0.66900676
-1.34139	binh năm	-0.30103
-1.34139	chốt năm	-0.30103
-1.1625565	soái năm	-0.30103
-0.9743016	tiến năm	-1.1663314
-0.9743016	tấn năm	-1.1663314
-0.94714934	bình năm	-1.1663314
-0.9654381	thoái năm	-1.1663314
-0.9654381	lùi năm	-1.1663314
-1.3099337	tướng ăn	-0.30103
-0.95830023	năm ăn	-1.0543576
-1.4216559	sĩ ăn	-0.30103
-1.2259157	trước ăn	-0.8239087
-0.95830023	bốn ăn	-1.0543576
-1.2259157	sau ăn	-0.8239087
-0.9491036	trái ăn	-0.8239087
-1.2259157	trên ăn	-0.8239087
-1.2259157	dưới ăn	-0.8239087
-0.95830023	sáu ăn	-1.0543576
-0.9491036	phải ăn	-0.8239087
-1.4782785	tượng ăn	-0.30103
-0.976796	bảy ăn	-0.97003675
-0.976796	một ăn	-0.97003675
-0.976796	ba ăn	-0.97003675
-0.976796	hai ăn	-0.97003675
-0.976796	tám ăn	-0.97003675
-0.976796	chín ăn	-0.97003675
-1.4782785	tịnh ăn	-0.30103
-1.4782785	bộ ăn	-0.30103
-1.4804833	xe ăn	-0.30103
-1.4782785	mã ăn	-0.30103
-1.4804833	pháo ăn	-0.30103
-1.4826201	tốt ăn	-0.30103
-1.1632893	giữa ăn	-0.7781512
-1.4826201	binh ăn	-0.30103
-1.4826201	chốt ăn	-0.30103
-1.1308541	soái ăn	-0.30103
-1.6739448	<s> sĩ	-3.4081268
-1.0227907	ăn sĩ	-1.2710668
-1.0227907	bắt sĩ	-1.2710668
-1.3099337	tướng bắt	-0.30103
-0.95830023	năm bắt	-1.0543576
-1.4216559	sĩ bắt	-0.30103
-1.2259157	trước bắt	-0.8239087
-0.95830023	bốn bắt	-1.0543576
-1.2259157	sau bắt	-0.8239087
-0.9491036	trái bắt	-0.8239087
-1.2259157	trên bắt	-0.8239087
-1.2259157	dưới bắt	-0.8239087
-0.95830023	sáu bắt	-1.0543576
-0.9491036	phải bắt	-0.8239087
-1.4782785	tượng bắt	-0.30103
-0.976796	bảy bắt	-0.97003675
-0.976796	một bắt	-0.97003675
-0.976796	ba bắt	-0.97003675
-0.976796	hai bắt	-0.97003675
-0.976796	tám bắt	-0.97003675
-0.976796	chín bắt	-0.97003675
-1.4782785	tịnh bắt	-0.30103
-1.4782785	bộ bắt	-0.30103
-1.4804833	xe bắt	-0.30103
-1.4782785	mã bắt	-0.30103
-1.4804833	pháo bắt	-0.30103
-1.4826201	tốt bắt	-0.30103
-1.1632893	giữa bắt	-0.7781512
-1.4826201	binh bắt	-0.30103
-1.4826201	chốt bắt	-0.30103
-1.1308541	soái bắt	-0.30103
-1.3007952	sĩ trước	-0.30103
-1.4420341	tượng trước	-0.30103
-1.4420341	tịnh trước	-0.30103
-1.4420341	bộ trước	-0.30103
-1.4481465	xe trước	-0.30103
-1.4420341	mã trước	-0.30103
-1.4481465	pháo trước	-0.30103
-1.454123	tốt trước	-0.30103
-1.454123	binh trước	-0.30103
-1.454123	chốt trước	-0.30103
-1.1625565	tướng bốn	-0.30103
-1.2186489	sĩ bốn	-0.30103
-1.239183	trước bốn	-0.76729333
-1.239183	sau bốn	-0.76729333
-1.239183	trên bốn	-0.76729333
-1.239183	dưới bốn	-0.76729333
-1.3320354	tượng bốn	-0.30103
-1.3320354	tịnh bốn	-0.30103
-1.3320354	bộ bốn	-0.30103
-1.3367726	xe bốn	-0.30103
-1.3320354	mã bốn	-0.30103
-1.3367726	pháo bốn	-0.30103
-1.34139	tốt bốn	-0.30103
-1.2941025	giữa bốn	-0.66900676
-1.34139	binh bốn	-0.30103
-1.34139	chốt bốn	-0.30103
-1.1625565	soái bốn	-0.30103
-0.9743016	tiến bốn	-1.1663314
-0.9743016	tấn bốn	-1.1663314
-0.94714934	bình bốn	-1.1663314
-0.9654381	thoái bốn	-1.1663314
-0.9654381	lùi bốn	-1.1663314
-1.3007952	sĩ sau	-0.30103
-1.4420341	tượng sau	-0.30103
-1.4420341	tịnh sau	-0.30103
-1.4420341	bộ sau	-0.30103
-1.4481465	xe sau	-0.30103
-1.4420341	mã sau	-0.30103
-1.4481465	pháo sau	-0.30103
-1.454123	tốt sau	-0.30103
-1.454123	binh sau	-0.30103
-1.454123	chốt sau	-0.30103
-1.3007952	sĩ trái	-0.30103
-1.4420341	tượng trái	-0.30103
-1.4420341	tịnh trái	-0.30103
-1.4420341	bộ trái	-0.30103
-1.4481465	xe trái	-0.30103
-1.4420341	mã trái	-0.30103
-1.4481465	pháo trái	-0.30103
-1.454123	tốt trái	-0.30103
-1.454123	binh trái	-0.30103
-1.454123	chốt trái	-0.30103
-1.3007952	sĩ trên	-0.30103
-1.4420341	tượng trên	-0.30103
-1.4420341	tịnh trên	-0.30103
-1.4420341	bộ trên	-0.30103
-1.4481465	xe trên	-0.30103
-1.4420341	mã trên	-0.30103
-1.4481465	pháo trên	-0.30103
-1.454123	tốt trên	-0.30103
-1.454123	binh trên	-0.30103
-1.454123	chốt trên	-0.30103
-1.3007952	sĩ dưới	-0.30103
-1.4420341	tượng dưới	-0.30103
-1.4420341	tịnh dưới	-0.30103
-1.4420341	bộ dưới	-0.30103
-1.4481465	xe dưới	-0.30103
-1.4420341	mã dưới	-0.30103
-1.4481465	pháo dưới	-0.30103
-1.454123	tốt dưới	-0.30103
-1.454123	binh dưới	-0.30103
-1.454123	chốt dưới	-0.30103
-1.1625565	tướng sáu	-0.30103
-1.2186489	sĩ sáu	-0.30103
-1.239183	trước sáu	-0.76729333
-1.239183	sau sáu	-0.76729333
-1.239183	trên sáu	-0.76729333
-1.239183	dưới sáu	-0.76729333
-1.3320354	tượng sáu	-0.30103
-1.3320354	tịnh sáu	-0.30103
-1.3320354	bộ sáu	-0.30103
-1.3367726	xe sáu	-0.30103
-1.3320354	mã sáu	-0.30103
-1.3367726	pháo sáu	-0.30103
-1.34139	tốt sáu	-0.30103
-1.2941025	giữa sáu	-0.66900676
-1.34139	binh sáu	-0.30103
-1.34139	chốt sáu	-0.30103
-1.1625565	soái sáu	-0.30103
-0.9743016	tiến sáu	-1.1663314
-0.9743016	tấn sáu	-1.1663314
-0.94714934	bình sáu	-1.1663314
-0.9654381	thoái sáu	-1.1663314
-0.9654381	lùi sáu	-1.1663314
-1.3007952	sĩ phải	-0.30103
-1.4420341	tượng phải	-0.30103
-1.4420341	tịnh phải	-0.30103
-1.4420341	bộ phải	-0.30103
-1.4481465	xe phải	-0.30103
-1.4420341	mã phải	-0.30103
-1.4481465	pháo phải	-0.30103
-1.454123	tốt phải	-0.30103
-1.454123	binh phải	-0.30103
-1.454123	chốt phải	-0.30103
-1.1853921	<s> tượng	-3.7583704
-1.0227907	ăn tượng	-1.2710668
-1.0227907	bắt tượng	-1.2710668
-1.3763278	tướng bảy	-0.30103
-1.2921563	trước bảy	-0.72092456
-1.2921563	sau bảy	-0.72092456
-1.2921563	trên bảy	-0.72092456
-1.2921563	dưới bảy	-0.72092456
-1.3485407	tượng bảy	-0.30103
-1.3485407	tịnh bảy	-0.30103
-1.3485407	bộ bảy	-0.30103
-1.3534625	xe bảy	-0.30103
-1.3485407	mã bảy	-0.30103
-1.3534625	pháo bảy	-0.30103
-1.3582618	tốt bảy	-0.30103
-1.2997934	giữa bảy	-0.66900676
-1.3582618	binh bảy	-0.30103
-1.3582618	chốt bảy	-0.30103
-0.99650234	tiến bảy	-1.146128
-0.99650234	tấn bảy	-1.146128
-0.9916722	bình bảy	-1.1249387
-0.9876389	thoái bảy	-1.146128
-0.9876389	lùi bảy	-1.146128
-1.3763278	tướng một	-0.30103
-1.2921563	trước một	-0.72092456
-1.2921563	sau một	-0.72092456
-1.2921563	trên một	-0.72092456
-1.2921563	dưới một	-0.72092456
-1.3485407	tượng một	-0.30103
-1.3485407	tịnh một	-0.30103
-1.3485407	bộ một	-0.30103
-1.3534625	xe một	-0.30103
-1.3485407	mã một	-0.30103
-1.3534625	pháo một	-0.30103
-1.3582618	tốt một	-0.30103
-1.2997934	giữa một	-0.66900676
-1.3582618	binh một	-0.30103
-1.3582618	chốt một	-0.30103
-0.8823588	tiến một	-1.2552725
-0.8823588	tấn một	-1.2552725
-0.9916722	bình một	-1.1249387
-0.9461673	thoái một	-1.1856365
-0.9461673	lùi một	-1.1856365
-1.3763278	tướng ba	-0.30103
-1.2921563	trước ba	-0.72092456
-1.2921563	sau ba	-0.72092456
-1.2921563	trên ba	-0.72092456
-1.2921563	dưới ba	-0.72092456
-1.3485407	tượng ba	-0.30103
-1.3485407	tịnh ba	-0.30103
-1.3485407	bộ ba	-0.30103
-1.3534625	xe ba	-0.30103
-1.3485407	mã ba	-0.30103
-1.3534625	pháo ba	-0.30103
-1.3582618	tốt ba	-0.30103
-1.2997934	giữa ba	-0.66900676
-1.3582618	binh ba	-0.30103
-1.3582618	chốt ba	-0.30103
-0.99650234	tiến ba	-1.146128
-0.99650234	tấn ba	-1.146128
-0.9916722	bình ba	-1.1249387
-0.9876389	thoái ba	-1.146128
-0.9876389	lùi ba	-1.146128
-1.3763278	tướng hai	-0.30103
-1.2921563	trước hai	-0.72092456
-1.2921563	sau hai	-0.72092456
-1.2921563	trên hai	-0.72092456
-1.2921563	dưới hai	-0.72092456
-1.3485407	tượng hai	-0.30103
-1.3485407	tịnh hai	-0.30103
-1.3485407	bộ hai	-0.30103
-1.3534625	xe hai	-0.30103
-1.3485407	mã hai	-0.30103
-1.3534625	pháo hai	-0.30103
-1.3582618	tốt hai	-0.30103
-1.2997934	giữa hai	-0.66900676
-1.3582618	binh hai	-0.30103
-1.3582618	chốt hai	-0.30103
-0.99650234	tiến hai	-1.146128
-0.99650234	tấn hai	-1.146128
-0.9916722	bình hai	-1.1249387
-0.9876389	thoái hai	-1.146128
-0.9876389	lùi hai	-1.146128
-1.3763278	tướng tám	-0.30103
-1.2921563	trước tám	-0.72092456
-1.2921563	sau tám	-0.72092456
-1.2921563	trên tám	-0.72092456
-1.2921563	dưới tám	-0.72092456
-1.3485407	tượng tám	-0.30103
-1.3485407	tịnh tám	-0.30103
-1.3485407	bộ tám	-0.30103
-1.3534625	xe tám	-0.30103
-1.3485407	mã tám	-0.30103
-1.3534625	pháo tám	-0.30103
-1.3582618	tốt tám	-0.30103
-1.2997934	giữa tám	-0.66900676
-1.3582618	binh tám	-0.30103
-1.3582618	chốt tám	-0.30103
-0.99650234	tiến tám	-1.146128
-0.99650234	tấn tám	-1.146128
-0.9916722	bình tám	-1.1249387
-0.9876389	thoái tám	-1.146128
-0.9876389	lùi tám	-1.146128
-1.3763278	tướng chín	-0.30103
-1.2921563	trước chín	-0.72092456
-1.2921563	sau chín	-0.72092456
-1.2921563	trên chín	-0.72092456
-1.2921563	dưới chín	-0.72092456
-1.3485407	tượng chín	-0.30103
-1.3485407	tịnh chín	-0.30103
-1.3485407	bộ chín	-0.30103
-1.3534625	xe chín	-0.30103
-1.3485407	mã chín	-0.30103
-1.3534625	pháo chín	-0.30103
-1.3582618	tốt chín	-0.30103
-1.2997934	giữa chín	-0.66900676
-1.3582618	binh chín	-0.30103
-1.3582618	chốt chín	-0.30103
-0.99650234	tiến chín	-1.146128
-0.99650234	tấn chín	-1.146128
-0.9916722	bình chín	-1.1249387
-0.9876389	thoái chín	-1.146128
-0.9876389	lùi chín	-1.146128
-1.1853921	<s> tịnh	-3.7583704
-1.0227907	ăn tịnh	-1.2710668
-1.0227907	bắt tịnh	-1.2710668
-1.1853921	<s> bộ	-3.7583704
-1.0227907	ăn bộ	-1.2710668
-1.0227907	bắt bộ	-1.2710668
-0.72844833	<s> xe	-4.1960073
-1.0227907	ăn xe	-1.2710668
-1.0227907	bắt xe	-1.2710668
-1.0588394	<s> mã	-3.8849223
-1.0227907	ăn mã	-1.2710668
-1.0227907	bắt mã	-1.2710668
-0.72844833	<s> pháo	-4.1960073
-1.0227907	ăn pháo	-1.2710668
-1.0227907	bắt pháo	-1.2710668
-1.0341927	<s> tốt	-3.909569
-1.0227907	ăn tốt	-1.2710668
-1.0227907	bắt tốt	-1.2710668
-1.9352124	trước giữa	-0.30103
-1.9352124	sau giữa	-0.30103
-1.6770828	trái giữa	-0.30103
-1.9352124	trên giữa	-0.30103
-1.9352124	dưới giữa	-0.30103
-1.6770828	phải giữa	-0.30103
-1.4649842	tốt giữa	-0.30103
-1.4649842	binh giữa	-0.30103
-1.4649842	chốt giữa	-0.30103
-1.0341927	<s> binh	-3.909569
-1.0227907	ăn binh	-1.2710668
-1.0227907	bắt binh	-1.2710668
-1.0341927	<s> chốt	-3.909569
-1.0227907	ăn chốt	-1.2710668
-1.0227907	bắt chốt	-1.2710668
-2.4725304	<s> soái	-2.8137145
-1.3099337	tướng tiến	-0.30103
-0.95830023	năm tiến	-0.72699875
-1.4216559	sĩ tiến	-0.30103
-1.2259157	trước tiến	-0.6478175
-0.95830023	bốn tiến	-0.72092456
-1.2259157	sau tiến	-0.6478175
-0.9491036	trái tiến	-0.6478175
-1.2259157	trên tiến	-0.6478175
-1.2259157	dưới tiến	-0.6478175
-0.95830023	sáu tiến	-0.72092456
-0.9491036	phải tiến	-0.6478175
-1.4782785	tượng tiến	-0.30103
-0.976796	bảy tiến	-0.70217514
-0.976796	một tiến	-0.66900676
-0.976796	ba tiến	-0.70217514
-0.976796	hai tiến	-0.6758462
-0.976796	tám tiến	-0.6758462
-0.976796	chín tiến	-0.66900676
-1.4782785	tịnh tiến	-0.30103
-1.4782785	bộ tiến	-0.30103
-1.4804833	xe tiến	-0.30103
-1.4782785	mã tiến	-0.30103
-1.4804833	pháo tiến	-0.30103
-1.4826201	tốt tiến	-0.30103
-1.1632893	giữa tiến	-0.7781512
-1.4826201	binh tiến	-0.30103
-1.4826201	chốt tiến	-0.30103
-1.1308541	soái tiến	-0.30103
-1.3099337	tướng tấn	-0.30103
-0.95830023	năm tấn	-0.72699875
-1.4216559	sĩ tấn	-0.30103
-1.2259157	trước tấn	-0.6478175
-0.95830023	bốn tấn	-0.72092456
-1.2259157	sau tấn	-0.6478175
-0.9491036	trái tấn	-0.6478175
-1.2259157	trên tấn	-0.6478175
-1.2259157	dưới tấn	-0.6478175
-0.95830023	sáu tấn	-0.72092456
-0.9491036	phải tấn	-0.6478175
-1.4782785	tượng tấn	-0.30103
-0.976796	bảy tấn	-0.70217514
-0.976796	một tấn	-0.66900676
-0.976796	ba tấn	-0.70217514
-0.976796	hai tấn	-0.6758462
-0.976796	tám tấn	-0.6758462
-0.976796	chín tấn	-0.66900676
-1.4782785	tịnh tấn	-0.30103
-1.4782785	bộ tấn	-0.30103
-1.4804833	xe tấn	-0.30103
-1.4782785	mã tấn	-0.30103
-1.4804833	pháo tấn	-0.30103
-1.4826201	tốt tấn	-0.30103
-1.1632893	giữa tấn	-0.7781512
-1.4826201	binh tấn	-0.30103
-1.4826201	chốt tấn	-0.30103
-1.1308541	soái tấn	-0.30103
-1.3502263	tướng bình	-0.30103
-1.1230536	năm bình	-0.69897
-1.5554878	trước bình	-0.5228787
-1.1230536	bốn bình	-0.6842467
-1.5554878	sau bình	-0.5228787
-1.3021593	trái bình	-0.5228787
-1.5554878	trên bình	-0.5228787
-1.5554878	dưới bình	-0.5228787
-1.1230536	sáu bình	-0.6842467
-1.3021593	phải bình	-0.5228787
-1.1390307	bảy bình	-0.66900676
-1.1390307	một bình	-0.6368221
-1.1390307	ba bình	-0.66900676
-1.1390307	hai bình	-0.66900676
-1.1390307	tám bình	-0.66900676
-1.1390307	chín bình	-0.6368221
-1.5415736	xe bình	-0.30103
-1.5415736	pháo bình	-0.30103
-1.544034	tốt bình	-0.30103
-1.1738756	giữa bình	-0.7781512
-1.544034	binh bình	-0.30103
-1.544034	chốt bình	-0.30103
-1.1571095	soái bình	-0.30103
-1.3418632	tướng thoái	-0.30103
-1.0847237	năm thoái	-0.70217514
-1.4634159	sĩ thoái	-0.30103
-1.3960311	trước thoái	-0.6255411
-1.0847237	bốn thoái	-0.69574106
-1.3960311	sau thoái	-0.6255411
-1.1273893	trái thoái	-0.6255411
-1.3960311	trên thoái	-0.6255411
-1.3960311	dưới thoái	-0.6255411
-1.0847237	sáu thoái	-0.69574106
-1.1273893	phải thoái	-0.6255411
-1.526186	tượng thoái	-0.30103
-1.1376729	bảy thoái	-0.6758462
-1.1376729	một thoái	-0.64051825
-1.1376729	ba thoái	-0.6758462
-1.1376729	hai thoái	-0.6478175
-1.1376729	tám thoái	-0.6478175
-1.1376729	chín thoái	-0.64051825
-1.526186	tịnh thoái	-0.30103
-1.526186	bộ thoái	-0.30103
-1.5286487	xe thoái	-0.30103
-1.526186	mã thoái	-0.30103
-1.5286487	pháo thoái	-0.30103
-1.1517298	soái thoái	-0.30103
-1.3418632	tướng lùi	-0.30103
-1.0847237	năm lùi	-0.70217514
-1.4634159	sĩ lùi	-0.30103
-1.3960311	trước lùi	-0.6255411
-1.0847237	bốn lùi	-0.69574106
-1.3960311	sau lùi	-0.6255411
-1.1273893	trái lùi	-0.6255411
-1.3960311	trên lùi	-0.6255411
-1.3960311	dưới lùi	-0.6255411
-1.0847237	sáu lùi	-0.69574106
-1.1273893	phải lùi	-0.6255411
-1.526186	tượng lùi	-0.30103
-1.1376729	bảy lùi	-0.6758462
-1.1376729	một lùi	-0.64051825
-1.1376729	ba lùi	-0.6758462
-1.1376729	hai lùi	-0.6478175
-1.1376729	tám lùi	-0.6478175
-1.1376729	chín lùi	-0.64051825
-1.526186	tịnh lùi	-0.30103
-1.526186	bộ lùi	-0.30103
-1.5286487	xe lùi	-0.30103
-1.526186	mã lùi	-0.30103
-1.5286487	pháo lùi	-0.30103
-1.1517298	soái lùi	-0.30103
-1.9279076	năm qua	-0.30103
-1.9279076	bốn qua	-0.30103
-1.9279076	sáu qua	-0.30103
-1.8580164	bảy qua	-0.30103
-1.8580164	một qua	-0.30103
-1.8580164	ba qua	-0.30103
-1.8580164	hai qua	-0.30103
-1.8580164	tám qua	-0.30103
-1.8580164	chín qua	-0.30103
-0.07886	qua sông	-0.7781512
-0.07886	sang sông	-0.7781512
-1.9279076	năm sang	-0.30103
-1.9279076	bốn sang	-0.30103
-1.9279076	sáu sang	-0.30103
-1.8580164	bảy sang	-0.30103
-1.8580164	một sang	-0.30103
-1.8580164	ba sang	-0.30103
-1.8580164	hai sang	-0.30103
-1.8580164	tám sang	-0.30103
-1.8580164	chín sang	-0.30103
-2.4623344	<s> chấp	-3.8239088
-0.29942614	chấp nhận	-0.30103
-0.29942614	xác nhận	-0.30103
-2.4623344	<s> xác	-3.8239088
-2.4623344	<s> đồng	-3.8239088
-0.2998019	đồng ý	-0.30103
-2.4623344	<s> ô	-3.8239088
-0.2998019	ô kê	-0.30103
-2.4623344	<s> hủy	-3.8239088
-0.2998019	hủy bỏ	-0.30103
-2.4623344	<s> từ	-3.8239088
-0.2998019	từ chối	-0.30103
-2.4623344	<s> đầu	-3.8239088
-0.2998019	đầu hàng	-0.30103
-2.161274	<s> xin	-3.8239088
-0.5996072	xin hòa	-0.30103
-2.4623344	<s> đổi	-3.8239088
-0.2998019	đổi phe	-0.30103
-0.5996072	xin chơi	-0.30103
-0.29942614	chơi lại	-0.30103
-0.29942614	đi lại	-0.30103
-2.4623344	<s> đi	-3.8239088
-1.0169278	năm chiếu	-1
-1.4420341	sĩ chiếu	-0.30103
-1.2302932	trước chiếu	-0.8239087
-1.0169278	bốn chiếu	-1
-1.2302932	sau chiếu	-0.8239087
-0.95156395	trái chiếu	-0.8239087
-1.2302932	trên chiếu	-0.8239087
-1.2302932	dưới chiếu	-0.8239087
-1.0169278	sáu chiếu	-1
-0.95156395	phải chiếu	-0.8239087
-1.501572	tượng chiếu	-0.30103
-0.978672	bảy chiếu	-0.97003675
-0.978672	một chiếu	-0.97003675
-0.978672	ba chiếu	-0.97003675
-0.978672	hai chiếu	-0.97003675
-0.978672	tám chiếu	-0.97003675
-0.978672	chín chiếu	-0.97003675
-1.501572	tịnh chiếu	-0.30103
-1.501572	bộ chiếu	-0.30103
-1.5038986	xe chiếu	-0.30103
-1.501572	mã chiếu	-0.30103
-1.5038986	pháo chiếu	-0.30103
-1.5061541	tốt chiếu	-0.30103
-1.1674929	giữa chiếu	-0.7781512
-1.5061541	binh chiếu	-0.30103
-1.5061541	chốt chiếu	-0.30103

\3-grams:
-1.0109617	chiếu tướng </s>	0
-0.87967813	tướng năm </s>	0
-0.7434398	sĩ năm </s>	0
-0.8590969	trước năm </s>	0
-0.8590969	sau năm </s>	0
-0.8590969	trên năm </s>	0
-0.8590969	dưới năm </s>	0
-0.7434398	tượng năm </s>	0
-0.7434398	tịnh năm </s>	0
-0.7434398	bộ năm </s>	0
-0.7710266	xe năm </s>	0
-0.7434398	mã năm </s>	0
-0.7710266	pháo năm </s>	0
-0.7710266	tốt năm </s>	0
-0.8477184	giữa năm </s>	0
-0.7710266	binh năm </s>	0
-0.7710266	chốt năm </s>	0
-0.026278857	tiến năm </s>	0
-0.026278857	tấn năm </s>	0
-0.026278857	bình năm </s>	0
-0.026278857	thoái năm </s>	0
-0.026278857	lùi năm </s>	0
-1.0095084	ăn sĩ </s>	0
-1.0095084	bắt sĩ </s>	0
-1.0623957	sĩ trước </s>	0
-1.2303313	tượng trước </s>	0
-1.2303313	tịnh trước </s>	0
-1.2303313	bộ trước </s>	0
-1.2359083	xe trước </s>	0
-1.2303313	mã trước </s>	0
-1.2359083	pháo trước </s>	0
-1.2412586	tốt trước </s>	0
-1.2412586	binh trước </s>	0
-1.2412586	chốt trước </s>	0
-0.87967813	tướng bốn </s>	0
-0.7434398	sĩ bốn </s>	0
-0.8816628	trước bốn </s>	0
-0.8816628	sau bốn </s>	0
-0.8816628	trên bốn </s>	0
-0.8816628	dưới bốn </s>	0
-0.7434398	tượng bốn </s>	0
-0.7434398	tịnh bốn </s>	0
-0.7434398	bộ bốn </s>	0
-0.7710266	xe bốn </s>	0
-0.7434398	mã bốn </s>	0
-0.7710266	pháo bốn </s>	0
-0.7710266	tốt bốn </s>	0
-0.8477184	giữa bốn </s>	0
-0.7710266	binh bốn </s>	0
-0.7710266	chốt bốn </s>	0
-0.026278857	tiến bốn </s>	0
-0.026278857	tấn bốn </s>	0
-0.026278857	bình bốn </s>	0
-0.026278857	thoái bốn </s>	0
-0.026278857	lùi bốn </s>	0
-1.0623957	sĩ sau </s>	0
-1.2303313	tượng sau </s>	0
-1.2303313	tịnh sau </s>	0
-1.2303313	bộ sau </s>	0
-1.2359083	xe sau </s>	0
-1.2303313	mã sau </s>	0
-1.2359083	pháo sau </s>	0
-1.2412586	tốt sau </s>	0
-1.2412586	binh sau </s>	0
-1.2412586	chốt sau </s>	0
-0.77273804	sĩ trái </s>	0
-0.77273804	tượng trái </s>	0
-0.77273804	tịnh trái </s>	0
-0.77273804	bộ trái </s>	0
-0.80231714	xe trái </s>	0
-0.77273804	mã trái </s>	0
-0.80231714	pháo trái </s>	0
-0.8281126	tốt trái </s>	0
-0.8281126	binh trái </s>	0
-0.8281126	chốt trái </s>	0
-1.0623957	sĩ trên </s>	0
-1.2303313	tượng trên </s>	0
-1.2303313	tịnh trên </s>	0
-1.2303313	bộ trên </s>	0
-1.2359083	xe trên </s>	0
-1.2303313	mã trên </s>	0
-1.2359083	pháo trên </s>	0
-1.2412586	tốt trên </s>	0
-1.2412586	binh trên </s>	0
-1.2412586	chốt trên </s>	0
-1.0623957	sĩ dưới </s>	0
-1.2303313	tượng dưới </s>	0
-1.2303313	tịnh dưới </s>	0
-1.2303313	bộ dưới </s>	0
-1.2359083	xe dưới </s>	0
-1.2303313	mã dưới </s>	0
-1.2359083	pháo dưới </s>	0
-1.2412586	tốt dưới </s>	0
-1.2412586	binh dưới </s>	0
-1.2412586	chốt dưới </s>	0
-0.87967813	tướng sáu </s>	0
-0.7434398	sĩ sáu </s>	0
-0.8816628	trước sáu </s>	0
-0.8816628	sau sáu </s>	0
-0.8816628	trên sáu </s>	0
-0.8816628	dưới sáu </s>	0
-0.7434398	tượng sáu </s>	0
-0.7434398	tịnh sáu </s>	0
-0.7434398	bộ sáu </s>	0
-0.7710266	xe sáu </s>	0
-0.7434398	mã sáu </s>	0
-0.7710266	pháo sáu </s>	0
-0.7710266	tốt sáu </s>	0
-0.8477184	giữa sáu </s>	0
-0.7710266	binh sáu </s>	0
-0.7710266	chốt sáu </s>	0
-0.026278857	tiến sáu </s>	0
-0.026278857	tấn sáu </s>	0
-0.026278857	bình sáu </s>	0
-0.026278857	thoái sáu </s>	0
-0.026278857	lùi sáu </s>	0
-0.77273804	sĩ phải </s>	0
-0.77273804	tượng phải </s>	0
-0.77273804	tịnh phải </s>	0
-0.77273804	bộ phải </s>	0
-0.80231714	xe phải </s>	0
-0.77273804	mã phải </s>	0
-0.80231714	pháo phải </s>	0
-0.8281126	tốt phải </s>	0
-0.8281126	binh phải </s>	0
-0.8281126	chốt phải </s>	0
-1.2086792	ăn tượng </s>	0
-1.2086792	bắt tượng </s>	0
-0.23839033	tướng bảy </s>	0
-0.8692328	trước bảy </s>	0
-0.8692328	sau bảy </s>	0
-0.8692328	trên bảy </s>	0
-0.8692328	dưới bảy </s>	0
-0.7242561	tượng bảy </s>	0
-0.7242561	tịnh bảy </s>	0
-0.7242561	bộ bảy </s>	0
-0.750614	xe bảy </s>	0
-0.7242561	mã bảy </s>	0
-0.750614	pháo bảy </s>	0
-0.750614	tốt bảy </s>	0
-0.8371607	giữa bảy </s>	0
-0.750614	binh bảy </s>	0
-0.750614	chốt bảy </s>	0
-0.02703212	tiến bảy </s>	0
-0.02703212	tấn bảy </s>	0
-0.02842892	bình bảy </s>	0
-0.02703212	thoái bảy </s>	0
-0.02703212	lùi bảy </s>	0
-0.23839033	tướng một </s>	0
-0.8692328	trước một </s>	0
-0.8692328	sau một </s>	0
-0.8692328	trên một </s>	0
-0.8692328	dưới một </s>	0
-0.7242561	tượng một </s>	0
-0.7242561	tịnh một </s>	0
-0.7242561	bộ một </s>	0
-0.750614	xe một </s>	0
-0.7242561	mã một </s>	0
-0.750614	pháo một </s>	0
-0.750614	tốt một </s>	0
-0.8371607	giữa một </s>	0
-0.750614	binh một </s>	0
-0.750614	chốt một </s>	0
-0.020877924	tiến một </s>	0
-0.020877924	tấn một </s>	0
-0.02842892	bình một </s>	0
-0.024613533	thoái một </s>	0
-0.024613533	lùi một </s>	0
-0.23839033	tướng ba </s>	0
-0.8692328	trước ba </s>	0
-0.8692328	sau ba </s>	0
-0.8692328	trên ba </s>	0
-0.8692328	dưới ba </s>	0
-0.7242561	tượng ba </s>	0
-0.7242561	tịnh ba </s>	0
-0.7242561	bộ ba </s>	0
-0.750614	xe ba </s>	0
-0.7242561	mã ba </s>	0
-0.750614	pháo ba </s>	0
-0.750614	tốt ba </s>	0
-0.8371607	giữa ba </s>	0
-0.750614	binh ba </s>	0
-0.750614	chốt ba </s>	0
-0.02703212	tiến ba </s>	0
-0.02703212	tấn ba </s>	0
-0.02842892	bình ba </s>	0
-0.02703212	thoái ba </s>	0
-0.02703212	lùi ba </s>	0
-0.23839033	tướng hai </s>	0
-0.8692328	trước hai </s>	0
-0.8692328	sau hai </s>	0
-0.8692328	trên hai </s>	0
-0.8692328	dưới hai </s>	0
-0.7242561	tượng hai </s>	0
-0.7242561	tịnh hai </s>	0
-0.7242561	bộ hai </s>	0
-0.750614	xe hai </s>	0
-0.7242561	mã hai </s>	0
-0.750614	pháo hai </s>	0
-0.750614	tốt hai </s>	0
-0.8371607	giữa hai </s>	0
-0.750614	binh hai </s>	0
-0.750614	chốt hai </s>	0
-0.02703212	tiến hai </s>	0
-0.02703212	tấn hai </s>	0
-0.02842892	bình hai </s>	0
-0.02703212	thoái hai </s>	0
-0.02703212	lùi hai </s>	0
-0.23839033	tướng tám </s>	0
-0.8692328	trước tám </s>	0
-0.8692328	sau tám </s>	0
-0.8692328	trên tám </s>	0
-0.8692328	dưới tám </s>	0
-0.7242561	tượng tám </s>	0
-0.7242561	tịnh tám </s>	0
-0.7242561	bộ tám </s>	0
-0.750614	xe tám </s>	0
-0.7242561	mã tám </s>	0
-0.750614	pháo tám </s>	0
-0.750614	tốt tám </s>	0
-0.8371607	giữa tám </s>	0
-0.750614	binh tám </s>	0
-0.750614	chốt tám </s>	0
-0.02703212	tiến tám </s>	0
-0.02703212	tấn tám </s>	0
-0.02842892	bình tám </s>	0
-0.02703212	thoái tám </s>	0
-0.02703212	lùi tám </s>	0
-0.23839033	tướng chín </s>	0
-0.8692328	trước chín </s>	0
-0.8692328	sau chín </s>	0
-0.8692328	trên chín </s>	0
-0.8692328	dưới chín </s>	0
-0.7242561	tượng chín </s>	0
-0.7242561	tịnh chín </s>	0
-0.7242561	bộ chín </s>	0
-0.750614	xe chín </s>	0
-0.7242561	mã chín </s>	0
-0.750614	pháo chín </s>	0
-0.750614	tốt chín </s>	0
-0.8371607	giữa chín </s>	0
-0.750614	binh chín </s>	0
-0.750614	chốt chín </s>	0
-0.02703212	tiến chín </s>	0
-0.02703212	tấn chín </s>	0
-0.02842892	bình chín </s>	0
-0.02703212	thoái chín </s>	0
-0.02703212	lùi chín </s>	0
-1.2086792	ăn tịnh </s>	0
-1.2086792	bắt tịnh </s>	0
-1.2086792	ăn bộ </s>	0
-1.2086792	bắt bộ </s>	0
-1.2088059	ăn xe </s>	0
-1.2088059	bắt xe </s>	0
-1.2086792	ăn mã </s>	0
-1.2086792	bắt mã </s>	0
-1.2088059	ăn pháo </s>	0
-1.2088059	bắt pháo </s>	0
-1.2340904	ăn tốt </s>	0
-1.2340904	bắt tốt </s>	0
-1.1734805	trước giữa </s>	0
-1.1734805	sau giữa </s>	0
-0.96961397	trái giữa </s>	0
-1.1734805	trên giữa </s>	0
-1.1734805	dưới giữa </s>	0
-0.96961397	phải giữa </s>	0
-1.1911812	tốt giữa </s>	0
-1.1911812	binh giữa </s>	0
-1.1911812	chốt giữa </s>	0
-1.2340904	ăn binh </s>	0
-1.2340904	bắt binh </s>	0
-1.2340904	ăn chốt </s>	0
-1.2340904	bắt chốt </s>	0
-0.035284948	qua sông </s>	0
-0.035284948	sang sông </s>	0
-0.11582853	chấp nhận </s>	0
-0.11582853	xác nhận </s>	0
-0.11582853	đồng ý </s>	0
-0.11582853	ô kê </s>	0
-0.11582853	hủy bỏ </s>	0
-0.11582853	từ chối </s>	0
-0.11582853	đầu hàng </s>	0
-0.11582853	xin hòa </s>	0
-0.11582853	đổi phe </s>	0
-0.11582853	chơi lại </s>	0
-0.11582853	đi lại </s>	0
-0.0025034894	năm chiếu tướng	-3.1139433
-0.012664253	sĩ chiếu tướng	-1.30103
-0.0037606407	trước chiếu tướng	-2.30103
-0.0025034894	bốn chiếu tướng	-3.1139433
-0.0037606407	sau chiếu tướng	-2.30103
-0.0037606407	trái chiếu tướng	-2.30103
-0.0037606407	trên chiếu tướng	-2.30103
-0.0037606407	dưới chiếu tướng	-2.30103
-0.0025034894	sáu chiếu tướng	-3.1139433
-0.0037606407	phải chiếu tướng	-2.30103
-0.012664253	tượng chiếu tướng	-1.30103
-0.0026828598	bảy chiếu tướng	-3.0791812
-0.0026828598	một chiếu tướng	-3.0791812
-0.0026828598	ba chiếu tướng	-3.0791812
-0.0026828598	hai chiếu tướng	-3.0791812
-0.0026828598	tám chiếu tướng	-3.0791812
-0.0026828598	chín chiếu tướng	-3.0791812
-0.012664253	tịnh chiếu tướng	-1.30103
-0.012664253	bộ chiếu tướng	-1.30103
-0.012664253	xe chiếu tướng	-1.30103
-0.012664253	mã chiếu tướng	-1.30103
-0.012664253	pháo chiếu tướng	-1.30103
-0.012664253	tốt chiếu tướng	-1.30103
-0.004180527	giữa chiếu tướng	-2.6232493
-0.012664253	binh chiếu tướng	-1.30103
-0.012664253	chốt chiếu tướng	-1.30103
-0.59333926	<s> tướng năm	-2.3753588
-1.0078944	chiếu tướng năm	-4.1112623
-1.284282	<s> sĩ năm	-2.4828737
-1.009302	ăn sĩ năm	-2.6394866
-1.009302	bắt sĩ năm	-2.6394866
-0.9501639	sĩ trước năm	-2.6842468
-1.151855	tượng trước năm	-2.5740314
-1.151855	tịnh trước năm	-2.5740314
-1.151855	bộ trước năm	-2.5740314
-1.1588489	xe trước năm	-2.9378521
-1.151855	mã trước năm	-2.7061486
-1.1588489	pháo trước năm	-2.9378521
-1.1655802	tốt trước năm	-2.5470123
-1.1655802	binh trước năm	-2.5470123
-1.1655802	chốt trước năm	-2.5470123
-0.9501639	sĩ sau năm	-2.6842468
-1.151855	tượng sau năm	-2.5740314
-1.151855	tịnh sau năm	-2.5740314
-1.151855	bộ sau năm	-2.5740314
-1.1588489	xe sau năm	-2.9378521
-1.151855	mã sau năm	-2.7061486
-1.1588489	pháo sau năm	-2.9378521
-1.1655802	tốt sau năm	-2.5470123
-1.1655802	binh sau năm	-2.5470123
-1.1655802	chốt sau năm	-2.5470123
-0.9501639	sĩ trên năm	-2.6842468
-1.151855	tượng trên năm	-2.5740314
-1.151855	tịnh trên năm	-2.5740314
-1.151855	bộ trên năm	-2.5740314
-1.1588489	xe trên năm	-2.9378521
-1.151855	mã trên năm	-2.7061486
-1.1588489	pháo trên năm	-2.9378521
-1.1655802	tốt trên năm	-2.5470123
-1.1655802	binh trên năm	-2.5470123
-1.1655802	chốt trên năm	-2.5470123
-0.9501639	sĩ dưới năm	-2.6842468
-1.151855	tượng dưới năm	-2.5740314
-1.151855	tịnh dưới năm	-2.5740314
-1.151855	bộ dưới năm	-2.5740314
-1.1588489	xe dưới năm	-2.9378521
-1.151855	mã dưới năm	-2.7061486
-1.1588489	pháo dưới năm	-2.9378521
-1.1655802	tốt dưới năm	-2.5470123
-1.1655802	binh dưới năm	-2.5470123
-1.1655802	chốt dưới năm	-2.5470123
-1.7728165	<s> tượng năm	-2.4828737
-1.2100966	ăn tượng năm	-2.6394866
-1.2100966	bắt tượng năm	-2.6394866
-1.7728165	<s> tịnh năm	-2.4828737
-1.2100966	ăn tịnh năm	-2.6394866
-1.2100966	bắt tịnh năm	-2.6394866
-1.7728165	<s> bộ năm	-2.4828737
-1.2100966	ăn bộ năm	-2.6394866
-1.2100966	bắt bộ năm	-2.6394866
-1.7171234	<s> xe năm	-2.937518
-1.2102872	ăn xe năm	-2.6394866
-1.2102872	bắt xe năm	-2.6394866
-1.7229161	<s> mã năm	-2.6593275
-1.2100966	ăn mã năm	-2.6394866
-1.2100966	bắt mã năm	-2.6394866
-1.7171234	<s> pháo năm	-2.937518
-1.2102872	ăn pháo năm	-2.6394866
-1.2102872	bắt pháo năm	-2.6394866
-1.9821669	<s> tốt năm	-2.3667343
-1.2357258	ăn tốt năm	-2.6394866
-1.2357258	bắt tốt năm	-2.6394866
-1.2467849	trước giữa năm	-3.0241337
-1.2467849	sau giữa năm	-3.0241337
-1.2467849	trên giữa năm	-3.0241337
-1.2467849	dưới giữa năm	-3.0241337
-1.1658393	tốt giữa năm	-2.5470123
-1.1658393	binh giữa năm	-2.5470123
-1.1658393	chốt giữa năm	-2.5470123
-1.9821669	<s> binh năm	-2.3667343
-1.2357258	ăn binh năm	-2.6394866
-1.2357258	bắt binh năm	-2.6394866
-1.9821669	<s> chốt năm	-2.3667343
-1.2357258	ăn chốt năm	-2.6394866
-1.2357258	bắt chốt năm	-2.6394866
-0.59333926	<s> soái năm	-2.3753588
-1.0841098	năm tiến năm	-3.1249387
-0.6581411	sĩ tiến năm	-2.1249387
-0.9372743	trước tiến năm	-2.9700367
-0.95185953	bốn tiến năm	-3.4259686
-0.9372743	sau tiến năm	-2.9700367
-0.9372743	trái tiến năm	-2.9700367
-0.9372743	trên tiến năm	-2.9700367
-0.9372743	dưới tiến năm	-2.9700367
-0.95185953	sáu tiến năm	-3.4259686
-0.9372743	phải tiến năm	-2.9700367
-0.96415627	tượng tiến năm	-2.1249387
-0.83545935	bảy tiến năm	-3.60206
-1.0261178	một tiến năm	-3.1249387
-0.83545935	ba tiến năm	-3.60206
-1.0329573	hai tiến năm	-3.1249387
-1.0329573	tám tiến năm	-3.1249387
-1.0261178	chín tiến năm	-3.1249387
-0.96415627	tịnh tiến năm	-2.1249387
-0.96415627	bộ tiến năm	-2.1249387
-0.96415627	xe tiến năm	-2.1249387
-0.96415627	mã tiến năm	-2.1249387
-0.96415627	pháo tiến năm	-2.1249387
-1.0841098	năm tấn năm	-3.1249387
-0.6581411	sĩ tấn năm	-2.1249387
-0.9372743	trước tấn năm	-2.9700367
-0.95185953	bốn tấn năm	-3.4259686
-0.9372743	sau tấn năm	-2.9700367
-0.9372743	trái tấn năm	-2.9700367
-0.9372743	trên tấn năm	-2.9700367
-0.9372743	dưới tấn năm	-2.9700367
-0.95185953	sáu tấn năm	-3.4259686
-0.9372743	phải tấn năm	-2.9700367
-0.96415627	tượng tấn năm	-2.1249387
-0.83545935	bảy tấn năm	-3.60206
-1.0261178	một tấn năm	-3.1249387
-0.83545935	ba tấn năm	-3.60206
-1.0329573	hai tấn năm	-3.1249387
-1.0329573	tám tấn năm	-3.1249387
-1.0261178	chín tấn năm	-3.1249387
-0.96415627	tịnh tấn năm	-2.1249387
-0.96415627	bộ tấn năm	-2.1249387
-0.96415627	xe tấn năm	-2.1249387
-0.96415627	mã tấn năm	-2.1249387
-0.96415627	pháo tấn năm	-2.1249387
-0.65142834	tướng bình năm	-2.1249387
-0.95210236	trước bình năm	-2.8239088
-0.6895159	bốn bình năm	-3.748188
-0.95210236	sau bình năm	-2.8239088
-0.95210236	trái bình năm	-2.8239088
-0.95210236	trên bình năm	-2.8239088
-0.95210236	dưới bình năm	-2.8239088
-0.6895159	sáu bình năm	-3.748188
-0.95210236	phải bình năm	-2.8239088
-0.9806397	bảy bình năm	-3.1249387
-0.948455	một bình năm	-3.1249387
-0.9806397	ba bình năm	-3.1249387
-0.9806397	hai bình năm	-3.1249387
-0.9806397	tám bình năm	-3.1249387
-0.948455	chín bình năm	-3.1249387
-0.95068145	xe bình năm	-2.1249387
-0.95068145	pháo bình năm	-2.1249387
-0.95068145	tốt bình năm	-2.1249387
-0.9530522	giữa bình năm	-3.447158
-0.95068145	binh bình năm	-2.1249387
-0.95068145	chốt bình năm	-2.1249387
-0.65142834	soái bình năm	-2.1249387
-1.0571296	năm thoái năm	-3.1249387
-0.65598446	sĩ thoái năm	-2.1249387
-0.9131517	trước thoái năm	-2.9700367
-0.9250621	bốn thoái năm	-3.4259686
-0.9131517	sau thoái năm	-2.9700367
-0.9131517	trái thoái năm	-2.9700367
-0.9131517	trên thoái năm	-2.9700367
-0.9131517	dưới thoái năm	-2.9700367
-0.9250621	sáu thoái năm	-3.4259686
-0.9131517	phải thoái năm	-2.9700367
-0.95980424	tượng thoái năm	-2.1249387
-0.807841	bảy thoái năm	-3.60206
-0.9954727	một thoái năm	-3.1249387
-0.807841	ba thoái năm	-3.60206
-1.002772	hai thoái năm	-3.1249387
-1.002772	tám thoái năm	-3.1249387
-0.9954727	chín thoái năm	-3.1249387
-0.95980424	tịnh thoái năm	-2.1249387
-0.95980424	bộ thoái năm	-2.1249387
-0.95980424	xe thoái năm	-2.1249387
-0.95980424	mã thoái năm	-2.1249387
-0.95980424	pháo thoái năm	-2.1249387
-1.0571296	năm lùi năm	-3.1249387
-0.65598446	sĩ lùi năm	-2.1249387
-0.9131517	trước lùi năm	-2.9700367
-0.9250621	bốn lùi năm	-3.4259686
-0.9131517	sau lùi năm	-2.9700367
-0.9131517	trái lùi năm	-2.9700367
-0.9131517	trên lùi năm	-2.9700367
-0.9131517	dưới lùi năm	-2.9700367
-0.9250621	sáu lùi năm	-3.4259686
-0.9131517	phải lùi năm	-2.9700367
-0.95980424	tượng lùi năm	-2.1249387
-0.807841	bảy lùi năm	-3.60206
-0.9954727	một lùi năm	-3.1249387
-0.807841	ba lùi năm	-3.60206
-1.002772	hai lùi năm	-3.1249387
-1.002772	tám lùi năm	-3.1249387
-0.9954727	chín lùi năm	-3.1249387
-0.95980424	tịnh lùi năm	-2.1249387
-0.95980424	bộ lùi năm	-2.1249387
-0.95980424	xe lùi năm	-2.1249387
-0.95980424	mã lùi năm	-2.1249387
-0.95980424	pháo lùi năm	-2.1249387
-1.1800879	<s> tướng ăn	-1.6341412
-0.92981833	tướng năm ăn	-1.6341412
-0.9562666	sĩ năm ăn	-1.6341412
-0.87566745	trước năm ăn	-2.6341412
-0.87566745	sau năm ăn	-2.6341412
-0.87566745	trên năm ăn	-2.6341412
-0.87566745	dưới năm ăn	-2.6341412
-0.9562666	tượng năm ăn	-1.6341412
-0.9562666	tịnh năm ăn	-1.6341412
-0.9562666	bộ năm ăn	-1.6341412
-0.9786498	xe năm ăn	-1.6341412
-0.9562666	mã năm ăn	-1.6341412
-0.9786498	pháo năm ăn	-1.6341412
-0.9786498	tốt năm ăn	-1.6341412
-0.86699474	giữa năm ăn	-2.8102326
-0.9786498	binh năm ăn	-1.6341412
-0.9786498	chốt năm ăn	-1.6341412
-0.8980211	soái năm ăn	-1.6341412
-1.9785031	<s> sĩ ăn	-1.6341412
-1.2403461	sĩ trước ăn	-1.6341412
-1.3604212	tượng trước ăn	-1.6341412
-1.3604212	tịnh trước ăn	-1.6341412
-1.3604212	bộ trước ăn	-1.6341412
-1.3641757	xe trước ăn	-1.6341412
-1.3604212	mã trước ăn	-1.6341412
-1.3641757	pháo trước ăn	-1.6341412
-1.3677627	tốt trước ăn	-1.6341412
-1.3677627	binh trước ăn	-1.6341412
-1.3677627	chốt trước ăn	-1.6341412
-0.92981833	tướng bốn ăn	-1.6341412
-0.9562666	sĩ bốn ăn	-1.6341412
-0.89823335	trước bốn ăn	-2.6341412
-0.89823335	sau bốn ăn	-2.6341412
-0.89823335	trên bốn ăn	-2.6341412
-0.89823335	dưới bốn ăn	-2.6341412
-0.9562666	tượng bốn ăn	-1.6341412
-0.9562666	tịnh bốn ăn	-1.6341412
-0.9562666	bộ bốn ăn	-1.6341412
-0.9786498	xe bốn ăn	-1.6341412
-0.9562666	mã bốn ăn	-1.6341412
-0.9786498	pháo bốn ăn	-1.6341412
-0.9786498	tốt bốn ăn	-1.6341412
-0.86699474	giữa bốn ăn	-2.8102326
-0.9786498	binh bốn ăn	-1.6341412
-0.9786498	chốt bốn ăn	-1.6341412
-0.8980211	soái bốn ăn	-1.6341412
-1.2403461	sĩ sau ăn	-1.6341412
-1.3604212	tượng sau ăn	-1.6341412
-1.3604212	tịnh sau ăn	-1.6341412
-1.3604212	bộ sau ăn	-1.6341412
-1.3641757	xe sau ăn	-1.6341412
-1.3604212	mã sau ăn	-1.6341412
-1.3641757	pháo sau ăn	-1.6341412
-1.3677627	tốt sau ăn	-1.6341412
-1.3677627	binh sau ăn	-1.6341412
-1.3677627	chốt sau ăn	-1.6341412
-0.95166546	sĩ trái ăn	-1.6341412
-0.95166546	tượng trái ăn	-1.6341412
-0.95166546	tịnh trái ăn	-1.6341412
-0.95166546	bộ trái ăn	-1.6341412
-0.9738067	xe trái ăn	-1.6341412
-0.95166546	mã trái ăn	-1.6341412
-0.9738067	pháo trái ăn	-1.6341412
-0.99280125	tốt trái ăn	-1.6341412
-0.99280125	binh trái ăn	-1.6341412
-0.99280125	chốt trái ăn	-1.6341412
-1.2403461	sĩ trên ăn	-1.6341412
-1.3604212	tượng trên ăn	-1.6341412
-1.3604212	tịnh trên ăn	-1.6341412
-1.3604212	bộ trên ăn	-1.6341412
-1.3641757	xe trên ăn	-1.6341412
-1.3604212	mã trên ăn	-1.6341412
-1.3641757	pháo trên ăn	-1.6341412
-1.3677627	tốt trên ăn	-1.6341412
-1.3677627	binh trên ăn	-1.6341412
-1.3677627	chốt trên ăn	-1.6341412
-1.2403461	sĩ dưới ăn	-1.6341412
-1.3604212	tượng dưới ăn	-1.6341412
-1.3604212	tịnh dưới ăn	-1.6341412
-1.3604212	bộ dưới ăn	-1.6341412
-1.3641757	xe dưới ăn	-1.6341412
-1.3604212	mã dưới ăn	-1.6341412
-1.3641757	pháo dưới ăn	-1.6341412
-1.3677627	tốt dưới ăn	-1.6341412
-1.3677627	binh dưới ăn	-1.6341412
-1.3677627	chốt dưới ăn	-1.6341412
-0.92981833	tướng sáu ăn	-1.6341412
-0.9562666	sĩ sáu ăn	-1.6341412
-0.89823335	trước sáu ăn	-2.6341412
-0.89823335	sau sáu ăn	-2.6341412
-0.89823335	trên sáu ăn	-2.6341412
-0.89823335	dưới sáu ăn	-2.6341412
-0.9562666	tượng sáu ăn	-1.6341412
-0.9562666	tịnh sáu ăn	-1.6341412
-0.9562666	bộ sáu ăn	-1.6341412
-0.9786498	xe sáu ăn	-1.6341412
-0.9562666	mã sáu ăn	-1.6341412
-0.9786498	pháo sáu ăn	-1.6341412
-0.9786498	tốt sáu ăn	-1.6341412
-0.86699474	giữa sáu ăn	-2.8102326
-0.9786498	binh sáu ăn	-1.6341412
-0.9786498	chốt sáu ăn	-1.6341412
-0.8980211	soái sáu ăn	-1.6341412
-0.95166546	sĩ phải ăn	-1.6341412
-0.95166546	tượng phải ăn	-1.6341412
-0.95166546	tịnh phải ăn	-1.6341412
-0.95166546	bộ phải ăn	-1.6341412
-0.9738067	xe phải ăn	-1.6341412
-0.95166546	mã phải ăn	-1.6341412
-0.9738067	pháo phải ăn	-1.6341412
-0.99280125	tốt phải ăn	-1.6341412
-0.99280125	binh phải ăn	-1.6341412
-0.99280125	chốt phải ăn	-1.6341412
-2.4669228	<s> tượng ăn	-1.6341412
-0.9006944	trước bảy ăn	-2.5883837
-0.9006944	sau bảy ăn	-2.5883837
-0.9006944	trên bảy ăn	-2.5883837
-0.9006944	dưới bảy ăn	-2.5883837
-0.96537286	tượng bảy ăn	-1.6341412
-0.96537286	tịnh bảy ăn	-1.6341412
-0.96537286	bộ bảy ăn	-1.6341412
-0.98824304	xe bảy ăn	-1.6341412
-0.96537286	mã bảy ăn	-1.6341412
-0.98824304	pháo bảy ăn	-1.6341412
-0.98824304	tốt bảy ăn	-1.6341412
-0.8701506	giữa bảy ăn	-2.8102326
-0.98824304	binh bảy ăn	-1.6341412
-0.98824304	chốt bảy ăn	-1.6341412
-0.9006944	trước một ăn	-2.5883837
-0.9006944	sau một ăn	-2.5883837
-0.9006944	trên một ăn	-2.5883837
-0.9006944	dưới một ăn	-2.5883837
-0.96537286	tượng một ăn	-1.6341412
-0.96537286	tịnh một ăn	-1.6341412
-0.96537286	bộ một ăn	-1.6341412
-0.98824304	xe một ăn	-1.6341412
-0.96537286	mã một ăn	-1.6341412
-0.98824304	pháo một ăn	-1.6341412
-0.98824304	tốt một ăn	-1.6341412
-0.8701506	giữa một ăn	-2.8102326
-0.98824304	binh một ăn	-1.6341412
-0.98824304	chốt một ăn	-1.6341412
-0.9006944	trước ba ăn	-2.5883837
-0.9006944	sau ba ăn	-2.5883837
-0.9006944	trên ba ăn	-2.5883837
-0.9006944	dưới ba ăn	-2.5883837
-0.96537286	tượng ba ăn	-1.6341412
-0.96537286	tịnh ba ăn	-1.6341412
-0.96537286	bộ ba ăn	-1.6341412
-0.98824304	xe ba ăn	-1.6341412
-0.96537286	mã ba ăn	-1.6341412
-0.98824304	pháo ba ăn	-1.6341412
-0.98824304	tốt ba ăn	-1.6341412
-0.8701506	giữa ba ăn	-2.8102326
-0.98824304	binh ba ăn	-1.6341412
-0.98824304	chốt ba ăn	-1.6341412
-0.9006944	trước hai ăn	-2.5883837
-0.9006944	sau hai ăn	-2.5883837
-0.9006944	trên hai ăn	-2.5883837
-0.9006944	dưới hai ăn	-2.5883837
-0.96537286	tượng hai ăn	-1.6341412
-0.96537286	tịnh hai ăn	-1.6341412
-0.96537286	bộ hai ăn	-1.6341412
-0.98824304	xe hai ăn	-1.6341412
-0.96537286	mã hai ăn	-1.6341412
-0.98824304	pháo hai ăn	-1.6341412
-0.98824304	tốt hai ăn	-1.6341412
-0.8701506	giữa hai ăn	-2.8102326
-0.98824304	binh hai ăn	-1.6341412
-0.98824304	chốt hai ăn	-1.6341412
-0.9006944	trước tám ăn	-2.5883837
-0.9006944	sau tám ăn	-2.5883837
-0.9006944	trên tám ăn	-2.5883837
-0.9006944	dưới tám ăn	-2.5883837
-0.96537286	tượng tám ăn	-1.6341412
-0.96537286	tịnh tám ăn	-1.6341412
-0.96537286	bộ tám ăn	-1.6341412
-0.98824304	xe tám ăn	-1.6341412
-0.96537286	mã tám ăn	-1.6341412
-0.98824304	pháo tám ăn	-1.6341412
-0.98824304	tốt tám ăn	-1.6341412
-0.8701506	giữa tám ăn	-2.8102326
-0.98824304	binh tám ăn	-1.6341412
-0.98824304	chốt tám ăn	-1.6341412
-0.9006944	trước chín ăn	-2.5883837
-0.9006944	sau chín ăn	-2.5883837
-0.9006944	trên chín ăn	-2.5883837
-0.9006944	dưới chín ăn	-2.5883837
-0.96537286	tượng chín ăn	-1.6341412
-0.96537286	tịnh chín ăn	-1.6341412
-0.96537286	bộ chín ăn	-1.6341412
-0.98824304	xe chín ăn	-1.6341412
-0.96537286	mã chín ăn	-1.6341412
-0.98824304	pháo chín ăn	-1.6341412
-0.98824304	tốt chín ăn	-1.6341412
-0.8701506	giữa chín ăn	-2.8102326
-0.98824304	binh chín ăn	-1.6341412
-0.98824304	chốt chín ăn	-1.6341412
-2.4669228	<s> tịnh ăn	-1.6341412
-2.4669228	<s> bộ ăn	-1.6341412
-2.923835	<s> xe ăn	-1.6341412
-2.5934746	<s> mã ăn	-1.6341412
-2.923835	<s> pháo ăn	-1.6341412
-2.6181288	<s> tốt ăn	-1.6341412
-1.1832249	trước giữa ăn	-2.1112626
-1.1832249	sau giữa ăn	-2.1112626
-0.97568214	trái giữa ăn	-2.1112626
-1.1832249	trên giữa ăn	-2.1112626
-1.1832249	dưới giữa ăn	-2.1112626
-0.97568214	phải giữa ăn	-2.1112626
-1.3132185	tốt giữa ăn	-1.6341412
-1.3132185	binh giữa ăn	-1.6341412
-1.3132185	chốt giữa ăn	-1.6341412
-2.6181288	<s> binh ăn	-1.6341412
-2.6181288	<s> chốt ăn	-1.6341412
-1.1798356	<s> soái ăn	-1.6341412
-1.0112458	tướng ăn sĩ	-0.38818017
-1.0019635	năm ăn sĩ	-1.9924062
-1.0112458	sĩ ăn sĩ	-0.38818017
-1.0033433	trước ăn sĩ	-1.1663314
-1.0019635	bốn ăn sĩ	-1.9924062
-1.0033433	sau ăn sĩ	-1.1663314
-1.0033433	trái ăn sĩ	-1.1663314
-1.0033433	trên ăn sĩ	-1.1663314
-1.0033433	dưới ăn sĩ	-1.1663314
-1.0019635	sáu ăn sĩ	-1.9924062
-1.0033433	phải ăn sĩ	-1.1663314
-1.0112458	tượng ăn sĩ	-0.38818017
-1.0023854	bảy ăn sĩ	-1.9444827
-1.0023854	một ăn sĩ	-1.9444827
-1.0023854	ba ăn sĩ	-1.9444827
-1.0023854	hai ăn sĩ	-1.9444827
-1.0023854	tám ăn sĩ	-1.9444827
-1.0023854	chín ăn sĩ	-1.9444827
-1.0112458	tịnh ăn sĩ	-0.38818017
-1.0112458	bộ ăn sĩ	-0.38818017
-1.0112458	xe ăn sĩ	-0.38818017
-1.0112458	mã ăn sĩ	-0.38818017
-1.0112458	pháo ăn sĩ	-0.38818017
-1.0112458	tốt ăn sĩ	-0.38818017
-1.0037163	giữa ăn sĩ	-1.4885507
-1.0112458	binh ăn sĩ	-0.38818017
-1.0112458	chốt ăn sĩ	-0.38818017
-1.0112458	soái ăn sĩ	-0.38818017
-1.0112458	tướng bắt sĩ	-0.38818017
-1.0019635	năm bắt sĩ	-1.9924062
-1.0112458	sĩ bắt sĩ	-0.38818017
-1.0033433	trước bắt sĩ	-1.1663314
-1.0019635	bốn bắt sĩ	-1.9924062
-1.0033433	sau bắt sĩ	-1.1663314
-1.0033433	trái bắt sĩ	-1.1663314
-1.0033433	trên bắt sĩ	-1.1663314
-1.0033433	dưới bắt sĩ	-1.1663314
-1.0019635	sáu bắt sĩ	-1.9924062
-1.0033433	phải bắt sĩ	-1.1663314
-1.0112458	tượng bắt sĩ	-0.38818017
-1.0023854	bảy bắt sĩ	-1.9444827
-1.0023854	một bắt sĩ	-1.9444827
-1.0023854	ba bắt sĩ	-1.9444827
-1.0023854	hai bắt sĩ	-1.9444827
-1.0023854	tám bắt sĩ	-1.9444827
-1.0023854	chín bắt sĩ	-1.9444827
-1.0112458	tịnh bắt sĩ	-0.38818017
-1.0112458	bộ bắt sĩ	-0.38818017
-1.0112458	xe bắt sĩ	-0.38818017
-1.0112458	mã bắt sĩ	-0.38818017
-1.0112458	pháo bắt sĩ	-0.38818017
-1.0112458	tốt bắt sĩ	-0.38818017
-1.0037163	giữa bắt sĩ	-1.4885507
-1.0112458	binh bắt sĩ	-0.38818017
-1.0112458	chốt bắt sĩ	-0.38818017
-1.0112458	soái bắt sĩ	-0.38818017
-1.1800879	<s> tướng bắt	-1.6341412
-0.92981833	tướng năm bắt	-1.6341412
-0.9562666	sĩ năm bắt	-1.6341412
-0.87566745	trước năm bắt	-2.6341412
-0.87566745	sau năm bắt	-2.6341412
-0.87566745	trên năm bắt	-2.6341412
-0.87566745	dưới năm bắt	-2.6341412
-0.9562666	tượng năm bắt	-1.6341412
-0.9562666	tịnh năm bắt	-1.6341412
-0.9562666	bộ năm bắt	-1.6341412
-0.9786498	xe năm bắt	-1.6341412
-0.9562666	mã năm bắt	-1.6341412
-0.9786498	pháo năm bắt	-1.6341412
-0.9786498	tốt năm bắt	-1.6341412
-0.86699474	giữa năm bắt	-2.8102326
-0.9786498	binh năm bắt	-1.6341412
-0.9786498	chốt năm bắt	-1.6341412
-0.8980211	soái năm bắt	-1.6341412
-1.9785031	<s> sĩ bắt	-1.6341412
-1.2403461	sĩ trước bắt	-1.6341412
-1.3604212	tượng trước bắt	-1.6341412
-1.3604212	tịnh trước bắt	-1.6341412
-1.3604212	bộ trước bắt	-1.6341412
-1.3641757	xe trước bắt	-1.6341412
-1.3604212	mã trước bắt	-1.6341412
-1.3641757	pháo trước bắt	-1.6341412
-1.3677627	tốt trước bắt	-1.6341412
-1.3677627	binh trước bắt	-1.6341412
-1.3677627	chốt trước bắt	-1.6341412
-0.92981833	tướng bốn bắt	-1.6341412
-0.9562666	sĩ bốn bắt	-1.6341412
-0.89823335	trước bốn bắt	-2.6341412
-0.89823335	sau bốn bắt	-2.6341412
-0.89823335	trên bốn bắt	-2.6341412
-0.89823335	dưới bốn bắt	-2.6341412
-0.9562666	tượng bốn bắt	-1.6341412
-0.9562666	tịnh bốn bắt	-1.6341412
-0.9562666	bộ bốn bắt	-1.6341412
-0.9786498	xe bốn bắt	-1.6341412
-0.9562666	mã bốn bắt	-1.6341412
-0.9786498	pháo bốn bắt	-1.6341412
-0.9786498	tốt bốn bắt	-1.6341412
-0.86699474	giữa bốn bắt	-2.8102326
-0.9786498	binh bốn bắt	-1.6341412
-0.9786498	chốt bốn bắt	-1.6341412
-0.8980211	soái bốn bắt	-1.6341412
-1.2403461	sĩ sau bắt	-1.6341412
-1.3604212	tượng sau bắt	-1.6341412
-1.3604212	tịnh sau bắt	-1.6341412
-1.3604212	bộ sau bắt	-1.6341412
-1.3641757	xe sau bắt	-1.6341412
-1.3604212	mã sau bắt	-1.6341412
-1.3641757	pháo sau bắt	-1.6341412
-1.3677627	tốt sau bắt	-1.6341412
-1.3677627	binh sau bắt	-1.6341412
-1.3677627	chốt sau bắt	-1.6341412
-0.95166546	sĩ trái bắt	-1.6341412
-0.95166546	tượng trái bắt	-1.6341412
-0.95166546	tịnh trái bắt	-1.6341412
-0.95166546	bộ trái bắt	-1.6341412
-0.9738067	xe trái bắt	-1.6341412
-0.95166546	mã trái bắt	-1.6341412
-0.9738067	pháo trái bắt	-1.6341412
-0.99280125	tốt trái bắt	-1.6341412
-0.99280125	binh trái bắt	-1.6341412
-0.99280125	chốt trái bắt	-1.6341412
-1.2403461	sĩ trên bắt	-1.6341412
-1.3604212	tượng trên bắt	-1.6341412
-1.3604212	tịnh trên bắt	-1.6341412
-1.3604212	bộ trên bắt	-1.6341412
-1.3641757	xe trên bắt	-1.6341412
-1.3604212	mã trên bắt	-1.6341412
-1.3641757	pháo trên bắt	-1.6341412
-1.3677627	tốt trên bắt	-1.6341412
-1.3677627	binh trên bắt	-1.6341412
-1.3677627	chốt trên bắt	-1.6341412
-1.2403461	sĩ dưới bắt	-1.6341412
-1.3604212	tượng dưới bắt	-1.6341412
-1.3604212	tịnh dưới bắt	-1.6341412
-1.3604212	bộ dưới bắt	-1.6341412
-1.3641757	xe dưới bắt	-1.6341412
-1.3604212	mã dưới bắt	-1.6341412
-1.3641757	pháo dưới bắt	-1.6341412
-1.3677627	tốt dưới bắt	-1.6341412
-1.3677627	binh dưới bắt	-1.6341412
-1.3677627	chốt dưới bắt	-1.6341412
-0.92981833	tướng sáu bắt	-1.6341412
-0.9562666	sĩ sáu bắt	-1.6341412
-0.89823335	trước sáu bắt	-2.6341412
-0.89823335	sau sáu bắt	-2.6341412
-0.89823335	trên sáu bắt	-2.6341412
-0.89823335	dưới sáu bắt	-2.6341412
-0.9562666	tượng sáu bắt	-1.6341412
-0.9562666	tịnh sáu bắt	-1.6341412
-0.9562666	bộ sáu bắt	-1.6341412
-0.9786498	xe sáu bắt	-1.6341412
-0.9562666	mã sáu bắt	-1.6341412
-0.9786498	pháo sáu bắt	-1.6341412
-0.9786498	tốt sáu bắt	-1.6341412
-0.86699474	giữa sáu bắt	-2.8102326
-0.9786498	binh sáu bắt	-1.6341412
-0.9786498	chốt sáu bắt	-1.6341412
-0.8980211	soái sáu bắt	-1.6341412
-0.95166546	sĩ phải bắt	-1.6341412
-0.95166546	tượng phải bắt	-1.6341412
-0.95166546	tịnh phải bắt	-1.6341412
-0.95166546	bộ phải bắt	-1.6341412
-0.9738067	xe phải bắt	-1.6341412
-0.95166546	mã phải bắt	-1.6341412
-0.9738067	pháo phải bắt	-1.6341412
-0.99280125	tốt phải bắt	-1.6341412
-0.99280125	binh phải bắt	-1.6341412
-0.99280125	chốt phải bắt	-1.6341412
-2.4669228	<s> tượng bắt	-1.6341412
-0.9006944	trước bảy bắt	-2.5883837
-0.9006944	sau bảy bắt	-2.5883837
-0.9006944	trên bảy bắt	-2.5883837
-0.9006944	dưới bảy bắt	-2.5883837
-0.96537286	tượng bảy bắt	-1.6341412
-0.96537286	tịnh bảy bắt	-1.6341412
-0.96537286	bộ bảy bắt	-1.6341412
-0.98824304	xe bảy bắt	-1.6341412
-0.96537286	mã bảy bắt	-1.6341412
-0.98824304	pháo bảy bắt	-1.6341412
-0.98824304	tốt bảy bắt	-1.6341412
-0.8701506	giữa bảy bắt	-2.8102326
-0.98824304	binh bảy bắt	-1.6341412
-0.98824304	chốt bảy bắt	-1.6341412
-0.9006944	trước một bắt	-2.5883837
-0.9006944	sau một bắt	-2.5883837
-0.9006944	trên một bắt	-2.5883837
-0.9006944	dưới một bắt	-2.5883837
-0.96537286	tượng một bắt	-1.6341412
-0.96537286	tịnh một bắt	-1.6341412
-0.96537286	bộ một bắt	-1.6341412
-0.98824304	xe một bắt	-1.6341412
-0.96537286	mã một bắt	-1.6341412
-0.98824304	pháo một bắt	-1.6341412
-0.98824304	tốt một bắt	-1.6341412
-0.8701506	giữa một bắt	-2.8102326
-0.98824304	binh một bắt	-1.6341412
-0.98824304	chốt một bắt	-1.6341412
-0.9006944	trước ba bắt	-2.5883837
-0.9006944	sau ba bắt	-2.5883837
-0.9006944	trên ba bắt	-2.5883837
-0.9006944	dưới ba bắt	-2.5883837
-0.96537286	tượng ba bắt	-1.6341412
-0.96537286	tịnh ba bắt	-1.6341412
-0.96537286	bộ ba bắt	-1.6341412
-0.98824304	xe ba bắt	-1.6341412
-0.96537286	mã ba bắt	-1.6341412
-0.98824304	pháo ba bắt	-1.6341412
-0.98824304	tốt ba bắt	-1.6341412
-0.8701506	giữa ba bắt	-2.8102326
-0.98824304	binh ba bắt	-1.6341412
-0.98824304	chốt ba bắt	-1.6341412
-0.9006944	trước hai bắt	-2.5883837
-0.9006944	sau hai bắt	-2.5883837
-0.9006944	trên hai bắt	-2.5883837
-0.9006944	dưới hai bắt	-2.5883837
-0.96537286	tượng hai bắt	-1.6341412
-0.96537286	tịnh hai bắt	-1.6341412
-0.96537286	bộ hai bắt	-1.6341412
-0.98824304	xe hai bắt	-1.6341412
-0.96537286	mã hai bắt	-1.6341412
-0.98824304	pháo hai bắt	-1.6341412
-0.98824304	tốt hai bắt	-1.6341412
-0.8701506	giữa hai bắt	-2.8102326
-0.98824304	binh hai bắt	-1.6341412
-0.98824304	chốt hai bắt	-1.6341412
-0.9006944	trước tám bắt	-2.5883837
-0.9006944	sau tám bắt	-2.5883837
-0.9006944	trên tám bắt	-2.5883837
-0.9006944	dưới tám bắt	-2.5883837
-0.96537286	tượng tám bắt	-1.6341412
-0.96537286	tịnh tám bắt	-1.6341412
-0.96537286	bộ tám bắt	-1.6341412
-0.98824304	xe tám bắt	-1.6341412
-0.96537286	mã tám bắt	-1.6341412
-0.98824304	pháo tám bắt	-1.6341412
-0.98824304	tốt tám bắt	-1.6341412
-0.8701506	giữa tám bắt	-2.8102326
-0.98824304	binh tám bắt	-1.6341412
-0.98824304	chốt tám bắt	-1.6341412
-0.9006944	trước chín bắt	-2.5883837
-0.9006944	sau chín bắt	-2.5883837
-0.9006944	trên chín bắt	-2.5883837
-0.9006944	dưới chín bắt	-2.5883837
-0.96537286	tượng chín bắt	-1.6341412
-0.96537286	tịnh chín bắt	-1.6341412
-0.96537286	bộ chín bắt	-1.6341412
-0.98824304	xe chín bắt	-1.6341412
-0.96537286	mã chín bắt	-1.6341412
-0.98824304	pháo chín bắt	-1.6341412
-0.98824304	tốt chín bắt	-1.6341412
-0.8701506	giữa chín bắt	-2.8102326
-0.98824304	binh chín bắt	-1.6341412
-0.98824304	chốt chín bắt	-1.6341412
-2.4669228	<s> tịnh bắt	-1.6341412
-2.4669228	<s> bộ bắt	-1.6341412
-2.923835	<s> xe bắt	-1.6341412
-2.5934746	<s> mã bắt	-1.6341412
-2.923835	<s> pháo bắt	-1.6341412
-2.6181288	<s> tốt bắt	-1.6341412
-1.1832249	trước giữa bắt	-2.1112626
-1.1832249	sau giữa bắt	-2.1112626
-0.97568214	trái giữa bắt	-2.1112626
-1.1832249	trên giữa bắt	-2.1112626
-1.1832249	dưới giữa bắt	-2.1112626
-0.97568214	phải giữa bắt	-2.1112626
-1.3132185	tốt giữa bắt	-1.6341412
-1.3132185	binh giữa bắt	-1.6341412
-1.3132185	chốt giữa bắt	-1.6341412
-2.6181288	<s> binh bắt	-1.6341412
-2.6181288	<s> chốt bắt	-1.6341412
-1.1798356	<s> soái bắt	-1.6341412
-0.7726556	<s> sĩ trước	-2.8396037
-1.011785	ăn sĩ trước	-2.6394866
-1.011785	bắt sĩ trước	-2.6394866
-0.741341	<s> tượng trước	-3.155336
-1.2140458	ăn tượng trước	-2.6394866
-1.2140458	bắt tượng trước	-2.6394866
-0.741341	<s> tịnh trước	-3.155336
-1.2140458	ăn tịnh trước	-2.6394866
-1.2140458	bắt tịnh trước	-2.6394866
-0.741341	<s> bộ trước	-3.155336
-1.2140458	ăn bộ trước	-2.6394866
-1.2140458	bắt bộ trước	-2.6394866
-0.71629316	<s> xe trước	-3.6109939
-1.2142382	ăn xe trước	-2.6394866
-1.2142382	bắt xe trước	-2.6394866
-0.73023385	<s> mã trước	-3.292994
-1.2140458	ăn mã trước	-2.6394866
-1.2140458	bắt mã trước	-2.6394866
-0.71629316	<s> pháo trước	-3.6109939
-1.2142382	ăn pháo trước	-2.6394866
-1.2142382	bắt pháo trước	-2.6394866
-0.7305079	<s> tốt trước	-3.3173668
-1.2399162	ăn tốt trước	-2.8991237
-1.2399162	bắt tốt trước	-2.8991237
-0.7305079	<s> binh trước	-3.3173668
-1.2399162	ăn binh trước	-2.8991237
-1.2399162	bắt binh trước	-2.8991237
-0.7305079	<s> chốt trước	-3.3173668
-1.2399162	ăn chốt trước	-2.8991237
-1.2399162	bắt chốt trước	-2.8991237
-0.6296798	<s> tướng bốn	-2.3390253
-1.0078944	chiếu tướng bốn	-4.1112623
-1.4095858	<s> sĩ bốn	-2.3575718
-1.009302	ăn sĩ bốn	-2.6394866
-1.009302	bắt sĩ bốn	-2.6394866
-0.9501639	sĩ trước bốn	-2.4890206
-1.151855	tượng trước bốn	-2.5740314
-1.151855	tịnh trước bốn	-2.5740314
-1.151855	bộ trước bốn	-2.5740314
-1.1588489	xe trước bốn	-2.9378521
-1.151855	mã trước bốn	-2.7061486
-1.1588489	pháo trước bốn	-2.9378521
-1.1655802	tốt trước bốn	-2.5470123
-1.1655802	binh trước bốn	-2.5470123
-1.1655802	chốt trước bốn	-2.5470123
-0.9501639	sĩ sau bốn	-2.4890206
-1.151855	tượng sau bốn	-2.5740314
-1.151855	tịnh sau bốn	-2.5740314
-1.151855	bộ sau bốn	-2.5740314
-1.1588489	xe sau bốn	-2.9378521
-1.151855	mã sau bốn	-2.7061486
-1.1588489	pháo sau bốn	-2.9378521
-1.1655802	tốt sau bốn	-2.5470123
-1.1655802	binh sau bốn	-2.5470123
-1.1655802	chốt sau bốn	-2.5470123
-0.9501639	sĩ trên bốn	-2.4890206
-1.151855	tượng trên bốn	-2.5740314
-1.151855	tịnh trên bốn	-2.5740314
-1.151855	bộ trên bốn	-2.5740314
-1.1588489	xe trên bốn	-2.9378521
-1.151855	mã trên bốn	-2.7061486
-1.1588489	pháo trên bốn	-2.9378521
-1.1655802	tốt trên bốn	-2.5470123
-1.1655802	binh trên bốn	-2.5470123
-1.1655802	chốt trên bốn	-2.5470123
-0.9501639	sĩ dưới bốn	-2.4890206
-1.151855	tượng dưới bốn	-2.5740314
-1.151855	tịnh dưới bốn	-2.5740314
-1.151855	bộ dưới bốn	-2.5740314
-1.1588489	xe dưới bốn	-2.9378521
-1.151855	mã dưới bốn	-2.7061486
-1.1588489	pháo dưới bốn	-2.9378521
-1.1655802	tốt dưới bốn	-2.5470123
-1.1655802	binh dưới bốn	-2.5470123
-1.1655802	chốt dưới bốn	-2.5470123
-1.7728165	<s> tượng bốn	-2.4828737
-1.2100966	ăn tượng bốn	-2.6394866
-1.2100966	bắt tượng bốn	-2.6394866
-1.7728165	<s> tịnh bốn	-2.4828737
-1.2100966	ăn tịnh bốn	-2.6394866
-1.2100966	bắt tịnh bốn	-2.6394866
-1.7728165	<s> bộ bốn	-2.4828737
-1.2100966	ăn bộ bốn	-2.6394866
-1.2100966	bắt bộ bốn	-2.6394866
-1.7171234	<s> xe bốn	-2.937518
-1.2102872	ăn xe bốn	-2.6394866
-1.2102872	bắt xe bốn	-2.6394866
-1.7229161	<s> mã bốn	-2.6593275
-1.2100966	ăn mã bốn	-2.6394866
-1.2100966	bắt mã bốn	-2.6394866
-1.7171234	<s> pháo bốn	-2.937518
-1.2102872	ăn pháo bốn	-2.6394866
-1.2102872	bắt pháo bốn	-2.6394866
-1.9821669	<s> tốt bốn	-2.3667343
-1.2357258	ăn tốt bốn	-2.6394866
-1.2357258	bắt tốt bốn	-2.6394866
-1.2467849	trước giữa bốn	-3.0241337
-1.2467849	sau giữa bốn	-3.0241337
-1.2467849	trên giữa bốn	-3.0241337
-1.2467849	dưới giữa bốn	-3.0241337
-1.1658393	tốt giữa bốn	-2.5470123
-1.1658393	binh giữa bốn	-2.5470123
-1.1658393	chốt giữa bốn	-2.5470123
-1.9821669	<s> binh bốn	-2.3667343
-1.2357258	ăn binh bốn	-2.6394866
-1.2357258	bắt binh bốn	-2.6394866
-1.9821669	<s> chốt bốn	-2.3667343
-1.2357258	ăn chốt bốn	-2.6394866
-1.2357258	bắt chốt bốn	-2.6394866
-0.6296798	<s> soái bốn	-2.3390253
-0.95793366	năm tiến bốn	-3.3290586
-0.6581411	sĩ tiến bốn	-2.1249387
-0.9372743	trước tiến bốn	-2.9700367
-1.0780357	bốn tiến bốn	-3.1249387
-0.9372743	sau tiến bốn	-2.9700367
-0.9372743	trái tiến bốn	-2.9700367
-0.9372743	trên tiến bốn	-2.9700367
-0.9372743	dưới tiến bốn	-2.9700367
-0.8542087	sáu tiến bốn	-3.60206
-0.9372743	phải tiến bốn	-2.9700367
-0.96415627	tượng tiến bốn	-2.1249387
-1.0592862	bảy tiến bốn	-3.1249387
-1.0261178	một tiến bốn	-3.1249387
-0.9916319	ba tiến bốn	-3.30103
-0.80913043	hai tiến bốn	-3.60206
-1.0329573	tám tiến bốn	-3.1249387
-1.0261178	chín tiến bốn	-3.1249387
-0.96415627	tịnh tiến bốn	-2.1249387
-0.96415627	bộ tiến bốn	-2.1249387
-0.96415627	xe tiến bốn	-2.1249387
-0.96415627	mã tiến bốn	-2.1249387
-0.96415627	pháo tiến bốn	-2.1249387
-0.95793366	năm tấn bốn	-3.3290586
-0.6581411	sĩ tấn bốn	-2.1249387
-0.9372743	trước tấn bốn	-2.9700367
-1.0780357	bốn tấn bốn	-3.1249387
-0.9372743	sau tấn bốn	-2.9700367
-0.9372743	trái tấn bốn	-2.9700367
-0.9372743	trên tấn bốn	-2.9700367
-0.9372743	dưới tấn bốn	-2.9700367
-0.8542087	sáu tấn bốn	-3.60206
-0.9372743	phải tấn bốn	-2.9700367
-0.96415627	tượng tấn bốn	-2.1249387
-1.0592862	bảy tấn bốn	-3.1249387
-1.0261178	một tấn bốn	-3.1249387
-0.9916319	ba tấn bốn	-3.30103
-0.80913043	hai tấn bốn	-3.60206
-1.0329573	tám tấn bốn	-3.1249387
-1.0261178	chín tấn bốn	-3.1249387
-0.96415627	tịnh tấn bốn	-2.1249387
-0.96415627	bộ tấn bốn	-2.1249387
-0.96415627	xe tấn bốn	-2.1249387
-0.96415627	mã tấn bốn	-2.1249387
-0.96415627	pháo tấn bốn	-2.1249387
-0.65142834	tướng bình bốn	-2.1249387
-0.70423913	năm bình bốn	-3.748188
-0.95210236	trước bình bốn	-2.8239088
-0.95210236	sau bình bốn	-2.8239088
-0.95210236	trái bình bốn	-2.8239088
-0.95210236	trên bình bốn	-2.8239088
-0.95210236	dưới bình bốn	-2.8239088
-0.99587965	sáu bình bốn	-3.1249387
-0.95210236	phải bình bốn	-2.8239088
-0.9806397	bảy bình bốn	-3.1249387
-0.948455	một bình bốn	-3.1249387
-0.7545187	ba bình bốn	-3.7269988
-0.9806397	hai bình bốn	-3.1249387
-0.9806397	tám bình bốn	-3.1249387
-0.948455	chín bình bốn	-3.1249387
-0.95068145	xe bình bốn	-2.1249387
-0.95068145	pháo bình bốn	-2.1249387
-0.95068145	tốt bình bốn	-2.1249387
-0.9530522	giữa bình bốn	-3.447158
-0.95068145	binh bình bốn	-2.1249387
-0.95068145	chốt bình bốn	-2.1249387
-0.65142834	soái bình bốn	-2.1249387
-0.9314962	năm thoái bốn	-3.3290586
-0.65598446	sĩ thoái bốn	-2.1249387
-0.9131517	trước thoái bốn	-2.9700367
-1.0506955	bốn thoái bốn	-3.1249387
-0.9131517	sau thoái bốn	-2.9700367
-0.9131517	trái thoái bốn	-2.9700367
-0.9131517	trên thoái bốn	-2.9700367
-0.9131517	dưới thoái bốn	-2.9700367
-0.82773584	sáu thoái bốn	-3.60206
-0.9131517	phải thoái bốn	-2.9700367
-0.95980424	tượng thoái bốn	-2.1249387
-1.0308007	bảy thoái bốn	-3.1249387
-0.9954727	một thoái bốn	-3.1249387
-0.9634568	ba thoái bốn	-3.30103
-0.7798123	hai thoái bốn	-3.60206
-1.002772	tám thoái bốn	-3.1249387
-0.9954727	chín thoái bốn	-3.1249387
-0.95980424	tịnh thoái bốn	-2.1249387
-0.95980424	bộ thoái bốn	-2.1249387
-0.95980424	xe thoái bốn	-2.1249387
-0.95980424	mã thoái bốn	-2.1249387
-0.95980424	pháo thoái bốn	-2.1249387
-0.9314962	năm lùi bốn	-3.3290586
-0.65598446	sĩ lùi bốn	-2.1249387
-0.9131517	trước lùi bốn	-2.9700367
-1.0506955	bốn lùi bốn	-3.1249387
-0.9131517	sau lùi bốn	-2.9700367
-0.9131517	trái lùi bốn	-2.9700367
-0.9131517	trên lùi bốn	-2.9700367
-0.9131517	dưới lùi bốn	-2.9700367
-0.82773584	sáu lùi bốn	-3.60206
-0.9131517	phải lùi bốn	-2.9700367
-0.95980424	tượng lùi bốn	-2.1249387
-1.0308007	bảy lùi bốn	-3.1249387
-0.9954727	một lùi bốn	-3.1249387
-0.9634568	ba lùi bốn	-3.30103
-0.7798123	hai lùi bốn	-3.60206
-1.002772	tám lùi bốn	-3.1249387
-0.9954727	chín lùi bốn	-3.1249387
-0.95980424	tịnh lùi bốn	-2.1249387
-0.95980424	bộ lùi bốn	-2.1249387
-0.95980424	xe lùi bốn	-2.1249387
-0.95980424	mã lùi bốn	-2.1249387
-0.95980424	pháo lùi bốn	-2.1249387
-0.7726556	<s> sĩ sau	-2.8396037
-1.011785	ăn sĩ sau	-2.6394866
-1.011785	bắt sĩ sau	-2.6394866
-0.741341	<s> tượng sau	-3.155336
-1.2140458	ăn tượng sau	-2.6394866
-1.2140458	bắt tượng sau	-2.6394866
-0.741341	<s> tịnh sau	-3.155336
-1.2140458	ăn tịnh sau	-2.6394866
-1.2140458	bắt tịnh sau	-2.6394866
-0.741341	<s> bộ sau	-3.155336
-1.2140458	ăn bộ sau	-2.6394866
-1.2140458	bắt bộ sau	-2.6394866
-0.71629316	<s> xe sau	-3.6109939
-1.2142382	ăn xe sau	-2.6394866
-1.2142382	bắt xe sau	-2.6394866
-0.73023385	<s> mã sau	-3.292994
-1.2140458	ăn mã sau	-2.6394866
-1.2140458	bắt mã sau	-2.6394866
-0.71629316	<s> pháo sau	-3.6109939
-1.2142382	ăn pháo sau	-2.6394866
-1.2142382	bắt pháo sau	-2.6394866
-0.7305079	<s> tốt sau	-3.3173668
-1.2399162	ăn tốt sau	-2.8991237
-1.2399162	bắt tốt sau	-2.8991237
-0.7305079	<s> binh sau	-3.3173668
-1.2399162	ăn binh sau	-2.8991237
-1.2399162	bắt binh sau	-2.8991237
-0.7305079	<s> chốt sau	-3.3173668
-1.2399162	ăn chốt sau	-2.8991237
-1.2399162	bắt chốt sau	-2.8991237
-1.1871802	<s> sĩ trái	-2.5800014
-1.011785	ăn sĩ trái	-2.6394866
-1.011785	bắt sĩ trái	-2.6394866
-1.332812	<s> tượng trái	-2.9228983
-1.2140458	ăn tượng trái	-2.6394866
-1.2140458	bắt tượng trái	-2.6394866
-1.332812	<s> tịnh trái	-2.9228983
-1.2140458	ăn tịnh trái	-2.6394866
-1.2140458	bắt tịnh trái	-2.6394866
-1.332812	<s> bộ trái	-2.9228983
-1.2140458	ăn bộ trái	-2.6394866
-1.2140458	bắt bộ trái	-2.6394866
-1.7088593	<s> xe trái	-2.9457967
-1.2142382	ăn xe trái	-2.6394866
-1.2142382	bắt xe trái	-2.6394866
-1.4593637	<s> mã trái	-2.9228983
-1.2140458	ăn mã trái	-2.6394866
-1.2140458	bắt mã trái	-2.6394866
-1.7088593	<s> pháo trái	-2.9457967
-1.2142382	ăn pháo trái	-2.6394866
-1.2142382	bắt pháo trái	-2.6394866
-1.5482041	<s> tốt trái	-2.858709
-1.2399162	ăn tốt trái	-2.6394866
-1.2399162	bắt tốt trái	-2.6394866
-1.5482041	<s> binh trái	-2.858709
-1.2399162	ăn binh trái	-2.6394866
-1.2399162	bắt binh trái	-2.6394866
-1.5482041	<s> chốt trái	-2.858709
-1.2399162	ăn chốt trái	-2.6394866
-1.2399162	bắt chốt trái	-2.6394866
-0.7726556	<s> sĩ trên	-2.8396037
-1.011785	ăn sĩ trên	-2.6394866
-1.011785	bắt sĩ trên	-2.6394866
-0.741341	<s> tượng trên	-3.155336
-1.2140458	ăn tượng trên	-2.6394866
-1.2140458	bắt tượng trên	-2.6394866
-0.741341	<s> tịnh trên	-3.155336
-1.2140458	ăn tịnh trên	-2.6394866
-1.2140458	bắt tịnh trên	-2.6394866
-0.741341	<s> bộ trên	-3.155336
-1.2140458	ăn bộ trên	-2.6394866
-1.2140458	bắt bộ trên	-2.6394866
-0.71629316	<s> xe trên	-3.6109939
-1.2142382	ăn xe trên	-2.6394866
-1.2142382	bắt xe trên	-2.6394866
-0.73023385	<s> mã trên	-3.292994
-1.2140458	ăn mã trên	-2.6394866
-1.2140458	bắt mã trên	-2.6394866
-0.71629316	<s> pháo trên	-3.6109939
-1.2142382	ăn pháo trên	-2.6394866
-1.2142382	bắt pháo trên	-2.6394866
-0.7305079	<s> tốt trên	-3.3173668
-1.2399162	ăn tốt trên	-2.8991237
-1.2399162	bắt tốt trên	-2.8991237
-0.7305079	<s> binh trên	-3.3173668
-1.2399162	ăn binh trên	-2.8991237
-1.2399162	bắt binh trên	-2.8991237
-0.7305079	<s> chốt trên	-3.3173668
-1.2399162	ăn chốt trên	-2.8991237
-1.2399162	bắt chốt trên	-2.8991237
-0.7726556	<s> sĩ dưới	-2.8396037
-1.011785	ăn sĩ dưới	-2.6394866
-1.011785	bắt sĩ dưới	-2.6394866
-0.741341	<s> tượng dưới	-3.155336
-1.2140458	ăn tượng dưới	-2.6394866
-1.2140458	bắt tượng dưới	-2.6394866
-0.741341	<s> tịnh dưới	-3.155336
-1.2140458	ăn tịnh dưới	-2.6394866
-1.2140458	bắt tịnh dưới	-2.6394866
-0.741341	<s> bộ dưới	-3.155336
-1.2140458	ăn bộ dưới	-2.6394866
-1.2140458	bắt bộ dưới	-2.6394866
-0.71629316	<s> xe dưới	-3.6109939
-1.2142382	ăn xe dưới	-2.6394866
-1.2142382	bắt xe dưới	-2.6394866
-0.73023385	<s> mã dưới	-3.292994
-1.2140458	ăn mã dưới	-2.6394866
-1.2140458	bắt mã dưới	-2.6394866
-0.71629316	<s> pháo dưới	-3.6109939
-1.2142382	ăn pháo dưới	-2.6394866
-1.2142382	bắt pháo dưới	-2.6394866
-0.7305079	<s> tốt dưới	-3.3173668
-1.2399162	ăn tốt dưới	-2.8991237
-1.2399162	bắt tốt dưới	-2.8991237
-0.7305079	<s> binh dưới	-3.3173668
-1.2399162	ăn binh dưới	-2.8991237
-1.2399162	bắt binh dưới	-2.8991237
-0.7305079	<s> chốt dưới	-3.3173668
-1.2399162	ăn chốt dưới	-2.8991237
-1.2399162	bắt chốt dưới	-2.8991237
-0.6296798	<s> tướng sáu	-2.3390253
-1.0078944	chiếu tướng sáu	-4.1112623
-1.4095858	<s> sĩ sáu	-2.3575718
-1.009302	ăn sĩ sáu	-2.6394866
-1.009302	bắt sĩ sáu	-2.6394866
-0.9501639	sĩ trước sáu	-2.4890206
-1.151855	tượng trước sáu	-2.5740314
-1.151855	tịnh trước sáu	-2.5740314
-1.151855	bộ trước sáu	-2.5740314
-1.1588489	xe trước sáu	-2.9378521
-1.151855	mã trước sáu	-2.7061486
-1.1588489	pháo trước sáu	-2.9378521
-1.1655802	tốt trước sáu	-2.5470123
-1.1655802	binh trước sáu	-2.5470123
-1.1655802	chốt trước sáu	-2.5470123
-0.9501639	sĩ sau sáu	-2.4890206
-1.151855	tượng sau sáu	-2.5740314
-1.151855	tịnh sau sáu	-2.5740314
-1.151855	bộ sau sáu	-2.5740314
-1.1588489	xe sau sáu	-2.9378521
-1.151855	mã sau sáu	-2.7061486
-1.1588489	pháo sau sáu	-2.9378521
-1.1655802	tốt sau sáu	-2.5470123
-1.1655802	binh sau sáu	-2.5470123
-1.1655802	chốt sau sáu	-2.5470123
-0.9501639	sĩ trên sáu	-2.4890206
-1.151855	tượng trên sáu	-2.5740314
-1.151855	tịnh trên sáu	-2.5740314
-1.151855	bộ trên sáu	-2.5740314
-1.1588489	xe trên sáu	-2.9378521
-1.151855	mã trên sáu	-2.7061486
-1.1588489	pháo trên sáu	-2.9378521
-1.1655802	tốt trên sáu	-2.5470123
-1.1655802	binh trên sáu	-2.5470123
-1.1655802	chốt trên sáu	-2.5470123
-0.9501639	sĩ dưới sáu	-2.4890206
-1.151855	tượng dưới sáu	-2.5740314
-1.151855	tịnh dưới sáu	-2.5740314
-1.151855	bộ dưới sáu	-2.5740314
-1.1588489	xe dưới sáu	-2.9378521
-1.151855	mã dưới sáu	-2.7061486
-1.1588489	pháo dưới sáu	-2.9378521
-1.1655802	tốt dưới sáu	-2.5470123
-1.1655802	binh dưới sáu	-2.5470123
-1.1655802	chốt dưới sáu	-2.5470123
-1.7728165	<s> tượng sáu	-2.4828737
-1.2100966	ăn tượng sáu	-2.6394866
-1.2100966	bắt tượng sáu	-2.6394866
-1.7728165	<s> tịnh sáu	-2.4828737
-1.2100966	ăn tịnh sáu	-2.6394866
-1.2100966	bắt tịnh sáu	-2.6394866
-1.7728165	<s> bộ sáu	-2.4828737
-1.2100966	ăn bộ sáu	-2.6394866
-1.2100966	bắt bộ sáu	-2.6394866
-1.7171234	<s> xe sáu	-2.937518
-1.2102872	ăn xe sáu	-2.6394866
-1.2102872	bắt xe sáu	-2.6394866
-1.7229161	<s> mã sáu	-2.6593275
-1.2100966	ăn mã sáu	-2.6394866
-1.2100966	bắt mã sáu	-2.6394866
-1.7171234	<s> pháo sáu	-2.937518
-1.2102872	ăn pháo sáu	-2.6394866
-1.2102872	bắt pháo sáu	-2.6394866
-1.9821669	<s> tốt sáu	-2.3667343
-1.2357258	ăn tốt sáu	-2.6394866
-1.2357258	bắt tốt sáu	-2.6394866
-1.2467849	trước giữa sáu	-3.0241337
-1.2467849	sau giữa sáu	-3.0241337
-1.2467849	trên giữa sáu	-3.0241337
-1.2467849	dưới giữa sáu	-3.0241337
-1.1658393	tốt giữa sáu	-2.5470123
-1.1658393	binh giữa sáu	-2.5470123
-1.1658393	chốt giữa sáu	-2.5470123
-1.9821669	<s> binh sáu	-2.3667343
-1.2357258	ăn binh sáu	-2.6394866
-1.2357258	bắt binh sáu	-2.6394866
-1.9821669	<s> chốt sáu	-2.3667343
-1.2357258	ăn chốt sáu	-2.6394866
-1.2357258	bắt chốt sáu	-2.6394866
-0.6296798	<s> soái sáu	-2.3390253
-0.95793366	năm tiến sáu	-3.3290586
-0.6581411	sĩ tiến sáu	-2.1249387
-0.9372743	trước tiến sáu	-2.9700367
-0.8542087	bốn tiến sáu	-3.60206
-0.9372743	sau tiến sáu	-2.9700367
-0.9372743	trái tiến sáu	-2.9700367
-0.9372743	trên tiến sáu	-2.9700367
-0.9372743	dưới tiến sáu	-2.9700367
-1.0780357	sáu tiến sáu	-3.1249387
-0.9372743	phải tiến sáu	-2.9700367
-0.96415627	tượng tiến sáu	-2.1249387
-0.9916319	bảy tiến sáu	-3.30103
-1.0261178	một tiến sáu	-3.1249387
-1.0592862	ba tiến sáu	-3.1249387
-1.0329573	hai tiến sáu	-3.1249387
-0.80913043	tám tiến sáu	-3.60206
-1.0261178	chín tiến sáu	-3.1249387
-0.96415627	tịnh tiến sáu	-2.1249387
-0.96415627	bộ tiến sáu	-2.1249387
-0.96415627	xe tiến sáu	-2.1249387
-0.96415627	mã tiến sáu	-2.1249387
-0.96415627	pháo tiến sáu	-2.1249387
-0.95793366	năm tấn sáu	-3.3290586
-0.6581411	sĩ tấn sáu	-2.1249387
-0.9372743	trước tấn sáu	-2.9700367
-0.8542087	bốn tấn sáu	-3.60206
-0.9372743	sau tấn sáu	-2.9700367
-0.9372743	trái tấn sáu	-2.9700367
-0.9372743	trên tấn sáu	-2.9700367
-0.9372743	dưới tấn sáu	-2.9700367
-1.0780357	sáu tấn sáu	-3.1249387
-0.9372743	phải tấn sáu	-2.9700367
-0.96415627	tượng tấn sáu	-2.1249387
-0.9916319	bảy tấn sáu	-3.30103
-1.0261178	một tấn sáu	-3.1249387
-1.0592862	ba tấn sáu	-3.1249387
-1.0329573	hai tấn sáu	-3.1249387
-0.80913043	tám tấn sáu	-3.60206
-1.0261178	chín tấn sáu	-3.1249387
-0.96415627	tịnh tấn sáu	-2.1249387
-0.96415627	bộ tấn sáu	-2.1249387
-0.96415627	xe tấn sáu	-2.1249387
-0.96415627	mã tấn sáu	-2.1249387
-0.96415627	pháo tấn sáu	-2.1249387
-0.65142834	tướng bình sáu	-2.1249387
-0.70423913	năm bình sáu	-3.748188
-0.95210236	trước bình sáu	-2.8239088
-0.99587965	bốn bình sáu	-3.1249387
-0.95210236	sau bình sáu	-2.8239088
-0.95210236	trái bình sáu	-2.8239088
-0.95210236	trên bình sáu	-2.8239088
-0.95210236	dưới bình sáu	-2.8239088
-0.95210236	phải bình sáu	-2.8239088
-0.7545187	bảy bình sáu	-3.7269988
-0.948455	một bình sáu	-3.1249387
-0.9806397	ba bình sáu	-3.1249387
-0.9806397	hai bình sáu	-3.1249387
-0.9806397	tám bình sáu	-3.1249387
-0.948455	chín bình sáu	-3.1249387
-0.95068145	xe bình sáu	-2.1249387
-0.95068145	pháo bình sáu	-2.1249387
-0.95068145	tốt bình sáu	-2.1249387
-0.9530522	giữa bình sáu	-3.447158
-0.95068145	binh bình sáu	-2.1249387
-0.95068145	chốt bình sáu	-2.1249387
-0.65142834	soái bình sáu	-2.1249387
-0.9314962	năm thoái sáu	-3.3290586
-0.65598446	sĩ thoái sáu	-2.1249387
-0.9131517	trước thoái sáu	-2.9700367
-0.82773584	bốn thoái sáu	-3.60206
-0.9131517	sau thoái sáu	-2.9700367
-0.9131517	trái thoái sáu	-2.9700367
-0.9131517	trên thoái sáu	-2.9700367
-0.9131517	dưới thoái sáu	-2.9700367
-1.0506955	sáu thoái sáu	-3.1249387
-0.9131517	phải thoái sáu	-2.9700367
-0.95980424	tượng thoái sáu	-2.1249387
-0.9634568	bảy thoái sáu	-3.30103
-0.9954727	một thoái sáu	-3.1249387
-1.0308007	ba thoái sáu	-3.1249387
-1.002772	hai thoái sáu	-3.1249387
-0.7798123	tám thoái sáu	-3.60206
-0.9954727	chín thoái sáu	-3.1249387
-0.95980424	tịnh thoái sáu	-2.1249387
-0.95980424	bộ thoái sáu	-2.1249387
-0.95980424	xe thoái sáu	-2.1249387
-0.95980424	mã thoái sáu	-2.1249387
-0.95980424	pháo thoái sáu	-2.1249387
-0.9314962	năm lùi sáu	-3.3290586
-0.65598446	sĩ lùi sáu	-2.1249387
-0.9131517	trước lùi sáu	-2.9700367
-0.82773584	bốn lùi sáu	-3.60206
-0.9131517	sau lùi sáu	-2.9700367
-0.9131517	trái lùi sáu	-2.9700367
-0.9131517	trên lùi sáu	-2.9700367
-0.9131517	dưới lùi sáu	-2.9700367
-1.0506955	sáu lùi sáu	-3.1249387
-0.9131517	phải lùi sáu	-2.9700367
-0.95980424	tượng lùi sáu	-2.1249387
-0.9634568	bảy lùi sáu	-3.30103
-0.9954727	một lùi sáu	-3.1249387
-1.0308007	ba lùi sáu	-3.1249387
-1.002772	hai lùi sáu	-3.1249387
-0.7798123	tám lùi sáu	-3.60206
-0.9954727	chín lùi sáu	-3.1249387
-0.95980424	tịnh lùi sáu	-2.1249387
-0.95980424	bộ lùi sáu	-2.1249387
-0.95980424	xe lùi sáu	-2.1249387
-0.95980424	mã lùi sáu	-2.1249387
-0.95980424	pháo lùi sáu	-2.1249387
-1.1871802	<s> sĩ phải	-2.5800014
-1.011785	ăn sĩ phải	-2.6394866
-1.011785	bắt sĩ phải	-2.6394866
-1.332812	<s> tượng phải	-2.9228983
-1.2140458	ăn tượng phải	-2.6394866
-1.2140458	bắt tượng phải	-2.6394866
-1.332812	<s> tịnh phải	-2.9228983
-1.2140458	ăn tịnh phải	-2.6394866
-1.2140458	bắt tịnh phải	-2.6394866
-1.332812	<s> bộ phải	-2.9228983
-1.2140458	ăn bộ phải	-2.6394866
-1.2140458	bắt bộ phải	-2.6394866
-1.7088593	<s> xe phải	-2.9457967
-1.2142382	ăn xe phải	-2.6394866
-1.2142382	bắt xe phải	-2.6394866
-1.4593637	<s> mã phải	-2.9228983
-1.2140458	ăn mã phải	-2.6394866
-1.2140458	bắt mã phải	-2.6394866
-1.7088593	<s> pháo phải	-2.9457967
-1.2142382	ăn pháo phải	-2.6394866
-1.2142382	bắt pháo phải	-2.6394866
-1.5482041	<s> tốt phải	-2.858709
-1.2399162	ăn tốt phải	-2.6394866
-1.2399162	bắt tốt phải	-2.6394866
-1.5482041	<s> binh phải	-2.858709
-1.2399162	ăn binh phải	-2.6394866
-1.2399162	bắt binh phải	-2.6394866
-1.5482041	<s> chốt phải	-2.858709
-1.2399162	ăn chốt phải	-2.6394866
-1.2399162	bắt chốt phải	-2.6394866
-1.0112458	tướng ăn tượng	-0.6368221
-1.0019635	năm ăn tượng	-2.161867
-1.0112458	sĩ ăn tượng	-0.6368221
-1.0033433	trước ăn tượng	-1.3357921
-1.0019635	bốn ăn tượng	-2.161867
-1.0033433	sau ăn tượng	-1.3357921
-1.0033433	trái ăn tượng	-1.3357921
-1.0033433	trên ăn tượng	-1.3357921
-1.0033433	dưới ăn tượng	-1.3357921
-1.0019635	sáu ăn tượng	-2.161867
-1.0033433	phải ăn tượng	-1.3357921
-1.0112458	tượng ăn tượng	-0.6368221
-1.0023854	bảy ăn tượng	-2.1139433
-1.0023854	một ăn tượng	-2.1139433
-1.0023854	ba ăn tượng	-2.1139433
-1.0023854	hai ăn tượng	-2.1139433
-1.0023854	tám ăn tượng	-2.1139433
-1.0023854	chín ăn tượng	-2.1139433
-1.0112458	tịnh ăn tượng	-0.6368221
-1.0112458	bộ ăn tượng	-0.6368221
-1.0112458	xe ăn tượng	-0.6368221
-1.0112458	mã ăn tượng	-0.6368221
-1.0112458	pháo ăn tượng	-0.6368221
-1.0112458	tốt ăn tượng	-0.6368221
-1.0037163	giữa ăn tượng	-1.6580114
-1.0112458	binh ăn tượng	-0.6368221
-1.0112458	chốt ăn tượng	-0.6368221
-1.0112458	soái ăn tượng	-0.6368221
-1.0112458	tướng bắt tượng	-0.6368221
-1.0019635	năm bắt tượng	-2.161867
-1.0112458	sĩ bắt tượng	-0.6368221
-1.0033433	trước bắt tượng	-1.3357921
-1.0019635	bốn bắt tượng	-2.161867
-1.0033433	sau bắt tượng	-1.3357921
-1.0033433	trái bắt tượng	-1.3357921
-1.0033433	trên bắt tượng	-1.3357921
-1.0033433	dưới bắt tượng	-1.3357921
-1.0019635	sáu bắt tượng	-2.161867
-1.0033433	phải bắt tượng	-1.3357921
-1.0112458	tượng bắt tượng	-0.6368221
-1.0023854	bảy bắt tượng	-2.1139433
-1.0023854	một bắt tượng	-2.1139433
-1.0023854	ba bắt tượng	-2.1139433
-1.0023854	hai bắt tượng	-2.1139433
-1.0023854	tám bắt tượng	-2.1139433
-1.0023854	chín bắt tượng	-2.1139433
-1.0112458	tịnh bắt tượng	-0.6368221
-1.0112458	bộ bắt tượng	-0.6368221
-1.0112458	xe bắt tượng	-0.6368221
-1.0112458	mã bắt tượng	-0.6368221
-1.0112458	pháo bắt tượng	-0.6368221
-1.0112458	tốt bắt tượng	-0.6368221
-1.0037163	giữa bắt tượng	-1.6580114
-1.0112458	binh bắt tượng	-0.6368221
-1.0112458	chốt bắt tượng	-0.6368221
-1.0112458	soái bắt tượng	-0.6368221
-1.0147703	chiếu tướng bảy	-4.1112623
-1.1727424	tượng trước bảy	-2.5740314
-1.1727424	tịnh trước bảy	-2.5740314
-1.1727424	bộ trước bảy	-2.5740314
-1.1800838	xe trước bảy	-2.9378521
-1.1727424	mã trước bảy	-2.7061486
-1.1800838	pháo trước bảy	-2.9378521
-1.1871552	tốt trước bảy	-2.5470123
-1.1871552	binh trước bảy	-2.5470123
-1.1871552	chốt trước bảy	-2.5470123
-1.1727424	tượng sau bảy	-2.5740314
-1.1727424	tịnh sau bảy	-2.5740314
-1.1727424	bộ sau bảy	-2.5740314
-1.1800838	xe sau bảy	-2.9378521
-1.1727424	mã sau bảy	-2.7061486
-1.1800838	pháo sau bảy	-2.9378521
-1.1871552	tốt sau bảy	-2.5470123
-1.1871552	binh sau bảy	-2.5470123
-1.1871552	chốt sau bảy	-2.5470123
-1.1727424	tượng trên bảy	-2.5740314
-1.1727424	tịnh trên bảy	-2.5740314
-1.1727424	bộ trên bảy	-2.5740314
-1.1800838	xe trên bảy	-2.9378521
-1.1727424	mã trên bảy	-2.7061486
-1.1800838	pháo trên bảy	-2.9378521
-1.1871552	tốt trên bảy	-2.5470123
-1.1871552	binh trên bảy	-2.5470123
-1.1871552	chốt trên bảy	-2.5470123
-1.1727424	tượng dưới bảy	-2.5740314
-1.1727424	tịnh dưới bảy	-2.5740314
-1.1727424	bộ dưới bảy	-2.5740314
-1.1800838	xe dưới bảy	-2.9378521
-1.1727424	mã dưới bảy	-2.7061486
-1.1800838	pháo dưới bảy	-2.9378521
-1.1871552	tốt dưới bảy	-2.5470123
-1.1871552	binh dưới bảy	-2.5470123
-1.1871552	chốt dưới bảy	-2.5470123
-1.7728244	<s> tượng bảy	-2.4828737
-1.2107522	ăn tượng bảy	-2.6394866
-1.2107522	bắt tượng bảy	-2.6394866
-1.7728244	<s> tịnh bảy	-2.4828737
-1.2107522	ăn tịnh bảy	-2.6394866
-1.2107522	bắt tịnh bảy	-2.6394866
-1.7728244	<s> bộ bảy	-2.4828737
-1.2107522	ăn bộ bảy	-2.6394866
-1.2107522	bắt bộ bảy	-2.6394866
-1.7171259	<s> xe bảy	-2.937518
-1.2109432	ăn xe bảy	-2.6394866
-1.2109432	bắt xe bảy	-2.6394866
-1.7229214	<s> mã bảy	-2.6593275
-1.2107522	ăn mã bảy	-2.6394866
-1.2107522	bắt mã bảy	-2.6394866
-1.7171259	<s> pháo bảy	-2.937518
-1.2109432	ăn pháo bảy	-2.6394866
-1.2109432	bắt pháo bảy	-2.6394866
-1.9821758	<s> tốt bảy	-2.3667343
-1.2364213	ăn tốt bảy	-2.6394866
-1.2364213	bắt tốt bảy	-2.6394866
-1.2493274	trước giữa bảy	-3.0241337
-1.2493274	sau giữa bảy	-3.0241337
-1.2493274	trên giữa bảy	-3.0241337
-1.2493274	dưới giữa bảy	-3.0241337
-1.1679485	tốt giữa bảy	-2.5470123
-1.1679485	binh giữa bảy	-2.5470123
-1.1679485	chốt giữa bảy	-2.5470123
-1.9821758	<s> binh bảy	-2.3667343
-1.2364213	ăn binh bảy	-2.6394866
-1.2364213	bắt binh bảy	-2.6394866
-1.9821758	<s> chốt bảy	-2.3667343
-1.2364213	ăn chốt bảy	-2.6394866
-1.2364213	bắt chốt bảy	-2.6394866
-0.86341524	năm tiến bảy	-3.60206
-1.0101857	trước tiến bảy	-2.90309
-1.0832928	bốn tiến bảy	-3.1249387
-1.0101857	sau tiến bảy	-2.90309
-1.0101857	trái tiến bảy	-2.90309
-1.0101857	trên tiến bảy	-2.90309
-1.0101857	dưới tiến bảy	-2.90309
-1.0148762	sáu tiến bảy	-3.30103
-1.0101857	phải tiến bảy	-2.90309
-0.97485864	tượng tiến bảy	-2.1249387
-1.0645434	bảy tiến bảy	-3.1249387
-1.031375	một tiến bảy	-3.1249387
-1.0645434	ba tiến bảy	-3.1249387
-1.0382144	hai tiến bảy	-3.1249387
-0.96979785	tám tiến bảy	-3.30103
-0.80542326	chín tiến bảy	-3.60206
-0.97485864	tịnh tiến bảy	-2.1249387
-0.97485864	bộ tiến bảy	-2.1249387
-0.97485864	xe tiến bảy	-2.1249387
-0.97485864	mã tiến bảy	-2.1249387
-0.97485864	pháo tiến bảy	-2.1249387
-0.86341524	năm tấn bảy	-3.60206
-1.0101857	trước tấn bảy	-2.90309
-1.0832928	bốn tấn bảy	-3.1249387
-1.0101857	sau tấn bảy	-2.90309
-1.0101857	trái tấn bảy	-2.90309
-1.0101857	trên tấn bảy	-2.90309
-1.0101857	dưới tấn bảy	-2.90309
-1.0148762	sáu tấn bảy	-3.30103
-1.0101857	phải tấn bảy	-2.90309
-0.97485864	tượng tấn bảy	-2.1249387
-1.0645434	bảy tấn bảy	-3.1249387
-1.031375	một tấn bảy	-3.1249387
-1.0645434	ba tấn bảy	-3.1249387
-1.0382144	hai tấn bảy	-3.1249387
-0.96979785	tám tấn bảy	-3.30103
-0.80542326	chín tấn bảy	-3.60206
-0.97485864	tịnh tấn bảy	-2.1249387
-0.97485864	bộ tấn bảy	-2.1249387
-0.97485864	xe tấn bảy	-2.1249387
-0.97485864	mã tấn bảy	-2.1249387
-0.97485864	pháo tấn bảy	-2.1249387
-1.0205098	năm bình bảy	-3.1249387
-0.9651366	trước bình bảy	-2.8239088
-1.0057867	bốn bình bảy	-3.1249387
-0.9651366	sau bình bảy	-2.8239088
-0.9651366	trái bình bảy	-2.8239088
-0.9651366	trên bình bảy	-2.8239088
-0.9651366	dưới bình bảy	-2.8239088
-0.7756173	sáu bình bảy	-3.7269988
-0.9651366	phải bình bảy	-2.8239088
-0.9583619	một bình bảy	-3.1249387
-0.99054664	ba bình bảy	-3.1249387
-0.99054664	hai bình bảy	-3.1249387
-0.76037735	tám bình bảy	-3.7269988
-0.9583619	chín bình bảy	-3.1249387
-0.97255427	xe bình bảy	-2.1249387
-0.97255427	pháo bình bảy	-2.1249387
-0.97255427	tốt bình bảy	-2.1249387
-0.96026105	giữa bình bảy	-3.447158
-0.97255427	binh bình bảy	-2.1249387
-0.97255427	chốt bình bảy	-2.1249387
-0.8373576	năm thoái bảy	-3.60206
-0.9858351	trước thoái bảy	-2.90309
-1.056035	bốn thoái bảy	-3.1249387
-0.9858351	sau thoái bảy	-2.90309
-0.9858351	trái thoái bảy	-2.90309
-0.9858351	trên thoái bảy	-2.90309
-0.9858351	dưới thoái bảy	-2.90309
-0.9879201	sáu thoái bảy	-3.30103
-0.9858351	phải thoái bảy	-2.90309
-0.97061974	tượng thoái bảy	-2.1249387
-1.0361402	bảy thoái bảy	-3.1249387
-1.0008122	một thoái bảy	-3.1249387
-1.0361402	ba thoái bảy	-3.1249387
-1.0081114	hai thoái bảy	-3.1249387
-0.93999654	tám thoái bảy	-3.30103
-0.7757007	chín thoái bảy	-3.60206
-0.97061974	tịnh thoái bảy	-2.1249387
-0.97061974	bộ thoái bảy	-2.1249387
-0.97061974	xe thoái bảy	-2.1249387
-0.97061974	mã thoái bảy	-2.1249387
-0.97061974	pháo thoái bảy	-2.1249387
-0.8373576	năm lùi bảy	-3.60206
-0.9858351	trước lùi bảy	-2.90309
-1.056035	bốn lùi bảy	-3.1249387
-0.9858351	sau lùi bảy	-2.90309
-0.9858351	trái lùi bảy	-2.90309
-0.9858351	trên lùi bảy	-2.90309
-0.9858351	dưới lùi bảy	-2.90309
-0.9879201	sáu lùi bảy	-3.30103
-0.9858351	phải lùi bảy	-2.90309
-0.97061974	tượng lùi bảy	-2.1249387
-1.0361402	bảy lùi bảy	-3.1249387
-1.0008122	một lùi bảy	-3.1249387
-1.0361402	ba lùi bảy	-3.1249387
-1.0081114	hai lùi bảy	-3.1249387
-0.93999654	tám lùi bảy	-3.30103
-0.7757007	chín lùi bảy	-3.60206
-0.97061974	tịnh lùi bảy	-2.1249387
-0.97061974	bộ lùi bảy	-2.1249387
-0.97061974	xe lùi bảy	-2.1249387
-0.97061974	mã lùi bảy	-2.1249387
-0.97061974	pháo lùi bảy	-2.1249387
-1.0147703	chiếu tướng một	-4.1112623
-1.1727424	tượng trước một	-2.4890206
-1.1727424	tịnh trước một	-2.4890206
-1.1727424	bộ trước một	-2.4890206
-1.1800838	xe trước một	-2.9378521
-1.1727424	mã trước một	-2.5740314
-1.1800838	pháo trước một	-2.9378521
-1.1871552	tốt trước một	-2.5228786
-1.1871552	binh trước một	-2.5228786
-1.1871552	chốt trước một	-2.5228786
-1.1727424	tượng sau một	-2.4890206
-1.1727424	tịnh sau một	-2.4890206
-1.1727424	bộ sau một	-2.4890206
-1.1800838	xe sau một	-2.9378521
-1.1727424	mã sau một	-2.5740314
-1.1800838	pháo sau một	-2.9378521
-1.1871552	tốt sau một	-2.5228786
-1.1871552	binh sau một	-2.5228786
-1.1871552	chốt sau một	-2.5228786
-1.1727424	tượng trên một	-2.4890206
-1.1727424	tịnh trên một	-2.4890206
-1.1727424	bộ trên một	-2.4890206
-1.1800838	xe trên một	-2.9378521
-1.1727424	mã trên một	-2.5740314
-1.1800838	pháo trên một	-2.9378521
-1.1871552	tốt trên một	-2.5228786
-1.1871552	binh trên một	-2.5228786
-1.1871552	chốt trên một	-2.5228786
-1.1727424	tượng dưới một	-2.4890206
-1.1727424	tịnh dưới một	-2.4890206
-1.1727424	bộ dưới một	-2.4890206
-1.1800838	xe dưới một	-2.9378521
-1.1727424	mã dưới một	-2.5740314
-1.1800838	pháo dưới một	-2.9378521
-1.1871552	tốt dưới một	-2.5228786
-1.1871552	binh dưới một	-2.5228786
-1.1871552	chốt dưới một	-2.5228786
-1.8981271	<s> tượng một	-2.3575718
-1.2107522	ăn tượng một	-2.6394866
-1.2107522	bắt tượng một	-2.6394866
-1.8981271	<s> tịnh một	-2.3575718
-1.2107522	ăn tịnh một	-2.6394866
-1.2107522	bắt tịnh một	-2.6394866
-1.8981271	<s> bộ một	-2.3575718
-1.2107522	ăn bộ một	-2.6394866
-1.2107522	bắt bộ một	-2.6394866
-1.7171259	<s> xe một	-2.937518
-1.2109432	ăn xe một	-2.6394866
-1.2109432	bắt xe một	-2.6394866
-1.8993763	<s> mã một	-2.4828737
-1.2107522	ăn mã một	-2.6394866
-1.2107522	bắt mã một	-2.6394866
-1.7171259	<s> pháo một	-2.937518
-1.2109432	ăn pháo một	-2.6394866
-1.2109432	bắt pháo một	-2.6394866
-2.014457	<s> tốt một	-2.3344538
-1.2364213	ăn tốt một	-2.6394866
-1.2364213	bắt tốt một	-2.6394866
-1.2493274	trước giữa một	-3
-1.2493274	sau giữa một	-3
-1.2493274	trên giữa một	-3
-1.2493274	dưới giữa một	-3
-1.1679485	tốt giữa một	-2.5228786
-1.1679485	binh giữa một	-2.5228786
-1.1679485	chốt giữa một	-2.5228786
-2.014457	<s> binh một	-2.3344538
-1.2364213	ăn binh một	-2.6394866
-1.2364213	bắt binh một	-2.6394866
-2.014457	<s> chốt một	-2.3344538
-1.2364213	ăn chốt một	-2.6394866
-1.2364213	bắt chốt một	-2.6394866
-0.24752453	tướng tiến một	-2.1249387
-0.7684877	năm tiến một	-3.748188
-0.8110712	trước tiến một	-3.0791812
-0.76241356	bốn tiến một	-3.748188
-0.8110712	sau tiến một	-3.0791812
-0.8110712	trái tiến một	-3.0791812
-0.8110712	trên tiến một	-3.0791812
-0.8110712	dưới tiến một	-3.0791812
-0.76241356	sáu tiến một	-3.748188
-0.8110712	phải tiến một	-3.0791812
-0.91681504	tượng tiến một	-2.1249387
-0.82093817	bảy tiến một	-3.7269988
-0.7877698	một tiến một	-3.7269988
-0.67808473	ba tiến một	-3.90309
-0.7542558	hai tiến một	-3.7781513
-0.79460925	tám tiến một	-3.7269988
-0.7877698	chín tiến một	-3.7269988
-0.91681504	tịnh tiến một	-2.1249387
-0.91681504	bộ tiến một	-2.1249387
-0.91681504	xe tiến một	-2.1249387
-0.91681504	mã tiến một	-2.1249387
-0.91681504	pháo tiến một	-2.1249387
-0.24752453	tốt tiến một	-2.1249387
-0.06793979	giữa tiến một	-3.447158
-0.24752453	binh tiến một	-2.1249387
-0.24752453	chốt tiến một	-2.1249387
-0.24752453	soái tiến một	-2.1249387
-0.24752453	tướng tấn một	-2.1249387
-0.7684877	năm tấn một	-3.748188
-0.8110712	trước tấn một	-3.0791812
-0.76241356	bốn tấn một	-3.748188
-0.8110712	sau tấn một	-3.0791812
-0.8110712	trái tấn một	-3.0791812
-0.8110712	trên tấn một	-3.0791812
-0.8110712	dưới tấn một	-3.0791812
-0.76241356	sáu tấn một	-3.748188
-0.8110712	phải tấn một	-3.0791812
-0.91681504	tượng tấn một	-2.1249387
-0.82093817	bảy tấn một	-3.7269988
-0.7877698	một tấn một	-3.7269988
-0.67808473	ba tấn một	-3.90309
-0.7542558	hai tấn một	-3.7781513
-0.79460925	tám tấn một	-3.7269988
-0.7877698	chín tấn một	-3.7269988
-0.91681504	tịnh tấn một	-2.1249387
-0.91681504	bộ tấn một	-2.1249387
-0.91681504	xe tấn một	-2.1249387
-0.91681504	mã tấn một	-2.1249387
-0.91681504	pháo tấn một	-2.1249387
-0.24752453	tốt tấn một	-2.1249387
-0.06793979	giữa tấn một	-3.447158
-0.24752453	binh tấn một	-2.1249387
-0.24752453	chốt tấn một	-2.1249387
-0.24752453	soái tấn một	-2.1249387
-1.0205098	năm bình một	-3.1249387
-0.9651366	trước bình một	-2.8239088
-1.0057867	bốn bình một	-3.1249387
-0.9651366	sau bình một	-2.8239088
-0.9651366	trái bình một	-2.8239088
-0.9651366	trên bình một	-2.8239088
-0.9651366	dưới bình một	-2.8239088
-1.0057867	sáu bình một	-3.1249387
-0.9651366	phải bình một	-2.8239088
-0.99054664	bảy bình một	-3.1249387
-0.99054664	ba bình một	-3.1249387
-0.76037735	hai bình một	-3.7269988
-0.99054664	tám bình một	-3.1249387
-0.9583619	chín bình một	-3.1249387
-0.97255427	xe bình một	-2.1249387
-0.97255427	pháo bình một	-2.1249387
-0.97255427	tốt bình một	-2.1249387
-0.96026105	giữa bình một	-3.447158
-0.97255427	binh bình một	-2.1249387
-0.97255427	chốt bình một	-2.1249387
-0.25445822	tướng thoái một	-2.1249387
-0.92789334	năm thoái một	-3.20412
-0.9756907	trước thoái một	-2.90309
-0.92145926	bốn thoái một	-3.20412
-0.9756907	sau thoái một	-2.90309
-0.9756907	trái thoái một	-2.90309
-0.9756907	trên thoái một	-2.90309
-0.9756907	dưới thoái một	-2.90309
-0.92145926	sáu thoái một	-3.20412
-0.9756907	phải thoái một	-2.90309
-0.95018613	tượng thoái một	-2.1249387
-1.0259959	bảy thoái một	-3.1249387
-0.9906678	một thoái một	-3.1249387
-0.80495906	ba thoái một	-3.60206
-0.9313101	hai thoái một	-3.30103
-0.99796706	tám thoái một	-3.1249387
-0.9906678	chín thoái một	-3.1249387
-0.95018613	tịnh thoái một	-2.1249387
-0.95018613	bộ thoái một	-2.1249387
-0.95018613	xe thoái một	-2.1249387
-0.95018613	mã thoái một	-2.1249387
-0.95018613	pháo thoái một	-2.1249387
-0.25445822	soái thoái một	-2.1249387
-0.25445822	tướng lùi một	-2.1249387
-0.92789334	năm lùi một	-3.20412
-0.9756907	trước lùi một	-2.90309
-0.92145926	bốn lùi một	-3.20412
-0.9756907	sau lùi một	-2.90309
-0.9756907	trái lùi một	-2.90309
-0.9756907	trên lùi một	-2.90309
-0.9756907	dưới lùi một	-2.90309
-0.92145926	sáu lùi một	-3.20412
-0.9756907	phải lùi một	-2.90309
-0.95018613	tượng lùi một	-2.1249387
-1.0259959	bảy lùi một	-3.1249387
-0.9906678	một lùi một	-3.1249387
-0.80495906	ba lùi một	-3.60206
-0.9313101	hai lùi một	-3.30103
-0.99796706	tám lùi một	-3.1249387
-0.9906678	chín lùi một	-3.1249387
-0.95018613	tịnh lùi một	-2.1249387
-0.95018613	bộ lùi một	-2.1249387
-0.95018613	xe lùi một	-2.1249387
-0.95018613	mã lùi một	-2.1249387
-0.95018613	pháo lùi một	-2.1249387
-0.25445822	soái lùi một	-2.1249387
-1.0147703	chiếu tướng ba	-4.1112623
-1.1727424	tượng trước ba	-2.5740314
-1.1727424	tịnh trước ba	-2.5740314
-1.1727424	bộ trước ba	-2.5740314
-1.1800838	xe trước ba	-2.9378521
-1.1727424	mã trước ba	-2.7061486
-1.1800838	pháo trước ba	-2.9378521
-1.1871552	tốt trước ba	-2.5470123
-1.1871552	binh trước ba	-2.5470123
-1.1871552	chốt trước ba	-2.5470123
-1.1727424	tượng sau ba	-2.5740314
-1.1727424	tịnh sau ba	-2.5740314
-1.1727424	bộ sau ba	-2.5740314
-1.1800838	xe sau ba	-2.9378521
-1.1727424	mã sau ba	-2.7061486
-1.1800838	pháo sau ba	-2.9378521
-1.1871552	tốt sau ba	-2.5470123
-1.1871552	binh sau ba	-2.5470123
-1.1871552	chốt sau ba	-2.5470123
-1.1727424	tượng trên ba	-2.5740314
-1.1727424	tịnh trên ba	-2.5740314
-1.1727424	bộ trên ba	-2.5740314
-1.1800838	xe trên ba	-2.9378521
-1.1727424	mã trên ba	-2.7061486
-1.1800838	pháo trên ba	-2.9378521
-1.1871552	tốt trên ba	-2.5470123
-1.1871552	binh trên ba	-2.5470123
-1.1871552	chốt trên ba	-2.5470123
-1.1727424	tượng dưới ba	-2.5740314
-1.1727424	tịnh dưới ba	-2.5740314
-1.1727424	bộ dưới ba	-2.5740314
-1.1800838	xe dưới ba	-2.9378521
-1.1727424	mã dưới ba	-2.7061486
-1.1800838	pháo dưới ba	-2.9378521
-1.1871552	tốt dưới ba	-2.5470123
-1.1871552	binh dưới ba	-2.5470123
-1.1871552	chốt dưới ba	-2.5470123
-1.7728244	<s> tượng ba	-2.4828737
-1.2107522	ăn tượng ba	-2.6394866
-1.2107522	bắt tượng ba	-2.6394866
-1.7728244	<s> tịnh ba	-2.4828737
-1.2107522	ăn tịnh ba	-2.6394866
-1.2107522	bắt tịnh ba	-2.6394866
-1.7728244	<s> bộ ba	-2.4828737
-1.2107522	ăn bộ ba	-2.6394866
-1.2107522	bắt bộ ba	-2.6394866
-1.7171259	<s> xe ba	-2.937518
-1.2109432	ăn xe ba	-2.6394866
-1.2109432	bắt xe ba	-2.6394866
-1.7229214	<s> mã ba	-2.6593275
-1.2107522	ăn mã ba	-2.6394866
-1.2107522	bắt mã ba	-2.6394866
-1.7171259	<s> pháo ba	-2.937518
-1.2109432	ăn pháo ba	-2.6394866
-1.2109432	bắt pháo ba	-2.6394866
-1.9821758	<s> tốt ba	-2.3667343
-1.2364213	ăn tốt ba	-2.6394866
-1.2364213	bắt tốt ba	-2.6394866
-1.2493274	trước giữa ba	-3.0241337
-1.2493274	sau giữa ba	-3.0241337
-1.2493274	trên giữa ba	-3.0241337
-1.2493274	dưới giữa ba	-3.0241337
-1.1679485	tốt giữa ba	-2.5470123
-1.1679485	binh giữa ba	-2.5470123
-1.1679485	chốt giữa ba	-2.5470123
-1.9821758	<s> binh ba	-2.3667343
-1.2364213	ăn binh ba	-2.6394866
-1.2364213	bắt binh ba	-2.6394866
-1.9821758	<s> chốt ba	-2.3667343
-1.2364213	ăn chốt ba	-2.6394866
-1.2364213	bắt chốt ba	-2.6394866
-0.86341524	năm tiến ba	-3.60206
-1.0101857	trước tiến ba	-2.90309
-1.0148762	bốn tiến ba	-3.30103
-1.0101857	sau tiến ba	-2.90309
-1.0101857	trái tiến ba	-2.90309
-1.0101857	trên tiến ba	-2.90309
-1.0101857	dưới tiến ba	-2.90309
-1.0832928	sáu tiến ba	-3.1249387
-1.0101857	phải tiến ba	-2.90309
-0.97485864	tượng tiến ba	-2.1249387
-1.0645434	bảy tiến ba	-3.1249387
-0.80542326	một tiến ba	-3.60206
-1.0645434	ba tiến ba	-3.1249387
-0.96979785	hai tiến ba	-3.30103
-1.0382144	tám tiến ba	-3.1249387
-1.031375	chín tiến ba	-3.1249387
-0.97485864	tịnh tiến ba	-2.1249387
-0.97485864	bộ tiến ba	-2.1249387
-0.97485864	xe tiến ba	-2.1249387
-0.97485864	mã tiến ba	-2.1249387
-0.97485864	pháo tiến ba	-2.1249387
-0.86341524	năm tấn ba	-3.60206
-1.0101857	trước tấn ba	-2.90309
-1.0148762	bốn tấn ba	-3.30103
-1.0101857	sau tấn ba	-2.90309
-1.0101857	trái tấn ba	-2.90309
-1.0101857	trên tấn ba	-2.90309
-1.0101857	dưới tấn ba	-2.90309
-1.0832928	sáu tấn ba	-3.1249387
-1.0101857	phải tấn ba	-2.90309
-0.97485864	tượng tấn ba	-2.1249387
-1.0645434	bảy tấn ba	-3.1249387
-0.80542326	một tấn ba	-3.60206
-1.0645434	ba tấn ba	-3.1249387
-0.96979785	hai tấn ba	-3.30103
-1.0382144	tám tấn ba	-3.1249387
-1.031375	chín tấn ba	-3.1249387
-0.97485864	tịnh tấn ba	-2.1249387
-0.97485864	bộ tấn ba	-2.1249387
-0.97485864	xe tấn ba	-2.1249387
-0.97485864	mã tấn ba	-2.1249387
-0.97485864	pháo tấn ba	-2.1249387
-1.0205098	năm bình ba	-3.1249387
-0.9651366	trước bình ba	-2.8239088
-0.7756173	bốn bình ba	-3.7269988
-0.9651366	sau bình ba	-2.8239088
-0.9651366	trái bình ba	-2.8239088
-0.9651366	trên bình ba	-2.8239088
-0.9651366	dưới bình ba	-2.8239088
-1.0057867	sáu bình ba	-3.1249387
-0.9651366	phải bình ba	-2.8239088
-0.99054664	bảy bình ba	-3.1249387
-0.9583619	một bình ba	-3.1249387
-0.76037735	hai bình ba	-3.7269988
-0.99054664	tám bình ba	-3.1249387
-0.9583619	chín bình ba	-3.1249387
-0.97255427	xe bình ba	-2.1249387
-0.97255427	pháo bình ba	-2.1249387
-0.97255427	tốt bình ba	-2.1249387
-0.96026105	giữa bình ba	-3.447158
-0.97255427	binh bình ba	-2.1249387
-0.97255427	chốt bình ba	-2.1249387
-0.8373576	năm thoái ba	-3.60206
-0.9858351	trước thoái ba	-2.90309
-0.9879201	bốn thoái ba	-3.30103
-0.9858351	sau thoái ba	-2.90309
-0.9858351	trái thoái ba	-2.90309
-0.9858351	trên thoái ba	-2.90309
-0.9858351	dưới thoái ba	-2.90309
-1.056035	sáu thoái ba	-3.1249387
-0.9858351	phải thoái ba	-2.90309
-0.97061974	tượng thoái ba	-2.1249387
-1.0361402	bảy thoái ba	-3.1249387
-0.7757007	một thoái ba	-3.60206
-1.0361402	ba thoái ba	-3.1249387
-0.93999654	hai thoái ba	-3.30103
-1.0081114	tám thoái ba	-3.1249387
-1.0008122	chín thoái ba	-3.1249387
-0.97061974	tịnh thoái ba	-2.1249387
-0.97061974	bộ thoái ba	-2.1249387
-0.97061974	xe thoái ba	-2.1249387
-0.97061974	mã thoái ba	-2.1249387
-0.97061974	pháo thoái ba	-2.1249387
-0.8373576	năm lùi ba	-3.60206
-0.9858351	trước lùi ba	-2.90309
-0.9879201	bốn lùi ba	-3.30103
-0.9858351	sau lùi ba	-2.90309
-0.9858351	trái lùi ba	-2.90309
-0.9858351	trên lùi ba	-2.90309
-0.9858351	dưới lùi ba	-2.90309
-1.056035	sáu lùi ba	-3.1249387
-0.9858351	phải lùi ba	-2.90309
-0.97061974	tượng lùi ba	-2.1249387
-1.0361402	bảy lùi ba	-3.1249387
-0.7757007	một lùi ba	-3.60206
-1.0361402	ba lùi ba	-3.1249387
-0.93999654	hai lùi ba	-3.30103
-1.0081114	tám lùi ba	-3.1249387
-1.0008122	chín lùi ba	-3.1249387
-0.97061974	tịnh lùi ba	-2.1249387
-0.97061974	bộ lùi ba	-2.1249387
-0.97061974	xe lùi ba	-2.1249387
-0.97061974	mã lùi ba	-2.1249387
-0.97061974	pháo lùi ba	-2.1249387
-1.0147703	chiếu tướng hai	-4.1112623
-1.1727424	tượng trước hai	-2.4890206
-1.1727424	tịnh trước hai	-2.4890206
-1.1727424	bộ trước hai	-2.4890206
-1.1800838	xe trước hai	-2.9378521
-1.1727424	mã trước hai	-2.6450946
-1.1800838	pháo trước hai	-2.9378521
-1.1871552	tốt trước hai	-2.5470123
-1.1871552	binh trước hai	-2.5470123
-1.1871552	chốt trước hai	-2.5470123
-1.1727424	tượng sau hai	-2.4890206
-1.1727424	tịnh sau hai	-2.4890206
-1.1727424	bộ sau hai	-2.4890206
-1.1800838	xe sau hai	-2.9378521
-1.1727424	mã sau hai	-2.6450946
-1.1800838	pháo sau hai	-2.9378521
-1.1871552	tốt sau hai	-2.5470123
-1.1871552	binh sau hai	-2.5470123
-1.1871552	chốt sau hai	-2.5470123
-1.1727424	tượng trên hai	-2.4890206
-1.1727424	tịnh trên hai	-2.4890206
-1.1727424	bộ trên hai	-2.4890206
-1.1800838	xe trên hai	-2.9378521
-1.1727424	mã trên hai	-2.6450946
-1.1800838	pháo trên hai	-2.9378521
-1.1871552	tốt trên hai	-2.5470123
-1.1871552	binh trên hai	-2.5470123
-1.1871552	chốt trên hai	-2.5470123
-1.1727424	tượng dưới hai	-2.4890206
-1.1727424	tịnh dưới hai	-2.4890206
-1.1727424	bộ dưới hai	-2.4890206
-1.1800838	xe dưới hai	-2.9378521
-1.1727424	mã dưới hai	-2.6450946
-1.1800838	pháo dưới hai	-2.9378521
-1.1871552	tốt dưới hai	-2.5470123
-1.1871552	binh dưới hai	-2.5470123
-1.1871552	chốt dưới hai	-2.5470123
-1.8981271	<s> tượng hai	-2.3575718
-1.2107522	ăn tượng hai	-2.6394866
-1.2107522	bắt tượng hai	-2.6394866
-1.8981271	<s> tịnh hai	-2.3575718
-1.2107522	ăn tịnh hai	-2.6394866
-1.2107522	bắt tịnh hai	-2.6394866
-1.8981271	<s> bộ hai	-2.3575718
-1.2107522	ăn bộ hai	-2.6394866
-1.2107522	bắt bộ hai	-2.6394866
-1.7171259	<s> xe hai	-2.937518
-1.2109432	ăn xe hai	-2.6394866
-1.2109432	bắt xe hai	-2.6394866
-1.802248	<s> mã hai	-2.5800014
-1.2107522	ăn mã hai	-2.6394866
-1.2107522	bắt mã hai	-2.6394866
-1.7171259	<s> pháo hai	-2.937518
-1.2109432	ăn pháo hai	-2.6394866
-1.2109432	bắt pháo hai	-2.6394866
-1.9821758	<s> tốt hai	-2.3667343
-1.2364213	ăn tốt hai	-2.6394866
-1.2364213	bắt tốt hai	-2.6394866
-1.2493274	trước giữa hai	-3.0241337
-1.2493274	sau giữa hai	-3.0241337
-1.2493274	trên giữa hai	-3.0241337
-1.2493274	dưới giữa hai	-3.0241337
-1.1679485	tốt giữa hai	-2.5470123
-1.1679485	binh giữa hai	-2.5470123
-1.1679485	chốt giữa hai	-2.5470123
-1.9821758	<s> binh hai	-2.3667343
-1.2364213	ăn binh hai	-2.6394866
-1.2364213	bắt binh hai	-2.6394866
-1.9821758	<s> chốt hai	-2.3667343
-1.2364213	ăn chốt hai	-2.6394866
-1.2364213	bắt chốt hai	-2.6394866
-1.0893669	năm tiến hai	-3.1249387
-1.0101857	trước tiến hai	-2.90309
-0.85734105	bốn tiến hai	-3.60206
-1.0101857	sau tiến hai	-2.90309
-1.0101857	trái tiến hai	-2.90309
-1.0101857	trên tiến hai	-2.90309
-1.0101857	dưới tiến hai	-2.90309
-1.0832928	sáu tiến hai	-3.1249387
-1.0101857	phải tiến hai	-2.90309
-0.97485864	tượng tiến hai	-2.1249387
-1.0645434	bảy tiến hai	-3.1249387
-0.9629584	một tiến hai	-3.30103
-0.9961268	ba tiến hai	-3.30103
-1.0382144	hai tiến hai	-3.1249387
-1.0382144	tám tiến hai	-3.1249387
-1.031375	chín tiến hai	-3.1249387
-0.97485864	tịnh tiến hai	-2.1249387
-0.97485864	bộ tiến hai	-2.1249387
-0.97485864	xe tiến hai	-2.1249387
-0.97485864	mã tiến hai	-2.1249387
-0.97485864	pháo tiến hai	-2.1249387
-1.0893669	năm tấn hai	-3.1249387
-1.0101857	trước tấn hai	-2.90309
-0.85734105	bốn tấn hai	-3.60206
-1.0101857	sau tấn hai	-2.90309
-1.0101857	trái tấn hai	-2.90309
-1.0101857	trên tấn hai	-2.90309
-1.0101857	dưới tấn hai	-2.90309
-1.0832928	sáu tấn hai	-3.1249387
-1.0101857	phải tấn hai	-2.90309
-0.97485864	tượng tấn hai	-2.1249387
-1.0645434	bảy tấn hai	-3.1249387
-0.9629584	một tấn hai	-3.30103
-0.9961268	ba tấn hai	-3.30103
-1.0382144	hai tấn hai	-3.1249387
-1.0382144	tám tấn hai	-3.1249387
-1.031375	chín tấn hai	-3.1249387
-0.97485864	tịnh tấn hai	-2.1249387
-0.97485864	bộ tấn hai	-2.1249387
-0.97485864	xe tấn hai	-2.1249387
-0.97485864	mã tấn hai	-2.1249387
-0.97485864	pháo tấn hai	-2.1249387
-1.0205098	năm bình hai	-3.1249387
-0.9651366	trước bình hai	-2.8239088
-1.0057867	bốn bình hai	-3.1249387
-0.9651366	sau bình hai	-2.8239088
-0.9651366	trái bình hai	-2.8239088
-0.9651366	trên bình hai	-2.8239088
-0.9651366	dưới bình hai	-2.8239088
-1.0057867	sáu bình hai	-3.1249387
-0.9651366	phải bình hai	-2.8239088
-0.99054664	bảy bình hai	-3.1249387
-0.7281927	một bình hai	-3.7269988
-0.76037735	ba bình hai	-3.7269988
-0.99054664	tám bình hai	-3.1249387
-0.9583619	chín bình hai	-3.1249387
-0.97255427	xe bình hai	-2.1249387
-0.97255427	pháo bình hai	-2.1249387
-0.97255427	tốt bình hai	-2.1249387
-0.96026105	giữa bình hai	-3.447158
-0.97255427	binh bình hai	-2.1249387
-0.97255427	chốt bình hai	-2.1249387
-1.0624691	năm thoái hai	-3.1249387
-0.9858351	trước thoái hai	-2.90309
-0.8309235	bốn thoái hai	-3.60206
-0.9858351	sau thoái hai	-2.90309
-0.9858351	trái thoái hai	-2.90309
-0.9858351	trên thoái hai	-2.90309
-0.9858351	dưới thoái hai	-2.90309
-1.056035	sáu thoái hai	-3.1249387
-0.9858351	phải thoái hai	-2.90309
-0.97061974	tượng thoái hai	-2.1249387
-1.0361402	bảy thoái hai	-3.1249387
-0.9326973	một thoái hai	-3.30103
-0.9680253	ba thoái hai	-3.30103
-1.0081114	hai thoái hai	-3.1249387
-1.0081114	tám thoái hai	-3.1249387
-1.0008122	chín thoái hai	-3.1249387
-0.97061974	tịnh thoái hai	-2.1249387
-0.97061974	bộ thoái hai	-2.1249387
-0.97061974	xe thoái hai	-2.1249387
-0.97061974	mã thoái hai	-2.1249387
-0.97061974	pháo thoái hai	-2.1249387
-1.0624691	năm lùi hai	-3.1249387
-0.9858351	trước lùi hai	-2.90309
-0.8309235	bốn lùi hai	-3.60206
-0.9858351	sau lùi hai	-2.90309
-0.9858351	trái lùi hai	-2.90309
-0.9858351	trên lùi hai	-2.90309
-0.9858351	dưới lùi hai	-2.90309
-1.056035	sáu lùi hai	-3.1249387
-0.9858351	phải lùi hai	-2.90309
-0.97061974	tượng lùi hai	-2.1249387
-1.0361402	bảy lùi hai	-3.1249387
-0.9326973	một lùi hai	-3.30103
-0.9680253	ba lùi hai	-3.30103
-1.0081114	hai lùi hai	-3.1249387
-1.0081114	tám lùi hai	-3.1249387
-1.0008122	chín lùi hai	-3.1249387
-0.97061974	tịnh lùi hai	-2.1249387
-0.97061974	bộ lùi hai	-2.1249387
-0.97061974	xe lùi hai	-2.1249387
-0.97061974	mã lùi hai	-2.1249387
-0.97061974	pháo lùi hai	-2.1249387
-1.0147703	chiếu tướng tám	-4.1112623
-1.1727424	tượng trước tám	-2.4890206
-1.1727424	tịnh trước tám	-2.4890206
-1.1727424	bộ trước tám	-2.4890206
-1.1800838	xe trước tám	-2.9378521
-1.1727424	mã trước tám	-2.6450946
-1.1800838	pháo trước tám	-2.9378521
-1.1871552	tốt trước tám	-2.5470123
-1.1871552	binh trước tám	-2.5470123
-1.1871552	chốt trước tám	-2.5470123
-1.1727424	tượng sau tám	-2.4890206
-1.1727424	tịnh sau tám	-2.4890206
-1.1727424	bộ sau tám	-2.4890206
-1.1800838	xe sau tám	-2.9378521
-1.1727424	mã sau tám	-2.6450946
-1.1800838	pháo sau tám	-2.9378521
-1.1871552	tốt sau tám	-2.5470123
-1.1871552	binh sau tám	-2.5470123
-1.1871552	chốt sau tám	-2.5470123
-1.1727424	tượng trên tám	-2.4890206
-1.1727424	tịnh trên tám	-2.4890206
-1.1727424	bộ trên tám	-2.4890206
-1.1800838	xe trên tám	-2.9378521
-1.1727424	mã trên tám	-2.6450946
-1.1800838	pháo trên tám	-2.9378521
-1.1871552	tốt trên tám	-2.5470123
-1.1871552	binh trên tám	-2.5470123
-1.1871552	chốt trên tám	-2.5470123
-1.1727424	tượng dưới tám	-2.4890206
-1.1727424	tịnh dưới tám	-2.4890206
-1.1727424	bộ dưới tám	-2.4890206
-1.1800838	xe dưới tám	-2.9378521
-1.1727424	mã dưới tám	-2.6450946
-1.1800838	pháo dưới tám	-2.9378521
-1.1871552	tốt dưới tám	-2.5470123
-1.1871552	binh dưới tám	-2.5470123
-1.1871552	chốt dưới tám	-2.5470123
-1.8981271	<s> tượng tám	-2.3575718
-1.2107522	ăn tượng tám	-2.6394866
-1.2107522	bắt tượng tám	-2.6394866
-1.8981271	<s> tịnh tám	-2.3575718
-1.2107522	ăn tịnh tám	-2.6394866
-1.2107522	bắt tịnh tám	-2.6394866
-1.8981271	<s> bộ tám	-2.3575718
-1.2107522	ăn bộ tám	-2.6394866
-1.2107522	bắt bộ tám	-2.6394866
-1.7171259	<s> xe tám	-2.937518
-1.2109432	ăn xe tám	-2.6394866
-1.2109432	bắt xe tám	-2.6394866
-1.802248	<s> mã tám	-2.5800014
-1.2107522	ăn mã tám	-2.6394866
-1.2107522	bắt mã tám	-2.6394866
-1.7171259	<s> pháo tám	-2.937518
-1.2109432	ăn pháo tám	-2.6394866
-1.2109432	bắt pháo tám	-2.6394866
-1.9821758	<s> tốt tám	-2.3667343
-1.2364213	ăn tốt tám	-2.6394866
-1.2364213	bắt tốt tám	-2.6394866
-1.2493274	trước giữa tám	-3.0241337
-1.2493274	sau giữa tám	-3.0241337
-1.2493274	trên giữa tám	-3.0241337
-1.2493274	dưới giữa tám	-3.0241337
-1.1679485	tốt giữa tám	-2.5470123
-1.1679485	binh giữa tám	-2.5470123
-1.1679485	chốt giữa tám	-2.5470123
-1.9821758	<s> binh tám	-2.3667343
-1.2364213	ăn binh tám	-2.6394866
-1.2364213	bắt binh tám	-2.6394866
-1.9821758	<s> chốt tám	-2.3667343
-1.2364213	ăn chốt tám	-2.6394866
-1.2364213	bắt chốt tám	-2.6394866
-1.0893669	năm tiến tám	-3.1249387
-1.0101857	trước tiến tám	-2.90309
-1.0832928	bốn tiến tám	-3.1249387
-1.0101857	sau tiến tám	-2.90309
-1.0101857	trái tiến tám	-2.90309
-1.0101857	trên tiến tám	-2.90309
-1.0101857	dưới tiến tám	-2.90309
-0.85734105	sáu tiến tám	-3.60206
-1.0101857	phải tiến tám	-2.90309
-0.97485864	tượng tiến tám	-2.1249387
-0.9961268	bảy tiến tám	-3.30103
-1.031375	một tiến tám	-3.1249387
-1.0645434	ba tiến tám	-3.1249387
-1.0382144	hai tiến tám	-3.1249387
